2.9628876e-05	-0.16771144	0.010177909	0.083952665	-0.0028781681	0.011128397	-0.0009634108	-0.015678123	-0.0054650917	0.107494585	-0.043583717	0.010641168	0.083434045	-0.14416791	-0.057841975	-0.016222829	0.03329228	0.023724811	0.1447891	0.09784242	0.100343026	-0.13670678	-0.056162767	0.10197202	0.09208686	0.07669028	-0.120180525	-0.20176192	0.1277892	-0.11532341	-0.056454096	0.086476386	-0.102986276	0.058784135	-0.13514875	-0.017286183	-0.08999209	-0.08069513	-0.11881867	0.05614239	-0.14764358	0.0947699	0.1278925	0.032799818	-0.076687075	0.03563339	0.042580914	-0.054701224	0.09927987	0.031114647	0.004916052	0.06011011	-0.18604536	-0.019801188	-0.05165448	0.07510861	-0.09789355	-0.035102658	-0.032936152	0.15576255	-0.15481676	0.10065406	0.06523517	0.10395484	0.08543821	0.077883884	-0.07142329	0.19253573	-0.058133587	0.120380834	0.1764515	-0.03515214	0.039223727	0.032017305	-0.0877248	-0.15026313	-0.08778127	-0.08465086	0.052918416	0.034787443	0.045009565	0.06507384	-0.008190187	0.149172	-0.03754773	-0.12568296	0.03913719	0.015632259	0.07633724	-0.002513594	-0.02700881	0.07680346	0.01189823	-0.022007843	0.10044642	-0.092752084	0.06856122	-0.009013752	0.06798007	-0.07632201	0.1378184	0.017476957	-0.037168853	-0.004411585	-0.10546651	0.07725984	-0.079721585	0.14134617	-0.076808125	-0.06664489	-0.093554065	-0.044041406	0.089448795	-0.041651852	-0.12753735	-0.112246126	0.05591813	
***0.1***
--------------------------------------------------
-0.0010264247	-0.18127462	0.012773024	0.08405163	-0.0015909789	0.010604911	-0.00046387874	-0.014367178	-0.0034958115	0.10882314	-0.043115146	0.010726562	0.08362192	-0.14324962	-0.05692601	-0.015943896	0.035203822	0.022682456	0.14808051	0.10000598	0.1022213	-0.13468249	-0.051753394	0.10443397	0.093662955	0.08062149	-0.122353196	-0.19825836	0.13284726	-0.11067744	-0.052906558	0.08879252	-0.10140866	0.061916508	-0.13162881	-0.019100528	-0.087775715	-0.07606786	-0.11659668	0.005523065	-0.14367194	0.09547837	0.1286341	0.032751992	-0.0755046	0.03887196	0.04294777	-0.053743545	0.099915735	0.03237952	0.005841834	0.06152108	-0.1852471	-0.01889059	-0.05038903	0.07565582	-0.09640622	-0.034513313	-0.03176965	0.15606591	-0.15301384	0.1014138	0.06545517	0.10442615	0.08543372	0.077883966	-0.071684055	0.19284841	-0.0584095	0.12092172	0.17693098	-0.035599057	0.03931312	0.031487156	-0.088080645	-0.15002376	-0.088442616	-0.08420259	0.053065967	0.034529142	0.044782016	0.06442806	-0.00868653	0.14858155	-0.03852067	-0.12563713	0.038332853	0.0147077665	0.07613425	-0.0033229464	-0.027797705	0.07562983	0.011502214	-0.022661148	0.09942694	-0.093521744	0.06772955	-0.009651043	0.06711681	-0.07691657	0.13716194	0.016408551	-0.03826128	-0.0051359213	-0.10655429	0.07649325	-0.08014082	0.14064431	-0.077492125	-0.06732612	-0.09445251	-0.04483126	0.08872708	-0.042739067	-0.12798086	-0.11279996	0.055340465	
***0.09000000000000001***
--------------------------------------------------
-0.0017439008	-0.17517534	0.011829453	0.08393248	-0.0014251334	0.010299646	-0.00014325153	-0.014409014	-0.0037186705	0.1090297	-0.043223955	0.010433415	0.08367874	-0.14319149	-0.05645089	-0.016540112	0.035400007	0.02408364	0.1476713	0.10026194	0.102534935	-0.13416411	-0.054702975	0.10367198	0.09595502	0.07878377	-0.114848964	-0.19788536	0.13375635	-0.111981824	-0.052089266	0.08793721	-0.102207385	0.061836854	-0.13116446	-0.01674013	-0.08813519	-0.07567784	-0.11576794	0.0150726605	-0.14318524	0.095343865	0.12828755	0.032474294	-0.07521217	0.038809095	0.04282542	-0.053314906	0.09945633	0.032373823	0.005849931	0.061649095	-0.18530293	-0.019257633	-0.05051602	0.07526413	-0.09578157	-0.034434218	-0.031593714	0.15595147	-0.15310241	0.10159464	0.065457	0.10434986	0.08531421	0.07744898	-0.07195132	0.19267808	-0.05861609	0.12105045	0.1768457	-0.035958122	0.039284304	0.03112769	-0.08835033	-0.15012611	-0.08899826	-0.0839351	0.052996185	0.034272444	0.0444984	0.06394144	-0.009181527	0.14814095	-0.039122578	-0.1258783	0.037807416	0.014016947	0.075943485	-0.0039343536	-0.02838387	0.074895345	0.011178083	-0.023213744	0.098694466	-0.0940775	0.06705072	-0.01018487	0.0664758	-0.07738894	0.13665284	0.015689975	-0.039005935	-0.0056953	-0.10723407	0.075941354	-0.08047873	0.14008969	-0.07795914	-0.06785759	-0.095074095	-0.04543973	0.08818424	-0.043397326	-0.12832041	-0.11323826	0.054843698	
***0.08100000000000002***
--------------------------------------------------
-0.0023336755	-0.17400253	0.011544011	0.08370701	-0.0015654356	0.009939176	3.48006e-06	-0.0148225585	-0.0041203285	0.10902557	-0.04339738	0.010109162	0.08348149	-0.1433546	-0.056281187	-0.016839722	0.035457876	0.024520062	0.14792474	0.10025329	0.10287365	-0.13394298	-0.053552814	0.10355947	0.09685255	0.08067032	-0.11059654	-0.19716826	0.1342603	-0.111176625	-0.051221482	0.08787912	-0.10239206	0.0622287	-0.1307083	-0.015307899	-0.088216774	-0.075443864	-0.11569496	0.028243829	-0.1431951	0.09499508	0.12795334	0.032248322	-0.07528968	0.038715135	0.042660505	-0.05328437	0.09905082	0.032190245	0.005835421	0.06147321	-0.18556145	-0.019601047	-0.05069111	0.07488889	-0.095763095	-0.034574058	-0.031748742	0.15573245	-0.15328795	0.10151739	0.06535828	0.10404543	0.08512698	0.0770222	-0.07226009	0.19230403	-0.05881982	0.12095683	0.17654489	-0.03632817	0.039167535	0.030777475	-0.08870012	-0.15032783	-0.08945676	-0.08386177	0.05281657	0.03400435	0.04419175	0.063505195	-0.009616092	0.14773953	-0.03965624	-0.12615941	0.037338912	0.013450714	0.075742275	-0.0044512833	-0.028889034	0.07428428	0.010881673	-0.02367773	0.09810338	-0.09456332	0.066505596	-0.010637783	0.06594017	-0.07780775	0.13618462	0.015093732	-0.039611124	-0.0061773546	-0.107813224	0.075457215	-0.080794126	0.13961408	-0.078389846	-0.0683212	-0.09560612	-0.045951094	0.08771041	-0.04396725	-0.12864056	-0.11363322	0.054421045	
***0.07290000000000002***
--------------------------------------------------
-0.0027892792	-0.17353949	0.011495206	0.08357812	-0.0015927574	0.00969057	8.819336e-05	-0.015138643	-0.0043527656	0.10907139	-0.043470107	0.00991038	0.083312325	-0.14346711	-0.0561379	-0.016965779	0.03564609	0.024782678	0.1483272	0.1003679	0.10334697	-0.13364992	-0.053207807	0.103633806	0.09772926	0.081464246	-0.109197475	-0.1963625	0.13489361	-0.110222645	-0.050352857	0.088020645	-0.10244198	0.06273821	-0.13013133	-0.0143821305	-0.08808772	-0.075078845	-0.1157128	0.03742943	-0.14309035	0.09479109	0.12778817	0.03213213	-0.075344905	0.038786247	0.04259419	-0.053298127	0.09884232	0.03212876	0.005979515	0.061395466	-0.18568476	-0.0197575	-0.05068906	0.0746746	-0.09586059	-0.03470514	-0.031809226	0.15559952	-0.15333173	0.101421066	0.065255485	0.103804156	0.08496376	0.07671761	-0.07245968	0.1920036	-0.05900314	0.120909	0.17629316	-0.036605574	0.039039146	0.030547852	-0.08897528	-0.15043394	-0.08979756	-0.083862096	0.05266705	0.033771053	0.043978598	0.06314931	-0.009928726	0.14740354	-0.04007478	-0.1263227	0.036980882	0.013009526	0.07556184	-0.0048652003	-0.029295934	0.07381035	0.010622936	-0.02405095	0.09764461	-0.094952986	0.06609733	-0.0110052265	0.06551939	-0.07815148	0.13580675	0.014627053	-0.040080775	-0.006570652	-0.108260915	0.075065345	-0.08106337	0.13923271	-0.07874246	-0.06869336	-0.09602453	-0.04635601	0.08732835	-0.044409942	-0.12891448	-0.11396079	0.054074876	
***0.06561000000000002***
--------------------------------------------------
-0.0031134086	-0.1729436	0.012126919	0.08366311	-0.0012394444	0.009628099	0.0002404622	-0.01514673	-0.0041557415	0.10950776	-0.04326373	0.0100427475	0.083284095	-0.1432434	-0.05581285	-0.01666495	0.036259823	0.025280159	0.14935401	0.101000555	0.10419866	-0.133047	-0.051563174	0.10429256	0.09947617	0.08293131	-0.10557461	-0.19501095	0.13619013	-0.10808003	-0.048849434	0.08885255	-0.10192067	0.06385908	-0.12880468	-0.01336321	-0.08741166	-0.07392246	-0.1153888	0.012414504	-0.14237466	0.094936624	0.12809856	0.032253537	-0.075067505	0.03944255	0.042828847	-0.0531465	0.098999895	0.032494634	0.0063999062	0.061721798	-0.18556687	-0.019544493	-0.05039583	0.07477907	-0.095719166	-0.034604352	-0.031607233	0.15573476	-0.1528866	0.101550154	0.065251105	0.103755765	0.08490933	0.07665175	-0.072477736	0.19196337	-0.059160527	0.12102311	0.17627811	-0.036735177	0.038978867	0.030461576	-0.08908848	-0.15038235	-0.08996502	-0.083807416	0.052663546	0.033626217	0.043930758	0.06287992	-0.010089095	0.14713989	-0.040387794	-0.12630334	0.036736425	0.012696627	0.075429596	-0.0051703565	-0.029602066	0.07346147	0.010409078	-0.0243181	0.09731199	-0.09524263	0.0658322	-0.011272047	0.06521377	-0.0784084	0.13553531	0.014285369	-0.04042258	-0.0068667824	-0.10858154	0.07476962	-0.08127443	0.13895334	-0.07901349	-0.06896452	-0.09633021	-0.046647582	0.08704194	-0.04473723	-0.12913267	-0.114209205	0.05382015	
***0.05904900000000002***
--------------------------------------------------
-0.0033619443	-0.17150998	0.011745954	0.08371231	-0.0012036915	0.009611515	0.0003564977	-0.015304466	-0.004340741	0.10953119	-0.043214496	0.010005604	0.083308905	-0.14327633	-0.055593114	-0.016753957	0.036384787	0.025539983	0.14935909	0.10098153	0.10456771	-0.13272698	-0.05244249	0.10411501	0.099432945	0.083082944	-0.1051733	-0.19465172	0.13638645	-0.10855993	-0.04852403	0.08864906	-0.1021218	0.063967735	-0.12881525	-0.012945049	-0.08745832	-0.07419172	-0.11539501	0.01957738	-0.14256509	0.09487173	0.12795757	0.032332174	-0.075052895	0.03929615	0.042888053	-0.05305127	0.09891363	0.032447428	0.0066569955	0.06165763	-0.18552278	-0.019616257	-0.050307423	0.074715935	-0.095786355	-0.03464235	-0.031539142	0.15575324	-0.15298934	0.10150812	0.06521867	0.10368437	0.08486808	0.076521985	-0.07247132	0.19184591	-0.059274256	0.1211224	0.17617485	-0.03682089	0.038921524	0.030434405	-0.08916186	-0.15032351	-0.09010986	-0.08377235	0.05263446	0.033510182	0.043898866	0.06267851	-0.010210251	0.14694488	-0.04060805	-0.12629534	0.036571704	0.012450917	0.075333044	-0.0054046065	-0.02983158	0.073206194	0.010249668	-0.024536727	0.097058184	-0.09545906	0.06562674	-0.011488346	0.06498058	-0.07860694	0.13534024	0.01403087	-0.040678453	-0.007093974	-0.10882027	0.07455046	-0.08143476	0.13873693	-0.07920805	-0.06917516	-0.096558966	-0.04687524	0.08682618	-0.04497109	-0.12929426	-0.1144001	0.053615235	
***0.05314410000000002***
--------------------------------------------------
-0.003585772	-0.1719445	0.011557398	0.083663076	-0.001301776	0.0095059415	0.00040457834	-0.015586265	-0.004616031	0.10947351	-0.043253377	0.009881777	0.08321648	-0.14343016	-0.055499524	-0.016914632	0.03642739	0.025595305	0.14946644	0.10094595	0.10480285	-0.1325942	-0.052375816	0.10401193	0.09980922	0.08350769	-0.10354624	-0.19421642	0.13677129	-0.10806434	-0.048027955	0.088618904	-0.10228163	0.06416849	-0.12857775	-0.012643687	-0.08748577	-0.074158914	-0.11553008	0.027770096	-0.14265668	0.094675414	0.12774593	0.032270413	-0.075159565	0.039213665	0.042813227	-0.05310119	0.09872038	0.032323778	0.00674205	0.061517198	-0.18562864	-0.019767951	-0.05034865	0.07453944	-0.09597411	-0.03476174	-0.031618122	0.15567352	-0.15313593	0.10140013	0.06515303	0.10351698	0.08479073	0.07634594	-0.07254295	0.19162469	-0.05938217	0.12110619	0.17598647	-0.03694101	0.038833603	0.030366627	-0.08930241	-0.15035208	-0.09025747	-0.08381461	0.052555088	0.033387717	0.043814383	0.062492456	-0.010342071	0.14676513	-0.040815894	-0.12635086	0.036411624	0.012231367	0.075235225	-0.005614854	-0.030039553	0.072974786	0.010104269	-0.024730308	0.09683233	-0.09565778	0.065439	-0.011680352	0.064770445	-0.07878839	0.13515109	0.013800992	-0.040907834	-0.0072984225	-0.109040394	0.07434982	-0.081583984	0.13854104	-0.07939131	-0.06936765	-0.09676812	-0.04707999	0.08662946	-0.045189265	-0.12944564	-0.11457538	0.05343293	
***0.04782969000000002***
--------------------------------------------------
-0.003776506	-0.17149065	0.011804976	0.08367753	-0.0011828932	0.009444027	0.00046393342	-0.015712164	-0.004632639	0.10963867	-0.043183748	0.009889712	0.08315802	-0.14338835	-0.055340387	-0.016805474	0.036712874	0.025824657	0.14995691	0.101255834	0.10525962	-0.13230556	-0.051676776	0.10426285	0.10074491	0.08435044	-0.10231768	-0.19345869	0.13756844	-0.10690684	-0.047169913	0.089022525	-0.10207666	0.06475834	-0.12786932	-0.012051391	-0.087177604	-0.07363932	-0.1154602	0.019328235	-0.14237273	0.09466751	0.12782015	0.032299444	-0.075094335	0.039510153	0.042871896	-0.053081043	0.098712064	0.032448012	0.0069422745	0.061607454	-0.18561836	-0.019732073	-0.050237183	0.07449652	-0.09601356	-0.034779735	-0.031567395	0.15568721	-0.15301551	0.10139994	0.065116785	0.10342113	0.08473441	0.07624862	-0.0725741	0.19151407	-0.059484184	0.121137656	0.17589293	-0.03702743	0.038763247	0.030325444	-0.0893986	-0.15033534	-0.09036422	-0.08384228	0.052520923	0.033284698	0.043767493	0.06232881	-0.010437766	0.14660361	-0.040998034	-0.12635536	0.036276177	0.012045747	0.07514639	-0.005797443	-0.030222984	0.072772965	0.009968727	-0.024894107	0.09663716	-0.09583099	0.065285474	-0.0118445335	0.06458879	-0.07894662	0.13498557	0.013601222	-0.04110728	-0.0074781673	-0.10922789	0.07417269	-0.081717595	0.13837169	-0.079553865	-0.069532804	-0.09694875	-0.04725543	0.08645701	-0.04537888	-0.12958261	-0.114729084	0.05327516	
***0.043046721000000024***
--------------------------------------------------
-0.0039373892	-0.17125344	0.011569218	0.083653085	-0.0012366297	0.009376959	0.000490751	-0.015904266	-0.0048141535	0.109596066	-0.043209005	0.009799795	0.08310036	-0.14349411	-0.05525795	-0.01692099	0.03675377	0.025905788	0.15000825	0.101220705	0.1054765	-0.13214585	-0.051948868	0.10415982	0.10082787	0.084453635	-0.10184369	-0.1931664	0.1376807	-0.106915854	-0.046875283	0.08891523	-0.10219817	0.0648793	-0.12779331	-0.01196758	-0.08719966	-0.07370933	-0.115534015	0.02704339	-0.14247753	0.0945447	0.12767252	0.03227401	-0.07516276	0.039427333	0.04283019	-0.053103697	0.09858127	0.032361753	0.0070490194	0.061500072	-0.1856767	-0.019844897	-0.050259043	0.07437705	-0.096151106	-0.034877554	-0.031605307	0.15563361	-0.1531254	0.10130308	0.06505538	0.10329694	0.08467395	0.076111056	-0.072617814	0.19135103	-0.059566766	0.12113799	0.1757511	-0.037113372	0.038684744	0.030289058	-0.08950065	-0.1503451	-0.09047285	-0.083889045	0.052457236	0.03318774	0.043710854	0.062192462	-0.010530655	0.14647098	-0.041146003	-0.12638965	0.03616656	0.0118866265	0.07507101	-0.005950478	-0.0303744	0.07260743	0.009858595	-0.025037521	0.09647384	-0.0959751	0.06515202	-0.011986899	0.06443644	-0.07908031	0.13484828	0.013436483	-0.04127197	-0.0076280334	-0.10938472	0.07402685	-0.08182929	0.13822836	-0.079686955	-0.069673344	-0.097099476	-0.047404412	0.08631328	-0.04553419	-0.1296955	-0.1148588	0.05313986	
***0.03874204890000002***
--------------------------------------------------
-0.004076851	-0.17096141	0.011729384	0.08367333	-0.0011272592	0.009340068	0.0005345729	-0.015990233	-0.00482798	0.10972872	-0.04314674	0.009818334	0.08306511	-0.1434485	-0.05512258	-0.01681946	0.036984596	0.026109524	0.1503777	0.10147126	0.10584383	-0.13190378	-0.051498313	0.1043348	0.10150098	0.085117996	-0.10124815	-0.19258225	0.1382924	-0.10607483	-0.04620589	0.08921701	-0.10203203	0.06533608	-0.12726836	-0.011530429	-0.08695587	-0.073346876	-0.11547056	0.020590197	-0.14227462	0.09455196	0.1277336	0.03231408	-0.07510516	0.03965763	0.04288443	-0.05307964	0.09858202	0.032468047	0.007223605	0.061573654	-0.18565279	-0.019803682	-0.050163537	0.0743486	-0.09617895	-0.034889992	-0.03155064	0.1556528	-0.15303768	0.101303056	0.06502623	0.10322957	0.08463173	0.07603754	-0.07263117	0.19127144	-0.059645735	0.12117188	0.1756812	-0.037173063	0.038625296	0.030269695	-0.08957075	-0.15031922	-0.090547666	-0.08391851	0.052433185	0.033109028	0.0436813	0.06207083	-0.010594901	0.14634973	-0.04127937	-0.12638517	0.03607143	0.0117501095	0.075003	-0.006085708	-0.030510023	0.07245979	0.009754665	-0.025159208	0.096330374	-0.09610329	0.06504262	-0.0121091455	0.064302236	-0.07919853	0.13472594	0.013289944	-0.041418433	-0.0077618975	-0.109521315	0.07389542	-0.08193068	0.1381025	-0.07980749	-0.0697955	-0.09723222	-0.047533937	0.086185165	-0.045672722	-0.12979916	-0.11497397	0.053021412	
***0.03486784401000002***
--------------------------------------------------
-0.004194078	-0.17106345	0.01153191	0.0836631	-0.0011637147	0.0092949625	0.000557168	-0.016139898	-0.0049685426	0.10970387	-0.043155763	0.009758034	0.08302553	-0.14353172	-0.055048242	-0.016926216	0.037027523	0.026181921	0.1504305	0.10145309	0.10601898	-0.13176754	-0.051676776	0.10425149	0.101544514	0.08520417	-0.10021218	-0.19235449	0.13834637	-0.106025286	-0.0459834	0.08913364	-0.10212584	0.06544463	-0.12719585	-0.011549736	-0.08696274	-0.07338068	-0.11552161	0.025666706	-0.14235835	0.09445982	0.12762645	0.032299265	-0.07515071	0.03960031	0.04285683	-0.05309172	0.09848334	0.032409094	0.007315815	0.06150085	-0.18569688	-0.019885948	-0.050186135	0.07426284	-0.09628434	-0.03496144	-0.031573538	0.1556184	-0.15311484	0.1012332	0.06498039	0.1031356	0.08458914	0.07593583	-0.072656326	0.19114949	-0.059709124	0.12118019	0.17557529	-0.037232704	0.038563922	0.030251719	-0.08964585	-0.15032029	-0.09062407	-0.08395847	0.052389015	0.03303662	0.04364513	0.06197	-0.010657809	0.14625093	-0.041387673	-0.12640499	0.03599494	0.0116341775	0.07494673	-0.006198039	-0.03062166	0.07233893	0.009671341	-0.02526463	0.09621117	-0.09620923	0.064948246	-0.012214059	0.064190865	-0.07929748	0.1346255	0.013169687	-0.041538484	-0.007872641	-0.10963562	0.07378791	-0.08201447	0.13799718	-0.07990605	-0.06989897	-0.09734255	-0.047643103	0.08607923	-0.045786116	-0.12988397	-0.11507028	0.052921567	
***0.03138105960900001***
--------------------------------------------------
-0.0042992383	-0.17101765	0.011569546	0.08367169	-0.0011036599	0.009262366	0.00058462925	-0.016233975	-0.005020308	0.1097787	-0.04312046	0.009758586	0.082992814	-0.14352436	-0.054951154	-0.016898265	0.03717461	0.02632767	0.15066177	0.101609915	0.10627183	-0.13159874	-0.05144552	0.10432217	0.10192979	0.08563451	-0.09910592	-0.1919604	0.13872534	-0.105479464	-0.04553365	0.08930169	-0.1020432	0.0657493	-0.1268618	-0.01132512	-0.086817205	-0.07316519	-0.115498364	0.022567216	-0.14226578	0.09444133	0.12764144	0.032319304	-0.07512709	0.039727625	0.042879425	-0.053083964	0.09845448	0.032462854	0.0074347123	0.06153137	-0.18569762	-0.019881379	-0.05014833	0.074222386	-0.096331775	-0.03498662	-0.03154934	0.15562023	-0.15308563	0.1012163	0.064950466	0.1030689	0.08455273	0.075866766	-0.0726705	0.19107276	-0.059770197	0.121198855	0.17550564	-0.03728067	0.03851095	0.030238489	-0.08970596	-0.15030697	-0.09068311	-0.0839914	0.052363694	0.032973338	0.043619003	0.06187751	-0.010707447	0.14615865	-0.041487962	-0.1264092	0.035925176	0.011530782	0.07489355	-0.006300372	-0.03072412	0.07222809	0.009591523	-0.02535751	0.096103	-0.09630636	0.064866275	-0.012307413	0.064089306	-0.07938765	0.13453212	0.01305951	-0.0416486	-0.007974222	-0.10973845	0.07368849	-0.08209238	0.13790144	-0.079997286	-0.06999186	-0.09744281	-0.047741305	0.085981995	-0.045890212	-0.1299634	-0.115158275	0.05283095	
***0.028242953648100012***
--------------------------------------------------
-0.0043887477	-0.171253	0.011472271	0.08366947	-0.0011084279	0.009229717	0.0006035318	-0.016344473	-0.005112273	0.10978528	-0.04311485	0.009726397	0.08296206	-0.1435714	-0.054882657	-0.016950509	0.03723957	0.026408663	0.15075766	0.10164497	0.10643922	-0.13147445	-0.05146935	0.10429722	0.10206962	0.08580055	-0.09830516	-0.19172058	0.13886563	-0.10528682	-0.045277845	0.08930444	-0.10206652	0.06589745	-0.12672177	-0.011276066	-0.08677707	-0.07311559	-0.11551911	0.02457026	-0.14228445	0.09438418	0.12758818	0.03231485	-0.07514594	0.039733693	0.042868834	-0.05308848	0.098390326	0.032445557	0.0075192153	0.061499745	-0.18572444	-0.019927246	-0.050156485	0.07416413	-0.09640494	-0.035034	-0.031555966	0.1556018	-0.15312032	0.10117233	0.064916074	0.102996916	0.08451992	0.07579162	-0.07268645	0.19098406	-0.059821114	0.121209055	0.17542776	-0.037324812	0.038461324	0.030228006	-0.08976365	-0.15030375	-0.090738915	-0.08402525	0.052332755	0.03291675	0.04359355	0.061799355	-0.010752605	0.14608139	-0.041571625	-0.12642115	0.035867848	0.0114423735	0.07484891	-0.0063868514	-0.030810433	0.072135136	0.009525242	-0.025438052	0.09601159	-0.0963882	0.0647959	-0.01238789	0.06400351	-0.07946429	0.13445401	0.012967085	-0.041740883	-0.008059965	-0.10982578	0.07360513	-0.08215818	0.13782015	-0.080073915	-0.07007138	-0.097527616	-0.04782503	0.08589996	-0.045977473	-0.13003016	-0.11523301	0.052753814	
***0.025418658283290013***
--------------------------------------------------
-0.0044687744	-0.17138824	0.011444227	0.08367189	-0.0010834816	0.0092021	0.0006210147	-0.016432106	-0.0051753577	0.10981937	-0.043097932	0.009713779	0.08293431	-0.1435881	-0.054813042	-0.016959041	0.037328918	0.02650756	0.15089527	0.10172997	0.10661685	-0.1313509	-0.051386684	0.10431436	0.10228329	0.086055346	-0.09756308	-0.1914531	0.13908868	-0.104971126	-0.044976473	0.08937891	-0.10203906	0.0660888	-0.12652168	-0.0111592105	-0.086696506	-0.07300184	-0.115518674	0.024190314	-0.14225426	0.0943518	0.1275726	0.032321043	-0.07514434	0.039792564	0.04287213	-0.053088102	0.09834957	0.032461748	0.007604673	0.061499584	-0.18573678	-0.019944772	-0.050146695	0.07412095	-0.09645741	-0.035065595	-0.031549126	0.15559396	-0.15312444	0.101145506	0.06488756	0.10293683	0.08448986	0.075729445	-0.072699666	0.19091345	-0.0598682	0.12121996	0.17536385	-0.037363537	0.038415786	0.030219326	-0.08981444	-0.15029709	-0.09078649	-0.08405621	0.052308187	0.03286596	0.043571573	0.061728694	-0.010791451	0.14601098	-0.04164749	-0.12642898	0.03581635	0.011363325	0.074807644	-0.00646481	-0.03088831	0.072051294	0.009464052	-0.025509642	0.095929325	-0.09646214	0.06473375	-0.012459758	0.0639262	-0.07953337	0.13438278	0.012883683	-0.04182428	-0.008137442	-0.10990393	0.073529564	-0.08221809	0.13774695	-0.08014331	-0.070142515	-0.09760388	-0.047900014	0.08582579	-0.046056274	-0.13009103	-0.115300514	0.052684218	
***0.022876792454961013***
--------------------------------------------------
-0.0045384183	-0.17158818	0.011389618	0.08367282	-0.001074678	0.009177488	0.0006356809	-0.016515518	-0.00524087	0.10983626	-0.043087892	0.00969541	0.08291008	-0.14361589	-0.05475402	-0.016984187	0.037394322	0.026584571	0.1509936	0.10178133	0.1067634	-0.13124427	-0.05136391	0.10431126	0.102430575	0.08623121	-0.09699827	-0.19123863	0.13924152	-0.104756005	-0.04473978	0.089411125	-0.102036685	0.06623133	-0.1263775	-0.011089325	-0.08664398	-0.072931886	-0.11552671	0.02494245	-0.14224939	0.094313696	0.12754413	0.032321274	-0.07515147	0.039820537	0.0428683	-0.053089388	0.09830534	0.032461338	0.0076776138	0.061486058	-0.1857536	-0.019971779	-0.050147027	0.07407805	-0.0965104	-0.0350991	-0.031548604	0.15558298	-0.15314098	0.101115346	0.06486046	0.10288084	0.08446346	0.07567127	-0.07271122	0.19084641	-0.05990923	0.12122931	0.1753038	-0.037397757	0.03837468	0.03021292	-0.08986019	-0.15029241	-0.09082908	-0.084084764	0.05228492	0.032820854	0.043552298	0.06166723	-0.010825469	0.14594981	-0.0417131	-0.12643716	0.03577244	0.011294433	0.07477177	-0.006532586	-0.030955985	0.07197863	0.009410885	-0.025572406	0.09585784	-0.09652633	0.06467981	-0.012522669	0.063859	-0.07959361	0.13432111	0.012811414	-0.041896537	-0.008204843	-0.10997186	0.073463984	-0.08227033	0.1376832	-0.080203556	-0.07020464	-0.09767015	-0.047965374	0.08576131	-0.04612451	-0.13014403	-0.11535938	0.05262351	
***0.020589113209464913***
--------------------------------------------------
-0.0046000024	-0.17176068	0.0113449665	0.08367431	-0.0010635636	0.00915584	0.0006485611	-0.01658935	-0.0052984576	0.10985399	-0.043077547	0.009680951	0.08288829	-0.14363863	-0.054700166	-0.01700324	0.03745607	0.02665678	0.15108646	0.101833574	0.10689727	-0.1311477	-0.05133396	0.10431112	0.10256788	0.0863995	-0.09651589	-0.19104263	0.13938819	-0.10454728	-0.044521056	0.08944684	-0.10203083	0.06636322	-0.1262419	-0.011020551	-0.08659248	-0.07286242	-0.115532376	0.025419582	-0.14224099	0.09428106	0.12752146	0.03232202	-0.07515631	0.03985123	0.042865492	-0.05309017	0.09826707	0.032464202	0.007743972	0.061476838	-0.18576758	-0.019993428	-0.05014615	0.07404033	-0.096556656	-0.03512813	-0.03154686	0.15557408	-0.15315351	0.10108949	0.06483629	0.10283109	0.0844398	0.075619675	-0.07272133	0.19078726	-0.05994597	0.12123782	0.17525043	-0.037428055	0.03833734	0.030207908	-0.0899013	-0.15028764	-0.09086657	-0.08411089	0.052264422	0.03278061	0.043535363	0.06161265	-0.010855184	0.14589539	-0.04177129	-0.1264442	0.0357339	0.011233468	0.07473968	-0.006592674	-0.031015964	0.07191429	0.00936337	-0.025627937	0.095794536	-0.09658328	0.06463243	-0.012578384	0.06379947	-0.07964708	0.13426627	0.012747406	-0.041960564	-0.00826465	-0.11003193	0.07340579	-0.08231685	0.13762663	-0.080257036	-0.07025964	-0.09772885	-0.048023216	0.08570409	-0.046184972	-0.13019127	-0.11541165	0.052569598	
***0.01853020188851842***
--------------------------------------------------
-0.0046543917	-0.17192458	0.011301216	0.08367573	-0.001055062	0.009136615	0.00065972656	-0.016656172	-0.0053513437	0.10986818	-0.043068744	0.0096672755	0.08286883	-0.14366089	-0.05465214	-0.017022336	0.037509855	0.026720325	0.15116684	0.10187815	0.1070159	-0.13106135	-0.05131206	0.10430876	0.102685854	0.08654505	-0.09611515	-0.19086984	0.13951512	-0.104365274	-0.04432814	0.089475155	-0.10202806	0.06647777	-0.12612364	-0.010962807	-0.08654802	-0.07280299	-0.11553848	0.025969613	-0.1422359	0.0942505	0.1274996	0.0323216	-0.07516173	0.039876226	0.04286175	-0.05309101	0.09823182	0.032465108	0.0078031775	0.061467014	-0.18578096	-0.020014191	-0.05014676	0.07400589	-0.09659873	-0.035154853	-0.03154593	0.15556562	-0.15316628	0.10106549	0.06481429	0.10278617	0.08441867	0.07557307	-0.07273024	0.1907338	-0.059978664	0.12124541	0.17520215	-0.037455007	0.03830352	0.030204037	-0.08993827	-0.1502834	-0.09089992	-0.084134735	0.05224592	0.032744635	0.04352041	0.061564352	-0.010881327	0.1458472	-0.041822657	-0.12645067	0.035700224	0.011179582	0.07471115	-0.0066458103	-0.03106899	0.0718575	0.009321167	-0.025677107	0.09573859	-0.096633635	0.06459076	-0.012627725	0.06374684	-0.07969442	0.13421778	0.012690896	-0.042017113	-0.00831757	-0.110084966	0.07335432	-0.08235813	0.1375766	-0.08030432	-0.07030829	-0.09778072	-0.048074353	0.08565347	-0.046238348	-0.13023314	-0.115457945	0.05252184	
***0.01667718169966658***
--------------------------------------------------
-0.0047025713	-0.17207347	0.011260437	0.0836771	-0.001047802	0.009119502	0.0006694822	-0.016716434	-0.005399487	0.10988036	-0.043060917	0.009654899	0.082851335	-0.14368173	-0.054609105	-0.017040223	0.0375577	0.026777005	0.15123805	0.10191784	0.10712184	-0.13098395	-0.05129331	0.10430562	0.10278958	0.08667418	-0.09577429	-0.19071601	0.13962786	-0.104202054	-0.044155918	0.08949954	-0.102026574	0.06657894	-0.1260184	-0.010912516	-0.08650852	-0.07275023	-0.11554436	0.026499076	-0.14223212	0.09422244	0.12747945	0.03232052	-0.07516701	0.039897993	0.04285771	-0.05309185	0.09819979	0.032465447	0.007856174	0.06145775	-0.18579336	-0.020033205	-0.050148036	0.073974706	-0.09663666	-0.03517911	-0.031545352	0.15555784	-0.15317829	0.101043634	0.06479438	0.10274572	0.08439974	0.07553116	-0.07273815	0.19068576	-0.060007833	0.12125218	0.17515865	-0.03747903	0.038272906	0.030201022	-0.08997158	-0.15027952	-0.0909296	-0.084156446	0.05222928	0.03271245	0.043507166	0.061521474	-0.010904374	0.14580436	-0.04186818	-0.12645654	0.03567064	0.01113182	0.07468574	-0.0066929427	-0.031116009	0.071807206	0.009283571	-0.025720738	0.095689006	-0.09667828	0.06455399	-0.012671515	0.06370017	-0.079736464	0.13417472	0.012640831	-0.04206722	-0.008364538	-0.11013193	0.073308654	-0.082394846	0.13753219	-0.080346264	-0.07035146	-0.09782668	-0.04811969	0.08560855	-0.046285626	-0.13027039	-0.11549908	0.05247941	
***0.015009463529699923***
--------------------------------------------------
-0.004745327	-0.17220877	0.011222491	0.0836784	-0.0010417034	0.009104232	0.0006780272	-0.016770812	-0.005443308	0.10989076	-0.043054014	0.009643622	0.082835615	-0.14370121	-0.054570545	-0.017056964	0.0376002	0.026827443	0.1513011	0.10195304	0.107216425	-0.1309146	-0.051277336	0.104301944	0.10288111	0.086788714	-0.095481716	-0.19057883	0.13972804	-0.10405597	-0.044001974	0.08952048	-0.10202607	0.06666836	-0.1259247	-0.0108687	-0.08647346	-0.07270349	-0.11555	0.027006825	-0.14222941	0.09419667	0.1274609	0.032318924	-0.07517209	0.039916772	0.042853497	-0.053092692	0.09817067	0.032465287	0.00790361	0.061448954	-0.18580489	-0.020050691	-0.050149854	0.07394644	-0.09667089	-0.03520117	-0.031545117	0.15555069	-0.1531896	0.1010237	0.06477633	0.10270924	0.08438277	0.07549343	-0.07274516	0.19064249	-0.06003388	0.12125821	0.17511944	-0.03750049	0.03824522	0.03019866	-0.090001605	-0.15027604	-0.09095606	-0.08417618	0.05221429	0.03268363	0.043495394	0.061483357	-0.010924751	0.14576627	-0.041908573	-0.1264619	0.035644595	0.011089415	0.07466305	-0.0067348173	-0.031157773	0.07176256	0.0092500495	-0.025759516	0.09564499	-0.09671795	0.06452149	-0.012710444	0.06365873	-0.07977387	0.13413644	0.012596404	-0.04211169	-0.008406282	-0.11017359	0.07326807	-0.08242755	0.13749272	-0.08038355	-0.07038982	-0.09786749	-0.048159953	0.08556865	-0.04632758	-0.13030353	-0.11553567	0.052441657	
***0.013508517176729932***
--------------------------------------------------
