-0.023471065	-0.49655715	0.00482639	0.24959141	0.016879026	0.04390696	-0.0076460317	0.01677408	-0.06329012	0.35599592	
***0.1***
--------------------------------------------------
-0.032396764	-0.4673179	-0.0016183613	0.23763812	0.025012996	0.06420717	-0.015081524	0.027083235	-0.08905426	0.3485367	
***0.09000000000000001***
--------------------------------------------------
-0.037541084	-0.44968116	-0.006021	0.22939713	0.03151928	0.08052936	-0.017872307	0.035404082	-0.11089341	0.34216854	
***0.08100000000000002***
--------------------------------------------------
-0.041577823	-0.43678093	-0.008950034	0.22309123	0.036539894	0.0944003	-0.019288987	0.042205393	-0.12924606	0.33661634	
***0.07290000000000002***
--------------------------------------------------
-0.044863295	-0.4266581	-0.010972862	0.21802372	0.040510766	0.10637706	-0.020184116	0.04784227	-0.14485823	0.33179227	
***0.06561000000000002***
--------------------------------------------------
-0.047592804	-0.41840217	-0.012407211	0.213836	0.04373871	0.11681541	-0.020828776	0.05256172	-0.15828441	0.32757294	
***0.05904900000000002***
--------------------------------------------------
-0.049892254	-0.41150254	-0.013449034	0.2103188	0.046412952	0.12597235	-0.021335635	0.05653762	-0.16992398	0.32387105	
***0.05314410000000002***
--------------------------------------------------
-0.051849637	-0.40563717	-0.014219081	0.20733136	0.048666533	0.13404028	-0.021760749	0.05989289	-0.18006983	0.32061496	
***0.04782969000000002***
--------------------------------------------------
-0.05352686	-0.40059772	-0.014790249	0.20477384	0.05059767	0.14117564	-0.022131307	0.06272285	-0.18895695	0.3177425	
***0.043046721000000024***
--------------------------------------------------
-0.054975446	-0.39622474	-0.015217588	0.20256984	0.052269235	0.14750625	-0.022463467	0.06510103	-0.1967695	0.31521362	
***0.03874204890000002***
--------------------------------------------------
-0.056232188	-0.39240465	-0.015536506	0.20066252	0.053726587	0.15313387	-0.02276795	0.0670926	-0.20365496	0.3129901	
***0.03486784401000002***
--------------------------------------------------
-0.057327554	-0.38905215	-0.015773606	0.1990044	0.055010967	0.15814891	-0.023049703	0.06874903	-0.20974268	0.31104174	
***0.03138105960900001***
--------------------------------------------------
-0.058284823	-0.38609594	-0.015949355	0.19755922	0.056144856	0.16262282	-0.023312258	0.07011653	-0.21513341	0.30934185	
***0.028242953648100012***
--------------------------------------------------
-0.059125055	-0.38348275	-0.016076127	0.19629419	0.057152636	0.1666206	-0.023557471	0.07123732	-0.2199153	0.30786148	
***0.025418658283290013***
--------------------------------------------------
-0.059863616	-0.38116258	-0.016167868	0.19518538	0.058046803	0.17019613	-0.023787552	0.07214796	-0.2241659	0.3065807	
***0.022876792454961013***
--------------------------------------------------
-0.060515195	-0.379101	-0.016230965	0.19420978	0.058844164	0.17339739	-0.024002582	0.072876014	-0.22794689	0.30547872	
***0.020589113209464913***
--------------------------------------------------
-0.06109045	-0.3772649	-0.016272036	0.19335084	0.059556138	0.17626537	-0.02420329	0.073454484	-0.23131712	0.30453035	
***0.01853020188851842***
--------------------------------------------------
-0.0616001	-0.37562788	-0.016297268	0.1925924	0.0601906	0.17883569	-0.024389796	0.07390728	-0.23432218	0.30372074	
***0.01667718169966658***
--------------------------------------------------
-0.062051497	-0.37416515	-0.016310422	0.1919211	0.060756885	0.18114163	-0.024564229	0.074254565	-0.23700325	0.3030299	
***0.015009463529699923***
--------------------------------------------------
-0.062452674	-0.3728579	-0.01631477	0.1913269	0.06126192	0.18321104	-0.024725819	0.07451437	-0.23939922	0.30244565	
***0.013508517176729932***
--------------------------------------------------
