-0.0158295	-0.5087585	0.00833781	0.25320703	0.01320008	0.056250043	-0.020039937	-0.022860479	-0.04131225	0.374815	
***0.1***
--------------------------------------------------
-0.027000522	-0.47655174	0.00017347277	0.23959862	0.024274351	0.072660536	-0.023263061	-0.008136277	-0.07342486	0.36867884	
***0.09000000000000001***
--------------------------------------------------
-0.033374052	-0.45694843	-0.0044422024	0.23119785	0.031508107	0.08702377	-0.024247903	0.0025314193	-0.098166816	0.3619276	
***0.08100000000000002***
--------------------------------------------------
-0.037931334	-0.44260862	-0.0074101347	0.22486535	0.036754258	0.09960779	-0.024862371	0.011127197	-0.11838318	0.35585037	
***0.07290000000000002***
--------------------------------------------------
-0.041490056	-0.43137005	-0.009467827	0.21978422	0.04073389	0.11061925	-0.025317822	0.018289711	-0.13537161	0.35059974	
***0.06561000000000002***
--------------------------------------------------
-0.044397555	-0.42223075	-0.010950564	0.21557368	0.043853305	0.120285735	-0.02567811	0.024377521	-0.14988442	0.3460606	
***0.05904900000000002***
--------------------------------------------------
-0.04684395	-0.41462207	-0.012051026	0.21202393	0.04636057	0.12880558	-0.025963979	0.029622424	-0.16243064	0.3421085	
***0.05314410000000002***
--------------------------------------------------
-0.04893741	-0.40818697	-0.012882203	0.20898476	0.04841204	0.13634638	-0.026193783	0.03418198	-0.17335942	0.3386439	
***0.04782969000000002***
--------------------------------------------------
-0.050755408	-0.40268323	-0.013513738	0.20636396	0.05011967	0.1430425	-0.026376836	0.038175274	-0.18293749	0.3355745	
***0.043046721000000024***
--------------------------------------------------
-0.05234673	-0.3979365	-0.014002606	0.20408438	0.051557045	0.14900427	-0.02651687	0.041696507	-0.19136514	0.332835	
***0.03874204890000002***
--------------------------------------------------
-0.053747755	-0.39381155	-0.014380196	0.20208937	0.052787773	0.15432405	-0.026626334	0.04481518	-0.1988111	0.33037	
***0.03486784401000002***
--------------------------------------------------
-0.054991107	-0.39021152	-0.014676798	0.20033926	0.053854004	0.15908013	-0.026704265	0.04759117	-0.20540422	0.3281329	
***0.03138105960900001***
--------------------------------------------------
-0.056097213	-0.3870523	-0.014911059	0.19879772	0.054791488	0.16334192	-0.026761731	0.050073612	-0.21125682	0.3260838	
***0.028242953648100012***
--------------------------------------------------
-0.05708358	-0.3842717	-0.015097141	0.19743738	0.055625826	0.16716398	-0.026798705	0.052300327	-0.21646176	0.3241948	
***0.025418658283290013***
--------------------------------------------------
-0.057966866	-0.38181788	-0.01524522	0.1962322	0.056377698	0.17059611	-0.0268202	0.05430692	-0.2210922	0.3224388	
***0.022876792454961013***
--------------------------------------------------
-0.058757678	-0.37964603	-0.0153656835	0.19516583	0.057061948	0.17368089	-0.02682977	0.056117926	-0.22521903	0.32080093	
***0.020589113209464913***
--------------------------------------------------
-0.059467293	-0.37771866	-0.015461725	0.19421943	0.05769008	0.17645441	-0.026830386	0.057757054	-0.22889893	0.31926543	
***0.01853020188851842***
--------------------------------------------------
-0.060104623	-0.37600693	-0.015541396	0.19337896	0.05827277	0.17895074	-0.026823243	0.059245046	-0.23218179	0.31782	
***0.01667718169966658***
--------------------------------------------------
-0.06067731	-0.37448224	-0.015606775	0.19263199	0.058814734	0.18119755	-0.026810706	0.060596835	-0.23511328	0.31645864	
***0.015009463529699923***
--------------------------------------------------
-0.061192207	-0.3731232	-0.015661709	0.19196676	0.059320457	0.183222	-0.02679507	0.06182731	-0.23773119	0.3151763	
***0.013508517176729932***
--------------------------------------------------
