-0.019153869	-0.5035785	0.015453721	0.26374567	0.021967232	0.040300228	-0.00042591162	-0.031670187	-0.048590135	0.358961	
***0.1***
--------------------------------------------------
-0.028215673	-0.47371325	0.0066642626	0.24841635	0.030680737	0.05999403	-0.005378397	-0.015981868	-0.07769181	0.3522351	
***0.09000000000000001***
--------------------------------------------------
-0.034208275	-0.4547197	0.0018951261	0.23834793	0.036605112	0.07698441	-0.0078081386	-0.0045977957	-0.10119294	0.34570372	
***0.08100000000000002***
--------------------------------------------------
-0.03876255	-0.44094664	-0.0014072512	0.23080675	0.041053955	0.09146835	-0.009088468	0.0046894383	-0.12077309	0.3399689	
***0.07290000000000002***
--------------------------------------------------
-0.04241086	-0.4302071	-0.0038968145	0.22477943	0.0445273	0.10395661	-0.009931482	0.012538794	-0.13741018	0.33506382	
***0.06561000000000002***
--------------------------------------------------
-0.045418326	-0.42148352	-0.005857615	0.21980515	0.047304623	0.11480461	-0.010602959	0.01929331	-0.15172206	0.33088627	
***0.05904900000000002***
--------------------------------------------------
-0.047946826	-0.41421434	-0.007437864	0.21562208	0.04957253	0.12428628	-0.011212639	0.025174763	-0.16413958	0.32730496	
***0.05314410000000002***
--------------------------------------------------
-0.050097525	-0.40804538	-0.008732526	0.21206024	0.05145065	0.13261239	-0.011819823	0.030340351	-0.17497721	0.3242183	
***0.04782969000000002***
--------------------------------------------------
-0.05194803	-0.4027463	-0.00980483	0.20900196	0.05303103	0.13995108	-0.012444056	0.0349018	-0.18447785	0.32154462	
***0.043046721000000024***
--------------------------------------------------
-0.05354766	-0.39814907	-0.010699489	0.20635946	0.054376025	0.14643812	-0.013093956	0.038945787	-0.1928335	0.31921363	
***0.03874204890000002***
--------------------------------------------------
-0.05494187	-0.39413485	-0.011450334	0.20406397	0.055533756	0.15218994	-0.013765518	0.042545073	-0.20020324	0.31717238	
***0.03486784401000002***
--------------------------------------------------
-0.056159742	-0.39060798	-0.012084302	0.20206216	0.05653996	0.15730354	-0.014454014	0.045752697	-0.20671612	0.31537312	
***0.03138105960900001***
--------------------------------------------------
-0.057228472	-0.38749698	-0.012620135	0.20031027	0.05742467	0.16185613	-0.015151905	0.04861951	-0.21248373	0.31378004	
***0.028242953648100012***
--------------------------------------------------
-0.058168974	-0.38474426	-0.013075763	0.19877133	0.05820573	0.16591872	-0.015851367	0.05118527	-0.21759701	0.31236574	
***0.025418658283290013***
--------------------------------------------------
-0.05899989	-0.38230133	-0.013462701	0.19741632	0.058900587	0.16954878	-0.01654421	0.053484857	-0.22213651	0.3111036	
***0.022876792454961013***
--------------------------------------------------
-0.05973419	-0.3801275	-0.013794547	0.19622119	0.059523348	0.17279631	-0.017223267	0.055547994	-0.22617331	0.30997354	
***0.020589113209464913***
--------------------------------------------------
-0.060384985	-0.3781902	-0.014077873	0.19516312	0.06008249	0.17570539	-0.017882407	0.057399895	-0.22976555	0.30895954	
***0.01853020188851842***
--------------------------------------------------
-0.06096219	-0.37646133	-0.014322113	0.19422556	0.060587656	0.17831464	-0.01851803	0.059063632	-0.23296462	0.30804634	
***0.01667718169966658***
--------------------------------------------------
-0.061475918	-0.3749173	-0.014532092	0.19339372	0.0610443	0.18065529	-0.019124983	0.060560226	-0.2358162	0.3072225	
***0.015009463529699923***
--------------------------------------------------
-0.061933067	-0.37353587	-0.014714003	0.19265397	0.061457876	0.18275742	-0.01970235	0.06190541	-0.23835988	0.30647984	
***0.013508517176729932***
--------------------------------------------------
