-0.010425303	-0.5033849	0.010492767	0.26060015	0.015927296	0.04008118	-0.015169228	-0.01878838	-0.03920071	0.3568764	
***0.1***
--------------------------------------------------
-0.023324115	-0.4696756	0.0023152404	0.24582018	0.025666457	0.060033537	-0.01950026	-0.0033391113	-0.07108357	0.35009652	
***0.09000000000000001***
--------------------------------------------------
-0.031117108	-0.44993252	-0.0025599615	0.2362827	0.03256176	0.076600045	-0.020971261	0.008354977	-0.09597888	0.3437697	
***0.08100000000000002***
--------------------------------------------------
-0.03662144	-0.4359253	-0.005775686	0.22909123	0.03770014	0.09082056	-0.021711573	0.017412376	-0.1163275	0.3383465	
***0.07290000000000002***
--------------------------------------------------
-0.04082668	-0.42515603	-0.008041611	0.22331406	0.041706666	0.1031976	-0.02221071	0.024733068	-0.13343297	0.33372596	
***0.06561000000000002***
--------------------------------------------------
-0.044183712	-0.41651696	-0.009701324	0.21853307	0.04492818	0.11403863	-0.02260606	0.030816488	-0.14806195	0.3297629	
***0.05904900000000002***
--------------------------------------------------
-0.046941735	-0.4094027	-0.010950781	0.21449906	0.047579434	0.12358267	-0.022940282	0.03596205	-0.16071652	0.3263382	
***0.05314410000000002***
--------------------------------------------------
-0.04925233	-0.40343913	-0.011907047	0.21106142	0.04980005	0.13200785	-0.023238078	0.040376928	-0.17175217	0.32335195	
***0.04782969000000002***
--------------------------------------------------
-0.051212903	-0.3983754	-0.012652764	0.20810345	0.051685102	0.13946456	-0.023507662	0.04419414	-0.18142712	0.32073805	
***0.043046721000000024***
--------------------------------------------------
-0.05289699	-0.39403245	-0.013238019	0.2055474	0.053303104	0.14607471	-0.023753572	0.047521178	-0.18994989	0.31843394	
***0.03874204890000002***
--------------------------------------------------
-0.0543534	-0.39027834	-0.013702305	0.20332478	0.054701474	0.15194207	-0.023980225	0.05043516	-0.19747934	0.3163995	
***0.03486784401000002***
--------------------------------------------------
-0.055622205	-0.3870153	-0.014076032	0.20138642	0.055919673	0.15716153	-0.024188641	0.052998852	-0.20415138	0.3145965	
***0.03138105960900001***
--------------------------------------------------
-0.056734823	-0.3841636	-0.014378313	0.1996909	0.056986652	0.16180725	-0.024381367	0.05526182	-0.2100733	0.31299427	
***0.028242953648100012***
--------------------------------------------------
-0.057713073	-0.3816628	-0.014625218	0.19820413	0.057923067	0.16594933	-0.024558522	0.05726485	-0.21534236	0.3115698	
***0.025418658283290013***
--------------------------------------------------
-0.058577336	-0.37946153	-0.014827461	0.19689645	0.058748845	0.16964428	-0.024722531	0.05904227	-0.22003406	0.31030062	
***0.022876792454961013***
--------------------------------------------------
-0.059342116	-0.3775181	-0.014995102	0.19574273	0.05947928	0.17294423	-0.024873417	0.06062104	-0.22421715	0.30916798	
***0.020589113209464913***
--------------------------------------------------
-0.060021874	-0.37579766	-0.015134656	0.1947253	0.06012574	0.17589326	-0.025012748	0.062026713	-0.22795193	0.30815718	
***0.01853020188851842***
--------------------------------------------------
-0.0606261	-0.37427345	-0.015252385	0.19382511	0.06069929	0.17853075	-0.025140516	0.06327918	-0.23128642	0.30725402	
***0.01667718169966658***
--------------------------------------------------
-0.061165076	-0.3729181	-0.015351149	0.19302593	0.06120867	0.18089215	-0.025258213	0.064396836	-0.23426859	0.306447	
***0.015009463529699923***
--------------------------------------------------
-0.06164607	-0.37171325	-0.015435034	0.19231799	0.06166232	0.1830055	-0.02536535	0.065394126	-0.23693591	0.30572516	
***0.013508517176729932***
--------------------------------------------------
