-0.0014865529	-0.16322689	0.011087447	0.08326246	-3.8938597e-05	0.010366698	0.00043473789	-0.0147059355	-0.004315046	0.107854985	-0.04479494	0.011505825	0.08347723	-0.14253645	-0.055540085	-0.015734226	0.037548866	0.018489005	0.15201445	0.103270315	0.10468494	-0.13354513	-0.044734508	0.106005915	0.097853996	0.08484465	-0.114602506	-0.19566089	0.13608404	-0.11258481	-0.049598254	0.08786731	-0.102497935	0.06449208	-0.12926163	-0.015309788	-0.089313745	-0.07448321	-0.11483884	-0.039058536	-0.14399178	0.09599546	0.12755407	0.031508554	-0.07295006	0.038312368	0.043676905	-0.052600272	0.09944925	0.033163916	0.0057302527	0.06369545	-0.18526672	-0.02036991	-0.050405987	0.07535552	-0.09657967	-0.034762744	-0.031805385	0.15659037	-0.15237167	0.10165053	0.06449769	0.1034184	0.085711434	0.07630131	-0.071950234	0.19263117	-0.0585168	0.120640375	0.17803542	-0.035812896	0.03927511	0.031255692	-0.08901489	-0.15018591	-0.089391716	-0.08469844	0.051789604	0.033934746	0.0435942	0.06410772	-0.009137103	0.14825134	-0.038886193	-0.12639497	0.037796475	0.014175005	0.07570526	-0.0038795848	-0.028188972	0.074928924	0.011214297	-0.022986028	0.09874954	-0.09392759	0.06716269	-0.0099805165	0.066727094	-0.077252604	0.13653323	0.015684178	-0.03902038	-0.0055426047	-0.1068585	0.07613306	-0.08034053	0.1403689	-0.07775201	-0.06755933	-0.09485655	-0.045347832	0.088373475	-0.043131493	-0.1282003	-0.113024846	0.0548168	
***0.1***
--------------------------------------------------
-0.0017190183	-0.17356521	0.012272062	0.0839288	0.00069690077	0.010854752	0.0009479275	-0.013861828	-0.0034536624	0.10893516	-0.043955486	0.01219369	0.08393246	-0.14190643	-0.054675486	-0.014820408	0.038360678	0.026541099	0.15254809	0.104000114	0.10583588	-0.13243416	-0.044665966	0.106622234	0.099805444	0.085365176	-0.110875145	-0.19434503	0.13704467	-0.11144537	-0.048062883	0.08881683	-0.10182636	0.06546125	-0.12820256	-0.0150603345	-0.08821821	-0.073177494	-0.11371132	-0.09072321	-0.14203861	0.09661199	0.12845494	0.032081928	-0.072348386	0.03942818	0.044229012	-0.05185122	0.10008325	0.033898562	0.0068294695	0.064363964	-0.18458687	-0.0195694	-0.04955087	0.07599737	-0.09549062	-0.034152392	-0.030916672	0.1572292	-0.15156339	0.102321975	0.06492119	0.10402081	0.0859799	0.07675815	-0.07141934	0.19312665	-0.05860833	0.12142049	0.17846163	-0.035749592	0.039524302	0.03135294	-0.08884384	-0.14967953	-0.089345194	-0.08412697	0.05228551	0.034015168	0.043897867	0.06393378	-0.008990828	0.14811455	-0.039116573	-0.1259171	0.037674937	0.014005505	0.07577511	-0.0039812746	-0.028380265	0.07481813	0.01114265	-0.02317196	0.09864315	-0.094094686	0.06700161	-0.010168124	0.066510245	-0.07738493	0.13648626	0.015600799	-0.039077424	-0.005722814	-0.10716337	0.07594895	-0.08046611	0.14013812	-0.077956535	-0.06779594	-0.09505782	-0.04546096	0.08819486	-0.043390747	-0.1283312	-0.11321374	0.054771736	
***0.09000000000000001***
--------------------------------------------------
-0.0023242454	-0.16849826	0.011667643	0.08371344	0.00048893574	0.010460816	0.0009502338	-0.014354465	-0.003947384	0.108805366	-0.04408874	0.011723034	0.08372337	-0.14231245	-0.054708276	-0.014736022	0.03818401	0.026254993	0.15235303	0.10397219	0.10581014	-0.13243386	-0.045755617	0.10606401	0.10011193	0.08603717	-0.10913471	-0.19398177	0.13711424	-0.11033912	-0.047148075	0.088818036	-0.101902835	0.065417446	-0.12808618	-0.013935576	-0.08800748	-0.073399015	-0.1139395	-0.06555342	-0.14228156	0.09621121	0.12836185	0.031763207	-0.07279307	0.03919055	0.043778945	-0.051970117	0.09954286	0.033548642	0.006663803	0.06387242	-0.18491271	-0.01985899	-0.04985245	0.075444184	-0.09552404	-0.034333564	-0.031197242	0.15682589	-0.15196303	0.1021376	0.06486772	0.103759944	0.08569821	0.076336466	-0.07177328	0.19269218	-0.058831166	0.12123644	0.17797264	-0.03616643	0.039363947	0.030986244	-0.08917993	-0.1499126	-0.08982298	-0.08406447	0.052143756	0.03373722	0.043641035	0.06348874	-0.009454316	0.14768872	-0.03965074	-0.12623352	0.037217543	0.013421137	0.07555872	-0.0045317197	-0.028909614	0.07418896	0.010810012	-0.023658497	0.09802797	-0.09459263	0.06644083	-0.010634949	0.06595946	-0.07782955	0.13599993	0.014979209	-0.03971085	-0.0062246765	-0.107749276	0.07544058	-0.08079891	0.13965175	-0.07839089	-0.068268456	-0.09560375	-0.04599534	0.08770438	-0.043964777	-0.12866525	-0.11362026	0.05431653	
***0.08100000000000002***
--------------------------------------------------
-0.002806146	-0.16821645	0.011379913	0.08354661	0.0003067687	0.010153695	0.00089874	-0.014820203	-0.0043040058	0.10875552	-0.0441599	0.011381148	0.08347635	-0.14263244	-0.054746114	-0.014880691	0.038102157	0.026379587	0.15224051	0.10387512	0.10591056	-0.13233456	-0.04634834	0.10572424	0.10039045	0.08616494	-0.10769795	-0.19361782	0.13746	-0.109789364	-0.04672484	0.088829055	-0.10202537	0.06546362	-0.1279078	-0.013424185	-0.08780922	-0.07344155	-0.11423818	-0.041431617	-0.14244683	0.0959216	0.12823543	0.031581573	-0.073158085	0.039104708	0.04347389	-0.052148655	0.09915911	0.033317365	0.006643012	0.06345346	-0.18521707	-0.020033509	-0.05005235	0.075055666	-0.09572776	-0.034554858	-0.031334355	0.15653856	-0.15223846	0.1019167	0.064771995	0.103466086	0.08544103	0.07601436	-0.07204366	0.19230936	-0.05902339	0.121108934	0.17750661	-0.03651895	0.03918546	0.030677337	-0.08947248	-0.15013023	-0.09018243	-0.084078774	0.052007243	0.033493593	0.043419164	0.06311549	-0.009823286	0.14734262	-0.04009204	-0.12647234	0.036842242	0.01296197	0.07537621	-0.004953819	-0.029335516	0.07371031	0.01054447	-0.024057252	0.09755768	-0.09499715	0.06599538	-0.011023631	0.06551078	-0.07818909	0.13561144	0.014512173	-0.040185574	-0.00663029	-0.1082316	0.07503037	-0.08108265	0.13924187	-0.07876064	-0.06867082	-0.09604566	-0.04641458	0.08730202	-0.04443237	-0.12894985	-0.11396772	0.053967044	
***0.07290000000000002***
--------------------------------------------------
-0.0031733916	-0.16848281	0.011210564	0.08346327	0.00019132602	0.009943612	0.000853259	-0.01517318	-0.004547451	0.10877767	-0.04415325	0.011149053	0.08329815	-0.1428584	-0.05473697	-0.014979198	0.038095817	0.026543828	0.15216564	0.103846274	0.10606781	-0.13216983	-0.046954423	0.10549263	0.10082423	0.08640486	-0.10587076	-0.19322127	0.13775359	-0.10921429	-0.04627768	0.08888733	-0.102051206	0.06558136	-0.1276645	-0.013083953	-0.08758151	-0.07340395	-0.114452034	-0.026082642	-0.14250965	0.09573521	0.12817831	0.03150376	-0.07342642	0.03909322	0.04327924	-0.052275807	0.09891788	0.03318611	0.0067135394	0.06315262	-0.1854032	-0.020111104	-0.05014585	0.074802145	-0.09591024	-0.034719564	-0.03140774	0.15635163	-0.1524071	0.10174507	0.06470115	0.10325996	0.085245326	0.07580503	-0.072217025	0.19202425	-0.059183948	0.12104699	0.17714366	-0.03676956	0.03903352	0.03047986	-0.089680664	-0.15025076	-0.09043335	-0.08410704	0.051921796	0.03330541	0.04328878	0.062822096	-0.010083564	0.14706694	-0.040431116	-0.12660316	0.036566313	0.0126099335	0.07523091	-0.005280431	-0.0296668	0.07334495	0.010329511	-0.024368184	0.09719988	-0.09531277	0.0656714	-0.011329143	0.06516624	-0.07847297	0.13531515	0.014154098	-0.040546894	-0.006949239	-0.1086002	0.07470978	-0.08131257	0.13892205	-0.07905341	-0.06898508	-0.096385315	-0.046737954	0.086987615	-0.04478912	-0.12918106	-0.1142447	0.053692665	
***0.06561000000000002***
--------------------------------------------------
-0.0033459212	-0.16846196	0.011706094	0.08374764	0.0005248751	0.010096078	0.001054837	-0.015015199	-0.0042172726	0.10932931	-0.04373537	0.011413383	0.08345038	-0.14257607	-0.0543359	-0.014650917	0.03860695	0.027216693	0.15265916	0.10424668	0.10675519	-0.13148999	-0.04683755	0.105878316	0.10165218	0.08706281	-0.10422586	-0.19235909	0.13853563	-0.10819269	-0.045414492	0.08944673	-0.10157858	0.06623986	-0.1269341	-0.01231916	-0.086909555	-0.07281198	-0.1141266	-0.0509928	-0.1419787	0.09604611	0.1286015	0.031832956	-0.073172644	0.039670754	0.043578066	-0.05201424	0.099186935	0.0335755	0.007267812	0.06339355	-0.18516774	-0.019686742	-0.049782123	0.07505488	-0.09562028	-0.034495186	-0.03098854	0.1566361	-0.15201634	0.10197842	0.06485047	0.103422165	0.08531001	0.07598059	-0.07203026	0.1921831	-0.05926677	0.12137887	0.177217	-0.036740944	0.039081004	0.030533198	-0.08957932	-0.15006882	-0.09040445	-0.083901346	0.052129608	0.033315673	0.04344559	0.0626791	-0.010083207	0.14693744	-0.040597808	-0.12640405	0.03647718	0.012451115	0.07521966	-0.005418221	-0.02982424	0.073184356	0.010234801	-0.024514105	0.09704652	-0.095459454	0.0655635	-0.011475171	0.065003626	-0.078601524	0.1352265	0.014001636	-0.04069744	-0.0071012443	-0.10878359	0.07455903	-0.08142407	0.13876404	-0.07920006	-0.06914287	-0.09654501	-0.04687658	0.08683822	-0.044963613	-0.12929529	-0.11438423	0.053586584	
***0.05904900000000002***
--------------------------------------------------
-0.0035822415	-0.16815576	0.011357657	0.08370714	0.0003222928	0.0099470215	0.0010106147	-0.015342484	-0.0045440234	0.10925138	-0.043721072	0.011141563	0.08334674	-0.14282341	-0.054362394	-0.014941702	0.038436756	0.027157016	0.15240397	0.104021944	0.10674341	-0.13150236	-0.04759148	0.10550109	0.101701975	0.08709245	-0.102936186	-0.19221887	0.138593	-0.10783562	-0.04518089	0.08930351	-0.10175935	0.06614188	-0.12691735	-0.012248753	-0.08692203	-0.07298323	-0.11441479	-0.034503184	-0.14221244	0.095760316	0.12837905	0.031806134	-0.07348596	0.039489254	0.043400776	-0.05214703	0.09896113	0.0333408	0.0072677378	0.063052826	-0.18530476	-0.019851621	-0.049885076	0.07481708	-0.09584372	-0.03463613	-0.031132534	0.15644203	-0.15229799	0.101806216	0.06480815	0.103278145	0.085173614	0.07583649	-0.072155915	0.19193509	-0.059386052	0.12131485	0.17690304	-0.036883816	0.03896197	0.030457485	-0.08969044	-0.15011337	-0.09054584	-0.083944	0.052079134	0.033192914	0.04340708	0.062484585	-0.010237564	0.14674294	-0.04081313	-0.12646614	0.03632008	0.012217786	0.075115465	-0.005648036	-0.030047866	0.07293793	0.010070743	-0.024721997	0.09680297	-0.09566956	0.06536994	-0.011678961	0.06477941	-0.07879769	0.13502978	0.013754501	-0.040946487	-0.007319683	-0.10901338	0.07434327	-0.08158507	0.13855727	-0.07939137	-0.069344774	-0.09676672	-0.047097024	0.08662813	-0.045189988	-0.12945665	-0.11456974	0.05338687	
***0.05314410000000002***
--------------------------------------------------
-0.0037889995	-0.16889909	0.011153311	0.083632596	0.00010232639	0.009785885	0.00094825216	-0.0156572	-0.004803948	0.109194405	-0.043741137	0.010900233	0.083208136	-0.1430548	-0.05441315	-0.015194765	0.038320445	0.0271677	0.15227129	0.10383311	0.106771685	-0.13147186	-0.048073903	0.10524831	0.10185564	0.08712382	-0.10209134	-0.1920207	0.13871798	-0.1074504	-0.04491216	0.08923652	-0.101873815	0.066133745	-0.12682532	-0.012159663	-0.08689273	-0.07304134	-0.114660025	-0.019364484	-0.1423493	0.09551546	0.12819648	0.031736642	-0.0737612	0.039410233	0.043217737	-0.052309647	0.09872917	0.03314781	0.007261129	0.0627545	-0.1854783	-0.01998969	-0.05000901	0.07458625	-0.096058555	-0.034796104	-0.031256806	0.15626056	-0.15251909	0.10163006	0.06474776	0.10310546	0.08503445	0.075687	-0.07228792	0.19167994	-0.05949081	0.121239305	0.17660001	-0.037028413	0.0388381	0.03036583	-0.08981774	-0.15019526	-0.09067628	-0.08401256	0.05201799	0.033075873	0.043340486	0.062311284	-0.01038484	0.14657559	-0.041005608	-0.12654085	0.036176868	0.012016977	0.07502344	-0.005840602	-0.030241393	0.072728515	0.0099330265	-0.024903761	0.09659653	-0.09585325	0.06519719	-0.011858673	0.064582326	-0.07896715	0.13485706	0.013547804	-0.041154798	-0.007508417	-0.10921858	0.074155934	-0.08172717	0.13837233	-0.07956264	-0.06952649	-0.09696102	-0.047285624	0.08644392	-0.045391068	-0.12959932	-0.11473501	0.05322008	
***0.04782969000000002***
--------------------------------------------------
-0.003930469	-0.1690158	0.011300336	0.08369902	0.00012245442	0.009763705	0.0009844716	-0.01573299	-0.004776869	0.10939317	-0.043594196	0.010888423	0.08319772	-0.14303608	-0.054298684	-0.015186343	0.038469926	0.027413774	0.15242656	0.103899814	0.107059166	-0.13119479	-0.048184656	0.10531596	0.10224866	0.087398954	-0.100938	-0.1915732	0.13909048	-0.10684143	-0.044438403	0.08945017	-0.10171718	0.06642065	-0.12646945	-0.0118072815	-0.08661335	-0.07280046	-0.11463439	-0.023540393	-0.14217253	0.09552579	0.12828028	0.03184327	-0.073785156	0.039633483	0.043258723	-0.052298162	0.098737285	0.03322324	0.007467933	0.06272967	-0.18545581	-0.019882562	-0.04991874	0.074580394	-0.096050836	-0.03478476	-0.03116074	0.15628248	-0.15245636	0.101637095	0.0647732	0.10308862	0.08499256	0.07568911	-0.07228195	0.19162121	-0.05956572	0.1213221	0.17649561	-0.03707234	0.038794275	0.030356513	-0.08982936	-0.15015984	-0.090711184	-0.08398486	0.052068807	0.033030976	0.043373834	0.06219023	-0.010440914	0.14646044	-0.04114	-0.12649217	0.036093846	0.01188153	0.07497921	-0.0059672454	-0.030374847	0.07258723	0.009840019	-0.025027212	0.09645957	-0.09597917	0.065096945	-0.011982481	0.06444735	-0.079082236	0.13475642	0.013410282	-0.04129205	-0.007638681	-0.10936185	0.07402711	-0.081825994	0.13824327	-0.07968356	-0.0696538	-0.097093694	-0.047410887	0.08631683	-0.045530986	-0.12969984	-0.11485132	0.053112723	
***0.043046721000000024***
--------------------------------------------------
-0.0040791915	-0.16934134	0.011123539	0.08366097	-3.4066557e-05	0.009649864	0.00093530334	-0.015955513	-0.004966526	0.10936882	-0.043585368	0.010706214	0.083106525	-0.1431928	-0.0543243	-0.01541341	0.03837183	0.027414965	0.15230078	0.10372385	0.10709521	-0.13116732	-0.048622563	0.10510825	0.102302976	0.087422565	-0.100097254	-0.19143471	0.13917981	-0.106532745	-0.04422348	0.08938427	-0.1018207	0.06640429	-0.12641276	-0.011765297	-0.08661175	-0.07287073	-0.11481045	-0.012835627	-0.14227922	0.0953337	0.12812905	0.031820685	-0.073991545	0.039570566	0.04313935	-0.05241263	0.098586686	0.03308063	0.0074885115	0.06250834	-0.18556303	-0.019977823	-0.049990546	0.07441955	-0.09620346	-0.034897514	-0.031247929	0.15615256	-0.15262367	0.10150725	0.06473068	0.10297122	0.084890135	0.07558622	-0.07237286	0.19143714	-0.05964631	0.12127731	0.17626365	-0.03717182	0.038695857	0.030304918	-0.089915946	-0.150204	-0.09079789	-0.0840424	0.05202933	0.032945763	0.04334028	0.062063847	-0.01054194	0.1463356	-0.041278653	-0.1265358	0.03599736	0.011736026	0.07491034	-0.006109396	-0.030516516	0.07243543	0.009734635	-0.025159921	0.0963092	-0.09611294	0.06497748	-0.012113268	0.06430514	-0.079207435	0.1346312	0.013258775	-0.041444313	-0.0077772182	-0.10950856	0.073890164	-0.08193231	0.13810964	-0.079808414	-0.069785155	-0.09723449	-0.04754881	0.08618241	-0.045675367	-0.12980638	-0.11497278	0.052988246	
***0.03874204890000002***
--------------------------------------------------
-0.004184125	-0.1695308	0.011238758	0.08371434	-3.2717886e-05	0.009631185	0.000961616	-0.016009448	-0.0049474724	0.10952837	-0.04346539	0.010684138	0.0831053	-0.14317614	-0.054241594	-0.015438194	0.038471594	0.027574105	0.15241191	0.10374173	0.10731769	-0.13095608	-0.048719164	0.105157144	0.10261023	0.087621324	-0.09917533	-0.19108018	0.13947693	-0.10602497	-0.043868616	0.089547284	-0.10170778	0.06663472	-0.12613302	-0.011492081	-0.086410284	-0.07268269	-0.11479337	-0.01601535	-0.14214374	0.09532076	0.12817475	0.031920608	-0.07401909	0.039748933	0.0431794	-0.05241068	0.09859837	0.03313063	0.0076575424	0.06248665	-0.18553494	-0.019897668	-0.049917128	0.07441875	-0.09619999	-0.034888733	-0.031179536	0.15616554	-0.15258157	0.101509795	0.0647527	0.102964394	0.08485711	0.07559223	-0.07236752	0.191387	-0.059704624	0.12134331	0.17618152	-0.037199207	0.038658846	0.030307673	-0.08991801	-0.15016823	-0.09081744	-0.08402677	0.05207307	0.03291314	0.043373905	0.061972845	-0.01057943	0.14624806	-0.041378424	-0.12648968	0.035939977	0.011634983	0.07487707	-0.0062049483	-0.030616542	0.072329886	0.0096625835	-0.025252668	0.096206516	-0.09620739	0.064906865	-0.012206379	0.06420446	-0.079294406	0.13455722	0.01315576	-0.041547112	-0.00787545	-0.109614365	0.07379357	-0.08200779	0.13801321	-0.07989914	-0.06988013	-0.09733336	-0.047642965	0.086086996	-0.04577898	-0.12988317	-0.1150605	0.052906167	
***0.03486784401000002***
--------------------------------------------------
-0.004293707	-0.16992171	0.01110675	0.08369345	-0.00015384122	0.009548101	0.0009259766	-0.016175753	-0.0050890753	0.10952393	-0.043445442	0.0105465865	0.08304176	-0.14328872	-0.05425431	-0.01562884	0.038396828	0.02757775	0.1523207	0.1035912	0.10735672	-0.13092548	-0.04904796	0.10500102	0.10265392	0.08763523	-0.09853179	-0.19096111	0.13956058	-0.10576122	-0.043701567	0.08950506	-0.10178789	0.06663536	-0.12607555	-0.01146418	-0.08641029	-0.072725944	-0.114921145	-0.008209994	-0.14221849	0.09516926	0.12805632	0.03191736	-0.07417379	0.039712317	0.043098282	-0.052496452	0.098489	0.033025738	0.0076862257	0.062322278	-0.18561067	-0.019963853	-0.049969442	0.074303806	-0.096311234	-0.034969095	-0.031240335	0.156072	-0.1527036	0.101415	0.064724244	0.10287995	0.08478097	0.0755209	-0.072431	0.1912488	-0.059766553	0.12131778	0.17600511	-0.037268937	0.038582582	0.030277243	-0.08997748	-0.15019475	-0.09087561	-0.084071144	0.05205086	0.03285106	0.04335718	0.061878532	-0.010650076	0.14615437	-0.041480973	-0.12651506	0.03587244	0.011527618	0.07482619	-0.0063103223	-0.030721871	0.072217815	0.009582454	-0.025351139	0.09609551	-0.09630672	0.064822026	-0.012303691	0.064099185	-0.079387896	0.1344654	0.013043865	-0.04165953	-0.007978754	-0.109722316	0.07369158	-0.08208805	0.13791376	-0.07999225	-0.06997771	-0.09743741	-0.047744982	0.08598693	-0.04588561	-0.12996364	-0.115151465	0.052813396	
***0.03138105960900001***
--------------------------------------------------
-0.004377173	-0.1701758	0.011153041	0.08371923	-0.00018760248	0.009517052	0.0009334972	-0.016246874	-0.005110717	0.10962188	-0.043368522	0.010498709	0.083028235	-0.14330366	-0.054212295	-0.01569734	0.038433306	0.02765392	0.15236841	0.10355512	0.107496955	-0.13079298	-0.04916988	0.10499797	0.10286542	0.08776177	-0.09786166	-0.19070913	0.13977288	-0.10537539	-0.043456342	0.089598976	-0.10173469	0.066788435	-0.1258874	-0.011292397	-0.08629364	-0.072611004	-0.11493832	-0.008458109	-0.14215165	0.09511856	0.12805143	0.031982053	-0.074226916	0.039818153	0.043107595	-0.052519497	0.09846971	0.03303039	0.00779413	0.06227532	-0.18561019	-0.019932197	-0.049945604	0.074279934	-0.096337855	-0.034982055	-0.031218154	0.15605725	-0.15270577	0.101394325	0.06473151	0.10285632	0.0847442	0.07551012	-0.07244183	0.19118515	-0.059814397	0.12135069	0.17591754	-0.03729752	0.03854244	0.03027538	-0.089988835	-0.15017974	-0.090896085	-0.08407444	0.052074086	0.03281928	0.043375824	0.061805587	-0.010685259	0.14608353	-0.04156017	-0.12649195	0.035827	0.011446802	0.07479618	-0.0063877385	-0.030801948	0.0721333	0.009523021	-0.025425648	0.09601285	-0.09638243	0.064765215	-0.012378344	0.06401867	-0.07945828	0.1344037	0.012961043	-0.041742392	-0.008057564	-0.109805904	0.07361409	-0.0821494	0.13783678	-0.080064654	-0.07005339	-0.097516425	-0.047821008	0.085910335	-0.045967784	-0.13002577	-0.11522178	0.052745953	
***0.028242953648100012***
--------------------------------------------------
-0.0044576623	-0.17051142	0.011100578	0.083716355	-0.0002632149	0.0094631	0.0009156647	-0.01635613	-0.005191999	0.10965132	-0.043332975	0.010409861	0.08299099	-0.1433653	-0.05420735	-0.01582708	0.03840054	0.027670242	0.15233263	0.10345584	0.107560396	-0.13073896	-0.04937503	0.10491553	0.10295075	0.08780175	-0.09733686	-0.19056989	0.13987935	-0.10511462	-0.04330568	0.08960806	-0.10176229	0.06683927	-0.12579712	-0.011223066	-0.086263575	-0.07259561	-0.11500947	-0.004386371	-0.1421679	0.095017985	0.12798396	0.032003134	-0.07432526	0.039832745	0.04306964	-0.05257373	0.09840669	0.032976158	0.007843208	0.062175035	-0.18564914	-0.019958286	-0.049968295	0.07421331	-0.09640501	-0.035028365	-0.031245898	0.15600277	-0.15277052	0.10133724	0.0647185	0.10280425	0.08469249	0.075469926	-0.0724786	0.19109197	-0.05986124	0.12134683	0.17579655	-0.03734137	0.038488448	0.030261105	-0.09002269	-0.15018873	-0.09093054	-0.08410107	0.05207024	0.03277744	0.043374244	0.061735496	-0.010731306	0.14601406	-0.041635986	-0.12649801	0.035780434	0.011368119	0.074760675	-0.0064646807	-0.030879658	0.0720511	0.009463401	-0.025498152	0.095931664	-0.0964558	0.064706214	-0.012450334	0.06394096	-0.079527326	0.13433824	0.012879342	-0.04182439	-0.0081339665	-0.10988547	0.07353873	-0.082209334	0.13776295	-0.08013393	-0.07012574	-0.09759299	-0.047895733	0.08583623	-0.046046466	-0.13008597	-0.1152895	0.052678056	
***0.025418658283290013***
--------------------------------------------------
-0.004524769	-0.17077284	0.011107022	0.08372711	-0.00030950113	0.009427869	0.0009120914	-0.016428977	-0.0052315006	0.109709665	-0.04328292	0.01035167	0.08297215	-0.14339408	-0.05418794	-0.01591401	0.038400743	0.027697857	0.15233871	0.10339292	0.10764857	-0.13065837	-0.049508717	0.1048847	0.10308366	0.08787304	-0.09684459	-0.19039774	0.14002001	-0.104830615	-0.043145638	0.08965661	-0.10174747	0.066935234	-0.12567599	-0.011113443	-0.08620225	-0.07253239	-0.11504334	-0.0029854476	-0.1421407	0.09495183	0.12795311	0.032045092	-0.074388124	0.039890885	0.04306188	-0.052606683	0.098375194	0.032956973	0.0079133175	0.062116988	-0.18566138	-0.019954119	-0.04996685	0.07417856	-0.09644336	-0.035051465	-0.031248098	0.15597415	-0.15279606	0.101305805	0.06471725	0.102774404	0.08465585	0.07545068	-0.07249726	0.19102643	-0.059900705	0.12136057	0.17571071	-0.03736949	0.038448848	0.030256877	-0.090039104	-0.15018427	-0.090951025	-0.084113926	0.052080646	0.032747623	0.04338364	0.06167659	-0.010763379	0.14595616	-0.04169952	-0.12648866	0.035743937	0.011302782	0.07473392	-0.0065280506	-0.030944481	0.07198275	0.0094139585	-0.025558544	0.095864445	-0.09651707	0.06465985	-0.012510674	0.06387597	-0.07958472	0.13428645	0.012811971	-0.04189194	-0.008197851	-0.1099522	0.07347591	-0.08225953	0.13770092	-0.08019224	-0.07018654	-0.0976568	-0.047957607	0.08577422	-0.046112336	-0.13013661	-0.1153464	0.052622274	
***0.022876792454961013***
--------------------------------------------------
-0.0045856913	-0.17103298	0.011092184	0.0837313	-0.00036088255	0.009390332	0.00090297725	-0.016503785	-0.0052805603	0.1097493	-0.043244917	0.010288637	0.08294988	-0.14342989	-0.054177918	-0.016009642	0.03838477	0.027707892	0.15232468	0.10331885	0.10771339	-0.13060169	-0.049649116	0.10483927	0.10317659	0.08791569	-0.0964251	-0.19026498	0.14012347	-0.10459611	-0.04302476	0.08968369	-0.101752385	0.06700177	-0.12558518	-0.011033552	-0.086165935	-0.072495125	-0.115085796	-0.0007451728	-0.14213288	0.09487866	0.12791045	0.03207535	-0.07445583	0.03992473	0.043045156	-0.05264389	0.09833752	0.03292649	0.0079659475	0.06205195	-0.18568061	-0.01996283	-0.049974926	0.07413761	-0.09648676	-0.03507963	-0.031261157	0.15593903	-0.15283273	0.10126895	0.06471175	0.10274107	0.08461864	0.07542679	-0.07252016	0.1909596	-0.05993695	0.12136549	0.17562385	-0.03739857	0.038408868	0.030250855	-0.09005889	-0.15018493	-0.090972625	-0.08413109	0.052084703	0.032717936	0.04338837	0.061623067	-0.010795075	0.14590316	-0.041757114	-0.1264861	0.0357105	0.011243239	0.07470802	-0.006586206	-0.031003533	0.07192049	0.009368238	-0.025613585	0.095803	-0.09657284	0.06461702	-0.012565542	0.06381688	-0.0796372	0.13423802	0.012750319	-0.041953836	-0.008256075	-0.110012494	0.073418625	-0.08230545	0.13764457	-0.0802451	-0.07024164	-0.09771484	-0.048014134	0.085717775	-0.04617203	-0.13018282	-0.115398176	0.052570827	
***0.020589113209464913***
--------------------------------------------------
-0.004639248	-0.17126204	0.011085209	0.08373618	-0.00040607894	0.009357676	0.00089584163	-0.016568135	-0.00532117	0.10978799	-0.043209057	0.010232996	0.082931705	-0.14345963	-0.054168407	-0.016095396	0.038371395	0.027711848	0.1523139	0.10325118	0.10777344	-0.13054843	-0.049771003	0.10480262	0.103265055	0.08795519	-0.09605062	-0.19014117	0.14021969	-0.10437999	-0.042919673	0.08971142	-0.1017537	0.067067534	-0.1255015	-0.010957	-0.08613221	-0.07245582	-0.11512115	0.0010678319	-0.14212166	0.09481328	0.12787342	0.032105625	-0.07451498	0.039960146	0.04303306	-0.052676503	0.098306224	0.032901082	0.008016033	0.06199702	-0.185695	-0.019968536	-0.049980618	0.07410369	-0.09652388	-0.035103023	-0.031271532	0.15590873	-0.15286271	0.10123758	0.06470785	0.10271306	0.08458613	0.075407214	-0.07253934	0.19090094	-0.059969082	0.12137141	0.17554832	-0.037423123	0.038373627	0.03024687	-0.09007487	-0.15018411	-0.0909905	-0.084145784	0.052090053	0.032692235	0.043393996	0.061575852	-0.01082217	0.14585643	-0.041807797	-0.12648202	0.035681665	0.011190883	0.07468547	-0.006637329	-0.031055514	0.07186574	0.009327823	-0.025662048	0.09574897	-0.096621975	0.06457991	-0.012613932	0.063764855	-0.07968342	0.1341957	0.012696185	-0.042008203	-0.008307403	-0.1100655	0.07336817	-0.08234603	0.13759491	-0.0802917	-0.07029018	-0.097765885	-0.04806385	0.085668005	-0.046224535	-0.13022368	-0.11544385	0.052525528	
***0.01853020188851842***
--------------------------------------------------
-0.0046870075	-0.17146954	0.011077399	0.08373973	-0.0004485799	0.009327291	0.00088837877	-0.016626908	-0.005359295	0.10982113	-0.043177772	0.0101806605	0.0829148	-0.14348775	-0.054161537	-0.016176894	0.038355686	0.027708715	0.15229988	0.103185326	0.107824564	-0.13050346	-0.04988309	0.10476745	0.1033402	0.08798487	-0.09572079	-0.19003364	0.14030105	-0.10418827	-0.042833846	0.08973407	-0.10175783	0.06712481	-0.12542972	-0.010890176	-0.08610605	-0.07242216	-0.11515455	0.0028486415	-0.14211346	0.09475109	0.12783712	0.032132402	-0.07457016	0.03998991	0.043021135	-0.052707337	0.09827709	0.032875884	0.008059751	0.061946187	-0.18570864	-0.019975819	-0.049987264	0.074072145	-0.096558444	-0.035124965	-0.03128307	0.15587974	-0.15289152	0.101208076	0.064703725	0.10268721	0.08455622	0.07538887	-0.07255756	0.1908469	-0.059997965	0.12137555	0.17547919	-0.037445486	0.038341112	0.030243361	-0.090089664	-0.15018387	-0.09100672	-0.08416005	0.05209432	0.03266884	0.043398723	0.061533656	-0.010846658	0.14581457	-0.041853	-0.12647906	0.03565612	0.011144121	0.07466503	-0.0066830707	-0.031101946	0.07181685	0.009291469	-0.02570535	0.095700674	-0.09666586	0.06454686	-0.012657181	0.063718386	-0.07972478	0.13415776	0.012647823	-0.04205682	-0.008353304	-0.110112704	0.07332306	-0.082382396	0.13755055	-0.0803333	-0.070333496	-0.097811446	-0.04810826	0.08562354	-0.046271343	-0.13026029	-0.115484685	0.052484903	
***0.01667718169966658***
--------------------------------------------------
-0.004729583	-0.17165543	0.011070181	0.08374235	-0.00048810284	0.009299329	0.0008810625	-0.016680162	-0.00539432	0.1098501	-0.043150205	0.010132064	0.082899354	-0.14351387	-0.05415656	-0.016253237	0.038339157	0.027700368	0.15228444	0.10312253	0.107868634	-0.13046473	-0.049985144	0.104734756	0.10340538	0.08800771	-0.095428355	-0.18993884	0.14037104	-0.10401697	-0.042763084	0.08975312	-0.10176316	0.067175835	-0.12536755	-0.010831029	-0.08608527	-0.07239215	-0.11518547	0.004532792	-0.14210692	0.09469278	0.1278025	0.03215639	-0.07462104	0.040015887	0.043009937	-0.052736092	0.09825039	0.03285176	0.008098414	0.061899927	-0.1857211	-0.019983644	-0.049994256	0.074043356	-0.09659021	-0.035145145	-0.031294864	0.15585253	-0.15291832	0.10118085	0.06469966	0.10266365	0.08452892	0.07537204	-0.07257451	0.19079752	-0.06002388	0.121378556	0.17541651	-0.037465665	0.038311373	0.03024035	-0.090103105	-0.15018393	-0.09102128	-0.084173515	0.05209796	0.032647688	0.043402836	0.061495967	-0.010868652	0.14577712	-0.0418933	-0.12647663	0.03563351	0.011102391	0.07464662	-0.006723934	-0.031143386	0.07177323	0.009258847	-0.025744015	0.09565755	-0.09670506	0.064517476	-0.012695823	0.0636769	-0.07976173	0.13412382	0.012604676	-0.042100213	-0.008394319	-0.110154755	0.073282786	-0.08241495	0.1375109	-0.08037043	-0.07037214	-0.09785208	-0.048147906	0.08558381	-0.04631307	-0.13029303	-0.11552119	0.052448537	
***0.015009463529699923***
--------------------------------------------------
-0.0047676265	-0.17182207	0.011063178	0.08374412	-0.00052491913	0.009273492	0.0008738376	-0.016728638	-0.005426727	0.1098752	-0.043126088	0.010086855	0.082885064	-0.14353839	-0.05415326	-0.016324714	0.038322013	0.027688008	0.15226778	0.10306283	0.10790638	-0.13043159	-0.050078336	0.104704104	0.10346149	0.088024504	-0.09516882	-0.18985564	0.14043069	-0.103864245	-0.042705186	0.08976885	-0.10176959	0.06722093	-0.12531392	-0.010778939	-0.08606911	-0.0723657	-0.11521426	0.0061380044	-0.14210202	0.09463809	0.12776951	0.03217764	-0.07466809	0.04003822	0.042999215	-0.052762978	0.09822571	0.032828566	0.008132375	0.061857577	-0.18573269	-0.01999202	-0.050001618	0.07401687	-0.09661955	-0.035163846	-0.031306908	0.15582685	-0.15294342	0.10115554	0.064695574	0.10264204	0.08450391	0.07535645	-0.0725904	0.19075222	-0.060047183	0.12138047	0.17535949	-0.03748402	0.038284093	0.03023765	-0.09011546	-0.1501844	-0.09103451	-0.084186286	0.052100923	0.032628477	0.043406278	0.061462212	-0.01088853	0.14574356	-0.04192932	-0.12647486	0.035613406	0.011065063	0.074629985	-0.0067605237	-0.031180454	0.07173423	0.00922952	-0.025778618	0.095618956	-0.09674013	0.06449125	-0.01273042	0.06363979	-0.07979481	0.13409333	0.0125660915	-0.04213906	-0.0084310435	-0.110192284	0.07324673	-0.08244412	0.1374754	-0.08040364	-0.0704067	-0.097888425	-0.04818337	0.08554827	-0.04635034	-0.1303224	-0.11555388	0.05241592	
***0.013508517176729932***
--------------------------------------------------
