-0.022473317	-0.4654419	0.0044886954	0.254265	0.020571902	0.05712465	-0.022792969	-0.02643494	-0.05568217	0.35338446	
***0.1***
--------------------------------------------------
-0.029535217	-0.44589287	-0.002480609	0.24243984	0.030340223	0.07392868	-0.024150943	-0.009995621	-0.08555991	0.3479159	
***0.09000000000000001***
--------------------------------------------------
-0.035239954	-0.42990598	-0.005953528	0.23436889	0.035903953	0.088188685	-0.025499748	0.0017881321	-0.10828322	0.3416422	
***0.08100000000000002***
--------------------------------------------------
-0.039634775	-0.41754457	-0.008239717	0.22792022	0.040052537	0.100605786	-0.026302688	0.0111265285	-0.12702715	0.3360532	
***0.07290000000000002***
--------------------------------------------------
-0.043184288	-0.40783414	-0.009894893	0.2225849	0.043382734	0.111481905	-0.026765648	0.01885993	-0.14290777	0.33128664	
***0.06561000000000002***
--------------------------------------------------
-0.04612051	-0.40006188	-0.011150592	0.2180796	0.04613365	0.12105474	-0.027030526	0.025410825	-0.15655167	0.32724574	
***0.05904900000000002***
--------------------------------------------------
-0.048586097	-0.3937606	-0.012124943	0.21423051	0.048454545	0.12950897	-0.02717583	0.031031545	-0.16837296	0.3238042	
***0.05314410000000002***
--------------------------------------------------
-0.050676394	-0.3885964	-0.012895501	0.21091124	0.05043867	0.13699706	-0.027245602	0.035903033	-0.1786814	0.3208545	
***0.04782969000000002***
--------------------------------------------------
-0.052464783	-0.38433817	-0.0135083655	0.2080338	0.052149996	0.14365007	-0.02726827	0.0401491	-0.1877076	0.31831357	
***0.043046721000000024***
--------------------------------------------------
-0.054006938	-0.3808043	-0.014003202	0.20552695	0.053638577	0.14957547	-0.027260728	0.043871783	-0.19564337	0.3161151	
***0.03874204890000002***
--------------------------------------------------
-0.055343695	-0.37785757	-0.014401539	0.20333333	0.054939806	0.1548624	-0.027233774	0.047149323	-0.20264067	0.31420177	
***0.03486784401000002***
--------------------------------------------------
-0.05650926	-0.37539586	-0.014723632	0.20141156	0.056083158	0.15958801	-0.02719498	0.050040998	-0.2088231	0.31253266	
***0.03138105960900001***
--------------------------------------------------
-0.05752898	-0.37333122	-0.014984229	0.19972324	0.057090018	0.16381823	-0.027148554	0.052599832	-0.2142997	0.31107068	
***0.028242953648100012***
--------------------------------------------------
-0.058425948	-0.37159413	-0.015195799	0.19823577	0.057982866	0.16761118	-0.027099587	0.05487191	-0.21916077	0.309784	
***0.025418658283290013***
--------------------------------------------------
-0.059216965	-0.3701329	-0.015367423	0.19692577	0.058774047	0.1710135	-0.027050085	0.05688963	-0.22347951	0.30865344	
***0.022876792454961013***
--------------------------------------------------
-0.059916697	-0.36889467	-0.015506512	0.19576745	0.059476335	0.17406924	-0.026999915	0.058684602	-0.22732565	0.30765504	
***0.020589113209464913***
--------------------------------------------------
-0.060537644	-0.36784998	-0.015617752	0.19474389	0.060103092	0.17681518	-0.026952567	0.06028554	-0.2307514	0.30677116	
***0.01853020188851842***
--------------------------------------------------
-0.061089486	-0.36696285	-0.015708046	0.19383673	0.06066212	0.17928468	-0.026907621	0.061712462	-0.23380686	0.30598822	
***0.01667718169966658***
--------------------------------------------------
-0.06158083	-0.36620802	-0.015780427	0.19303298	0.061160836	0.18150446	-0.026865566	0.0629877	-0.23653537	0.3052937	
***0.015009463529699923***
--------------------------------------------------
-0.06201917	-0.36556515	-0.015837708	0.19231935	0.061606772	0.18350297	-0.02682575	0.06412733	-0.23897497	0.30467582	
***0.013508517176729932***
--------------------------------------------------
