-0.016573718	-0.50523084	0.007407175	0.25295	0.013721179	0.07865048	-0.014079767	-0.025712177	-0.057476737	0.36335397	
***0.1***
--------------------------------------------------
-0.028364073	-0.47282332	0.00036318664	0.2390528	0.026167873	0.09355076	-0.020013297	-0.010874551	-0.08539747	0.35534754	
***0.09000000000000001***
--------------------------------------------------
-0.034660652	-0.45277286	-0.0039174133	0.23040308	0.033923354	0.10640702	-0.022689309	-0.00015720028	-0.10753418	0.34800756	
***0.08100000000000002***
--------------------------------------------------
-0.039229747	-0.43829527	-0.0068532242	0.2239662	0.03942494	0.117967494	-0.02434033	0.008503564	-0.1259332	0.341799	
***0.07290000000000002***
--------------------------------------------------
-0.042876303	-0.42710936	-0.009004154	0.21883014	0.043591	0.1283125	-0.025479898	0.015761323	-0.14159094	0.3365749	
***0.06561000000000002***
--------------------------------------------------
-0.045917384	-0.41812646	-0.010643553	0.2145875	0.04686369	0.13753517	-0.026300965	0.021980688	-0.1551051	0.33213577	
***0.05904900000000002***
--------------------------------------------------
-0.0485062	-0.41073754	-0.01191318	0.21099724	0.04950728	0.14572866	-0.026901472	0.027384324	-0.16688368	0.32833394	
***0.05314410000000002***
--------------------------------------------------
-0.050741766	-0.40455222	-0.012908921	0.20791179	0.05167839	0.15299729	-0.027336357	0.032130674	-0.17721562	0.32504612	
***0.04782969000000002***
--------------------------------------------------
-0.052686244	-0.39930657	-0.013693554	0.2052325	0.053486075	0.15943843	-0.027646657	0.036328707	-0.18632741	0.32218432	
***0.043046721000000024***
--------------------------------------------------
-0.054382525	-0.39481515	-0.014310948	0.20288776	0.055007756	0.16513158	-0.0278597	0.040065072	-0.19439255	0.31967798	
***0.03874204890000002***
--------------------------------------------------
-0.05586467	-0.39094085	-0.014794737	0.20082423	0.056302607	0.1701526	-0.02799816	0.043405004	-0.201549	0.3174723	
***0.03486784401000002***
--------------------------------------------------
-0.05716051	-0.38757697	-0.0151724	0.19900915	0.05740963	0.17456348	-0.028077977	0.04639975	-0.20791039	0.31552577	
***0.03138105960900001***
--------------------------------------------------
-0.058292035	-0.38464198	-0.015462582	0.19740817	0.05836487	0.17842524	-0.028112043	0.049092304	-0.21357398	0.31380147	
***0.028242953648100012***
--------------------------------------------------
-0.059277568	-0.38207048	-0.015687458	0.19599989	0.05919237	0.18179221	-0.028111458	0.05151904	-0.21861807	0.3122709	
***0.025418658283290013***
--------------------------------------------------
-0.060136944	-0.37980914	-0.015856398	0.19476193	0.05991102	0.18471721	-0.02808346	0.053706814	-0.22311275	0.31091112	
***0.022876792454961013***
--------------------------------------------------
-0.060882937	-0.37781549	-0.015981756	0.19367352	0.06054061	0.1872437	-0.02803603	0.055682797	-0.22711563	0.3097006	
***0.020589113209464913***
--------------------------------------------------
-0.06153062	-0.3760516	-0.01607405	0.19272187	0.061092034	0.18941957	-0.027973706	0.057467297	-0.23068409	0.30862272	
***0.01853020188851842***
--------------------------------------------------
-0.062092118	-0.37448996	-0.0161384	0.19189085	0.061576813	0.19128458	-0.027902273	0.059081204	-0.23386303	0.3076619	
***0.01667718169966658***
--------------------------------------------------
-0.0625786	-0.3731035	-0.016182875	0.19116601	0.06200463	0.19287822	-0.027823426	0.060539704	-0.23669413	0.30680352	
***0.015009463529699923***
--------------------------------------------------
-0.06299954	-0.37187165	-0.016211273	0.19053546	0.062383324	0.194235	-0.02774114	0.061858635	-0.2392172	0.3060378	
***0.013508517176729932***
--------------------------------------------------
