-0.008535482	-0.49307415	0.009256031	0.26014978	0.016828625	0.035679124	-0.02266193	-0.023881113	-0.044047087	0.36729574	
***0.1***
--------------------------------------------------
-0.022169853	-0.4635958	0.0015710104	0.2466245	0.026394738	0.05706216	-0.024168914	-0.008581464	-0.07473126	0.35860443	
***0.09000000000000001***
--------------------------------------------------
-0.029524043	-0.44512507	-0.003234456	0.23755726	0.03359355	0.074045226	-0.024700547	0.0026867343	-0.09909894	0.35080963	
***0.08100000000000002***
--------------------------------------------------
-0.034815375	-0.43177825	-0.006524181	0.23076004	0.039041374	0.08840006	-0.024925325	0.011709603	-0.119147	0.3442886	
***0.07290000000000002***
--------------------------------------------------
-0.03896256	-0.42149562	-0.0089174025	0.2253123	0.043287877	0.100818135	-0.02504394	0.019197844	-0.13600263	0.33881533	
***0.06561000000000002***
--------------------------------------------------
-0.042348545	-0.4132669	-0.01071303	0.22079076	0.046686143	0.11168272	-0.025133625	0.025544502	-0.1504024	0.33416986	
***0.05904900000000002***
--------------------------------------------------
-0.04517909	-0.40650913	-0.012088531	0.2169497	0.04945691	0.12124667	-0.025215827	0.031005682	-0.16282974	0.3301727	
***0.05314410000000002***
--------------------------------------------------
-0.047583356	-0.40085992	-0.013147698	0.21363898	0.051745582	0.12970549	-0.025302146	0.0357503	-0.17364398	0.32670605	
***0.04782969000000002***
--------------------------------------------------
-0.04965036	-0.3960751	-0.0139707485	0.21075529	0.05365848	0.13720793	-0.0253855	0.039908387	-0.18311086	0.32367194	
***0.043046721000000024***
--------------------------------------------------
-0.051444832	-0.391979	-0.01460878	0.20822129	0.055269126	0.14388305	-0.025471037	0.04356758	-0.19143628	0.32100832	
***0.03874204890000002***
--------------------------------------------------
-0.053008404	-0.3884439	-0.015102687	0.20598152	0.056636535	0.14983086	-0.02555451	0.046804167	-0.19878721	0.31865305	
***0.03486784401000002***
--------------------------------------------------
-0.054383896	-0.38537633	-0.01548121	0.2039909	0.057803433	0.15514065	-0.025633628	0.049673278	-0.20529263	0.31656894	
***0.03138105960900001***
--------------------------------------------------
-0.055595964	-0.38269845	-0.015771084	0.20221618	0.05880024	0.15988687	-0.025707938	0.05222563	-0.2110647	0.3147187	
***0.028242953648100012***
--------------------------------------------------
-0.05666974	-0.38035208	-0.015989067	0.20063001	0.0596569	0.16413581	-0.025777945	0.054500498	-0.21619923	0.31307438	
***0.025418658283290013***
--------------------------------------------------
-0.057623014	-0.3782884	-0.016149962	0.19920789	0.060394824	0.16793916	-0.025841154	0.056527942	-0.22077051	0.3116125	
***0.022876792454961013***
--------------------------------------------------
-0.05847228	-0.37646705	-0.016267477	0.19793147	0.061032377	0.17135045	-0.025899906	0.058340423	-0.22484924	0.3103107	
***0.020589113209464913***
--------------------------------------------------
-0.05922878	-0.37485763	-0.016348762	0.19678497	0.061584033	0.17440784	-0.025953092	0.059959996	-0.22849031	0.3091513	
***0.01853020188851842***
--------------------------------------------------
-0.059905052	-0.37343004	-0.016402781	0.19575298	0.06206213	0.17715296	-0.026001448	0.06140833	-0.23174654	0.30811882	
***0.01667718169966658***
--------------------------------------------------
-0.060509693	-0.3721638	-0.01643581	0.19482368	0.062477868	0.17961721	-0.02604496	0.06270573	-0.23465896	0.3071983	
***0.015009463529699923***
--------------------------------------------------
-0.06105109	-0.37103644	-0.016452804	0.1939855	0.06283989	0.1818303	-0.026084615	0.06386703	-0.23726633	0.306378	
***0.013508517176729932***
--------------------------------------------------
