-0.014316366	-0.50198984	0.01154558	0.25857785	0.018460844	0.04628345	-0.015515825	-0.027818572	-0.048510056	0.37029225	
***0.1***
--------------------------------------------------
-0.027304772	-0.47126767	0.0033813443	0.2442891	0.026706342	0.06484469	-0.017205516	-0.013095763	-0.07165281	0.35831448	
***0.09000000000000001***
--------------------------------------------------
-0.03484826	-0.45201778	-0.0014082417	0.23556773	0.033002753	0.08038855	-0.018046996	-0.0015307941	-0.09308352	0.34898585	
***0.08100000000000002***
--------------------------------------------------
-0.040158153	-0.43798926	-0.004869375	0.22888352	0.03787429	0.093705244	-0.01875335	0.007910663	-0.11131601	0.3417217	
***0.07290000000000002***
--------------------------------------------------
-0.04417773	-0.42709506	-0.0075045647	0.22340505	0.04170494	0.10529114	-0.019371958	0.015815653	-0.12695208	0.33589408	
***0.06561000000000002***
--------------------------------------------------
-0.04734492	-0.41831595	-0.009553973	0.21878539	0.04478975	0.11544357	-0.019946968	0.022552084	-0.14050694	0.33110735	
***0.05904900000000002***
--------------------------------------------------
-0.04990659	-0.41107383	-0.011171809	0.2148182	0.047322262	0.124390215	-0.020490522	0.028362794	-0.15234682	0.32710543	
***0.05314410000000002***
--------------------------------------------------
-0.052017104	-0.40499762	-0.01245926	0.21138437	0.049438216	0.13229941	-0.021005526	0.03341483	-0.16276397	0.3237159	
***0.04782969000000002***
--------------------------------------------------
-0.05378163	-0.39984065	-0.013487088	0.20838979	0.051231757	0.13931288	-0.021496493	0.03783723	-0.17196734	0.3208109	
***0.043046721000000024***
--------------------------------------------------
-0.05527471	-0.39541844	-0.0143099	0.20576358	0.05277233	0.14554736	-0.021955485	0.041729454	-0.18013829	0.3182937	
***0.03874204890000002***
--------------------------------------------------
-0.056547932	-0.39159876	-0.014964476	0.20345625	0.05410723	0.15110286	-0.022385594	0.045163	-0.18742749	0.31610438	
***0.03486784401000002***
--------------------------------------------------
-0.057643086	-0.3882759	-0.015483233	0.20142381	0.0552756	0.15606374	-0.022783348	0.048206132	-0.19396046	0.3141862	
***0.03138105960900001***
--------------------------------------------------
-0.05859012	-0.38537163	-0.015892059	0.19963165	0.056306016	0.16050403	-0.023150597	0.05090871	-0.19983602	0.3124994	
***0.028242953648100012***
--------------------------------------------------
-0.059413314	-0.38282037	-0.016208334	0.19805272	0.057218153	0.16448505	-0.023485621	0.053312626	-0.20514546	0.31101403	
***0.025418658283290013***
--------------------------------------------------
-0.060132466	-0.38056895	-0.016451418	0.19666113	0.058033038	0.1680608	-0.023790082	0.055455916	-0.20996106	0.30970255	
***0.022876792454961013***
--------------------------------------------------
-0.060762674	-0.37857786	-0.016631214	0.19543542	0.05876151	0.17127925	-0.02406556	0.05736942	-0.2143409	0.30854183	
***0.020589113209464913***
--------------------------------------------------
-0.06131742	-0.37680897	-0.016761009	0.19435692	0.05941565	0.1741798	-0.024314871	0.059080623	-0.21833609	0.30751482	
***0.01853020188851842***
--------------------------------------------------
-0.061805867	-0.37523457	-0.016849454	0.1934089	0.06000419	0.1767966	-0.02453875	0.060609892	-0.22198965	0.30660805	
***0.01667718169966658***
--------------------------------------------------
-0.06223848	-0.37383023	-0.01690463	0.19257475	0.06053532	0.17916137	-0.024739347	0.061981153	-0.2253337	0.30580336	
***0.015009463529699923***
--------------------------------------------------
-0.062621	-0.37257493	-0.01693362	0.19184195	0.06101556	0.18129903	-0.024919227	0.0632088	-0.22839934	0.30509213	
***0.013508517176729932***
--------------------------------------------------
