-0.015291159	-0.50527775	0.009595757	0.26159945	0.016129086	0.053075712	-0.016345734	-0.021473607	-0.053158198	0.36815593	
***0.1***
--------------------------------------------------
-0.027528513	-0.47290364	0.0018578391	0.24763845	0.025481686	0.071203016	-0.019031405	-0.007507315	-0.08041686	0.35821614	
***0.09000000000000001***
--------------------------------------------------
-0.034671992	-0.45242065	-0.0027079622	0.23849733	0.032439355	0.08604852	-0.020775257	0.0039846064	-0.10279855	0.34941396	
***0.08100000000000002***
--------------------------------------------------
-0.039773203	-0.43775448	-0.005593493	0.23152092	0.03770585	0.0987782	-0.02187682	0.013439992	-0.12156568	0.34212816	
***0.07290000000000002***
--------------------------------------------------
-0.043728698	-0.42649552	-0.0075820377	0.22584485	0.041822635	0.10988989	-0.022634663	0.021302586	-0.13753363	0.33612397	
***0.06561000000000002***
--------------------------------------------------
-0.046912868	-0.41749007	-0.00903571	0.22107872	0.04511538	0.11966845	-0.023191039	0.027927004	-0.15128675	0.33113638	
***0.05904900000000002***
--------------------------------------------------
-0.049538683	-0.41010362	-0.010139987	0.21700673	0.047806315	0.12831588	-0.0236168	0.03356589	-0.16324364	0.32695735	
***0.05314410000000002***
--------------------------------------------------
-0.05173592	-0.4039311	-0.0110082505	0.21348912	0.050037116	0.13599034	-0.023954842	0.03840321	-0.17371345	0.32343316	
***0.04782969000000002***
--------------------------------------------------
-0.053589225	-0.3987093	-0.011704234	0.21042588	0.051913366	0.14281614	-0.024232825	0.042583354	-0.18292488	0.32043102	
***0.043046721000000024***
--------------------------------------------------
-0.055164594	-0.39424777	-0.012274025	0.20774284	0.053508975	0.14890344	-0.024467247	0.046208322	-0.19106744	0.31786683	
***0.03874204890000002***
--------------------------------------------------
-0.05651147	-0.39040548	-0.012746434	0.20538421	0.05487659	0.15433486	-0.02466753	0.049370233	-0.19828954	0.31566384	
***0.03486784401000002***
--------------------------------------------------
-0.057668954	-0.3870756	-0.013144281	0.20330505	0.056059994	0.15919143	-0.024841553	0.05213642	-0.20471035	0.31375736	
***0.03138105960900001***
--------------------------------------------------
-0.058667585	-0.38417506	-0.013482645	0.20146824	0.057088792	0.1635351	-0.024994314	0.054563418	-0.2104324	0.31210575	
***0.028242953648100012***
--------------------------------------------------
-0.059530534	-0.38163814	-0.01377296	0.199841	0.057990856	0.1674246	-0.025131542	0.056698777	-0.21553965	0.310667	
***0.025418658283290013***
--------------------------------------------------
-0.060280398	-0.37941146	-0.014023829	0.19839884	0.058783453	0.17090982	-0.02525402	0.058583185	-0.22010556	0.30940965	
***0.022876792454961013***
--------------------------------------------------
-0.060932454	-0.37745076	-0.014241472	0.19711718	0.059485797	0.17403258	-0.025364181	0.06024782	-0.22419208	0.3083071	
***0.020589113209464913***
--------------------------------------------------
-0.06150074	-0.3757207	-0.014432642	0.19597754	0.060108338	0.17683339	-0.025463939	0.061722882	-0.22785199	0.30733716	
***0.01853020188851842***
--------------------------------------------------
-0.06199826	-0.37418938	-0.014600692	0.19496322	0.06066173	0.17934601	-0.025554467	0.063031934	-0.23113376	0.306483	
***0.01667718169966658***
--------------------------------------------------
-0.062434148	-0.3728318	-0.014748967	0.19406052	0.061154965	0.18160012	-0.025636122	0.06419533	-0.2340777	0.30572724	
***0.015009463529699923***
--------------------------------------------------
-0.06281658	-0.3716261	-0.014880501	0.19325462	0.061596267	0.18362372	-0.025710927	0.065229475	-0.23671928	0.30505884	
***0.013508517176729932***
--------------------------------------------------
