-0.0004957854	-0.22544757	0.016603814	0.08564318	-0.00045161415	0.010829823	-0.0010210725	-0.012311231	-0.0012712306	0.10802315	-0.042331584	0.010188126	0.084506445	-0.14224124	-0.057293735	-0.014603229	0.035633147	0.023264954	0.14796467	0.09951678	0.10269521	-0.13362306	-0.050864752	0.10700834	0.08929322	0.08259085	-0.13647456	-0.19763489	0.13500632	-0.10684879	-0.05103896	0.09223304	-0.09828965	0.06271591	-0.12970826	-0.028610522	-0.08476739	-0.076213405	-0.11666366	-0.040971622	-0.14049917	0.096572764	0.12959006	0.03366792	-0.07602199	0.042767253	0.04349732	-0.053629726	0.10108479	0.03316117	0.008411693	0.06214884	-0.1831365	-0.015623872	-0.046824086	0.079145834	-0.09426504	-0.03367998	-0.028397974	0.1568344	-0.15207137	0.10287439	0.06738352	0.10621912	0.08508113	0.08114698	-0.070799306	0.19432616	-0.058174413	0.122060545	0.17741163	-0.034931287	0.040654164	0.032415908	-0.08817269	-0.147651	-0.08795228	-0.08476648	0.05425419	0.034601532	0.045612115	0.06469285	-0.007387065	0.14901702	-0.038303755	-0.12258533	0.039398015	0.015434766	0.07702803	-0.0026696818	-0.027326876	0.07613237	0.011833299	-0.02209718	0.10000794	-0.09307757	0.06873771	-0.009121162	0.06752934	-0.07653127	0.138196	0.017177243	-0.037552673	-0.004538281	-0.10611868	0.077038534	-0.079864	0.14108492	-0.0770954	-0.06701077	-0.0940302	-0.044369623	0.0890922	-0.042513836	-0.1276767	-0.11243433	0.05586741	
***0.1***
--------------------------------------------------
-0.0013510986	-0.16438146	0.015062109	0.085370645	-0.00018386234	0.010514258	-0.0006143646	-0.013069138	-0.0022151407	0.10881598	-0.042419486	0.010122143	0.08435705	-0.14209779	-0.056654252	-0.01602481	0.03600942	0.02303241	0.14774263	0.1001672	0.10292515	-0.13306563	-0.050885808	0.10548785	0.098293625	0.07012922	-0.11133369	-0.19707684	0.13623063	-0.108607955	-0.049321055	0.09139649	-0.10011907	0.06339644	-0.12908122	-0.01778932	-0.085604645	-0.07389816	-0.11518405	-0.10033268	-0.14056888	0.09637537	0.12967342	0.03324498	-0.07523146	0.041928943	0.043482244	-0.053148795	0.10045731	0.033565477	0.007893906	0.06264092	-0.18387832	-0.016568735	-0.048261732	0.078445315	-0.09366828	-0.03352682	-0.02880406	0.1568146	-0.1516555	0.10307205	0.067183234	0.10578706	0.08507991	0.08044337	-0.07122448	0.19415408	-0.058446344	0.12197839	0.17737246	-0.03544673	0.040492363	0.031988923	-0.08847536	-0.1482092	-0.088747755	-0.084384315	0.05404836	0.034327906	0.045418333	0.06417493	-0.0080967955	0.1484483	-0.03890202	-0.123328365	0.03865861	0.014460909	0.076705046	-0.0035008274	-0.028028643	0.07530835	0.011437115	-0.022839354	0.09912745	-0.093754	0.067903265	-0.009816669	0.06681885	-0.07710337	0.13752072	0.01616627	-0.038542815	-0.0052868705	-0.10688438	0.076307654	-0.080261484	0.14040536	-0.077687465	-0.06759022	-0.09474926	-0.045097478	0.088480555	-0.043130256	-0.12809679	-0.11296651	0.055205137	
***0.09000000000000001***
--------------------------------------------------
-0.0020504054	-0.17681676	0.013888675	0.08491747	-0.00069348817	0.009958892	-0.00037480448	-0.013903437	-0.0029636961	0.10873807	-0.042735826	0.009721807	0.08401141	-0.14254309	-0.056473345	-0.016479412	0.035787307	0.023793828	0.1475464	0.09991879	0.10299665	-0.13320522	-0.051620945	0.105278514	0.10201623	0.08088135	-0.10111005	-0.19686547	0.13534595	-0.10695887	-0.049226742	0.09077738	-0.10026537	0.06318831	-0.12916613	-0.015344161	-0.08635562	-0.07415039	-0.11517048	-0.06745156	-0.14104354	0.09577466	0.12889838	0.03272154	-0.075231045	0.041305795	0.0430149	-0.053263772	0.09973991	0.03313302	0.0075296843	0.062366474	-0.18440919	-0.017445333	-0.04864423	0.077611454	-0.0939683	-0.033727117	-0.029434687	0.15634336	-0.1522019	0.102903396	0.06686897	0.10513927	0.084817044	0.0795996	-0.07176408	0.19349103	-0.058672857	0.12164567	0.17688492	-0.03595608	0.040238988	0.0314185	-0.08888942	-0.14874442	-0.08928988	-0.08425713	0.053739913	0.034002304	0.04485188	0.063644856	-0.008725374	0.14798366	-0.03954958	-0.12392505	0.03803977	0.013804461	0.076414354	-0.0041040755	-0.02863322	0.074564956	0.011089192	-0.023370009	0.09841315	-0.09433205	0.06720477	-0.010338285	0.066164464	-0.07759299	0.13690028	0.015467079	-0.03926248	-0.0058446033	-0.10756953	0.07574647	-0.08063066	0.13984543	-0.07818934	-0.068144746	-0.09538609	-0.045705087	0.0879067	-0.043824606	-0.12846602	-0.11342593	0.054719597	
***0.08100000000000002***
--------------------------------------------------
-0.0025518308	-0.17744505	0.01386343	0.08468056	-0.0008261925	0.009705714	-0.00022872337	-0.014162791	-0.00316423	0.10878176	-0.04288287	0.0095110545	0.08381955	-0.14273506	-0.05631265	-0.016511811	0.036000945	0.02413732	0.14812282	0.10008423	0.103527874	-0.1329437	-0.0513697	0.1053453	0.101113625	0.08130806	-0.10680716	-0.19594538	0.13589597	-0.10660553	-0.048571467	0.09064997	-0.10050285	0.06355912	-0.12879927	-0.013418023	-0.08634071	-0.07402052	-0.11523841	-0.04312322	-0.14100401	0.095478095	0.12856482	0.03254273	-0.075319566	0.041212715	0.04287436	-0.05324905	0.09954896	0.03293807	0.0076472242	0.062221155	-0.18444312	-0.017686976	-0.048507784	0.077209346	-0.094202705	-0.033934053	-0.029611202	0.15609764	-0.15236612	0.10270351	0.06664142	0.10488125	0.08468457	0.079058245	-0.07199159	0.19306831	-0.05887409	0.12159088	0.17663226	-0.03626874	0.040019546	0.031172138	-0.08916277	-0.14887375	-0.08968448	-0.084194265	0.05351355	0.0337625	0.044587858	0.06327486	-0.009078584	0.14761256	-0.03997207	-0.12421293	0.03761123	0.013301108	0.0761715	-0.004578588	-0.029078374	0.074047685	0.010801171	-0.023794964	0.0979023	-0.094755396	0.06673733	-0.010753842	0.06570934	-0.07796744	0.13645114	0.014934401	-0.039793223	-0.006291863	-0.108052246	0.075308084	-0.08092087	0.13942875	-0.07856816	-0.06853892	-0.09583529	-0.046147726	0.087498076	-0.04427902	-0.12876146	-0.11378125	0.054324523	
***0.07290000000000002***
--------------------------------------------------
-0.0029872877	-0.1756993	0.013545039	0.08438369	-0.0011106506	0.009409513	-0.00018767663	-0.014679752	-0.0036290544	0.108697034	-0.043095674	0.009268011	0.083531946	-0.14307164	-0.05627743	-0.016792	0.035982426	0.024250109	0.14834948	0.10001184	0.10376017	-0.13291883	-0.051603712	0.10506333	0.101724334	0.08251209	-0.09857218	-0.19540425	0.13681667	-0.10655104	-0.04794792	0.09027713	-0.10101615	0.063665725	-0.12872663	-0.012314362	-0.08661305	-0.07414505	-0.115509965	-0.026442269	-0.14130937	0.09506355	0.1281716	0.032286607	-0.07551281	0.040895417	0.042649843	-0.053407222	0.099169634	0.032642413	0.0075008515	0.061920203	-0.18476008	-0.01815616	-0.04876008	0.07663418	-0.09464619	-0.03423229	-0.03000845	0.15580371	-0.15268555	0.102385834	0.06634576	0.104457036	0.08450544	0.078471735	-0.072288185	0.19257063	-0.059061278	0.12139083	0.17626105	-0.03659835	0.039750908	0.03088216	-0.08945274	-0.14918144	-0.09003725	-0.084247716	0.053232007	0.033514634	0.0442825	0.06293625	-0.009462107	0.1472795	-0.04035524	-0.124607585	0.03722285	0.012867051	0.0759282	-0.0049893158	-0.029472804	0.07359843	0.010538347	-0.024168322	0.097458996	-0.09513101	0.06630201	-0.01112124	0.06530882	-0.0783042	0.13603194	0.014478748	-0.040249396	-0.0066835773	-0.10847492	0.07492325	-0.08118798	0.13905878	-0.07890914	-0.06889489	-0.09623355	-0.046538897	0.087131456	-0.04468556	-0.12903348	-0.11410387	0.053975325	
***0.06561000000000002***
--------------------------------------------------
-0.0031904643	-0.17035915	0.013822249	0.084609985	-0.0005622911	0.00964927	9.297841e-05	-0.014346423	-0.0032134957	0.10930096	-0.042773265	0.009636908	0.08373338	-0.14269821	-0.055757374	-0.016269198	0.036750395	0.025047999	0.14933392	0.100813456	0.10479859	-0.13209556	-0.05094456	0.105579846	0.103261404	0.08360843	-0.10235318	-0.19420093	0.13777027	-0.10564335	-0.04693364	0.09077798	-0.100585476	0.06465423	-0.12777512	-0.011000087	-0.08602118	-0.0732791	-0.11496906	-0.057585325	-0.14082037	0.09539162	0.12861533	0.03261141	-0.07508031	0.041381314	0.04310204	-0.052939717	0.099577144	0.03308969	0.008154655	0.062346343	-0.18430312	-0.01781604	-0.04825542	0.07690966	-0.09437506	-0.034050364	-0.02964982	0.15614867	-0.15218046	0.10253736	0.066374496	0.10468533	0.084680244	0.078465715	-0.07204913	0.19273761	-0.059172172	0.12175636	0.17652877	-0.036536865	0.0397365	0.031015202	-0.08934098	-0.14888597	-0.09008077	-0.08401758	0.053314306	0.033511102	0.0444655	0.06279505	-0.009465427	0.14710219	-0.040501516	-0.12451004	0.037080444	0.012643696	0.0758306	-0.0052071847	-0.029662747	0.073388495	0.010393417	-0.02436237	0.09724979	-0.09530858	0.06615598	-0.011313295	0.065133475	-0.078466326	0.13587211	0.014237245	-0.040477	-0.0068983594	-0.10866518	0.07472502	-0.081318825	0.13888456	-0.079074614	-0.06904611	-0.096410036	-0.0467191	0.08696803	-0.044845793	-0.12917292	-0.114262596	0.053788666	
***0.05904900000000002***
--------------------------------------------------
-0.003454506	-0.17509285	0.01361131	0.084424324	-0.0009007926	0.009440652	0.0001583614	-0.014847146	-0.0036835205	0.10918591	-0.042876035	0.009488865	0.08354245	-0.14300382	-0.055707492	-0.016482694	0.036658026	0.024993764	0.14943616	0.10062819	0.10487445	-0.13216814	-0.05128611	0.10532708	0.1029696	0.0846202	-0.09734668	-0.19378474	0.13856556	-0.10570491	-0.046381805	0.09039187	-0.10111481	0.06456278	-0.12786415	-0.0102093145	-0.08632242	-0.073633716	-0.11532021	-0.035736397	-0.14110118	0.095036164	0.12818088	0.032451466	-0.07524557	0.04109097	0.042897265	-0.05312971	0.099218965	0.032809474	0.007968717	0.062073745	-0.18462512	-0.018246965	-0.048525725	0.076342374	-0.09481048	-0.034250908	-0.030017173	0.15591171	-0.15252517	0.102321506	0.066161744	0.10432028	0.08455502	0.07801947	-0.072256796	0.19231437	-0.059297927	0.121598005	0.17620039	-0.03674102	0.039543055	0.030821985	-0.08950921	-0.14915648	-0.09024946	-0.084074825	0.053147532	0.033352688	0.044229798	0.06256869	-0.009714517	0.14689033	-0.040754303	-0.12477451	0.036844615	0.01238997	0.07567149	-0.0054530217	-0.029911907	0.073109746	0.010217826	-0.024586067	0.09697821	-0.09554473	0.06588569	-0.011536494	0.064879425	-0.07868092	0.13559985	0.013969392	-0.04074893	-0.007137936	-0.108924314	0.07448921	-0.08149654	0.13865294	-0.07929024	-0.06927737	-0.09665973	-0.046962295	0.0867303	-0.04511122	-0.12935215	-0.11446923	0.053576272	
***0.05314410000000002***
--------------------------------------------------
-0.0036811118	-0.17185156	0.013320859	0.084253736	-0.0011078131	0.009288689	0.00017972535	-0.015213444	-0.004002006	0.10909554	-0.043000225	0.009343387	0.08336353	-0.1432534	-0.055670664	-0.016641913	0.036633506	0.025012532	0.1495477	0.1005817	0.105044745	-0.13214561	-0.051454466	0.10512219	0.1033003	0.08484641	-0.098971866	-0.19341323	0.13893312	-0.10562884	-0.046045095	0.09013267	-0.10143302	0.06462317	-0.12779398	-0.009736391	-0.08651879	-0.07372133	-0.115540415	-0.019900264	-0.14133	0.094742924	0.12787552	0.03229621	-0.07541016	0.04087579	0.042735267	-0.053245217	0.09895187	0.032579944	0.00788618	0.0618444	-0.18483713	-0.018586792	-0.048729327	0.07594353	-0.095151536	-0.03446416	-0.030296113	0.15572792	-0.15277277	0.10208305	0.06595984	0.104032665	0.08446105	0.077638656	-0.07241218	0.19197412	-0.059413053	0.12147466	0.17594755	-0.0369112	0.039354794	0.030682985	-0.089665286	-0.14934272	-0.09041378	-0.0841429	0.052975934	0.033213984	0.044063054	0.062381383	-0.009921859	0.14670348	-0.040958904	-0.12501353	0.036643054	0.012164464	0.075523145	-0.0056721587	-0.030125502	0.072875254	0.010062003	-0.024787132	0.096745946	-0.09574654	0.065656655	-0.011736072	0.064666264	-0.07886696	0.13536493	0.013732944	-0.040985603	-0.007351187	-0.10914475	0.07428142	-0.08165111	0.13845298	-0.079476416	-0.069471434	-0.09687101	-0.04717078	0.0865304	-0.045327082	-0.129509	-0.11464928	0.05338499	
***0.04782969000000002***
--------------------------------------------------
-0.0038436376	-0.17060162	0.013351245	0.08424704	-0.0009925903	0.009298358	0.0002695902	-0.015249141	-0.0039710347	0.109271616	-0.042949226	0.009403223	0.08334375	-0.14322422	-0.055476744	-0.016473569	0.03690954	0.02530876	0.15000533	0.100882426	0.10551512	-0.13183501	-0.051214315	0.10526169	0.10373277	0.08537406	-0.10005938	-0.1927649	0.13946636	-0.105189085	-0.045457955	0.090252884	-0.101363495	0.06505182	-0.12735057	-0.009273008	-0.086331196	-0.073419794	-0.115446776	-0.023403673	-0.14120436	0.09474693	0.12791695	0.032351773	-0.075335786	0.041018024	0.042824645	-0.05314095	0.098981015	0.03265382	0.00807574	0.061883014	-0.18478648	-0.018609192	-0.048655216	0.075840764	-0.095218755	-0.034509663	-0.030297138	0.15576063	-0.15269667	0.10201274	0.06586553	0.10396933	0.084470674	0.07745271	-0.07240423	0.19186902	-0.05950267	0.12153747	0.17591554	-0.03696754	0.03925074	0.03066252	-0.08969942	-0.14933641	-0.090495296	-0.08411594	0.052917525	0.033147298	0.04404191	0.0622498	-0.010020906	0.14656292	-0.04109873	-0.12510125	0.036509212	0.011997618	0.07541954	-0.0058358465	-0.030281384	0.072705634	0.009943842	-0.024935773	0.09657832	-0.09589271	0.06550621	-0.011884582	0.06451623	-0.079002105	0.13520469	0.01355573	-0.041159008	-0.0075123673	-0.10930128	0.07412771	-0.081764296	0.13830948	-0.07961282	-0.069606975	-0.097020894	-0.047320068	0.08638786	-0.045475192	-0.12962571	-0.11478151	0.053242035	
***0.043046721000000024***
--------------------------------------------------
-0.0039994703	-0.16998462	0.013119841	0.084150724	-0.0011044103	0.009208874	0.0003059193	-0.015506575	-0.004196553	0.1092673	-0.04299373	0.009348281	0.0832368	-0.14336966	-0.055406433	-0.016565999	0.03695034	0.02537002	0.15017143	0.10091284	0.10568544	-0.13176219	-0.051326517	0.10511849	0.10391532	0.08573497	-0.10126581	-0.19244328	0.13969538	-0.10508175	-0.045172445	0.09009	-0.10158311	0.065152176	-0.12727806	-0.009129365	-0.08641568	-0.07346265	-0.11556941	-0.012322627	-0.14136125	0.09457842	0.12773338	0.032281443	-0.075402655	0.040908456	0.042746995	-0.053205766	0.09881284	0.03254159	0.008047278	0.061772075	-0.18492769	-0.018820856	-0.048804972	0.07555554	-0.095458046	-0.034638345	-0.03047446	0.15565881	-0.15283264	0.10186749	0.065724075	0.10377076	0.08441483	0.0771816	-0.072494484	0.19163567	-0.059587136	0.121475875	0.17574653	-0.03707567	0.03911428	0.030577105	-0.08979452	-0.14946389	-0.09059206	-0.0841613	0.052810993	0.03305377	0.043931946	0.06211715	-0.010158324	0.14643088	-0.04124253	-0.12526132	0.036372527	0.011843823	0.0753133	-0.0059863296	-0.030430237	0.07254348	0.009831655	-0.025074199	0.09641871	-0.09603364	0.0653506	-0.012022634	0.064367875	-0.07913288	0.13503931	0.013393707	-0.041320954	-0.0076608914	-0.109453365	0.07398305	-0.081875004	0.13817003	-0.079743885	-0.0697433	-0.09716722	-0.047464356	0.08624753	-0.045626316	-0.12973833	-0.11490842	0.053109415	
***0.03874204890000002***
--------------------------------------------------
-0.004120357	-0.1693898	0.013002209	0.084137775	-0.0010239253	0.009216271	0.00037390678	-0.0155870505	-0.004242927	0.10939538	-0.04295949	0.009401778	0.083215855	-0.14336798	-0.0552529	-0.016533198	0.03713672	0.02561211	0.15047874	0.101129845	0.10600985	-0.13154124	-0.051200323	0.10513777	0.1039676	0.086065575	-0.09871878	-0.19202597	0.1398606	-0.10477065	-0.044854537	0.09012899	-0.10157123	0.06547027	-0.12697215	-0.009162149	-0.0862983	-0.07325955	-0.1155086	-0.015198049	-0.14134796	0.09456929	0.1277567	0.032325473	-0.07534221	0.040948726	0.042811573	-0.053136382	0.098796465	0.03258919	0.008154672	0.06178801	-0.18494298	-0.0188753	-0.0488383	0.07544835	-0.09554707	-0.03468225	-0.030509293	0.15568346	-0.15280151	0.10179926	0.06564008	0.10369142	0.0844209	0.0770198	-0.072491184	0.1915434	-0.05965654	0.12151089	0.17570384	-0.03711899	0.03902469	0.030558191	-0.089820236	-0.14948674	-0.09064902	-0.084148794	0.052759815	0.0330021	0.043910716	0.062017016	-0.010238886	0.1463247	-0.041348312	-0.12535156	0.036272544	0.011720475	0.075231366	-0.006107886	-0.030547228	0.072417066	0.009741041	-0.025185078	0.096294	-0.09614345	0.065236405	-0.012133719	0.06425516	-0.079234995	0.13491541	0.013262946	-0.041449346	-0.0077813114	-0.10957004	0.07386807	-0.08196165	0.13806203	-0.07984665	-0.069845855	-0.097279705	-0.047576226	0.086139694	-0.04573793	-0.12982745	-0.115008496	0.053002305	
***0.03486784401000002***
--------------------------------------------------
-0.0042358316	-0.16941547	0.012724891	0.08406437	-0.0011100951	0.009152278	0.00040303133	-0.015815841	-0.004453339	0.10939462	-0.042992	0.009368571	0.08313225	-0.14349502	-0.055191733	-0.016680578	0.037159003	0.025672875	0.15057619	0.101157255	0.10612188	-0.1314884	-0.051316097	0.10495841	0.10390326	0.086213686	-0.09704946	-0.19183604	0.13987741	-0.10469763	-0.04472223	0.08996473	-0.10176115	0.06554008	-0.12693655	-0.00931597	-0.086386524	-0.07329329	-0.1156042	-0.007145367	-0.14152715	0.09443323	0.1276168	0.032272995	-0.075387724	0.04082223	0.04275156	-0.05318462	0.0986445	0.032499116	0.008119712	0.06170574	-0.18507282	-0.019060347	-0.049009398	0.07522301	-0.09575212	-0.034783386	-0.030659894	0.15560734	-0.15291843	0.101682134	0.06552573	0.10352333	0.08438132	0.07680413	-0.07255652	0.19136192	-0.059721995	0.12146116	0.1755696	-0.037198305	0.038914453	0.030496558	-0.08989061	-0.14959319	-0.09071834	-0.084186636	0.052676566	0.032931667	0.04382937	0.061917428	-0.0103427665	0.14622483	-0.041455172	-0.12548484	0.036171563	0.011606218	0.07514858	-0.006220297	-0.030658627	0.072296515	0.009655011	-0.025288522	0.096175455	-0.09624896	0.06512065	-0.012237251	0.0641445	-0.07933328	0.13478939	0.013142532	-0.041569605	-0.007892847	-0.10968266	0.07375976	-0.082045816	0.13795766	-0.079945035	-0.06994756	-0.097388715	-0.047683716	0.08603436	-0.045849983	-0.12991312	-0.11510419	0.05290254	
***0.03138105960900001***
--------------------------------------------------
-0.0043296483	-0.1695388	0.012608132	0.08404167	-0.0010692201	0.009147609	0.00044947583	-0.015911557	-0.004523892	0.10947638	-0.04297704	0.009399335	0.08310343	-0.14351264	-0.05508014	-0.016678229	0.037280604	0.025850723	0.1507813	0.101306535	0.1063578	-0.1313354	-0.051242165	0.1049434	0.10394672	0.08643737	-0.095817424	-0.19152266	0.14000826	-0.10446039	-0.04446725	0.08997195	-0.1017618	0.065768264	-0.12671144	-0.009350073	-0.086321324	-0.07315582	-0.1155775	-0.0066845524	-0.14154246	0.09440796	0.12761103	0.032294184	-0.07535559	0.040822864	0.04278288	-0.05314849	0.098605424	0.032517258	0.008181576	0.061697472	-0.18511231	-0.019134361	-0.049069207	0.07510918	-0.0958464	-0.034831412	-0.03071275	0.1556122	-0.15292157	0.101613924	0.06544799	0.103438176	0.08437815	0.07665889	-0.07256538	0.1912711	-0.05977723	0.12147183	0.17551596	-0.037238847	0.038834143	0.030474456	-0.089918815	-0.14963022	-0.09076443	-0.08418877	0.052627146	0.03288651	0.043801043	0.06183815	-0.010412399	0.14614181	-0.041538764	-0.12556998	0.036093008	0.011511224	0.07508153	-0.0063142455	-0.030749919	0.07219847	0.009583242	-0.025374578	0.096078604	-0.09633474	0.06503002	-0.012323529	0.06405606	-0.07941347	0.13468981	0.01304209	-0.041668776	-0.007986161	-0.1097734	0.07367033	-0.082114585	0.13787304	-0.08002539	-0.07002851	-0.09747665	-0.047771078	0.08594953	-0.045937937	-0.12998357	-0.11518275	0.052819166	
***0.028242953648100012***
--------------------------------------------------
-0.004415118	-0.16975117	0.012438245	0.08400123	-0.0010896106	0.009118472	0.00048101923	-0.01605387	-0.00464874	0.10951231	-0.042982988	0.0094006285	0.08305546	-0.14357454	-0.05500647	-0.01674028	0.037341762	0.025950383	0.15090774	0.10138423	0.10650291	-0.1312485	-0.051260326	0.10485663	0.103936635	0.08659455	-0.09489857	-0.19130945	0.14007963	-0.10432683	-0.044296864	0.089907095	-0.101841725	0.065894105	-0.12660278	-0.009427845	-0.086330354	-0.07311243	-0.115607426	-0.0026630424	-0.1416273	0.09434017	0.12754908	0.032280885	-0.07536006	0.04076993	0.04276945	-0.05315641	0.09852208	0.03248788	0.008190309	0.061661374	-0.18518804	-0.019245809	-0.049174562	0.07496123	-0.09597607	-0.034894366	-0.030800885	0.15558186	-0.1529732	0.10153603	0.065365486	0.10332765	0.08435948	0.076504506	-0.07259686	0.19115455	-0.05982763	0.12145347	0.1754344	-0.037288886	0.038752027	0.030439524	-0.08996035	-0.14969409	-0.09081059	-0.084208004	0.0525713	0.032837894	0.043753628	0.061764333	-0.010484575	0.14606647	-0.04161715	-0.12566358	0.036019698	0.011425954	0.07501865	-0.0063984976	-0.030833002	0.072109126	0.0095176995	-0.025452072	0.09599055	-0.09641328	0.06494547	-0.012401229	0.06397424	-0.079486944	0.13459618	0.0129521005	-0.041758303	-0.008070089	-0.10985649	0.07358922	-0.08217799	0.13779534	-0.08009893	-0.07010365	-0.09755732	-0.04785085	0.085871235	-0.046020087	-0.13004823	-0.11525452	0.052744042	
***0.025418658283290013***
--------------------------------------------------
-0.004488351	-0.16997644	0.012320895	0.08397764	-0.0010699085	0.009109162	0.0005153804	-0.016150573	-0.004730267	0.10956951	-0.042975307	0.009421284	0.08302693	-0.14359817	-0.054921795	-0.01675694	0.037425604	0.026083542	0.15104963	0.10149022	0.10667615	-0.13113831	-0.0512232	0.10482313	0.10395631	0.08675939	-0.094235405	-0.19107684	0.14017229	-0.10415351	-0.044102296	0.08989755	-0.10185689	0.06606102	-0.12644158	-0.009476157	-0.08629449	-0.07302084	-0.115597814	-0.0009980737	-0.14166011	0.0943106	0.12753202	0.032291137	-0.07534045	0.0407477	0.042784482	-0.053139012	0.09847642	0.032493588	0.0082247965	0.061646383	-0.1852367	-0.019320412	-0.04924466	0.07485338	-0.09606487	-0.03493807	-0.030857222	0.15557858	-0.15298942	0.10147624	0.065298215	0.1032473	0.08435271	0.07637971	-0.07260983	0.1910725	-0.05987164	0.121452905	0.17538074	-0.03732428	0.03868343	0.030418156	-0.08998652	-0.14973529	-0.090846784	-0.08421555	0.052528378	0.03279984	0.04372462	0.06170147	-0.010542534	0.14600126	-0.04168338	-0.12573852	0.035957977	0.011352269	0.07496438	-0.0064715007	-0.0309045	0.07203257	0.009460759	-0.025519159	0.095914915	-0.09648059	0.06487381	-0.012468526	0.0639045	-0.07955011	0.13451646	0.012874286	-0.04183545	-0.008142843	-0.10992743	0.07351924	-0.08223261	0.13772872	-0.080162086	-0.07016762	-0.09762634	-0.047919307	0.085804276	-0.04608959	-0.13010402	-0.115316354	0.052678853	
***0.022876792454961013***
--------------------------------------------------
-0.0045534973	-0.17019229	0.012202496	0.083953656	-0.0010614214	0.009096925	0.00054471823	-0.016248025	-0.004815601	0.109616056	-0.042970683	0.009436796	0.0829979	-0.14362653	-0.054849587	-0.016783794	0.037493385	0.02619343	0.1511666	0.10157762	0.10681999	-0.13104722	-0.05120426	0.10477897	0.10396097	0.08689813	-0.09374986	-0.19088008	0.14024808	-0.104009956	-0.04393669	0.08987797	-0.10188303	0.066197835	-0.12631291	-0.009530642	-0.08627315	-0.072951116	-0.11559775	0.001156426	-0.14170256	0.09427737	0.127508	0.032295454	-0.07532695	0.0407183	0.042791247	-0.053130534	0.098427124	0.03249198	0.008247542	0.06162976	-0.18528786	-0.019395022	-0.049318325	0.0747481	-0.09615238	-0.034979884	-0.03091463	0.15557028	-0.1530117	0.101420544	0.0652355	0.103168786	0.08434386	0.07626344	-0.07262524	0.1909932	-0.059911102	0.12144744	0.1753267	-0.037358113	0.038619872	0.030396638	-0.09001239	-0.14977817	-0.090879284	-0.084225416	0.05248828	0.032764453	0.04369469	0.061645065	-0.010595823	0.14594312	-0.041742835	-0.1258087	0.035902828	0.0112869525	0.07491537	-0.0065362365	-0.030968161	0.071964405	0.009409753	-0.025578713	0.095847584	-0.09654066	0.06480967	-0.012528299	0.06384209	-0.07960652	0.13444468	0.012805353	-0.04190395	-0.00820747	-0.109990604	0.07345696	-0.082281575	0.13766916	-0.08021845	-0.070224896	-0.097687885	-0.047980282	0.08574436	-0.046151884	-0.13015397	-0.11537155	0.052620884	
***0.020589113209464913***
--------------------------------------------------
-0.0046110307	-0.17039888	0.012096694	0.08393323	-0.0010487627	0.009088162	0.0005712283	-0.016333489	-0.004892029	0.109660186	-0.042965572	0.009453132	0.08297343	-0.14364785	-0.054782305	-0.01680503	0.037556328	0.026299616	0.15127036	0.10165958	0.10695437	-0.13096188	-0.051181804	0.104743324	0.10396511	0.08702164	-0.09339614	-0.1907007	0.14031662	-0.10387404	-0.043783374	0.08986655	-0.10189734	0.06632809	-0.12618789	-0.009582999	-0.08624903	-0.072881415	-0.115592904	0.0029760047	-0.14173685	0.094251655	0.12749146	0.032301947	-0.07531192	0.040689815	0.042800363	-0.053120174	0.09838549	0.03249459	0.008269866	0.061615385	-0.18533385	-0.019460795	-0.0493844	0.07465513	-0.096227966	-0.035016365	-0.0309648	0.15556604	-0.15302907	0.101370804	0.06517928	0.103099585	0.08433696	0.07615989	-0.07263739	0.19092463	-0.05994628	0.12144364	0.1752798	-0.037387393	0.038562734	0.03037856	-0.090034366	-0.1498157	-0.090907745	-0.08423354	0.052452665	0.03273327	0.04366928	0.061595187	-0.01064297	0.14589153	-0.041795272	-0.12587161	0.03585426	0.011229173	0.07487158	-0.006593573	-0.03102449	0.07190422	0.009364351	-0.025631474	0.095788054	-0.09659376	0.064752966	-0.012581274	0.06378693	-0.07965649	0.134381	0.012744411	-0.04196453	-0.008264729	-0.11004633	0.07340182	-0.08232504	0.1376165	-0.0802683	-0.0702755	-0.09774226	-0.04803421	0.08569134	-0.046206817	-0.13019828	-0.115420476	0.05256945	
***0.01853020188851842***
--------------------------------------------------
-0.0046621473	-0.17059329	0.0119982	0.08391465	-0.0010372822	0.009080301	0.0005946634	-0.01641218	-0.0049640513	0.10969987	-0.04296117	0.009468163	0.08295121	-0.14366683	-0.054721747	-0.016826235	0.037611913	0.026396336	0.15135995	0.10173307	0.10707461	-0.13088559	-0.051162343	0.10470955	0.10396438	0.0871287	-0.093136124	-0.19054174	0.14037557	-0.1037512	-0.043646485	0.08985677	-0.10190898	0.0664457	-0.12607476	-0.009635797	-0.086227834	-0.072818	-0.11558836	0.0047224853	-0.14176929	0.094228834	0.12747703	0.032307647	-0.07529799	0.04066024	0.042808246	-0.053111404	0.09834721	0.032497257	0.008288589	0.061601937	-0.18537723	-0.019521382	-0.04944663	0.07457014	-0.096296415	-0.035049304	-0.03101107	0.15556236	-0.15304537	0.101325676	0.06512814	0.103036314	0.08433051	0.07606613	-0.07264854	0.19086286	-0.05997776	0.12143933	0.17523682	-0.037413806	0.038510803	0.030362252	-0.0900542	-0.14985053	-0.09093309	-0.08424128	0.05242038	0.03270518	0.04364611	0.061550718	-0.010685389	0.14584556	-0.041841958	-0.12592886	0.035811115	0.01117784	0.07483222	-0.006644547	-0.031074593	0.071850725	0.009323756	-0.025678402	0.095735095	-0.09664103	0.064702414	-0.012628405	0.063737825	-0.07970101	0.13432403	0.012690302	-0.042018373	-0.008315668	-0.11009583	0.073352754	-0.08236385	0.13756956	-0.080312654	-0.07032056	-0.097790636	-0.048082165	0.0856441	-0.046255693	-0.13023785	-0.11546406	0.052523635	
***0.01667718169966658***
--------------------------------------------------
-0.0047076666	-0.17077853	0.011907058	0.08389769	-0.0010265112	0.009073332	0.00061527325	-0.016484175	-0.00503142	0.109735414	-0.04295756	0.009481827	0.08293104	-0.14368352	-0.054667193	-0.016846724	0.037661035	0.02648494	0.15143709	0.10179892	0.10718273	-0.13081717	-0.051145043	0.1046783	0.1039607	0.08722182	-0.09294548	-0.19040066	0.14042632	-0.10363971	-0.043524	0.08984879	-0.10191756	0.066552475	-0.12597142	-0.009687949	-0.086208835	-0.072759785	-0.11558385	0.006374572	-0.14179933	0.09420867	0.12746471	0.03231268	-0.075285174	0.04062999	0.0428152	-0.053103734	0.09831227	0.032500047	0.008304431	0.061589047	-0.18541794	-0.019577082	-0.049504682	0.074492715	-0.09635809	-0.03507916	-0.031053608	0.15555932	-0.15306048	0.101284534	0.065081626	0.10297869	0.08432452	0.07598128	-0.07265874	0.19080736	-0.060005985	0.12143479	0.17519765	-0.037437636	0.038463585	0.030347593	-0.090072125	-0.14988263	-0.09095583	-0.08424858	0.052391022	0.03267985	0.043625094	0.06151102	-0.010723614	0.14580452	-0.041883577	-0.12598102	0.035772696	0.011132106	0.074796796	-0.0066899885	-0.03111926	0.071803086	0.009287401	-0.02572025	0.09568791	-0.096683174	0.06465727	-0.012670449	0.06369403	-0.07974074	0.13427302	0.012642131	-0.042066343	-0.008361097	-0.11013989	0.073309	-0.08239855	0.13752767	-0.0803522	-0.070360735	-0.097833745	-0.04812492	0.085601956	-0.04629924	-0.13027321	-0.11550298	0.052482717	
***0.015009463529699923***
--------------------------------------------------
-0.004748283	-0.17095609	0.011822754	0.08388213	-0.0010166802	0.009067002	0.0006333492	-0.016550167	-0.0050944076	0.109767154	-0.042954724	0.009494082	0.082912594	-0.14369841	-0.054618213	-0.016866583	0.037704322	0.026565727	0.15150344	0.10185777	0.10727971	-0.130756	-0.051129866	0.10464929	0.10395479	0.08730291	-0.092807226	-0.19027561	0.14046988	-0.10353878	-0.04341469	0.089842096	-0.10192401	0.06664914	-0.12587743	-0.0097389165	-0.086192064	-0.07270659	-0.11557963	0.007942302	-0.14182729	0.09419062	0.12745398	0.032316916	-0.075273536	0.04059951	0.042821154	-0.053097192	0.09828023	0.03250271	0.008317651	0.061576687	-0.18545608	-0.019628363	-0.049558785	0.07442207	-0.09641385	-0.035106312	-0.031092817	0.1555566	-0.15307467	0.10124696	0.06503926	0.10292615	0.084318876	0.07590443	-0.0726682	0.19075729	-0.06003131	0.12143001	0.17516176	-0.037459258	0.03842061	0.030334314	-0.09008843	-0.14991225	-0.09097632	-0.08425551	0.052364267	0.03265694	0.043605935	0.061475515	-0.010758136	0.14576781	-0.041920744	-0.12602851	0.035738397	0.011091285	0.07476488	-0.006730572	-0.031159148	0.07176058	0.0092548	-0.025757631	0.09564574	-0.096720815	0.06461686	-0.0127080185	0.06365489	-0.07977627	0.13422726	0.012599163	-0.042109165	-0.008401681	-0.11017919	0.073269896	-0.08242963	0.13749024	-0.08038753	-0.070396654	-0.09787226	-0.048163097	0.085564286	-0.046338122	-0.13030484	-0.11553778	0.052446123	
***0.013508517176729932***
--------------------------------------------------
