-0.007732677	-0.50152576	0.009469227	0.27317238	0.01850303	0.046904895	-0.02220989	-0.02750426	-0.052647278	0.3605796	
***0.1***
--------------------------------------------------
-0.023148676	-0.47387835	-0.0008490335	0.26142558	0.028849762	0.06483239	-0.022349093	-0.010261237	-0.081330836	0.35371882	
***0.09000000000000001***
--------------------------------------------------
-0.03054778	-0.4552665	-0.0059136646	0.25277072	0.035137586	0.080346614	-0.023132782	0.0015811911	-0.10454302	0.3465772	
***0.08100000000000002***
--------------------------------------------------
-0.035677668	-0.4412093	-0.009042261	0.2458274	0.039793458	0.0937337	-0.024043497	0.010830122	-0.123732105	0.34052947	
***0.07290000000000002***
--------------------------------------------------
-0.03965654	-0.43008685	-0.011168957	0.24007364	0.043406136	0.10536939	-0.024852961	0.018436989	-0.13997844	0.33546707	
***0.06561000000000002***
--------------------------------------------------
-0.042896643	-0.42102385	-0.012692624	0.2351942	0.0462905	0.11554508	-0.02552006	0.02486923	-0.15394208	0.3311856	
***0.05904900000000002***
--------------------------------------------------
-0.045613438	-0.4134924	-0.013811212	0.23098409	0.048646215	0.124486	-0.026048474	0.030391842	-0.1660654	0.32753208	
***0.05314410000000002***
--------------------------------------------------
-0.047928717	-0.40713534	-0.014648947	0.22729336	0.050608866	0.13237165	-0.026452739	0.035186425	-0.17666785	0.32438275	
***0.04782969000000002***
--------------------------------------------------
-0.049924515	-0.40171117	-0.01528321	0.22401725	0.0522701	0.1393466	-0.02675425	0.039379735	-0.18597943	0.3216483	
***0.043046721000000024***
--------------------------------------------------
-0.051661804	-0.3970407	-0.015763657	0.22107266	0.053693224	0.14554225	-0.02697328	0.043068793	-0.19418773	0.31925955	
***0.03874204890000002***
--------------------------------------------------
-0.05318457	-0.39299193	-0.016129393	0.21840307	0.054927927	0.15105934	-0.027122194	0.04632736	-0.201441	0.31716087	
***0.03486784401000002***
--------------------------------------------------
-0.054524165	-0.3894624	-0.01640313	0.2159563	0.056009494	0.15598589	-0.027217403	0.049216762	-0.20786025	0.31530848	
***0.03138105960900001***
--------------------------------------------------
-0.05570802	-0.3863713	-0.01660407	0.21370018	0.056963578	0.16040103	-0.02727224	0.05178683	-0.21355261	0.31366616	
***0.028242953648100012***
--------------------------------------------------
-0.05675884	-0.3836539	-0.016747344	0.2116091	0.05781295	0.1643619	-0.027295211	0.054075282	-0.21860203	0.31220755	
***0.025418658283290013***
--------------------------------------------------
-0.057692755	-0.38125637	-0.016846566	0.20966274	0.05857044	0.16792703	-0.027294274	0.05611974	-0.22308676	0.31090626	
***0.022876792454961013***
--------------------------------------------------
-0.058525186	-0.3791365	-0.016908145	0.20784642	0.059248585	0.17113914	-0.027275462	0.05794727	-0.22707209	0.30974534	
***0.020589113209464913***
--------------------------------------------------
-0.059268683	-0.37725705	-0.016941095	0.20615113	0.059859443	0.17403966	-0.027245998	0.05958325	-0.23061576	0.30870453	
***0.01853020188851842***
--------------------------------------------------
-0.05993404	-0.37558872	-0.016950753	0.2045677	0.060408574	0.17666014	-0.02720769	0.061049264	-0.23376852	0.30777347	
***0.01667718169966658***
--------------------------------------------------
-0.060529713	-0.37410402	-0.016944656	0.20308925	0.060903784	0.17903265	-0.027164115	0.062363952	-0.23657593	0.30693835	
***0.015009463529699923***
--------------------------------------------------
-0.061063427	-0.3727822	-0.016924007	0.20171076	0.061351325	0.18117905	-0.027118044	0.06354371	-0.23907536	0.30618763	
***0.013508517176729932***
--------------------------------------------------
