-0.023153646	-0.5071466	0.00033519597	0.24514915	0.044820953	0.051513657	-0.013332863	-0.02308794	-0.046426013	0.36833742	
***0.1***
--------------------------------------------------
-0.030553542	-0.4732842	-0.002003397	0.23534854	0.051549263	0.06841463	-0.01988347	-0.0113878725	-0.07744213	0.3562516	
***0.09000000000000001***
--------------------------------------------------
-0.036334198	-0.45291814	-0.004839794	0.22764565	0.05728465	0.08328997	-0.022227095	-0.000808643	-0.10169216	0.34760913	
***0.08100000000000002***
--------------------------------------------------
-0.04084405	-0.43822312	-0.007099455	0.22155705	0.06160897	0.09641471	-0.023397006	0.007826984	-0.12164429	0.3408095	
***0.07290000000000002***
--------------------------------------------------
-0.04447634	-0.4268663	-0.008822488	0.21660139	0.06489197	0.107953586	-0.024098739	0.015081191	-0.13847302	0.3352181	
***0.06561000000000002***
--------------------------------------------------
-0.0474628	-0.41775274	-0.010145818	0.2124995	0.06741766	0.118109256	-0.024572482	0.021307874	-0.15288484	0.3304937	
***0.05904900000000002***
--------------------------------------------------
-0.04995041	-0.4102604	-0.011178484	0.20906493	0.06935831	0.12707773	-0.024915515	0.026735488	-0.16535519	0.32643282	
***0.05314410000000002***
--------------------------------------------------
-0.05204206	-0.40399778	-0.011991902	0.20616007	0.07083794	0.13501054	-0.025183765	0.031518467	-0.17620979	0.3229077	
***0.04782969000000002***
--------------------------------------------------
-0.05381196	-0.39869997	-0.012642149	0.20369044	0.071946196	0.14204162	-0.0253999	0.0357645	-0.18570946	0.31983003	
***0.043046721000000024***
--------------------------------------------------
-0.055321917	-0.39417544	-0.013165513	0.20157738	0.07275052	0.14828992	-0.025579147	0.03955391	-0.19405277	0.31713232	
***0.03874204890000002***
--------------------------------------------------
-0.05661506	-0.390281	-0.01359187	0.19975954	0.0733005	0.15384737	-0.025727846	0.042949796	-0.20139861	0.31476665	
***0.03486784401000002***
--------------------------------------------------
-0.05772803	-0.3869146	-0.013940821	0.1981902	0.07363839	0.1587998	-0.025854329	0.04600233	-0.20787957	0.31269613	
***0.03138105960900001***
--------------------------------------------------
-0.058690254	-0.3839854	-0.014230347	0.1968298	0.07380168	0.16321918	-0.025961647	0.048751537	-0.21360807	0.31088287	
***0.028242953648100012***
--------------------------------------------------
-0.059524767	-0.38142964	-0.014470541	0.19564524	0.07382085	0.16716518	-0.026051514	0.051230863	-0.21867825	0.309302	
***0.025418658283290013***
--------------------------------------------------
-0.06025113	-0.37919003	-0.0146727	0.19461052	0.07372503	0.1706941	-0.026128048	0.053467292	-0.22317117	0.30792558	
***0.022876792454961013***
--------------------------------------------------
-0.06088549	-0.377223	-0.014843522	0.19370356	0.07353649	0.1738515	-0.026191246	0.055486463	-0.2271578	0.30673257	
***0.020589113209464913***
--------------------------------------------------
-0.06144119	-0.37548992	-0.014989285	0.19290496	0.073276415	0.17667949	-0.02624415	0.057310566	-0.23069751	0.30570012	
***0.01853020188851842***
--------------------------------------------------
-0.06192938	-0.3739605	-0.015113405	0.19220126	0.07296174	0.17921291	-0.026287261	0.05895698	-0.23384213	0.30480915	
***0.01667718169966658***
--------------------------------------------------
-0.062358893	-0.37260848	-0.015220225	0.19157836	0.072608896	0.18148503	-0.026322477	0.06044453	-0.23663975	0.30404258	
***0.015009463529699923***
--------------------------------------------------
-0.06273743	-0.3714108	-0.015312813	0.19102798	0.07223079	0.18352157	-0.026351426	0.06178804	-0.23912936	0.30338284	
***0.013508517176729932***
--------------------------------------------------
