-0.0015891729	-0.16866605	0.014354959	0.08410004	-0.0022540784	0.010853549	0.00023547976	-0.013950732	-0.002049227	0.11276694	-0.04095761	0.011674511	0.08370122	-0.14339386	-0.05641422	-0.016230721	0.035245642	0.025743008	0.14881407	0.10032436	0.102155074	-0.13400343	-0.05332543	0.10393767	0.09616893	0.079852216	-0.11796428	-0.19683568	0.13352408	-0.10641533	-0.053380556	0.0899252	-0.10067616	0.0628002	-0.13147236	-0.01483413	-0.085883625	-0.071988665	-0.11532442	-0.038804263	-0.14168087	0.095403716	0.13047136	0.033789065	-0.07566375	0.039762758	0.042940076	-0.053453278	0.10078045	0.03299277	0.005298825	0.060922552	-0.18587519	-0.018733947	-0.052040465	0.07407661	-0.09635518	-0.033944067	-0.033280358	0.1561187	-0.1518324	0.10110085	0.06526394	0.10481258	0.08617599	0.077101514	-0.07180759	0.19270433	-0.05852952	0.12132707	0.17666842	-0.035822723	0.038607687	0.03086554	-0.086831726	-0.15139304	-0.08792727	-0.082208164	0.053881202	0.035331767	0.04565677	0.06428721	-0.009368896	0.14835861	-0.038865887	-0.12720776	0.037532635	0.014168395	0.07585756	-0.003623386	-0.028081417	0.07532686	0.0115216635	-0.023055675	0.0991953	-0.09383398	0.067136936	-0.009981067	0.06679419	-0.077128634	0.13669497	0.015915733	-0.038603384	-0.0054691993	-0.10726046	0.07607863	-0.080278	0.14027604	-0.07790048	-0.067632824	-0.09483049	-0.045045644	0.08851643	-0.043134443	-0.12814103	-0.113073066	0.05524518	
***0.1***
--------------------------------------------------
-0.0016235962	-0.18127035	0.014767256	0.08488029	-0.0011714767	0.011277662	0.0009030602	-0.013136857	-0.0011155666	0.113314316	-0.040327072	0.012248036	0.08451483	-0.14262486	-0.055374	-0.015779464	0.036686324	0.02631738	0.1504923	0.10148469	0.1037386	-0.1327135	-0.05211119	0.10475963	0.09803569	0.08133835	-0.11326122	-0.19520667	0.1348372	-0.104976065	-0.051497646	0.09068882	-0.10020554	0.063527934	-0.12853278	-0.013677789	-0.085173786	-0.07109427	-0.11435337	-0.094398394	-0.14061613	0.09628969	0.13086371	0.034157563	-0.07466808	0.041061312	0.04379799	-0.052491106	0.101333484	0.03382974	0.0065042186	0.062070403	-0.18489765	-0.018028518	-0.050787374	0.07493095	-0.09519747	-0.033247817	-0.03208148	0.15690184	-0.1508255	0.10192322	0.06568439	0.10540114	0.086363494	0.07756435	-0.07134898	0.19328634	-0.05857706	0.12205729	0.17732535	-0.035353184	0.03896256	0.03129406	-0.086356916	-0.15070818	-0.087619685	-0.08183635	0.05431674	0.035399675	0.04595049	0.06411176	-0.009266154	0.14824516	-0.0389771	-0.12647855	0.037709896	0.014146577	0.075906985	-0.0037603788	-0.02823006	0.07510419	0.011342426	-0.023102134	0.09895583	-0.09394518	0.06711513	-0.01005327	0.06664627	-0.07726197	0.13666639	0.01581718	-0.03877357	-0.005569911	-0.10719103	0.076038934	-0.08038055	0.1402156	-0.07791026	-0.06773077	-0.09491973	-0.04523429	0.08835458	-0.043249972	-0.12823056	-0.11314885	0.05505079	
***0.09000000000000001***
--------------------------------------------------
-0.002298383	-0.1752189	0.014282787	0.08435326	-0.0014938859	0.010751798	0.0008553497	-0.013741327	-0.0019715177	0.113060035	-0.04092768	0.0115724765	0.08404381	-0.14258595	-0.055448294	-0.016302068	0.036452007	0.026405528	0.15002562	0.10112419	0.10399076	-0.13269436	-0.05239449	0.10449457	0.09865018	0.08186568	-0.11085864	-0.19460112	0.13569239	-0.104924425	-0.050544348	0.089797735	-0.100407176	0.0641887	-0.12814929	-0.013218582	-0.085659966	-0.071231775	-0.11455412	-0.06365479	-0.14088324	0.09561063	0.1301351	0.0340805	-0.07498231	0.040639352	0.04380999	-0.05263272	0.10070532	0.033416808	0.006261448	0.061612554	-0.18535966	-0.018495336	-0.05114981	0.074457556	-0.095256	-0.03363833	-0.032265205	0.15655306	-0.15137434	0.10170624	0.06553553	0.10492199	0.08605392	0.07704552	-0.07178564	0.19275905	-0.058821827	0.12180289	0.1769073	-0.035841107	0.038832076	0.03085332	-0.086965695	-0.15091918	-0.08824764	-0.08203119	0.05392235	0.035004254	0.045460425	0.06362302	-0.009755062	0.1477831	-0.039581843	-0.12683149	0.0371584	0.013491403	0.075677454	-0.0043570213	-0.028806243	0.07441586	0.011007174	-0.023640322	0.09827932	-0.094498985	0.06648775	-0.0105823325	0.066039845	-0.077731796	0.13613604	0.015140009	-0.039474588	-0.0061320732	-0.10785769	0.07547032	-0.08073869	0.1396626	-0.07841417	-0.068256594	-0.09553016	-0.045812238	0.08782048	-0.04389326	-0.12860152	-0.11360346	0.05457191	
***0.08100000000000002***
--------------------------------------------------
-0.0027796712	-0.17411242	0.013838567	0.084077545	-0.0015626014	0.010391821	0.0008221531	-0.014259644	-0.0026035015	0.11274194	-0.041304924	0.011157825	0.08379879	-0.14267793	-0.055448238	-0.016620638	0.036355168	0.026370307	0.14997609	0.10097618	0.10436366	-0.13260786	-0.05240178	0.10433231	0.09911335	0.08241001	-0.10875318	-0.19411476	0.13626103	-0.10483285	-0.049857464	0.089592695	-0.100702405	0.064464234	-0.12773837	-0.012939422	-0.08595004	-0.07148584	-0.11469834	-0.03972105	-0.14111613	0.09529809	0.12964568	0.03391491	-0.0750781	0.040350605	0.043753285	-0.05278352	0.10028943	0.033201337	0.0062602777	0.06143605	-0.18558529	-0.018860793	-0.05128676	0.07417787	-0.09547798	-0.03391378	-0.032401517	0.15632753	-0.15174712	0.101514906	0.0653818	0.104524	0.08575989	0.07666705	-0.07208194	0.19235873	-0.059015747	0.12159804	0.17655322	-0.03616607	0.038703926	0.030579297	-0.087384574	-0.1510558	-0.08869224	-0.082251765	0.053620886	0.034660723	0.0450806	0.06323032	-0.010118101	0.14742453	-0.040032078	-0.12701187	0.036797605	0.013024889	0.07548257	-0.004806491	-0.02924664	0.0738972	0.010716858	-0.024038171	0.09776468	-0.09491722	0.066038445	-0.010976845	0.065579966	-0.0781049	0.13573012	0.014647592	-0.039991494	-0.0065501723	-0.10831464	0.07505862	-0.08103007	0.13925429	-0.07877783	-0.068658	-0.09598151	-0.0462618	0.08740088	-0.044368647	-0.12889455	-0.11395165	0.054183275	
***0.07290000000000002***
--------------------------------------------------
-0.0031424132	-0.17370078	0.013531804	0.0839225	-0.0015322102	0.010151028	0.00080805446	-0.014644619	-0.0030645365	0.11250848	-0.041554812	0.010886493	0.083649255	-0.14270857	-0.055390418	-0.01680484	0.036385067	0.026379423	0.15002845	0.1009534	0.104756206	-0.1324462	-0.052368123	0.10428362	0.09957496	0.08291334	-0.10670519	-0.1935936	0.13678436	-0.104679786	-0.04919962	0.089630045	-0.1008784	0.06482944	-0.12730053	-0.012681453	-0.0860994	-0.0716274	-0.114767	-0.025478559	-0.14125586	0.0951157	0.12931885	0.033834577	-0.07509317	0.04018546	0.043751948	-0.052879672	0.100008786	0.033100877	0.006373835	0.061373	-0.18569303	-0.019084536	-0.05128301	0.07403614	-0.09566698	-0.034104142	-0.03243025	0.15620041	-0.1519784	0.10138363	0.06526569	0.10423524	0.08553233	0.07641492	-0.07226336	0.19207324	-0.059175204	0.121484175	0.17629884	-0.036393594	0.038602326	0.03041639	-0.0877017	-0.15109104	-0.089026734	-0.082457475	0.05339936	0.034383077	0.044811454	0.0629232	-0.010360699	0.14714107	-0.040374454	-0.12707865	0.036539778	0.012670904	0.0753285	-0.005152445	-0.029586455	0.073504865	0.01047987	-0.024345284	0.09737544	-0.09523976	0.06571559	-0.011283128	0.065230116	-0.07839741	0.13542348	0.01427281	-0.040382095	-0.006875357	-0.10865831	0.07474124	-0.08126391	0.13894019	-0.079060115	-0.06896776	-0.09632499	-0.04660696	0.08707572	-0.04472831	-0.1291298	-0.11422557	0.053877916	
***0.06561000000000002***
--------------------------------------------------
-0.003305917	-0.17310406	0.013779921	0.084232554	-0.00095647416	0.010287044	0.00106648	-0.014487972	-0.0028620027	0.112794615	-0.041285675	0.011143768	0.08394048	-0.14224143	-0.05491865	-0.016399052	0.036983784	0.02689227	0.15079927	0.10154162	0.1056359	-0.13174883	-0.0517318	0.10479233	0.100569054	0.08388931	-0.10465687	-0.1926366	0.13770285	-0.10403343	-0.04805238	0.09019127	-0.10051922	0.06565691	-0.12649025	-0.011937076	-0.08565455	-0.07123757	-0.11430788	-0.053417075	-0.1408266	0.09551481	0.12958491	0.03425155	-0.074578255	0.040648326	0.04422781	-0.05255393	0.10028862	0.033560615	0.007001526	0.0618746	-0.18531679	-0.018809266	-0.050779954	0.074381545	-0.09538539	-0.03384288	-0.031982124	0.15651435	-0.15159458	0.10168356	0.0653737	0.10435279	0.0855415	0.07654657	-0.072104104	0.19226219	-0.059252124	0.121755846	0.1764613	-0.036333676	0.03869994	0.030523721	-0.087640226	-0.1508245	-0.089066446	-0.08240388	0.053503342	0.03429538	0.044853203	0.06276096	-0.010359596	0.14699957	-0.040541105	-0.12679523	0.03649199	0.012512766	0.07529733	-0.00532106	-0.029756097	0.0733024	0.010340645	-0.02448174	0.09717457	-0.09539529	0.0656109	-0.011424012	0.06505924	-0.07854426	0.13531703	0.014094185	-0.040576596	-0.007031173	-0.1087991	0.07460037	-0.08138231	0.13879745	-0.07918116	-0.06911533	-0.096487135	-0.046782438	0.08690903	-0.04490268	-0.12924705	-0.11435438	0.05371642	
***0.05904900000000002***
--------------------------------------------------
-0.0035546983	-0.17198206	0.01330057	0.084031835	-0.0011540914	0.010084189	0.0010007641	-0.014918607	-0.0034324415	0.11236585	-0.041620456	0.010832458	0.083698936	-0.14251384	-0.054955166	-0.016752731	0.03687767	0.026725417	0.15052302	0.10130339	0.105707936	-0.13181607	-0.051974118	0.1045197	0.10062857	0.08405612	-0.10335844	-0.19243483	0.13787095	-0.10411287	-0.04779946	0.09010288	-0.100825034	0.06577624	-0.12638712	-0.012001471	-0.08599642	-0.07153094	-0.114591055	-0.03325094	-0.14118554	0.09514063	0.12909997	0.03394828	-0.074820295	0.040290866	0.043992043	-0.052706532	0.09987019	0.033245213	0.006974668	0.061622586	-0.18551269	-0.019070882	-0.05086619	0.074217156	-0.095659286	-0.034112718	-0.032073993	0.15634114	-0.15196763	0.1014903	0.06527896	0.10408353	0.08539002	0.07634796	-0.07222402	0.19194715	-0.059376832	0.12163376	0.17622492	-0.03651615	0.038609244	0.030428553	-0.08797371	-0.15081498	-0.08933977	-0.08261686	0.05329992	0.034090407	0.044662736	0.06255611	-0.010488655	0.14679752	-0.040770322	-0.1268482	0.036311653	0.012266071	0.07518824	-0.0055586495	-0.02998891	0.0730461	0.010175917	-0.02469924	0.096922114	-0.09561679	0.06540633	-0.011641919	0.064826205	-0.07874358	0.13511088	0.013837815	-0.04083512	-0.0072636944	-0.109043784	0.0743714	-0.0815487	0.1385761	-0.07938857	-0.06932735	-0.09672052	-0.047007933	0.08669098	-0.045142528	-0.12941773	-0.11455089	0.053512655	
***0.05314410000000002***
--------------------------------------------------
-0.0037639465	-0.17240494	0.012973986	0.08390334	-0.0012273235	0.00990295	0.0009468651	-0.0152716	-0.0038415114	0.11206499	-0.041852728	0.010591874	0.08353728	-0.14266902	-0.054963343	-0.016952021	0.03682321	0.02663125	0.15045778	0.10121817	0.10586983	-0.13179153	-0.05204479	0.104388334	0.10082502	0.084302075	-0.10230698	-0.19217484	0.13809249	-0.10408555	-0.047436368	0.0900551	-0.100986764	0.06598037	-0.1262504	-0.011948601	-0.08617052	-0.07170186	-0.114759766	-0.018197175	-0.14139502	0.094919905	0.12879819	0.033769805	-0.07493637	0.040094957	0.04384969	-0.052836064	0.099578	0.03307631	0.006994802	0.061487485	-0.18565176	-0.019306267	-0.050916005	0.0740577	-0.09589225	-0.0343146	-0.03214728	0.15618503	-0.15222868	0.101340115	0.065178	0.10383672	0.08523147	0.07615559	-0.07234851	0.1916855	-0.059482694	0.12152188	0.17599638	-0.036679808	0.038519993	0.03034412	-0.0882447	-0.15083104	-0.08957322	-0.08281973	0.053124	0.03389448	0.044477656	0.06237501	-0.0106126005	0.1466244	-0.040967353	-0.12688515	0.036169663	0.012060067	0.07508999	-0.005761255	-0.030188963	0.07282403	0.010027317	-0.024883065	0.09670171	-0.095806144	0.065230206	-0.011825496	0.06462426	-0.07891853	0.13493052	0.013621733	-0.04105642	-0.0074586626	-0.109244525	0.0741813	-0.08169441	0.13838954	-0.079559855	-0.069510564	-0.09691974	-0.047206394	0.086500034	-0.04534865	-0.12956454	-0.114718035	0.053332157	
***0.04782969000000002***
--------------------------------------------------
-0.0039132154	-0.17210852	0.012919382	0.08393737	-0.0010725488	0.009848314	0.0009830585	-0.015396929	-0.003956843	0.11200593	-0.04188417	0.010554799	0.083534285	-0.14260545	-0.054821733	-0.01688168	0.03700569	0.0267599	0.15070675	0.10141004	0.10623707	-0.13154368	-0.05181039	0.104520455	0.10128419	0.08476256	-0.101199806	-0.19172055	0.13848624	-0.10383513	-0.046853527	0.09019858	-0.100916274	0.066361964	-0.12595172	-0.011676818	-0.086068735	-0.07162332	-0.114697434	-0.020530313	-0.14133577	0.09494745	0.12876712	0.033798944	-0.0748273	0.040189467	0.04390734	-0.05280447	0.0995285	0.03315253	0.007209895	0.061587844	-0.18560153	-0.019330803	-0.05076819	0.07407999	-0.09592445	-0.03434278	-0.032036085	0.15619141	-0.15222332	0.1013543	0.065150484	0.103739224	0.085147895	0.076093584	-0.07236803	0.19160745	-0.059560645	0.12154681	0.17592193	-0.036753275	0.0384959	0.030336032	-0.08837907	-0.15075417	-0.089709975	-0.08292407	0.05305882	0.033760943	0.04439092	0.06223961	-0.010667531	0.14649689	-0.041111372	-0.12681352	0.03608845	0.011913598	0.07503031	-0.005907915	-0.03033541	0.07266046	0.009912898	-0.02501398	0.09653913	-0.09594346	0.06511791	-0.01195691	0.06447723	-0.07904723	0.13481155	0.013465284	-0.04121823	-0.007599622	-0.10938414	0.07404622	-0.08180208	0.13825603	-0.07968119	-0.0696432	-0.09706332	-0.047352545	0.0863589	-0.045498744	-0.12967288	-0.114838995	0.05319789	
***0.043046721000000024***
--------------------------------------------------
-0.0040587126	-0.17202887	0.012662565	0.08385745	-0.0011040133	0.0097327875	0.0009500801	-0.015638223	-0.0042432086	0.111773	-0.042047203	0.010403392	0.08341948	-0.14273019	-0.05480022	-0.017009635	0.03702347	0.02673142	0.15068303	0.10138286	0.10638855	-0.13149056	-0.051841196	0.10443358	0.10142488	0.084987536	-0.10037797	-0.1915083	0.13866249	-0.103771016	-0.04655301	0.09017045	-0.10101607	0.06655134	-0.12584831	-0.011644202	-0.08617685	-0.07171543	-0.11481498	-0.011535897	-0.14148393	0.094797514	0.1285501	0.03365244	-0.07490964	0.04006869	0.04379681	-0.052876856	0.09931726	0.033040926	0.007269874	0.061513063	-0.18567628	-0.019464925	-0.050767582	0.07400455	-0.09607294	-0.034483053	-0.0320476	0.15610299	-0.15239312	0.101261646	0.06508719	0.10357621	0.08504404	0.07597652	-0.07243326	0.1914324	-0.05963935	0.12148839	0.17578082	-0.036860473	0.038436357	0.030296681	-0.08858315	-0.15072915	-0.08987577	-0.08307974	0.05293887	0.033620548	0.04427226	0.062111955	-0.010735719	0.14637308	-0.04124902	-0.12681322	0.035995018	0.011769737	0.07496263	-0.0060500773	-0.03047641	0.07250624	0.009805635	-0.02514278	0.09638685	-0.09607689	0.06500385	-0.012086989	0.06433721	-0.07917046	0.13468875	0.013314339	-0.0413717	-0.007738591	-0.10952504	0.07391109	-0.08190686	0.13812438	-0.07980403	-0.06977174	-0.097202465	-0.047490142	0.086224936	-0.04564224	-0.12977917	-0.11495849	0.053071417	
***0.03874204890000002***
--------------------------------------------------
-0.004170333	-0.17192969	0.012601657	0.083885446	-0.000998551	0.009688661	0.0009699127	-0.015738012	-0.0043331184	0.11169987	-0.04207938	0.010371223	0.083405904	-0.14271575	-0.054690666	-0.01694984	0.037175328	0.026835034	0.15088321	0.10154115	0.10666103	-0.13129532	-0.051659502	0.1045282	0.101783395	0.0853565	-0.09955255	-0.19116381	0.138955	-0.10357514	-0.04608322	0.09025341	-0.10097714	0.06682544	-0.12564148	-0.011437679	-0.08609373	-0.07165718	-0.11478856	-0.012883948	-0.14145184	0.094806425	0.12851702	0.03363704	-0.07484153	0.040145095	0.04380852	-0.052851982	0.09926497	0.033083808	0.0074427146	0.061581407	-0.18563814	-0.019482514	-0.05064249	0.07402203	-0.09610349	-0.034516983	-0.031949908	0.15609793	-0.15239652	0.10126951	0.06506338	0.10349771	0.08497866	0.07592667	-0.07244539	0.19136482	-0.0597005	0.12151075	0.17571928	-0.03692157	0.03841466	0.030296246	-0.08870449	-0.15065868	-0.08998766	-0.08317219	0.05288353	0.03351262	0.04420431	0.062010415	-0.010769613	0.14627606	-0.041356385	-0.12675117	0.035936877	0.011659787	0.07491711	-0.00616019	-0.030586384	0.07238481	0.009718147	-0.025241887	0.09626621	-0.0961801	0.06492332	-0.0121864285	0.064227395	-0.07926766	0.13460022	0.013197344	-0.041491915	-0.007845338	-0.109629974	0.07380877	-0.08198927	0.13802359	-0.07989643	-0.069871515	-0.09730988	-0.04759901	0.0861191	-0.045754008	-0.1298622	-0.11505053	0.05297047	
***0.03486784401000002***
--------------------------------------------------
-0.0042775543	-0.17206068	0.012399363	0.08383627	-0.0010088985	0.009606515	0.0009468113	-0.015918618	-0.0045449873	0.1115174	-0.04219675	0.010266565	0.083323576	-0.14281599	-0.05466056	-0.017035851	0.03720998	0.02683527	0.15088862	0.101545	0.10679118	-0.13123597	-0.051662896	0.104469925	0.101901315	0.08555587	-0.098845884	-0.19099572	0.13909814	-0.10350294	-0.045822605	0.09022722	-0.10105091	0.066969335	-0.12557566	-0.011409636	-0.08615797	-0.07171157	-0.11487563	-0.006624291	-0.14155905	0.09470143	0.12836114	0.03352017	-0.074898355	0.04006859	0.043720078	-0.05289738	0.0991059	0.033008497	0.007505813	0.06153753	-0.18568595	-0.019576717	-0.050632045	0.073974915	-0.09621128	-0.034619514	-0.031943116	0.15603583	-0.1525184	0.10120684	0.06501704	0.10337658	0.084901154	0.075842306	-0.072487526	0.19123676	-0.059760895	0.121475086	0.17561673	-0.037000418	0.038370308	0.030275296	-0.08886317	-0.1506278	-0.09011294	-0.08329491	0.05279487	0.03340364	0.044117436	0.061915103	-0.010813324	0.14618307	-0.041458197	-0.1267403	0.035872005	0.011553653	0.07486706	-0.006265632	-0.030691223	0.07227097	0.009636369	-0.025337541	0.09615361	-0.09627919	0.06484249	-0.012283208	0.0641236	-0.07935974	0.13451028	0.013085886	-0.04160523	-0.007948893	-0.10973361	0.073708266	-0.082068436	0.13792573	-0.079987906	-0.06996698	-0.09741282	-0.04770106	0.08601923	-0.04585995	-0.12994249	-0.11513997	0.05287588	
***0.03138105960900001***
--------------------------------------------------
-0.0043660556	-0.17213316	0.0123037975	0.08383829	-0.0009650865	0.0095553165	0.00094567094	-0.016031273	-0.0046546506	0.11141431	-0.042250622	0.010215778	0.08328669	-0.1428561	-0.054595668	-0.017023621	0.037302375	0.026892304	0.1510089	0.10164	0.10696578	-0.13111347	-0.051557034	0.104501985	0.10214633	0.08582362	-0.0981449	-0.19076292	0.13930155	-0.103372246	-0.045473225	0.09025366	-0.10106033	0.06713966	-0.1254516	-0.011276854	-0.08612458	-0.071696244	-0.1148976	-0.005338231	-0.14157747	0.094668716	0.1282983	0.03345927	-0.074883685	0.040092383	0.043684155	-0.05290011	0.09902418	0.03300129	0.007613574	0.0615558	-0.18568613	-0.019619817	-0.0505671	0.07396454	-0.09626729	-0.03467423	-0.03188948	0.15600556	-0.15256041	0.10118951	0.06498678	0.10329159	0.0848406	0.07578563	-0.072509505	0.19115725	-0.059810992	0.1214741	0.17554642	-0.03706007	0.038342804	0.030268926	-0.088982254	-0.15058358	-0.09021225	-0.0833862	0.052735556	0.03331081	0.044052377	0.061834797	-0.01084284	0.14610556	-0.041543003	-0.12670556	0.03582466	0.011466261	0.074828155	-0.0063528987	-0.030778358	0.07217571	0.009566568	-0.025416806	0.09605899	-0.09636124	0.0647784	-0.012362744	0.06403675	-0.07943709	0.13443807	0.012993493	-0.041699704	-0.00803406	-0.10981754	0.07362621	-0.08213472	0.13784508	-0.080062404	-0.070046395	-0.09749803	-0.04778682	0.085935436	-0.04594813	-0.13000931	-0.11521384	0.052796	
***0.028242953648100012***
--------------------------------------------------
-0.0044458844	-0.17228882	0.0121771805	0.083819985	-0.00094686344	0.009501034	0.0009346888	-0.01615329	-0.0047864835	0.11129142	-0.042322	0.010154628	0.08323583	-0.14291927	-0.054553084	-0.017049527	0.037364393	0.026927127	0.15106885	0.101691075	0.10709711	-0.13103263	-0.0515063	0.10449305	0.102298655	0.08603043	-0.097580984	-0.19059739	0.13944975	-0.10327673	-0.045206852	0.09025179	-0.1010998	0.06726098	-0.12538043	-0.011209772	-0.086130574	-0.07170639	-0.11494456	-0.002291229	-0.14162691	0.09461367	0.12821013	0.033379167	-0.074903	0.040077053	0.04362718	-0.05291794	0.09892163	0.03296995	0.007689451	0.06154886	-0.18570355	-0.019673549	-0.050533336	0.073944375	-0.09633423	-0.03473978	-0.031859547	0.15596814	-0.15262786	0.10115779	0.064955115	0.10320633	0.08478374	0.07572859	-0.07253374	0.19107202	-0.059857197	0.121460356	0.1754768	-0.037117027	0.038312525	0.030260365	-0.08910103	-0.15054816	-0.09030579	-0.08347763	0.05267402	0.03322622	0.043990206	0.06176279	-0.010870015	0.14603534	-0.041619234	-0.12668437	0.035780005	0.011387259	0.074791566	-0.0064317607	-0.030857015	0.072090484	0.0095037455	-0.025488377	0.095974505	-0.09643548	0.06472068	-0.012435119	0.063958816	-0.0795066	0.13437192	0.012910306	-0.04178445	-0.008111627	-0.1098942	0.073551156	-0.08219486	0.1377718	-0.08013071	-0.07011798	-0.09757494	-0.04786347	0.08586015	-0.04602735	-0.13007018	-0.11528108	0.05272448	
***0.025418658283290013***
--------------------------------------------------
-0.004515171	-0.17240597	0.012081585	0.08381537	-0.00092383905	0.009456506	0.00092826935	-0.016251482	-0.0048833974	0.11119143	-0.042374328	0.010108056	0.083197355	-0.14297248	-0.054507025	-0.01704883	0.037434395	0.026970377	0.1511552	0.10175998	0.10722389	-0.13094339	-0.05143641	0.1045029	0.10247509	0.08623757	-0.09707441	-0.19042963	0.13960075	-0.10318178	-0.044933736	0.09025494	-0.101129584	0.06736786	-0.12530266	-0.011116376	-0.08611378	-0.0717086	-0.11497805	-0.00047390215	-0.14165643	0.09457494	0.12814653	0.033309788	-0.07490676	0.0400872	0.04358027	-0.052925695	0.09884238	0.032950263	0.0077689616	0.061552826	-0.18571071	-0.019713445	-0.05048847	0.07393164	-0.0963864	-0.034791913	-0.031820357	0.1559372	-0.15267377	0.10113785	0.06492833	0.103133604	0.08473397	0.07568013	-0.07255279	0.1910021	-0.059897546	0.121455334	0.17541674	-0.03716698	0.038287707	0.030255368	-0.08920438	-0.15051308	-0.09038776	-0.08355647	0.05262266	0.033150516	0.043936364	0.061699852	-0.010892018	0.14597407	-0.04168552	-0.12665966	0.035743102	0.011318742	0.07476017	-0.0065002693	-0.03092543	0.072016224	0.009448461	-0.025550714	0.09590082	-0.096499965	0.06467131	-0.012497872	0.06389081	-0.079567395	0.13431486	0.012838028	-0.041858178	-0.008178878	-0.10996027	0.07348624	-0.082247436	0.13770817	-0.08018975	-0.07018032	-0.097641736	-0.04793039	0.08579442	-0.04609623	-0.13012324	-0.11533951	0.052661847	
***0.022876792454961013***
--------------------------------------------------
-0.0045767534	-0.17252602	0.0119870445	0.08380796	-0.00090654386	0.009415604	0.0009202856	-0.016342267	-0.0049747513	0.11109473	-0.042425584	0.010064387	0.08315921	-0.14302741	-0.054468036	-0.017054044	0.037496023	0.027009407	0.1512262	0.10181797	0.107333064	-0.13086748	-0.0513814	0.104504414	0.102618866	0.086417645	-0.096646115	-0.1902902	0.139728	-0.10310001	-0.044696413	0.0902493	-0.10116703	0.06744982	-0.12524499	-0.011044225	-0.086104356	-0.07171685	-0.115014166	0.0014969675	-0.14168867	0.09453579	0.12808326	0.03324039	-0.07491733	0.040091768	0.043531697	-0.052934602	0.09876554	0.032928053	0.007837597	0.061552767	-0.18571934	-0.019750468	-0.050450973	0.073919505	-0.09643502	-0.03484142	-0.031786762	0.15590784	-0.15271977	0.10111764	0.064903654	0.10306761	0.08468922	0.07563625	-0.072570026	0.19093768	-0.05993391	0.1214491	0.17536274	-0.03721216	0.038264357	0.030251164	-0.08929986	-0.15048108	-0.090462014	-0.08362907	0.052575327	0.033082508	0.043887913	0.061643932	-0.010910984	0.14591937	-0.0417444	-0.12663873	0.03571025	0.011257764	0.07473189	-0.006561288	-0.030986333	0.07195037	0.009399066	-0.025606202	0.095835455	-0.09655742	0.06462777	-0.012553906	0.06383039	-0.07962148	0.13426395	0.012773784	-0.041923657	-0.008238965	-0.11001918	0.07342817	-0.08229444	0.13765138	-0.080242544	-0.07023576	-0.09770113	-0.047989745	0.085735954	-0.04615738	-0.1301707	-0.11539173	0.05260615	
***0.020589113209464913***
--------------------------------------------------
-0.0046313503	-0.17263032	0.011901085	0.08380245	-0.0008932568	0.009378603	0.0009123412	-0.016423482	-0.0050544194	0.11100582	-0.042471334	0.010024851	0.08312445	-0.14308132	-0.054433137	-0.017056216	0.03755257	0.027045447	0.1512944	0.10187265	0.10742912	-0.13079816	-0.051331714	0.10450519	0.10275139	0.08658093	-0.096270256	-0.19016588	0.13984293	-0.103029005	-0.044477735	0.09023959	-0.101206064	0.06751414	-0.12519546	-0.010974981	-0.086094	-0.07172861	-0.11504896	0.0032842315	-0.14171866	0.09449942	0.1280262	0.033173822	-0.07492769	0.040098492	0.043484546	-0.052942403	0.09869601	0.03290581	0.007899519	0.0615517	-0.18572736	-0.019784093	-0.050416026	0.07390788	-0.09647906	-0.03488658	-0.031755358	0.1558798	-0.15276136	0.10109952	0.06488091	0.10300768	0.08464863	0.07559613	-0.07258586	0.19087934	-0.05996639	0.12144373	0.1753132	-0.03725337	0.038243003	0.030247647	-0.089386776	-0.15045229	-0.09052907	-0.083694875	0.052532487	0.033020925	0.043844033	0.061594233	-0.010927613	0.14587072	-0.0417966	-0.12661979	0.03568151	0.01120367	0.074706614	-0.006615448	-0.031040376	0.07189199	0.009354969	-0.025655525	0.09577745	-0.09660839	0.06458933	-0.012603665	0.06377673	-0.079669565	0.13421871	0.012716817	-0.041981727	-0.008292313	-0.110071346	0.07337663	-0.08233632	0.13760094	-0.080289386	-0.070284985	-0.09775382	-0.048042428	0.085684024	-0.046211585	-0.13021296	-0.11543814	0.052556593	
***0.01853020188851842***
--------------------------------------------------
-0.004679953	-0.17272246	0.0118209375	0.083797105	-0.00088354317	0.009344854	0.00090414664	-0.016497076	-0.0051260116	0.11092297	-0.04251356	0.009988475	0.08309187	-0.1431342	-0.054402627	-0.01705867	0.03760362	0.027078144	0.15135634	0.10192205	0.10751312	-0.13073654	-0.051288918	0.10450341	0.10286825	0.08672653	-0.095941454	-0.19005775	0.13994406	-0.10296772	-0.04428083	0.09022548	-0.101247266	0.06756282	-0.12515531	-0.010913927	-0.086085476	-0.07174399	-0.115083136	0.0049971864	-0.14174771	0.09446464	0.12797272	0.03310977	-0.074939474	0.040104758	0.04343862	-0.052949954	0.09863169	0.03288319	0.007954365	0.06154908	-0.18573543	-0.019814892	-0.050384786	0.07389677	-0.096519314	-0.0349283	-0.031727068	0.15585321	-0.15280014	0.10108254	0.06485993	0.10295326	0.08461187	0.07555954	-0.07260047	0.19082618	-0.059995543	0.12143843	0.17526804	-0.037290916	0.03822326	0.03024459	-0.08946623	-0.15042634	-0.0905898	-0.08375481	0.052493423	0.032965288	0.043804307	0.061549947	-0.01094228	0.14582723	-0.041843053	-0.12660311	0.03565608	0.011155474	0.074683905	-0.0066637243	-0.031088525	0.07184005	0.0093155075	-0.025699511	0.09572584	-0.09665383	0.06455525	-0.012648064	0.06372893	-0.079712465	0.1341783	0.0126661	-0.042033434	-0.0083399145	-0.1101178	0.073330656	-0.08237376	0.13755594	-0.08033118	-0.07032884	-0.09780074	-0.048089325	0.085637726	-0.046259817	-0.13025075	-0.11547958	0.05251237	
***0.01667718169966658***
--------------------------------------------------
-0.0047233147	-0.17280263	0.011746526	0.083792046	-0.0008769642	0.009313935	0.0008958261	-0.016563915	-0.0051903278	0.110846065	-0.042552385	0.009954841	0.08306146	-0.14318557	-0.05437604	-0.017061193	0.03764945	0.027107406	0.15141281	0.10196666	0.107586466	-0.13068172	-0.051252063	0.104499705	0.10297195	0.08685642	-0.09565096	-0.18996325	0.14003345	-0.10291529	-0.04410296	0.0902082	-0.10128947	0.06759887	-0.12512249	-0.010859193	-0.08607837	-0.07176229	-0.11511642	0.0066303303	-0.1417757	0.094431445	0.12792297	0.033048656	-0.07495203	0.04011059	0.0433943	-0.052957322	0.09857234	0.03286045	0.008002829	0.061545152	-0.18574362	-0.01984342	-0.05035695	0.073885866	-0.09655628	-0.03496685	-0.031701766	0.15582788	-0.15283635	0.101066574	0.06484046	0.10290359	0.0845784	0.07552594	-0.07261417	0.19077758	-0.06002173	0.121433124	0.17522654	-0.037325274	0.038204957	0.03024179	-0.08953885	-0.15040325	-0.09064488	-0.08380941	0.052457716	0.03291489	0.04376815	0.06151039	-0.010955401	0.14578837	-0.04188449	-0.12658851	0.035633523	0.011112442	0.07466342	-0.006706842	-0.031131512	0.07179373	0.009280131	-0.025738824	0.09567977	-0.0966944	0.0645249	-0.012687746	0.06368624	-0.07975081	0.1341421	0.01262085	-0.04207957	-0.008382455	-0.11015924	0.07328954	-0.08240728	0.13751571	-0.08036851	-0.07036801	-0.0978426	-0.04813118	0.08559639	-0.04630282	-0.13028458	-0.11551665	0.052472837	
***0.015009463529699923***
--------------------------------------------------
-0.0047620684	-0.17287217	0.011677483	0.083787195	-0.000872949	0.0092855655	0.0008874869	-0.016624704	-0.0052482863	0.110774815	-0.042588145	0.009923693	0.08303307	-0.14323507	-0.05435294	-0.01706394	0.037690483	0.027133431	0.15146407	0.10200674	0.107650466	-0.13063304	-0.05122046	0.10449442	0.1030637	0.08697209	-0.09539299	-0.18988071	0.14011241	-0.10287062	-0.04394258	0.090188585	-0.10133194	0.06762466	-0.12509583	-0.010810383	-0.08607265	-0.07178282	-0.11514854	0.008186778	-0.14180258	0.09439983	0.12787654	0.032990668	-0.07496508	0.04011586	0.043351848	-0.052964542	0.098517604	0.032837845	0.008045551	0.061540198	-0.18575187	-0.019869883	-0.050332274	0.07387522	-0.09659026	-0.035002455	-0.03167926	0.15580386	-0.15287012	0.101051524	0.0648224	0.10285824	0.084547885	0.07549508	-0.07262706	0.19073309	-0.060045272	0.12142779	0.1751884	-0.037356716	0.03818798	0.03023916	-0.08960518	-0.15038273	-0.09069488	-0.08385917	0.052425064	0.032869224	0.043735217	0.061474998	-0.010967214	0.14575353	-0.04192151	-0.12657583	0.03561342	0.011073955	0.07464494	-0.0067454176	-0.031169944	0.071752355	0.009248378	-0.025774015	0.095638596	-0.09673071	0.06449777	-0.0127232745	0.063648045	-0.07978515	0.13410962	0.012580406	-0.042120814	-0.008420536	-0.11019625	0.073252745	-0.08243732	0.1374797	-0.08040192	-0.07040304	-0.09788002	-0.048168585	0.08555939	-0.046341248	-0.1303149	-0.11554984	0.05243743	
***0.013508517176729932***
--------------------------------------------------
