0.0009024706	-0.09072516	0.005910761	0.04631557	-0.0012214619	0.006737085	-0.00031940299	-0.00826168	-0.0026933216	0.058751505	
-0.022876682	0.0068438514	0.04557492	-0.07793667	-0.031092273	-0.007436676	0.018498268	0.013766554	0.07901479	0.0533957	
0.05516145	-0.07387604	-0.030071998	0.055852175	0.05053562	0.04208237	-0.06477568	-0.109094106	0.069481894	-0.062132545	
-0.030236425	0.04776834	-0.05512432	0.03235195	-0.07310955	-0.008928336	-0.048407365	-0.04369036	-0.06434536	-0.023704043	
-0.08002347	0.051887438	0.07014675	0.018516654	-0.041329153	0.019550264	0.023851564	-0.029473986	0.0547616	0.01732416	
0.0036620242	0.032979414	-0.1006351	-0.010177546	-0.027643643	0.041783653	-0.052986894	-0.01871828	-0.017579855	0.08522633	
-0.08362881	0.054935258	0.03565802	0.056755822	0.046717472	0.043181535	-0.03812198	0.10494498	-0.031472433	0.06570989	
0.09618122	-0.018584173	0.021491664	0.01811286	-0.04719349	-0.08116593	-0.046791587	-0.045790814	0.029082226	0.019148368	
0.025105638	0.03561281	-0.003834115	0.081212774	-0.019939538	-0.067577265	0.021740165	0.009159933	0.041598987	-0.0009074417	
-0.014275231	0.04245498	0.0066232397	-0.011547379	0.05538531	-0.04997239	0.038122255	-0.0045396523	0.037482247	-0.041147377	
0.07520628	0.010117933	-0.019214183	-0.0020434414	-0.056552656	0.042305015	-0.043106727	0.07713575	-0.041442133	-0.035822522	
-0.05028148	-0.02343245	0.048920076	-0.022021595	-0.0690745	-0.060693894	0.030687198	0.055524454	-0.049806494	-0.039643463	
-0.025780309	-0.043886892	-0.011165952	0.103568524	0.028001191	0.06187571	-0.01811428	-0.031330764	-0.0049421457	-0.016410809	
0.022348717	0.043538503	0.0346113	0.023852853	-0.07235877	0.06741118	0.047684476	0.04611589	-0.0891268	-0.041789673	
0.038488302	0.002556031	0.0023947349	-0.053969152	0.09700372	-0.09365559	0.064703256	-0.049529064	0.06058603	-0.054893047	
-0.04081067	-0.096640006	0.037732933	0.04236645	-0.020751433	-0.031423517	0.03373829	0.052408494	0.033667605	-0.10147962	
-0.07571684	0.04417969	-0.021370992	0.09043186	-0.047503304	-0.03507943	-0.032893084	0.003874278	0.009039131	0.07358356	
-0.003881383	0.021026243	-0.010882805	0.037906576	0.00038969456	-0.035162177	-0.07526409	0.0059105116	0.026092876	0.06525822	
-0.02486145	0.027123597	0.0062440448	-0.0070719514	-0.049017232	-0.088512905	-0.06228542	0.026371397	-0.0015378889	0.0036834874	
-0.023990711	0.009960152	0.016981319	-0.0775767	0.062095225	-0.016007943	-0.0067361677	-0.014435576	-0.06524648	-0.06776119	
0.013296832	0.100810215	-0.008367929	-0.037456147	0.019726768	0.012136451	-0.03908586	0.035020802	0.06480512	-0.04608494	
0.046058632	-0.07081136	-0.056845944	0.00077024504	0.04862825	0.0058005815	-0.0047955	-0.060937706	-0.022196412	-0.010548848	
0.041125372	0.091781415	0.02802762	-0.047401004	-0.031304866	0.06746991	-0.022471994	-0.04661788	0.047702976	-0.02680837	
0.013912768	0.03942458	-0.013139417	-0.08158687	-0.046729278	0.07453396	-0.049713966	-0.091458976	0.03851529	-0.043584038	
0.0063115167	-0.086476006	0.013978587	0.032215483	0.060980685	0.0299606	0.0004090894	-0.026050529	-0.104079224	-0.05722537	
-0.098384425	-0.008093045	0.085818626	-0.014126896	0.03498889	-0.0003775543	-0.021758894	0.012508508	-0.022473622	0.028158294	
0.040890936	-0.097669564	0.014846077	0.0029703302	0.03187626	0.049966626	-0.0009236529	0.035186756	-0.036501266	0.02482951	
0.05773411	0.04457002	0.011350722	0.02070745	0.036255173	-0.043243837	0.039528746	-0.09616916	-0.004199827	0.07880017	
-0.077776805	0.036629632	-0.043196723	-0.07074212	0.06553551	-0.055986423	-0.0032474678	0.043508153	-0.012485073	0.07620623	
0.043284565	-0.014664742	-0.024723379	0.024207827	-0.07973844	-0.008225754	-0.09995991	0.07435305	0.081657596	-0.06837487	
-0.002416808	0.020760389	0.02079314	0.1135683	0.06559614	0.024418954	0.08559032	-0.095390186	-0.085329965	-0.0049838517	
-0.0065881535	0.01564231	0.068285465	0.06603436	-0.108343065	0.05244752	0.08387197	-0.08177442	-0.078602925	0.051863633	
-0.021449346	0.06833768	0.05956975	-0.009024386	0.062363587	-0.032472406	-0.011147735	0.0036660533	-0.035159513	-0.007767758	
-0.031091183	-0.01450856	-0.033937868	0.02280662	-0.019148055	-0.075911865	0.08201702	-0.0025323473	-0.0082216235	-0.021129081	
0.038264126	0.022763949	0.009830584	-0.02975476	-0.07141868	0.058046702	-0.04106219	-0.014028666	0.03913631	0.0041548857	
-0.0011959003	-0.0038689293	0.058531355	0.028361212	0.020532578	0.086898945	0.026708663	0.06673706	0.04857474	-0.060878895	
-0.030474087	0.029116591	-0.020082425	-0.048864078	-0.031418506	0.046276763	-0.11350833	-0.027199555	0.024266843	-0.024850385	
-0.038955424	-0.052691557	-0.086066075	0.07285732	-0.05589403	0.05954982	0.016761988	-0.035990756	-0.0024036535	0.061401695	
-0.05137337	-0.028964773	0.00967559	-0.013971085	0.007440549	-0.04778139	-0.0046485993	0.0104847895	0.017770497	-0.013599762	
0.0039170035	0.048420426	0.076187275	-0.001447179	-0.027938891	0.011269862	0.09625474	-0.0054034777	-0.10416157	0.04893878	
0.009566977	-0.05812966	0.013323606	-0.07638561	-0.019482743	-0.07402138	0.005116226	0.1002259	0.022264568	0.06188486	
0.017942378	0.006158713	0.10194728	0.036379285	-0.014010821	-0.06221271	0.009621227	-0.01440918	0.04763868	0.100868575	
0.067116275	-0.036589317	0.09540549	0.057145417	-0.0847725	-0.025533713	-0.095982455	0.00082084956	0.02217207	-0.046807934	
-0.037466515	-0.023998722	0.016433332	0.009874883	0.039540555	-0.00031184818	0.07176387	0.0030522111	-0.048609972	-0.00014401774	
-0.07157994	0.016889593	0.038350888	0.016235132	0.001942064	0.04008617	0.054303452	-0.014255407	-0.027470093	0.0011524163	
0.0046653096	-0.113709465	0.050644793	0.06048928	0.0054946337	0.075052395	-0.036697358	0.10446331	0.08432702	-0.05586747	
0.048675843	0.03875042	-0.0025823629	0.012508952	-0.019382467	0.0012966434	-0.0009886497	-0.033590302	-0.030681351	0.06573666	
0.08764512	0.010985277	-0.09974161	-0.034257475	-0.039359428	-0.065540284	-0.07424015	0.075319834	-0.07164982	0.033369765	
0.007421968	0.025844036	0.05095742	0.0572247	-0.032007813	-0.08636301	0.03850365	0.06276294	0.016981198	-0.0010657747	
0.027672792	-0.07776342	-0.08830136	0.020092616	-0.033721093	0.060090438	-0.053670406	-0.017085446	0.0027180808	-0.04027335	
0.098607525	0.044745572	-0.068947084	0.061825458	0.017361498	0.05317285	0.08966383	0.010696901	-0.014472092	-0.016140785	
0.046504337	0.035017896	0.026283292	0.028570708	-0.0875746	-0.037518006	-0.011710736	0.013409909	-0.0072640968	-0.04948217	
0.0203258	-0.024322055	-0.053555973	-0.025097499	0.10409456	-0.0049199504	-0.039304577	-0.03463516	0.026035167	-0.013297806	
-0.009968711	0.011030354	-0.0031800505	0.02208865	-0.011755968	-0.0751277	-0.024983149	-0.08970282	-0.006371636	0.020571066	
0.03313781	0.075743325	-0.031677447	0.0136509985	-0.016965605	0.044191983	0.03814547	-0.10984836	0.032648563	-0.09095482	
-0.030123731	0.025728038	0.06674388	0.021714402	-0.036038134	-0.06143145	0.07064521	0.10346756	0.022168318	0.048269905	
0.01766707	-0.052723765	-0.023128115	-0.013189083	0.10077632	-0.045136627	0.040900227	-0.015228849	-0.0898443	0.009281734	
-0.026056707	0.03569654	-0.01561622	-0.05592996	-0.014163017	0.093291536	0.095869996	-0.021572528	0.094407514	-0.03372675	
0.074453965	0.048744954	-0.039587215	-0.06636419	-0.04437674	0.04398731	-0.07940034	0.016993618	-0.011869016	0.08088461	
0.021151887	0.006235727	0.020703197	-0.07721248	-0.019861994	0.03618182	-0.0612809	-0.0049594794	0.008622789	0.0024361624	
-0.04668392	-0.002828862	-0.009457392	-0.03630465	-0.016832879	0.048376117	-0.080544844	-0.022295738	-0.08412358	0.087953836	
0.013663551	0.075213015	0.07017192	0.046747625	0.05260878	-0.018487433	-0.06648052	-0.009979764	-0.009253942	0.021427926	
-0.031033972	-0.010504247	0.04882453	0.038617276	0.022749392	-0.040315546	-0.07758138	-0.016616981	-0.029220402	0.010199138	
0.04839622	-0.024681253	-0.07483641	0.023573037	-0.019330347	-0.029646143	0.07848951	-0.008357002	-0.046317432	0.0835768	
0.057360604	-0.0551404	-0.01999564	0.059102386	0.010572606	-0.055280987	0.04464291	0.093663245	0.024458308	0.031081524	
-0.007019241	0.03647467	-0.04946276	-0.06040044	0.06694763	0.078999005	0.05716276	-0.0015177104	0.07982034	-0.06537359	
-0.04633831	0.08069836	0.086417675	0.046798248	-0.045465562	0.019780861	0.00047720375	0.08380237	0.0156058045	0.016351635	
-0.05124595	-0.048002385	-0.0509884	-0.022843823	-0.004291056	0.06559792	0.044693016	-0.0051070354	-0.045438536	-0.07524788	
0.014109523	-0.018779162	0.06757885	-0.03420245	0.048526727	0.018619426	0.09742672	0.007240148	0.037331056	-0.027956711	
0.04782605	-0.10677619	-0.03393827	0.06637378	-0.052134793	-0.036074255	0.033360355	0.002882336	-0.056276157	-0.081669495	
0.013462474	-0.043822195	-0.05878351	-0.03448187	0.10463168	-0.06628651	0.08205312	-0.02701273	-0.020337742	-0.04507352	
-0.0017691932	0.008211531	-0.10913921	-0.033407167	0.034225862	-0.01701316	0.0067983526	0.039230496	0.06631789	0.08030453	
-0.114858925	0.05982953	0.0745054	0.05108136	-0.03216634	-0.0010364227	0.07515465	0.072873324	0.010637078	-0.050997794	
0.07396623	-0.03760078	0.039223205	-0.028999925	0.07645176	-0.031187112	0.040481612	-0.036994334	0.005589331	-0.07985932	
-0.03464162	0.01013799	-0.01848649	-0.0872729	-0.005666118	-0.06450996	0.03018794	-0.051437084	-0.08414145	-0.046499204	
-0.006948153	-0.068952486	-0.0112418495	0.051677875	0.03893457	0.07372781	0.012093556	0.02558816	-0.023626618	0.052886847	
0.10096903	-0.06223047	-0.03982629	-0.014446933	0.031371757	-0.008410479	0.0952008	0.031423733	0.0032211707	0.040540393	
0.007357612	0.0599595	-0.029227989	0.022638557	0.04558771	-0.06432088	-0.010893714	-0.048229124	-0.0021540031	-0.023760743	
0.04540386	0.01655097	0.007436826	-0.020961355	0.03364925	-0.063561894	0.07729519	-0.054482825	0.016072892	0.039862372	
0.055998247	-0.08600467	0.018848145	-0.047056664	-0.009299252	-0.049390066	-0.08285534	-0.02353689	-0.0812354	0.0522817	
0.038513124	-0.09681523	0.07684957	0.030001877	0.017995972	0.051580273	0.0965805	-0.03671289	0.056379873	0.05988026	
0.045300856	-0.053916518	0.042065267	-0.0772126	0.025795445	-0.010415648	-0.018850187	0.003770753	0.09177387	-0.0039624246	
-0.014815947	-0.019381134	0.09072576	0.021777604	0.062443893	0.056522537	0.059247423	0.063278094	-0.024681235	0.04363139	
-0.002390395	-0.05679432	-0.05843862	-0.010542996	-0.023079246	0.023344321	-0.050887793	-0.0027485709	0.007987518	-0.029980196	
0.04030476	-0.06501869	-0.10449411	0.08348353	-0.004129061	-0.034982182	-0.0059894263	0.02579604	0.050940894	-0.0041658683	
-0.09779416	-0.06233062	-0.028087543	-0.0059213615	0.081123084	0.05091007	0.04220674	-0.032040946	-0.059531163	-0.053805027	
-0.018735787	0.07274395	-0.0073855636	0.07883695	0.021888368	0.028993651	0.0681718	-0.004207909	-0.02560293	-0.06671861	
-0.023028437	-0.010685113	0.05022863	-0.025112972	-0.01548044	0.023761572	-0.08506602	-0.021923173	0.0054793176	-0.0029875303	
-0.0061414684	-0.058333404	-0.004630991	0.009220561	-0.030800737	0.059433036	0.07484088	-0.07705503	0.050945535	0.0337166	
-0.015665583	0.070380725	-0.0375058	0.018426893	0.07638054	0.042861503	0.040896714	-0.039100368	0.04553889	-0.110303275	
-0.040778175	-0.064487666	0.07235563	0.020608177	0.033394575	0.08334313	-0.039300628	-0.0125403665	-0.042738136	-0.10631473	
-0.024257237	0.014250114	-0.007865728	-0.05275374	-0.057887945	-0.07450047	0.033335723	-0.032548435	0.03840157	-0.0061845942	
-0.04166244	0.018401416	0.036843188	0.039279487	-0.08296294	0.007735241	0.04726929	0.009116932	0.045518234	0.037612047	
0.08071723	0.045513105	0.008341522	-0.08804438	0.027146166	-0.03933596	-0.057394754	0.015863618	0.008141324	-0.0606901	
-0.03690967	0.07084331	0.021413667	-0.00479368	0.03016884	-0.035813887	0.018049108	-0.04047131	-0.040864665	-0.10318883	
-0.042079616	0.036058847	0.1221892	-0.012841416	0.070537455	-0.042811483	0.08370665	-0.048051897	0.068194665	0.025059674	
-0.019046037	0.022115443	0.09021536	0.07675368	-0.0648472	-0.014570285	-0.030701475	-0.09847842	-0.11363002	-0.047742024	
0.009366647	-0.0646633	0.047469594	-0.08563416	0.026062721	-0.0616415	0.08929619	0.008887451	0.001986654	-0.0024349075	
-0.083770365	-0.08807514	0.04710887	0.032937285	0.059816655	0.025073918	0.17765614	0.017557433	0.033454545	-0.023602305	
0.08224583	0.09349573	0.01061831	-0.042335927	-0.06887195	0.015080958	0.060235217	-0.07113944	0.0062413444	-0.070599034	
-0.0554505	0.042758808	-0.017073138	0.077212915	0.027012136	-4.967499e-07	-0.022766678	0.08094345	0.03568618	-0.002827431	
-0.05636843	-0.029803788	-0.0075390963	-0.015361492	0.05043299	-0.0151775945	0.12122437	0.07875622	0.037696213	-0.0012221211	
-0.018020453	0.010055184	-0.065667756	-0.011874281	0.052983567	0.0030764958	-0.014807983	-0.01265516	-0.021641795	-0.02221782	
-0.04077847	-0.062328305	-0.023143673	-0.08904827	-0.06752399	-0.004286023	0.01180359	-0.021731688	-0.06715611	-0.011512386	
-0.081169024	0.029011767	0.06352246	-0.05099099	0.014515839	0.08601529	-0.0108190505	-0.050011713	0.037413042	0.04871199	
0.0961709	-0.05144269	-0.038568176	0.10106507	0.011467441	-0.031130534	0.0734225	-0.023584533	-0.11435662	-0.031148022	
0.081797674	0.013405245	-0.012630002	-0.046302613	-0.011512163	-0.01953684	0.04447947	0.056062706	-0.09812442	0.040466867	
0.075394146	0.061364308	-0.022383152	-0.084558	-0.06701709	-0.06993132	0.0067952643	0.07231048	0.021791985	0.023527052	
-0.057032987	0.10504939	0.05490612	-0.035782553	-0.05042766	0.092711404	-0.03391095	-0.030656295	0.007833917	-0.015735177	
-0.03927345	-0.047551725	0.022509411	-0.023697725	-0.030309971	-0.090335995	-0.012542834	0.037825413	-0.05922647	-0.00017628937	
0.09613397	0.02065585	0.023994764	0.0032347937	0.095310666	-0.051663898	0.037443053	0.0953206	-0.070565104	0.112890884	
-0.08979971	-0.05054365	0.0026272521	-0.04471314	-0.049740966	0.073051766	-0.05553241	-0.0415947	0.010002076	-0.08691061	
-0.08180695	0.017687375	-0.07722191	-0.026068414	-0.016462393	0.016701704	0.033124812	0.0880624	-0.07020207	-0.06946516	
-0.0568913	0.06876936	-0.07069489	-0.023647847	0.021873495	-0.018207973	-0.10295782	-0.08648952	-0.06181307	-0.011538429	
-0.061952565	0.015683405	0.013115628	0.04605006	0.05484999	-0.025579859	-0.04325008	0.037955355	-0.06531208	-0.0069598933	
-0.061254278	0.029175624	0.06275378	0.10367532	0.0359645	0.03553727	0.010137252	0.023386402	-0.06704959	-0.026174134	
0.011609998	-0.09302234	0.02262889	0.056984454	0.1046774	-0.07111128	-0.070443146	0.013374019	0.007304508	-0.020071018	
-0.107774764	0.07150529	-0.03888341	-0.02274007	-0.024313623	-0.07973093	-0.021868825	0.08950886	-0.106557466	-0.047597576	
0.09432009	-0.01193441	0.10342014	0.097937234	0.015887367	-0.00040130824	0.07414336	-0.07773428	0.010861234	-0.043160163	
-0.017178796	0.010284798	0.01105966	0.043872926	-0.034056447	-0.115415685	-0.067722335	0.016139764	0.06609833	0.026864083	
-0.012664282	-0.038559046	0.11037093	0.023171203	-0.04740014	-0.015630834	-0.01654527	-0.1026865	-0.053240042	-0.0132769495	
0.068497516	-0.099657476	0.009604937	-0.04523049	0.0739896	-0.024158984	0.0030406006	-0.046230312	0.008534587	0.08198499	
-0.01725814	-0.03691349	-0.03646838	0.058379788	0.047237158	-0.086901	-0.060924955	-0.067006536	0.023346238	0.012573402	
-0.0036791484	0.09877564	0.047078572	0.030208696	-0.04954192	0.049571436	0.016095104	-0.008178625	-0.11688769	-0.027595764	
-0.10713915	0.10806453	0.055728786	-0.026542809	-0.062194362	0.01783752	-0.039385386	-0.10917649	-0.026764829	-0.008259948	
0.05415341	-0.009295442	0.07809701	0.11455728	0.043814383	0.0065822974	0.024855437	-0.004860956	-0.00527673	-0.115858704	
0.01770957	0.042375445	0.025493208	0.012762424	-0.10033982	-0.035044376	0.11538711	-0.037465516	-0.06194639	-0.009019025	
0.058187295	0.011134868	-0.018430477	-0.066242754	0.010958993	0.05665586	0.024206568	-0.08987482	0.005133592	-0.04000918	
0.04955535	0.07609427	0.06701053	0.022207756	0.047224477	-0.03852717	0.07619254	0.007492027	-0.06494404	-0.034915388	
0.00017073507	0.081004396	-0.061361436	-0.019346457	-0.054332573	0.08706362	0.10878399	-0.11341389	-0.023927992	0.030859487	
-0.024290895	0.067721814	0.06808341	0.022037234	0.03857861	0.0021785977	0.030152174	-0.07175601	-0.091027096	-0.07838692	
0.06811304	0.009153785	-0.07622818	-0.10577068	0.020287395	-0.054219183	0.030139446	0.032785226	0.025075803	-0.045262553	
0.048727218	0.027054066	0.025806718	-0.0009878768	0.052529473	-0.039521243	-0.0023771059	-0.06305436	-0.009314312	0.048560873	
0.0487281	-0.008649143	0.011600613	0.056179006	-0.016848577	0.058445435	0.07256376	-0.071252085	0.0015134065	-0.03982938	
0.08196939	-0.056098934	-0.011314412	-0.07344629	0.03567005	0.061871722	0.0046316986	-0.062915996	-0.009329643	-0.029441673	
0.028386153	-0.00866359	-0.07549731	0.03773155	-0.021700276	0.044423107	-0.026754372	-0.040716555	-0.047809552	0.03322443	
0.010365964	-0.03184464	-0.035026655	0.06416501	-0.024468048	0.003147305	0.023263054	-0.020744555	0.10968445	0.035351634	
-0.0007591836	-0.026635718	-0.030687945	0.03590721	0.013083646	-0.029959451	-0.0057242936	0.111254826	0.06441409	0.008128548	
-0.01982217	-0.0392715	-0.031601258	-0.05673659	-0.06308042	-0.0037760464	0.029943367	-0.040954154	0.04806701	0.03153346	
0.017680576	0.041127197	0.04492253	0.07681375	0.006347842	0.028785782	0.09110215	-0.087917104	-0.07453883	0.009080269	
0.03994924	0.007054069	0.03352276	0.08332033	0.029400127	-0.048932888	0.055214766	-0.041987848	-0.10313625	0.042330444	
-0.02030821	0.014163647	-0.054088295	-0.033959437	0.059403557	0.0028870897	-0.104850344	0.056239683	0.024160564	-0.064226955	
0.080705956	-0.04824914	0.055253208	-0.029581837	0.0477751	0.041741103	0.016599175	0.0024318052	-0.0151010305	-0.06522603	
-0.026298149	-0.018517455	0.04165923	0.030688576	0.05989034	0.04068787	0.0041250186	-0.031053355	0.035200298	0.007663137	
0.048396677	-0.0071109254	0.009668378	-0.027724626	-0.022226635	0.038246945	-0.020451171	0.0559972	0.056392644	-0.03735961	
0.05620467	-0.00728007	0.0580957	-0.04708733	0.073723316	-0.00667608	-0.015437521	0.026204575	0.0486109	0.09527973	
-0.063701145	-0.04884569	-0.05885773	0.02046636	-0.053553313	0.005405668	-0.009930649	-0.03961818	-0.026306532	0.060665436	
-0.002217461	0.0588933	-0.00042801243	0.039063025	-0.009158402	-0.03579208	-0.011711054	0.038580034	0.0036909177	-0.060876437	
-0.07162293	-0.039097995	0.023655001	0.011247808	-0.047913637	-0.055160765	0.024046127	0.04716194	-0.0363648	0.006328412	
0.08422791	-0.020272676	0.08328176	0.036274947	-0.02027766	0.031979274	0.00023852674	-0.013625387	-0.06888101	0.091649994	
-0.03262485	-0.019056784	0.14793807	0.09170512	-0.0764277	0.015498212	-0.059226666	-0.057885583	-0.09042766	0.08676025	
-0.018449279	-0.020444073	0.1040875	-0.0068868417	-0.071492	-0.037942823	-0.030203314	-0.095206775	-0.0033217687	-0.050814	
0.031838447	-0.07832143	0.021562267	-0.031186419	-0.08213587	0.060122456	0.014523605	-0.07401986	0.06048879	-0.10120403	
0.09490907	0.029415095	0.0619487	-0.03448986	-0.10778851	-0.061675493	0.018862346	-0.070502676	0.018637113	-0.07238235	
0.039453216	-0.032453537	0.12853909	0.042003613	-0.032244083	-0.08069763	0.07971457	0.033930782	0.04892382	-0.14005409	
0.02162308	-0.018423919	0.077343926	-0.04688847	-0.03068683	0.021011986	-0.07017147	-0.08756154	0.033919454	-0.08431234	
-0.0049759047	0.016326107	0.069992945	0.06628966	-0.10947131	-0.032651834	-0.05677223	-0.1217687	0.095442936	-0.06562526	
0.08003457	0.054123037	0.023414005	0.00029828298	0.017087776	0.042895723	0.023180304	-0.046914354	-0.02929681	-0.029667478	
-0.07406083	0.061560653	0.08559558	0.044732813	0.05297271	-0.0997346	-0.04687118	-0.08810948	-0.002632568	-0.069595136	
0.06468348	0.053129677	0.00034416394	0.024618698	0.0015778632	0.078808464	-0.005486893	-0.046045493	-0.0369628	-0.040096592	
-0.1018482	-0.039065048	-0.03312381	0.039885763	0.036998227	-0.010349439	-0.059479088	-0.0030613795	-0.023249619	0.024342405	
0.035869945	0.01643572	-0.086916216	-0.007700206	-0.022109058	0.04164178	0.003633881	-0.050296497	-0.008280633	0.009096331	
0.042795222	0.023937346	0.08633621	-0.03599221	0.06537073	0.02698845	0.018232848	-0.04104203	0.07151839	0.08075328	
-0.03007631	0.0035181874	-0.030264024	-0.022752203	-0.079821445	-0.036517248	-0.07733842	-0.05975052	0.016410973	-0.006015409	
-0.0031939098	0.02780501	-0.05868345	0.0066001704	-0.017117966	-0.08803336	0.005760943	0.032522254	-0.026172113	0.02543555	
-0.034249917	-0.015879452	-0.041180052	-0.044479914	0.039734203	-0.062318128	-0.03328947	-0.065510914	0.011290581	-0.026065012	
0.025801431	0.04613821	-0.0014026499	-0.077863365	-0.034310486	0.06939162	-0.02394512	-0.040879402	0.04102648	0.010878724	
-0.017872833	-0.050902758	0.055606574	-0.048723396	0.048560895	-0.04739934	-0.0034564112	-0.04486009	-0.044773187	-0.09418377	
0.03439482	0.009571241	0.032144982	0.100630865	0.0109001575	-0.022520954	0.03099819	-0.05287989	0.076425456	0.03455042	
-0.015449986	-0.00950111	0.03927066	0.015354349	-0.028966958	0.08393645	-0.011435277	0.07922032	-0.109327994	0.018472457	
-0.014162269	0.0076326327	0.012939204	0.0964391	0.062255092	0.054764908	-0.017277658	0.020077601	-0.06100499	0.006139305	
-0.028564578	0.016107356	-0.078023836	0.055367194	-0.0651453	-0.05747418	-0.002774434	0.022391826	-0.03182895	-0.035553467	
-0.10214517	-0.06362684	-0.029403314	-0.048433598	-0.010288825	0.016530586	-0.053950507	0.043483492	-0.02478232	-0.0112244785	
-0.059620906	-0.025824593	-0.045181688	-0.035397943	0.017968982	0.054795448	0.0077216276	0.052544	0.07340594	-0.0013462331	
-0.03452037	-0.091002256	0.047680408	0.028786449	0.06749244	-0.071962036	0.029207673	-0.020790745	-0.027085885	0.054794535	
-0.005710565	-0.09616789	-0.06886327	-0.020422071	0.02287171	-0.10425364	-0.03483586	-0.08286763	0.00084329874	0.044238437	
-0.027773013	0.019235237	-0.06516018	0.06774692	0.10445352	-0.06966655	0.024726948	-0.021776594	0.013830954	0.010047293	
-0.046613276	-0.055784278	0.08694461	-0.0015951667	-0.0029743288	0.0843275	-0.009050516	-0.009219443	0.026115092	-0.057103828	
0.08868006	-0.0031170647	0.006933059	-0.012239373	-0.025452662	-0.022144718	0.095567726	-0.062164363	0.04856613	-0.011538524	
-0.011569565	0.07028128	0.046470664	0.13547115	-0.04611446	0.010539844	-0.013934221	-0.001883709	0.09256149	-0.036686745	
-0.01415648	0.0107509345	0.08873383	-0.007555593	-0.052751094	0.07684598	-0.064084336	-0.07373668	-0.010920949	-0.061062522	
-0.009634129	0.018398723	0.07752101	0.14080776	-0.008934124	0.04038271	0.015724245	-0.09659323	0.007011876	0.08579649	
0.008219097	0.015454515	-0.040617928	0.13477172	-0.08141883	-0.023076331	-0.00028594118	-0.06898475	-0.02044063	-0.055833794	
0.011028085	0.02259471	0.028185893	0.097027026	-0.05913068	0.0032685604	-0.022301655	-0.09780461	0.08136307	0.08048604	
0.038035356	-0.020319022	-0.048618138	0.019381989	-0.07926719	0.07108827	-0.0043158806	-0.15920864	0.048194565	0.0064048367	
0.023238737	0.05723898	-0.060325038	-0.07620063	0.0051193954	-0.043442104	-0.07770471	-0.050269157	0.055262547	0.026330957	
-0.062594645	0.03245891	-0.061289586	-0.012600425	0.026288616	0.0037547406	-0.09561775	-0.024014646	0.12848923	-0.065217696	
0.06281345	0.017437812	-0.07853118	-0.027140332	-0.036147673	0.011920548	-0.023228012	-0.05435701	0.10455732	-0.011878218	
-0.01402552	-0.03711966	0.099374875	-0.046166684	-0.06798982	0.034602538	-0.04709244	0.037806243	-0.02512562	0.019106517	
0.09166589	-0.01446531	-0.02123655	-0.09980765	-0.07367725	0.06259506	-0.04859443	-0.07593133	-0.031696875	0.02888081	
-0.029684095	-0.038899917	0.019416887	0.0014559171	0.10366371	0.07869105	0.01815302	0.022553263	-0.025904479	-0.010428906	
0.061335012	0.001736629	0.008302568	0.0012959852	-0.028824495	0.017135618	0.019112432	-0.029475003	0.02499574	0.037320673	
-0.08135119	-0.062570244	-0.002327329	0.09754697	-0.065166704	-0.0027952702	0.09078571	-0.113237254	-0.060938407	0.009888741	
-0.055460975	0.03690162	0.05760271	0.0034558198	-0.04459006	0.037476838	0.013297809	0.07312608	-0.039682064	0.07734627	
0.055892736	0.0212812	-0.0854505	-0.04696082	0.11406654	0.026921632	0.033867493	0.016263638	0.090073384	-0.014298976	
-0.064743586	-0.026740713	-0.055884972	-0.06566226	-0.10525607	0.057768546	-0.0100455275	0.050432168	-0.030243024	0.026733726	
0.023803262	0.002231254	0.060695056	0.05681637	-0.04648957	0.034481827	0.011313118	0.025958695	0.061191723	0.023052793	
-0.004848469	-0.08963535	0.035905026	-0.08375923	0.0011885235	-0.010164157	0.035923705	-0.043929275	0.017976167	-0.081519134	
0.015955793	0.023660975	-0.10798352	0.034965347	0.058354735	-0.0140838735	0.09139369	-0.05166399	0.04412402	0.06918309	
0.061575353	0.053953286	0.0073725777	0.086830765	-0.033463165	0.023441294	-0.067605905	-0.033714198	0.06957022	0.027325395	
0.008363996	0.07464421	-0.04468965	0.0631171	-0.07370939	0.0047809035	-0.059307765	-0.056359276	-0.03149675	0.025337325	
-0.008920597	0.049298715	-0.05134162	0.118412055	-0.089225665	-0.039546113	-0.045414146	0.033703268	0.071532376	-0.041344777	
-0.060723037	0.011177335	0.0520231	0.0810863	0.028340833	0.006361556	0.051899288	-0.03973549	-0.0075652334	-0.014448916	
0.076642476	0.0049057705	0.041446414	0.056262836	0.038400922	0.06952776	0.07892749	0.08897578	-0.021593101	-0.034744594	
0.05672338	-0.10572224	0.11410058	0.07210737	-0.026436012	-0.09738523	-0.023397105	0.10855542	-0.054985162	-0.08173143	
-0.011310907	-0.018611122	0.012824449	0.016954806	-0.027313005	-0.06548353	0.0135898935	0.011397119	-0.061330546	-0.040104408	
0.023915473	-0.06220458	-0.043397143	0.07679798	-0.06147891	0.009588552	0.015015126	-0.033311564	0.074585	-0.0149326455	
0.027371906	-0.05818157	0.0006681221	-0.047449782	-0.015562757	0.06603549	-0.06259911	0.103218235	-0.021821607	0.021412134	
0.017369138	-0.09659959	0.06884206	0.008748707	-0.13127321	0.061572954	-0.0011985715	0.061311454	0.06097249	0.057612155	
-0.0653411	0.09313143	-0.009352221	-0.035752945	-0.096559614	-0.053168297	0.029885367	-0.009178141	-0.04823404	-0.051737145	
0.0006811746	0.0013266434	-0.04675971	-0.019684099	-0.038957357	0.011682153	0.010464079	-0.07599088	-0.027267016	-0.031022558	
0.012072398	0.10479582	-0.019624524	-0.08743256	-0.10541728	0.008487256	-0.0035571128	0.0033086217	0.047498498	0.014193059	
0.08642468	0.07414727	0.09799555	0.05972073	0.036229905	0.09143255	-0.049386166	0.038900807	-0.007516079	0.0583918	
0.029078994	0.056077927	0.0200024	0.08421737	0.02549862	-0.08200894	-0.03841315	-0.09089871	0.03319128	0.011086222	
0.054646373	-0.043278527	0.07377509	-0.033647932	0.06452682	0.09075009	-0.14180161	-0.043304224	-0.024216838	0.091334745	
0.05187219	-0.054097947	0.035847563	0.02260951	0.05760451	0.08677397	-0.09599125	-0.020805977	0.018130306	0.0062569594	
0.06841271	-0.06233482	0.080685064	-0.012975812	0.0093876505	-0.06353946	-0.10965833	0.041258518	0.05402897	-0.009622703	
0.08195003	0.055792123	0.0051888376	0.038660914	0.07028675	0.1177422	-0.051165212	0.03348832	0.05377529	0.006762144	
-0.0012762882	-0.028566213	-0.031161515	0.010189739	-0.03608415	-0.035071548	-0.004751536	0.020958997	0.043761317	-0.03925699	
0.022983855	0.030404758	-0.038456947	-0.036606837	0.09830256	-0.011483875	-0.07969371	0.054974496	0.03858147	-0.035200015	
0.0068144826	-0.072278745	0.027513642	0.010080434	0.10336982	0.0667313	0.018601952	-0.04679241	0.07693485	0.03997742	
0.06803629	0.060640328	0.038195092	0.002349448	-0.10519306	0.05375507	0.03135198	-0.063351646	0.020040376	0.026798075	
-0.06064552	-0.03768747	0.04362659	-0.035476327	-0.109387286	0.0074795308	-0.07135371	-0.047705173	-0.064177096	-0.046905458	
0.059892613	-0.036083687	0.045641072	0.09901462	0.049730327	-0.036556695	-0.006217421	0.0705684	0.110582374	-0.022916006	
-0.051720083	-0.00794995	-0.045336973	-0.0076327077	-0.06283899	0.024785392	-0.018349797	-0.039305307	0.008045505	0.08686582	
-0.068930425	0.040040676	-0.05321443	0.0065636514	-0.090772495	-0.024746554	0.032581013	-0.035034582	0.044590674	0.050222497	
0.011607956	-0.08551725	0.07438841	-0.010886655	0.032286476	-0.057966236	0.00023029887	-0.08439797	-0.0807592	-0.043605823	
-0.10243795	0.06356197	0.02050646	0.005742022	0.052701343	0.014430705	-0.03919693	0.04667816	0.111244075	-0.042365663	
-0.044572394	0.014949686	0.08569438	0.01817734	0.05024644	-0.041066818	0.08288439	-0.00014942423	0.0027532573	-0.09113616	
-0.08819201	-0.06279068	0.07157047	-0.025871025	-0.07926515	-0.031346038	0.015323831	0.030818433	0.06618621	0.018824957	
0.08301281	0.029165931	0.04051033	-0.009286874	-0.03470206	-0.052702438	0.036028486	0.121768825	-0.011284481	0.053858567	
0.0444521	-0.048265558	-0.0012186114	0.08688209	0.059269212	0.033678696	0.006747914	0.1106206	-0.030191347	0.0061287265	
-0.08405684	-0.039141096	-0.044620346	-0.036132935	0.028781611	0.050254952	-0.04343468	-0.0016909732	-0.039123546	-0.03010079	
0.020912755	-0.06337757	0.03470535	-0.04688968	-0.018077241	-0.107930824	0.017733995	-0.01072369	0.06373897	6.625648e-05	
0.0044081686	0.008951333	0.04433076	0.04618152	0.029625725	0.029169943	-0.037511602	0.035164155	-0.073057495	-0.03560851	
0.03169997	-0.047150552	0.037688598	0.015825892	0.026950108	-0.06041937	0.036808148	0.057899754	-0.043181594	0.113154486	
0.0926322	-0.13715708	-0.0036159812	-0.023830872	-0.02163984	0.03024163	-0.06861507	0.09646603	-0.042478662	0.015989631	
-0.0026884612	-0.10495732	-0.072022356	0.023170482	-0.14622444	0.031634215	0.068930365	0.076761045	-0.034782883	0.16039434	
0.059401315	0.075237714	-0.07610718	-0.018624483	-0.015689716	-0.021946276	0.03435985	0.064147554	0.08147736	-0.014223111	
0.035075977	-0.00042005186	-0.02069753	-0.037241552	-0.119117625	0.03487959	-0.07155436	0.06988475	-0.072691165	0.041109446	
0.019708198	0.0063479426	-0.01864579	0.05038217	-0.028492006	-0.06219473	-0.15467618	0.08828971	0.022616656	-0.050460305	
-0.030034615	0.0205153	0.076834984	0.07945903	0.030803442	0.01759956	-0.08744159	0.028659934	-0.049408033	0.12042291	
-0.009974237	-0.05969916	0.046096038	-0.0019744022	0.0016414158	-0.0049768966	-0.081179716	0.12911022	0.006227142	0.008287964	
0.07388343	-0.004287359	0.040547516	0.0663974	0.038331144	-0.0005908547	-0.106256865	0.03854627	0.044518348	-0.027805097	
0.14570294	0.014458375	0.0019748881	-0.0007272513	-0.0081719905	-0.030362379	-0.07246949	0.03150826	0.009427192	-0.03944119	
0.0067419014	0.012600979	0.0509805	0.05634497	-0.009496864	0.05162241	-0.09725118	-0.10219877	-0.08640686	-0.07763539	
-0.024159368	-0.03552939	0.049429167	0.018568816	0.07421619	-0.038197935	0.029990738	-0.0351662	-0.008205182	-0.02910225	
-0.0018778143	0.092122465	-0.03517299	-0.031039743	-0.057332132	0.0063326624	0.029581081	0.044393405	0.04755244	0.04060774	
-0.041968517	0.008894222	-0.10395301	-0.0644644	0.009485479	0.081121914	-0.018397622	0.004189821	-0.032571618	-0.08596726	
0.071625605	0.018658875	-0.033890177	-0.07187653	0.033511378	0.078913674	-0.0821337	0.064732365	0.049185354	-0.0328175	
0.078489386	0.036130104	-0.029657857	-0.023370914	0.025683729	0.0021579568	0.0092697935	-0.04671882	0.050704595	0.005908553	
-0.08548196	0.044192795	0.014680434	-0.102150396	0.030187368	0.023542013	0.034673136	0.032904882	-0.016867805	0.062073536	
0.022972096	0.06188478	-0.03817521	-0.06550287	-0.07035878	-0.044736434	0.063236855	-0.1001496	0.013268727	-0.040742587	
-0.021125894	0.074330084	0.037162457	-0.035585415	0.04387206	-0.0018030672	0.0073934663	-0.04218837	-0.013549424	0.025920931	
0.021766413	-0.018722044	-0.021623561	0.025903253	-0.07088173	-0.034538645	0.035028614	0.062376875	-0.0012669009	-0.011084977	
-0.10094926	0.06661095	-0.061598517	-0.0109071685	-0.08107023	0.08880571	-0.031539302	0.03465193	-0.046719972	0.042988267	
-0.019419957	0.014820036	-0.028069107	0.0010436097	-0.04321775	-0.04412492	0.0012191298	0.08204888	0.057362594	-0.02051159	
-0.0061850077	-0.03889201	0.014253423	0.06953461	-0.08974908	-0.019794457	0.063898936	0.07002504	0.0065984135	-0.046435207	
-0.014033743	-0.04803631	-0.08431573	-0.044158686	-0.015175041	-0.052274115	-0.030534888	0.027678689	0.09703716	-0.025680404	
-0.023690155	0.05574121	0.062370807	-0.059414588	0.024417674	-0.012553163	-0.058754705	0.08973993	0.016903007	-0.019380696	
0.049448434	0.015248371	0.036314752	0.06155531	-0.006635009	0.057885636	-0.038710807	0.06140023	0.014083157	-0.0081169205	
0.06768418	0.015802879	-0.016409868	-0.036231533	-0.0753283	0.009204016	-0.0067915255	0.091399096	0.014510658	-0.0148748495	
-0.04762861	-0.044118203	0.002245838	-0.107280046	-0.08377601	0.11292112	0.047708396	0.06724241	0.08360316	-0.0043999725	
-0.041168913	-0.11012679	-0.10500794	-0.006347369	0.017480392	0.02871816	-0.04186432	0.06333254	-0.035611287	-0.012418812	
0.1002264	0.035944145	-0.03264399	-0.06989173	0.056952186	0.12301131	-0.0437471	0.06517888	0.08920795	0.03095719	
-0.029830122	0.0800299	-0.055915013	-0.048900533	-0.09995943	0.02780432	0.031555578	0.055365868	-0.026467418	0.10249579	
0.0677411	0.046235025	-0.056799233	-0.047357876	-0.1259541	0.056727007	0.063432164	0.1564334	-0.0035106544	-0.032488074	
0.11302524	0.05474769	0.028685866	-0.06732077	-0.13060182	-0.029120246	-0.060512055	0.17854889	-0.023491273	0.035820756	
0.042737268	0.09031175	-0.02808246	0.081332736	-0.04407368	-0.01099034	-0.13304928	0.13199899	-0.13808993	0.0062219333	
0.04958685	-0.027479023	-0.056142494	-0.016799167	0.0083295405	-0.07148837	-0.057064235	0.13954908	0.019788573	0.13291027	
0.070264086	-0.048343744	0.096466556	-0.02163089	0.0077214353	-0.022493333	-0.21079324	0.057904802	-0.04694766	-0.047837723	
-0.03184648	-0.09920588	-0.040597778	0.039130293	-0.016089644	0.077749245	-0.014205162	0.09537341	0.05463778	-0.015295698	
-0.0023137948	0.052695293	-0.052719157	-0.063897096	-0.07035687	-0.031700995	-0.039009303	0.042091507	0.07916699	-0.028267939	
0.005219754	-0.07085986	-0.022328123	-0.08178934	0.051961813	-0.035365656	-0.0037235902	-0.006799014	0.00023488319	0.029132027	
-0.01752963	-0.08722575	-0.016251532	-0.012083534	0.061175343	0.02791653	-0.040178794	0.025551248	-0.017261978	0.07073454	
0.020402117	0.04108488	-0.0037131896	-0.08432442	0.020926576	0.012467742	-0.047954403	0.015200914	0.012828468	-0.06773973	
0.04553294	0.026256723	-0.020686077	-0.037825067	-0.023005305	0.056491375	-0.023912376	-0.097989134	-0.0185655	-0.045408756	
0.0062482203	0.07520039	0.00928352	-0.015528006	-0.034980148	-0.02017089	0.011100964	-0.04155283	0.06455568	-0.017910387	
0.027507393	-0.033453666	0.03137061	-0.0029300323	-0.011721644	-0.037959877	-0.013504374	-0.07455365	0.04472573	0.07278009	
0.013949659	0.0033828856	-0.05685264	-0.032070294	-0.021320842	0.08477891	0.023092607	-0.014372086	-0.062816575	-0.063776486	
-0.00087081466	0.0073953997	0.089670695	0.026594125	-0.022988226	0.05647914	0.060442373	0.0041700574	-0.025145655	-0.046681847	
-0.061369635	-0.008594344	-0.016059862	-0.06317376	0.05607201	-0.06666619	-0.0010077328	0.028567405	0.040334858	0.01125932	
-0.012612798	-0.09701545	-0.015632972	-0.07225518	0.015393693	0.11301392	0.01873359	-0.03399609	0.00351396	-0.037064567	
-0.11214191	0.013429363	0.028451221	-0.048563957	-0.0014106565	-0.00548001	-0.058535993	0.08258198	-0.027377816	0.05964055	
-0.01583776	-0.0173399	0.07144819	0.051107608	0.06986687	-0.06013878	-0.068889365	0.0287264	-0.043116495	-0.011212667	
-0.09146348	0.04904125	0.027674938	-0.017581275	-0.0036410359	0.054433763	0.05537424	0.06660604	0.10452806	0.0130910985	
-0.0020429567	0.00033198713	0.004809231	0.0070794523	0.07325686	-0.057455793	-0.01135003	-0.009140637	-0.012967877	0.014008299	
0.047289032	-0.052512787	-0.01215335	-0.030401371	0.040577307	0.024972344	0.04163466	-0.0015383303	0.009992318	0.08638012	
0.019552322	0.034718733	-0.026803518	-0.0180851	-0.024602372	0.005976648	-0.04103844	-0.051782206	0.021341216	0.09281535	
0.049484793	0.020876395	0.030674266	-0.03860596	-0.004722036	0.08095898	0.033976194	0.049480584	-0.036646847	0.026698096	
0.0035591577	0.0007504522	0.012898982	-0.11597588	0.060836565	0.07239371	-0.08016007	0.03567139	0.013079319	0.049809158	
0.1275736	-0.06839657	-0.15886743	0.027322756	-0.04629024	-0.047943722	0.088610545	-0.018696992	0.107234165	0.010429443	
0.053887766	-0.041169003	-0.12334561	-0.014625361	0.05757306	0.073325574	0.09435908	0.034742944	0.049565393	-0.09516047	
-0.041865595	0.019373713	0.038643025	0.0627767	-0.016063025	-0.020066693	0.12721789	-0.019771738	-0.011617452	-0.010037273	
0.020175446	0.057648364	-0.030258704	-0.06695873	-0.06691249	0.011074542	0.07485673	0.048071418	-0.012602528	0.06884533	
0.014437251	0.07860966	0.014597901	0.008276482	0.01735724	0.024080627	-0.033629473	0.0746326	0.030487865	0.026118418	
0.012802342	0.06153444	0.057992335	0.055142775	-0.01112102	-0.005314621	-0.06509763	0.05737441	0.017165704	-0.04238875	
0.052160498	0.026395002	-0.004185623	0.10024248	0.021573626	-0.10939601	-0.0036411574	0.031044837	0.0051031923	-0.025085537	
-0.04106576	-0.059764724	0.0470095	0.056336995	0.08108158	-0.09058501	-0.03708461	0.045233343	0.043892637	0.021131607	
0.020041287	0.061055716	0.09243998	0.089573115	-0.066248275	-0.1413522	-0.01687634	0.029306538	0.07886223	0.036670562	
-0.014428899	-0.012353179	0.10039726	-0.10552831	-0.005005832	-0.029744625	-0.08785981	0.02082342	-0.011247806	0.036995698	
0.04963577	0.003993206	-0.007127932	-0.05803024	-0.049121317	0.026549844	-0.01840553	0.046987727	0.093066156	-0.04719231	
-0.004785773	0.0110727735	-0.045151874	0.019068278	-0.047373515	-0.021975532	-0.09512445	0.031709626	0.0784189	0.01606771	
0.08731394	0.050535776	-0.07629594	0.013651594	0.040662866	0.06078767	-0.018341364	0.022400796	-0.041203935	-0.043156937	
0.036792275	-0.014232212	-0.09155558	0.036659542	-0.09647861	-0.0040166844	0.009048292	0.04175907	0.08288903	-0.0010492573	
-0.022234298	0.09042965	0.0027827257	-0.06263233	0.027090386	0.04817685	0.044530388	-0.010874424	0.015434883	0.11042926	
-0.019352302	0.08481214	-0.042069834	-0.038759466	0.0025187335	-0.02767708	0.017400434	0.090551384	0.08627106	0.010189256	
0.0067031835	0.037435018	-0.007053023	0.033743635	0.032133278	-0.045967005	-0.068189554	-0.0066144154	0.005537676	-0.11230325	
0.019665146	-0.060476918	-0.050947964	0.028024018	0.07340177	0.050259877	-0.0027812016	0.024919081	0.048151985	-0.07727384	
0.046360604	-0.003019307	0.011189525	0.035820685	0.03587598	-0.04331956	0.04275609	0.040903796	-0.038258478	-0.026234204	
0.0034174102	0.05457415	0.026517842	-0.06714814	0.020163506	0.03816021	-0.055985857	-0.08890496	0.00058491586	-0.040353667	
0.03306672	-0.018828413	0.002822961	0.004460323	0.012750368	0.02456155	-0.023988001	0.010875596	-0.047294345	-0.048026558	
-0.099211775	0.05726587	-0.043543007	0.08588767	0.040885925	-0.022493454	-0.027230931	0.0742847	-0.025502022	-0.0038523728	
0.009877201	-0.07813245	0.008429866	0.07668154	-0.017771482	0.099473216	-0.0621799	-0.0037553776	-0.014781275	-0.039313637	
-0.06707943	-0.017257579	0.014868569	-0.077231824	0.117139034	-0.0014259998	0.028025724	-0.023059446	0.055462155	0.026516268	
-0.015940264	-0.03308302	0.039052676	-0.0019726784	0.016835488	-0.08920799	0.004858457	-0.001982534	-0.09813688	0.07820386	
0.07537846	-0.009643608	-0.0941919	-0.09746659	-0.056540754	0.03645102	0.04015572	0.13188738	0.09841327	-0.013405093	
0.027249007	-0.046832588	-0.107791066	-0.07267214	0.08381075	0.10587639	0.11802359	0.01184136	-0.041836068	0.052522905	
0.00612414	-0.057692964	-0.09536241	-0.030278496	0.050404895	0.015349114	0.03239994	0.010773548	0.05932343	0.09015538	
0.023667766	-0.030230947	-0.048961155	-0.14189968	0.003578802	0.06177142	-0.041637704	0.010372635	-0.054497432	0.12120985	
-0.04387013	-0.031731665	-0.15185942	-0.002911035	-0.020962454	0.020914383	0.01805883	0.012221498	0.04737373	-0.03903454	
-0.027279925	0.04849229	0.02613566	-0.06312764	-0.04660532	-0.024981827	-0.0028257524	0.016783351	0.002764015	-0.12246043	
0.0057223956	0.18257935	-0.03059159	0.14878795	-0.064195655	-0.07244622	-0.076463364	0.09417414	-0.03842868	-0.051521797	
0.015286737	0.079841435	-0.039544683	0.08214911	-0.04789861	0.05637829	0.015217654	0.029369038	-0.08749903	-0.036347046	
-0.061662354	0.045731377	0.055468917	0.08684834	0.032567658	-0.13197199	-0.03824212	0.078680694	0.045946714	0.029731618	
-0.07812348	-0.070152834	0.10094345	0.1045584	-0.0053545935	0.038083773	-0.0072350157	0.11376068	0.000100409015	-0.045552667	
-0.026737541	-0.044115327	0.10751451	0.09201562	0.10768709	-0.047750592	-0.04285571	0.055862755	0.017600695	0.11401494	
-0.022219613	-0.012637221	0.04805106	-0.040195398	-0.024173189	-0.10291834	-0.038140982	0.04008634	-0.05832083	0.023792528	
0.05888928	-0.06786247	0.065960474	0.027614653	-0.023248728	-0.07326494	0.0139869675	0.05546563	0.037448958	-0.044768345	
0.0561032	-0.014698654	-0.074166045	0.05244937	0.08528401	-0.119681165	-0.12074661	-0.016447725	-0.05968866	0.077421434	
0.044082876	-0.059710354	-0.023800595	-0.0011166022	-0.07195335	0.04348008	-0.09113205	0.041244686	0.028668804	-0.059760306	
0.016116373	0.015938533	0.030462608	-0.04317972	0.0048349807	0.010912436	0.06423716	0.08934093	0.074396335	0.03145452	
0.021771137	0.088987455	-0.024259862	0.06738409	0.07641608	-0.09635027	0.012309655	0.005094639	-0.067952305	-0.053210706	
0.003913031	0.055611446	0.044031296	-0.037340485	0.035952996	-0.015552509	0.018680718	0.04144903	0.051164832	-0.04509353	
-0.016057037	0.027670695	0.019359965	-0.06674365	-0.093481086	-0.06656568	-0.07065211	0.005922788	0.03155751	0.039479926	
-0.035564113	-0.032785602	-0.019843344	-0.0038613875	-0.0895455	-0.012918443	-0.006194449	-0.04989512	-0.03397759	-0.04819527	
0.022543782	-0.045201913	0.0045130104	0.108744085	-0.015986048	0.041279647	0.07619993	0.06817656	-0.020158028	-0.026109261	
0.0008246862	-0.009511317	-0.05665891	0.052331384	-0.01560683	0.01919039	0.07591756	0.0036021143	-0.014573583	0.082122825	
0.09116809	-0.008879522	0.058519237	-0.057366148	-0.044281658	-0.019555323	0.0008317851	-0.08119499	0.07612237	-0.029819118	
-0.06455299	0.07262147	0.04437006	0.026322886	0.0042848918	-0.024022255	0.02679772	0.05621932	-0.018186694	-0.055382587	
-0.06954286	0.051178493	0.11026571	-0.06297708	-0.06671342	-0.100834385	0.06408703	0.053089358	0.03178502	-0.05207588	
0.019046718	0.03527295	0.013160476	0.03379126	-0.08669527	0.026853632	0.05687374	-0.07441248	-0.017694565	0.052597202	
0.0026738718	-0.017043285	-0.008527198	-0.011611188	-0.0067626326	-0.009554511	-0.038458798	0.055192154	0.01851911	0.013900319	
0.079887465	0.043194883	-0.13129234	-0.03177997	0.04875938	0.014105511	-0.069517694	-0.066645876	0.027793178	-0.033398733	
0.06772741	0.0520509	-0.09806244	-0.07245191	0.052347418	0.040951345	-0.014628045	0.024964768	-0.029525988	0.10780266	
0.0959087	-0.026705578	-0.012415331	-0.09596919	-0.028757455	0.06722224	-0.006351676	0.032110788	0.024990112	0.002833541	
-0.0054155383	-0.027806925	-0.048554588	-0.08530224	0.087025225	0.068362065	0.0036634807	-0.07206196	0.07834527	0.03916788	
0.07956363	0.031137075	-0.0639154	-0.057599004	0.044551734	0.045640998	0.04507311	-0.0010297905	0.049912155	-0.002231501	
-0.043095123	0.034894846	-0.069928996	0.09888889	0.007578219	0.078422315	-0.040347986	-0.048787322	0.069289826	0.050602883	
0.00825773	0.067715995	0.015182236	0.1690592	-0.03241746	0.09193517	-0.015487732	-0.09639414	0.018472154	0.017941197	
-0.10584856	0.20166384	0.0139494585	0.12161552	-0.10703581	0.018526979	-0.029260084	-0.062036972	-0.06570974	-0.075195886	
0.026993891	0.18588942	-0.032382548	0.0116377035	-0.018173171	0.02449909	-0.04581953	-0.06338848	-0.0434054	0.05229759	
-0.14151442	0.08407645	-0.12563993	0.021658057	0.05837742	-0.014535121	-0.00687526	-0.009674279	0.05958185	0.014827963	
-0.07569564	-0.04653398	0.03115147	0.03374373	0.047941625	-0.019583954	-0.09161978	0.048939355	0.011530369	0.0074894745	
-0.07491845	-0.10756346	0.030990066	-0.028744007	0.024119835	-0.13640308	-0.03497805	0.055552278	-0.0058359276	0.017763644	
0.0880646	-0.047356512	-0.09215887	-0.078066766	0.067205906	-0.069678776	0.022027917	0.02144706	0.014502579	0.03482294	
0.122444354	-0.10153949	0.011613675	-0.083038606	0.0077893278	-0.039948646	0.0009564494	-0.0063829278	-0.0026357714	-0.049191378	
0.09213962	-0.05547269	0.0076144026	-0.0290925	0.044968035	-0.11964216	-0.028656073	0.021968268	-0.09940985	-0.03386374	
0.056626603	-0.037522502	-0.03277606	-0.06472804	0.022449408	0.08951029	0.020417891	0.04093364	0.032316037	-0.03306467	
0.048357476	0.05005044	-0.009096057	0.004389907	-0.0133606205	-0.0102728605	0.08124054	0.061092112	0.016310358	0.024046104	
0.0679163	-0.05635148	0.04049477	-0.00054886716	-0.060391206	0.09388075	0.058029085	0.034820464	-0.094179004	-0.030172078	
0.0068878355	0.103630915	0.034215435	-0.019167196	-0.058713093	0.04014109	0.0014956763	0.08861118	-0.039075628	-0.048589915	
-0.041149735	0.049393613	-0.0035578145	0.034608867	0.018942071	-0.02289035	-0.036419623	0.017186461	0.010870641	-0.054098845	
-0.015443436	0.07961206	0.05201589	0.026921457	-0.009288366	0.09376045	0.09848689	-0.098926485	0.0207473	0.033984955	
-0.07160558	0.017092431	-0.0066405497	-0.035305154	0.019021554	-0.050612446	0.019594405	0.09248081	-0.06057774	0.036297724	
-0.053048447	-0.0072953766	0.100228116	0.025497636	-0.07627831	-0.032506816	0.07256197	-0.022897141	0.051765993	-0.028502326	
0.026621312	-0.024455238	-0.048577666	-0.014591102	-0.049189564	-0.040667515	0.016882617	-0.04846008	0.027811628	-0.028596286	
-0.038077205	0.055153113	0.029272376	-0.0047895727	0.060285114	-0.012769282	-0.027579501	-0.02811309	0.042758666	-0.008024661	
-0.1121633	0.059685588	-0.0043717776	-0.10477695	-0.0034605772	0.0043035885	-0.03484287	-0.010531585	-0.013016402	0.03199696	
0.026379047	0.019683065	-0.0682322	0.035450906	0.018334653	-0.0019509982	-0.047051635	0.040356286	0.027827237	0.02638276	
0.07646516	0.008058251	0.0051777763	-0.06752899	-0.030333154	-0.0022345923	-0.01782478	-0.024886034	-0.037084024	-0.046202417	
0.052093253	-0.023707738	-0.12838028	-0.046437368	0.060674984	-0.03344912	0.010851895	0.050683714	0.05474505	0.10029999	
-0.013395956	-0.045297366	-0.08885181	0.008399889	0.10399863	-0.04134662	-0.045446265	-0.010162313	0.0048034233	-0.012126602	
0.10814419	-0.023356168	-0.03438286	-0.0027346634	0.05299541	0.015578163	0.029962234	-0.02894635	-0.043253284	0.05466736	
-0.05556302	-0.07651689	-0.07799558	-0.051067427	0.044162605	0.07579408	-0.0057987976	0.008380947	-0.0014404665	0.028854497	
0.03132616	0.00023582227	-0.08347248	-0.07238264	0.0837065	0.017949482	0.10655431	-0.11863041	0.0030488754	-0.09209365	
0.030412199	-0.115114376	-0.1443632	0.040799677	0.084835455	0.03339269	0.07221175	0.044730466	0.063383825	-0.090340495	
-0.13595885	0.15044363	0.011082464	0.04458232	-0.008698674	0.067747906	-0.039256178	-0.055913284	0.054869443	-0.02222971	
-0.084331356	0.19451526	-0.0013606447	0.04591254	-0.017891638	0.10362145	-0.04437133	-0.041082658	-0.0029239429	-0.025579194	
-0.17128961	0.15515836	0.006270757	0.008528774	0.006667192	0.048002128	-0.06870804	-0.021839885	0.021477588	0.015648708	
-0.04040679	-0.1049186	0.03390055	0.04787051	0.013838344	0.083068155	0.08965788	0.024856165	-0.06462411	-0.047218006	
-0.16374892	-0.13180524	0.027931834	0.07048515	0.016686019	-0.087242074	-0.024518734	0.035772875	0.07453556	0.069439106	
-0.027857143	-0.015960254	0.04143523	-0.0028501868	0.051634483	-0.060515545	-0.06270106	0.050422475	0.05992463	0.049034975	
-0.0022762269	0.01789861	-0.028817885	-0.11011666	0.06201583	-0.021701265	-0.07388141	0.109956466	-0.019796811	-0.025599927	
-0.007325538	-0.024120204	0.011920101	-0.08562189	0.0625517	-0.0068463795	-0.021036755	-0.019545685	0.07217338	-0.013691549	
0.017949117	-0.05074427	-0.054364845	-0.002919522	-0.06927602	-0.055205427	-0.04176671	-0.05692756	-0.06466814	-0.0431081	
0.072537795	-0.035981912	0.009782929	0.035799198	-0.10378759	-0.07333711	0.06345291	0.03455318	-0.014581472	0.044207696	
0.0036500904	0.049516197	-0.06421118	-0.039161585	0.018621039	0.0043959715	0.06676943	-0.006976454	-0.102960326	-0.11836701	
-0.018052721	-0.08205781	0.08541212	-0.022108952	-0.045007247	-0.09685165	-0.04742843	0.02358278	0.058939643	0.053598873	
0.012199009	-0.03268399	0.031018212	-0.023769435	0.044184748	-0.05359151	0.026842246	0.035171065	0.039763834	-0.034262437	
0.10323432	-0.034783695	0.03926697	0.0455388	-0.016185338	-0.05209792	0.04579678	-0.059266943	0.03943064	-0.06769071	
0.09262986	-0.0045835827	0.039880887	-0.018227736	-0.03543949	0.0049044015	-0.100130424	-0.06326072	-0.08672502	0.0068244534	
0.054564897	-0.05075853	0.030212063	-0.01635277	-0.0055803326	0.045396525	-0.012194794	-0.049844522	-0.05866823	-0.05527261	
-0.015983805	-0.031566218	0.027064769	0.1005407	0.0130470395	0.015360869	-0.031239737	0.017785568	-0.031117674	0.08181856	
0.08227107	0.075726144	-0.031944364	0.02146532	-0.061002366	-0.044160504	-0.056865364	-0.004200365	0.06662258	-0.06042662	
-0.018528732	0.027357772	-0.029003507	0.038825616	0.024819367	0.022300025	-0.0694051	0.049572986	-0.05064071	-0.031227166	
-0.023151822	0.02975195	-0.05439429	0.034612287	-0.004120159	-0.08200971	0.04939815	-0.07920013	0.018754127	0.062077556	
0.030731894	0.04523401	0.015203845	0.0009275578	-0.022719458	0.084706895	0.020035338	0.09854366	-0.052417837	-0.060287684	
-0.043620646	-0.07953543	0.004317131	-0.004741571	-0.0054570157	-0.09898317	0.004046076	0.012122434	-0.055727683	-0.023525666	
0.070096835	0.0030498605	-0.019761689	-0.08176303	0.041818075	0.04708411	0.048620593	-0.06026315	0.015484564	0.0674548	
0.15173832	-0.044021603	-0.06934063	-0.06375491	0.10806837	0.080220655	0.015687382	-0.085132554	-0.14749923	-0.0013205496	
0.004663361	-0.02929839	-0.033758055	-0.06493539	0.11786894	0.0909387	0.092775546	-0.06761122	-0.078534715	-0.019670662	
0.052163616	-0.040131774	-0.010748696	-0.024386091	-0.027374253	0.0034392765	0.019057998	-0.015008918	-0.05354965	-0.00052383053	
0.060173415	-0.067514926	0.0057251314	0.08442036	0.030499913	0.025968555	0.09615103	-0.073073186	0.02693058	0.0074180868	
-0.06446761	0.011410462	-0.027669348	-0.04502409	-0.035683226	-0.046284042	-0.052513443	-0.13267037	0.028296622	0.022155333	
-0.114306085	0.12743737	0.036605336	-0.033292867	-0.06687585	0.026224483	-0.015525741	-0.11704325	0.041773994	-0.040517718	
-0.13461736	0.1254731	-0.0021148713	0.014640855	-0.09576224	-0.025782328	-0.015990214	-0.0644001	0.07176606	0.11307798	
-0.14758185	0.07524574	0.012347559	-0.048800353	0.05879877	-0.047973786	-0.032010175	-0.020911612	-0.013309562	0.049996994	
-0.08758906	0.05793878	-0.0963226	-0.06362163	0.12992415	-0.08438025	-0.016258743	0.008700438	0.010833713	0.050665084	
-0.11848017	-0.08204692	-0.06408624	0.07028891	0.030619374	-0.058911618	0.03352294	0.03564279	-0.07594461	0.11213047	
-0.03862206	-0.081811965	-0.042010907	-0.0024791756	0.104373306	-0.02759747	-0.038811516	0.054106664	0.0077075404	-0.03520135	
0.012844906	-0.06412462	0.038148977	0.051644582	0.057747535	-0.02892669	-0.011892547	0.06546711	-0.004936619	0.0001822402	
0.009827138	-0.022257857	-0.039231252	-5.5557855e-05	-0.0068198056	0.014246163	0.040056735	-0.015141683	-0.066302516	-0.06201324	
0.07445665	-0.05699681	-0.03303946	-0.08862709	-0.004934382	-0.046179883	0.023913419	-0.049391527	-0.12524618	-0.016163014	
0.004691209	-0.037053786	0.047795594	-0.0703495	0.053078625	-0.028058078	0.038925	-0.02540367	-0.036993295	-0.012115479	
0.13032635	0.010870191	0.02739344	-0.008123948	-0.023634585	0.057655282	0.04461671	0.0066067874	0.0031580024	-0.089522846	
0.0070355693	-0.041274674	-0.0484003	-0.038059633	-0.0012906796	0.0106889345	0.07601709	-0.061194453	-0.015678657	-0.055071227	
-0.068512686	0.07061554	0.0006462827	-0.025799079	-0.09973854	-0.04918656	0.024685651	0.029383672	0.020501517	-0.09770253	
0.11134412	-0.038477704	-0.013059898	-0.04918582	0.09478577	-0.072055474	-0.012604572	0.038353346	-0.099503696	-0.03983036	
0.027508931	0.03326367	0.044260114	0.026710872	-0.0017372839	0.083232805	0.0675899	-0.011599032	0.024682203	0.010298311	
-0.004317566	-0.04007543	-0.04418852	-0.006497869	0.0034972734	-0.06650486	0.0046184654	0.07512333	0.0579003	-0.052019265	
-0.065403104	-0.031603172	-0.02649848	0.07551537	-0.08267285	0.07628975	0.005555637	0.055330947	0.0019474224	0.027431823	
-0.050011333	-0.0098329075	0.05082075	0.0014855396	-0.014915805	-0.058601726	0.07457399	0.076467246	0.040437587	0.032972865	
-0.040559985	0.09747861	0.012974661	0.04921968	-0.029171485	0.046921477	0.09681651	0.046305165	0.01538758	0.043249667	
0.018111248	-0.0036797395	-0.05785268	-0.039390583	-0.10328507	0.044563446	-0.037736636	0.08226469	0.05004521	0.0962106	
0.09586937	0.010396771	-0.045235932	0.029826459	0.046959035	-0.020043246	0.013101265	-0.014568647	-0.020763727	-0.05924141	
-0.04935537	0.028887354	-0.07448301	-0.051470708	0.0472558	-0.01743267	0.037519693	-0.098593086	0.004195408	0.048510987	
-0.013835823	-0.08262773	-0.004291585	-0.045071393	0.024749001	-0.0014333946	-0.02988804	-0.045947466	-0.027613385	0.008927903	
0.02275366	-0.09172662	-0.045645628	-0.043980744	0.061527982	-0.0031842086	0.030283015	-0.0067302682	-0.097855985	0.086075395	
0.041296948	-0.0037756448	-0.07752342	-0.05830262	0.034672096	0.05528127	0.1621294	0.027714403	-0.0014757167	0.056963727	
-0.025828721	-0.10108701	-0.039750498	-0.070869744	0.117712066	0.113415055	0.032884896	-0.029943218	0.021657249	-0.032372843	
-0.046887387	-0.026253544	0.09077524	0.016174402	0.12740473	0.04396	0.025106348	-0.010556221	-0.028184788	0.1440324	
-0.090603106	0.023907993	0.01582698	-0.025432961	0.119703226	-0.06096237	0.01252234	-0.16810672	0.093656994	0.016797366	
-0.11114413	0.11518561	-0.02245021	0.018280713	0.02486541	-0.0013104294	-0.046559792	-0.043177366	0.046421837	-0.09108651	
-0.07054187	0.08099129	-0.017081875	-0.04807422	0.04721083	-0.109713815	-0.0110783735	-0.043284055	0.037263468	0.024396509	
-0.06001254	-0.05464932	-0.004238037	-0.049108706	0.02264703	0.056247942	0.004998532	-0.01646105	0.066547796	0.005800374	
-0.05130016	-0.03915774	-0.117967285	-0.033482805	0.025210861	-0.06884404	0.091366015	0.04359186	-0.035469413	0.089341775	
-0.06016362	-0.08239956	0.038574543	0.019033032	0.02364869	-0.042939935	-0.053099502	0.015191742	-0.021741485	0.04039184	
-0.1065265	-0.027247781	0.051029675	0.051482994	-0.03331495	-0.02832367	-0.027933093	-0.04808919	-0.022632068	0.0060606585	
-0.015002446	-0.08679847	-0.10039501	0.11449715	0.03962568	0.03205831	0.024242578	-0.0038680704	-0.050950386	-0.03225874	
0.10121059	-0.08363152	-0.05566662	0.051103007	-0.0687408	-0.01870982	0.056762695	0.007706892	-0.0024010087	-0.06039337	
0.043938015	-0.011058812	-0.020415759	-0.013858508	-0.0015309621	-0.050608065	0.036722388	0.044482224	-0.039913792	-0.11659199	
0.07853777	-0.026072321	-0.035333414	-0.006951496	-0.054333016	0.008514436	0.029302213	-0.0892457	-0.031045975	-0.055032697	
0.057889108	0.035849575	-0.086236335	0.03017591	0.087039575	-0.060919743	0.0008105482	0.00581087	-0.11891781	-0.047515098	
0.013237744	-0.052682057	-0.099937856	0.014631676	-0.10757836	0.053048898	0.014912427	-0.021889191	-0.053902317	-0.05692785	
0.0073417397	-0.032370728	-0.055568323	-0.032865077	-0.0030090937	-0.01822354	0.07326225	0.0073906826	0.0404907	0.04957058	
0.02842377	-0.105691165	0.025914697	-0.065917864	0.035044078	-0.02674233	-0.03478954	0.08154443	0.023815904	0.022998018	
-0.055386655	0.03389098	-0.020890255	-0.0364723	0.058015585	0.06793361	0.061328504	0.026092635	0.05920775	0.026177386	
0.05676478	-0.076700784	0.005891799	-0.051272858	-0.10123563	0.011670534	0.03610231	0.042787965	-0.053272806	-0.032700587	
-0.026428603	-0.01359906	0.085297175	0.0540818	0.034418017	0.1013577	-0.0022824872	-0.00967935	-0.06229115	0.044785425	
-0.10947712	-0.03796199	0.0803808	-0.07086902	0.07511334	0.034998212	-0.08437967	0.071090005	-0.009318928	0.11337725	
0.06468593	-0.0780409	-0.021863053	-0.034018964	-0.073158115	0.020786965	0.103977814	0.033107176	-0.018753288	-0.020371484	
-0.019622767	0.060274597	0.04458256	-0.031322595	0.010133595	0.022467257	-0.006707325	-0.041537996	0.011000071	-0.058464117	
-0.013134143	-0.010840203	-0.063392304	0.02942539	-0.033696838	0.025571555	0.040051088	-0.032978933	-0.0080084745	-0.068441264	
0.03221333	-0.038785595	-0.0152790705	-0.02440753	0.06033971	0.04661688	-0.06655692	-0.06954309	-0.07605596	0.041223124	
0.026532592	-0.046354033	-0.02649687	-0.012212932	0.013232931	-0.123766564	-0.03985193	-0.061515003	-0.04999106	0.077730566	
-0.038759172	-0.027090821	-0.01938267	-0.041417092	-0.034399256	0.0382639	0.13280462	-0.07627946	-0.021103246	0.003331255	
-0.028322956	0.015041242	-0.009944229	-0.060863465	0.048020363	-0.08906822	0.059477877	-0.073439695	-0.012869663	0.016336704	
0.0028687697	0.039325718	-0.04210365	-0.0467935	0.05894356	-0.104928866	0.046940535	0.018670935	0.0018315527	0.07943692	
-0.026267404	-0.020384131	-0.0027405354	-0.06733197	0.109096676	0.0043045594	0.019197771	-0.024193725	0.057204504	0.045217264	
-0.059950963	-0.028290149	0.037967328	-0.037916325	0.03404756	-0.034015745	0.07276927	-0.087050535	0.05064803	-0.05835667	
-0.17579299	0.031402104	-0.016768485	-0.1091733	0.12920633	-0.022669459	0.08367051	-0.0052136406	0.06860261	-0.031105107	
-0.12115295	0.13561776	0.10194879	-0.056505635	0.03001228	-0.07312445	0.0028730275	-0.09931479	-0.03588281	-0.057826832	
-0.098556556	0.03938321	-0.0021458163	0.012897336	0.08092879	-0.020372838	-0.069671154	-0.06819468	0.060283877	0.0290517	
-0.029674726	-0.06363584	0.09842609	-0.008596213	0.03820866	0.07248173	-0.057838764	0.06634424	0.0044695525	-0.033745423	
0.0039770827	-0.079401344	0.083113946	0.008948235	0.084324494	-0.02324856	0.07028574	0.06206361	-0.034793794	-0.008841209	
0.004286014	-0.06693285	0.027983535	-0.008195409	0.05203308	0.023411246	-0.0049264207	0.072154835	-0.050235774	0.011773143	
0.036221053	-0.005128504	0.058006957	0.07548346	0.10447531	-0.024489364	0.10000282	-0.04503316	-0.02721376	-0.041846555	
0.07580788	-0.06281348	0.021151481	0.04874854	-0.021629065	0.06276229	0.07397235	-0.0222893	-0.05428362	-0.029800043	
0.025998468	-0.0746654	0.02909893	0.025688756	-0.1110238	-0.014324948	0.100244604	-0.02492244	0.012441949	-0.011299571	
0.026720988	-0.038000178	-0.033085037	-0.048447378	0.023450112	0.037599653	0.06968411	-0.007901017	0.034624323	-0.04833033	
-0.03942141	0.06173539	0.01832162	-0.03384917	-0.013740695	-0.06900729	0.056681257	0.008177527	0.0693707	-0.0021966589	
-0.015922688	-0.013649	0.044243593	0.0422443	-0.028794859	-0.06526479	0.05313455	-0.06109171	-0.028298687	0.023913786	
-0.05045783	-0.06846502	-0.015320935	-0.02100415	-0.06612092	0.09522639	0.014428876	-0.071854346	-0.01768564	-0.030189965	
0.025716135	0.014775263	0.023445433	-0.014626605	0.0184999	0.030683545	0.087845005	-0.000363999	-0.040196504	0.007707942	
0.083489835	0.01533039	-0.0354861	0.015128684	-0.07058827	0.06076224	0.06535518	0.02343971	-0.07508967	0.0992804	
0.062349092	-0.013425781	-0.070837945	0.054692708	0.07715699	0.03336298	0.0025144692	0.0031121247	-0.028785393	0.06149856	
0.0050314814	0.070360914	0.031438828	-0.026257046	-0.004358074	0.1092594	0.0004498303	0.086873695	-0.05729503	-0.07223852	
-0.056577753	0.009357798	-0.0044051143	-0.02357433	-0.0090395305	-0.0055809324	-0.01755251	0.016413042	0.061859842	-0.055294883	
0.052147437	-0.067310415	-0.046762258	-0.036429588	0.02627127	0.10187512	0.09940663	-0.03712467	0.013084895	-0.06046986	
0.006542452	-0.018312775	0.02447797	-0.07690528	0.028293502	-0.06917391	-0.063823454	-0.0038683354	-0.058452107	0.0749893	
0.018660104	-0.020130634	-0.0072346344	0.014590339	0.044562045	-0.05566225	-0.045725405	-0.045069057	0.033183135	-0.024161907	
0.062407378	-0.008424623	0.087036885	0.067732945	0.051096305	0.0064424104	0.037744224	0.014747041	0.073883355	0.036628973	
0.04724094	-0.070769064	-0.0141945705	-0.047028717	0.055948254	0.011207649	-0.018033922	-0.0014419274	-0.016388822	-0.043685447	
0.020190243	-0.11837666	0.020689813	-0.026937464	-0.061790023	-0.04388117	0.065725766	-0.018815806	-0.06667666	0.0015924769	
0.01897133	-0.08763407	-0.0409348	0.0015560365	0.0441338	-0.09815982	0.071006976	-0.0658485	-0.058939032	-0.036154576	
-0.033825684	-0.07395504	0.09266524	-0.06560303	0.003681174	-0.03249388	0.16690348	-0.12682669	0.019162713	-0.008241544	
0.015516429	0.071198694	0.09723878	-0.15238196	-0.03232839	0.019887421	0.1005546	-0.050969385	0.039107665	-0.07076217	
-0.09557452	0.040982034	0.120837785	-0.073290676	0.053155493	-0.11846582	0.01235704	-0.12328094	0.04324121	-0.07041376	
0.005147539	0.13311177	0.0770728	-0.12118678	0.0841135	-0.020425422	0.014795051	-0.09182911	0.003543325	-0.0059626475	
-0.024486383	0.12613268	0.07346409	0.0008916262	-0.015171682	-0.02983139	0.031471755	-0.07469846	0.06345313	-0.026368523	
-0.019453526	-0.030962976	-0.0107297795	0.034893103	-0.029231282	-0.012349253	-0.0039781886	0.056384932	-0.09883512	0.068265446	
-0.10057909	0.03658638	-0.05372135	-0.021994965	0.05263727	-0.042034104	-0.010246829	0.15692466	-0.09320023	0.036155626	
0.026547154	0.037038364	0.06819138	-0.02016255	0.03754209	0.10095124	0.042524666	0.08414397	-0.04756116	0.13942257	
-0.051913433	-0.14442453	0.08029872	0.014768946	0.12481058	-0.025851524	0.110282056	-0.04694322	-0.069862455	0.029320933	
-0.043312743	-0.06075836	-0.0133588	0.07540076	-0.051073104	0.010223043	-0.027929438	-0.07058312	-0.014186072	-0.0523772	
-0.00291156	-0.011412324	0.032199297	0.04924531	-0.008051372	0.023404058	0.0059179743	-0.08170689	0.024925666	-0.039146334	
0.101118855	0.009536948	-0.038228583	0.028817808	0.032352004	0.06429715	-0.014433106	0.0048946985	-0.020909984	-0.025849408	
0.047138188	-0.079135366	-0.02784424	0.038358327	-0.031845152	-0.031115195	0.08859647	-0.030280033	0.0030256475	-0.06366078	
0.0891994	0.01758175	-0.015101558	-0.007068799	-0.0645893	-0.0006729838	-0.010307475	-0.01601076	0.083543144	0.05551026	
0.02694038	0.0051193065	0.04927134	-0.016646748	0.0021461667	-0.08110103	-0.10791819	-0.0746472	0.010169422	-0.048430767	
0.07902466	-0.07837178	0.029428469	-0.08771868	-0.057555266	-0.058585502	0.051444285	0.010381907	-0.033390578	-0.005085675	
-0.095560685	0.037717693	0.09474885	0.08152464	0.04176048	-0.040414177	0.10463849	0.0343652	0.02707059	0.07852545	
-0.077242054	-0.10316592	-0.08425952	-0.007252436	-0.05759252	0.058428086	-0.01476634	0.025880141	-0.031795625	0.113064125	
-0.03456681	-0.014556927	-0.030272573	-0.056645606	-0.025623038	-0.031241508	0.08547336	0.04596671	0.05042793	0.025277002	
0.03265184	-0.061788086	0.031971775	0.032617178	0.032955155	-0.059749693	0.027376488	-0.08605795	0.035495162	-0.012595802	
-0.037034307	0.014228513	0.055798847	-0.05233237	-0.034877207	0.05884717	-0.018061874	0.08374331	-0.040221322	-0.0027330627	
0.02010697	-0.064620644	0.04615676	0.08059376	-0.011758611	0.042229827	0.098732784	0.053010788	-0.013788819	-0.07349067	
0.0020372702	-0.076890066	-0.0449477	0.06853713	-0.01113909	-0.036210407	-0.06704109	-0.009810049	-0.08856001	0.059878774	
-0.010604913	0.050059438	-0.06519199	-0.06127352	-0.056442395	0.031278003	0.07886663	-0.013133108	-0.060017005	-0.04927874	
0.06835769	-0.006524087	0.105984785	-0.029176943	0.04633236	0.032663945	0.008031087	-0.016938942	-0.014586103	-0.060401972	
0.15014397	-0.022701876	-0.0032686247	-0.026696257	0.015862977	-0.018160861	-0.01293387	-0.056737334	0.0601696	-0.050891962	
0.05031479	-0.005650859	-0.0015716951	-0.113954335	-0.05471273	-0.04603498	0.0758926	0.0009065402	0.011511014	-0.076316126	
-0.03290583	0.010398897	0.064557634	-0.10751515	-0.0014293491	-0.1319785	0.07393305	-0.040662013	-0.024200618	-0.054245032	
-0.005261115	-0.045415144	-0.037705638	0.0046325075	-0.08079156	-0.06325397	0.066280864	-0.11638393	0.034933213	0.011748911	
-0.04620241	-0.026560524	0.13829468	0.040598527	-0.07255055	-0.07359836	0.1300044	-0.01797896	0.122677304	-0.029149147	
-0.12068075	0.042388286	-0.06941281	-0.030677067	-0.09010495	-0.020374091	0.026466865	0.01216005	0.06756867	0.035186894	
-0.039591983	0.07866851	0.046797	-0.16992453	0.043697305	-0.095937975	0.036379844	0.0150084775	-0.04936966	-0.02750111	
-0.13499723	0.07110486	0.046838243	-0.0466945	0.079448536	-0.10338139	0.054612886	0.058858443	0.03768564	0.008896182	
-0.075173266	0.086522624	-0.06147179	0.008853452	0.07836935	0.009352941	-0.0023796987	-0.026242606	-0.058728468	0.110883385	
-0.10739334	0.012402199	0.059458148	-0.12561685	-0.056218866	0.057892844	0.10818094	0.086408705	0.055016074	0.10875221	
0.025110189	0.0035812662	0.09719255	0.055256613	0.028345924	0.0650933	0.0735331	-0.07658365	0.044330444	-0.023863712	
0.03857029	-0.083435975	0.052516617	0.1273875	-0.033726063	0.03425611	0.16545182	0.035386093	0.041472122	0.05182206	
0.08371077	-0.13049483	-0.046106268	0.06442459	0.02849536	0.071121335	0.09873127	0.054460395	0.0010730177	0.008948431	
-0.04239655	0.027488131	0.002081073	-0.058677074	0.057494156	-0.058280885	0.059690703	0.005071379	-0.00049160817	-0.007712833	
-0.026354218	-0.07774429	0.038955197	0.04115363	-0.08110924	0.009353958	0.11109804	0.011680946	0.0675426	-0.0014344808	
0.10639672	-0.08738233	0.06708234	-0.06991356	-0.013230412	0.024138829	0.007016228	0.03522477	-0.06882626	0.033254135	
-0.011463079	-0.017585846	0.06324408	-0.017638443	0.0019243151	-0.06946398	-0.09508588	0.002823014	-0.019678425	0.04374334	
0.04118288	-0.018849697	-0.026729964	0.029981194	0.009310962	-0.08459141	0.09544653	0.0019145657	-0.02509182	-0.024657782	
0.034472186	0.063612945	0.011714655	-0.01901505	-0.10944858	0.01291065	0.059089065	-0.0323525	-0.0019238702	-0.021851236	
-0.0049176714	0.054374494	0.026934493	-0.003469603	-0.029162304	-0.033520654	0.033009786	-0.05163499	0.11062292	0.018575061	
0.03745352	0.05108269	0.03311442	0.0013597447	0.0043690153	0.028041907	-0.045386057	-0.009031124	0.037070952	0.047161236	
0.015335362	0.017602528	0.051140122	-0.04153284	-0.012118853	0.06007761	-0.058234535	-0.009886822	-0.014863954	0.08568669	
0.026016505	-0.0717929	0.021909269	0.0139761325	-0.0061138594	0.03546525	0.028844552	-0.058224995	0.05857081	0.012452296	
0.054039236	0.021135755	-0.016129622	0.04282585	-0.0020858466	0.004318272	0.041898854	-0.02077862	0.045800056	-0.034985732	
0.07483816	-0.05555651	-0.014755755	0.038322207	-0.051981267	-0.05083202	0.030843435	0.04793997	0.012117095	-0.016840603	
0.0757837	-0.03249417	0.0397256	0.06505395	-0.0062673567	0.080230705	-0.07062424	-0.039795604	-0.089408845	-0.08035936	
0.024061427	-0.003483874	-0.04889898	0.016929593	0.06955604	0.004405538	-0.1278384	0.014286101	-0.021210682	-0.123616405	
0.09560868	0.011814465	0.048267983	-0.07152538	0.028427526	0.11130189	-0.026328187	-0.027040184	0.04461024	-0.050857205	
0.13817158	-0.022357011	0.08144716	-0.007863922	0.07200529	0.074878566	-0.0047756215	-0.019661007	0.08917786	0.001994801	
0.05542827	-0.010724491	0.08829848	-0.067981854	0.0046916506	0.038502973	-0.052744735	-0.07454628	-0.03804205	-0.060904298	
-0.029541798	-0.036050804	0.040781625	0.06945761	-0.036238447	-0.121699445	0.051298913	-0.07986257	-0.0011862386	-0.085140295	
-0.032780115	-0.05327566	0.065712005	0.029394759	-0.008439016	0.029224698	0.06993074	0.030026628	0.14125487	-0.022235706	
-0.07501974	0.06874439	-0.045526303	-0.03368023	-0.09844906	0.00680565	0.13071369	-0.014106914	-0.018303664	-0.08804564	
-0.024278672	0.061208736	-0.026677806	-0.091875955	-0.02829902	-0.010259406	0.15034963	-0.05830253	0.06379014	-0.063455045	
-0.05542698	0.1778065	0.10269637	0.0036635385	0.031854138	-0.056535423	0.08204614	0.017370129	-0.13583465	-0.04215443	
2.494771e-05	0.08148808	0.0083520925	0.0009770462	0.0770267	0.03265521	-0.019243706	0.09017942	-0.029244406	-0.035770085	
-0.0040588607	0.08034415	0.049375717	0.058239605	0.030928124	-0.060855687	0.06969209	-0.027853472	-0.086733304	-0.0515702	
-0.010625573	-0.075031094	-0.010318253	0.03088293	0.09164251	-0.064894125	-0.046019234	-0.085855715	0.015001186	-0.035950024	
0.07747544	-0.1291386	0.07393144	-0.08730567	0.019654363	0.10689506	-0.0243915	-0.01919432	-0.027376784	-0.07048262	
0.00434036	0.020904297	-0.011250573	0.093471	-0.054085188	0.034715995	0.040902484	-0.028740637	-0.056865882	-0.029159104	
0.035874013	-0.019274047	0.035328254	0.03718069	0.029202506	-0.043690138	0.08674602	0.055262312	-0.10981759	-0.03961727	
0.020584853	-0.041015055	0.07339528	-0.0249586	-0.0022287765	0.0018869203	-0.037541524	-0.015629647	-0.033350762	0.0054581836	
-0.019332835	-0.05449592	-0.052970715	-0.051528387	-0.07278798	-0.0208507	0.01783657	-0.0050821137	0.0102972975	-0.028892446	
-0.06530987	-0.054573063	0.040578946	0.05781296	-0.012091604	-0.093710504	0.01073337	0.0036246607	-0.011494834	-0.07525812	
0.035222575	-0.045514017	0.056241523	-0.0031122915	0.04788417	0.082990214	0.018761808	0.052732937	-0.006296319	-0.041158907	
-0.0014107978	0.062440112	0.08139775	-0.028950546	0.04489136	-0.0034024476	0.017070383	0.012055743	0.05445168	-0.055967987	
-0.05643133	-0.027408784	0.06645003	-0.0122707095	0.008666387	-0.023202281	0.03139689	-0.10105372	-0.08974815	0.017306766	
0.03285832	0.016549338	-0.02011178	-0.008867656	-0.0112492405	-0.011818887	-0.06444106	0.030114468	-0.055878706	-0.08201987	
-0.07350525	0.038903523	0.058558814	-0.030677866	0.06368067	-0.028769458	0.09563382	0.09835887	-0.054857366	0.019921103	
0.036092497	-0.06687852	-0.015954707	0.04649179	-0.04330338	-0.05808449	-0.023737144	0.004279535	0.08607207	0.10661435	
0.034335222	0.07492394	0.023948226	0.07478885	0.070933424	0.010556893	0.05210519	-0.012210678	-0.03547365	0.024461458	
-0.090986945	0.063422166	-0.05291582	0.055117156	0.08702637	0.02067897	0.03156416	-0.0115192495	-0.0792763	0.021700544	
-0.045843977	-0.009814926	-0.025880838	0.118704505	-0.022690354	-0.074438915	-0.02486001	-0.10161521	-0.008356115	0.020925982	
0.007478898	0.009427312	-0.027296837	0.019328266	-0.08273528	-0.10488345	-0.044040043	0.015049023	-0.11855902	0.08288983	
0.0046969578	0.012659738	-0.044261504	-0.05229983	-7.9250676e-05	0.0040778057	0.06455497	-0.062413525	-0.007767962	0.009241117	
0.03857685	-0.016777333	0.1301844	0.09035742	-0.06529848	0.11480849	0.0014443208	0.053918526	0.021378895	0.07956395	
0.086920016	-0.03515404	0.02603978	0.033788417	-0.10565584	-0.05914667	0.0038212785	-0.073502555	0.034042705	-0.028132807	
0.13035281	0.07622632	0.08690473	0.007658671	0.052026812	0.008395185	0.038515024	0.010631548	-0.06528726	0.034733083	
-0.030611856	-0.017366584	0.047707748	-0.026007032	-0.08137227	0.060361013	0.044114366	0.013612941	0.016626358	0.037172493	
0.05526186	-0.0253341	0.051252246	-0.028854743	-0.06849503	0.023970578	0.042706	0.03464908	0.07349211	-0.09532759	
-0.01836781	0.058459576	0.11826997	-0.0741364	-0.02005862	-0.01646974	0.0824548	-0.08690245	0.024695346	-0.05842774	
0.07725879	0.09811653	0.05107392	-0.1121472	-0.06194281	-0.05739742	0.12594153	-0.0072842897	-0.10249109	-0.08233651	
-0.05387416	-0.020406427	-0.023563901	0.06338902	-0.040910285	-0.097014286	0.18059802	0.004287499	0.001889739	0.067495055	
0.03825078	0.04428495	0.039975047	-0.029423714	-0.09043882	-0.08523193	0.082848504	0.11451968	-0.022328284	-0.09147298	
0.009729866	-0.08492344	0.032923248	-0.024574323	-0.046765447	-0.010242832	0.026323527	0.10020991	-0.0056954185	-0.10018471	
0.021927578	-0.025128877	-0.041366976	-0.03596228	-0.05542722	-0.045711868	0.1341551	-0.03113175	-0.07138697	0.021094823	
-0.0714958	-0.03008545	-0.004368026	-0.011439508	-0.029669415	0.07979455	-0.009925489	-0.045914326	0.00055587315	-0.030686662	
0.1117915	-0.029452236	-0.060925514	0.07455426	0.034497514	0.027474336	-0.013667262	-0.059592597	-0.037960615	0.031795677	
-0.030924069	0.031600125	0.017387588	0.018202314	0.06451613	0.104478836	0.08859732	-0.12774229	-0.10629189	-0.026233632	
-0.00037680895	-0.093790576	0.101210006	-0.053700436	-0.11299013	-0.015145913	-0.0061545363	-0.06706828	-0.018281601	-0.01840065	
-0.012987456	0.0045656078	0.098771624	0.025763664	0.10229485	0.10180171	-0.05172891	0.030847307	-0.017427823	-0.012819575	
0.09930154	-0.085927814	-0.03760706	-0.008466291	-0.024704803	0.028137663	-0.1216064	-0.09436858	0.07689662	-0.092839904	
0.109796464	-0.01189056	-0.018087685	-0.007788997	0.024084909	-0.010680829	-0.08537221	0.052640565	0.007988202	0.013176171	
-0.043328416	-0.03548654	-0.07524917	0.036245354	-0.048778296	0.011272295	-0.10749469	0.014591184	0.107362494	0.029150207	
0.041390017	-0.0076526473	-0.0048545087	0.03506287	-0.0471435	-0.06949282	-0.04108315	0.025491804	0.04765636	0.024595376	
-0.014158294	0.0075611095	0.012407662	0.09149378	0.0005189752	0.06025418	0.015272522	0.015649097	0.09232311	0.07465441	
0.0738978	0.038551215	-0.019788621	-0.018491002	-0.021329239	-0.007733355	-0.04985997	0.0043585165	0.03544788	0.048916496	
-0.071160875	-0.019588122	-0.0074469144	-0.009511717	-0.043473773	0.006405827	-0.042771976	-0.053887386	0.012987612	-0.0009242476	
0.026789192	0.060700253	0.09272283	0.09049974	0.048197992	-0.0037218826	0.025300203	-0.0105956085	-0.05723276	0.036626607	
0.034911048	-0.06580719	-0.07447036	-0.01101155	0.048781004	0.027882962	-0.10853322	0.007524795	-0.023626033	-0.0056029996	
-0.055811536	-0.004062833	0.033828326	-0.054219693	0.053817324	-0.082121134	0.023384897	0.022896837	0.07986416	0.009314808	
-0.03506736	0.09329139	-0.016484132	0.081151195	-0.065939985	0.018665176	-0.035930812	0.055726197	-0.03554005	0.087708935	
0.09816731	0.02542368	-0.023655571	0.08982153	-0.016742134	-0.017010404	0.030254375	-0.05780991	-0.0098693445	0.02260524	
-0.05134175	-0.021450125	0.021665568	0.044341747	0.050170198	0.013439352	0.011877022	0.0044899154	-0.025473936	-0.11300356	
0.075251356	-0.08483761	0.10246754	-0.040841464	0.036015216	0.07411281	-0.11579388	-0.023024108	0.043129176	-0.09518807	
0.028933283	-0.043610476	0.046526417	0.033814605	-0.0074177124	0.06860589	0.039132822	-0.004916311	-0.05704162	-0.07770932	
0.0675805	0.013815653	0.13142246	0.031560056	-0.14260253	0.09679781	-0.0038646269	-0.111802116	0.06392116	0.0031578266	
0.09497935	-0.09181137	-0.010541455	0.016875288	-0.07039471	0.08900438	-0.03954595	-0.0584846	-0.07635958	-0.04775581	
-0.020107735	-0.053976417	0.081490315	-0.066526085	-0.051495034	0.051722486	0.08556708	0.01823132	-0.019449042	0.0027780363	
0.027140372	0.024294775	0.016761865	-0.09103784	-0.008114819	-0.0621862	0.08831413	-0.09425174	0.06942253	-0.048771366	
-0.0863791	0.10423513	-0.0995688	-0.021751393	-0.02002159	-0.021651633	0.015970986	0.06781508	-0.0014421353	-0.061650384	
-0.052209653	0.075916566	-0.060463067	0.00806824	0.017540894	0.055473845	0.01571419	-0.013263715	-0.023052575	0.07783063	
0.0007915977	0.047526788	0.045148082	0.08928804	0.014739213	-0.0050074146	0.0019809706	0.04236765	-0.037578933	-0.060250986	
0.0056726886	-0.11410071	0.04747242	-0.04237992	0.04204082	-0.041693445	0.029833	0.004393717	0.01598258	0.0341471	
0.052208096	-0.05947968	-0.036270484	0.041593082	-0.006581825	0.022786789	-0.004645601	0.0128267305	0.01348375	0.020817759	
0.046294414	0.05951305	0.06254288	0.12526923	0.014866894	0.082054794	-0.055220284	-0.057182565	-0.02992017	-0.0122991325	
-0.096171476	-0.005236968	-0.058561195	0.058213975	0.011310871	0.061009623	-0.013943823	-0.033130527	-0.03988836	0.04812534	
-0.08060664	0.019487364	0.049928397	0.032509238	0.015480951	0.006496852	-0.104650415	0.064696334	-0.000643799	-0.018667938	
-0.07169723	0.07890401	0.081479155	-0.03891838	-0.03350929	-0.011147275	-0.003892064	-0.030682031	-0.07292098	-0.015594335	
-0.056852367	0.05658595	-0.011218025	-0.007409531	-0.040504433	-0.045537222	-0.08740154	0.04918766	-0.0002908345	-0.0051074247	
0.010904966	-0.101670876	0.120880425	0.031133259	-0.08216159	0.05602291	0.010045162	-0.019793756	-0.09290345	0.06983999	
-0.037381664	0.08696158	0.070696495	-0.015170073	0.033421442	0.055483494	-0.026935473	-0.08667334	-0.0489386	-0.06992204	
0.070647255	-0.0030925684	0.029169464	0.090801515	0.034406304	0.020463953	-0.014432917	0.016635604	0.017680166	-0.025752345	
0.007118413	-0.07344501	-0.05605842	0.0077396086	-0.05258752	-0.043328233	-0.079688765	0.015137116	0.043530796	0.038039863	
-0.03737499	-0.049139228	-0.109687164	0.021860939	-0.012813714	0.072052725	0.04372354	-0.058549818	0.047317866	-0.072743155	
-0.019785337	-0.05417783	-0.0076092808	0.0019596892	0.0025848926	0.10951279	0.10157524	-0.036467567	-2.542858e-05	0.04083926	
-0.055196237	0.107654005	0.018571893	0.056444414	0.042616162	-0.04509218	-0.008195712	0.020162808	0.03212573	-0.022168387	
0.021534532	0.06964434	0.027203854	-0.052954707	0.02542689	0.04131805	0.001648619	-0.10446288	0.10629989	0.031387072	
0.038851537	0.07467688	-0.0055050855	0.009845914	-0.059168126	-0.06778018	0.11172268	-0.02656326	-0.0025576274	-0.0084943175	
-0.029273223	0.04164469	-0.019659914	-0.007173759	-0.02079376	0.0649522	-0.027584242	0.038111333	-0.03587351	0.054862253	
0.08698082	-0.03623612	0.03894336	0.04091626	-0.038666837	0.05958112	-0.094929114	0.020445727	-0.046359677	-0.09024164	
0.053686216	-6.392717e-05	0.07927453	-0.0011888802	-0.12096554	-0.06771295	-0.08912296	0.015854433	0.025264414	-0.0027390579	
0.06701431	-0.041240662	0.06039054	0.045027673	-0.040513072	0.09432547	-0.1147679	0.026286773	0.05227661	-0.003965291	
0.06559061	-0.035105485	0.097734325	0.15282677	-0.04451117	0.003116487	-0.09091904	-0.016975505	0.09117348	-0.056016717	
0.039951637	-0.034048658	-0.06433051	0.06894604	0.050254922	-0.021251211	-0.023249421	-0.060027268	0.04121835	-0.09437976	
0.090803064	0.07157154	-0.0063785617	0.05805558	-0.059852	0.10317717	-0.06391627	-0.0048303613	0.039166544	-0.0041413647	
0.060437717	-0.03683989	0.037907906	0.011926075	-0.010097417	0.0817404	0.033957176	-0.033967473	0.028612027	0.01514458	
0.04858016	-0.02235199	-0.02724552	0.0919346	-0.054468546	0.04069249	0.018017206	-0.07615226	0.10974374	0.035537973	
0.05081757	-0.012932899	-0.07573602	0.0105220815	-0.08540457	0.12743573	-0.037464593	0.007371749	-0.009058156	-0.05479413	
-0.066462874	0.045701392	-0.03442369	0.017684326	-0.036108546	0.08081423	0.00488926	0.0030936028	0.12230192	0.010824727	
-0.021809123	-0.025548866	-0.036450855	0.030334137	0.045391627	-0.024970395	0.006549218	0.06687836	0.061699357	0.05242689	
0.0056348164	-0.09816843	0.003957183	0.05330433	-0.047734704	-0.0242032	0.014808593	0.02715847	-0.015446031	-0.04657083	
0.035068568	0.035718005	-0.08560662	0.020936048	0.0732838	0.037301153	-0.08042838	-0.013928888	-0.022218278	-0.08847152	
-0.035560865	-0.03217883	0.098098174	-0.013284993	0.05153579	0.05682273	-0.06598027	0.0033083037	0.057664648	-0.02249145	
-0.036874898	0.0074931793	0.06572728	0.082732886	-0.029085958	-0.007311411	0.0044580195	-0.039584283	-0.04643404	0.025634792	
-0.036275104	0.0052221487	0.0587855	0.06586851	-0.05814743	-0.016451627	0.04056371	0.056736257	0.008696531	0.016985498	
0.026397865	0.041899655	0.051614605	-0.03375867	-0.10114212	-0.013242849	0.0710577	-0.037350114	0.032862958	0.028464988	
0.018696973	-0.0957513	-0.034299847	-0.016805062	0.002730693	0.05281359	-0.086358115	-0.040204592	-0.024532707	-0.054865908	
-0.090178534	0.008815996	0.12629278	0.05446747	-0.035627004	-0.041131645	0.07761068	-0.061930373	0.07376796	-0.048518695	
-0.015933318	0.020778127	0.109503955	-0.07687733	-0.067059726	0.02753533	-0.0588296	0.007220468	-0.005766216	-0.055481695	
-0.019123157	-0.053533677	0.043530565	-0.0013905471	0.028435595	-0.017581882	-0.06492604	-0.057152122	0.005239856	0.03151747	
0.1139715	0.085759446	-0.044785917	0.001254853	0.033565015	-0.014694765	-0.021766728	0.03343091	0.029172683	0.02849825	
-0.10277998	0.011625248	-0.031525318	-0.012382317	0.0034100977	-0.07786533	-0.058250636	-0.007411855	0.022613807	-0.0075073573	
0.057626206	-0.094907604	0.027360743	-0.06725972	0.022363478	-0.039417416	0.066322215	0.08104581	0.042964216	-0.029549856	
-0.029646145	-0.058085777	-0.09508442	-0.080071114	-0.07024904	-0.015783407	0.001299444	-0.00913276	0.082917675	0.0239281	
0.020664563	0.048927825	0.016608028	-0.031741377	0.018206023	0.066854574	-0.029485079	0.011754066	-0.025859121	-0.037940796	
-0.013467031	-0.08016463	-0.025280839	-0.044311002	0.06746752	-0.05735503	0.046239205	0.040416434	-0.006800967	-0.040893655	
0.031154327	0.043242306	-0.04799051	0.05788746	0.079894245	0.061439425	-0.0011503722	-0.0068750116	-0.012918208	0.026352677	
-0.05554031	-0.0054826653	0.02751095	0.041211378	0.020120317	0.035374083	-0.031174581	0.026482	-0.0023268554	0.021433052	
-0.02936852	-0.013978026	0.0054131933	0.046714164	-0.057350148	0.019373203	-0.051056333	-0.026770106	-0.0028156391	-0.029705703	
0.036054004	-0.0126620075	-0.10100256	0.050797276	0.034800187	-0.039563518	-0.018071571	-0.05484631	-0.004064486	0.072745256	
0.016097823	0.052143395	0.09636072	0.1062276	-0.07397633	0.020936413	-0.010413944	-0.019617738	-0.056553055	-0.12161142	
-0.01896213	0.003647604	0.05897538	0.04077815	0.044718806	-0.001280287	-0.018333187	-0.10456518	0.05529058	-0.07130768	
-0.0034790859	0.023101691	-0.09384382	0.0032127085	0.0703235	0.041911192	0.016794773	0.0041321083	0.12660523	-0.0045410073	
0.06412078	-0.022057733	-0.020274473	0.031771377	0.041480135	0.04795773	-0.12000155	0.022942688	0.021911748	-0.023232171	
-0.009947915	0.08962229	-0.08520504	0.070345305	-0.077922314	0.10506128	-0.13294283	-0.07798377	0.046632778	-0.029682139	
0.005463263	0.06662755	0.010635279	0.048052024	0.0030532442	0.06758167	-0.085332856	0.07234608	0.1436902	0.04908408	
0.042836208	-0.016080337	-0.063428655	0.086732514	-0.004498594	0.059591476	-0.1534331	-0.008808037	0.037107684	-0.03603465	
-0.017008962	0.020642316	0.025676219	-0.017577706	-0.0020373317	0.010386482	-0.027107881	-0.094209254	0.02408796	-0.043052483	
-0.023404688	0.009135082	-0.053537242	0.05179442	-0.012741614	-0.024809707	-0.10555399	0.04273006	-0.024177348	-0.010279545	
0.052985378	-0.053760953	-0.03288219	0.07033735	0.0052138744	-0.03619492	-0.04574555	-0.0023110865	-0.04216929	0.10775346	
-0.018037537	-0.034958515	-0.0431859	0.060243435	-0.014114701	0.043830045	0.03377823	-0.108894356	0.054085575	0.054928884	
0.09547666	-0.05644582	0.1226848	0.037836872	0.083565034	0.02932264	0.009164215	0.0012541541	-0.07748531	0.04299383	
-0.050550524	-0.05652663	0.020221984	-0.0008310826	0.06918749	0.04533703	-0.050265454	-0.08523101	-0.077134594	0.035007406	
0.02556237	0.10331564	0.057252854	-0.036498547	0.039896592	-0.07655227	0.03269576	-0.031053834	-0.01648146	-0.09423787	
0.015454065	0.08806825	-0.059556104	0.03586627	-0.018041935	0.06736877	0.0062115258	0.026415642	0.03597273	-0.013714926	
-0.0064757285	-0.006493515	-0.0047878544	-0.0513748	0.014250998	0.017464133	-0.0034702257	0.06798749	-0.024718978	0.014880267	
-0.07135355	-0.06840972	-0.0022150802	0.048292182	0.05093402	-0.010753467	-0.04931023	0.019818347	0.021492125	-0.008232343	
-0.06401727	0.094741784	-0.0215952	0.042674012	0.0051474934	0.005740215	0.10856282	-0.11274142	-0.01600915	-0.010782451	
0.068943806	0.10622212	0.07124286	-0.01645412	-0.086796254	0.0069683767	-0.0520373	-0.0016555812	-0.0023107862	-0.04145589	
-0.04883961	0.02457608	-0.10190608	0.03171099	-0.030946318	-0.058367714	-0.07856083	0.046527684	-0.10706559	0.035430003	
-0.015216859	0.08033641	0.060815718	-0.06283163	0.014791555	0.019129643	-0.04721988	-0.0039690044	-0.080366485	-0.0017030032	
-0.00232095	-0.05836992	-0.008883538	0.029545827	-0.09765029	0.03616547	0.015301015	-0.080856875	-0.03342303	-0.08764173	
-0.02836108	-0.016245134	0.020524062	0.038447473	0.024369052	-0.06686579	-0.020566633	-0.06484429	-0.02837453	-0.09160017	
-0.03129687	0.02043421	-0.004250223	-0.025167882	0.05335678	-0.018234195	-0.022971915	-0.096950464	0.01364444	0.028447377	
-0.028591858	-0.028569456	-0.004220723	-0.02247931	-0.11263846	-0.015694236	-0.032170832	0.03114597	-0.083246194	-0.033452746	
-0.017571934	-0.02371002	0.070132665	-0.0034284424	-0.0022663302	-0.013896117	0.02286734	-0.052465227	-0.022616215	0.075055525	
0.08816601	0.0029372508	0.018086411	0.012361442	0.014575315	-0.038230058	-0.04269754	-0.029279094	-0.00016205708	-0.02648636	
-0.036709026	0.03374893	-0.024211237	0.017937103	-0.046989456	0.044275407	0.044473723	0.0039575202	0.022205548	-0.037892703	
-0.0071834023	0.033584215	-0.0011449209	-0.09403214	-5.753208e-05	0.009893685	0.06357684	-0.008671118	-0.012518422	0.011171681	
-0.050289445	0.09175544	-0.10841567	0.06564437	0.02871966	-0.0075184484	0.012723571	-0.005972364	0.027496725	0.05518782	
0.023820031	-0.05459528	-0.07158957	0.023404958	-0.017028214	0.0011618099	-0.10514242	0.07462059	-0.019033268	0.06150797	
-0.005063402	0.008610908	-0.09052828	-0.0030877292	-0.011010205	0.03331196	-0.010429356	0.058686346	0.09036025	-0.07609966	
0.062980555	-0.12002673	0.003692871	0.05502968	0.081833854	0.060409285	-0.032226235	-0.015588583	0.12248835	-0.04732168	
0.03276878	-0.082594365	0.023844136	0.061318483	0.048862036	0.027615206	-0.06474649	0.08700576	0.045709077	0.014537651	
-0.045963317	-0.022637978	-0.059430208	-0.01684567	-0.00041370385	0.018474497	-0.023044657	-0.028670736	0.020346135	0.114178784	
-0.031650744	0.031545483	0.07017609	0.0064535197	0.060802422	0.11090912	-0.010942864	0.055859264	0.030821463	0.06132185	
0.03728073	-0.039753187	-0.035509653	-0.024563795	0.02987714	-0.037038013	0.0119199585	-0.012807061	0.06792044	0.076580405	
0.05949577	0.08652212	0.05103423	0.010876342	0.043883413	0.019044928	-0.065685265	-0.007262042	-0.011327542	0.09308886	
-0.04644769	-0.050160807	-0.0905611	-2.7653312e-05	0.021565154	-0.02891007	-0.030951656	0.03230463	0.013524269	0.033380557	
0.008742207	0.082008265	0.0114865685	-0.06477639	-0.051222138	0.0008918911	0.06613261	0.06064491	-0.004084933	0.033204854	
0.0147238085	0.03258962	-0.085077286	-0.051907845	-0.019357922	-0.044147655	-0.07126752	0.021677218	0.05130357	-0.05896018	
0.028716145	0.037337776	0.043222394	0.059911117	-0.014569699	0.0064663896	-0.028451106	0.020674901	0.0003633911	-0.025459116	
0.05979061	0.06616258	0.02646753	0.058915395	-0.068453446	0.03177134	0.08548373	-0.0008986049	0.026742788	-0.029282779	
0.033911496	0.027832575	-0.02850487	-0.00931624	0.019962167	0.052129272	0.07855281	-0.017165685	-0.022434631	-0.009016402	
-0.037698574	0.017925067	0.06307643	-0.06753077	0.028439324	0.08559297	-0.03826538	-0.09203462	0.032159835	-0.017456433	
-0.034838416	-0.026068006	-0.023873648	0.04058505	0.03488066	0.006460998	-0.06856696	-0.09223869	-0.05158541	-0.028164983	
-0.013507985	-0.062085614	0.101317964	-0.054997083	-0.014005963	-0.08307392	0.027202915	0.032325562	-0.112167545	-0.038904987	
-0.0126519725	-0.028921468	-0.013717953	-0.02455939	-0.033090487	0.10584258	-0.064299956	0.055882208	0.03480261	0.00894448	
-0.007958148	0.040626578	0.0055519943	-0.061285224	-0.016815275	-0.00059533125	0.061866008	0.036662128	0.05841574	0.05300402	
-6.8264504e-05	0.024278374	-0.09177039	0.03204513	0.07108665	0.05159821	0.045845397	0.023344554	-0.03893137	-0.07275249	
0.025343455	0.002919888	0.05044708	-0.08997276	0.074263096	-0.03118294	0.0075555355	0.02601595	-0.0022855992	-0.06503376	
-0.030337688	-0.022005219	-0.0003057333	-0.05981854	0.078673005	-0.07775804	0.022019587	-0.016247999	0.04667876	0.018530894	
-0.038115084	0.0025816779	-0.029881286	0.040366117	-0.012667235	-0.09893093	-0.024193313	0.061717823	-0.008885316	-0.03859921	
-0.010671573	0.098150454	0.0008332086	-0.010479895	0.007552048	0.09233858	0.076021664	0.021766774	-0.11319709	0.07659393	
-0.01292779	0.018162385	-0.032448202	-0.039551433	-0.08306803	-0.10659629	-0.04865159	0.04324175	0.018919753	0.0058127786	
0.029196752	-0.1036668	0.022932855	-0.0047464455	0.02282484	-0.01430647	0.026974205	-0.0115981335	0.028595785	-0.100522086	
0.039864462	-0.053245597	-0.03934591	0.027419059	-0.06889951	-0.030552102	0.041720364	-0.059688948	0.039942816	-0.02229406	
-0.0018195956	0.025060492	-0.06821324	-0.001615055	-0.107816674	-0.059613217	-0.022265695	0.03058868	0.042752855	-0.04471481	
0.08106022	0.0022693884	0.055754412	-0.021571174	0.014631614	-0.008860579	0.07466545	0.04854579	-0.006776752	0.012452834	
0.024749238	0.0056158993	-0.025887603	-0.040138658	0.0068647526	-0.019606035	0.017133152	0.04789248	-0.07001077	-0.0024219467	
0.036044482	0.019534485	-0.02710329	-0.08845744	0.042067423	-0.031289045	-0.06718291	-0.040662907	0.034241017	-0.03168522	
-0.001146676	-0.030634897	-0.114270985	0.0015622042	-0.015377335	0.06439284	0.046121947	0.06651456	-0.011966149	0.020944614	
-0.07723754	0.030824995	-0.06953686	0.012980039	-0.06812717	-0.0054918486	0.02778018	0.022696951	0.055983823	-0.02506057	
-0.009669776	-0.04139635	0.017592078	-0.06038371	-0.028290862	0.06690779	-0.1094292	0.00016881984	-0.09545947	0.026729057	
0.07717323	0.05164362	-0.084769934	-0.0056249434	-0.03449358	-0.0017190238	-0.015946127	-0.05423829	0.011873513	0.09357101	
0.021840364	-0.094537616	0.0139929475	-0.082312725	0.10403329	-0.0662139	-0.10636991	0.027628075	0.070853874	0.0064736945	
-0.004364202	-0.087149814	-0.09810257	-0.054070905	0.04892419	-0.048147947	-0.035606932	-0.0365816	-0.07131582	-0.060088284	
-0.08841858	0.1012929	-0.010544471	0.09837571	0.09374998	0.05736312	-0.029473301	0.065485455	-0.05034273	-0.03069249	
0.013397082	0.021944629	0.10161293	-0.018519968	0.037080348	-0.04055226	-0.0106318295	-0.004473482	0.05747942	-0.047644366	
-0.00017242662	0.029785432	-0.03128746	-0.024696272	0.0070505007	0.054879755	-0.051094294	-0.04622784	-0.050240237	0.070901655	
0.08329098	0.0250085	0.061682653	-0.06361724	0.003896398	-0.019223293	-0.012038554	0.05117372	0.05365838	0.024234828	
0.048219077	0.033207387	-0.04163823	-0.009538076	-0.0016085241	-0.012902194	0.013065805	0.009493422	-0.0046001696	-0.051473584	
-0.036067232	-0.059142303	0.032519996	0.015206567	-0.050726186	0.041470423	0.07374902	0.011685331	0.018852666	-0.012823681	
-0.07502128	-0.012067978	0.07710362	-0.04475146	-0.022210749	0.049285006	-0.075795	-0.025853692	0.058276728	0.0070602437	
0.021193437	-0.05538597	-0.03848718	-0.0035107587	-0.07674947	0.018251836	0.027655205	0.053788014	0.025258753	0.012149335	
0.04610282	-0.05716253	0.025198428	0.06151066	-0.011163478	0.013629901	0.073711514	-0.04410694	-0.011313971	-0.023092557	
0.038245775	-0.05667975	-0.008821681	-0.05717433	-0.10791626	-0.024215423	-0.055870675	-0.011171377	-0.011050141	-0.014494165	
-0.034669317	0.0032296702	0.0012278236	0.097089715	-0.009702128	0.08525595	0.007327183	0.104019694	0.010348674	-0.0073288428	
-0.009473395	-0.044489536	0.10449313	0.007862683	-0.090249866	-0.06811247	-0.0484449	0.055606086	0.054641988	0.076423235	
-0.020394564	0.07413607	0.036776457	0.010363868	0.08679701	-0.00032499456	-0.05907399	-0.01976316	-0.02209734	0.03903192	
0.047096126	0.021013599	0.06650235	0.05511805	-0.039733246	-0.026859157	-0.010839711	-0.061127305	0.048341036	-0.03567701	
0.029819265	0.038314417	-0.10124947	0.048029386	0.008776767	-0.05181686	-0.0542648	0.009375363	-0.029825531	2.751466e-05	
-0.030256664	-0.025053157	-0.07270733	-0.04612144	-0.091161735	-0.010386901	0.023959164	-0.08089545	-0.040216748	-0.0055320556	
0.011401039	0.056516755	0.010435641	0.00043766588	0.044996057	-0.06142419	-0.015341298	-5.049132e-06	0.04983927	-0.103192925	
-0.08757507	0.014744052	0.0037969316	-0.050054222	0.050076924	-0.07754476	0.043291938	0.03596399	0.022817913	-0.033975452	
-0.10548625	0.041947763	-0.10935849	-0.00021792145	-0.0064054327	0.046239525	0.012893214	0.0037832395	-0.056318123	0.09849931	
-0.07215925	0.014531856	-0.10737872	0.07029929	-0.042980038	-0.006705858	0.0115066925	-0.009860732	0.04632277	0.017094076	
0.0067589213	0.045224648	-0.010636341	0.008404105	0.07800145	-0.04254506	-0.06673652	-0.011375114	-0.041351326	-0.05007647	
-0.025611775	0.02300294	-0.020058258	0.021543132	-0.021944454	0.0036054645	-0.03988924	-0.027155833	-0.08092475	-0.04530893	
-0.10612911	0.005528644	-0.050251257	-0.035156887	-0.07229479	0.030619534	-0.06496595	-0.0044873883	0.00015421782	0.04268115	
-0.024993887	-0.065484725	0.0060115424	-0.0063247792	-0.061527256	-0.0984851	0.029175267	-0.005438783	-0.029858066	0.017200636	
-0.09036356	-0.07222666	-0.0049469755	0.07838078	0.010950861	0.06190252	-0.0062566563	-0.011668029	-0.038983826	-0.039662693	
-0.028919376	-0.069983095	-0.055278722	0.0125051085	-0.0865891	-0.0061565624	0.003531672	0.041653756	0.060011305	0.0077535706	
-0.00068770006	0.06030936	-0.022896562	-0.030073844	-0.07640184	-0.0016150313	0.029168742	-0.060597174	-0.009291649	0.04411117	
0.04618124	-0.006663519	-0.019663235	-0.03936802	-0.0075168805	0.027851243	0.018945646	-0.00024184647	0.0066241575	-0.0067311176	
-0.11347625	0.02397816	0.0057997485	0.0011487977	0.018656984	-0.026829027	-0.03574455	0.07132726	-0.041940372	-0.006580966	
0.0067679137	-0.061201885	-0.08263373	-0.044398993	0.053644493	-0.04854652	-0.025652284	0.062800154	-0.02164337	0.04880465	
-0.015686717	-0.011434442	0.006244319	0.053199638	0.045929797	-0.020769374	-0.052824166	0.089301266	0.07154136	0.028563831	
0.020776981	-0.0071201287	-0.033207797	0.044142608	-0.032648835	0.06684539	-0.004560838	0.060609117	0.027319185	0.024026025	
-0.047540493	-0.09367812	0.029861607	-0.0571285	-0.046228204	0.027883107	0.022525365	-0.04091058	-0.020842966	0.034523007	
-0.0346264	-0.035868645	-0.034996357	0.0016267061	0.07443128	0.031166434	0.008267075	-0.05987782	0.011570982	-0.072490096	
0.03391588	0.100077115	-0.01785716	-0.059487537	-0.06111557	-0.108679496	-0.044881724	0.024941135	-0.0036995334	-0.11005844	
0.08728834	0.027201766	-0.044615224	-0.028401898	-0.064550176	0.045690168	-0.10697531	0.016242055	-0.011625683	0.013502464	
0.033514477	-0.01636771	-0.005969262	0.037205487	0.024939459	-0.026908994	-0.029782113	0.037035838	0.024392046	-0.060609926	
-0.028840331	-0.034019135	-0.019048927	0.04746414	0.016735734	-0.04101664	0.04216643	0.01480962	0.0991697	0.06813434	
-0.07555531	-0.00029625537	-0.0018312999	-0.030955007	0.099974796	0.05180831	0.060698703	-0.056932103	-1.8839577e-05	0.004876904	
-0.10975932	-0.045199037	-0.021724619	-0.028217142	-0.044638734	0.010020662	-0.030355796	0.03464543	0.03009794	0.007507666	
-0.08728902	0.021768421	0.041467983	0.064445786	0.050824024	0.04822958	0.042414647	0.009911194	0.014516229	-0.033691604	
0.00040316768	0.110906206	0.06552908	0.09197357	0.04802617	0.030287929	-0.015698127	0.017715178	-0.010563663	0.035892624	
-0.051631223	0.019510562	-0.032559015	-0.015930966	0.016896954	0.023126284	-0.020400513	0.05681908	0.07102581	-0.024116712	
0.0055187484	0.00085510116	0.013463369	0.019898972	-0.035876855	0.039293647	-0.027455717	-0.046806186	0.042866938	-0.011520803	
0.052474484	0.051049866	-0.014695765	0.008111749	-0.008371208	-0.035655525	0.07783707	-0.066966794	0.06554523	0.038996533	
0.018497448	0.03098919	-0.053647496	0.08188312	0.005599871	0.036336068	-0.006542908	-0.01824212	0.03934812	-0.076337375	
-0.03341759	-0.037870694	0.0051044067	-0.03682506	0.038458426	0.020693956	0.063622534	-0.02506125	-0.04942859	0.10708826	
-0.035188753	0.060267564	-0.027104272	0.07479981	0.040248536	0.019115748	-0.04113718	-0.011011881	-0.07816399	0.05234295	
0.03140035	-0.0032805684	0.03282166	-0.03180912	-0.08321057	-0.029163105	0.037217967	0.01751701	-0.057917975	0.0193241	
-0.04140888	-0.10666043	0.083912656	0.040067546	0.05334185	0.024900962	-0.007846106	0.11390803	-0.06029537	-0.050900478	
0.0948195	-0.09171896	-0.04130689	-0.06362319	-0.036649343	-0.05892997	-0.046380054	0.07244338	0.006455689	0.014852383	
0.061106425	0.0778658	0.03457022	0.03483397	-0.05326804	-0.02319337	-0.03173074	-0.038067754	-0.01749116	0.041609578	
0.06651469	-0.0008445875	0.0821672	0.032587167	0.015191234	0.04956768	-0.031418413	0.022769062	-0.033270713	-0.079854615	
-0.0024963585	0.031277493	0.016485361	-0.061363928	-0.021291332	0.05688807	-0.02593934	0.008444086	0.04592606	0.04751663	
-0.038416274	-0.05944574	0.020891385	0.022182703	0.0091217235	-0.0681026	-0.080386475	0.0102724135	-0.021931188	-0.054554224	
0.055143233	-0.026221331	-0.007966626	0.024714727	0.07771982	-0.06463865	0.04714743	-0.009558194	-0.04669428	0.08564001	
-0.063962	-0.006537273	-0.024971735	0.00023067018	0.054255124	-0.003458579	0.023186395	0.058360722	-0.07259202	-0.044801205	
-0.056833934	-0.06873189	-0.015201464	0.021099957	-0.07977674	-0.07882214	0.08953306	0.0543539	0.072044805	-0.007506133	
-0.06566382	-0.070619665	0.035081446	0.055292945	0.032550618	0.015349615	-0.10469112	0.09045227	0.023479033	-0.013480238	
-0.048907716	-0.04094263	-0.017376347	0.0610098	0.023458239	0.07671091	0.003118592	-0.065647356	-0.0078087063	-0.05875778	
-0.023868825	-0.00012690511	-0.042859785	0.0035615289	-0.08760139	-0.05458902	0.004872718	0.04928431	-0.040701784	0.09398538	
0.05528775	-0.106542125	-0.0007535049	0.063323036	-0.04602407	-0.06790845	0.0911559	0.098766685	0.058483247	-0.009471255	
0.043029178	-0.023757935	-0.0048078913	0.006221135	0.090227045	0.11183481	-0.084509596	0.042973757	-0.093752004	-0.073042355	
0.09940777	0.07013234	-0.008419058	0.06375128	0.038185667	-0.059584558	-0.016670601	-0.04000275	0.03882133	0.001841796	
-0.022307023	0.0035063562	-0.06583533	0.015684733	0.0054036058	0.04125401	-0.064196736	-0.010935028	-0.014319823	-0.050474953	
***0.1***
--------------------------------------------------
0.0009024707	-0.09072517	0.0059107626	0.046315566	-0.0012214618	0.006737086	-0.00031940296	-0.00826168	-0.0026933218	0.0587515	
-0.022876682	0.006843852	0.045574922	-0.07793668	-0.031092277	-0.007436676	0.01849827	0.013766553	0.079014786	0.053395696	
0.055161458	-0.07387604	-0.030072004	0.055852182	0.050535616	0.04208237	-0.06477568	-0.10909413	0.069481894	-0.062132537	
-0.030236429	0.04776835	-0.055124316	0.032351945	-0.073109545	-0.008928335	-0.048407376	-0.04369037	-0.06434536	-0.023704048	
-0.080023475	0.05188744	0.070146754	0.018516656	-0.041329157	0.019550262	0.02385157	-0.029473986	0.054761603	0.017324163	
0.0036620246	0.03297941	-0.10063511	-0.010177545	-0.027643649	0.041783657	-0.052986886	-0.018718282	-0.017579857	0.085226335	
-0.08362882	0.05493527	0.03565802	0.056755826	0.04671748	0.04318154	-0.03812198	0.104945	-0.031472433	0.06570989	
0.09618123	-0.018584177	0.021491665	0.018112862	-0.047193483	-0.081165925	-0.046791587	-0.04579082	0.029082222	0.01914837	
0.025105642	0.03561281	-0.0038341158	0.08121278	-0.01993954	-0.067577265	0.021740168	0.009159934	0.04159899	-0.00090744166	
-0.014275232	0.042454988	0.00662324	-0.01154738	0.05538532	-0.0499724	0.03812226	-0.0045396523	0.037482247	-0.04114738	
0.07520628	0.010117934	-0.019214183	-0.0020434414	-0.05655265	0.042305022	-0.04310673	0.07713576	-0.041442137	-0.035822526	
-0.050281476	-0.02343245	0.04892008	-0.022021597	-0.0690745	-0.06069391	0.030687204	0.05552446	-0.049806498	-0.03964346	
-0.02578148	-0.043888442	-0.01116927	0.10356553	0.027998077	0.0618737	-0.018094767	-0.031332377	-0.0049439725	-0.01641269	
0.02234495	0.043533947	0.03462582	0.023843948	-0.07237135	0.06740593	0.047724072	0.046111096	-0.08913438	-0.041796338	
0.038486972	0.0025547142	0.0024189723	-0.053971704	0.09699734	-0.093656525	0.06469976	-0.049530476	0.060582045	-0.05489588	
-0.040810723	-0.09664006	0.037733942	0.04236634	-0.020751704	-0.03142356	0.03373814	0.052408446	0.033667445	-0.10147974	
-0.075716846	0.04417969	-0.021370994	0.09043187	-0.047503315	-0.035079435	-0.03289308	0.0038742772	0.00903913	0.073583566	
-0.0038813832	0.021026246	-0.010882807	0.037906576	0.00038969464	-0.035162177	-0.07526409	0.0059105125	0.026092872	0.06525821	
-0.024861451	0.027123595	0.0062440448	-0.007071952	-0.049017243	-0.088512905	-0.06228542	0.026371397	-0.001537889	0.003683487	
-0.023990713	0.009960154	0.016981319	-0.077576704	0.062095217	-0.016007941	-0.0067361672	-0.014435578	-0.06524647	-0.0677612	
0.013296831	0.10081024	-0.008367928	-0.03745615	0.019726772	0.012136452	-0.03908587	0.035020802	0.06480513	-0.046084937	
0.046058632	-0.07081137	-0.05684595	0.00077024515	0.04862824	0.005800582	-0.0047955005	-0.060937718	-0.022196416	-0.010548849	
0.04112537	0.09178141	0.028027624	-0.047401007	-0.03130487	0.06746992	-0.022471996	-0.046617888	0.04770298	-0.026808372	
0.013912771	0.03942458	-0.013139416	-0.081586875	-0.04672928	0.07453396	-0.049713966	-0.091458976	0.038515292	-0.043584045	
0.006311517	-0.086476	0.0139785865	0.032215483	0.06098069	0.029960608	0.00040908938	-0.026050534	-0.10407922	-0.057225373	
-0.09838443	-0.008093047	0.085818626	-0.014126898	0.03498889	-0.00037755427	-0.021758892	0.012508509	-0.022473622	0.028158298	
0.040890943	-0.09766956	0.01484608	0.0029703302	0.031876262	0.049966633	-0.0009236528	0.03518676	-0.036501266	0.024829514	
0.057734106	0.044570025	0.011350722	0.020707455	0.036255173	-0.04324384	0.039528742	-0.09616916	-0.004199827	0.07880018	
-0.077776805	0.036629636	-0.04319673	-0.07074213	0.065535516	-0.055986423	-0.0032474673	0.04350816	-0.012485072	0.07620624	
