0.0009024706	-0.09072516	0.005910761	0.04631557	-0.0012214619	0.006737085	-0.00031940299	-0.00826168	-0.0026933216	0.058751505	
-0.022876682	0.0068438514	0.04557492	-0.07793667	-0.031092273	-0.007436676	0.018498268	0.013766554	0.07901479	0.0533957	
0.05516145	-0.07387604	-0.030071998	0.055852175	0.05053562	0.04208237	-0.06477568	-0.109094106	0.069481894	-0.062132545	
-0.030236425	0.04776834	-0.05512432	0.03235195	-0.07310955	-0.008928336	-0.048407365	-0.04369036	-0.06434536	-0.023704043	
-0.08002347	0.051887438	0.07014675	0.018516654	-0.041329153	0.019550264	0.023851564	-0.029473986	0.0547616	0.01732416	
0.0036620242	0.032979414	-0.1006351	-0.010177546	-0.027643643	0.041783653	-0.052986894	-0.01871828	-0.017579855	0.08522633	
-0.08362881	0.054935258	0.03565802	0.056755822	0.046717472	0.043181535	-0.03812198	0.10494498	-0.031472433	0.06570989	
0.09618122	-0.018584173	0.021491664	0.01811286	-0.04719349	-0.08116593	-0.046791587	-0.045790814	0.029082226	0.019148368	
0.025105638	0.03561281	-0.003834115	0.081212774	-0.019939538	-0.067577265	0.021740165	0.009159933	0.041598987	-0.0009074417	
-0.014275231	0.04245498	0.0066232397	-0.011547379	0.05538531	-0.04997239	0.038122255	-0.0045396523	0.037482247	-0.041147377	
0.07520628	0.010117933	-0.019214183	-0.0020434414	-0.056552656	0.042305015	-0.043106727	0.07713575	-0.041442133	-0.035822522	
-0.05028148	-0.02343245	0.048920076	-0.022021595	-0.0690745	-0.060693894	0.030687198	0.055524454	-0.049806494	-0.039643463	
-0.025780309	-0.043886892	-0.011165952	0.103568524	0.028001191	0.06187571	-0.01811428	-0.031330764	-0.0049421457	-0.016410809	
0.022348717	0.043538503	0.0346113	0.023852853	-0.07235877	0.06741118	0.047684476	0.04611589	-0.0891268	-0.041789673	
0.038488302	0.002556031	0.0023947349	-0.053969152	0.09700372	-0.09365559	0.064703256	-0.049529064	0.06058603	-0.054893047	
-0.04081067	-0.096640006	0.037732933	0.04236645	-0.020751433	-0.031423517	0.03373829	0.052408494	0.033667605	-0.10147962	
-0.07571684	0.04417969	-0.021370992	0.09043186	-0.047503304	-0.03507943	-0.032893084	0.003874278	0.009039131	0.07358356	
-0.003881383	0.021026243	-0.010882805	0.037906576	0.00038969456	-0.035162177	-0.07526409	0.0059105116	0.026092876	0.06525822	
-0.02486145	0.027123597	0.0062440448	-0.0070719514	-0.049017232	-0.088512905	-0.06228542	0.026371397	-0.0015378889	0.0036834874	
-0.023990711	0.009960152	0.016981319	-0.0775767	0.062095225	-0.016007943	-0.0067361677	-0.014435576	-0.06524648	-0.06776119	
0.013296832	0.100810215	-0.008367929	-0.037456147	0.019726768	0.012136451	-0.03908586	0.035020802	0.06480512	-0.04608494	
0.046058632	-0.07081136	-0.056845944	0.00077024504	0.04862825	0.0058005815	-0.0047955	-0.060937706	-0.022196412	-0.010548848	
0.041125372	0.091781415	0.02802762	-0.047401004	-0.031304866	0.06746991	-0.022471994	-0.04661788	0.047702976	-0.02680837	
0.013912768	0.03942458	-0.013139417	-0.08158687	-0.046729278	0.07453396	-0.049713966	-0.091458976	0.03851529	-0.043584038	
0.0063115167	-0.086476006	0.013978587	0.032215483	0.060980685	0.0299606	0.0004090894	-0.026050529	-0.104079224	-0.05722537	
-0.098384425	-0.008093045	0.085818626	-0.014126896	0.03498889	-0.0003775543	-0.021758894	0.012508508	-0.022473622	0.028158294	
0.040890936	-0.097669564	0.014846077	0.0029703302	0.03187626	0.049966626	-0.0009236529	0.035186756	-0.036501266	0.02482951	
0.05773411	0.04457002	0.011350722	0.02070745	0.036255173	-0.043243837	0.039528746	-0.09616916	-0.004199827	0.07880017	
-0.077776805	0.036629632	-0.043196723	-0.07074212	0.06553551	-0.055986423	-0.0032474678	0.043508153	-0.012485073	0.07620623	
0.043284565	-0.014664742	-0.024723379	0.024207827	-0.07973844	-0.008225754	-0.09995991	0.07435305	0.081657596	-0.06837487	
-0.002416808	0.020760389	0.02079314	0.1135683	0.06559614	0.024418954	0.08559032	-0.095390186	-0.085329965	-0.0049838517	
-0.0065881535	0.01564231	0.068285465	0.06603436	-0.108343065	0.05244752	0.08387197	-0.08177442	-0.078602925	0.051863633	
-0.021449346	0.06833768	0.05956975	-0.009024386	0.062363587	-0.032472406	-0.011147735	0.0036660533	-0.035159513	-0.007767758	
-0.031091183	-0.01450856	-0.033937868	0.02280662	-0.019148055	-0.075911865	0.08201702	-0.0025323473	-0.0082216235	-0.021129081	
0.038264126	0.022763949	0.009830584	-0.02975476	-0.07141868	0.058046702	-0.04106219	-0.014028666	0.03913631	0.0041548857	
-0.0011959745	-0.0038682653	0.058566082	0.028362054	0.020544432	0.08690189	0.026646234	0.066739134	0.04857951	-0.060874276	
-0.03047114	0.029103534	-0.019753568	-0.048866797	-0.031408537	0.046279985	-0.11384105	-0.027194606	0.024258865	-0.024843823	
-0.03888041	-0.052644618	-0.08559816	0.072914034	-0.055720698	0.05960561	0.015653085	-0.035926677	-0.0023327568	0.06150014	
-0.051317144	-0.02886355	0.010125231	-0.01387743	0.0077280686	-0.047709513	-0.0060534272	0.010585267	0.017873956	-0.013458563	
0.003916145	0.048466206	0.07626444	-0.0014010253	-0.027877644	0.011299993	0.09588601	-0.0053878254	-0.10412083	0.048991293	
0.009723629	-0.058017865	0.013501893	-0.07624822	-0.019244248	-0.07392182	0.003703905	0.10036018	0.022425212	0.062079668	
0.01815429	0.00620192	0.10243888	0.036428433	-0.013671014	-0.06216115	0.008049656	-0.014286068	0.04773122	0.101037405	
0.067160994	-0.03659574	0.09618983	0.057094608	-0.084057204	-0.02552681	-0.09763859	0.00087887165	0.022231828	-0.046763208	
-0.037236664	-0.02388844	0.016863234	0.009992387	0.039828062	-0.00010383245	0.0698233	0.003233098	-0.04834414	-3.3331788e-05	
-0.07138437	0.01695092	0.038538154	0.0163061	0.0022147708	0.040244542	0.05287143	-0.014078019	-0.027302405	0.0012927699	
0.004678132	-0.113725394	0.050600216	0.06038889	0.0055532954	0.07500804	-0.03660425	0.10447537	0.08433335	-0.05584515	
0.04862094	0.038607653	-0.0027230224	0.012394585	-0.019491056	0.0011305065	-2.916915e-05	-0.033665694	-0.030755086	0.06565378	
0.087643445	0.010829623	-0.099799074	-0.03430483	-0.039466944	-0.06558317	-0.073607296	0.07527579	-0.07170772	0.033251185	
0.0074225366	0.025751071	0.05092008	0.057206377	-0.03205875	-0.08636877	0.03879574	0.06273856	0.016946817	-0.0010944278	
0.027538694	-0.077820644	-0.08835362	0.020071426	-0.033840474	0.060065035	-0.0531703	-0.017110202	0.0026753843	-0.040296655	
0.0985458	0.044719256	-0.06897121	0.061815675	0.017306505	0.053161025	0.08989448	0.010685493	-0.014491811	-0.016151624	
0.046504337	0.035017896	0.026283292	0.028570708	-0.0875746	-0.037518006	-0.011710736	0.013409909	-0.0072640968	-0.04948217	
0.0203258	-0.024322055	-0.053555973	-0.025097499	0.10409456	-0.0049199504	-0.039304577	-0.03463516	0.026035167	-0.013297806	
-0.009968711	0.011030354	-0.0031800505	0.02208865	-0.011755968	-0.0751277	-0.024983149	-0.08970282	-0.006371636	0.020571066	
0.03313781	0.075743325	-0.031677447	0.0136509985	-0.016965605	0.044191983	0.03814547	-0.10984836	0.032648563	-0.09095482	
-0.030123731	0.025728038	0.06674388	0.021714402	-0.036038134	-0.06143145	0.07064521	0.10346756	0.022168318	0.048269905	
0.01766707	-0.052723765	-0.023128115	-0.013189083	0.10077632	-0.045136627	0.040900227	-0.015228849	-0.0898443	0.009281734	
-0.026056707	0.03569654	-0.01561622	-0.05592996	-0.014163017	0.093291536	0.095869996	-0.021572528	0.094407514	-0.03372675	
0.074453965	0.048744954	-0.039587215	-0.06636419	-0.04437674	0.04398731	-0.07940034	0.016993618	-0.011869016	0.08088461	
0.021151887	0.006235727	0.020703197	-0.07721248	-0.019861994	0.03618182	-0.0612809	-0.0049594794	0.008622789	0.0024361624	
-0.04668392	-0.002828862	-0.009457392	-0.03630465	-0.016832879	0.048376117	-0.080544844	-0.022295738	-0.08412358	0.087953836	
0.01364895	0.07521044	0.07015766	0.046735417	0.052593775	-0.018490925	-0.066370554	-0.01000546	-0.009267877	0.02141972	
-0.031100843	-0.010516774	0.04871481	0.038563743	0.022681614	-0.04033096	-0.07703538	-0.016740577	-0.029286534	0.010168587	
0.048440386	-0.02466314	-0.07449143	0.023643509	-0.019263098	-0.029618382	0.077790774	-0.008326753	-0.0463282	0.08368322	
0.05747294	-0.055082314	-0.019344158	0.059279837	0.010842675	-0.05520019	0.04282668	0.09384543	0.024541207	0.031282373	
-0.006825375	0.036450185	-0.04846802	-0.060465038	0.06740194	0.079079695	0.05507305	-0.001333336	0.079905234	-0.06518753	
-0.045860626	0.0809505	0.08735759	0.0468744	-0.044628646	0.0200631	-0.0035929978	0.084252216	0.015910532	0.016802674	
-0.050221913	-0.04759741	-0.04973013	-0.022376077	-0.0032431034	0.06611012	0.037763953	-0.004381098	-0.044850096	-0.07434877	
0.015468306	-0.01819815	0.06845059	-0.034051463	0.050045803	0.019365717	0.089430645	0.008009428	0.03820886	-0.026835732	
0.04912429	-0.106500715	-0.03152679	0.067585215	-0.049810093	-0.034777056	0.02019092	0.0042449483	-0.05474885	-0.08020773	
0.015443083	-0.042983055	-0.05492145	-0.032440104	0.107499674	-0.06424456	0.062338028	-0.025167018	-0.018013136	-0.043162167	
-0.00030270594	0.008663026	-0.10438964	-0.031704336	0.035591707	-0.015184112	-0.010072884	0.041012224	0.0681398	0.082006276	
-0.11435658	0.059787117	0.07681848	0.051680084	-0.032527335	-0.000705267	0.07042149	0.07350888	0.010657787	-0.050263923	
0.073593676	-0.036981136	0.040839337	-0.029004531	0.075456776	-0.031617206	0.039946247	-0.03693753	0.005193608	-0.07941882	
-0.0349411	0.0105428565	-0.018197017	-0.086907044	-0.0063429824	-0.06493083	0.029690601	-0.05123721	-0.084051095	-0.04595467	
-0.0072155404	-0.0686488	-0.012649062	0.052004296	0.03833668	0.073712036	0.013373832	0.025718791	-0.023651868	0.05315925	
0.100768305	-0.062172398	-0.040929757	-0.014296956	0.031025482	-0.0083684055	0.09636539	0.03150605	0.0031634949	0.040750824	
0.007148074	0.05974989	-0.029726738	0.022533221	0.045142036	-0.06447994	-0.00889752	-0.048324272	-0.0023911013	-0.023797108	
0.045095112	0.016310906	0.0071450067	-0.021104066	0.033232354	-0.06372513	0.07941862	-0.05463585	0.015804578	0.0397235	
0.05595863	-0.08602007	0.018801125	-0.047090977	-0.00933861	-0.049417067	-0.08254518	-0.02356278	-0.08128907	0.05225378	
0.038513124	-0.09681523	0.07684957	0.030001877	0.017995972	0.051580273	0.0965805	-0.03671289	0.056379873	0.05988026	
0.045300856	-0.053916518	0.042065267	-0.0772126	0.025795445	-0.010415648	-0.018850187	0.003770753	0.09177387	-0.0039624246	
-0.014815947	-0.019381134	0.09072576	0.021777604	0.062443893	0.056522537	0.059247423	0.063278094	-0.024681235	0.04363139	
-0.002390395	-0.05679432	-0.05843862	-0.010542996	-0.023079246	0.023344321	-0.050887793	-0.0027485709	0.007987518	-0.029980196	
0.04030476	-0.06501869	-0.10449411	0.08348353	-0.004129061	-0.034982182	-0.0059894263	0.02579604	0.050940894	-0.0041658683	
-0.09779416	-0.06233062	-0.028087543	-0.0059213615	0.081123084	0.05091007	0.04220674	-0.032040946	-0.059531163	-0.053805027	
-0.018735787	0.07274395	-0.0073855636	0.07883695	0.021888368	0.028993651	0.0681718	-0.004207909	-0.02560293	-0.06671861	
-0.023032364	-0.010682719	0.050269023	-0.025111595	-0.015479706	0.023762703	-0.08512063	-0.02191845	0.0054851295	-0.002985562	
-0.006137394	-0.05833214	-0.0046251146	0.00919389	-0.030799707	0.059440013	0.074843235	-0.07705447	0.05094971	0.03371697	
-0.015677538	0.07036263	-0.03787581	0.018332094	0.07638668	0.042871572	0.041524168	-0.039198756	0.045510445	-0.110325366	
-0.04072616	-0.06443117	0.071838915	0.020405523	0.033486947	0.08339209	-0.0388936	-0.012561888	-0.042708386	-0.10626076	
-0.024084857	0.014330572	-0.008171203	-0.05283719	-0.057644486	-0.07436816	0.03273939	-0.032445405	0.03841404	-0.005943653	
-0.04152488	0.018502358	0.03690033	0.03924393	-0.0826094	0.007748769	0.04679124	0.009202213	0.04511394	0.03778162	
0.08061751	0.045947663	0.009237239	-0.08734957	0.028141765	-0.039095744	-0.061257083	0.016374616	0.007749703	-0.060107406	
-0.035592318	0.07157111	0.024352584	-0.0026817606	0.032283403	-0.034937106	0.0063745943	-0.03965942	-0.041085694	-0.10219164	
-0.040730365	0.03668971	0.12936385	-0.010691743	0.07257118	-0.041959584	0.06780602	-0.047098387	0.06782684	0.026184306	
-0.019070247	0.021467833	0.099834844	0.07868873	-0.06295511	-0.012590313	-0.04815893	-0.09732937	-0.113380946	-0.046437673	
0.010119795	-0.066541485	0.058961194	-0.081871465	0.029590508	-0.060172334	0.0633228	0.010901706	0.004589832	-0.0002052457	
-0.08076096	-0.08880861	0.05791552	0.03722559	0.06359548	0.024599299	0.14705218	0.020008452	0.03809934	-0.020769995	
0.08501988	0.0948524	0.018695353	-0.039993826	-0.06731418	0.014563171	0.036890984	-0.06906366	0.009694103	-0.06837383	
-0.052515745	0.0436315	-0.011408749	0.07721524	0.024617562	-0.0011014668	-0.03022985	0.08116768	0.036069933	-0.0019494486	
-0.05209504	-0.028808078	-0.007305068	-0.015424381	0.04684772	-0.016496869	0.119268075	0.078633755	0.038109288	-8.893976e-05	
-0.014732809	0.013438139	-0.06608213	-0.010233056	0.0512186	0.00294308	-0.02497316	-0.012144059	-0.019876309	-0.020325249	
-0.03625972	-0.05895704	-0.025715787	-0.08692169	-0.06801297	-0.0038654264	0.00085007393	-0.021376979	-0.0657588	-0.009683828	
-0.07579125	0.030654151	0.06043139	-0.051019248	0.013656998	0.08619503	-0.014814267	-0.050148144	0.037451454	0.04958481	
0.099444516	-0.049649775	-0.040402446	0.100479655	0.01156659	-0.030859761	0.07069418	-0.023852143	-0.114748105	-0.030777803	
0.082972236	0.013812906	-0.012725578	-0.04623631	-0.0110272635	-0.019347528	0.041392744	0.05592338	-0.09740497	0.04074521	
0.076046884	0.06154503	-0.022144469	-0.084467925	-0.0675152	-0.06950507	0.0043646763	0.07236409	0.022821961	0.023783708	
-0.056588456	0.10520757	0.055142727	-0.035698127	-0.050369605	0.092992485	-0.036243275	-0.030568512	0.008628503	-0.015548108	
-0.039240632	-0.047553543	0.022508973	-0.023693759	-0.030299796	-0.09031618	-0.012753213	0.03782791	-0.05909711	-0.0001623086	
0.09613397	0.02065585	0.023994764	0.0032347937	0.095310666	-0.051663898	0.037443053	0.0953206	-0.070565104	0.112890884	
-0.08979971	-0.05054365	0.0026272521	-0.04471314	-0.049740966	0.073051766	-0.05553241	-0.0415947	0.010002076	-0.08691061	
-0.08180695	0.017687375	-0.07722191	-0.026068414	-0.016462393	0.016701704	0.033124812	0.0880624	-0.07020207	-0.06946516	
-0.0568913	0.06876936	-0.07069489	-0.023647847	0.021873495	-0.018207973	-0.10295782	-0.08648952	-0.06181307	-0.011538429	
-0.06196129	0.015680023	0.013110447	0.046048388	0.054839503	-0.025585052	-0.04320076	0.03795203	-0.06531752	-0.006965803	
-0.06129131	0.029172575	0.06293869	0.10368405	0.03593931	0.035525925	0.010020542	0.023390092	-0.06705087	-0.026176903	
0.011614846	-0.093031436	0.022342637	0.05704397	0.10538177	-0.07119652	-0.07065624	0.0133330235	0.0072201286	-0.020120801	
-0.1075715	0.0713802	-0.040110067	-0.024696678	-0.023713777	-0.079524696	-0.020184534	0.08968926	-0.106409445	-0.04731176	
0.09459491	-0.011513137	0.10158605	0.09529083	0.016793005	2.4433957e-05	0.075208575	-0.077385955	0.011335733	-0.04259623	
-0.016529312	0.011252974	0.010016139	0.037692357	-0.033524755	-0.11482764	-0.06594398	0.016694704	0.06714223	0.027972637	
-0.010971623	-0.03661614	0.10975556	0.015251824	-0.047246013	-0.014871856	-0.015451192	-0.101930834	-0.05261884	-0.011761906	
0.06958421	-0.09757326	0.01176753	-0.051789835	0.075639084	-0.021910056	-0.0032777025	-0.044873036	0.0085673565	0.08424245	
-0.018491987	-0.033741478	-0.0327865	0.052848995	0.048541296	-0.08178122	-0.07205313	-0.06533335	0.022958063	0.01590378	
-0.008449436	0.101857185	0.054543	0.026070906	-0.04764825	0.054572955	0.002864553	-0.0065994365	-0.11699392	-0.024373213	
-0.112147205	0.105232306	0.06723418	-0.029210748	-0.058707908	0.024682878	-0.056000058	-0.10728375	-0.027315583	-0.0043177204	
0.052053723	-0.019077905	0.09314999	0.11664455	0.0481646	0.013279814	0.0018833627	-0.0029639823	-0.0052653733	-0.11110275	
0.021955013	0.037659306	0.03830382	0.016551588	-0.098600335	-0.036863573	0.09482007	-0.03674828	-0.061445136	-0.0057209814	
0.06277734	0.008528439	-0.012313943	-0.0646429	0.008223326	0.052555613	0.019114567	-0.090383984	0.0058162245	-0.03795153	
0.05407795	0.07362588	0.07261455	0.025013808	0.041633293	-0.04206454	0.07907375	0.0052060788	-0.06764145	-0.034143608	
0.0056699715	0.09143581	-0.057325147	-0.017977448	-0.060699932	0.08266468	0.099948615	-0.11450888	-0.026617998	0.032914393	
-0.02172998	0.08002534	0.07259113	0.022177551	0.030621523	0.001414532	0.0159521	-0.072215915	-0.08989007	-0.075650565	
0.072946645	0.015413783	-0.08121841	-0.105104394	0.016674943	-0.052237153	0.018249936	0.03208162	0.030564237	-0.043294273	
0.05617151	0.029354304	0.018455755	-0.0031512366	0.051873527	-0.038538706	-0.008641444	-0.063435234	-0.0045078546	0.049844448	
0.054106835	-0.0036723872	0.008206947	0.053931177	-0.01821086	0.06142683	0.06361567	-0.07156467	0.0038809893	-0.039270528	
0.08362555	-0.05660068	-0.012824535	-0.073584706	0.03790285	0.067430735	-0.0050574993	-0.06337361	-0.005859495	-0.030062733	
0.027815262	-0.009838581	-0.07549394	0.037610408	-0.018867759	0.05043901	-0.03333899	-0.041110016	-0.046458684	0.031867508	
0.009955232	-0.032299224	-0.034940965	0.06402157	-0.02315426	0.0056111803	0.01942648	-0.02079193	0.11121314	0.03485263	
-0.0009917617	-0.026494242	-0.030651448	0.035864986	0.0131217735	-0.029774802	-0.0064522973	0.11126158	0.06504191	0.008096222	
-0.019840881	-0.039274886	-0.03160836	-0.05674409	-0.063089915	-0.0036614947	0.029943611	-0.04096176	0.048018232	0.03152126	
0.017680576	0.041127197	0.04492253	0.07681375	0.006347842	0.028785782	0.09110215	-0.087917104	-0.07453883	0.009080269	
0.03994924	0.007054069	0.03352276	0.08332033	0.029400127	-0.048932888	0.055214766	-0.041987848	-0.10313625	0.042330444	
-0.02030821	0.014163647	-0.054088295	-0.033959437	0.059403557	0.0028870897	-0.104850344	0.056239683	0.024160564	-0.064226955	
0.08064544	-0.04826443	0.05532757	-0.029599944	0.047730636	0.041712176	0.016762098	0.0024169746	-0.015128481	-0.065253735	
-0.02632472	-0.018526487	0.04165562	0.030839575	0.059879366	0.04064919	0.0041116043	-0.031065578	0.035181787	0.007645134	
0.048573416	-0.007137207	0.009652964	-0.027714148	-0.021264331	0.037864797	-0.020624375	0.055803996	0.05624791	-0.037574314	
0.056309927	-0.00812489	0.05751171	-0.050229635	0.07620853	-0.006588042	-0.014163744	0.026819121	0.04857569	0.09531846	
-0.06335606	-0.048798647	-0.06234325	0.014065372	-0.053937692	0.00756677	-0.0063563767	-0.038395237	-0.024963995	0.062243152	
-0.0015620316	0.060165856	-0.005251856	0.028947981	-0.00963399	-0.03265932	-0.0063569825	0.039815333	0.0051869988	-0.05860739	
-0.06990967	-0.03685891	0.020219313	-0.00033807603	-0.048014175	-0.052530967	0.026716938	0.049797364	-0.036718033	0.00991825	
0.08411283	-0.017966187	0.0815613	0.023364287	-0.013933921	0.03659027	-0.0048055616	-0.009978037	-0.070351645	0.09600518	
-0.039320555	-0.016599458	0.14672972	0.08206455	-0.06931095	0.022310982	-0.06838435	-0.05407552	-0.088113196	0.09095237	
-0.02917421	-0.0171658	0.103209525	-0.009481124	-0.06561143	-0.03555163	-0.036888056	-0.091199204	-0.00029616003	-0.048515704	
0.02342407	-0.08073383	0.027208412	-0.02988134	-0.07815976	0.062527716	0.0029178301	-0.06894368	0.061964232	-0.09865416	
0.09185792	0.014095741	0.07025361	-0.029342381	-0.10117307	-0.065655455	0.012820715	-0.06636259	0.019841447	-0.069402084	
0.042497136	-0.044461004	0.13031724	0.04858198	-0.033201788	-0.08817712	0.082006745	0.035786342	0.05183217	-0.138067	
0.030992366	-0.023526276	0.07430601	-0.040661324	-0.03657769	0.0067067007	-0.058138	-0.08879155	0.032721233	-0.08117631	
0.009746099	0.021870049	0.06963452	0.065147586	-0.11428651	-0.048079833	-0.05023471	-0.124386914	0.0889246	-0.061546914	
0.09417804	0.06744638	0.020417623	0.0046836818	0.0066562695	0.03479986	0.02193694	-0.04847199	-0.045208246	-0.021282785	
-0.069925636	0.08066844	0.08561069	0.04881854	0.040392037	-0.09973282	-0.050034784	-0.088004954	-0.02292718	-0.061006963	
0.06164694	0.063531555	-0.0016592125	0.02278046	0.00040203021	0.088411026	-0.0071733887	-0.046426363	-0.052161206	-0.03478224	
-0.09761532	-0.037276033	-0.039423276	0.037858386	0.03901403	-0.0017102257	-0.06294431	-0.0030004815	-0.029295688	0.025441559	
0.041105736	0.016357794	-0.09202365	-0.010112491	-0.015456686	0.05127542	-0.0061373245	-0.051225115	-0.009734584	0.007324539	
0.043340515	0.021911234	0.07949956	-0.03643601	0.073714755	0.03728475	0.009891893	-0.042470794	0.075344585	0.076818824	
-0.03396984	0.001140999	-0.032389347	-0.024613963	-0.07186528	-0.02402022	-0.085156046	-0.061296243	0.020209817	-0.010645175	
-0.0052943476	0.026783168	-0.059670746	0.0048505613	-0.014795881	-0.08082755	0.0015616162	0.031893693	-0.023012206	0.023435477	
-0.0350334	-0.015960032	-0.041476987	-0.04505696	0.039155677	-0.0588037	-0.034292378	-0.06575875	0.012186679	-0.026907563	
0.025799206	0.04603983	-0.0015031518	-0.07795375	-0.034430735	0.06948841	-0.023853488	-0.040923584	0.041370746	0.010802152	
-0.017887123	-0.05091514	0.05560047	-0.04872906	0.048545316	-0.047285575	-0.003466038	-0.044880398	-0.044788413	-0.09419835	
0.03439482	0.009571241	0.032144982	0.100630865	0.0109001575	-0.022520954	0.03099819	-0.05287989	0.076425456	0.03455042	
-0.015449986	-0.00950111	0.03927066	0.015354349	-0.028966958	0.08393645	-0.011435277	0.07922032	-0.109327994	0.018472457	
-0.014162269	0.0076326327	0.012939204	0.0964391	0.062255092	0.054764908	-0.017277658	0.020077601	-0.06100499	0.006139305	
-0.028581813	0.01599864	-0.07800468	0.055835318	-0.0651536	-0.05756174	-0.0027463473	0.022134922	-0.03184492	-0.03557424	
-0.10153787	-0.063766144	-0.029251361	-0.04908477	-0.008896882	0.016324235	-0.053454287	0.041467894	-0.024623478	-0.011018481	
-0.058921773	-0.025941001	-0.047387928	-0.036899805	0.01929792	0.05467718	0.009736761	0.05158859	0.073975734	-0.0010608237	
-0.03295478	-0.09071564	0.04181076	0.026809253	0.06389619	-0.069437504	0.033933867	-0.022491867	-0.025430437	0.057182226	
-0.004441969	-0.09450992	-0.07641531	-0.027642056	0.019211253	-0.101580605	-0.02812025	-0.082256064	0.0029524472	0.04763929	
-0.028217418	0.022877704	-0.07386935	0.061196778	0.10096506	-0.065502584	0.02895136	-0.018874973	0.013390048	0.014752122	
-0.051239084	-0.053969506	0.079836205	-0.0072834655	0.0040216595	0.08939416	-0.01202357	-0.0051889177	0.026662309	-0.055159852	
0.080296874	-0.002306556	0.0013459678	-0.015876496	-0.014141944	-0.019586066	0.090569474	-0.060372084	0.055594947	-0.012434796	
-0.014952988	0.07298955	0.038451046	0.1326338	-0.036790777	0.0057504503	-0.012676	-0.0012515147	0.10294143	-0.041962367	
-0.013029588	0.00921203	0.086582765	-0.008696154	-0.04806194	0.068876654	-0.06331816	-0.069683164	-0.00033374326	-0.06948764	
-0.0019377295	-0.0003586059	0.07303547	0.14196074	-0.004317301	0.029144006	0.025720526	-0.090649106	0.01833908	0.079540655	
0.016703848	-0.0040982626	-0.041376047	0.13601948	-0.08274345	-0.036362562	0.018611785	-0.06749182	-0.01976509	-0.051716954	
0.018334255	0.01741877	0.019969989	0.100192204	-0.06591577	-0.010474713	0.0009670473	-0.097973995	0.07535053	0.08684219	
0.041018803	-0.014132761	-0.06112529	0.023818133	-0.085591145	0.058550347	0.014817054	-0.157546	0.044396188	0.007166266	
0.027972255	0.07330024	-0.06626263	-0.07513319	-0.008670381	-0.05428424	-0.061914865	-0.046120264	0.048534587	0.021824347	
-0.05676459	0.049556147	-0.062195778	-0.012246712	0.012360505	-0.003134169	-0.08311195	-0.015996207	0.11601335	-0.07482566	
0.06325345	0.025536107	-0.07972187	-0.028949557	-0.038339138	0.015314575	-0.013491754	-0.046085715	0.08764338	-0.01971381	
-0.016196059	-0.034650795	0.0950965	-0.05113448	-0.06098955	0.04463069	-0.042449486	0.046858612	-0.04065679	0.0128604155	
0.09322998	-0.015187093	-0.030126018	-0.10671972	-0.054227665	0.074970506	-0.050809976	-0.07202494	-0.041724972	0.020352146	
-0.030896362	-0.04134824	0.009463436	0.00028067222	0.11986684	0.0903676	0.012472835	0.022565223	-0.025700636	-0.018054402	
0.056662556	-0.0013915271	0.004341537	-0.003145611	-0.018874863	0.03467862	0.01446161	-0.031062735	0.025660079	0.031605415	
-0.0849803	-0.06384856	-0.003933658	0.09420639	-0.063367136	0.009165817	0.08976122	-0.11466233	-0.059125528	0.0066194627	
-0.05633923	0.036693238	0.057409387	0.002694196	-0.044980176	0.04201449	0.012598568	0.07276527	-0.039645582	0.07626468	
0.05600514	0.021402253	-0.08539975	-0.04693587	0.11323321	0.026093647	0.03430024	0.016271995	0.090853065	-0.014167659	
-0.06478088	-0.026761869	-0.055896364	-0.06567917	-0.10529388	0.058065604	-0.010062998	0.050399046	-0.03032029	0.026689108	
0.023803262	0.002231254	0.060695056	0.05681637	-0.04648957	0.034481827	0.011313118	0.025958695	0.061191723	0.023052793	
-0.004872456	-0.08964011	0.035878215	-0.08378112	0.0011732964	-0.010175082	0.03590618	-0.04372128	0.017950673	-0.08158048	
0.01581158	0.023631833	-0.108129695	0.034787454	0.058278907	-0.014159954	0.09127284	-0.05050001	0.043985378	0.068928175	
0.061325613	0.053796794	0.0069540846	0.08772281	-0.033586398	0.023092233	-0.06776867	-0.032388248	0.06916515	0.0269728	
0.009235101	0.07442353	-0.044558734	0.060955957	-0.07271014	0.004403899	-0.058191437	-0.05676187	-0.031336866	0.025221508	
-0.0073112035	0.04981453	-0.05505329	0.11652925	-0.08999198	-0.039308984	-0.043105878	0.03460161	0.072152816	-0.041172385	
-0.059106033	0.011906717	0.044703033	0.07622669	0.024492158	0.009960286	0.05807111	-0.03932588	-0.0056877565	-0.0128217	
0.07578959	0.0063003497	0.036071926	0.04568261	0.03524244	0.07440132	0.08766064	0.089058235	-0.01909314	-0.032357585	
0.05366873	-0.10299493	0.10622376	0.06441796	-0.025632368	-0.09433303	-0.016343465	0.11357851	-0.05459301	-0.08215879	
-0.019575218	-0.015478763	0.0045621144	0.013575463	-0.019871762	-0.06546563	0.014095678	0.019224081	-0.05624601	-0.044206653	
0.021484992	-0.062155996	-0.050890144	0.068836115	-0.05286688	0.007218684	0.01331715	-0.024745451	0.08638177	-0.022010045	
0.03159925	-0.05703117	-0.008781931	-0.055391937	-0.0060261614	0.054930456	-0.061390072	0.111886404	-0.009377127	0.012665441	
0.023056189	-0.09993039	0.05812862	0.007966394	-0.13063958	0.051148552	0.007617831	0.06717615	0.06551589	0.05731623	
-0.05412104	0.0727819	-0.018730052	-0.037094377	-0.10032053	-0.06525422	0.050131842	-0.0049340287	-0.047277596	-0.04149044	
0.005558419	-0.018443342	-0.055221174	-0.02157064	-0.043893177	0.0027710963	0.032590125	-0.06793398	-0.026368432	-0.023019949	
0.008736416	0.10552484	-0.033818237	-0.09330824	-0.11188916	0.0048298836	0.019379817	0.011076975	0.04936124	0.014425314	
0.07906583	0.081794105	0.080931835	0.05674718	0.024759185	0.09039962	-0.029537356	0.045798056	0.0021590956	0.054216526	
0.02396939	0.0685387	0.00079706986	0.07571905	0.007800811	-0.07967969	-0.01470854	-0.08443176	0.045719624	0.0041033733	
0.05326959	-0.030983318	0.06502604	-0.042157758	0.04910141	0.09135155	-0.11962666	-0.029622255	-0.028028421	0.080454096	
0.051466417	-0.049089998	0.03517334	0.014307571	0.05238863	0.08940354	-0.077926956	-0.008213084	0.010470939	-0.009780195	
0.065521605	-0.062014442	0.07519787	-0.022023698	0.017078605	-0.06161929	-0.09693547	0.049646318	0.047273144	-0.016482819	
0.080331035	0.05467602	-0.0027227192	0.030928975	0.08950302	0.118896	-0.044105243	0.03867322	0.04613659	0.0001656478	
-0.005875844	-0.029907953	-0.039934266	0.009430824	-0.019789657	-0.029602762	-0.0025421437	0.02051151	0.044252377	-0.047801152	
0.02195161	0.02887033	-0.04192521	-0.03918808	0.105943814	-0.0021508404	-0.07947453	0.051004354	0.037362643	-0.038589757	
0.0044113435	-0.072936475	0.027213905	0.008858212	0.10519888	0.07752443	0.018372625	-0.049070716	0.07232019	0.039059214	
0.06788181	0.060720168	0.038508296	0.0020802848	-0.105997786	0.05903902	0.030860797	-0.063875556	0.017139377	0.026265241	
-0.060782652	-0.03755336	0.043769985	-0.035494726	-0.1098265	0.00919015	-0.0712731	-0.04797824	-0.06517118	-0.047112152	
0.059797492	-0.036101677	0.04561616	0.09898556	0.049635515	-0.035932127	-0.006261364	0.07051944	0.110422835	-0.023026245	
-0.051720083	-0.00794995	-0.045336973	-0.0076327077	-0.06283899	0.024785392	-0.018349797	-0.039305307	0.008045505	0.08686582	
-0.068977065	0.040024973	-0.053262096	0.006505885	-0.090804026	-0.02476687	0.03253454	-0.03463502	0.044543426	0.050136272	
0.011562726	-0.085459	0.07439563	-0.010969717	0.032316312	-0.05798652	0.00021177721	-0.084272295	-0.08075488	-0.0436635	
-0.10253525	0.06342618	0.020690858	0.0069632763	0.053133868	0.0141068	-0.039310496	0.04633387	0.110885374	-0.04282903	
-0.0440438	0.014696377	0.08720109	0.01792089	0.051057722	-0.041318044	0.08412524	-0.0028930602	0.003416158	-0.092380434	
-0.087676525	-0.06250142	0.07094566	-0.029548518	-0.0804361	-0.030903215	0.018148499	0.031043278	0.06860491	0.017584395	
0.08223044	0.030072544	0.034146607	-0.015524687	-0.03814726	-0.048820585	0.04348206	0.12449283	-0.009053054	0.05349393	
0.040594205	-0.046480175	-0.0071622645	0.08177278	0.057055645	0.036732785	0.018515738	0.113139994	-0.02955929	0.0034998527	
-0.092358135	-0.03627921	-0.050473355	-0.03713111	0.033173427	0.052545	-0.036201887	0.00014948947	-0.03796189	-0.034725416	
0.011246137	-0.061779268	0.028043522	-0.049949657	-0.012289152	-0.10470542	0.018694242	-0.0037323898	0.07259315	-0.007966619	
0.0037872277	0.010856804	0.036275666	0.037517674	0.033359967	0.03173202	-0.03620487	0.04196568	-0.06648224	-0.041161854	
0.0331985	-0.04521479	0.029206084	0.004552703	0.026972776	-0.059578244	0.042643405	0.059562378	-0.0391062	0.117029935	
0.10116804	-0.14267686	-0.012022781	-0.030310897	-0.021978283	0.025067786	-0.05514715	0.09483298	-0.048000198	0.027058134	
0.0016299206	-0.12524338	-0.078817114	0.022537557	-0.15130648	0.028366512	0.08890775	0.07729795	-0.03783844	0.17468289	
0.05657643	0.056339405	-0.08480536	-0.01683452	-0.017566103	-0.017957557	0.054872025	0.06961364	0.0801032	-0.012307024	
0.030612988	0.0009690675	-0.027543731	-0.045561586	-0.11874967	0.043890726	-0.05592166	0.076559685	-0.07291877	0.027891697	
0.014697265	0.018252326	-0.029177886	0.035853714	-0.03722763	-0.056056026	-0.1355447	0.08896787	0.030325351	-0.05721558	
-0.03890033	0.03358886	0.06504682	0.058212742	0.011355492	0.023100343	-0.061242368	0.026482891	-0.0379378	0.127705	
-0.018650722	-0.049908947	0.0361149	-0.0150591	-0.013299197	-0.0038752635	-0.05215983	0.12983455	0.008018998	0.01254976	
0.06764124	0.00046871701	0.036805563	0.057209823	0.035431784	-0.0047519947	-0.080270365	0.047600422	0.040161196	-0.03700596	
0.14192466	0.013326985	-0.0042502596	-0.004330855	0.0014711834	-0.04000124	-0.053690586	0.034349307	0.0060604415	-0.042955935	
0.0068270746	0.0123389885	0.044161476	0.054955967	0.0040381653	0.043620404	-0.08602933	-0.103153005	-0.090336524	-0.08112031	
-0.025351647	-0.035129625	0.044884488	0.018453863	0.08659454	-0.042938188	0.03716969	-0.037535217	-0.007855775	-0.03644743	
-0.00014364051	0.09243495	-0.038367797	-0.032028496	-0.053750277	0.0066915546	0.03496272	0.042256553	0.043045495	0.040064145	
-0.041418623	0.008233039	-0.104174376	-0.06445078	0.009743389	0.08563238	-0.017260067	0.0023519269	-0.037083372	-0.085206084	
0.071107335	0.018213829	-0.034042772	-0.072072476	0.033159766	0.08412486	-0.08201935	0.06400139	0.046700634	-0.033264115	
0.07852242	0.036317017	-0.029502941	-0.0232157	0.02563898	0.0022878342	0.009505716	-0.04680127	0.049928185	0.005916465	
-0.08553304	0.04418383	0.014667117	-0.102165684	0.030136466	0.023874607	0.034649502	0.032879222	-0.01695246	0.06201445	
0.022929596	0.061847888	-0.038212445	-0.06559998	-0.070400625	-0.044763327	0.06318076	-0.099676915	0.013200074	-0.04080804	
-0.021148967	0.074300885	0.037150804	-0.035659697	0.043870475	-0.0018192527	0.007355765	-0.041937046	-0.013593701	0.025907649	
0.02184465	-0.018767629	-0.02158161	0.02582717	-0.07080778	-0.034596827	0.03501864	0.06207824	-0.001226688	-0.010830296	
-0.100718886	0.06652426	-0.06003958	-0.010291677	-0.080823	0.08867966	-0.031462044	0.03244767	-0.04676313	0.042720415	
-0.0188929	0.014647991	-0.027252022	0.00020009802	-0.04293879	-0.04378142	0.0025209393	0.080004565	0.05915438	-0.022509445	
-0.0064566284	-0.039137237	0.013145218	0.06754794	-0.09066161	-0.018383265	0.067126095	0.0697259	0.008264556	-0.047912873	
-0.017191393	-0.047156807	-0.08983972	-0.048274424	-0.017434023	-0.048181776	-0.021676922	0.03396998	0.09791958	-0.03162292	
-0.03178459	0.056651574	0.059609804	-0.059196226	0.02620412	-0.009836805	-0.04874546	0.095240556	0.015028005	-0.027786579	
0.041387968	0.016592255	0.03301506	0.066528715	-0.00027844662	0.059723236	-0.03584073	0.063660674	0.016359761	-0.018675575	
0.06769913	0.016683474	-0.020390926	-0.03368244	-0.07537061	0.007094507	-0.0059813424	0.09662327	0.013361782	-0.01707716	
-0.04717521	-0.041396674	-0.0015904773	-0.11483264	-0.08652855	0.11186993	0.048465583	0.06946211	0.08452399	0.0037109705	
-0.03442851	-0.10829207	-0.10706148	-0.014225441	0.010508993	0.027806468	-0.03404756	0.061205015	-0.03933661	-0.005148783	
0.109633684	0.029995283	-0.02983786	-0.075701244	0.050992224	0.12308582	-0.03440525	0.05935976	0.082870446	0.03920428	
-0.029532084	0.059658453	-0.049296882	-0.05177807	-0.09758907	0.03474654	0.041367225	0.05306774	-0.029395688	0.104933575	
0.061311293	0.031296566	-0.04902106	-0.05062017	-0.11538567	0.06521507	0.07393979	0.15566269	-0.007355027	-0.040583786	
0.104809046	0.059022095	0.03402957	-0.07997091	-0.1248612	-0.022624362	-0.046721105	0.18172753	-0.025802081	0.020173773	
0.037365273	0.10148191	-0.030410957	0.063387804	-0.05117526	-0.0066764816	-0.10644284	0.1289504	-0.13538332	-0.0027794018	
0.04802517	-0.0109574115	-0.0660982	-0.031150645	-0.008749689	-0.073428996	-0.027610175	0.12987292	0.023047565	0.13824457	
0.062482297	-0.037717618	0.0872349	-0.03090564	-0.0006588595	-0.025097815	-0.1806995	0.050570473	-0.042776655	-0.048113476	
-0.04112292	-0.094269745	-0.041984025	0.030476082	-0.015786879	0.07344977	0.01144998	0.09793722	0.055533063	-0.026024878	
-0.011639621	0.05013958	-0.059697222	-0.060747698	-0.05855954	-0.040520724	-0.022410225	0.034195714	0.07902204	-0.024090558	
0.0036520313	-0.07157573	-0.027998256	-0.077707	0.06378045	-0.043648966	0.005430384	-0.014337721	-0.0010740069	0.029161312	
-0.016517734	-0.08709687	-0.018460631	-0.010157894	0.06896583	0.022748271	-0.03399947	0.019473096	-0.017336134	0.06722631	
0.022870654	0.040688265	-0.0058861156	-0.08454358	0.023669971	0.009782263	-0.044662237	0.014730211	0.0095844595	-0.06705751	
0.047767747	0.025604373	-0.021241939	-0.038025107	-0.021739883	0.059417333	-0.02361699	-0.09791852	-0.0246626	-0.04469769	
0.0060723596	0.07460582	0.008967313	-0.015673297	-0.034753125	-0.01736836	0.010795499	-0.04162888	0.063012026	-0.017783606	
0.027759396	-0.033435766	0.031539686	-0.0027647633	-0.011555128	-0.039258435	-0.013363215	-0.07435542	0.044655975	0.073038325	
0.013949659	0.0033828856	-0.05685264	-0.032070294	-0.021320842	0.08477891	0.023092607	-0.014372086	-0.062816575	-0.063776486	
-0.0009202438	0.0073524946	0.08962739	0.026481178	-0.023036895	0.056447864	0.060377136	0.0047198213	-0.025225503	-0.046757974	
-0.06114044	-0.008576556	-0.015954362	-0.06305986	0.056262657	-0.06657684	-0.0009119589	0.02735091	0.040429775	0.011538638	
-0.012334965	-0.09713728	-0.015741676	-0.072172284	0.015421162	0.112921886	0.018699773	-0.034185734	0.0034807536	-0.03687343	
-0.111647345	0.013405908	0.030140825	-0.05011436	-0.0009321623	-0.005451244	-0.058218345	0.08207501	-0.0272791	0.05861374	
-0.015480359	-0.017557714	0.07125861	0.049989644	0.06948314	-0.059829988	-0.06790256	0.031161422	-0.041218985	-0.015287816	
-0.09381834	0.04886216	0.02344261	-0.016762007	-0.003198748	0.056014486	0.057982404	0.07222743	0.104807876	0.008509313	
-0.009643765	0.00051117665	0.0004937387	0.011138826	0.07331532	-0.053896017	-0.0036748443	-0.00125798	-0.016723808	0.006269911	
0.04178785	-0.0524645	-0.013333555	-0.025342166	0.045448594	0.026339676	0.04801433	0.0044655576	0.0072396114	0.07208687	
0.015189902	0.03532878	-0.02662494	-0.012592724	-0.024096174	0.004078398	-0.042609964	-0.047111876	0.018741267	0.091787934	
0.047717564	0.02148991	0.030791204	-0.039838813	-0.007532761	0.07763014	0.030589776	0.054052345	-0.040659774	0.037926134	
0.0032832301	0.0041116	0.013618518	-0.12076125	0.056675	0.06894003	-0.08180002	0.034422074	0.01443439	0.05992981	
0.1354933	-0.064440034	-0.15229505	0.019815627	-0.062245276	-0.047268286	0.08999468	-0.021099253	0.108812414	0.014205965	
0.05854819	-0.04456952	-0.11346027	-0.02113638	0.06117146	0.078686364	0.09123792	0.032693997	0.0446623	-0.09867975	
-0.04488152	0.0002669109	0.04890433	0.060433216	-0.003299951	-0.010973771	0.12857796	-0.019079253	-0.012424384	-0.018933836	
0.013622114	0.04404291	-0.020492857	-0.06570901	-0.054962292	0.013376637	0.0773964	0.04773583	-0.012800017	0.061731804	
0.00370225	0.079672165	0.015660243	0.0039884327	0.01899365	0.02185519	-0.01972405	0.07628133	0.033471644	0.0210725	
0.006159322	0.07800264	0.05213021	0.044923153	-0.020756042	-0.010698463	-0.03982347	0.056945913	0.021342041	-0.050128132	
0.051090397	0.04358152	-0.017582217	0.09209029	0.0074055605	-0.111038305	0.021955306	0.027074052	0.008602183	-0.02896001	
-0.046285078	-0.04970234	0.040177803	0.049753375	0.073635794	-0.09416756	-0.0154054435	0.044464726	0.04636051	0.017361984	
0.012300361	0.06403665	0.08836929	0.08277295	-0.06072872	-0.14391792	0.0004622677	0.031127151	0.076457664	0.03259823	
-0.023790685	-0.013417492	0.094346456	-0.10151171	0.0037716147	-0.029386064	-0.08067327	0.010789811	-0.008570769	0.04048963	
0.04288382	0.0027449052	-0.00823514	-0.05240424	-0.03949658	0.029323086	-0.01730081	0.035182495	0.09375006	-0.04609419	
-0.0049682218	0.0102226585	-0.04248478	0.02015834	-0.043230325	-0.01858176	-0.0983836	0.024885219	0.07665404	0.017652918	
0.09225914	0.05015496	-0.07642712	0.012856482	0.041937154	0.06380817	-0.021194745	0.017727727	-0.04377711	-0.04099157	
0.03909231	-0.014630584	-0.09251739	0.036095887	-0.09532665	-0.00016496384	0.007735334	0.04135805	0.07900271	-0.00083090866	
-0.022194726	0.09005685	0.0025917382	-0.062912166	0.02725352	0.051084545	0.04374997	-0.010926207	0.013959606	0.110469036	
-0.019354705	0.08474012	-0.04201098	-0.038753882	0.0025817528	-0.027728269	0.017541805	0.09060677	0.085994504	0.010267089	
0.0067169718	0.037458878	-0.0070367604	0.033749197	0.032187037	-0.045953155	-0.068040654	-0.0065604057	0.00516866	-0.11226423	
0.019659834	-0.06048153	-0.050952617	0.028011879	0.07339654	0.050256517	-0.002788213	0.024978168	0.0481434	-0.07728202	
0.04655746	-0.0030062632	0.011250274	0.0358483	0.0359842	-0.04327623	0.042831127	0.0401032	-0.038167078	-0.026050197	
0.003720873	0.05449783	0.026559748	-0.067197345	0.020255057	0.038141258	-0.055867516	-0.08957401	0.0006089148	-0.04012005	
0.03353763	-0.018829437	0.004138825	0.0031183779	0.013446998	0.024586305	-0.023313258	0.01015223	-0.047014628	-0.049423456	
-0.09882154	0.056896783	-0.041940447	0.08601101	0.04077151	-0.022105109	-0.026552055	0.076591685	-0.0246598	-0.009701594	
0.0043629208	-0.07815141	0.006577071	0.081931174	-0.017492186	0.10094852	-0.060874134	0.0018894679	-0.015307671	-0.045354135	
-0.07586454	-0.016947	0.014843857	-0.06991516	0.11895823	0.001511163	0.033349615	-0.023341497	0.054709267	0.018655522	
-0.019504761	-0.03271697	0.04371619	0.0052445075	0.021391865	-0.08775245	0.005588882	-0.0030255115	-0.09901092	0.06469659	
0.073047005	-0.008208481	-0.086910665	-0.091468126	-0.055602595	0.036039907	0.030523077	0.12654577	0.095490985	-0.008422798	
0.026783857	-0.043534677	-0.09849166	-0.06910107	0.079982765	0.09814583	0.109725624	0.006744726	-0.04800163	0.06792737	
0.009162237	-0.053329196	-0.08771877	-0.033248246	0.041450813	0.010483127	0.026687862	0.011567794	0.059260014	0.09687362	
0.028082889	-0.025601007	-0.046963535	-0.14434245	-0.0008213758	0.064365216	-0.04704269	0.012448656	-0.04853215	0.11177815	
-0.041733153	-0.036635585	-0.14837627	-0.0030269916	-0.007369936	0.022712154	0.010609165	0.017222865	0.04738788	-0.05259343	
-0.028132698	0.031814195	0.034868486	-0.058744278	-0.033985	-0.02175484	-0.012140664	0.025618898	-0.00063315855	-0.13001639	
0.0014344738	0.17334612	-0.024786146	0.15270707	-0.0576047	-0.0734939	-0.07708446	0.104207054	-0.043199915	-0.05790703	
0.008321096	0.08455105	-0.046975344	0.08449308	-0.051032186	0.05064585	0.030049143	0.03706232	-0.08580665	-0.04435194	
-0.066578545	0.06533013	0.0439282	0.08539796	0.026869485	-0.13668276	-0.020628907	0.084006205	0.048139345	0.01332291	
-0.07928079	-0.055004295	0.08834188	0.09944683	-0.013417247	0.036606282	0.0073504243	0.11835928	0.0015388328	-0.052909665	
-0.027875023	-0.0349899	0.10471906	0.08246063	0.105409816	-0.047766566	-0.03259967	0.061075944	0.015864165	0.106942885	
-0.023181908	-0.01066662	0.040718485	-0.041593414	-0.016445305	-0.10260836	-0.033300474	0.042090945	-0.058713645	0.017028902	
0.051514525	-0.06791548	0.064132564	0.030597333	-0.013472238	-0.0691248	0.013551806	0.04671281	0.039677516	-0.04545437	
0.04907121	-0.014993952	-0.06925254	0.055784993	0.09306825	-0.1142181	-0.12557395	-0.02422864	-0.060444143	0.076612726	
0.039349675	-0.060239166	-0.01859655	0.0005547209	-0.067968294	0.049703747	-0.100043386	0.033593062	0.029181272	-0.055533074	
0.01991252	0.015770715	0.032055963	-0.043227997	0.0063775466	0.015544513	0.0561437	0.086035304	0.07314101	0.032760497	
0.024289778	0.0890013	-0.02454	0.066817835	0.07741574	-0.09289733	0.009234144	0.004824219	-0.071201906	-0.052755482	
0.0047879377	0.055413406	0.04394682	-0.037506856	0.03614714	-0.014086742	0.018095719	0.041516952	0.049553074	-0.045051143	
-0.01616465	0.027545303	0.019224035	-0.06689319	-0.09350965	-0.06593082	-0.070529856	0.005842944	0.031479143	0.039427996	
-0.03555354	-0.032767307	-0.019830873	-0.0038571232	-0.08950428	-0.012907822	-0.0060802647	-0.0498537	-0.03426057	-0.04816535	
0.022543782	-0.045201913	0.0045130104	0.108744085	-0.015986048	0.041279647	0.07619993	0.06817656	-0.020158028	-0.026109261	
0.00081168464	-0.009533306	-0.05669672	0.052194692	-0.015621096	0.01913801	0.07592837	0.0038424686	-0.014569718	0.082143635	
0.09111159	-0.009004895	0.058265492	-0.057692997	-0.0443601	-0.019715156	0.0007427173	-0.07998851	0.076049164	-0.029862478	
-0.0646672	0.07245674	0.044605177	0.025900459	0.004687053	-0.024245933	0.027286928	0.058292717	-0.018310277	-0.057533514	
-0.06986742	0.050911125	0.112216614	-0.062207516	-0.06556623	-0.10032178	0.064911895	0.05615568	0.031431016	-0.05940124	
0.0111695435	0.035409838	0.014077777	0.037957992	-0.08484751	0.026968868	0.059136856	-0.07068712	-0.01675731	0.04636569	
-0.0055346387	-0.016193656	-0.0042212647	-0.0053635617	-0.0027490384	-0.007899179	-0.035578493	0.05184571	0.017357472	0.006667168	
0.07792664	0.04374316	-0.1236102	-0.026686668	0.053341843	0.018850414	-0.07071761	-0.07518249	0.02476163	-0.041319873	
0.07335578	0.053793017	-0.08793639	-0.06496694	0.0506603	0.03920497	-0.026944626	0.013757215	-0.03112427	0.11137322	
0.09844243	-0.023734523	-0.0024295263	-0.08366868	-0.032009486	0.053108767	-0.015606679	0.02593846	0.017681543	0.015135905	
-0.005399481	-0.024703912	-0.04182491	-0.07486495	0.08759605	0.05841751	-0.003850326	-0.065607406	0.07054076	0.03711778	
0.078866415	0.035628237	-0.06401346	-0.051042706	0.055686884	0.04207242	0.032801475	0.005051459	0.05457241	-0.01852272	
-0.04520882	0.033194967	-0.06956103	0.10574055	0.022365676	0.0787189	-0.057966433	-0.044408124	0.07455525	0.04008581	
0.0083031915	0.052912414	0.018162435	0.17493357	-0.020360844	0.092831284	-0.024275789	-0.08850681	0.019704096	0.010560914	
-0.10582865	0.20038779	0.006801299	0.12697254	-0.102567986	0.017920837	-0.026897442	-0.052430805	-0.06954313	-0.08414505	
0.024723412	0.1961989	-0.042206045	0.010753557	-0.01725567	0.021770548	-0.036496975	-0.05552496	-0.04458354	0.04076987	
-0.1444351	0.10077944	-0.13764417	0.020128837	0.056387916	-0.018832784	0.0005135712	-0.0070030894	0.06367474	0.0067115594	
-0.07657631	-0.033345815	0.02349705	0.034223475	0.04584636	-0.022530103	-0.088975094	0.05274385	0.009424133	0.0030535806	
-0.071128294	-0.1030143	0.03359798	-0.03046465	0.025669819	-0.14016168	-0.029456137	0.056912825	-0.009226255	0.007253027	
0.09354033	-0.044713087	-0.0915167	-0.080993086	0.06765238	-0.073571466	0.028373428	0.01855824	0.017324958	0.026156332	
0.12559022	-0.09957664	0.018807795	-0.08247663	0.013603144	-0.042185698	-0.0065994984	-0.012421591	-0.0012779919	-0.053397257	
0.088350385	-0.05350953	0.015464611	-0.028858282	0.049796324	-0.11916736	-0.04240358	0.017239852	-0.0949015	-0.03145979	
0.051892962	-0.036313348	-0.026282959	-0.0642948	0.024677955	0.09267434	0.00905021	0.03952665	0.033501245	-0.030272046	
0.050108273	0.051412538	-0.0068687676	0.0055098794	-0.012750628	-0.006649815	0.07205248	0.061628927	0.013805744	0.024507808	
0.070738	-0.055680443	0.040659964	-0.0007191896	-0.06050413	0.094638124	0.054258455	0.035544883	-0.096322976	-0.029115234	
0.007872435	0.103531085	0.034210782	-0.019393388	-0.05907709	0.040659565	0.0005679131	0.08871594	-0.03899643	-0.0486543	
-0.041242	0.049293444	-0.0036622223	0.034503143	0.01875434	-0.02232073	-0.03647805	0.01708435	0.011107058	-0.054153882	
-0.015443436	0.07961206	0.05201589	0.026921457	-0.009288366	0.09376045	0.09848689	-0.098926485	0.0207473	0.033984955	
-0.07160558	0.017092431	-0.0066405497	-0.035305154	0.019021554	-0.050612446	0.019594405	0.09248081	-0.06057774	0.036297724	
-0.053231817	-0.007295357	0.1002311	0.025481038	-0.076273754	-0.03251113	0.07265027	-0.022798946	0.051769607	-0.028495684	
0.026507858	-0.02455554	-0.048783265	-0.014846614	-0.049256034	-0.040744014	0.016786328	-0.047440708	0.027744154	-0.028633803	
-0.038129173	0.055118885	0.029448295	-0.00604229	0.06080515	-0.012745019	-0.027004596	-0.02645906	0.042806484	-0.009682275	
-0.11308155	0.059679598	-0.0035942423	-0.10467475	-0.0019849513	0.0045266068	-0.033458207	-0.005817418	-0.013031724	0.02425951	
0.017786605	0.020171687	-0.06608486	0.038538005	0.021163864	-0.00518586	-0.04274389	0.04345011	0.029029736	0.02105362	
0.07137913	0.008400332	0.010544052	-0.063341156	-0.022890797	-0.0028458214	-0.019171152	-0.024818886	-0.040643636	-0.053003892	
0.054792885	-0.02333059	-0.11983858	-0.042554345	0.06544577	-0.032081835	0.007831795	0.046507023	0.049294215	0.09130807	
-0.0051240814	-0.04394985	-0.07863176	0.019680718	0.10910618	-0.054618254	-0.056401685	-0.018347409	-1.1004281e-05	-0.011130915	
0.1094172	-0.021538677	-0.028170602	0.020095695	0.05765537	-0.0050801956	0.01970719	-0.032871034	-0.05480972	0.064264655	
-0.05611177	-0.07333015	-0.080604	-0.027674047	0.049750734	0.063645	-0.017111775	0.01189141	-0.014383569	0.03273678	
0.033499368	0.006343773	-0.0877153	-0.054867674	0.09704879	0.012011599	0.08850818	-0.11288405	-0.0011751987	-0.10453115	
0.02799703	-0.11343043	-0.14824766	0.052938502	0.09364412	0.02820736	0.059510674	0.04863984	0.06769315	-0.09700649	
-0.1355108	0.14258198	0.0028403339	0.049001433	0.00029012025	0.06963214	-0.04539769	-0.050798513	0.058313195	-0.024284326	
-0.08406618	0.19723807	-0.01756181	0.044371	-0.015316936	0.1055073	-0.044130776	-0.037688654	-0.0006415747	-0.021204205	
-0.17014171	0.16518325	-0.00692188	0.005712605	0.011177142	0.043453757	-0.072751634	-0.02079629	0.026724037	0.018275773	
-0.03833534	-0.092599526	0.01912054	0.047380902	0.017720861	0.078198016	0.08363081	0.022563139	-0.060918737	-0.040737055	
-0.16322617	-0.123261444	0.027905421	0.07687049	0.017558698	-0.09115561	-0.029355798	0.039590627	0.06793276	0.064672664	
-0.025158059	-0.009838484	0.047850505	-0.0035433478	0.05291525	-0.06473682	-0.06266022	0.049023602	0.06073346	0.03797829	
0.0064101927	0.022509674	-0.01680891	-0.11514634	0.053590897	-0.023398645	-0.07407584	0.10603974	-0.02008184	-0.031359937	
0.0027413552	-0.021034662	0.023559019	-0.08896845	0.059856158	-0.011077125	-0.030127544	-0.022381794	0.07074855	-0.014857869	
0.015979622	-0.047592115	-0.04733583	-0.0028769665	-0.06723223	-0.05609885	-0.059295733	-0.054425776	-0.06188283	-0.040271822	
0.06807827	-0.03364549	0.015683383	0.03832173	-0.102756694	-0.07197871	0.050584905	0.037275653	-0.014343928	0.045422334	
0.0026568158	0.05133773	-0.059494533	-0.03788994	0.016938653	0.008338003	0.055712327	-0.005310899	-0.104803786	-0.11621081	
-0.017666845	-0.081495695	0.087619156	-0.02216344	-0.04637269	-0.09502707	-0.052112628	0.024107046	0.05874721	0.054390643	
0.013277397	-0.03273716	0.031829324	-0.024032746	0.043257765	-0.053598434	0.025292085	0.035174735	0.040660594	-0.03425149	
0.103273444	-0.03470586	0.03912282	0.04557244	-0.01655247	-0.052019745	0.045890097	-0.059217382	0.03950779	-0.06762815	
0.09262986	-0.0045835827	0.039880887	-0.018227736	-0.03543949	0.0049044015	-0.100130424	-0.06326072	-0.08672502	0.0068244534	
0.05458928	-0.050751	0.030225914	-0.0163013	-0.005552526	0.045145847	-0.012165635	-0.049821913	-0.058642134	-0.055224814	
-0.015983805	-0.031566218	0.027064769	0.1005407	0.0130470395	0.015360869	-0.031239737	0.017785568	-0.031117674	0.08181856	
0.08217514	0.07568876	-0.03199242	0.021394946	-0.061038684	-0.04419105	-0.056918547	-0.0037661884	0.06659505	-0.060461387	
-0.018581156	0.027376	-0.028793471	0.037655342	0.025178293	0.02237664	-0.06897459	0.051320586	-0.050482895	-0.03300376	
-0.024733879	0.029819876	-0.053861987	0.03384573	-0.0043433066	-0.081694834	0.051457725	-0.07409684	0.02013923	0.055185854	
0.02061607	0.045983892	0.0193381	0.0030584629	-0.022126295	0.078749076	0.025084203	0.10261469	-0.050159965	-0.06320153	
-0.04382953	-0.07940964	0.010790308	-0.003104318	0.0002086559	-0.10503216	0.0014923192	0.011488592	-0.061088987	-0.02262096	
0.075241596	0.003281355	-0.011855854	-0.079006724	0.04493219	0.04034109	0.04822094	-0.06372582	0.009377652	0.065014705	
0.16019827	-0.043560963	-0.06015289	-0.05376892	0.11731638	0.06294292	0.007824307	-0.091102794	-0.14952022	-0.0055335616	
0.00380991	-0.028173557	-0.03025823	-0.048023637	0.12699969	0.07479671	0.08269898	-0.0737316	-0.08292095	-0.012761979	
0.052210137	-0.038015366	-0.01152942	-0.0038145601	-0.018217124	-0.0056131086	-0.00034003315	-0.015646499	-0.06814521	0.012044432	
0.0598439	-0.061945792	0.0046039326	0.102701604	0.039774884	0.022786394	0.07356549	-0.074599326	0.01702724	0.012936169	
-0.063745536	0.013124693	-0.034510184	-0.034269158	-0.031809993	-0.049425587	-0.06334035	-0.13216233	0.023744965	0.029942065	
-0.11377426	0.13018376	0.02319008	-0.029837068	-0.06442801	0.026813272	-0.014223771	-0.11863502	0.03427031	-0.0290813	
-0.13457008	0.12873724	-0.016860396	0.01350347	-0.09163733	-0.012554186	-0.016587723	-0.06724608	0.06635349	0.1171513	
-0.14727935	0.08398841	0.0004531131	-0.05116148	0.06973714	-0.036379796	-0.038899876	-0.026321406	-0.015248912	0.046915404	
-0.08469553	0.058546744	-0.09766237	-0.06341448	0.14453973	-0.08339953	-0.024803031	0.0063897073	0.0059775226	0.048411716	
-0.11811231	-0.07716498	-0.057036825	0.070037745	0.036716312	-0.063459404	0.03321549	0.0383342	-0.08741639	0.10761867	
-0.036524348	-0.07595382	-0.02792221	-0.009332428	0.09633651	-0.02235863	-0.032863993	0.049894277	-0.0015422881	-0.040085167	
0.022127915	-0.06058699	0.054575834	0.041492376	0.04544632	-0.028226456	-0.009233221	0.06673421	-0.011338541	-0.0048378063	
0.018890435	-0.019360825	-0.029211707	-0.007503912	-0.015041688	0.009705052	0.03613059	-0.011736675	-0.06795145	-0.06160835	
0.075995214	-0.05348033	-0.024553858	-0.092560545	-0.009250477	-0.04992438	0.0064053484	-0.041031968	-0.12166941	-0.012138658	
-0.00022377503	-0.03476711	0.054840084	-0.067614794	0.050155215	-0.028860701	0.027243324	-0.02065764	-0.035620045	-0.009981061	
0.12796922	0.012071231	0.03402794	-0.006849201	-0.024758566	0.06176893	0.03092722	0.00928619	0.0024640833	-0.08756446	
0.0035149984	-0.041150577	-0.043833297	-0.038305856	-0.0016115538	0.013572485	0.06898923	-0.05982335	-0.014497493	-0.05408345	
-0.067338645	0.0704462	0.0010099444	-0.0260359	-0.09979951	-0.049032442	0.021673907	0.030205311	0.021385698	-0.0976209	
0.111452535	-0.03834677	-0.014103607	-0.049086448	0.09483287	-0.07197749	-0.012305828	0.038423743	-0.09938247	-0.03974058	
0.027508931	0.03326367	0.044260114	0.026710872	-0.0017372839	0.083232805	0.0675899	-0.011599032	0.024682203	0.010298311	
-0.0043095793	-0.040072963	-0.044183984	-0.0064810095	0.0035063813	-0.06658697	0.004628016	0.07513074	0.057908844	-0.05200361	
-0.065403104	-0.031603172	-0.02649848	0.07551537	-0.08267285	0.07628975	0.005555637	0.055330947	0.0019474224	0.027431823	
-0.04994468	-0.009780787	0.05100356	0.0007556	-0.01518523	-0.058502834	0.074681185	0.07671192	0.0405768	0.033080705	
-0.040401757	0.097567014	0.013185394	0.047187418	-0.02830857	0.04714559	0.09724679	0.04715756	0.015916537	0.041926693	
0.016243072	-0.0035957198	-0.05756071	-0.040990386	-0.10305667	0.04528795	-0.035511397	0.08556999	0.051529106	0.09133407	
0.089452066	0.010627263	-0.040492218	0.030665195	0.049398426	-0.02365125	0.016559958	-0.011799915	-0.019790104	-0.064673014	
-0.048703857	0.029120633	-0.06612288	-0.049087413	0.048757475	-0.025107337	0.036862105	-0.10183574	0.0012143832	0.049934965	
-0.011285923	-0.083102286	0.00091645535	-0.042870816	0.02446556	-0.011089951	-0.02760003	-0.049100984	-0.031350207	0.01398515	
0.029668517	-0.09082144	-0.044971053	-0.038439542	0.06873934	-0.016442178	0.028805329	-0.00953825	-0.10152456	0.08604042	
0.03999097	-0.0025870795	-0.077945106	-0.046745557	0.038242735	0.04746373	0.15089116	0.027235925	-0.003414025	0.06384534	
-0.025638727	-0.10027885	-0.039276067	-0.058711465	0.11386236	0.12244271	0.0051895683	-0.029006818	0.020193284	-0.022964561	
-0.047433566	-0.02439233	0.085760675	0.026779054	0.12586546	0.052717816	0.0039246655	-0.008839871	-0.02671597	0.147899	
-0.09088012	0.030862832	0.0066822874	-0.020759553	0.117793486	-0.057275627	0.0022673127	-0.16972251	0.09599648	0.022342177	
-0.113203324	0.119307876	-0.030650428	0.019804107	0.022371816	0.003984932	-0.041563418	-0.046959586	0.03959781	-0.08366671	
-0.07216113	0.08072156	-0.01840691	-0.044894524	0.04739104	-0.09697727	-0.012175113	-0.04513069	0.032713354	0.019008242	
-0.0623837	-0.05516005	0.00536325	-0.05263167	0.029568046	0.07102127	-0.004437194	-0.014994885	0.06290133	-0.0074705267	
-0.05420129	-0.041298736	-0.10400026	-0.03779094	0.03726969	-0.06373547	0.08476915	0.044720735	-0.047617335	0.08517322	
-0.060813725	-0.08007851	0.04939628	0.023860667	0.029376926	-0.048090342	-0.055223435	0.016945038	-0.03993002	0.041047543	
-0.10231066	-0.025703786	0.06273459	0.044040523	-0.035697136	-0.022809222	-0.021650614	-0.049617898	-0.033528637	-0.00095568056	
-0.0049181553	-0.085825525	-0.087588914	0.094111726	0.028682722	0.03717758	0.03287256	0.0032792888	-0.05735561	-0.039286032	
0.10975376	-0.08233006	-0.0464709	0.042215273	-0.081135646	-0.021049146	0.05497265	0.018409222	-0.0064227055	-0.060697753	
0.043979526	-0.00864212	-0.012975846	-0.017344484	-0.0075284415	-0.05838579	0.027873054	0.053802792	-0.03731011	-0.11230419	
0.07314453	-0.023645356	-0.03053093	-0.0045564845	-0.059583444	0.0057105566	0.017282354	-0.08076837	-0.028506804	-0.05020937	
0.05402985	0.036968093	-0.0841922	0.032181263	0.08278972	-0.05906394	-0.009419436	0.012139533	-0.11701983	-0.044429243	
0.011098256	-0.052202165	-0.09928918	0.014719116	-0.109157495	0.05569585	0.008863249	-0.01934811	-0.05182332	-0.05564423	
0.00788042	-0.032217328	-0.057820167	-0.032990336	-0.0027763096	-0.017319951	0.07199926	0.007910905	0.041334428	0.050018515	
0.028616974	-0.10545768	0.02321984	-0.06568414	0.035214726	-0.026526334	-0.03386465	0.08174735	0.024081962	0.023252359	
-0.055355895	0.033929814	-0.02136086	-0.036441356	0.0580405	0.067974776	0.061474387	0.026156368	0.059237495	0.026242148	
0.05676478	-0.076700784	0.005891799	-0.051272858	-0.10123563	0.011670534	0.03610231	0.042787965	-0.053272806	-0.032700587	
-0.026428603	-0.01359906	0.085297175	0.0540818	0.034418017	0.1013577	-0.0022824872	-0.00967935	-0.06229115	0.044785425	
-0.10918077	-0.03775997	0.080843024	-0.07355524	0.07530376	0.035340283	-0.08403733	0.07134805	-0.008918395	0.11356936	
0.0649595	-0.07775286	-0.02221185	-0.038493045	-0.070824414	0.020910712	0.10474406	0.03374468	-0.01759754	-0.021126688	
-0.021216445	0.06053059	0.046054725	-0.03584404	0.010825293	0.024108026	-0.0040418026	-0.040513176	0.012552543	-0.061654534	
-0.014005678	-0.011005867	-0.055846147	0.025515934	-0.032566972	0.027685288	0.043079387	-0.03367578	-0.009442576	-0.07518521	
0.028201785	-0.03892945	-0.009310394	-0.024232186	0.061288588	0.049563497	-0.06399887	-0.07269322	-0.07872653	0.038599856	
0.022405433	-0.046096038	-0.025836896	-0.011613421	0.017082006	-0.1253126	-0.03687311	-0.06245814	-0.05101399	0.077023536	
-0.036400817	-0.027202275	-0.017155634	-0.042477615	-0.024705894	0.035142925	0.1307979	-0.07395153	-0.02635422	-0.0017243889	
-0.03101352	0.016306672	-0.0024400165	-0.0623358	0.05226675	-0.087180756	0.041931257	-0.06709616	-0.011631645	0.015557108	
0.0028414177	0.041333064	-0.0388204	-0.046026755	0.05382074	-0.091166176	0.01533495	0.028029194	0.006815237	0.08202372	
-0.025786998	-0.015920203	-0.0004971232	-0.06788795	0.093097165	0.019094195	0.0012836639	-0.0162836	0.061501436	0.045493893	
-0.060522344	-0.01896026	0.045213696	-0.042286966	0.01853246	-0.025327943	0.06165521	-0.085292675	0.05468986	-0.05785544	
-0.17567663	0.038264815	-0.011331681	-0.11144419	0.12000796	-0.018822348	0.08294982	0.0005245612	0.06250714	-0.0348247	
-0.12144058	0.13297819	0.11955751	-0.061336208	0.030311069	-0.06665119	0.0038967803	-0.09149816	-0.040623292	-0.07855185	
-0.10040174	0.025560454	0.023455579	-0.001191374	0.08459222	-0.008535217	-0.06742779	-0.06190817	0.059791077	0.0096694445	
-0.0360831	-0.06931837	0.11882169	-0.017616495	0.04567618	0.07762136	-0.058995984	0.068796985	-0.005900578	-0.03656707	
0.0068211225	-0.08152589	0.09750842	0.008545594	0.091190405	-0.030855509	0.07133286	0.06134044	-0.047450177	-0.010483646	
0.013404384	-0.06681276	0.037257068	-0.015477987	0.052335676	0.02289362	-0.0009978527	0.0746953	-0.057463333	0.0015134664	
0.045780145	-0.0041312533	0.06578018	0.060325813	0.09245675	-0.019675817	0.10630155	-0.035348844	-0.02784899	-0.053160843	
0.07623225	-0.061554514	0.020947943	0.046905406	-0.029660013	0.06736955	0.07256541	-0.009989477	-0.05953931	-0.03164684	
0.020925377	-0.07109955	0.028625056	0.025789086	-0.1118412	-0.018848352	0.091313586	-0.014561574	0.013932059	-0.006998411	
0.02425523	-0.035044394	-0.033074856	-0.048079114	0.018395502	0.034244195	0.061667044	-0.0003308034	0.03696548	-0.04268565	
-0.041239675	0.06320202	0.018999455	-0.03306485	-0.01788581	-0.06730659	0.048971545	0.013444806	0.07100059	-5.3302254e-05	
-0.017886372	-0.013128728	0.045140233	0.04217023	-0.031543016	-0.06400435	0.049915846	-0.058536716	-0.026832618	0.025218524	
-0.050435167	-0.06838647	-0.017037435	-0.021134805	-0.066772394	0.09586259	0.014766566	-0.07143018	-0.017183425	-0.029693052	
0.025656216	0.014772944	0.023134299	-0.014584681	0.01857686	0.030682547	0.08799615	-0.0003317491	-0.040170535	0.007754156	
0.083489835	0.01533039	-0.0354861	0.015128684	-0.07058827	0.06076224	0.06535518	0.02343971	-0.07508967	0.0992804	
0.062349092	-0.013425781	-0.070837945	0.054692708	0.07715699	0.03336298	0.0025144692	0.0031121247	-0.028785393	0.06149856	
0.0050314814	0.070360914	0.031438828	-0.026257046	-0.004358074	0.1092594	0.0004498303	0.086873695	-0.05729503	-0.07223852	
-0.056343533	0.00954438	-0.0046687927	-0.025417946	-0.008476445	-0.005326388	-0.017220965	0.016616471	0.062092297	-0.055193573	
0.05271787	-0.066846855	-0.048031345	-0.041796576	0.028730353	0.10164105	0.10074682	-0.03629269	0.013970114	-0.060150348	
0.0033619497	-0.018267745	0.026631093	-0.08458258	0.032370947	-0.06854359	-0.06177612	-0.0029986673	-0.057122793	0.074693434	
0.01881089	-0.021067454	-0.0013185974	0.0064531406	0.04609118	-0.049438864	-0.043043297	-0.04595897	0.029025823	-0.02654337	
0.055911444	-0.008709896	0.0914132	0.060745858	0.045686472	0.015449607	0.044662237	0.015264066	0.07344443	0.035427105	
0.03742437	-0.07077915	-0.009932259	-0.051115107	0.048710633	0.018359857	-0.013379295	0.00210226	-0.016981704	-0.04155393	
0.016920019	-0.11848434	0.028946683	-0.032574013	-0.06246566	-0.039971787	0.056884028	-0.009361203	-0.06782051	-0.00035362394	
0.019425776	-0.08326997	-0.0354137	-0.007316561	0.046413038	-0.09224709	0.048739605	-0.052938655	-0.05611061	-0.03928926	
-0.029918669	-0.06408837	0.09600261	-0.075822204	0.0047758976	-0.02352351	0.13214058	-0.114198335	0.027269423	-0.011176374	
0.016912581	0.08410577	0.10149743	-0.16033721	-0.03917099	0.028690282	0.076478295	-0.04338921	0.043768704	-0.07150088	
-0.09508933	0.056448057	0.1313741	-0.08127937	0.046705846	-0.111853406	-0.005340081	-0.119617544	0.042289235	-0.07409484	
0.006808665	0.141934	0.09435427	-0.12492667	0.087198526	-0.014006382	0.0034911167	-0.083793595	-0.009677109	-0.023006305	
-0.023351457	0.117388226	0.09740436	-0.003589793	-0.008872411	-0.024690857	0.026846226	-0.0701854	0.064068384	-0.050161988	
-0.020396184	-0.048713434	0.014557237	0.024977691	-0.030960703	-0.009374622	-0.0025118098	0.06213658	-0.095066234	0.059352618	
-0.101136394	0.028252764	-0.037047543	-0.027587319	0.055416238	-0.046639707	-0.011493475	0.1533829	-0.09963862	0.047013666	
0.038724247	0.034718312	0.08071749	-0.026075402	0.039722525	0.092785574	0.03994555	0.078463264	-0.052640256	0.14227174	
-0.038289804	-0.14336795	0.08521807	0.0045640115	0.12023087	-0.025689801	0.114165224	-0.04545332	-0.0700683	0.019175595	
-0.035112	-0.057798263	-0.008792045	0.065591104	-0.059461314	0.017348262	-0.033189364	-0.06023666	-0.01407146	-0.062230926	
-0.007530345	-0.009709996	0.031277433	0.053333443	-0.01154513	0.02769242	-0.00019690674	-0.06804087	0.020731384	-0.043544285	
0.09657517	0.013250716	-0.036942456	0.028955389	0.038225424	0.06146448	-0.03130369	0.013854105	-0.021122746	-0.021361286	
0.04520169	-0.07725632	-0.02479678	0.036455836	-0.03099468	-0.032467782	0.07832081	-0.025136907	0.0033859375	-0.0594761	
0.088718206	0.01819646	-0.010045152	-0.007152948	-0.064414114	0.0002763901	-0.018510751	-0.014178349	0.08237791	0.056813847	
0.025470555	0.0047641178	0.051627085	-0.017168699	0.0018414478	-0.082161054	-0.10811851	-0.07319597	0.009854999	-0.048012078	
0.07923872	-0.07881095	0.030235704	-0.08793669	-0.05778693	-0.05921207	0.051802065	0.010601161	-0.033548735	-0.0050108973	
-0.09570775	0.03758023	0.096295506	0.081378244	0.04170406	-0.040546417	0.10405736	0.034288436	0.026930407	0.07839634	
-0.077227704	-0.10315317	-0.084381014	-0.007242213	-0.057584092	0.058441926	-0.014741729	0.025887838	-0.031781513	0.11307958	
-0.034575302	-0.014566667	-0.030285288	-0.056672	-0.025643935	-0.031248635	0.08545757	0.046106767	0.050415438	0.025250606	
0.032661192	-0.06178235	0.031980507	0.03254649	0.032960694	-0.059731547	0.027380077	-0.08605426	0.03550471	-0.012589433	
-0.036583602	0.014496186	0.05542409	-0.054978896	-0.03438058	0.059267487	-0.01752603	0.0840142	-0.039861713	-0.002513597	
0.020922465	-0.064290136	0.044730183	0.07521776	-0.009761784	0.042078096	0.100637846	0.05360819	-0.013054333	-0.07291622	
2.365706e-05	-0.077671	-0.04012895	0.061484437	-0.008700961	-0.03681493	-0.06515265	-0.009632939	-0.08790008	0.060348634	
-0.011994083	0.048262466	-0.059109736	-0.07446172	-0.053363077	0.0392031	0.08265234	-0.013485281	-0.06327685	-0.05016445	
0.06060015	-0.0073121465	0.110059865	-0.04209445	0.041187152	0.04827942	0.012849127	-0.015852885	-0.015041918	-0.058931258	
0.14124072	-0.022712337	0.004032335	-0.03877489	0.0071924333	-0.006500861	-0.007407533	-0.05302043	0.058421656	-0.047681767	
0.044130787	-0.0035198044	0.003667808	-0.12634146	-0.06254157	-0.036038157	0.069623426	0.008467032	0.014542742	-0.07160711	
-0.031683303	0.019192277	0.060129587	-0.11678765	-0.0037234428	-0.12903482	0.055334125	-0.033339016	-0.0159218	-0.048215084	
-0.0013871096	-0.028611658	-0.0386198	-0.0037294468	-0.08042625	-0.05618813	0.03084181	-0.11053594	0.04080222	0.016635047	
-0.048400223	-0.005341239	0.14241682	0.03542163	-0.0739667	-0.06534875	0.098310634	-0.013551881	0.12495762	-0.02896291	
-0.122317545	0.05846301	-0.062025342	-0.033557598	-0.08547905	-0.012392736	0.0028068295	0.018090798	0.06361287	0.025320629	
-0.040326096	0.0813321	0.06077847	-0.17517626	0.052420937	-0.08543597	0.023547389	0.0261969	-0.057531845	-0.047577787	
-0.13574965	0.05364778	0.06468682	-0.052670177	0.081818365	-0.08954102	0.04530478	0.06848343	0.037687976	-0.0012965963	
-0.07381856	0.07050169	-0.046439413	0.0020355086	0.0774213	0.014515599	-0.008640005	-0.02228538	-0.057868626	0.114562325	
-0.100006565	0.007173729	0.06677391	-0.1284494	-0.057546407	0.053371083	0.098241955	0.076048575	0.05461158	0.12866153	
0.040355954	0.0037573888	0.10118145	0.052385904	0.02387896	0.057973284	0.069446236	-0.08577173	0.049477637	-0.020691492	
0.054144774	-0.08080734	0.05562137	0.11625361	-0.04006678	0.037282858	0.15603262	0.036196563	0.050992515	0.044051	
0.085635245	-0.1283608	-0.041502282	0.058238212	0.022563314	0.07590864	0.08736936	0.06837603	0.007175763	-0.0010375506	
-0.05005312	0.02807011	0.009916696	-0.056448538	0.056935236	-0.056450557	0.048611864	0.01683126	-0.0021405239	-0.011003225	
-0.029827302	-0.076515354	0.044465743	0.042143177	-0.07528687	0.008108893	0.092843875	0.016378181	0.067822464	0.003007783	
0.10213723	-0.08693113	0.0681479	-0.07225904	-0.010583884	0.025338227	-0.0005128394	0.039013486	-0.06687549	0.03628299	
-0.013004146	-0.018233506	0.06424373	-0.016983032	0.00227565	-0.07086549	-0.094570085	0.004877382	-0.021633413	0.044711143	
0.040990714	-0.01920349	-0.026058985	0.030079128	0.009162756	-0.08776714	0.09930084	0.0028031697	-0.026523644	-0.024868108	
0.034565866	0.06365111	0.012035796	-0.01912854	-0.10956497	0.012005676	0.060436185	-0.032586515	-0.0020952253	-0.022111375	
-0.00482811	0.054438744	0.026114874	-0.003409918	-0.029123545	-0.033477902	0.03352095	-0.05165048	0.11066053	0.018566439	
0.037458304	0.051086936	0.03307392	0.0013631524	0.0043718247	0.02804652	-0.045377854	-0.009028559	0.037075657	0.04716639	
0.015335362	0.017602528	0.051140122	-0.04153284	-0.012118853	0.06007761	-0.058234535	-0.009886822	-0.014863954	0.08568669	
0.026068842	-0.07175792	0.021976445	0.013531722	-0.006064981	0.03553167	0.028885042	-0.058188606	0.058616042	0.012504875	
0.054823387	0.021605682	-0.016716918	0.038549818	-0.001617353	0.0050798454	0.04265105	-0.020301811	0.04645397	-0.034489527	
0.07601935	-0.055200506	-0.01439759	0.0319695	-0.050893683	-0.050635397	0.032571938	0.048296154	0.012761447	-0.016396388	
0.07752182	-0.03338815	0.044445563	0.057691634	-0.007426024	0.08019176	-0.06766485	-0.03969333	-0.089408405	-0.08042543	
0.021837212	-0.00540328	-0.04554524	0.008663447	0.06683076	0.008638545	-0.12151168	0.014301974	-0.02114476	-0.1224767	
0.0888909	0.011413773	0.046269648	-0.08035907	0.025657227	0.12730838	-0.02178843	-0.0261466	0.042108364	-0.049070902	
0.1325783	-0.020766566	0.082877465	-0.019596519	0.06612137	0.09262737	-0.000987247	-0.018313684	0.08429038	0.0041933972	
0.055201586	-0.0075514913	0.07802679	-0.07654181	-0.002664979	0.054782856	-0.051233884	-0.072190344	-0.037884198	-0.05796463	
-0.028092586	-0.024375286	0.03109195	0.06472315	-0.040119816	-0.11591305	0.041886665	-0.07818086	0.0003985952	-0.07960328	
-0.031744484	-0.033784162	0.06662346	0.027434515	-0.009133788	0.034529816	0.03581581	0.02869184	0.14815429	-0.017775837	
-0.08246671	0.086793624	-0.04180173	-0.031197192	-0.09120787	0.016168624	0.09577856	-0.009909049	-0.01731586	-0.09170567	
-0.033397168	0.07088341	-0.018901795	-0.09236203	-0.015185808	0.0018369304	0.123917446	-0.047369562	0.057803623	-0.07502114	
-0.06469078	0.17418434	0.11521761	-0.0018441012	0.04213505	-0.041768596	0.06651654	0.03419021	-0.1423091	-0.05614499	
-0.0031882501	0.06777875	0.020222325	-0.0050817896	0.08209891	0.04574531	-0.033708416	0.102341145	-0.038201757	-0.031562492	
0.0018316649	0.06742816	0.051180515	0.054889355	0.034204822	-0.049450655	0.054068428	-0.028787049	-0.09049866	-0.037364405	
0.0076225037	-0.08181171	-0.011707816	0.0309235	0.08706722	-0.06678897	-0.0644104	-0.09926335	0.022222688	-0.015023676	
0.09749317	-0.12825516	0.07540405	-0.09032624	0.013357552	0.108811356	-0.043553714	-0.022773715	-0.020138495	-0.0699523	
0.012277721	0.021857535	-0.0059591876	0.08784945	-0.058873467	0.03675554	0.025685115	-0.026608147	-0.046143625	-0.03260847	
0.030460445	-0.019779425	0.046538193	0.03709279	0.026706742	-0.040043596	0.0727121	0.065090455	-0.103929736	-0.04765155	
0.012792131	-0.041105226	0.08365755	-0.021638384	0.0019268865	0.00061157905	-0.04967524	-0.010807165	-0.03429814	0.0051376107	
-0.023944028	-0.05467821	-0.053596165	-0.049427338	-0.0679576	-0.019383337	0.0057594907	-0.0031689	0.013450147	-0.024861528	
-0.070392616	-0.054912902	0.034303367	0.05705075	-0.010653874	-0.09203203	0.012466484	0.005768937	-0.009351811	-0.07193544	
0.034335647	-0.045618236	0.049882695	-0.0032985727	0.04853551	0.083005525	0.025018146	0.05390963	-0.0076587205	-0.04035976	
-0.0007194879	0.06272546	0.07741434	-0.028361384	0.04494528	-0.005959406	0.021901133	0.012474235	0.05406758	-0.055912066	
-0.056378692	-0.026899844	0.065398864	-0.012310814	0.008544549	-0.024036078	0.033246115	-0.10108233	-0.09000142	0.017224506	
0.03278575	0.016535638	-0.019599406	-0.009100044	-0.011225346	-0.0118533755	-0.06463969	0.030162662	-0.055938225	-0.081993185	
-0.07350599	0.038925253	0.05855418	-0.030680891	0.063679025	-0.028771292	0.09563219	0.098357685	-0.05486313	0.019919835	
0.036092497	-0.06687852	-0.015954707	0.04649179	-0.04330338	-0.05808449	-0.023737144	0.004279535	0.08607207	0.10661435	
0.03441623	0.07497882	0.024065772	0.07409391	0.07101831	0.010622063	0.052185055	-0.012145939	-0.035417695	0.024552455	
-0.0902867	0.06396878	-0.053212844	0.050847534	0.087495714	0.021283306	0.032196518	-0.011037356	-0.07865437	0.022210594	
-0.04429199	-0.009272153	-0.026157027	0.112845436	-0.022199662	-0.0744581	-0.022875385	-0.10114122	-0.007774633	0.021455219	
0.010046208	0.0091698	-0.026739808	0.013070982	-0.08448107	-0.10450824	-0.04069724	0.015090037	-0.11745812	0.08316609	
0.0048068897	0.011729579	-0.045534123	-0.05699623	-0.0038113769	0.0034021153	0.07126603	-0.06241154	-0.0041863704	0.010144347	
0.035443496	-0.01586075	0.122982085	0.08967286	-0.06855239	0.12244124	0.007918096	0.054493107	0.018624516	0.08099818	
0.08341674	-0.033939544	0.019490074	0.03266557	-0.11038852	-0.04506251	0.0064055384	-0.074053526	0.029649258	-0.025155757	
0.1335096	0.07852002	0.076114394	0.008980617	0.045320783	0.021197764	0.045056712	0.007831269	-0.073951654	0.037582368	
-0.026517978	-0.0064496	0.04169919	-0.030423025	-0.087542206	0.0631962	0.04533613	0.00849242	0.017449688	0.038995586	
0.06100166	-0.0064226435	0.047133576	-0.03688547	-0.068217695	0.031034239	0.022398867	0.036040556	0.07497947	-0.09774212	
-0.022078631	0.07110376	0.12028657	-0.07922303	-0.010373393	-0.0040696147	0.054182723	-0.08208751	0.027569093	-0.06578996	
0.07002587	0.102823004	0.056213927	-0.11871083	-0.049339518	-0.04230485	0.09625149	0.0067459363	-0.102434	-0.0904776	
-0.05758585	-0.024552606	-0.015529446	0.05638921	-0.030870121	-0.08046491	0.15281832	0.01899149	-0.007129693	0.069823936	
0.041768212	0.031851124	0.04085011	-0.030749394	-0.08130788	-0.07092403	0.055543844	0.124090075	-0.035520226	-0.074620545	
0.02470987	-0.09754104	0.02334442	-0.022874974	-0.042771913	-0.0012527399	0.0012472146	0.09831343	-0.00552877	-0.08084584	
0.03962186	-0.031578746	-0.053843863	-0.03417755	-0.057988502	-0.043641254	0.11921793	-0.041877225	-0.062356215	0.03768609	
-0.06121015	-0.030390281	-0.0090574175	-0.009346747	-0.034214336	0.079522096	-0.02261125	-0.048613362	0.010509622	-0.02782275	
0.1081791	-0.03033743	-0.057862945	0.07977498	0.033938576	0.028114665	-0.026697658	-0.0543447	-0.03176292	0.029512506	
-0.04110403	0.030062443	0.0224196	0.021647714	0.06511463	0.10518355	0.080590405	-0.12058631	-0.09759053	-0.032144528	
-0.008268257	-0.0958333	0.10951597	-0.051617716	-0.111860976	-0.014066602	-0.009986473	-0.06507949	-0.018614057	-0.018885719	
-0.017612819	0.0030211792	0.0988682	0.027503418	0.105544835	0.09997337	-0.051608976	0.031268883	-0.017036077	-0.01084018	
0.09509957	-0.08702229	-0.04487746	-0.009191517	-0.02393797	0.028427018	-0.11313386	-0.09366573	0.078292936	-0.09117487	
0.109937824	-0.013108438	-0.02472929	-0.007040695	0.023858476	-0.011319755	-0.077240355	0.052572384	0.0077952202	0.013142111	
-0.042385653	-0.0363219	-0.077677295	0.037103415	-0.048461962	0.008429351	-0.10396419	0.014835042	0.107612826	0.029115705	
0.04127597	-0.0076687173	-0.0045714146	0.034971364	-0.047306295	-0.06999016	-0.04007178	0.025556896	0.04730479	0.024468835	
-0.014246957	0.007542491	0.013035029	0.091345556	0.00048988615	0.060202226	0.015067058	0.01564098	0.09226144	0.07463862	
0.07389492	0.038636416	-0.019806793	-0.018502863	-0.021335699	-0.0077405483	-0.049866356	0.0043538683	0.035425283	0.04891152	
-0.071160875	-0.019588122	-0.0074469144	-0.009511717	-0.043473773	0.006405827	-0.042771976	-0.053887386	0.012987612	-0.0009242476	
0.026847947	0.060742795	0.09280612	0.090002336	0.048259236	-0.0036718068	0.02535164	-0.010551318	-0.05719033	0.036690008	
0.035416305	-0.06537759	-0.07422772	-0.014449236	0.04911453	0.028301742	-0.108183816	0.007902035	-0.02320847	-0.0052390075	
-0.05421518	-0.0034548615	0.032151055	-0.059075497	0.054419648	-0.082215406	0.025218371	0.02351165	0.080545455	0.010007017	
-0.032697182	0.0942901	-0.020402027	0.0757499	-0.066596344	0.018607108	-0.032547414	0.055957142	-0.033051305	0.08827146	
0.10068576	0.025213394	-0.027342973	0.08528365	-0.019722458	-0.01824596	0.035179738	-0.058707867	-0.0049053105	0.023748131	
-0.05040252	-0.021147294	0.016521156	0.046981692	0.04600854	0.015104135	0.017386895	0.0020408954	-0.025533047	-0.11224283	
0.07447517	-0.082663245	0.09351433	-0.031023698	0.031684	0.07744429	-0.112964965	-0.026596718	0.04084801	-0.09341899	
0.03071646	-0.038254887	0.036624145	0.04255084	-0.011819709	0.07511505	0.041270334	-0.013513331	-0.05982905	-0.07653672	
0.07194135	0.023541216	0.12528583	0.03338958	-0.14629833	0.095580086	-0.0015953808	-0.117765106	0.06700805	-0.0010985261	
0.103034675	-0.07940544	-0.011831966	0.016198708	-0.07151705	0.08494861	-0.045623723	-0.05828965	-0.07261188	-0.058934078	
-0.012951951	-0.047664512	0.08317775	-0.066698045	-0.045195285	0.047428418	0.06545157	0.02381451	-0.010334505	-0.008790184	
0.03058553	0.027649313	0.02321315	-0.09466832	0.00013221972	-0.061849393	0.06089013	-0.08312861	0.07126099	-0.052509744	
-0.07861728	0.10432736	-0.098286785	-0.022250809	-0.010063668	-0.021030024	-0.015820617	0.07740936	-0.0103172455	-0.049792234	
-0.040986188	0.07017533	-0.0709712	0.01567279	0.030547198	0.0521393	-0.015338916	-0.004415822	-0.027500086	0.092235625	
0.013347594	0.039194793	0.031514306	0.10036259	0.020271838	-0.0073101814	-0.019790115	0.039288126	-0.03750893	-0.040363546	
0.012475963	-0.12014673	0.037834205	-0.028958986	0.03902142	-0.04627298	0.015952216	-0.0056135184	0.026676882	0.050401464	
0.048041254	-0.060525704	-0.03829562	0.043918915	-0.010632684	0.02188424	-0.011289448	0.012976742	0.026538955	0.024125483	
0.04157598	0.0610033	0.060909852	0.12440347	0.011249699	0.08616447	-0.054518115	-0.052175656	-0.024799578	-0.01789266	
-0.10219153	-0.0050173043	-0.06454191	0.057609674	0.0073981956	0.065414704	-0.008154764	-0.02908941	-0.031504847	0.041808654	
-0.08494693	0.02023839	0.044135775	0.037330884	0.013323579	0.004141251	-0.09778244	0.066691905	-0.0003853829	-0.018715337	
-0.07323261	0.07878055	0.0741488	-0.03777043	-0.031821553	-0.013539212	0.0027473506	-0.030770177	-0.07256692	-0.013952732	
-0.057540067	0.05600034	-0.020500116	-0.0075235474	-0.040182047	-0.045244962	-0.07993929	0.048759013	0.0009472979	-0.0033226195	
0.012237702	-0.10233807	0.11390538	0.032546334	-0.082043625	0.054191396	0.015037843	-0.019797582	-0.09062218	0.06918176	
-0.03694308	0.086369604	0.067071006	-0.013768956	0.03382132	0.054574978	-0.024475649	-0.086369395	-0.048427653	-0.07030926	
0.070587695	-0.0034780186	0.029580202	0.09081649	0.03436648	0.020437038	-0.014255514	0.016693385	0.017530927	-0.02575237	
0.007138599	-0.07351056	-0.055968255	0.0077431626	-0.052564748	-0.0433016	-0.079839215	0.015155373	0.04353352	0.03807153	
-0.03737499	-0.049139228	-0.109687164	0.021860939	-0.012813714	0.072052725	0.04372354	-0.058549818	0.047317866	-0.072743155	
-0.019785337	-0.05417783	-0.0076092808	0.0019596892	0.0025848926	0.10951279	0.10157524	-0.036467567	-2.542858e-05	0.04083926	
-0.055187006	0.107662275	0.018583832	0.05637014	0.042625595	-0.04508269	-0.008191391	0.02016822	0.032133464	-0.022159936	
0.021738471	0.06987972	0.026962362	-0.054463133	0.025631867	0.041588757	0.0018843266	-0.10432243	0.10656697	0.03157911	
0.03958298	0.07513443	-0.0068454635	0.0066669886	-0.058754552	-0.06707424	0.11254243	-0.026198074	-0.0020288832	-0.007996623	
-0.028378015	0.042310562	-0.02412621	-0.010917535	-0.02032304	0.06508866	-0.025318064	0.037969362	-0.03324188	0.05614963	
0.08787755	-0.036409017	0.034591634	0.038357656	-0.038814593	0.056632716	-0.09102637	0.018960305	-0.04124169	-0.08849272	
0.055882614	-0.0006384869	0.073677115	-0.00064176344	-0.12265799	-0.06739314	-0.085135005	0.012569389	0.028913418	-0.0022881802	
0.069636755	-0.038451836	0.05193984	0.047978744	-0.043075293	0.099169046	-0.110998005	0.020055775	0.052568547	-0.0039855894	
0.0654332	-0.030726058	0.09048252	0.15959255	-0.0469415	0.009603714	-0.08637927	-0.02375441	0.08826703	-0.058660142	
0.041230153	-0.026127135	-0.065497	0.06495828	0.045333683	-0.013319705	-0.017190462	-0.06299074	0.041841704	-0.10515349	
0.094601266	0.07818878	-0.011081452	0.059578553	-0.065902054	0.10189947	-0.05702745	-0.005447726	0.04607571	-0.017227877	
0.0654801	-0.034538534	0.02799634	0.016130004	-0.009264983	0.07867781	0.037842494	-0.030565131	0.02896792	0.008095117	
0.05500986	-0.021415554	-0.04245937	0.099144354	-0.04558478	0.030053979	0.016021289	-0.07058386	0.108694844	0.03540807	
0.056037176	-0.016907817	-0.093284786	0.02056486	-0.0753515	0.11683609	-0.04319665	0.014252879	-0.017017307	-0.04117192	
-0.06033028	0.045461595	-0.056984343	0.023213048	-0.022606524	0.07040948	0.0031521907	0.011063632	0.11482631	0.020114018	
-0.018550305	-0.030617526	-0.049420305	0.030122707	0.051704813	-0.03269145	0.0144519	0.0582114	0.06359965	0.067691125	
0.0054579847	-0.10372299	-0.004160565	0.04726395	-0.052906133	-0.032061376	0.030457994	0.018379068	-0.0049404353	-0.031028213	
0.031134333	0.034524627	-0.09336892	0.012589777	0.069168344	0.035398077	-0.06327091	-0.012346236	-0.016017718	-0.086158514	
-0.040004075	-0.029788887	0.09294708	-0.018548494	0.04715967	0.06122997	-0.049809366	0.0066675036	0.060137246	-0.032057513	
-0.040090058	0.008427179	0.05941559	0.082432866	-0.03523573	-0.008409363	0.01716923	-0.03628319	-0.040202405	0.01953381	
-0.040042754	0.0059906514	0.046861764	0.06849323	-0.05963653	-0.01892827	0.04934722	0.05943852	0.012914041	0.017548056	
0.024814608	0.042298112	0.042636838	-0.03149233	-0.09881622	-0.014650658	0.07754561	-0.037164625	0.03268558	0.028948653	
0.01954964	-0.09562856	-0.042844374	-0.014734354	0.0021842127	0.05181166	-0.08173733	-0.040162046	-0.023339523	-0.053674307	
-0.089640096	0.008612544	0.12223706	0.055857066	-0.036560804	-0.04134916	0.079860255	-0.0619238	0.0762657	-0.04979006	
-0.015878787	0.020731064	0.10895266	-0.076714694	-0.06730925	0.027522057	-0.058176257	0.0075929817	-0.0052971295	-0.05633264	
-0.019169405	-0.053833682	0.043914203	-0.0014295537	0.028406994	-0.017589279	-0.06493876	-0.057106808	0.005279582	0.031482574	
0.113974564	0.08571213	-0.044654094	0.0012443747	0.03357016	-0.014693464	-0.02185005	0.033429798	0.029166253	0.02850558	
-0.10277998	0.011625248	-0.031525318	-0.012382317	0.0034100977	-0.07786533	-0.058250636	-0.007411855	0.022613807	-0.0075073573	
0.057626206	-0.094907604	0.027360743	-0.06725972	0.022363478	-0.039417416	0.066322215	0.08104581	0.042964216	-0.029549856	
-0.029646145	-0.058085777	-0.09508442	-0.080071114	-0.07024904	-0.015783407	0.001299444	-0.00913276	0.082917675	0.0239281	
0.020700684	0.04894939	0.016658386	-0.03198294	0.018244168	0.06678339	-0.029460352	0.011781621	-0.025794305	-0.037891332	
-0.013265785	-0.079926066	-0.02488303	-0.046319112	0.06762184	-0.057156682	0.046415288	0.04058411	-0.006580973	-0.04063961	
0.030590571	0.043846447	-0.048118718	0.054139793	0.08031572	0.06265474	-0.00025262972	-0.008045623	-0.011597215	0.027503045	
-0.055787038	-0.004635863	0.026320638	0.03617302	0.02089815	0.03450422	-0.029149793	0.024525337	0.0012464251	0.023512626	
-0.030696757	-0.013194341	0.001382922	0.0441402	-0.056165047	0.018497955	-0.048184793	-0.029649481	0.0022105589	-0.027884444	
0.034818053	-0.010413735	-0.106496595	0.05355154	0.035268776	-0.041310873	-0.013881849	-0.057615593	-0.0014462762	0.071712896	
0.014073436	0.055458907	0.09078786	0.11213766	-0.07433052	0.019532913	-0.005410262	-0.017442767	-0.057013355	-0.12819989	
-0.018981704	0.009596972	0.055128958	0.045160733	0.039150693	-0.0008063382	-0.010759446	-0.102875024	0.052485425	-0.07913921	
-0.0031389869	0.026929248	-0.0983361	0.0036111262	0.06016448	0.04458934	0.027894337	0.008670581	0.12392703	-0.010094136	
0.06431787	-0.024807028	-0.030419426	0.036008555	0.04420438	0.04603441	-0.10638172	0.027497297	0.012394352	-0.024229823	
-0.008430454	0.087179326	-0.102957934	0.07620418	-0.066922426	0.09234516	-0.11869684	-0.06961332	0.03318519	-0.024314312	
0.0036770392	0.06538985	-0.008583835	0.048993852	0.012728203	0.054339506	-0.06896395	0.08199562	0.13018872	0.06143794	
0.041343525	-0.00873551	-0.078500114	0.079108626	0.006827295	0.046370152	-0.13278493	-0.0070836744	0.025604524	-0.028163817	
-0.021143949	0.019552378	0.019704966	-0.02535602	0.00298192	-0.0018402813	0.00013634775	-0.10342275	0.021888202	-0.032700893	
-0.026329707	0.00304489	-0.055170566	0.0431596	-0.017853655	-0.033013247	-0.07894752	0.036844727	-0.02528978	0.0027094507	
0.049376417	-0.05800427	-0.037635747	0.062379114	0.005283217	-0.038035925	-0.02763287	-0.0016260009	-0.039411068	0.108531974	
-0.018008348	-0.0351894	-0.04737623	0.05737966	-0.018543055	0.044455986	0.04617858	-0.106803365	0.060898107	0.044682786	
0.09542401	-0.056091215	0.11613197	0.039118566	0.07566041	0.028784562	0.017028451	0.004922219	-0.07054517	0.037934612	
-0.049714644	-0.056016214	0.01167171	0.002114367	0.06691455	0.04438163	-0.044804122	-0.08256828	-0.07489065	0.032126866	
0.02631143	0.103621826	0.04884098	-0.033285752	0.04055635	-0.07659289	0.036633365	-0.030505778	-0.016238915	-0.09544085	
0.015511469	0.08854567	-0.06455223	0.03750353	-0.018546877	0.06772739	0.008223977	0.02664707	0.037406966	-0.014422855	
-0.006649315	-0.0065193805	-0.0062080277	-0.05028696	0.013081081	0.017195921	-0.0025953653	0.06796022	-0.023515206	0.014798039	
-0.07152137	-0.068519294	-0.002284874	0.048260566	0.0509523	-0.010830785	-0.049169473	0.020048624	0.02156121	-0.00823494	
-0.06401462	0.09474177	-0.021695627	0.042676628	0.005151712	0.005740798	0.10857952	-0.1126777	-0.015983164	-0.010798463	
0.068943806	0.10622212	0.07124286	-0.01645412	-0.086796254	0.0069683767	-0.0520373	-0.0016555812	-0.0023107862	-0.04145589	
-0.04883961	0.02457608	-0.10190608	0.03171099	-0.030946318	-0.058367714	-0.07856083	0.046527684	-0.10706559	0.035430003	
-0.015216859	0.08033641	0.060815718	-0.06283163	0.014791555	0.019129643	-0.04721988	-0.0039690044	-0.080366485	-0.0017030032	
-0.00232095	-0.05836992	-0.008883538	0.029545827	-0.09765029	0.03616547	0.015301015	-0.080856875	-0.03342303	-0.08764173	
-0.02836108	-0.016245134	0.020524062	0.038447473	0.024369052	-0.06686579	-0.020566633	-0.06484429	-0.02837453	-0.09160017	
-0.031218736	0.020617347	-0.003927958	-0.02583388	0.05342	-0.018173164	-0.022875147	-0.097354844	0.013766594	0.0285909	
-0.028960485	-0.02796585	-0.003725368	-0.024421362	-0.11223714	-0.015453595	-0.031624544	0.029563246	-0.082586065	-0.032506935	
-0.018303555	-0.023214793	0.070701905	-0.006088187	-0.0014677118	-0.013857247	0.023599181	-0.054617893	-0.021153005	0.07650277	
0.088098794	0.00250664	0.018001327	0.009229857	0.015821414	-0.03872616	-0.041922197	-0.030161241	0.0024932406	-0.026069997	
-0.03643516	0.033670705	-0.024581313	0.017454967	-0.044549655	0.04152509	0.046169326	0.0058266744	0.02402321	-0.042308282	
-0.0063355644	0.03284268	-0.0021195281	-0.09157955	0.00034951113	0.0050021173	0.068230554	-0.0038459306	-0.012679377	0.0047542206	
-0.04841707	0.09190938	-0.110244706	0.06876334	0.024652312	-0.012225101	0.018313285	-0.0005918467	0.023123456	0.054047786	
0.026052402	-0.052093092	-0.07662003	0.026232896	-0.022581244	-0.0033788653	-0.09977229	0.08085884	-0.028666895	0.06709164	
-0.0008541099	0.01063915	-0.09667002	-0.001923268	-0.0150446445	0.02719621	-0.0038904354	0.06624835	0.08103979	-0.0719933	
0.068477064	-0.12016288	-0.002461623	0.053217553	0.08195814	0.050353713	-0.023934536	-0.0019673505	0.108576804	-0.042786222	
0.03525677	-0.08317706	0.01869893	0.055788726	0.055451967	0.014146018	-0.054573692	0.09628621	0.031856395	0.024584437	
-0.044339076	-0.026014013	-0.06117672	-0.020407178	0.012354776	0.00967167	-0.009089167	-0.034475386	0.012375959	0.11708919	
-0.031372618	0.029112266	0.07126506	0.006061246	0.07144827	0.107785836	0.002256925	0.04056908	0.02844869	0.059717704	
0.034900613	-0.04496188	-0.035601426	-0.024386052	0.031136155	-0.038048502	0.022569336	-0.021543834	0.07061123	0.07923108	
0.058618654	0.084760614	0.04951587	0.0094156815	0.04292446	0.019315818	-0.058009844	-0.010932136	-0.0072194072	0.091279276	
-0.04467454	-0.049789406	-0.08979612	8.3912926e-07	0.013778557	-0.02713109	-0.023999799	0.034133445	0.016863495	0.024330202	
0.010473109	0.08256248	0.013202149	-0.06298743	-0.06189923	0.0021461665	0.07184946	0.061864775	-0.0012814051	0.02709877	
0.015285909	0.03246475	-0.08462838	-0.049624708	-0.020680737	-0.04302054	-0.06837432	0.021880811	0.05235696	-0.06608308	
0.028632432	0.037360195	0.04219133	0.061056558	-0.014763097	0.007632692	-0.026820075	0.020973528	0.00054970715	-0.028601458	
0.059814848	0.06595181	0.025785746	0.05958684	-0.0699286	0.032249957	0.08646854	-0.0003441413	0.027309667	-0.030196235	
0.03397261	0.027579974	-0.028240424	-0.008863785	0.018527852	0.052018147	0.078992896	-0.01673052	-0.02178798	-0.009518369	
-0.037737668	0.017818892	0.06260243	-0.06756164	0.02838641	0.085547045	-0.03826538	-0.09192233	0.03218695	-0.01684687	
-0.034839757	-0.026069852	-0.023875767	0.040583074	0.03487884	0.0064595775	-0.06856862	-0.092216104	-0.051588606	-0.028172184	
-0.013507985	-0.062085614	0.101317964	-0.054997083	-0.014005963	-0.08307392	0.027202915	0.032325562	-0.112167545	-0.038904987	
-0.0126519725	-0.028921468	-0.013717953	-0.02455939	-0.033090487	0.10584258	-0.064299956	0.055882208	0.03480261	0.00894448	
-0.007958148	0.040626578	0.0055519943	-0.061285224	-0.016815275	-0.00059533125	0.061866008	0.036662128	0.05841574	0.05300402	
-6.8264504e-05	0.024278374	-0.09177039	0.03204513	0.07108665	0.05159821	0.045845397	0.023344554	-0.03893137	-0.07275249	
0.025343455	0.002919888	0.05044708	-0.08997276	0.074263096	-0.03118294	0.0075555355	0.02601595	-0.0022855992	-0.06503376	
-0.030294573	-0.021985067	-0.00020046381	-0.05974003	0.078708954	-0.07773288	0.022076769	-0.016723512	0.046734765	0.018585067	
-0.03793804	0.002681141	-0.029558688	0.040401306	-0.012528586	-0.09885068	-0.024023809	0.060282983	-0.008632501	-0.038439568	
-0.010356	0.09833391	0.0012687597	-0.010741013	0.0077621727	0.09245485	0.07632347	0.019762889	-0.11273491	0.07683442	
-0.01229222	0.01856056	-0.03182965	-0.03977014	-0.08260081	-0.10670376	-0.047920328	0.040869668	0.020095102	0.004485295	
0.02996759	-0.103069216	0.023239937	-0.0062716273	0.023706231	-0.015199054	0.028301707	-0.008696556	0.031332027	-0.10762597	
0.04057659	-0.052545987	-0.039603353	0.026203686	-0.070175655	-0.03330641	0.044110984	-0.055851847	0.042682886	-0.02717102	
-0.001233892	0.025461165	-0.068530664	-0.004371685	-0.11237912	-0.06242087	-0.019383233	0.031364977	0.045268297	-0.041432854	
0.08112621	0.0021904886	0.054539204	-0.027645685	0.010012404	-0.01174749	0.0766631	0.052433264	-0.0039213654	0.018518735	
0.024784291	0.005992912	-0.027870623	-0.047088373	0.005324858	-0.021722978	0.019571135	0.05506704	-0.066226155	-0.0036424906	
0.03557267	0.019184547	-0.02967201	-0.09665104	0.03711292	-0.03401069	-0.06480797	-0.03125405	0.03707866	-0.027047124	
-0.002473029	-0.03211699	-0.11774074	-0.0063402285	-0.015277085	0.06085091	0.047123663	0.069822	-0.011005872	0.033295132	
-0.07678517	0.030547531	-0.07051222	0.011363227	-0.061275605	-0.0072121136	0.031322144	0.010450966	0.058621153	-0.02171058	
-0.008354234	-0.04072266	0.018357592	-0.058646806	-0.021467198	0.06639852	-0.10475203	-0.015658103	-0.093006015	0.024618084	
0.07730011	0.051427837	-0.08452228	-0.003948414	-0.034208376	-0.001345239	-0.012856832	-0.06365196	0.012030066	0.09724455	
0.02244578	-0.09452903	0.014339205	-0.08267395	0.10003972	-0.06587591	-0.10344421	0.024648221	0.07200658	0.008430901	
-0.0034708602	-0.08655052	-0.09709539	-0.053710967	0.045180865	-0.04763184	-0.032249697	-0.037160773	-0.06987274	-0.06394296	
-0.08715858	0.10198578	-0.009237548	0.099806555	0.090086155	0.058553074	-0.02616789	0.064753346	-0.049186964	-0.03663758	
0.013732785	0.022236397	0.102350615	-0.017147282	0.03674609	-0.040150274	-0.009051992	-0.0052167894	0.057895623	-0.05170194	
-0.0001383047	0.029810125	-0.03078826	-0.023933813	0.0072059184	0.054943178	-0.05044233	-0.046339445	-0.050091565	0.06867326	
0.083268404	0.024961472	0.061905537	-0.06332385	0.0036740096	-0.01925246	-0.011817663	0.05179051	0.05362208	0.023238093	
0.0481895	0.033210598	-0.0415753	-0.009480004	-0.0016757787	-0.0129161	0.013138285	0.009630685	-0.004603706	-0.05169338	
-0.036140602	-0.05915931	0.032464217	0.0151306335	-0.05080879	0.041429047	0.073673524	0.011597231	0.018807516	-0.012268984	
-0.07502128	-0.012067978	0.07710362	-0.04475146	-0.022210749	0.049285006	-0.075795	-0.025853692	0.058276728	0.0070602437	
0.021193437	-0.05538597	-0.03848718	-0.0035107587	-0.07674947	0.018251836	0.027655205	0.053788014	0.025258753	0.012149335	
0.04610282	-0.05716253	0.025198428	0.06151066	-0.011163478	0.013629901	0.073711514	-0.04410694	-0.011313971	-0.023092557	
0.038245775	-0.05667975	-0.008821681	-0.05717433	-0.10791626	-0.024215423	-0.055870675	-0.011171377	-0.011050141	-0.014494165	
-0.034669317	0.0032296702	0.0012278236	0.097089715	-0.009702128	0.08525595	0.007327183	0.104019694	0.010348674	-0.0073288428	
-0.009473395	-0.044489536	0.10449313	0.007862683	-0.090249866	-0.06811247	-0.0484449	0.055606086	0.054641988	0.076423235	
-0.020394564	0.07413607	0.036776457	0.010363868	0.08679701	-0.00032499456	-0.05907399	-0.01976316	-0.02209734	0.03903192	
0.047158603	0.021056429	0.066654675	0.055197	-0.039676134	-0.026836963	-0.01079185	-0.061805725	0.048489142	-0.035610195	
0.029990729	0.038469657	-0.100949384	0.0481733	0.008929694	-0.051744685	-0.05409131	0.0077704955	-0.029448286	8.6093365e-05	
-0.02985414	-0.024787053	-0.0723388	-0.04593405	-0.09086127	-0.010259382	0.024381217	-0.08327474	-0.03951091	-0.005932997	
0.011460902	0.056707382	0.010511862	0.0005231666	0.045123395	-0.061398692	-0.014823705	-0.001289982	0.05105816	-0.104209006	
-0.08725075	0.015248855	0.003951227	-0.04970288	0.049866535	-0.07758097	0.04463576	0.029959619	0.02466045	-0.032245614	
-0.10524278	0.042502787	-0.10914326	-1.1180815e-05	-0.006914741	0.045597833	0.014084669	-0.0003756307	-0.05533156	0.10040992	
-0.07241228	0.014715888	-0.10768836	0.069190934	-0.043376204	-0.0070204427	0.012055741	-0.008371917	0.04627673	0.017299373	
0.006033867	0.045263983	-0.011215156	0.0067831986	0.07728231	-0.042989492	-0.06612836	-0.0077286023	-0.041960336	-0.04967322	
-0.026742376	0.02267337	-0.020904528	0.019233705	-0.024623105	0.0024723047	-0.039834585	-0.022710292	-0.08203092	-0.040275034	
-0.106409006	0.0054190923	-0.050488424	-0.03679258	-0.07454393	0.029667981	-0.06437384	-0.004458958	-0.0008490961	0.048525374	
-0.02450007	-0.06529771	0.0061436733	-0.006865139	-0.06253568	-0.09867578	0.030229136	-0.009859237	-0.030104226	0.021740131	
-0.08990403	-0.071937285	-0.0040316014	0.079353906	0.01076387	0.06205473	-0.004969894	-0.020143358	-0.038646564	-0.03541255	
-0.029198356	-0.0698634	-0.054513138	0.012315892	-0.08664372	-0.0061081154	0.0042430516	0.03362196	0.060186647	0.014487832	
-0.000703853	0.0603134	-0.022506112	-0.031610105	-0.0763694	-0.0015730709	0.029675243	-0.06322078	-0.009283036	0.04730282	
0.046045862	-0.0066468045	-0.019480325	-0.04021839	-0.007466876	0.027796196	0.019475192	-4.84321e-05	0.006548179	-0.0065866555	
-0.113544226	0.023987822	0.0061323894	0.0011610355	0.018966649	-0.026732886	-0.034871113	0.07032027	-0.04194683	-0.007132591	
0.0067963735	-0.061161004	-0.0822953	-0.04399545	0.054271344	-0.048432335	-0.025091881	0.062463637	-0.021549243	0.046935152	
-0.015608865	-0.011398366	0.006490356	0.053430982	0.046264127	-0.020694844	-0.05261115	0.08936475	0.07161768	0.027211031	
0.020741053	-0.0071375873	-0.033187505	0.044170443	-0.032585744	0.06682925	-0.004589432	0.061282363	0.027262071	0.023396917	
-0.047550038	-0.09368024	0.029855225	-0.057137493	-0.04623822	0.02787779	0.02251651	-0.040918693	-0.020848617	0.034587983	
-0.03463688	-0.035871074	-0.035004325	0.0016158576	0.074419476	0.031160522	0.008256289	-0.059890408	0.011564531	-0.072410844	
0.03391588	0.100077115	-0.01785716	-0.059487537	-0.06111557	-0.108679496	-0.044881724	0.024941135	-0.0036995334	-0.11005844	
0.08728834	0.027201766	-0.044615224	-0.028401898	-0.064550176	0.045690168	-0.10697531	0.016242055	-0.011625683	0.013502464	
0.033514477	-0.01636771	-0.005969262	0.037205487	0.024939459	-0.026908994	-0.029782113	0.037035838	0.024392046	-0.060609926	
-0.028840331	-0.034019135	-0.019048927	0.04746414	0.016735734	-0.04101664	0.04216643	0.01480962	0.0991697	0.06813434	
-0.07555531	-0.00029625537	-0.0018312999	-0.030955007	0.099974796	0.05180831	0.060698703	-0.056932103	-1.8839577e-05	0.004876904	
-0.10975932	-0.045199037	-0.021724619	-0.028217142	-0.044638734	0.010020662	-0.030355796	0.03464543	0.03009794	0.007507666	
-0.08728902	0.021768421	0.041467983	0.064445786	0.050824024	0.04822958	0.042414647	0.009911194	0.014516229	-0.033691604	
0.00041566615	0.11092314	0.06555729	0.09198398	0.04803976	0.030295866	-0.01568838	0.017522937	-0.01050045	0.035922367	
-0.051599853	0.019553073	-0.0324882	-0.015904846	0.016931059	0.023146205	-0.020376047	0.05633657	0.07118447	-0.024042059	
0.0055834525	0.0009017705	0.013535821	0.019933011	-0.035840277	0.039314557	-0.027397443	-0.047378138	0.043032262	-0.011447679	
0.05257765	0.05111858	-0.014637003	0.008180995	-0.00831759	-0.035638873	0.07807839	-0.067801066	0.065666504	0.03909827	
0.01872905	0.031123908	-0.053541012	0.082035825	0.0057374076	0.036391623	-0.0061358707	-0.019983953	0.039572947	-0.07604564	
-0.033159506	-0.037720896	0.0051987893	-0.03666623	0.038641486	0.020764973	0.06400982	-0.027035117	-0.049215358	0.1075468	
-0.0354209	0.060126435	-0.027308062	0.0743672	0.0400441	0.019222055	-0.04122503	-0.009412785	-0.07841408	0.052189972	
0.030939575	-0.0035620285	0.032463733	-0.032360595	-0.083571844	-0.02871121	0.036867425	0.02039125	-0.058410484	0.018854259	
-0.04173388	-0.10678538	0.08371504	0.039829504	0.05316592	0.025535459	-0.008022593	0.114942506	-0.060539033	-0.051087603	
0.0947926	-0.09179543	-0.04131877	-0.06377513	-0.03671006	-0.05866782	-0.0463632	0.072232276	0.00643799	0.015130015	
0.061259855	0.07784635	0.03477961	0.0348604	-0.05317257	-0.02305981	-0.031427972	-0.039554566	-0.017394183	0.04209853	
0.06637269	-0.00083165156	0.082297444	0.03249423	0.015121882	0.049575333	-0.031306364	0.022774218	-0.03326157	-0.079826295	
-0.002728084	0.0312585	0.016436486	-0.061563108	-0.021422474	0.05680878	-0.026071254	0.009050687	0.0458393	0.047838215	
-0.03863302	-0.05949253	0.020835057	0.021942528	0.008927018	-0.0682116	-0.08050942	0.01161245	-0.022053447	-0.054785747	
0.055034745	-0.026258977	-0.007969013	0.02464035	0.077642106	-0.06467749	0.04715015	-0.008989038	-0.04672761	0.08544074	
-0.06399341	-0.0065322816	-0.024877468	0.00038419498	0.054303735	-0.0034017821	0.023322795	0.057718806	-0.07253924	-0.04467512	
-0.05677861	-0.06871255	-0.0151162855	0.021209428	-0.07973119	-0.07877836	0.0896483	0.053725645	0.072099686	-0.0074066585	
-0.06566382	-0.070619665	0.035081446	0.055292945	0.032550618	0.015349615	-0.10469112	0.09045227	0.023479033	-0.013480238	
-0.048907716	-0.04094263	-0.017376347	0.0610098	0.023458239	0.07671091	0.003118592	-0.065647356	-0.0078087063	-0.05875778	
-0.023868825	-0.00012690511	-0.042859785	0.0035615289	-0.08760139	-0.05458902	0.004872718	0.04928431	-0.040701784	0.09398538	
0.05528775	-0.106542125	-0.0007535049	0.063323036	-0.04602407	-0.06790845	0.0911559	0.098766685	0.058483247	-0.009471255	
0.043029178	-0.023757935	-0.0048078913	0.006221135	0.090227045	0.11183481	-0.084509596	0.042973757	-0.093752004	-0.073042355	
0.09940777	0.07013234	-0.008419058	0.06375128	0.038185667	-0.059584558	-0.016670601	-0.04000275	0.03882133	0.001841796	
-0.022307023	0.0035063562	-0.06583533	0.015684733	0.0054036058	0.04125401	-0.064196736	-0.010935028	-0.014319823	-0.050474953	
***0.1***
--------------------------------------------------
0.0009024707	-0.09072517	0.0059107626	0.046315566	-0.0012214618	0.006737086	-0.00031940296	-0.00826168	-0.0026933218	0.0587515	
-0.022876682	0.006843852	0.045574922	-0.07793668	-0.031092277	-0.007436676	0.01849827	0.013766553	0.079014786	0.053395696	
0.055161458	-0.07387604	-0.030072004	0.055852182	0.050535616	0.04208237	-0.06477568	-0.10909413	0.069481894	-0.062132537	
-0.030236429	0.04776835	-0.055124316	0.032351945	-0.073109545	-0.008928335	-0.048407376	-0.04369037	-0.06434536	-0.023704048	
-0.080023475	0.05188744	0.070146754	0.018516656	-0.041329157	0.019550262	0.02385157	-0.029473986	0.054761603	0.017324163	
0.0036620246	0.03297941	-0.10063511	-0.010177545	-0.027643649	0.041783657	-0.052986886	-0.018718282	-0.017579857	0.085226335	
-0.08362882	0.05493527	0.03565802	0.056755826	0.04671748	0.04318154	-0.03812198	0.104945	-0.031472433	0.06570989	
0.09618123	-0.018584177	0.021491665	0.018112862	-0.047193483	-0.081165925	-0.046791587	-0.04579082	0.029082222	0.01914837	
0.025105642	0.03561281	-0.0038341158	0.08121278	-0.01993954	-0.067577265	0.021740168	0.009159934	0.04159899	-0.00090744166	
-0.014275232	0.042454988	0.00662324	-0.01154738	0.05538532	-0.0499724	0.03812226	-0.0045396523	0.037482247	-0.04114738	
0.07520628	0.010117934	-0.019214183	-0.0020434414	-0.05655265	0.042305022	-0.04310673	0.07713576	-0.041442137	-0.035822526	
-0.050281476	-0.02343245	0.04892008	-0.022021597	-0.0690745	-0.06069391	0.030687204	0.05552446	-0.049806498	-0.03964346	
-0.02578148	-0.043888442	-0.01116927	0.10356553	0.027998077	0.0618737	-0.018094767	-0.031332377	-0.0049439725	-0.01641269	
0.02234495	0.043533947	0.03462582	0.023843948	-0.07237135	0.06740593	0.047724072	0.046111096	-0.08913438	-0.041796338	
0.038486972	0.0025547142	0.0024189723	-0.053971704	0.09699734	-0.093656525	0.06469976	-0.049530476	0.060582045	-0.05489588	
-0.040810723	-0.09664006	0.037733942	0.04236634	-0.020751704	-0.03142356	0.03373814	0.052408446	0.033667445	-0.10147974	
-0.075716846	0.04417969	-0.021370994	0.09043187	-0.047503315	-0.035079435	-0.03289308	0.0038742772	0.00903913	0.073583566	
-0.0038813832	0.021026246	-0.010882807	0.037906576	0.00038969464	-0.035162177	-0.07526409	0.0059105125	0.026092872	0.06525821	
-0.024861451	0.027123595	0.0062440448	-0.007071952	-0.049017243	-0.088512905	-0.06228542	0.026371397	-0.001537889	0.003683487	
-0.023990713	0.009960154	0.016981319	-0.077576704	0.062095217	-0.016007941	-0.0067361672	-0.014435578	-0.06524647	-0.0677612	
0.013296831	0.10081024	-0.008367928	-0.03745615	0.019726772	0.012136452	-0.03908587	0.035020802	0.06480513	-0.046084937	
0.046058632	-0.07081137	-0.05684595	0.00077024515	0.04862824	0.005800582	-0.0047955005	-0.060937718	-0.022196416	-0.010548849	
0.04112537	0.09178141	0.028027624	-0.047401007	-0.03130487	0.06746992	-0.022471996	-0.046617888	0.04770298	-0.026808372	
0.013912771	0.03942458	-0.013139416	-0.081586875	-0.04672928	0.07453396	-0.049713966	-0.091458976	0.038515292	-0.043584045	
0.006311517	-0.086476	0.0139785865	0.032215483	0.06098069	0.029960608	0.00040908938	-0.026050534	-0.10407922	-0.057225373	
-0.09838443	-0.008093047	0.085818626	-0.014126898	0.03498889	-0.00037755427	-0.021758892	0.012508509	-0.022473622	0.028158298	
0.040890943	-0.09766956	0.01484608	0.0029703302	0.031876262	0.049966633	-0.0009236528	0.03518676	-0.036501266	0.024829514	
0.057734106	0.044570025	0.011350722	0.020707455	0.036255173	-0.04324384	0.039528742	-0.09616916	-0.004199827	0.07880018	
-0.077776805	0.036629636	-0.04319673	-0.07074213	0.065535516	-0.055986423	-0.0032474673	0.04350816	-0.012485072	0.07620624	
