0.0009024706	-0.09072516	0.005910761	0.04631557	-0.0012214619	0.006737085	-0.00031940299	-0.00826168	-0.0026933216	0.058751505	
-0.022876682	0.0068438514	0.04557492	-0.07793667	-0.031092273	-0.007436676	0.018498268	0.013766554	0.07901479	0.0533957	
0.05516145	-0.07387604	-0.030071998	0.055852175	0.05053562	0.04208237	-0.06477568	-0.109094106	0.069481894	-0.062132545	
-0.030236425	0.04776834	-0.05512432	0.03235195	-0.07310955	-0.008928336	-0.048407365	-0.04369036	-0.06434536	-0.023704043	
-0.08002347	0.051887438	0.07014675	0.018516654	-0.041329153	0.019550264	0.023851564	-0.029473986	0.0547616	0.01732416	
0.0036620242	0.032979414	-0.1006351	-0.010177546	-0.027643643	0.041783653	-0.052986894	-0.01871828	-0.017579855	0.08522633	
-0.08362881	0.054935258	0.03565802	0.056755822	0.046717472	0.043181535	-0.03812198	0.10494498	-0.031472433	0.06570989	
0.09618122	-0.018584173	0.021491664	0.01811286	-0.04719349	-0.08116593	-0.046791587	-0.045790814	0.029082226	0.019148368	
0.025105638	0.03561281	-0.003834115	0.081212774	-0.019939538	-0.067577265	0.021740165	0.009159933	0.041598987	-0.0009074417	
-0.014275231	0.04245498	0.0066232397	-0.011547379	0.05538531	-0.04997239	0.038122255	-0.0045396523	0.037482247	-0.041147377	
0.07520628	0.010117933	-0.019214183	-0.0020434414	-0.056552656	0.042305015	-0.043106727	0.07713575	-0.041442133	-0.035822522	
-0.05028148	-0.02343245	0.048920076	-0.022021595	-0.0690745	-0.060693894	0.030687198	0.055524454	-0.049806494	-0.039643463	
-0.025780309	-0.043886892	-0.011165952	0.103568524	0.028001191	0.06187571	-0.01811428	-0.031330764	-0.0049421457	-0.016410809	
0.022348717	0.043538503	0.0346113	0.023852853	-0.07235877	0.06741118	0.047684476	0.04611589	-0.0891268	-0.041789673	
0.038488302	0.002556031	0.0023947349	-0.053969152	0.09700372	-0.09365559	0.064703256	-0.049529064	0.06058603	-0.054893047	
-0.04081067	-0.096640006	0.037732933	0.04236645	-0.020751433	-0.031423517	0.03373829	0.052408494	0.033667605	-0.10147962	
-0.07571684	0.04417969	-0.021370992	0.09043186	-0.047503304	-0.03507943	-0.032893084	0.003874278	0.009039131	0.07358356	
-0.003881383	0.021026243	-0.010882805	0.037906576	0.00038969456	-0.035162177	-0.07526409	0.0059105116	0.026092876	0.06525822	
-0.02486145	0.027123597	0.0062440448	-0.0070719514	-0.049017232	-0.088512905	-0.06228542	0.026371397	-0.0015378889	0.0036834874	
-0.023990711	0.009960152	0.016981319	-0.0775767	0.062095225	-0.016007943	-0.0067361677	-0.014435576	-0.06524648	-0.06776119	
0.013296832	0.100810215	-0.008367929	-0.037456147	0.019726768	0.012136451	-0.03908586	0.035020802	0.06480512	-0.04608494	
0.046058632	-0.07081136	-0.056845944	0.00077024504	0.04862825	0.0058005815	-0.0047955	-0.060937706	-0.022196412	-0.010548848	
0.041125372	0.091781415	0.02802762	-0.047401004	-0.031304866	0.06746991	-0.022471994	-0.04661788	0.047702976	-0.02680837	
0.013912768	0.03942458	-0.013139417	-0.08158687	-0.046729278	0.07453396	-0.049713966	-0.091458976	0.03851529	-0.043584038	
0.0063115167	-0.086476006	0.013978587	0.032215483	0.060980685	0.0299606	0.0004090894	-0.026050529	-0.104079224	-0.05722537	
-0.098384425	-0.008093045	0.085818626	-0.014126896	0.03498889	-0.0003775543	-0.021758894	0.012508508	-0.022473622	0.028158294	
0.040890936	-0.097669564	0.014846077	0.0029703302	0.03187626	0.049966626	-0.0009236529	0.035186756	-0.036501266	0.02482951	
0.05773411	0.04457002	0.011350722	0.02070745	0.036255173	-0.043243837	0.039528746	-0.09616916	-0.004199827	0.07880017	
-0.077776805	0.036629632	-0.043196723	-0.07074212	0.06553551	-0.055986423	-0.0032474678	0.043508153	-0.012485073	0.07620623	
0.043284565	-0.014664742	-0.024723379	0.024207827	-0.07973844	-0.008225754	-0.09995991	0.07435305	0.081657596	-0.06837487	
-0.002416808	0.020760389	0.02079314	0.1135683	0.06559614	0.024418954	0.08559032	-0.095390186	-0.085329965	-0.0049838517	
-0.0065881535	0.01564231	0.068285465	0.06603436	-0.108343065	0.05244752	0.08387197	-0.08177442	-0.078602925	0.051863633	
-0.021454405	0.06833586	0.059563376	-0.00902812	0.06235649	-0.03247635	-0.0111046275	0.003659172	-0.035164874	-0.0077706045	
-0.031106045	-0.0145139	-0.033956587	0.022795651	-0.019168904	-0.07592346	0.08214366	-0.0025525629	-0.008237374	-0.021137444	
0.038264126	0.022763949	0.009830584	-0.02975476	-0.07141868	0.058046702	-0.04106219	-0.014028666	0.03913631	0.0041548857	
-0.0011948074	-0.0038658069	0.05853585	0.02836354	0.020545641	0.08690268	0.026665453	0.06673968	0.04858188	-0.060873292	
-0.030459205	0.029128674	-0.020062706	-0.048851606	-0.031396173	0.046288066	-0.1136445	-0.027189033	0.02428311	-0.024833752	
-0.038863193	-0.052624445	-0.085941166	0.0729274	-0.055776425	0.05961415	0.01596944	-0.035921838	-0.0023127978	0.061498504	
-0.051275145	-0.02885423	0.009772328	-0.013880995	0.0075879996	-0.04770249	-0.005617986	0.010596113	0.0178849	-0.013477378	
0.0038148095	0.04835608	0.07585762	-0.0016082514	-0.028169783	0.011173631	0.097537614	-0.005482033	-0.10426661	0.04882396	
0.009512082	-0.058195062	0.013159209	-0.07650169	-0.019487457	-0.07409198	0.0056420625	0.10021397	0.022218898	0.0618927	
0.017962659	0.0061215316	0.10182042	0.036291983	-0.014023247	-0.062290322	0.010011025	-0.014479488	0.04759608	0.100912966	
0.06726537	-0.036560383	0.09543809	0.057120122	-0.08467095	-0.02553396	-0.09648213	0.0008574445	0.022258755	-0.046718054	
-0.037249744	-0.023955688	0.016825514	0.009915754	0.03978557	-0.00018962016	0.07023045	0.0032246723	-0.048416775	-3.6440473e-05	
-0.0715131	0.016793648	0.039011065	0.01620407	0.0019357958	0.040166933	0.053624526	-0.014241555	-0.027462764	0.0011353854	
0.0045931204	-0.113755964	0.050541524	0.0604278	0.005304599	0.07503741	-0.035922073	0.10433154	0.08423435	-0.05593002	
0.048729677	0.038785852	-0.0025393956	0.012596652	-0.019322544	0.0013476557	-0.0014790795	-0.033559565	-0.030612173	0.0657963	
0.08769066	0.0109848175	-0.09970937	-0.034220777	-0.039318904	-0.06550077	-0.07451364	0.075334735	-0.07161742	0.033401996	
0.007416423	0.02582146	0.050943766	0.057219885	-0.03208229	-0.08637004	0.038701613	0.0627447	0.016953552	-0.001089702	
0.027673258	-0.07776328	-0.088301025	0.020092754	-0.033720598	0.060090806	-0.053673077	-0.017085336	0.002718371	-0.04027303	
0.098607525	0.044745572	-0.068947084	0.061825458	0.017361498	0.05317285	0.08966383	0.010696901	-0.014472092	-0.016140785	
0.046504337	0.035017896	0.026283292	0.028570708	-0.0875746	-0.037518006	-0.011710736	0.013409909	-0.0072640968	-0.04948217	
0.0203258	-0.024322055	-0.053555973	-0.025097499	0.10409456	-0.0049199504	-0.039304577	-0.03463516	0.026035167	-0.013297806	
-0.009968711	0.011030354	-0.0031800505	0.02208865	-0.011755968	-0.0751277	-0.024983149	-0.08970282	-0.006371636	0.020571066	
0.03313781	0.075743325	-0.031677447	0.0136509985	-0.016965605	0.044191983	0.03814547	-0.10984836	0.032648563	-0.09095482	
-0.030123731	0.025728038	0.06674388	0.021714402	-0.036038134	-0.06143145	0.07064521	0.10346756	0.022168318	0.048269905	
0.01766707	-0.052723765	-0.023128115	-0.013189083	0.10077632	-0.045136627	0.040900227	-0.015228849	-0.0898443	0.009281734	
-0.026056707	0.03569654	-0.01561622	-0.05592996	-0.014163017	0.093291536	0.095869996	-0.021572528	0.094407514	-0.03372675	
0.074453965	0.048744954	-0.039587215	-0.06636419	-0.04437674	0.04398731	-0.07940034	0.016993618	-0.011869016	0.08088461	
0.021151887	0.006235727	0.020703197	-0.07721248	-0.019861994	0.03618182	-0.0612809	-0.0049594794	0.008622789	0.0024361624	
-0.04668708	-0.002829998	-0.009461375	-0.03630698	-0.016837314	0.04837365	-0.0805179	-0.022300038	-0.084126934	0.087952055	
0.013642383	0.0751868	0.07014743	0.046720453	0.052572567	-0.018520823	-0.06622559	-0.010008746	-0.009289112	0.021405783	
-0.03090001	-0.010510899	0.0486834	0.038615875	0.022682564	-0.040366624	-0.07736685	-0.01664862	-0.029243963	0.010172882	
0.048471753	-0.024630439	-0.075017706	0.023609962	-0.019257665	-0.029668616	0.07828745	-0.008306985	-0.046272453	0.08365168	
0.057399288	-0.055036075	-0.019691577	0.059224695	0.010716716	-0.055262588	0.04357029	0.09375814	0.024569377	0.031216275	
-0.0069551636	0.03646102	-0.048370432	-0.060430925	0.066828296	0.078921825	0.05611496	-0.0014836473	0.07984647	-0.06530125	
-0.0459933	0.08086747	0.087326035	0.04693885	-0.045305166	0.019893162	-0.0021087544	0.0840528	0.015791193	0.016666593	
-0.050772905	-0.047877386	-0.049358398	-0.023039402	-0.0038510417	0.06561602	0.04131554	-0.0047714785	-0.045298308	-0.07483656	
0.014394204	-0.01892345	0.069540866	-0.035363175	0.04865782	0.018440336	0.096343055	0.0072910925	0.03727413	-0.027760152	
0.048804052	-0.1071373	-0.030388504	0.06632792	-0.05147003	-0.035458956	0.025854615	0.003473197	-0.055520322	-0.08091056	
0.016331239	-0.042712297	-0.054636553	-0.032497033	0.10710299	-0.06405712	0.060423806	-0.025112754	-0.01756354	-0.04292977	
0.0005205769	0.00957819	-0.10456584	-0.031087242	0.037138175	-0.014809318	-0.01633137	0.041291434	0.06944139	0.08258367	
-0.11340342	0.06110359	0.076372385	0.05257701	-0.030873008	0.00044411112	0.062122278	0.07380487	0.01249628	-0.04962239	
0.074632004	-0.036276553	0.03919339	-0.027996328	0.07662757	-0.030269882	0.033731714	-0.036572143	0.00672486	-0.07872457	
-0.034177933	0.010841562	-0.019735046	-0.086581945	-0.0059439936	-0.06390651	0.027837051	-0.051205996	-0.08377806	-0.045678295	
-0.006733275	-0.06856969	-0.012776586	0.0520521	0.038567826	0.073505335	0.0128109185	0.025638701	-0.023636045	0.05327968	
0.100965574	-0.062166464	-0.041040275	-0.014495263	0.030941825	-0.008728772	0.097501144	0.031287994	0.002926609	0.040619276	
0.007055342	0.059783828	-0.029722406	0.022520415	0.045160238	-0.06446579	-0.008555657	-0.04841321	-0.0024811209	-0.02392488	
0.044878572	0.0161353	0.0070241527	-0.02115702	0.033053555	-0.0638516	0.08076992	-0.054698072	0.015642023	0.03946874	
0.05567741	-0.086451285	0.018468989	-0.047190797	-0.009684076	-0.049609557	-0.08022205	-0.023679357	-0.081516154	0.051956855	
0.038375273	-0.0969475	0.07669832	0.029961709	0.01787315	0.051504333	0.097465865	-0.03675163	0.056289285	0.059784524	
0.04527862	-0.05392054	0.042051483	-0.07721564	0.025782187	-0.010422956	-0.01876593	0.0037675519	0.091763295	-0.003969259	
-0.014815947	-0.019381134	0.09072576	0.021777604	0.062443893	0.056522537	0.059247423	0.063278094	-0.024681235	0.04363139	
-0.002390395	-0.05679432	-0.05843862	-0.010542996	-0.023079246	0.023344321	-0.050887793	-0.0027485709	0.007987518	-0.029980196	
0.04030476	-0.06501869	-0.10449411	0.08348353	-0.004129061	-0.034982182	-0.0059894263	0.02579604	0.050940894	-0.0041658683	
-0.09779416	-0.06233062	-0.028087543	-0.0059213615	0.081123084	0.05091007	0.04220674	-0.032040946	-0.059531163	-0.053805027	
-0.018735787	0.07274395	-0.0073855636	0.07883695	0.021888368	0.028993651	0.0681718	-0.004207909	-0.02560293	-0.06671861	
-0.023025377	-0.010681607	0.050236184	-0.025110422	-0.015473865	0.023765005	-0.08510773	-0.021918245	0.005486537	-0.002984653	
-0.006137394	-0.05833214	-0.0046251146	0.00919389	-0.030799707	0.059440013	0.074843235	-0.07705447	0.05094971	0.03371697	
-0.015302079	0.070383206	-0.037823815	0.01836471	0.07643781	0.042811178	0.04090748	-0.039091427	0.04553564	-0.110312395	
-0.040558245	-0.064411744	0.07175817	0.020394467	0.03343283	0.083326	-0.038946014	-0.01248182	-0.042666603	-0.106305376	
-0.024107207	0.01439038	-0.008458948	-0.052825015	-0.057678353	-0.074445866	0.03290104	-0.032409526	0.03863875	-0.006015734	
-0.041501384	0.018689053	0.03656684	0.039249435	-0.082842074	0.007814609	0.04644321	0.009345298	0.045502115	0.0378843	
0.08074533	0.04588188	0.008931765	-0.08771413	0.027623871	-0.03907756	-0.060553327	0.016440403	0.0080323825	-0.060051728	
-0.036049955	0.07119869	0.022800831	-0.0028619643	0.030935802	-0.035649225	0.011670637	-0.040118176	-0.040914692	-0.10257891	
-0.041285846	0.036684383	0.12596382	-0.0115945	0.071180485	-0.043119103	0.07678735	-0.04770662	0.06751698	0.025535144	
-0.019268505	0.021673873	0.096836425	0.077548675	-0.064826295	-0.014989049	-0.037969228	-0.0980032	-0.113679916	-0.04725435	
0.011425204	-0.06434254	0.0547309	-0.082535945	0.027387485	-0.061157152	0.06753961	0.0107281115	0.0052304626	-0.0003113515	
-0.07860359	-0.08649405	0.05306247	0.038013212	0.06396884	0.02580366	0.14209133	0.020962387	0.038921956	-0.019569948	
0.0863426	0.096744075	0.016325016	-0.038359717	-0.06355296	0.017845787	0.02180541	-0.067918696	0.012202241	-0.06646119	
-0.05412073	0.045301203	-0.00690635	0.077039234	0.028770512	0.0017549944	-0.04799222	0.08224118	0.039431926	-2.2469401e-05	
-0.054723524	-0.02812509	0.0008559347	-0.016818335	0.048232365	-0.015000469	0.10888771	0.07902232	0.039862443	0.0004460921	
-0.015816191	0.01081726	-0.061423205	-0.012980592	0.049341407	0.0019841169	-0.015306581	-0.013176108	-0.022334807	-0.021874186	
-0.03720349	-0.06132319	-0.022786282	-0.08989436	-0.069544524	-0.005657673	0.011663316	-0.02215423	-0.06781173	-0.01099311	
-0.07925969	0.029469196	0.06206128	-0.05180186	0.015056427	0.08472993	-0.010692117	-0.050159387	0.037333574	0.04946129	
0.09666909	-0.051434476	-0.039753363	0.10055974	0.0150812445	-0.03216924	0.07195533	-0.0236729	-0.11458573	-0.03075437	
0.08172506	0.012875225	-0.013386405	-0.04650727	-0.009974681	-0.020591218	0.046554357	0.055754676	-0.09845919	0.040115632	
0.07527515	0.060742885	-0.022891484	-0.084746115	-0.067766875	-0.0697196	0.009682296	0.07210655	0.021471448	0.023139952	
-0.05702305	0.104780234	0.054700863	-0.035840843	-0.050671075	0.09349729	-0.03367566	-0.030680344	0.0076772915	-0.015809417	
-0.039466657	-0.0478062	0.022306694	-0.02377398	-0.030413639	-0.08945828	-0.01218178	0.037764758	-0.05943995	-0.00031059704	
0.09611323	0.02064169	0.023988334	0.0032295815	0.09530719	-0.05153691	0.037399843	0.09531436	-0.07057921	0.11287747	
-0.08979971	-0.05054365	0.0026272521	-0.04471314	-0.049740966	0.073051766	-0.05553241	-0.0415947	0.010002076	-0.08691061	
-0.08180695	0.017687375	-0.07722191	-0.026068414	-0.016462393	0.016701704	0.033124812	0.0880624	-0.07020207	-0.06946516	
-0.0568913	0.06876936	-0.07069489	-0.023647847	0.021873495	-0.018207973	-0.10295782	-0.08648952	-0.06181307	-0.011538429	
-0.061952565	0.015683405	0.013115628	0.04605006	0.05484999	-0.025579859	-0.04325008	0.037955355	-0.06531208	-0.0069598933	
-0.061250936	0.029179454	0.06276203	0.10367811	0.03597168	0.035541017	0.010091704	0.023391783	-0.06704171	-0.026170991	
0.011713385	-0.09302363	0.022599043	0.056932326	0.104706235	-0.07109819	-0.07055088	0.0133807575	0.007338734	-0.0200664	
-0.10744719	0.0714172	-0.03848621	-0.024640564	-0.024512598	-0.0795192	-0.02130059	0.08972011	-0.10635804	-0.047325954	
0.09464297	-0.011687805	0.102224946	0.09497363	0.016138582	2.4398836e-05	0.07589734	-0.07743385	0.011274632	-0.04271621	
-0.016769918	0.010905767	0.010424245	0.038295746	-0.03298473	-0.114985436	-0.06613398	0.016760135	0.06651388	0.027921174	
-0.011057464	-0.037236366	0.11045391	0.015411848	-0.04673248	-0.015219754	-0.015559091	-0.10167914	-0.05322563	-0.011615277	
0.070743576	-0.09873348	0.010050828	-0.051780257	0.074877456	-0.022768531	-0.0010308911	-0.04501687	0.009908292	0.08412718	
-0.01842255	-0.035025757	-0.037829947	0.056108363	0.047295533	-0.08534692	-0.063938655	-0.06651002	0.025573568	0.0141612915	
-0.007449368	0.10554679	0.04210839	0.027389754	-0.04830738	0.051617946	0.011737204	-0.0074188136	-0.11459038	-0.024789248	
-0.10978312	0.11189466	0.053682916	-0.030261658	-0.060181454	0.018912498	-0.045753986	-0.108345814	-0.024062458	-0.003936355	
0.05279138	-0.012077932	0.08235625	0.11661455	0.04777234	0.009236591	0.003819765	-0.0024398505	-0.002107867	-0.10919878	
0.016892668	0.03761331	0.03614806	0.018495638	-0.096332215	-0.033005457	0.08501344	-0.03526676	-0.056704987	-0.0029395558	
0.060048617	-9.38494e-05	-0.005075901	-0.06249097	0.012595687	0.059106976	-0.0026049542	-0.08817431	0.0139010465	-0.03548661	
0.052941408	0.059223976	0.07545048	0.027290294	0.046877548	-0.03719568	0.06424629	0.0071128565	-0.05602597	-0.032525435	
0.003581189	0.06644337	-0.054293193	-0.014485875	-0.057636373	0.08748416	0.10224667	-0.1151541	-0.014954181	0.032271296	
-0.018971939	0.065416485	0.07266168	0.02212675	0.029780611	0.0016973036	0.02706842	-0.07392304	-0.08487701	-0.077683866	
0.07646332	0.014437699	-0.07348833	-0.10875984	0.016275462	-0.05771469	0.025612986	0.030291354	0.026521353	-0.0455608	
0.058883164	0.032014463	0.024447188	-0.0039374637	0.056811687	-0.04543788	-0.0077641755	-0.06521152	-0.010241974	0.047863133	
0.055746324	-0.0044040084	0.009409658	0.05239656	-0.010161601	0.05604389	0.06662825	-0.072770305	0.00032926985	-0.040765643	
0.084484935	-0.052684166	-0.01520467	-0.07575335	0.040116314	0.06476285	-0.0008622004	-0.06401681	-0.008693595	-0.030552765	
0.028203472	-0.008350385	-0.076731615	0.036605395	-0.020929156	0.05108499	-0.03047971	-0.041340906	-0.04769589	0.032258183	
0.009637598	-0.032506034	-0.035093244	0.06376848	-0.023811743	0.006563161	0.02162475	-0.020825043	0.109400295	0.035136145	
-0.0012035591	-0.026935954	-0.03090163	0.035671197	0.01356427	-0.029019928	-0.0059158932	0.11114792	0.06471405	0.007901486	
-0.019882545	-0.03937458	-0.03164808	-0.05680437	-0.06315252	-0.0034162016	0.029871885	-0.040993307	0.048249282	0.03145215	
0.017680576	0.041127197	0.04492253	0.07681375	0.006347842	0.028785782	0.09110215	-0.087917104	-0.07453883	0.009080269	
0.03994924	0.007054069	0.03352276	0.08332033	0.029400127	-0.048932888	0.055214766	-0.041987848	-0.10313625	0.042330444	
-0.02030821	0.014163647	-0.054088295	-0.033959437	0.059403557	0.0028870897	-0.104850344	0.056239683	0.024160564	-0.064226955	
0.08067151	-0.04827642	0.055411287	-0.029623212	0.04774415	0.041709658	0.016687872	0.0024150282	-0.01513704	-0.06525455	
-0.026304187	-0.018526318	0.04167455	0.03057003	0.05986222	0.040675852	0.004320383	-0.031050565	0.03517519	0.0076483376	
0.048356786	-0.006735964	0.010321247	-0.02845401	-0.021917773	0.03805544	-0.020351596	0.0558819	0.05614176	-0.037469044	
0.05619788	-0.0076768664	0.058462553	-0.049517237	0.074496046	-0.00641927	-0.015027357	0.026583405	0.048807945	0.095730804	
-0.06340806	-0.04869128	-0.061925877	0.0165366	-0.05678879	0.0064918357	-0.005263487	-0.03834443	-0.025380848	0.06250035	
-0.0019087637	0.059436955	-0.003787462	0.032374285	-0.008776965	-0.035299804	-0.005875053	0.039547175	0.002706305	-0.05836881	
-0.0686998	-0.03784455	0.017142057	0.00376891	-0.048098337	-0.053276382	0.026849532	0.048271254	-0.036000274	0.010170804	
0.085087806	-0.019480597	0.07798083	0.024376364	-0.019525722	0.037415862	0.00047846584	-0.012205092	-0.066392146	0.09686442	
-0.037051205	-0.016500484	0.1443565	0.08137981	-0.072927795	0.01844002	-0.05804393	-0.05702936	-0.08756557	0.09119798	
-0.022594139	-0.015715225	0.10126264	-0.013028066	-0.069236696	-0.04295961	-0.028046345	-0.093242116	-0.0009193944	-0.046195135	
0.02382571	-0.07514252	0.02219566	-0.03154254	-0.07563623	0.055748522	0.006586748	-0.07153647	0.062863246	-0.09569189	
0.09114406	0.022910407	0.07097099	-0.027599184	-0.10126212	-0.068299726	-0.000552929	-0.06825624	0.022535546	-0.064650536	
0.039661154	-0.042699646	0.13525824	0.05361848	-0.029988183	-0.08386944	0.057908934	0.035035096	0.056354165	-0.13415393	
0.026565827	-0.033421196	0.08042829	-0.03771415	-0.024237141	0.014299823	-0.082796164	-0.08793815	0.038869116	-0.07819202	
0.005938882	0.0012973243	0.07166952	0.06901948	-0.10738755	-0.04199449	-0.05608698	-0.123186514	0.097297974	-0.059773117	
0.09462913	0.041917652	0.02327187	0.0061841807	0.009253883	0.032180686	0.033631593	-0.04933363	-0.032761052	-0.023812506	
-0.061513107	0.0666035	0.08455589	0.048441455	0.042281523	-0.11034427	-0.043734718	-0.09084671	-0.006468802	-0.06510877	
0.07346112	0.06961446	-0.0018560078	0.02200119	0.003029749	0.07072047	-0.0068096807	-0.05179159	-0.045089096	-0.038705923	
-0.090797655	-0.0238004	-0.040603235	0.036649145	0.04576522	-0.017102381	-0.062112767	-0.008722377	-0.030275097	0.022053143	
0.045568235	0.02637211	-0.09102766	-0.010007895	-0.014277119	0.04087464	-0.0037927171	-0.055073656	-0.012994543	0.0057386276	
0.04750773	0.030571207	0.078655936	-0.037043117	0.067845546	0.037035916	0.009771465	-0.043951847	0.07090456	0.077604495	
-0.03195238	0.0068156235	-0.033527613	-0.024911482	-0.08026063	-0.019413134	-0.08430505	-0.061629727	0.015685514	-0.009105354	
-0.0054554995	0.027067205	-0.059253648	0.0054239407	-0.018066157	-0.07614976	0.0026572926	0.031928387	-0.02755819	0.024331175	
-0.034938525	-0.016296992	-0.041468345	-0.044937454	0.040260036	-0.059389096	-0.03403345	-0.06575501	0.011305941	-0.026694465	
0.025959363	0.04617387	-0.0013500425	-0.07785652	-0.034185216	0.068570115	-0.023654392	-0.040786993	0.04086182	0.011103539	
-0.017872833	-0.050902758	0.055606574	-0.048723396	0.048560895	-0.04739934	-0.0034564112	-0.04486009	-0.044773187	-0.09418377	
0.03439482	0.009571241	0.032144982	0.100630865	0.0109001575	-0.022520954	0.03099819	-0.05287989	0.076425456	0.03455042	
-0.015450967	-0.009503411	0.03926842	0.015371114	-0.028968014	0.08393487	-0.011436833	0.079218104	-0.10933048	0.018470101	
-0.014191715	0.007616456	0.01291477	0.09637748	0.062224172	0.054740228	-0.017305462	0.020344505	-0.06103191	0.0061143925	
-0.02861145	0.015966024	-0.07801104	0.055236895	-0.06505787	-0.057581536	-0.0028310923	0.022901442	-0.0319234	-0.035586223	
-0.102721564	-0.06374158	-0.028040806	-0.04770397	-0.00911858	0.0161855	-0.054017853	0.0423528	-0.025588796	-0.011445537	
-0.059971612	-0.025854297	-0.046950158	-0.03494184	0.017565055	0.054726373	0.008607471	0.053887203	0.07278778	-0.0007900532	
-0.034566328	-0.09058521	0.042009186	0.029565524	0.063160814	-0.07015988	0.03409795	-0.020700846	-0.027576335	0.057359155	
-0.0042999354	-0.09500764	-0.07792487	-0.022010429	0.020510143	-0.10389224	-0.028555363	-0.082910195	0.0013828985	0.04754502	
-0.026685856	0.021729052	-0.07467315	0.059952226	0.10244373	-0.06629415	0.028677981	-0.022598336	0.017022585	0.016093852	
-0.05128222	-0.055223156	0.082811266	-0.009623501	-0.005867067	0.08594897	-0.0068496335	-0.009908593	0.037546553	-0.05250278	
0.083317384	-0.0008715014	0.004896044	-0.018108891	-0.023651525	-0.024786375	0.0989173	-0.064316116	0.05906617	-0.011371762	
-0.01650406	0.072814226	0.052513927	0.12994371	-0.0391636	0.0009955415	-0.012754553	0.00021122115	0.09517023	-0.03809094	
-0.019461468	0.013817923	0.09565609	-0.005688355	-0.041437883	0.06733802	-0.07662273	-0.06838656	-0.011111823	-0.062032413	
-0.010593735	0.006919744	0.08331448	0.15011981	-0.0042915824	0.03181767	-0.00028593175	-0.088981226	0.011123844	0.09134816	
0.012162132	-0.0017667295	-0.03649129	0.14358273	-0.07724251	-0.036505897	-0.010013194	-0.06505385	-0.018734166	-0.042145442	
0.014163855	0.0066111144	0.026249636	0.103262536	-0.05447915	-0.014046644	-0.014466038	-0.097557865	0.077376805	0.09760411	
0.039794337	-0.03406389	-0.056647025	0.026068246	-0.08344346	0.050686784	0.018194979	-0.15728	0.045039326	0.02302909	
0.027081612	0.05185713	-0.069791794	-0.0663485	-0.011344146	-0.06549885	-0.04956783	-0.044701885	0.05583246	0.03173716	
-0.0572617	0.04282759	-0.073042475	-0.0065951613	0.010366056	-0.016411532	-0.07541773	-0.016362831	0.12864922	-0.06708564	
0.07079036	0.0362302	-0.08903377	-0.029870147	-0.039687883	0.00076190144	-0.012873511	-0.05275239	0.10058059	-0.01869077	
-0.0041833757	-0.017256856	0.087512344	-0.050546058	-0.063673235	0.028289419	-0.043099366	0.0371233	-0.03471599	0.013926412	
0.09899386	-0.0026594987	-0.0325058	-0.099629745	-0.06370991	0.06485909	-0.052560255	-0.07943461	-0.037042603	0.021429798	
-0.025373816	-0.03299317	0.009270457	0.002969769	0.10787456	0.08782276	0.011939486	0.018245015	-0.024934154	-0.015798282	
0.059654005	0.0036299303	0.0034266138	-0.00013814466	-0.030005522	0.03462501	0.015697267	-0.032532156	0.025048753	0.03353223	
-0.083632916	-0.06279494	-0.003351502	0.09633015	-0.06671364	0.008002507	0.08954792	-0.1144371	-0.061176598	0.008062419	
-0.056282893	0.036463987	0.057425857	0.0028349455	-0.043760143	0.040055703	0.012293028	0.07284826	-0.03897385	0.07656938	
0.05603095	0.021495765	-0.085169	-0.046865128	0.11390877	0.025522226	0.034383237	0.016400674	0.08997918	-0.01403039	
-0.06474469	-0.026743257	-0.055886462	-0.06566528	-0.10526042	0.057801865	-0.01004885	0.05042924	-0.030251093	0.026727237	
0.023803262	0.002231254	0.060695056	0.05681637	-0.04648957	0.034481827	0.011313118	0.025958695	0.061191723	0.023052793	
-0.004868646	-0.089682706	0.035858907	-0.083414204	0.0011667976	-0.010196725	0.035891674	-0.043974802	0.017925011	-0.08156762	
0.015881369	0.02363282	-0.10805513	0.034788344	0.058287095	-0.014136943	0.09131497	-0.050981745	0.044049036	0.06912643	
0.061261985	0.053799592	0.0066936207	0.08610454	-0.033075865	0.023152443	-0.067870386	-0.031051194	0.06922204	0.02704886	
0.0081987	0.074321724	-0.04355996	0.06298732	-0.07306572	0.00408617	-0.05896946	-0.056079555	-0.03194277	0.024704983	
-0.0078333495	0.05005935	-0.056118846	0.12141807	-0.090407185	-0.039862283	-0.043343853	0.03274568	0.07161736	-0.041121215	
-0.059158355	0.012535205	0.04287478	0.08431549	0.023853697	0.006825803	0.057528373	-0.04348385	-0.0036215319	-0.013252593	
0.078753464	0.0072697336	0.033135395	0.052394193	0.035186265	0.0713683	0.086596124	0.0787825	-0.014382983	-0.030348012	
0.054239176	-0.10440439	0.10617104	0.06526568	-0.02786543	-0.09807379	-0.015682224	0.099269435	-0.035997085	-0.081089325	
-0.016335469	-0.0154703325	0.009120712	0.010434586	-0.030643936	-0.06848944	0.024022125	0.004259097	-0.04232439	-0.043958843	
0.017712625	-0.061264176	-0.040996682	0.07073748	-0.06131976	0.00461211	0.017197164	-0.03125979	0.08879648	-0.019641079	
0.024256578	-0.0550062	0.0064951186	-0.047289427	-0.0098795695	0.054807596	-0.068839885	0.110914685	-0.018919688	0.016551392	
0.017397854	-0.09544646	0.07323971	0.008988934	-0.12190529	0.053213384	-0.017403686	0.07513339	0.057300664	0.056846697	
-0.060781438	0.07999146	-0.0076735145	-0.030725371	-0.09605052	-0.066711836	0.022201633	0.012353687	-0.05093227	-0.047972683	
0.004561246	-0.019758252	-0.048005037	-0.011069781	-0.037689704	-0.0018317287	0.018045109	-0.059621826	-0.029087104	-0.031069135	
0.008523183	0.09130963	-0.031745277	-0.08160257	-0.10257864	-0.0017102507	0.02085431	0.011226641	0.04899105	0.011052811	
0.078686014	0.059989497	0.08564033	0.06585932	0.028942965	0.085409194	-0.018078975	0.04358545	-0.0038402562	0.06014453	
0.022060042	0.05501459	-0.0011848669	0.090372205	0.006726255	-0.08549075	-0.004023122	-0.08615423	0.04010429	0.010410224	
0.048085775	-0.029772528	0.052586764	-0.03345848	0.043931354	0.084536985	-0.11510174	-0.02923894	-0.021094829	0.08831969	
0.047969967	-0.03493666	0.019319532	0.012472597	0.040982448	0.08472367	-0.07834767	-0.012825623	0.022653265	0.006198156	
0.06533084	-0.04578417	0.066068545	-0.023371508	0.0077720163	-0.060565166	-0.10006367	0.046817023	0.050115872	-0.010673244	
0.07978574	0.06432101	-0.0065521775	0.037462775	0.0715556	0.12263743	-0.04700248	0.0341751	0.05376419	0.0023385235	
-0.00025418797	-0.025327334	-0.039305422	0.015150425	-0.03980704	-0.026909182	-0.0032152832	0.014098763	0.049715478	-0.04540215	
0.025985477	0.029991468	-0.0433988	-0.035525125	0.0966369	-0.00047784531	-0.079599634	0.046358783	0.041677244	-0.037844963	
0.005910489	-0.07304408	0.026564326	0.008683851	0.104004875	0.07779477	0.017125836	-0.05044657	0.07623152	0.03812668	
0.0673546	0.06019525	0.038235404	0.0018408967	-0.10445911	0.058575433	0.030266754	-0.06427568	0.018894851	0.025992503	
-0.060469754	-0.03751093	0.043968458	-0.03536585	-0.10920868	0.0074706445	-0.07117192	-0.047780443	-0.06538194	-0.046781715	
0.059836518	-0.036128074	0.045623247	0.09898759	0.049661163	-0.036530625	-0.0062432173	0.07051938	0.1109049	-0.02297526	
-0.051720083	-0.00794995	-0.045336973	-0.0076327077	-0.06283899	0.024785392	-0.018349797	-0.039305307	0.008045505	0.08686582	
-0.068932705	0.04003628	-0.05321911	0.0065939906	-0.09077501	-0.02475002	0.032577626	-0.035033647	0.04458564	0.05021697	
0.011752348	-0.08544131	0.07451976	-0.010712226	0.032381225	-0.05792502	0.0003396293	-0.08554288	-0.08064235	-0.043349307	
-0.102506824	0.06345033	0.020194167	0.0061267484	0.05320791	0.014161908	-0.039243657	0.04692496	0.11100578	-0.04245743	
-0.044086996	0.014689778	0.084222734	0.020310957	0.05125878	-0.041938692	0.083542936	-0.0017267555	0.00370544	-0.09219659	
-0.08626158	-0.062485076	0.06873512	-0.02546109	-0.079939194	-0.03266555	0.017460698	0.02718691	0.07009746	0.01859268	
0.08477386	0.030539842	0.03430249	-0.011712334	-0.036610205	-0.051629268	0.04198602	0.11176458	-0.0026176914	0.055574037	
0.04173431	-0.047542	-0.005234189	0.084520616	0.05894546	0.034710575	0.01600306	0.09423208	-0.013446242	0.004182452	
-0.090509035	-0.038261723	-0.05004942	-0.033374503	0.031244272	0.048171677	-0.03259986	-0.017328922	-0.019240646	-0.03731691	
0.012295921	-0.061638743	0.027765498	-0.045664787	-0.017458286	-0.109996095	0.029214539	-0.016603421	0.08083795	-0.0085972585	
-0.0020186116	0.011480495	0.043677133	0.050059043	0.033785466	0.028057694	-0.036129672	0.034156084	-0.07094437	-0.04047228	
0.02786099	-0.044377755	0.036798794	0.019952932	0.031040149	-0.064807236	0.030756582	0.06592283	-0.047558893	0.11368524	
0.0933548	-0.13769737	-0.0064683743	-0.016184302	-0.015881827	0.024852168	-0.07791832	0.108741686	-0.05252722	0.017723609	
-0.0013478729	-0.11928039	-0.0766888	0.036254335	-0.14715423	0.02896016	0.06839999	0.08816746	-0.03950234	0.1624098	
0.057419583	0.053054396	-0.08761147	-0.0066495007	-0.015906557	-0.026630655	0.05711857	0.071170084	0.08342861	-0.017359195	
0.030207919	-0.012381649	-0.029199021	-0.036467616	-0.11813798	0.037470974	-0.046044778	0.07187194	-0.068885356	0.030789861	
0.013141132	0.0020771665	-0.025244582	0.045192607	-0.03889559	-0.055490054	-0.122127265	0.08668533	0.021804959	-0.054270938	
-0.041467298	0.028807754	0.068780966	0.07463994	0.016150359	0.025161607	-0.05279669	0.026982853	-0.053129528	0.114283584	
-0.015473507	-0.03698542	0.026573429	-0.011119175	-0.013655034	0.00073526165	-0.050061136	0.12901378	0.00062121433	0.003919339	
0.065921254	0.017397624	0.022294592	0.05678609	0.025464728	0.0031410668	-0.082053624	0.038262866	0.04494927	-0.028865613	
0.14033042	0.02623044	-0.013354723	-0.00086200127	-0.009673472	-0.031134872	-0.056248426	0.0301096	0.0027053908	-0.03619801	
0.003111367	0.018429777	0.039983	0.06320602	-0.013735065	0.047912978	-0.087806076	-0.10271459	-0.08854718	-0.07453707	
-0.02605803	-0.035863724	0.044399314	0.02349131	0.073626235	-0.043943327	0.03702214	-0.039703887	-0.0016025939	-0.02952275	
0.0033119328	0.09129268	-0.038842604	-0.030579433	-0.055508036	0.002139909	0.033965968	0.03846916	0.051146347	0.03976976	
-0.039417956	0.007395488	-0.10476203	-0.065291494	0.015198525	0.07768913	-0.018743455	0.0006571819	-0.02934257	-0.087014735	
0.07132824	0.01778053	-0.03409468	-0.07214747	0.034150455	0.079288185	-0.0822338	0.06396748	0.05088533	-0.033015437	
0.078508735	0.03622103	-0.029436104	-0.023161516	0.025772328	0.0010611324	0.00956037	-0.046791658	0.05088964	0.0059727007	
-0.085619815	0.044096917	0.014644227	-0.10220479	0.030064499	0.023855187	0.03461364	0.03276405	-0.016425777	0.061965957	
0.022972096	0.06188478	-0.03817521	-0.06550287	-0.07035878	-0.044736434	0.063236855	-0.1001496	0.013268727	-0.040742587	
-0.021127027	0.074331425	0.03717475	-0.03559524	0.043887347	-0.0018114778	0.0073906393	-0.042215735	-0.013542492	0.025934765	
0.021952368	-0.018675584	-0.0214668	0.025893094	-0.07070336	-0.034480765	0.03523079	0.061111756	-0.0011442492	-0.01075985	
-0.10084686	0.06653391	-0.06163239	-0.009892555	-0.0803646	0.08849015	-0.03154751	0.033330128	-0.046874527	0.043076124	
-0.018041044	0.014872812	-0.029563127	0.0014485776	-0.04215413	-0.044367965	0.0027614394	0.076362886	0.06050928	-0.02067672	
-0.004918986	-0.03924632	0.010860167	0.06720875	-0.08902012	-0.01851068	0.06631161	0.06346868	0.013016991	-0.045912955	
-0.016487695	-0.047519647	-0.08976324	-0.043491527	-0.015765188	-0.049467716	-0.024367427	0.020564804	0.10723335	-0.03042515	
-0.029763242	0.05457423	0.059377976	-0.057461705	0.028204387	-0.013995489	-0.050174773	0.07999559	0.03365594	-0.029033873	
0.042272944	0.015037341	0.03214989	0.06721955	8.021823e-05	0.055451255	-0.03024953	0.053547464	0.027765026	-0.0208047	
0.06391447	0.016311731	-0.019776398	-0.029530337	-0.075835004	0.0071537476	-0.0024861798	0.09401325	0.015854381	-0.020661172	
-0.05417044	-0.042485703	0.001909519	-0.10012573	-0.08021231	0.10721654	0.043672208	0.07493529	0.07818218	-0.0024084372	
-0.040691547	-0.10770192	-0.10526992	0.0018527935	0.015408931	0.021921216	-0.04476707	0.07228296	-0.046981484	-0.009068854	
0.10328106	0.03229812	-0.029148381	-0.056254044	0.052716203	0.12494497	-0.054359272	0.06917665	0.0800767	0.032466915	
-0.027825441	0.06568054	-0.053623453	-0.03661871	-0.10000218	0.028133988	0.03449116	0.05505652	-0.025117936	0.09600595	
0.06659901	0.024562426	-0.05648316	-0.0387269	-0.11816369	0.056898635	0.07829753	0.1546519	-0.002777522	-0.040401597	
0.10963399	0.04843217	0.030170433	-0.06677224	-0.13065112	-0.024815397	-0.037935082	0.17932984	-0.025645828	0.018032875	
0.03809983	0.09878551	-0.027867476	0.070335396	-0.053918675	-0.008120896	-0.10031089	0.13076779	-0.14045896	-0.008994571	
0.04368944	-0.0056374846	-0.05729225	-0.03133069	0.0006300178	-0.07532779	-0.02439446	0.13206765	0.01617545	0.12261427	
0.0672931	-0.020667477	0.082214564	-0.034722943	-0.0026994825	-0.025717033	-0.18291348	0.057639897	-0.048575472	-0.057533473	
-0.034191113	-0.07957316	-0.055672117	0.029470796	-0.02262309	0.07283932	0.008575556	0.10185253	0.052723445	-0.023742294	
-0.0068721385	0.058453534	-0.06685917	-0.057561222	-0.06939182	-0.040485784	-0.021886531	0.042236518	0.073940724	-0.025881756	
0.0018277329	-0.07143569	-0.029921222	-0.071689494	0.05324547	-0.043689404	0.0047914246	-0.007898618	-0.0035531716	0.034007173	
-0.018141154	-0.09013289	-0.018716501	-0.006602714	0.06311581	0.018509524	-0.033777002	0.023194144	-0.015390839	0.07278755	
0.021846315	0.03882883	-0.0056186435	-0.084113404	0.026070572	0.004172133	-0.044914767	0.013502938	0.016820576	-0.067416675	
0.048088353	0.025164109	-0.021710647	-0.038212392	-0.01893922	0.047967244	-0.023241172	-0.09834464	-0.014534599	-0.045350075	
0.006163735	0.074339785	0.009126603	-0.015554933	-0.034399927	-0.023770835	0.010759371	-0.041690405	0.068984546	-0.017711353	
0.027364634	-0.033643667	0.03143807	-0.002849125	-0.01178393	-0.03886617	-0.013601973	-0.07464002	0.04609296	0.07275	
0.0138717	0.0033235503	-0.056896366	-0.032128286	-0.021375116	0.084895656	0.02304009	-0.014446193	-0.062453754	-0.06383604	
-0.00087081466	0.0073953997	0.089670695	0.026594125	-0.022988226	0.05647914	0.060442373	0.0041700574	-0.025145655	-0.046681847	
-0.061153032	-0.008573385	-0.01593612	-0.06305571	0.05623178	-0.0666019	-0.00091175066	0.027460925	0.040431343	0.011469793	
-0.012289917	-0.0970063	-0.015492379	-0.07207278	0.015582183	0.11308436	0.018924953	-0.03556243	0.0036241931	-0.036714	
-0.11186867	0.0134455	0.028424378	-0.048861533	-1.0972375e-05	-0.00564903	-0.058285892	0.081002906	-0.027228033	0.059623342	
-0.014678382	-0.01716559	0.07061815	0.04950466	0.07035747	-0.059446946	-0.06735765	0.024224676	-0.039558362	-0.011883579	
-0.091958836	0.049063444	0.023055093	-0.020921284	-0.00052922935	0.057754986	0.05735792	0.065344915	0.109971076	0.008927543	
-0.008822773	-0.00023060244	0.0006371051	0.0069079823	0.076395236	-0.05449936	-0.00536574	-0.008222477	-0.007653785	0.007384721	
0.042064905	-0.054778095	-0.013573374	-0.02888219	0.04753629	0.01815251	0.045800358	0.0030641784	0.021054465	0.07379746	
0.013631729	0.032105234	-0.027228607	-0.014987852	-0.02120233	0.0019967097	-0.040788926	-0.040750235	0.025256615	0.084056124	
0.044926345	0.01967613	0.029090624	-0.037190046	-0.0045270906	0.07504279	0.027138943	0.0670469	-0.036606878	0.027569547	
-0.00039795233	0.0015124175	0.012559542	-0.110340595	0.0637072	0.06441534	-0.09027778	0.05165964	0.008738467	0.051279444	
0.12990393	-0.065271206	-0.15681596	0.030475609	-0.054223206	-0.04986352	0.077157184	-0.0068344264	0.10263189	0.013815549	
0.05752001	-0.043390933	-0.11657564	-0.010958934	0.054740954	0.077509895	0.081247084	0.03699469	0.046622824	-0.09455612	
-0.037041664	0.003163923	0.045430504	0.06333248	-0.0072761043	-0.018603472	0.12913251	-0.026775805	-0.0068560904	-0.015915725	
0.025581295	0.037856776	-0.025839096	-0.06738813	-0.059182707	0.010884597	0.08255273	0.037732124	-0.006349973	0.0680927	
0.012820212	0.0823383	0.012541028	0.002021273	0.013004798	0.022168754	-0.013953431	0.065317854	0.03544324	0.023268165	
0.0068200114	0.08127525	0.0546121	0.04499111	-0.017183216	-0.010477377	-0.03763114	0.046384383	0.022150513	-0.05284741	
0.04871251	0.05209093	-0.010266084	0.08473118	0.015144309	-0.11301438	0.021991448	0.023998596	0.009326348	-0.038499467	
-0.039515685	-0.032664247	0.035580922	0.045799647	0.07286964	-0.09397748	-0.017357023	0.040657666	0.04134283	0.013455493	
0.020789372	0.073977076	0.07496413	0.08134207	-0.06634036	-0.14386989	0.0022015308	0.034651726	0.07579505	0.029967725	
-0.014832066	-0.013480589	0.089389876	-0.097645685	-0.0011088664	-0.032964993	-0.081648014	0.01936863	-0.013047258	0.03801776	
0.043868925	0.0007777376	-0.009551684	-0.04901516	-0.045665365	0.024785213	-0.015387633	0.03922396	0.090158075	-0.03883744	
-0.006310274	0.0073430915	-0.044437267	0.022584356	-0.044750035	-0.024816921	-0.095499575	0.029546572	0.07744785	0.020819353	
0.088439085	0.04848984	-0.07661641	0.013583425	0.045656733	0.057139847	-0.01961797	0.020409144	-0.039636727	-0.041492786	
0.037855573	-0.015056224	-0.09283497	0.036333453	-0.09306048	-0.007689918	0.00878559	0.041630782	0.084761836	-0.0009112257	
-0.021909157	0.090159476	0.0026877492	-0.06274346	0.027977403	0.045795448	0.043866817	-0.010684267	0.017444625	0.11053793	
-0.019419692	0.084673576	-0.04205561	-0.03880155	0.002516427	-0.028178485	0.017398551	0.09055061	0.086985655	0.010214801	
0.006665057	0.03741554	-0.0070782816	0.033696484	0.03215154	-0.045989394	-0.06808344	-0.006600799	0.005555162	-0.112306245	
0.0196319	-0.06049563	-0.051037464	0.027893277	0.07338812	0.05022545	-0.002832797	0.02535137	0.04813285	-0.07731514	
0.046470944	-0.003023208	0.011139671	0.035704277	0.035951078	-0.043308098	0.042735174	0.04080886	-0.038209256	-0.026194531	
0.0037171976	0.054528113	0.026608888	-0.06721332	0.020268265	0.03823866	-0.05590579	-0.09013492	0.00065642066	-0.03973848	
0.033428986	-0.018803228	0.00292746	0.0026111521	0.014447295	0.02485058	-0.023260256	0.008892678	-0.04640497	-0.048289698	
-0.09848833	0.05732971	-0.04347727	0.084254794	0.041477997	-0.021000555	-0.025834246	0.07377309	-0.024501907	-0.0070428657	
0.0060270997	-0.077890776	0.0065478017	0.07595392	-0.016464546	0.102770306	-0.06206181	0.00023205811	-0.010242985	-0.04634187	
-0.074073724	-0.017681062	0.014082888	-0.07796432	0.12229014	-0.0028041333	0.030092536	-0.016252434	0.060012568	0.018255182	
-0.018854069	-0.036024746	0.039708123	-0.0019588552	0.026766572	-0.09737401	0.0022139929	0.009500393	-0.0899108	0.06455882	
0.067429475	-0.012201574	-0.09120482	-0.09351928	-0.051304694	0.035115674	0.03177361	0.14080672	0.103434294	-0.019292852	
0.025669146	-0.045553345	-0.10270195	-0.065739535	0.08824286	0.094869755	0.10331551	0.023577176	-0.042333327	0.05083862	
0.009624864	-0.05559727	-0.092724614	-0.027016468	0.04865007	0.0037799862	0.021568948	0.02244496	0.057761267	0.09269953	
0.032688405	-0.027029224	-0.046597004	-0.14540604	-0.0017080925	0.063736334	-0.056585766	0.012034878	-0.050735723	0.122978	
-0.031473577	-0.035761103	-0.14820573	-0.009066815	-0.015345851	0.020447887	0.010210394	0.0058228895	0.05184654	-0.040272947	
-0.012615498	0.03204495	0.030504389	-0.06855303	-0.038063984	-0.021972787	-0.0073081413	0.010205839	0.010096865	-0.12744193	
0.016871836	0.17333332	-0.031659935	0.14128214	-0.064230904	-0.0745145	-0.071727544	0.0922536	-0.026909892	-0.05707694	
0.013135144	0.09608793	-0.05112384	0.07860241	-0.05577584	0.052335568	0.0299189	0.027769648	-0.07830719	-0.045685675	
-0.068491414	0.07032051	0.04425196	0.08194615	0.029147353	-0.13177958	-0.02003571	0.06999361	0.052233122	0.015517547	
-0.08266166	-0.048042994	0.08956163	0.097681835	-0.008869981	0.040073004	0.005599309	0.10968857	0.0061184675	-0.0581153	
-0.022305945	-0.023931604	0.09646124	0.08223361	0.102070354	-0.04730123	-0.035251852	0.05445505	0.017139755	0.10967372	
-0.018162088	-0.009624975	0.035273165	-0.04030204	-0.017882178	-0.10534116	-0.03319909	0.042675797	-0.05676351	0.016655218	
0.06012341	-0.0701498	0.062410295	0.030819153	-0.015962137	-0.07443517	0.013687787	0.053294357	0.03575309	-0.04531924	
0.05339715	-0.01641771	-0.06776506	0.058360483	0.08772581	-0.11780034	-0.12699804	-0.023998588	-0.06482698	0.084153175	
0.040203758	-0.060989995	-0.020896444	0.0018352676	-0.06676129	0.044074792	-0.098008245	0.038556017	0.026590943	-0.05459941	
0.017190527	0.015509077	0.031964682	-0.04311253	0.007870103	0.011244047	0.057772994	0.088594384	0.07440195	0.033079498	
0.021888077	0.08897831	-0.024661154	0.06715462	0.07796814	-0.09579046	0.010392593	0.005430361	-0.067872524	-0.053299457	
0.00464482	0.055632483	0.0440246	-0.037476473	0.036637682	-0.017028073	0.018346515	0.04156588	0.051429674	-0.044960734	
-0.016037866	0.027631318	0.019318316	-0.06680626	-0.09348403	-0.0670419	-0.07058267	0.005872963	0.032124538	0.03949691	
-0.03555354	-0.032767307	-0.019830873	-0.0038571232	-0.08950428	-0.012907822	-0.0060802647	-0.0498537	-0.03426057	-0.04816535	
0.022485375	-0.045225658	0.004404016	0.10857871	-0.016015338	0.04123155	0.07612817	0.068793945	-0.020191295	-0.026187742	
0.00076213334	-0.009524732	-0.056714255	0.052214127	-0.015625484	0.019162577	0.07588189	0.0040353476	-0.014586402	0.08203303	
0.09116314	-0.0090075005	0.05832306	-0.05763624	-0.044327725	-0.019613268	0.0006796677	-0.08079826	0.076024696	-0.029262776	
-0.064657256	0.07241174	0.043809604	0.025032578	0.0056944587	-0.023146622	0.027293028	0.056565624	-0.017593272	-0.05693742	
-0.07022176	0.051090527	0.10995211	-0.06407551	-0.06518793	-0.09949883	0.06529445	0.05699279	0.030857688	-0.056941025	
0.013871361	0.03536329	0.013051571	0.035761088	-0.08670133	0.026836816	0.057423294	-0.063797645	-0.017494863	0.04448007	
-0.002134705	-0.01728782	-0.009138742	-0.011408926	0.0014763749	-0.012382129	-0.038325876	0.06543023	0.017893672	0.0042090607	
0.07556359	0.040704276	-0.13164741	-0.032674894	0.06306778	0.012819991	-0.07470969	-0.063027516	0.03391139	-0.04290098	
0.065335885	0.050669137	-0.09627463	-0.06875257	0.059591107	0.037048396	-0.028159784	0.027464304	-0.021934694	0.10618774	
0.0953484	-0.024316752	-0.010231943	-0.0835687	-0.02465582	0.05435299	-0.019526588	0.034640614	0.025821658	0.0049958476	
0.0012466485	-0.024391238	-0.04903364	-0.07476396	0.08432333	0.05673048	-0.008965207	-0.06380516	0.07281827	0.043263398	
0.090934664	0.035594437	-0.063547984	-0.056545682	0.042670798	0.043059845	0.031514462	-0.00095215364	0.051903006	-0.0035245551	
-0.027203754	0.03455398	-0.07130279	0.10053227	0.014349595	0.07553552	-0.054498214	-0.056417286	0.07545246	0.04652047	
0.022862248	0.056539632	0.011228987	0.17000571	-0.023810225	0.08912387	-0.022609819	-0.097786106	0.032866728	0.0058462378	
-0.099982664	0.20400207	0.0012473463	0.1230857	-0.106777795	0.010853863	-0.02809559	-0.05808889	-0.04725769	-0.08831321	
0.023927605	0.20738564	-0.047641262	0.008270882	-0.022140346	0.01517787	-0.03959028	-0.061478976	-0.03323597	0.047477067	
-0.14512411	0.1030386	-0.1383925	0.019911906	0.05513256	-0.023213502	0.00027299792	-0.014523565	0.06854114	0.0146404095	
-0.075503804	-0.026803674	0.021890448	0.032594644	0.047551665	-0.029091988	-0.089777045	0.04257068	0.01834003	0.00559521	
-0.06505122	-0.10003326	0.022846868	-0.03154384	0.023016369	-0.14581172	-0.030726602	0.057018213	-0.00081218546	0.011083807	
0.096366785	-0.046033215	-0.09720561	-0.07346381	0.069097854	-0.07897966	0.023552641	0.027602147	0.015410775	0.024465714	
0.13068785	-0.10173939	0.018889107	-0.08120173	0.010797354	-0.045653243	-0.007304414	-0.007351731	-0.00608722	-0.050970506	
0.0948651	-0.054816294	0.017667053	-0.028853714	0.047214873	-0.12144816	-0.04316218	0.017550526	-0.09787013	-0.030593777	
0.05302282	-0.036830563	-0.028678367	-0.06482428	0.02802387	0.0895391	0.010356436	0.04210381	0.03335464	-0.031904615	
0.046003398	0.051395115	-0.0065004784	0.005932656	-0.011341617	-0.00871346	0.0737096	0.06279531	0.014798179	0.024677783	
0.06661043	-0.05560411	0.041203618	7.3826246e-05	-0.05993193	0.09491348	0.05449827	0.03583485	-0.09494909	-0.029152658	
0.0078706145	0.10360301	0.034191944	-0.019278603	-0.058764443	0.03974874	0.0012025399	0.08857134	-0.039070413	-0.048638854	
-0.041143205	0.049404077	-0.0035476165	0.0346101	0.018838326	-0.022881173	-0.036424536	0.017264314	0.010850248	-0.05408522	
-0.015443436	0.07961206	0.05201589	0.026921457	-0.009288366	0.09376045	0.09848689	-0.098926485	0.0207473	0.033984955	
-0.07160558	0.017092431	-0.0066405497	-0.035305154	0.019021554	-0.050612446	0.019594405	0.09248081	-0.06057774	0.036297724	
-0.05324317	-0.0072948523	0.10022911	0.025484774	-0.076277405	-0.032509796	0.072643615	-0.02275632	0.051763795	-0.028514393	
0.026561087	-0.024551103	-0.04881256	-0.014814955	-0.049246017	-0.040730737	0.01675189	-0.04733108	0.027673319	-0.028721517	
-0.038265727	0.055015285	0.028991366	-0.0065991827	0.06125193	-0.012006286	-0.027255045	-0.026809746	0.043255962	-0.009462037	
-0.11333971	0.059446402	-0.0043494636	-0.10635918	-0.0029820015	0.0046740426	-0.033983756	-0.005364141	-0.013506224	0.0285866	
0.023099635	0.019921357	-0.06782588	0.035837755	0.018859968	-0.002929791	-0.045067064	0.050765358	0.025756523	0.018760435	
0.07468799	0.0073540634	0.0033006559	-0.06697577	-0.018698297	-0.0030474341	-0.019563556	-0.012026742	-0.041663844	-0.059756376	
0.05347176	-0.026153913	-0.13029045	-0.044192217	0.07358517	-0.034672167	0.0036820453	0.05710524	0.05430687	0.090533815	
-0.012472368	-0.046427492	-0.090184115	0.01754249	0.11509943	-0.052477445	-0.057433695	-0.010496492	0.011324402	-0.013900199	
0.10943813	-0.022993654	-0.03781199	0.01519425	0.059336312	0.0016263596	0.015926851	-0.030061467	-0.041094102	0.05910805	
-0.04820791	-0.07651748	-0.08698783	-0.032246076	0.04341309	0.07132168	-0.025272645	0.015959762	-0.00090444245	0.028251851	
0.043540332	0.0031948355	-0.088691816	-0.06408892	0.08266106	0.01787008	0.08925867	-0.11145549	0.0021992119	-0.09824274	
0.042218465	-0.11405025	-0.14841236	0.04496962	0.08318657	0.030105533	0.062497895	0.04678073	0.06837022	-0.09571359	
-0.12960766	0.14843817	0.00017902293	0.046930805	-0.009199014	0.06511049	-0.0443792	-0.052340124	0.07216709	-0.030627197	
-0.08829685	0.20366608	-0.02153918	0.043364964	-0.020582395	0.095069826	-0.046094015	-0.033367213	0.016554989	-0.022263499	
-0.17596361	0.17498675	-0.008242149	0.0039051005	0.005394456	0.029213177	-0.06757729	-0.02281714	0.03495769	0.02606154	
-0.041780006	-0.08956925	0.02097295	0.047080785	0.013049313	0.062458362	0.092951044	0.020229796	-0.050257508	-0.039109834	
-0.15932804	-0.119598225	0.028373914	0.06823232	0.015104085	-0.10703496	-0.02278121	0.03417541	0.07694309	0.07344936	
-0.01701687	-0.011238418	0.04271218	-0.006540347	0.052970987	-0.079594485	-0.056857314	0.05394134	0.06274513	0.041443832	
0.01356694	0.019659273	-0.021230793	-0.11264702	0.058373366	-0.036924344	-0.0752032	0.11207869	-0.019552901	-0.030441664	
0.008600704	-0.023343487	0.022278208	-0.081444524	0.05948876	-0.01894236	-0.032710493	-0.018386336	0.070889175	-0.017974742	
0.020435994	-0.04939899	-0.044463307	0.0012049532	-0.06816976	-0.061010726	-0.06101617	-0.055733953	-0.0625028	-0.040377762	
0.07027289	-0.034555357	0.015296715	0.035772935	-0.0985523	-0.07361693	0.051582485	0.03562948	-0.012960051	0.04377309	
-0.00063618977	0.051159076	-0.058909334	-0.037556775	0.01764868	0.008327709	0.05398086	-0.004617272	-0.102321275	-0.115801066	
-0.020658476	-0.081240945	0.08810326	-0.021012018	-0.046171814	-0.095058	-0.053673413	0.024945613	0.059560847	0.055230007	
0.013116439	-0.032710448	0.03194642	-0.023902368	0.043620393	-0.05379153	0.025448125	0.035282794	0.04011411	-0.03425215	
0.10315893	-0.0347901	0.03924416	0.04547972	-0.016310338	-0.05212025	0.045717146	-0.059031405	0.03967592	-0.067780696	
0.09262986	-0.0045835827	0.039880887	-0.018227736	-0.03543949	0.0049044015	-0.100130424	-0.06326072	-0.08672502	0.0068244534	
0.05458928	-0.050751	0.030225914	-0.0163013	-0.005552526	0.045145847	-0.012165635	-0.049821913	-0.058642134	-0.055224814	
-0.015983805	-0.031566218	0.027064769	0.1005407	0.0130470395	0.015360869	-0.031239737	0.017785568	-0.031117674	0.08181856	
0.08224191	0.0756997	-0.032048993	0.021365816	-0.061026603	-0.04418921	-0.05691285	-0.0037471377	0.0665905	-0.060487542	
-0.018975759	0.027385585	-0.028798627	0.038335618	0.0244539	0.022279344	-0.0692253	0.05165372	-0.05053264	-0.0325052	
-0.024296073	0.029484967	-0.054930236	0.034136813	-0.0054741926	-0.08152076	0.05079899	-0.07486387	0.019256353	0.05912517	
0.027654536	0.04585015	0.015446198	0.0009697487	-0.022898907	0.08133792	0.023258451	0.104696445	-0.053118866	-0.063237794	
-0.040731683	-0.07939501	0.00496901	-0.0029445488	0.0006478438	-0.100897335	0.0027170388	0.018247042	-0.061550982	-0.032166723	
0.07567664	0.0017427176	-0.019043317	-0.077477135	0.054480266	0.043195873	0.043957412	-0.059170462	0.009822051	0.058638867	
0.15321483	-0.044841148	-0.06808857	-0.053708386	0.11422949	0.07122236	0.010405084	-0.087412074	-0.14496788	-0.0054094675	
0.00981726	-0.030998625	-0.03812046	-0.04892983	0.12073117	0.08056966	0.08166377	-0.06833379	-0.07770777	-0.016258154	
0.06337256	-0.041513603	-0.018081458	-0.0026136725	-0.028395526	-0.0059368247	-0.001494509	-0.010338078	-0.055264354	0.0032012716	
0.071818344	-0.06126674	-0.0012881061	0.096193515	0.025158433	0.021225259	0.07691263	-0.068690054	0.023108225	0.013528832	
-0.054961484	0.01991467	-0.039970785	-0.04199505	-0.042676345	-0.05067423	-0.060116705	-0.12942636	0.028338173	0.029124783	
-0.11390869	0.1325562	0.018695032	-0.03490585	-0.06993899	0.018903716	-0.010207436	-0.11423835	0.04788836	-0.030357853	
-0.1384405	0.13814296	-0.018985188	0.010874507	-0.097444735	-0.03031129	-0.007891078	-0.06255846	0.07682817	0.11608155	
-0.15223697	0.08997564	0.0075198356	-0.055540174	0.060998857	-0.054161284	-0.030124148	-0.021689788	-0.006309941	0.047375057	
-0.08604707	0.06317352	-0.095447406	-0.06708978	0.13306376	-0.09895246	-0.01801782	0.004919624	0.020203069	0.05408692	
-0.11125107	-0.078839585	-0.052597906	0.05978877	0.0299577	-0.07817004	0.036569875	0.03463101	-0.07528486	0.11792761	
-0.024918819	-0.07806772	-0.031887475	-0.018346878	0.102745704	-0.041203894	-0.033033036	0.058347214	0.0070547066	-0.041042317	
0.030745542	-0.063151814	0.053826276	0.040568702	0.049235176	-0.044424582	-0.012670678	0.07109698	-0.00450315	-0.0045716404	
0.02534207	-0.021194708	-0.026022281	-0.0037088937	-0.012922319	0.0021409874	0.032396678	-0.014108453	-0.06533107	-0.064283535	
0.07697405	-0.055023458	-0.020684374	-0.08273225	-0.0075267735	-0.056728926	0.005305024	-0.04793227	-0.12133617	-0.01252293	
0.0016090847	-0.035526462	0.056265563	-0.06560432	0.050303858	-0.030635206	0.025725411	-0.023798753	-0.0338846	-0.009939543	
0.12506257	0.0120678	0.03484386	-0.0062638368	-0.026112998	0.061142955	0.03161128	0.008238701	0.005046669	-0.08629396	
0.0018921245	-0.04070169	-0.041860633	-0.03749909	-0.001365526	0.013068802	0.067138255	-0.060140267	-0.014642765	-0.053119257	
-0.06840123	0.07061476	0.0028796475	-0.025776356	-0.099711046	-0.049162116	0.02149776	0.029495666	0.021004606	-0.09754839	
0.11128848	-0.038438175	-0.013458144	-0.049194627	0.094966	-0.07208782	-0.012569532	0.038326927	-0.09920079	-0.039866254	
0.027508931	0.03326367	0.044260114	0.026710872	-0.0017372839	0.083232805	0.0675899	-0.011599032	0.024682203	0.010298311	
-0.0043095793	-0.040072963	-0.044183984	-0.0064810095	0.0035063813	-0.06658697	0.004628016	0.07513074	0.057908844	-0.05200361	
-0.065403104	-0.031603172	-0.02649848	0.07551537	-0.08267285	0.07628975	0.005555637	0.055330947	0.0019474224	0.027431823	
-0.049948953	-0.009793073	0.050935786	0.0007036078	-0.0151857985	-0.058522116	0.07465903	0.07691813	0.04056438	0.033065304	
-0.040927663	0.097815	0.013000582	0.048154097	-0.029644717	0.04674831	0.096835576	0.04853727	0.015442988	0.04266058	
0.017102182	-0.0040206495	-0.058593307	-0.04059533	-0.104751244	0.04515672	-0.036161076	0.08547849	0.050104912	0.095529124	
0.093956135	0.010703698	-0.044146642	0.030929971	0.04435213	-0.02275149	0.01729144	-0.0125620905	-0.021619065	-0.059854634	
-0.044025976	0.029566484	-0.06862831	-0.04770572	0.043551024	-0.021769552	0.039123226	-0.1003682	-2.9589533e-05	0.045319498	
-0.011897134	-0.08298962	0.0007834646	-0.04029204	0.028131818	-0.0051503675	-0.030963132	-0.04653549	-0.030970562	0.0028521102	
0.025643013	-0.09299801	-0.04513711	-0.037500296	0.062420364	-0.0070446837	0.029518867	-0.008486607	-0.097115576	0.08221685	
0.049656026	-0.0054072486	-0.07698909	-0.045729045	0.028594887	0.04942169	0.15371248	0.027223028	0.001634148	0.054860957	
-0.0134045575	-0.09860496	-0.039249916	-0.060176384	0.10124266	0.11216361	0.010522236	-0.025456054	0.028037397	-0.02925996	
-0.035089403	-0.013438151	0.082565926	0.021113973	0.104419276	0.045702133	0.007890323	-0.0043866313	-0.02070447	0.14749812	
-0.086402625	0.038882993	0.0036172508	-0.02940788	0.107142046	-0.060841016	0.005872747	-0.16432716	0.099743396	0.023036767	
-0.11367241	0.122759424	-0.034900267	0.015611895	0.019538276	-0.0016785115	-0.03406756	-0.039250895	0.0440704	-0.08937581	
-0.074439086	0.09039232	-0.021084003	-0.045656893	0.046727594	-0.106923245	-0.0045786896	-0.039961554	0.0327737	0.012846627	
-0.06407988	-0.05027105	0.003928632	-0.04760966	0.025987746	0.061714288	-0.0030947947	-0.01204276	0.062329844	-0.005084129	
-0.05041625	-0.04187744	-0.10215277	-0.033885315	0.030062327	-0.06962739	0.07921127	0.03827214	-0.038873915	0.09257799	
-0.05046603	-0.08222864	0.05427799	0.017310986	0.027391465	-0.055339843	-0.06335036	0.011660601	-0.024814831	0.042051066	
-0.0879074	-0.026133878	0.06258726	0.042897478	-0.029588468	-0.041005097	-0.03301497	-0.04663803	-0.020459244	-0.006233207	
0.0018167297	-0.08549793	-0.08587236	0.09831867	0.03425037	0.021878708	0.020463705	0.0016682626	-0.048420012	-0.037456833	
0.10996622	-0.08300554	-0.041759137	0.045627877	-0.074321605	-0.02822293	0.051536746	0.009234138	0.00034534544	-0.062157605	
0.04238186	-0.010537042	-0.0068992605	-0.011007333	-0.0008444394	-0.063751675	0.025306607	0.048376963	-0.037045855	-0.11481281	
0.07264992	-0.02550977	-0.023806764	0.00062897004	-0.054953925	0.004055483	0.013330511	-0.08588515	-0.029609224	-0.052561324	
0.050521538	0.036107924	-0.07830793	0.034176346	0.08370686	-0.059126463	-0.010991282	0.009273214	-0.11728468	-0.044091318	
0.009091344	-0.052183058	-0.09393527	0.014861358	-0.10805587	0.0547685	0.0062791393	-0.01979722	-0.05292065	-0.05519682	
0.007076161	-0.03233448	-0.053897165	-0.032780282	-0.0032564544	-0.018072708	0.07104109	0.00778929	0.04058466	0.04986988	
0.028554875	-0.10553299	0.024196027	-0.06574289	0.035145067	-0.026585186	-0.03431415	0.081690155	0.02401264	0.023177087	
-0.055355895	0.033929814	-0.02136086	-0.036441356	0.0580405	0.067974776	0.061474387	0.026156368	0.059237495	0.026242148	
0.05676478	-0.076700784	0.005891799	-0.051272858	-0.10123563	0.011670534	0.03610231	0.042787965	-0.053272806	-0.032700587	
-0.026428603	-0.01359906	0.085297175	0.0540818	0.034418017	0.1013577	-0.0022824872	-0.00967935	-0.06229115	0.044785425	
-0.10918519	-0.03776645	0.08082913	-0.07348528	0.07528211	0.035329197	-0.0840425	0.071366295	-0.008930503	0.113555975	
0.06453718	-0.07791923	-0.021390839	-0.036995027	-0.07298471	0.020755911	0.104397275	0.034997188	-0.018401798	-0.020644205	
-0.021270318	0.059970252	0.0458015	-0.03189875	0.0077580176	0.022173291	-0.0047003906	-0.03984846	0.011111695	-0.058295187	
-0.013100268	-0.010631309	-0.058584314	0.03029012	-0.041155886	0.023269141	0.045405123	-0.033542737	-0.009460461	-0.067933805	
0.034630023	-0.038182594	-0.006915159	-0.022584867	0.051421475	0.042818137	-0.062168073	-0.07350885	-0.07732655	0.041581895	
0.024794595	-0.046355136	-0.017527469	-0.009937159	0.009369311	-0.12718068	-0.038232718	-0.06354557	-0.049673535	0.07559772	
-0.03517289	-0.029926697	-0.010858534	-0.041112	-0.034962945	0.03467531	0.13159318	-0.07916855	-0.017383201	-0.0017119976	
-0.018053204	0.014415618	0.0029313287	-0.06315116	0.04822674	-0.09508136	0.043198988	-0.072429724	-0.005629608	0.009939809	
0.014437164	0.049073394	-0.036749166	-0.049646977	0.04990478	-0.10559041	0.0176833	0.024548776	0.013897692	0.076633304	
-0.021105293	-0.00012401596	-0.0102161635	-0.069708094	0.09602331	0.01067111	0.0017786111	-0.018174289	0.06780594	0.03715524	
-0.058276806	-0.017214978	0.037004825	-0.036632106	0.022127224	-0.025078516	0.06197048	-0.08312499	0.056060616	-0.06697666	
-0.1746127	0.04107403	-0.014839837	-0.102770545	0.12755719	-0.019674607	0.077899	0.003747406	0.05261655	-0.03882948	
-0.1201725	0.1362824	0.115796305	-0.052300528	0.035229474	-0.072238736	-0.008749927	-0.08473463	-0.04893467	-0.07352599	
-0.095671274	0.03308938	0.015195916	0.011363938	0.083614826	-0.012687711	-0.07825428	-0.06543882	0.050768495	0.02162884	
-0.02518875	-0.07118451	0.11561719	-0.009937276	0.04514345	0.074152656	-0.06541806	0.05824652	-0.006787409	-0.028205715	
0.020629467	-0.08160571	0.09465661	0.011085626	0.09749064	-0.031853814	0.05733071	0.05790459	-0.04162612	-0.01758218	
0.02093983	-0.06666659	0.03945925	-0.0108061	0.059382424	0.014818967	-0.017015299	0.07313464	-0.050519995	-0.0013731403	
0.0465839	-0.004229771	0.07031522	0.062411234	0.09989806	-0.029022865	0.09849829	-0.04190802	-0.023359304	-0.04870518	
0.07288877	-0.06231339	0.03244863	0.046483524	-0.024726061	0.056198023	0.07548757	-0.020603765	-0.051492415	-0.032738727	
0.017800016	-0.07322135	0.040978797	0.029321186	-0.10699121	-0.024046674	0.08617904	-0.019723432	0.01759782	-0.010655074	
0.020611245	-0.037098397	-0.021024944	-0.04446146	0.023981228	0.032359853	0.053905223	-0.0040460248	0.03702612	-0.044937856	
-0.045345157	0.06180428	0.025609992	-0.028225904	-0.016995456	-0.06920827	0.046663444	0.010959889	0.070113905	0.0006930858	
-0.01808886	-0.013268406	0.04965738	0.04205364	-0.03117117	-0.065368496	0.04749198	-0.058340237	-0.02776047	0.025308141	
-0.050875563	-0.068477236	-0.013782161	-0.021075314	-0.06748301	0.09513232	0.014075742	-0.07122775	-0.01769911	-0.030030593	
0.025698775	0.014989419	0.023962999	-0.01463563	0.018480536	0.030682035	0.08725677	-0.00035020043	-0.040283937	0.0076862457	
0.08352355	0.015328043	-0.035490826	0.015122725	-0.07059144	0.060759757	0.06535096	0.023435015	-0.07509283	0.09927746	
0.062349092	-0.013425781	-0.070837945	0.054692708	0.07715699	0.03336298	0.0025144692	0.0031121247	-0.028785393	0.06149856	
0.0050314814	0.070360914	0.031438828	-0.026257046	-0.004358074	0.1092594	0.0004498303	0.086873695	-0.05729503	-0.07223852	
-0.05630233	0.0095465435	-0.0046344805	-0.025384229	-0.008842879	-0.005312138	-0.017179573	0.016641073	0.062189735	-0.055116225	
0.051938646	-0.06722039	-0.047184166	-0.03796535	0.026565708	0.101216435	0.100275695	-0.036319084	0.013451207	-0.06007067	
0.0035426922	-0.018987993	0.025619464	-0.075572364	0.026937848	-0.0703583	-0.06187059	-0.0028832161	-0.058284637	0.07562406	
0.020377617	-0.020822376	-0.00085622957	0.014869475	0.03583511	-0.058245704	-0.040739406	-0.04645927	0.03068965	-0.021635395	
0.061587352	-0.008087542	0.10025708	0.06335519	0.03874082	-0.000599317	0.04548726	0.013210765	0.07560436	0.03974238	
0.0467445	-0.07145305	-0.0026085218	-0.050139226	0.044052757	0.0050266627	-0.014274873	-0.0032732845	-0.010156745	-0.041058253	
0.024899421	-0.12071642	0.036576044	-0.034347985	-0.067820564	-0.051521152	0.06243197	-0.020095492	-0.059294604	0.0016136415	
0.027903821	-0.08139385	-0.027431073	-0.0088652065	0.042504616	-0.10251151	0.04737895	-0.06398882	-0.047082964	-0.038514156	
-0.022427637	-0.05309132	0.094376266	-0.07501469	0.0031972697	-0.03190191	0.12676185	-0.1255293	0.035540618	-0.010438839	
0.017920006	0.09458375	0.09911307	-0.1584975	-0.036355205	0.025969043	0.070810005	-0.05157398	0.047085386	-0.07198499	
-0.09673294	0.053390753	0.13181578	-0.075117745	0.053815704	-0.10850496	-0.014142617	-0.12035866	0.037753846	-0.072363414	
0.0064881775	0.13971674	0.09245374	-0.120516345	0.09544646	-0.01410065	-0.015666932	-0.08058114	-0.013013289	-0.011842314	
-0.021925006	0.11706937	0.09099043	0.0017013685	-0.0076341284	-0.027202686	0.0148332305	-0.06775434	0.050269328	-0.025489284	
-0.01262428	-0.04370086	0.00722297	0.03446279	-0.03490852	-0.0171074	-0.0017644871	0.05249636	-0.11079903	0.080729306	
-0.09116507	0.027730264	-0.045544308	-0.018216796	0.051246904	-0.04613647	-0.008389277	0.14758195	-0.10297471	0.0463944	
0.044609472	0.034005765	0.07725167	-0.016813783	0.044901617	0.0939117	0.033340305	0.07729574	-0.05177837	0.13191544	
-0.0397266	-0.14339736	0.090246975	0.012753305	0.12681246	-0.028503273	0.10245682	-0.047654055	-0.065138444	0.012643788	
-0.039565325	-0.05863893	-0.0048231543	0.06676716	-0.054264612	0.012617019	-0.030992135	-0.0715404	-0.009486891	-0.05801958	
-0.011156444	-0.009934082	0.037693907	0.04907154	-0.005958709	0.020556595	0.001291892	-0.07672924	0.029423686	-0.041789934	
0.09087728	0.01117475	-0.0306842	0.035623588	0.03899504	0.05644904	-0.03359204	0.011112806	-0.013654392	-0.024702316	
0.043447126	-0.07882688	-0.020184647	0.04311418	-0.03106153	-0.036057122	0.0751629	-0.027525557	0.005562548	-0.06039178	
0.08714548	0.017217023	-0.01233946	-0.0012605787	-0.066423	-0.0016082277	-0.01652714	-0.01540184	0.083824806	0.057456158	
0.026351985	0.005101954	0.047283962	-0.016832117	0.0016816376	-0.082014844	-0.10653125	-0.073073335	0.010287516	-0.04735318	
0.079012446	-0.07834349	0.028113363	-0.08774392	-0.057993732	-0.059111975	0.053208027	0.01088263	-0.033363532	-0.005087497	
-0.09564189	0.03791261	0.09607901	0.081311874	0.041681856	-0.040492013	0.10396801	0.03429252	0.026844997	0.07842031	
-0.07693544	-0.10317352	-0.084421985	-0.00729388	-0.05761158	0.05842037	-0.01477832	0.025847143	-0.0318089	0.11305405	
-0.03456681	-0.014556927	-0.030272573	-0.056645606	-0.025623038	-0.031241508	0.08547336	0.04596671	0.05042793	0.025277002	
0.032661192	-0.06178235	0.031980507	0.03254649	0.032960694	-0.059731547	0.027380077	-0.08605426	0.03550471	-0.012589433	
-0.03655752	0.014488103	0.055423785	-0.055013213	-0.034500614	0.059269797	-0.017511081	0.08402443	-0.039776687	-0.0024895053	
0.020466767	-0.064486764	0.04413924	0.07860445	-0.01119796	0.04193071	0.10041166	0.053487375	-0.013199209	-0.07298451	
0.0010032583	-0.078303516	-0.0437613	0.06912157	-0.011088933	-0.03705661	-0.065534614	-0.009804941	-0.08844978	0.05973184	
-0.010559679	0.04795091	-0.05924732	-0.06345068	-0.05881958	0.031915467	0.08363951	-0.015126958	-0.06191533	-0.050119918	
0.065562814	-0.008614958	0.11551943	-0.03747243	0.03860087	0.03581042	0.0133652715	-0.018600047	-0.013024315	-0.05739896	
0.14932826	-0.024934879	0.007442915	-0.039922066	0.0067693256	-0.018246718	-0.0069245985	-0.05906963	0.06714982	-0.046799716	
0.05303728	-0.0025784823	0.0056241206	-0.1285939	-0.061737925	-0.04457169	0.07329854	-0.0011903844	0.019501155	-0.072399735	
-0.025611565	0.02846109	0.058732435	-0.11816283	-0.004753131	-0.1325743	0.054707095	-0.045705568	-0.009066181	-0.05006949	
0.0022896116	-0.013268093	-0.04656561	-0.003091159	-0.08107094	-0.056297358	0.022855908	-0.12093698	0.046716638	0.01815898	
-0.047886785	-0.002718448	0.1404609	0.039701957	-0.073392875	-0.06331502	0.089929864	-0.016442213	0.124075666	-0.024867557	
-0.12378274	0.05557927	-0.060069818	-0.027149212	-0.08360566	-0.01324279	-0.011318876	0.022913508	0.057644166	0.035563238	
-0.0416945	0.07074684	0.05698455	-0.1693524	0.059535682	-0.08839428	0.0037822023	0.028127076	-0.05638913	-0.025116544	
-0.13382176	0.052283067	0.058628757	-0.04630611	0.08001594	-0.096494064	0.03873519	0.059814427	0.03426455	0.025250986	
-0.07072621	0.076283395	-0.049944162	0.014301374	0.07059322	0.008189196	-0.0015550979	-0.034344446	-0.07110268	0.12829307	
-0.09508111	0.0074817906	0.0655608	-0.116602294	-0.05354295	0.050847113	0.10647656	0.07096791	0.048933465	0.11384227	
0.038901735	0.0037952182	0.1031278	0.057698335	0.034488425	0.05784494	0.06394525	-0.08413655	0.049755305	-0.033420328	
0.044745184	-0.07969329	0.057614323	0.12335842	-0.030790076	0.03350789	0.15467359	0.03592918	0.05275211	0.037613165	
0.07971283	-0.12742932	-0.044130888	0.060967013	0.028357543	0.073546275	0.09027561	0.057728633	0.01022372	0.005120989	
-0.051810347	0.028447494	0.009466866	-0.05962177	0.062482942	-0.061964758	0.051225055	0.01120754	0.00239971	-0.0075610303	
-0.032200217	-0.07749691	0.043327343	0.04573769	-0.07658825	0.004605938	0.09101127	0.016825225	0.0764211	0.0015018175	
0.101719424	-0.08827111	0.06599547	-0.06492369	-0.01265806	0.021448975	9.790854e-05	0.037606888	-0.06260942	0.035356104	
-0.012497564	-0.019052977	0.059998725	-0.0132268425	-0.00010327687	-0.07107394	-0.09256514	0.003533521	-0.019331917	0.045139976	
0.042123426	-0.019610785	-0.029177858	0.029598383	0.008775251	-0.0871783	0.09970725	0.0028354095	-0.025037836	-0.024118755	
0.034808576	0.0637414	0.010859966	-0.018900685	-0.10975867	0.012229517	0.06042823	-0.032446668	-0.0018690808	-0.021883955	
-0.0048144907	0.054833245	0.026095856	-0.0034559069	-0.029153485	-0.03349115	0.033238687	-0.051619984	0.11058184	0.018597335	
0.037458304	0.051086936	0.03307392	0.0013631524	0.0043718247	0.02804652	-0.045377854	-0.009028559	0.037075657	0.04716639	
0.015335362	0.017602528	0.051140122	-0.04153284	-0.012118853	0.06007761	-0.058234535	-0.009886822	-0.014863954	0.08568669	
0.026068842	-0.07175792	0.021976445	0.013531722	-0.006064981	0.03553167	0.028885042	-0.058188606	0.058616042	0.012504875	
0.05471183	0.021505764	-0.01702617	0.0396191	-0.0016936981	0.005071584	0.042556584	-0.020409178	0.04629607	-0.034593765	
0.07565865	-0.055065047	-0.015548838	0.03213598	-0.05139622	-0.049499646	0.032703113	0.04828573	0.012887542	-0.0160667	
0.07571845	-0.0341518	0.04180934	0.06131166	-0.007502865	0.0835078	-0.0683691	-0.040147286	-0.088875495	-0.08145437	
0.0204779	-0.006604414	-0.04595585	0.017482359	0.06671481	0.009196299	-0.12182309	0.012241532	-0.021670992	-0.12586522	
0.09237734	0.0086187655	0.050951045	-0.07570338	0.024743624	0.12214868	-0.018214773	-0.02988603	0.04107961	-0.051828437	
0.13993832	-0.020224066	0.08333355	-0.019664146	0.06591782	0.08382257	0.00095835957	-0.023325473	0.090652764	0.001617844	
0.063597135	0.0008833663	0.07492643	-0.07952756	-0.0027041698	0.044322345	-0.04788208	-0.07995027	-0.03118068	-0.060499214	
-0.021881947	-0.010191168	0.02472907	0.060532287	-0.03931208	-0.12301076	0.043425646	-0.08631562	0.0072646993	-0.083415926	
-0.028240407	-0.023458323	0.05858088	0.025129052	-0.005257285	0.033875056	0.03130736	0.02734108	0.1484461	-0.018902471	
-0.07915959	0.085219435	-0.04628899	-0.031239241	-0.08771064	0.016473059	0.088550374	-0.0040666778	-0.02200812	-0.086625226	
-0.033127956	0.061089136	-0.021952251	-0.08358658	-0.0056798365	-0.003959394	0.1120731	-0.042034417	0.05232224	-0.06293652	
-0.06576258	0.15630834	0.10802161	0.010612063	0.05189698	-0.050076332	0.049378645	0.031934675	-0.13179314	-0.035035215	
-0.0061233295	0.064094245	0.01817601	0.0076104333	0.075222485	0.040142834	-0.039820198	0.0911512	-0.029510377	-0.014498707	
-0.00022014159	0.07564107	0.055634663	0.069072545	0.02548022	-0.053670667	0.057999235	-0.038744874	-0.09713507	-0.03654929	
0.006208588	-0.076919705	-0.006716877	0.04308737	0.0914011	-0.0721681	-0.05784902	-0.096246384	0.011963614	-0.033926748	
0.09293479	-0.123901606	0.07666129	-0.0865954	0.029610911	0.09953332	-0.045280356	-0.017025383	-0.02268577	-0.08318	
0.004378832	0.025600461	-0.013310269	0.091415115	-0.04850029	0.032014556	0.027605735	-0.023360476	-0.04389455	-0.037710287	
0.02770681	-0.017806543	0.03134061	0.0445399	0.032677237	-0.045380548	0.07660972	0.06208971	-0.103788264	-0.040789444	
0.013456638	-0.04030283	0.0701275	-0.023133337	0.004823663	-0.00055104785	-0.047153175	-0.007919682	-0.03162615	0.008882149	
-0.023828534	-0.055227272	-0.06212008	-0.045439973	-0.06892604	-0.022374421	0.008277017	-0.0016982768	0.02077651	-0.027242938	
-0.06956275	-0.05633747	0.029327758	0.061734263	-0.011645559	-0.09525752	0.015436562	0.005424812	-0.004308978	-0.07449617	
0.037410557	-0.04642654	0.046718568	-0.0014035235	0.047047764	0.083022416	0.024653506	0.052298643	-0.0060029146	-0.03956408	
0.0009248655	0.06189523	0.078273684	-0.029357705	0.044166528	-0.005695997	0.021397905	0.012014068	0.054908473	-0.055950098	
-0.05619549	-0.027274048	0.06747344	-0.012377911	0.008291992	-0.024004597	0.032150656	-0.101371884	-0.09009003	0.017103367	
0.032894302	0.016918696	-0.019970052	-0.008929558	-0.01128661	-0.011823395	-0.06470911	0.030119935	-0.056020256	-0.08205857	
-0.07350525	0.038903523	0.058558814	-0.030677866	0.06368067	-0.028769458	0.09563382	0.09835887	-0.054857366	0.019921103	
0.036092497	-0.06687852	-0.015954707	0.04649179	-0.04330338	-0.05808449	-0.023737144	0.004279535	0.08607207	0.10661435	
0.03441623	0.07497882	0.024065772	0.07409391	0.07101831	0.010622063	0.052185055	-0.012145939	-0.035417695	0.024552455	
-0.090433404	0.06386782	-0.05347646	0.05192756	0.087416634	0.021335164	0.032086737	-0.011195386	-0.07880654	0.022089249	
-0.044355497	-0.0092171095	-0.027363198	0.11207823	-0.022228489	-0.0728953	-0.022803595	-0.10122758	-0.00761538	0.021758066	
0.008295173	0.008550525	-0.026670638	0.014885232	-0.08386372	-0.10314715	-0.04082088	0.014208545	-0.11732981	0.082552865	
0.00031245267	0.009937925	-0.04309919	-0.052093174	-0.0037619614	0.01022561	0.07118858	-0.065152794	-0.005961504	0.006815678	
0.031275675	-0.017744955	0.12855859	0.09341637	-0.07110877	0.1261935	0.011865628	0.04986099	0.020386107	0.07545975	
0.08631915	-0.026829578	0.022262419	0.029058127	-0.112609014	-0.0481474	0.011429161	-0.07957373	0.032027926	-0.03090669	
0.1383472	0.09421872	0.07431602	-0.0025778248	0.046040267	0.016908178	0.04483233	0.002575071	-0.06750323	0.033010237	
-0.019306358	0.0089345705	0.03538985	-0.039971735	-0.08637761	0.057558727	0.047334693	0.0051034787	0.018477509	0.037102986	
0.062011167	-0.0070645283	0.0410115	-0.038538978	-0.06511697	0.02318497	0.028811634	0.039040882	0.07356397	-0.09357581	
-0.017028768	0.061197866	0.11418494	-0.07797598	-0.0013902256	-0.012750084	0.054586597	-0.07354124	0.015961893	-0.053721145	
0.0728285	0.08600527	0.0419952	-0.11300292	-0.03433628	-0.055286527	0.09437975	0.010400464	-0.10463139	-0.06955965	
-0.05930809	-0.03897457	-0.029115548	0.06643076	-0.026372587	-0.098791465	0.15495162	0.012160812	0.011180137	0.08972866	
0.03957674	0.03138059	0.04059896	-0.016606286	-0.09588819	-0.082625486	0.06167725	0.11218532	-0.017468622	-0.071845055	
0.02196403	-0.08720754	0.037519578	-0.009344507	-0.058898576	-0.0040536583	0.005130186	0.08827317	-0.009166097	-0.08741327	
0.03849774	-0.024818543	-0.037425913	-0.023924634	-0.056852937	-0.04718378	0.11665287	-0.039851002	-0.07352138	0.019490685	
-0.067727804	-0.026521156	-0.0009263134	-0.0069986354	-0.02534292	0.07378535	-0.021955846	-0.04299781	0.006609428	-0.04115723	
0.10411956	-0.027529912	-0.06410149	0.083937086	0.037966188	0.021203067	-0.023722652	-0.053276278	-0.024804955	0.024726408	
-0.039706998	0.03029906	0.0048506595	0.02897378	0.06984925	0.10500906	0.08163016	-0.121613696	-0.09787783	-0.027820682	
-0.0042215735	-0.09539427	0.09006035	-0.04872318	-0.107666574	-0.014774512	-0.010356483	-0.06322746	-0.013111937	-0.017281333	
-0.014542167	0.0024587756	0.086879514	0.027619412	0.10546593	0.10024462	-0.04807052	0.032297906	-0.009984845	-0.013283526	
0.09917328	-0.087661095	-0.051879305	-0.007818707	-0.023705788	0.027024068	-0.11344786	-0.09440088	0.08345763	-0.091922134	
0.11221295	-0.013138249	-0.029494848	-0.0063085984	0.023031436	-0.010685069	-0.078910574	0.051763415	0.010329912	0.015068995	
-0.04152396	-0.035996553	-0.07852294	0.03640897	-0.048753157	0.009109244	-0.10449871	0.0145511	0.10775828	0.029752959	
0.041449383	-0.00759603	-0.0041246256	0.034951612	-0.04745535	-0.06982759	-0.040499467	0.025357537	0.047335163	0.024379289	
-0.01422241	0.0077590095	0.013430143	0.091522016	0.00039863927	0.060144894	0.014769727	0.015547071	0.09209113	0.07453661	
0.0738978	0.038551215	-0.019788621	-0.018491002	-0.021329239	-0.007733355	-0.04985997	0.0043585165	0.03544788	0.048916496	
-0.071160875	-0.019588122	-0.0074469144	-0.009511717	-0.043473773	0.006405827	-0.042771976	-0.053887386	0.012987612	-0.0009242476	
0.026847947	0.060742795	0.09280612	0.090002336	0.048259236	-0.0036718068	0.02535164	-0.010551318	-0.05719033	0.036690008	
0.035312112	-0.06530095	-0.07432652	-0.01365596	0.049022168	0.028204668	-0.10825325	0.007752287	-0.023348376	-0.0053572883	
-0.054383777	-0.0036114848	0.03269907	-0.058593694	0.054233618	-0.082310595	0.025162328	0.023183346	0.08053987	0.009973285	
-0.03271027	0.09284112	-0.019540336	0.07791365	-0.06639438	0.02037053	-0.032686893	0.05487695	-0.034747038	0.08765877	
0.09702817	0.025660947	-0.02721087	0.09040108	-0.020370856	-0.013475951	0.03568151	-0.060764376	-0.006840037	0.021078315	
-0.056156885	-0.019327415	0.019659506	0.051141478	0.042626973	0.018401682	0.019541582	-0.0018215341	-0.02185387	-0.11749193	
0.07303348	-0.07229415	0.094955064	-0.036712658	0.028017297	0.07983487	-0.10793049	-0.03115219	0.04395314	-0.10040396	
0.03039717	-0.024390085	0.036827352	0.032663867	-0.01315219	0.07473714	0.04648107	-0.015891619	-0.05836832	-0.08297391	
0.07581028	0.032660484	0.11851677	0.024255782	-0.1458328	0.09468164	0.0034293537	-0.11525198	0.061656483	6.917805e-05	
0.10345082	-0.0861661	-0.024193961	0.0075736903	-0.061813388	0.08399216	-0.037242576	-0.049534366	-0.08166242	-0.048433833	
-0.014173775	-0.06487593	0.070719965	-0.06816632	-0.030380633	0.039653625	0.073292136	0.02969645	-0.018708559	0.011178591	
0.028991057	0.0075347517	0.008709717	-0.09329552	0.012809861	-0.07401729	0.06823676	-0.08296223	0.0733691	-0.027808188	
-0.082767315	0.09273658	-0.10702439	-0.015986746	-0.015102814	-0.03456847	-0.005723989	0.06846805	0.009653711	-0.03412796	
-0.042062633	0.06928338	-0.06441738	0.025671372	0.007884762	0.048908114	-0.0049920618	-0.018362805	-0.0114803985	0.09112865	
0.012733008	0.047923394	0.04867246	0.10410886	0.0016119636	-0.004127207	-0.013656861	0.030791627	-0.038827848	-0.05022033	
0.009792235	-0.111114964	0.04856961	-0.031336546	0.039494272	-0.044654414	0.020239139	-0.0015815425	0.02114667	0.030814404	
0.046902087	-0.056627616	-0.036291543	0.04555389	-0.007386687	0.017526584	-0.01248594	0.017910289	0.029096914	0.012542922	
0.043195453	0.06249302	0.056613136	0.13013783	0.013346591	0.082112774	-0.05923661	-0.051037215	-0.0200297	-0.021674836	
-0.09819012	-0.0052079237	-0.07504922	0.058897562	0.015127603	0.064250655	-0.012479816	-0.03079228	-0.030808799	0.04598228	
-0.08156732	0.019931199	0.033646137	0.03222855	0.019728072	0.005178993	-0.09786315	0.06798231	0.004836759	-0.02006863	
-0.07064524	0.07941827	0.0636912	-0.04004417	-0.030289302	-0.010415944	0.003317121	-0.030160222	-0.06664627	-0.016198594	
-0.054687336	0.05595864	-0.027943442	-0.007788622	-0.039695226	-0.04427421	-0.08049763	0.049140096	0.004718195	-0.0034741394	
0.013099096	-0.10208892	0.11126161	0.032082904	-0.08273126	0.05539963	0.014241637	-0.020183498	-0.090500206	0.07171854	
-0.036683403	0.08651033	0.067879684	-0.014385855	0.033316884	0.055140853	-0.025102265	-0.08673729	-0.04873207	-0.06966437	
0.07070552	-0.0034145867	0.029697353	0.090768345	0.034320105	0.020432644	-0.0143622905	0.016581468	0.017555146	-0.02575735	
0.007135164	-0.073389485	-0.056247327	0.007855858	-0.052563183	-0.043302245	-0.0798038	0.015155394	0.043546405	0.038071066	
-0.03737499	-0.049139228	-0.109687164	0.021860939	-0.012813714	0.072052725	0.04372354	-0.058549818	0.047317866	-0.072743155	
-0.019785337	-0.05417783	-0.0076092808	0.0019596892	0.0025848926	0.10951279	0.10157524	-0.036467567	-2.542858e-05	0.04083926	
-0.055187006	0.107662275	0.018583832	0.05637014	0.042625595	-0.04508269	-0.008191391	0.02016822	0.032133464	-0.022159936	
0.021520436	0.06980195	0.027358787	-0.052938204	0.025454212	0.04126284	0.0016625011	-0.10467029	0.10626156	0.031332225	
0.038970307	0.074816525	-0.0054422277	0.00860219	-0.05901771	-0.06814367	0.11228116	-0.026528057	-0.0023195439	-0.008189951	
-0.029702075	0.04125557	-0.020647665	-0.00683638	-0.020694524	0.06408513	-0.02582131	0.037376095	-0.03506933	0.0552686	
0.08685243	-0.03179484	0.036028896	0.043670833	-0.040439464	0.058240853	-0.09241895	0.017275805	-0.045518264	-0.09145946	
0.053736974	0.0086726295	0.07316124	0.006425498	-0.12566537	-0.06790604	-0.08668209	0.0091158785	0.028396714	-0.006962785	
0.068405956	-0.025822584	0.055590227	0.05145037	-0.04686013	0.09285724	-0.11056153	0.018091004	0.05214442	-0.0104531115	
0.06707299	-0.017426943	0.088827044	0.15844758	-0.04967386	-0.0007290844	-0.083779395	-0.021096438	0.089544944	-0.06426446	
0.043707002	-0.023797635	-0.073639855	0.06477518	0.050533887	-0.025040142	-0.014519707	-0.055746283	0.040496323	-0.10367676	
0.09523313	0.06521726	-0.017319312	0.053578738	-0.051029105	0.09504884	-0.055208314	0.0037240256	0.03697317	-0.0025611282	
0.062223893	-0.058652163	0.02807607	0.008216102	0.008218877	0.06812346	0.03800259	-0.026401913	0.029572507	0.031438224	
0.05210326	-0.044378452	-0.04040998	0.09017309	-0.03794913	0.026453566	0.018778056	-0.07357345	0.11632306	0.056768183	
0.056330394	-0.02266545	-0.08496646	0.015034221	-0.09108056	0.11826463	-0.034533262	0.005171442	-0.0042907116	-0.036499396	
-0.0555879	0.047554184	-0.037492268	0.019457769	-0.049731303	0.078663416	0.012193843	-0.004069358	0.123361155	0.01397688	
-0.018848602	-0.023148198	-0.033325773	0.029791282	0.034268446	-0.026253963	0.020685088	0.055838518	0.059398144	0.05610203	
0.0055014347	-0.09709422	0.0034771618	0.054135624	-0.054971203	-0.03244795	0.029672284	0.022150813	-0.008457428	-0.049224906	
0.033466455	0.03609633	-0.09144624	0.015205452	0.06803404	0.037091047	-0.069723085	-0.005795745	-0.011596632	-0.099678844	
-0.037366897	-0.029470885	0.09004983	-0.018782316	0.047343176	0.0602708	-0.053500973	0.009556781	0.061188832	-0.031354282	
-0.037664138	0.008166956	0.053392794	0.07619989	-0.02772687	-0.008224544	0.017137904	-0.03753559	-0.040943667	0.0239553	
-0.037181765	0.0056432504	0.043483377	0.062037297	-0.052298628	-0.01713529	0.048296712	0.05914011	0.015550734	0.014453047	
0.02727953	0.041878108	0.037256848	-0.03509173	-0.09608647	-0.011798772	0.07691617	-0.036548745	0.037410904	0.025593508	
0.01991552	-0.09566008	-0.04692825	-0.01664412	0.0044936463	0.05279866	-0.08186561	-0.039250594	-0.021371404	-0.054060586	
-0.08947866	0.008670498	0.120686226	0.055250518	-0.03653744	-0.04115067	0.07992034	-0.06184823	0.075081356	-0.04702439	
-0.015775586	0.020567235	0.11000949	-0.076698214	-0.06764468	0.027482484	-0.058532946	0.007441228	-0.005640274	-0.05611905	
-0.019140353	-0.05387719	0.044420913	-0.0015349635	0.028364759	-0.017656429	-0.065021254	-0.05720402	0.005205505	0.03145901	
0.11397632	0.08576391	-0.04477674	0.0012572767	0.033573635	-0.014687287	-0.021823647	0.03343353	0.029179681	0.028508564	
-0.10277998	0.011625248	-0.031525318	-0.012382317	0.0034100977	-0.07786533	-0.058250636	-0.007411855	0.022613807	-0.0075073573	
0.057626206	-0.094907604	0.027360743	-0.06725972	0.022363478	-0.039417416	0.066322215	0.08104581	0.042964216	-0.029549856	
-0.029646145	-0.058085777	-0.09508442	-0.080071114	-0.07024904	-0.015783407	0.001299444	-0.00913276	0.082917675	0.0239281	
0.020543586	0.048815496	0.016849631	-0.031042539	0.018161222	0.066603504	-0.02957225	0.011588736	-0.025941325	-0.03801746	
-0.013671489	-0.080258794	-0.024293581	-0.043881204	0.06741047	-0.057951063	0.046168294	0.040236212	-0.0069672107	-0.040941484	
0.029308887	0.04402469	-0.04817584	0.061213892	0.07991527	0.060713578	-0.0008650891	-0.008632108	-0.012904155	0.026437739	
-0.056701303	0.0010739604	0.023956012	0.045743894	0.019654615	0.03143612	-0.030662637	0.023028681	-0.0012862681	0.021366477	
-0.030060492	-0.0027712618	-0.004178154	0.05409136	-0.058997564	0.013650351	-0.05056362	-0.03079614	0.001484279	-0.03139904	
0.03508499	0.0034340643	-0.11372943	0.062905535	0.031779088	-0.04661719	-0.016999861	-0.057142194	-0.0021735048	0.06764806	
0.018197678	0.06623841	0.08237697	0.11340863	-0.073215015	0.0134433005	-0.009264948	-0.013786973	-0.057595342	-0.13020562	
-0.012013065	0.008504474	0.04382295	0.042110287	0.049043655	-0.010176664	-0.014216491	-0.094805285	0.054283205	-0.07758753	
0.0038809732	0.013406273	-0.10543779	0.0043492643	0.07519917	0.031801082	0.024358815	0.00902803	0.12587227	0.0017599867	
0.06834074	-0.048243985	-0.028482227	0.029524203	0.05794888	0.03914122	-0.112316355	0.027113607	0.021139557	-0.009548305	
-0.008964665	0.07049216	-0.09064528	0.06789665	-0.0666614	0.09590822	-0.122334935	-0.074235745	0.039090864	-0.012564031	
0.009100415	0.06441313	0.0072464515	0.043696813	-0.0049850526	0.06699078	-0.06747194	0.06908705	0.13500623	0.058126315	
0.047498252	-0.0069112377	-0.063260324	0.07989154	-0.017197933	0.05928456	-0.12943366	-0.017417686	0.030134333	-0.038591474	
-0.01585986	0.024168532	0.026694769	-0.022866465	-0.010386381	0.0063366457	-0.0022009348	-0.10186805	0.020723084	-0.044937007	
-0.023381915	0.0030618687	-0.052356508	0.044870704	-0.020626165	-0.027315862	-0.08271733	0.043992482	-0.021436078	-0.014938186	
0.052625813	-0.05788357	-0.036117613	0.058342695	-0.0010113264	-0.035569392	-0.028430838	0.007847817	-0.036290113	0.09971205	
-0.015890209	-0.03459985	-0.051733553	0.0504424	-0.020258082	0.04649871	0.046998832	-0.10100661	0.058615986	0.04860983	
0.09680095	-0.056213196	0.11110534	0.032562755	0.080408566	0.030748153	0.01832819	0.004015382	-0.07060977	0.041222937	
-0.050170343	-0.05623619	0.0081995055	-0.0011575059	0.074371755	0.046466514	-0.04591063	-0.083555564	-0.073380746	0.030591708	
0.02583462	0.103209905	0.049398534	-0.03642619	0.045856528	-0.07606587	0.035283793	-0.030388571	-0.0148567865	-0.09794324	
0.015390291	0.088239126	-0.0637572	0.035215817	-0.016083337	0.06742501	0.0073787444	0.027061345	0.037377875	-0.014201659	
-0.006518859	-0.0066908924	-0.005999975	-0.051419586	0.013735011	0.017386515	-0.0029914794	0.06781537	-0.024418952	0.016364418	
-0.07128827	-0.068631984	-0.001588007	0.0481519	0.050825097	-0.010847966	-0.04926415	0.02003287	0.021488832	-0.00861638	
-0.064011216	0.09474614	-0.021685509	0.042681403	0.005156009	0.005744284	0.10858298	-0.11273885	-0.015975041	-0.010779365	
0.068943806	0.10622212	0.07124286	-0.01645412	-0.086796254	0.0069683767	-0.0520373	-0.0016555812	-0.0023107862	-0.04145589	
-0.04883961	0.02457608	-0.10190608	0.03171099	-0.030946318	-0.058367714	-0.07856083	0.046527684	-0.10706559	0.035430003	
-0.015216859	0.08033641	0.060815718	-0.06283163	0.014791555	0.019129643	-0.04721988	-0.0039690044	-0.080366485	-0.0017030032	
-0.00232095	-0.05836992	-0.008883538	0.029545827	-0.09765029	0.03616547	0.015301015	-0.080856875	-0.03342303	-0.08764173	
-0.028397119	-0.01625625	0.020511817	0.038600378	0.024360176	-0.066888414	-0.020572247	-0.06486856	-0.028393924	-0.09161294	
-0.03137493	0.020584652	-0.0039953357	-0.025126947	0.053384073	-0.018295845	-0.0229159	-0.09744857	0.013669287	0.028530495	
-0.0294497	-0.027128143	-0.004771282	-0.020703698	-0.11259439	-0.016031729	-0.031970035	0.02920933	-0.08342995	-0.03304839	
-0.019194562	-0.019761184	0.068575725	0.0001021252	-0.0024849751	-0.015396972	0.022770936	-0.05475899	-0.023285806	0.075535774	
0.08632462	0.0077354484	0.013822819	0.021539915	0.014019794	-0.043238938	-0.043744758	-0.030085832	0.0005344748	-0.027634077	
-0.038901728	0.039300326	-0.029728588	0.027598804	-0.046813767	0.034895375	0.043607574	0.008238807	0.025916055	-0.043315712	
-0.009891491	0.03924971	-0.006983603	-0.09029025	0.0025533973	-0.0032360854	0.064146645	0.0043407134	-0.011174899	0.0059058033	
-0.050792295	0.095110685	-0.11380557	0.066019304	0.03241219	-0.019961586	0.014480185	0.0018024517	0.023770949	0.06029601	
0.023934191	-0.05288182	-0.07738141	0.021122022	-0.012635069	-0.010838916	-0.102927506	0.07683959	-0.027023181	0.078917265	
-0.0025452375	0.0054354584	-0.09614902	-0.004376285	-0.0026161561	0.021378616	-0.0076391767	0.0629321	0.079345636	-0.06101658	
0.06613786	-0.1245864	0.0025749488	0.053315245	0.080829665	0.05236799	-0.023534955	-0.011239936	0.11183646	-0.036429252	
0.036456205	-0.07769628	0.026048582	0.061185207	0.03590996	0.020380769	-0.05000558	0.08497003	0.0392469	0.017827505	
-0.04283485	-0.016713737	-0.05601763	-0.013823697	-0.009421222	0.01633168	-0.006143936	-0.03646643	0.017163029	0.10392196	
-0.030291222	0.032547645	0.07109674	0.004964768	0.062253673	0.11014274	0.0016723683	0.04392035	0.0370677	0.051919356	
0.03565343	-0.04524036	-0.036055226	-0.028525742	0.027522197	-0.035948023	0.021344565	-0.0099406885	0.07644307	0.06864864	
0.060437795	0.08650359	0.049723912	0.003774127	0.038237497	0.020845717	-0.057806496	0.0012693084	-0.006039198	0.08272275	
-0.04538029	-0.049376145	-0.09061941	-0.00619152	0.013786398	-0.02651962	-0.024265748	0.040063184	0.018534308	0.02368444	
0.009457489	0.08221906	0.009789737	-0.06694994	-0.057879843	0.0036935322	0.070744075	0.06159595	-0.00010542389	0.030463366	
0.014788298	0.032254446	-0.08814099	-0.051121287	-0.017601227	-0.043141887	-0.0690796	0.022120217	0.05286521	-0.06336505	
0.028756715	0.03736012	0.03988243	0.05976268	-0.010685641	0.007008803	-0.027221687	0.021363739	0.001364904	-0.029378712	
0.059880503	0.066142924	0.023939587	0.05882087	-0.066591464	0.03186433	0.0861739	-0.00014379244	0.027233275	-0.030620512	
0.033877257	0.027684998	-0.029376699	-0.0092715975	0.019862108	0.05213746	0.07877121	-0.016935732	-0.022419622	-0.0083784815	
-0.037639212	0.017922278	0.06245919	-0.067431875	0.028498203	0.0856077	-0.03816996	-0.09174049	0.032215912	-0.017513765	
-0.034838416	-0.026068006	-0.023873648	0.04058505	0.03488066	0.006460998	-0.06856696	-0.09223869	-0.05158541	-0.028164983	
-0.013507985	-0.062085614	0.101317964	-0.054997083	-0.014005963	-0.08307392	0.027202915	0.032325562	-0.112167545	-0.038904987	
-0.0126519725	-0.028921468	-0.013717953	-0.02455939	-0.033090487	0.10584258	-0.064299956	0.055882208	0.03480261	0.00894448	
-0.007958148	0.040626578	0.0055519943	-0.061285224	-0.016815275	-0.00059533125	0.061866008	0.036662128	0.05841574	0.05300402	
-6.8264504e-05	0.024278374	-0.09177039	0.03204513	0.07108665	0.05159821	0.045845397	0.023344554	-0.03893137	-0.07275249	
0.025343455	0.002919888	0.05044708	-0.08997276	0.074263096	-0.03118294	0.0075555355	0.02601595	-0.0022855992	-0.06503376	
-0.030294573	-0.021985067	-0.00020046381	-0.05974003	0.078708954	-0.07773288	0.022076769	-0.016723512	0.046734765	0.018585067	
-0.03796277	0.0026328084	-0.029603045	0.040373776	-0.012566561	-0.09887581	-0.02404359	0.060231265	-0.008701833	-0.038090624	
-0.010608946	0.098038256	0.0009486677	-0.010456238	0.007518354	0.09227023	0.07606406	0.020352948	-0.11318065	0.07796205	
-0.013114435	0.017678397	-0.032793287	-0.038254637	-0.082916446	-0.107225776	-0.049011875	0.043437842	0.019497145	0.005596796	
0.028610455	-0.10458278	0.021926112	-0.0037415542	0.024121799	-0.016432712	0.026242655	-0.005393679	0.030455226	-0.10552069	
0.038884405	-0.05463006	-0.040855203	0.028998896	-0.06957652	-0.03491609	0.04110669	-0.052540667	0.041443802	-0.02299744	
-0.0029842753	0.022542085	-0.0690545	-0.0016820519	-0.111450955	-0.06589655	-0.022104586	0.03258742	0.043691	-0.03330879	
0.07919221	-0.00044095097	0.054628946	-0.025683757	0.009622966	-0.0151287895	0.074641846	0.05138498	-0.004343638	0.02829135	
0.022238748	0.0033677688	-0.028147325	-0.043453816	0.002603972	-0.026348522	0.01673296	0.054977696	-0.06864383	0.010858307	
0.035350617	0.018270347	-0.028307782	-0.090344526	0.036766853	-0.036825046	-0.06474159	-0.038542632	0.03698118	-0.023103973	
0.0005313116	-0.030919947	-0.114379525	0.0029798734	-0.017459232	0.0618002	0.050857324	0.05966281	-0.008596504	0.021662042	
-0.0744122	0.031514008	-0.06858094	0.01848081	-0.06567644	-0.00420891	0.034680996	0.007513556	0.061853953	-0.036355574	
-0.008398902	-0.040589686	0.017168239	-0.05534492	-0.024897613	0.06904178	-0.10430344	-0.01142882	-0.091993466	0.01751189	
0.07587703	0.051490404	-0.086610444	-0.0037330303	-0.036061022	0.0011632493	-0.013088686	-0.052886218	0.011962604	0.08935172	
0.022052411	-0.0940854	0.014452041	-0.083500996	0.10182243	-0.06405141	-0.10280935	0.03369421	0.072986275	-0.005173653	
-0.00364364	-0.08663696	-0.09687712	-0.054549772	0.047569543	-0.04715589	-0.0324107	-0.03158272	-0.06982655	-0.07139224	
-0.087810025	0.1015884	-0.01017981	0.09893146	0.08992832	0.058777276	-0.026996816	0.065508194	-0.049428403	-0.03352422	
0.013588964	0.02211719	0.101961024	-0.01738867	0.03605563	-0.040416952	-0.009414052	-0.005950197	0.058198158	-0.049058277	
-7.556144e-05	0.029870737	-0.030804422	-0.024040073	0.006552394	0.05514649	-0.05056756	-0.045945246	-0.05003768	0.06879991	
0.0833335	0.025012532	0.062006973	-0.06327464	0.0041903933	-0.019106256	-0.011736237	0.051412124	0.05371653	0.022511452	
0.048042838	0.033170126	-0.04166839	-0.009493551	-0.0016426321	-0.012953123	0.013062589	0.009479632	-0.0046609496	-0.05111166	
-0.036072254	-0.059148613	0.032502893	0.015195296	-0.050739594	0.04146567	0.07373964	0.011807298	0.018831266	-0.012857017	
-0.07502128	-0.012067978	0.07710362	-0.04475146	-0.022210749	0.049285006	-0.075795	-0.025853692	0.058276728	0.0070602437	
0.021193437	-0.05538597	-0.03848718	-0.0035107587	-0.07674947	0.018251836	0.027655205	0.053788014	0.025258753	0.012149335	
0.04610282	-0.05716253	0.025198428	0.06151066	-0.011163478	0.013629901	0.073711514	-0.04410694	-0.011313971	-0.023092557	
0.038245775	-0.05667975	-0.008821681	-0.05717433	-0.10791626	-0.024215423	-0.055870675	-0.011171377	-0.011050141	-0.014494165	
-0.034669317	0.0032296702	0.0012278236	0.097089715	-0.009702128	0.08525595	0.007327183	0.104019694	0.010348674	-0.0073288428	
-0.009473395	-0.044489536	0.10449313	0.007862683	-0.090249866	-0.06811247	-0.0484449	0.055606086	0.054641988	0.076423235	
-0.020394564	0.07413607	0.036776457	0.010363868	0.08679701	-0.00032499456	-0.05907399	-0.01976316	-0.02209734	0.03903192	
0.047108147	0.02100626	0.06660123	0.05516345	-0.039720964	-0.026860949	-0.010817105	-0.0618846	0.04845041	-0.035210945	
0.02987025	0.038375925	-0.10106256	0.048098233	0.008828445	-0.051798455	-0.054174654	0.0080546485	-0.029555863	0.0005502903	
-0.030261805	-0.025052655	-0.07277628	-0.0462762	-0.09132336	-0.010459484	0.023895716	-0.0809311	-0.040011585	-0.00517501	
0.011010271	0.056211066	0.009962971	0.00070534984	0.04445772	-0.061724816	-0.015608	0.0014999063	0.04967568	-0.102526136	
-0.087477684	0.014687309	0.0038204314	-0.049179345	0.04907559	-0.07788514	0.044112094	0.029896466	0.023432232	-0.02893961	
-0.10529468	0.04218585	-0.10873207	0.0012027635	-0.007993184	0.04529389	0.014375703	-0.0046193483	-0.055376414	0.104532294	
-0.07289047	0.01420344	-0.107123286	0.07055871	-0.04554902	-0.008051228	0.012331984	-0.012092035	0.045748062	0.023532191	
0.005979859	0.04489651	-0.010536222	0.0081918305	0.07589725	-0.043886516	-0.06610876	-0.008802309	-0.04220003	-0.047763508	
-0.025203662	0.023454364	-0.019126473	0.022897165	-0.023483522	0.0030449005	-0.038197555	-0.030267624	-0.080385044	-0.045474123	
-0.1039362	0.006890182	-0.047942452	-0.03239994	-0.07186264	0.031860933	-0.061512716	-0.015683392	0.0025218243	0.037761163	
-0.022514326	-0.064241536	0.00829905	-0.0033601853	-0.05958442	-0.0968127	0.032791846	-0.01952307	-0.027407048	0.012627358	
-0.08995897	-0.07195447	-0.0040140525	0.08035354	0.013033	0.062920295	-0.004425905	-0.021312073	-0.037918456	-0.039596755	
-0.030167451	-0.070144445	-0.05517737	0.011544257	-0.08590362	-0.0059502595	0.004050587	0.041005526	0.060093053	0.009177318	
-0.0017296994	0.060317434	-0.022856511	-0.032913417	-0.076040275	-0.0012907996	0.0294836	-0.05367406	-0.009412719	0.040141366	
0.0456546	-0.006684404	-0.019772695	-0.04134645	-0.0074727866	0.027942473	0.019252788	0.00491459	0.0064668576	-0.009537219	
-0.11364396	0.023956964	0.0058602304	0.00087174884	0.018329678	-0.026761414	-0.03520008	0.07121621	-0.042040456	-0.0062486697	
0.0067221955	-0.06124444	-0.08262868	-0.044160455	0.053573832	-0.048548914	-0.025499862	0.06196331	-0.02171915	0.049483173	
-0.015783276	-0.011527515	0.0061656926	0.053148236	0.04585427	-0.0209054	-0.052970592	0.089726254	0.07142224	0.028935822	
0.020791864	-0.007110443	-0.033131722	0.044224128	-0.03255002	0.06686659	-0.004482903	0.06076177	0.027339017	0.023473497	
-0.047583476	-0.09368526	0.029844504	-0.05713792	-0.046248928	0.027865527	0.022502426	-0.040962294	-0.0208591	0.03472877	
-0.0346264	-0.035868645	-0.034996357	0.0016267061	0.07443128	0.031166434	0.008267075	-0.05987782	0.011570982	-0.072490096	
0.03391588	0.100077115	-0.01785716	-0.059487537	-0.06111557	-0.108679496	-0.044881724	0.024941135	-0.0036995334	-0.11005844	
0.08728834	0.027201766	-0.044615224	-0.028401898	-0.064550176	0.045690168	-0.10697531	0.016242055	-0.011625683	0.013502464	
0.033514477	-0.01636771	-0.005969262	0.037205487	0.024939459	-0.026908994	-0.029782113	0.037035838	0.024392046	-0.060609926	
-0.028840331	-0.034019135	-0.019048927	0.04746414	0.016735734	-0.04101664	0.04216643	0.01480962	0.0991697	0.06813434	
-0.07555531	-0.00029625537	-0.0018312999	-0.030955007	0.099974796	0.05180831	0.060698703	-0.056932103	-1.8839577e-05	0.004876904	
-0.10975932	-0.045199037	-0.021724619	-0.028217142	-0.044638734	0.010020662	-0.030355796	0.03464543	0.03009794	0.007507666	
-0.08728902	0.021768421	0.041467983	0.064445786	0.050824024	0.04822958	0.042414647	0.009911194	0.014516229	-0.033691604	
0.00041566615	0.11092314	0.06555729	0.09198398	0.04803976	0.030295866	-0.01568838	0.017522937	-0.01050045	0.035922367	
-0.05162522	0.019545564	-0.03250177	-0.015918734	0.016920423	0.023139602	-0.020402243	0.05646711	0.07116616	-0.02405052	
0.0054230615	0.0008393309	0.013438414	0.019830914	-0.035909396	0.03926874	-0.027603243	-0.046438612	0.042902954	-0.0115148295	
0.052305356	0.05100288	-0.014786409	0.008007427	-0.00848353	-0.0357227	0.077741124	-0.06601403	0.06544785	0.038827702	
0.018582247	0.031087535	-0.053581607	0.08197704	0.0056599327	0.036327943	-0.006206591	-0.019242385	0.03949269	-0.07621256	
-0.033297434	-0.037784617	0.0051516076	-0.036735076	0.03853312	0.020677842	0.06395328	-0.026155503	-0.049330465	0.10735207	
-0.035290167	0.060182482	-0.027207892	0.07468588	0.040090315	0.01895499	-0.04115457	-0.010480569	-0.07832653	0.052714966	
0.031247515	-0.003399237	0.03269508	-0.03197512	-0.083377816	-0.02930789	0.037063237	0.018626029	-0.058101594	0.019429581	
-0.041232962	-0.10654797	0.08409722	0.04028934	0.05349832	0.025041124	-0.007681502	0.11218356	-0.060080983	-0.050546475	
0.095487766	-0.09147022	-0.040784337	-0.063018195	-0.036245793	-0.05849702	-0.04582918	0.067437306	0.007047233	0.0158354	
0.062006608	0.078049935	0.035014946	0.035459153	-0.05278099	-0.022747502	-0.031087339	-0.04349527	-0.016959716	0.04277566	
0.06675544	-0.00080722896	0.082280956	0.03270741	0.01536618	0.049634427	-0.031212926	0.020754136	-0.033103105	-0.078966394	
-0.002944774	0.031181062	0.016168226	-0.061691884	-0.021416347	0.056576744	-0.026202116	0.009609052	0.04566921	0.04849735	
-0.03910926	-0.059557572	0.020613143	0.021729333	0.008821452	-0.06844233	-0.08068456	0.013089455	-0.022294762	-0.054533657	
0.055068985	-0.026223727	-0.007954379	0.024677211	0.077695936	-0.06467719	0.047191016	-0.009427752	-0.046717074	0.085652895	
-0.06388059	-0.0064998576	-0.02483982	0.00044359465	0.054340344	-0.0033689225	0.023374528	0.05728051	-0.0725101	-0.044629507	
-0.056771725	-0.06871059	-0.015113927	0.021213174	-0.07972891	-0.078776285	0.089651495	0.053698443	0.07210155	-0.007403814	
-0.06566382	-0.070619665	0.035081446	0.055292945	0.032550618	0.015349615	-0.10469112	0.09045227	0.023479033	-0.013480238	
-0.048907716	-0.04094263	-0.017376347	0.0610098	0.023458239	0.07671091	0.003118592	-0.065647356	-0.0078087063	-0.05875778	
-0.023868825	-0.00012690511	-0.042859785	0.0035615289	-0.08760139	-0.05458902	0.004872718	0.04928431	-0.040701784	0.09398538	
0.05528775	-0.106542125	-0.0007535049	0.063323036	-0.04602407	-0.06790845	0.0911559	0.098766685	0.058483247	-0.009471255	
0.043029178	-0.023757935	-0.0048078913	0.006221135	0.090227045	0.11183481	-0.084509596	0.042973757	-0.093752004	-0.073042355	
0.09940777	0.07013234	-0.008419058	0.06375128	0.038185667	-0.059584558	-0.016670601	-0.04000275	0.03882133	0.001841796	
-0.022307023	0.0035063562	-0.06583533	0.015684733	0.0054036058	0.04125401	-0.064196736	-0.010935028	-0.014319823	-0.050474953	
***0.1***
--------------------------------------------------
0.0009024707	-0.09072517	0.0059107626	0.046315566	-0.0012214618	0.006737086	-0.00031940296	-0.00826168	-0.0026933218	0.0587515	
-0.022876682	0.006843852	0.045574922	-0.07793668	-0.031092277	-0.007436676	0.01849827	0.013766553	0.079014786	0.053395696	
0.055161458	-0.07387604	-0.030072004	0.055852182	0.050535616	0.04208237	-0.06477568	-0.10909413	0.069481894	-0.062132537	
-0.030236429	0.04776835	-0.055124316	0.032351945	-0.073109545	-0.008928335	-0.048407376	-0.04369037	-0.06434536	-0.023704048	
-0.080023475	0.05188744	0.070146754	0.018516656	-0.041329157	0.019550262	0.02385157	-0.029473986	0.054761603	0.017324163	
0.0036620246	0.03297941	-0.10063511	-0.010177545	-0.027643649	0.041783657	-0.052986886	-0.018718282	-0.017579857	0.085226335	
-0.08362882	0.05493527	0.03565802	0.056755826	0.04671748	0.04318154	-0.03812198	0.104945	-0.031472433	0.06570989	
0.09618123	-0.018584177	0.021491665	0.018112862	-0.047193483	-0.081165925	-0.046791587	-0.04579082	0.029082222	0.01914837	
0.025105642	0.03561281	-0.0038341158	0.08121278	-0.01993954	-0.067577265	0.021740168	0.009159934	0.04159899	-0.00090744166	
-0.014275232	0.042454988	0.00662324	-0.01154738	0.05538532	-0.0499724	0.03812226	-0.0045396523	0.037482247	-0.04114738	
0.07520628	0.010117934	-0.019214183	-0.0020434414	-0.05655265	0.042305022	-0.04310673	0.07713576	-0.041442137	-0.035822526	
-0.050281476	-0.02343245	0.04892008	-0.022021597	-0.0690745	-0.06069391	0.030687204	0.05552446	-0.049806498	-0.03964346	
-0.02578148	-0.043888442	-0.01116927	0.10356553	0.027998077	0.0618737	-0.018094767	-0.031332377	-0.0049439725	-0.01641269	
0.02234495	0.043533947	0.03462582	0.023843948	-0.07237135	0.06740593	0.047724072	0.046111096	-0.08913438	-0.041796338	
0.038486972	0.0025547142	0.0024189723	-0.053971704	0.09699734	-0.093656525	0.06469976	-0.049530476	0.060582045	-0.05489588	
-0.040810723	-0.09664006	0.037733942	0.04236634	-0.020751704	-0.03142356	0.03373814	0.052408446	0.033667445	-0.10147974	
-0.075716846	0.04417969	-0.021370994	0.09043187	-0.047503315	-0.035079435	-0.03289308	0.0038742772	0.00903913	0.073583566	
-0.0038813832	0.021026246	-0.010882807	0.037906576	0.00038969464	-0.035162177	-0.07526409	0.0059105125	0.026092872	0.06525821	
-0.024861451	0.027123595	0.0062440448	-0.007071952	-0.049017243	-0.088512905	-0.06228542	0.026371397	-0.001537889	0.003683487	
-0.023990713	0.009960154	0.016981319	-0.077576704	0.062095217	-0.016007941	-0.0067361672	-0.014435578	-0.06524647	-0.0677612	
0.013296831	0.10081024	-0.008367928	-0.03745615	0.019726772	0.012136452	-0.03908587	0.035020802	0.06480513	-0.046084937	
0.046058632	-0.07081137	-0.05684595	0.00077024515	0.04862824	0.005800582	-0.0047955005	-0.060937718	-0.022196416	-0.010548849	
0.04112537	0.09178141	0.028027624	-0.047401007	-0.03130487	0.06746992	-0.022471996	-0.046617888	0.04770298	-0.026808372	
0.013912771	0.03942458	-0.013139416	-0.081586875	-0.04672928	0.07453396	-0.049713966	-0.091458976	0.038515292	-0.043584045	
0.006311517	-0.086476	0.0139785865	0.032215483	0.06098069	0.029960608	0.00040908938	-0.026050534	-0.10407922	-0.057225373	
-0.09838443	-0.008093047	0.085818626	-0.014126898	0.03498889	-0.00037755427	-0.021758892	0.012508509	-0.022473622	0.028158298	
0.040890943	-0.09766956	0.01484608	0.0029703302	0.031876262	0.049966633	-0.0009236528	0.03518676	-0.036501266	0.024829514	
0.057734106	0.044570025	0.011350722	0.020707455	0.036255173	-0.04324384	0.039528742	-0.09616916	-0.004199827	0.07880018	
-0.077776805	0.036629636	-0.04319673	-0.07074213	0.065535516	-0.055986423	-0.0032474673	0.04350816	-0.012485072	0.07620624	
