0.0009024706	-0.09072516	0.005910761	0.04631557	-0.0012214619	0.006737085	-0.00031940299	-0.00826168	-0.0026933216	0.058751505	
-0.022876682	0.0068438514	0.04557492	-0.07793667	-0.031092273	-0.007436676	0.018498268	0.013766554	0.07901479	0.0533957	
0.05516145	-0.07387604	-0.030071998	0.055852175	0.05053562	0.04208237	-0.06477568	-0.109094106	0.069481894	-0.062132545	
-0.030236425	0.04776834	-0.05512432	0.03235195	-0.07310955	-0.008928336	-0.048407365	-0.04369036	-0.06434536	-0.023704043	
-0.08002347	0.051887438	0.07014675	0.018516654	-0.041329153	0.019550264	0.023851564	-0.029473986	0.0547616	0.01732416	
0.0036620242	0.032979414	-0.1006351	-0.010177546	-0.027643643	0.041783653	-0.052986894	-0.01871828	-0.017579855	0.08522633	
-0.08362881	0.054935258	0.03565802	0.056755822	0.046717472	0.043181535	-0.03812198	0.10494498	-0.031472433	0.06570989	
0.09618122	-0.018584173	0.021491664	0.01811286	-0.04719349	-0.08116593	-0.046791587	-0.045790814	0.029082226	0.019148368	
0.025105638	0.03561281	-0.003834115	0.081212774	-0.019939538	-0.067577265	0.021740165	0.009159933	0.041598987	-0.0009074417	
-0.014275231	0.04245498	0.0066232397	-0.011547379	0.05538531	-0.04997239	0.038122255	-0.0045396523	0.037482247	-0.041147377	
0.07520628	0.010117933	-0.019214183	-0.0020434414	-0.056552656	0.042305015	-0.043106727	0.07713575	-0.041442133	-0.035822522	
-0.05028148	-0.02343245	0.048920076	-0.022021595	-0.0690745	-0.060693894	0.030687198	0.055524454	-0.049806494	-0.039643463	
-0.025780309	-0.043886892	-0.011165952	0.103568524	0.028001191	0.06187571	-0.01811428	-0.031330764	-0.0049421457	-0.016410809	
0.022348717	0.043538503	0.0346113	0.023852853	-0.07235877	0.06741118	0.047684476	0.04611589	-0.0891268	-0.041789673	
0.038488302	0.002556031	0.0023947349	-0.053969152	0.09700372	-0.09365559	0.064703256	-0.049529064	0.06058603	-0.054893047	
-0.04081067	-0.096640006	0.037732933	0.04236645	-0.020751433	-0.031423517	0.03373829	0.052408494	0.033667605	-0.10147962	
-0.07571684	0.04417969	-0.021370992	0.09043186	-0.047503304	-0.03507943	-0.032893084	0.003874278	0.009039131	0.07358356	
-0.003881383	0.021026243	-0.010882805	0.037906576	0.00038969456	-0.035162177	-0.07526409	0.0059105116	0.026092876	0.06525822	
-0.02486145	0.027123597	0.0062440448	-0.0070719514	-0.049017232	-0.088512905	-0.06228542	0.026371397	-0.0015378889	0.0036834874	
-0.023990711	0.009960152	0.016981319	-0.0775767	0.062095225	-0.016007943	-0.0067361677	-0.014435576	-0.06524648	-0.06776119	
0.013296832	0.100810215	-0.008367929	-0.037456147	0.019726768	0.012136451	-0.03908586	0.035020802	0.06480512	-0.04608494	
0.046058632	-0.07081136	-0.056845944	0.00077024504	0.04862825	0.0058005815	-0.0047955	-0.060937706	-0.022196412	-0.010548848	
0.041125372	0.091781415	0.02802762	-0.047401004	-0.031304866	0.06746991	-0.022471994	-0.04661788	0.047702976	-0.02680837	
0.013912768	0.03942458	-0.013139417	-0.08158687	-0.046729278	0.07453396	-0.049713966	-0.091458976	0.03851529	-0.043584038	
0.0063115167	-0.086476006	0.013978587	0.032215483	0.060980685	0.0299606	0.0004090894	-0.026050529	-0.104079224	-0.05722537	
-0.098384425	-0.008093045	0.085818626	-0.014126896	0.03498889	-0.0003775543	-0.021758894	0.012508508	-0.022473622	0.028158294	
0.040890936	-0.097669564	0.014846077	0.0029703302	0.03187626	0.049966626	-0.0009236529	0.035186756	-0.036501266	0.02482951	
0.05773411	0.04457002	0.011350722	0.02070745	0.036255173	-0.043243837	0.039528746	-0.09616916	-0.004199827	0.07880017	
-0.077776805	0.036629632	-0.043196723	-0.07074212	0.06553551	-0.055986423	-0.0032474678	0.043508153	-0.012485073	0.07620623	
0.043284565	-0.014664742	-0.024723379	0.024207827	-0.07973844	-0.008225754	-0.09995991	0.07435305	0.081657596	-0.06837487	
-0.002416808	0.020760389	0.02079314	0.1135683	0.06559614	0.024418954	0.08559032	-0.095390186	-0.085329965	-0.0049838517	
-0.0065881535	0.01564231	0.068285465	0.06603436	-0.108343065	0.05244752	0.08387197	-0.08177442	-0.078602925	0.051863633	
-0.021449346	0.06833768	0.05956975	-0.009024386	0.062363587	-0.032472406	-0.011147735	0.0036660533	-0.035159513	-0.007767758	
-0.031091183	-0.01450856	-0.033937868	0.02280662	-0.019148055	-0.075911865	0.08201702	-0.0025323473	-0.0082216235	-0.021129081	
0.038264126	0.022763949	0.009830584	-0.02975476	-0.07141868	0.058046702	-0.04106219	-0.014028666	0.03913631	0.0041548857	
-0.0011948074	-0.0038658069	0.05853585	0.02836354	0.020545641	0.08690268	0.026665453	0.06673968	0.04858188	-0.060873292	
-0.030459205	0.029128674	-0.020062706	-0.048851606	-0.031396173	0.046288066	-0.1136445	-0.027189033	0.02428311	-0.024833752	
-0.038857587	-0.052617833	-0.08588143	0.072931655	-0.055690188	0.059615932	0.015773427	-0.035915047	-0.0023051754	0.06151579	
-0.051316876	-0.028960656	0.009608181	-0.013947035	0.007572142	-0.04778282	-0.004767349	0.010500422	0.017811637	-0.013684796	
0.0038310234	0.04829722	0.07570214	-0.0015339773	-0.028148452	0.011182252	0.09785728	-0.00554807	-0.104243144	0.04864042	
0.009672025	-0.058081713	0.01324761	-0.076316215	-0.01925867	-0.073976845	0.0044793934	0.10030644	0.022348324	0.061942168	
0.01814109	0.0062249177	0.10192518	0.036426097	-0.013828149	-0.06217584	0.008869644	-0.014319912	0.04773122	0.10092937	
0.06731075	-0.036251057	0.09564581	0.057212412	-0.08453272	-0.025423458	-0.09761465	0.00095753797	0.02240682	-0.04673692	
-0.037268482	-0.023338728	0.016879037	0.009961006	0.039721023	-0.00016354461	0.069682755	0.00321875	-0.0483952	-0.00016290853	
-0.07171045	0.016887063	0.038728725	0.016107297	0.0016719141	0.04002908	0.05494236	-0.0143072335	-0.027612342	0.00091759546	
0.004481128	-0.113752455	0.050416768	0.060372546	0.0052525145	0.07495029	-0.03537682	0.104365006	0.084158786	-0.056005146	
0.048746675	0.038820043	-0.0024914406	0.012620469	-0.019207194	0.0013769664	-0.0018888805	-0.033523712	-0.030550176	0.06584088	
0.08772245	0.011016632	-0.09967355	-0.03420663	-0.039204806	-0.065472774	-0.07488928	0.07536205	-0.07157011	0.033447254	
0.0074461405	0.025851618	0.050976627	0.057232894	-0.031975348	-0.08634387	0.038351007	0.06277035	0.016997458	-0.0010475972	
0.027673258	-0.07776328	-0.088301025	0.020092754	-0.033720598	0.060090806	-0.053673077	-0.017085336	0.002718371	-0.04027303	
0.098607525	0.044745572	-0.068947084	0.061825458	0.017361498	0.05317285	0.08966383	0.010696901	-0.014472092	-0.016140785	
0.046504337	0.035017896	0.026283292	0.028570708	-0.0875746	-0.037518006	-0.011710736	0.013409909	-0.0072640968	-0.04948217	
0.0203258	-0.024322055	-0.053555973	-0.025097499	0.10409456	-0.0049199504	-0.039304577	-0.03463516	0.026035167	-0.013297806	
-0.009968711	0.011030354	-0.0031800505	0.02208865	-0.011755968	-0.0751277	-0.024983149	-0.08970282	-0.006371636	0.020571066	
0.03313781	0.075743325	-0.031677447	0.0136509985	-0.016965605	0.044191983	0.03814547	-0.10984836	0.032648563	-0.09095482	
-0.030123731	0.025728038	0.06674388	0.021714402	-0.036038134	-0.06143145	0.07064521	0.10346756	0.022168318	0.048269905	
0.01766707	-0.052723765	-0.023128115	-0.013189083	0.10077632	-0.045136627	0.040900227	-0.015228849	-0.0898443	0.009281734	
-0.026056707	0.03569654	-0.01561622	-0.05592996	-0.014163017	0.093291536	0.095869996	-0.021572528	0.094407514	-0.03372675	
0.07444603	0.048739962	-0.039593708	-0.06637115	-0.044397216	0.04397355	-0.079312116	0.01699137	-0.011878728	0.080868974	
0.021224499	0.006233275	0.020695725	-0.077216454	-0.019871732	0.036174055	-0.06129298	-0.0049699657	0.008616917	0.0024233663	
-0.046685256	-0.0028493113	-0.009522951	-0.03632436	-0.016900722	0.04835575	-0.08022052	-0.022325985	-0.08415332	0.08788479	
0.013656986	0.07519965	0.070226125	0.046733774	0.052584756	-0.018493451	-0.06643109	-0.009986061	-0.009269318	0.021409804	
-0.03103343	-0.0105502065	0.0490872	0.038576856	0.022695316	-0.04032602	-0.0776298	-0.016614456	-0.029265393	0.010177733	
0.04850723	-0.024626462	-0.07463956	0.023696113	-0.01921561	-0.029598212	0.07751505	-0.008221374	-0.046261474	0.08371126	
0.057387955	-0.05510905	-0.018720023	0.059208356	0.010642091	-0.055269815	0.04299001	0.09373887	0.024514873	0.031081615	
-0.0070889425	0.036358234	-0.047172405	-0.06055353	0.06677422	0.07892036	0.05589527	-0.0015648071	0.07976481	-0.06570165	
-0.046440177	0.08076134	0.088479385	0.046754483	-0.045939233	0.019819584	-0.0004166105	0.08378183	0.015614783	0.015713403	
-0.050828222	-0.047546193	-0.049525853	-0.022644192	-0.004252246	0.06600969	0.041185737	-0.0047227386	-0.045090612	-0.075459644	
0.014832491	-0.018313719	0.06801378	-0.03448426	0.049029484	0.019075936	0.094459884	0.007677048	0.03774657	-0.028142577	
0.048387703	-0.106913686	-0.03344907	0.06658894	-0.05184205	-0.035399985	0.03056823	0.0034638979	-0.05558279	-0.08224653	
0.0150918495	-0.043205798	-0.056783535	-0.033265203	0.10593707	-0.06494826	0.07156004	-0.025880376	-0.0187958	-0.045359835	
-0.00029584265	0.009067349	-0.1069244	-0.032158054	0.035754845	-0.015686583	-0.0044278293	0.04059468	0.06782685	0.08000958	
-0.11365742	0.06015433	0.075352214	0.05191716	-0.031269185	-0.00014172854	0.06856175	0.073781624	0.011590237	-0.051267076	
0.07537614	-0.036115162	0.039676778	-0.027653743	0.077968344	-0.030040916	0.029448858	-0.035884846	0.007301345	-0.07900579	
-0.033131488	0.011706562	-0.018542672	-0.08577345	-0.004085147	-0.06367631	0.019179685	-0.05037554	-0.08225643	-0.04537334	
-0.006068186	-0.068141855	-0.012280325	0.052480966	0.039527	0.07392796	0.007745393	0.02614795	-0.022473726	0.053274654	
0.10089671	-0.062293287	-0.041123465	-0.014496114	0.030755717	-0.008763347	0.09819441	0.03130085	0.003327749	0.04001357	
0.007088264	0.059864275	-0.029636579	0.022553325	0.045041457	-0.06455199	-0.008594831	-0.04837048	-0.0022126907	-0.02422372	
0.04527335	0.016451847	0.007291544	-0.021027027	0.033451207	-0.063643865	0.07840954	-0.054549556	0.015997514	0.039610676	
0.056002956	-0.086000554	0.01883624	-0.047057085	-0.009292641	-0.049387258	-0.08284398	-0.023539457	-0.081230685	0.052262206	
0.038513124	-0.09681523	0.07684957	0.030001877	0.017995972	0.051580273	0.0965805	-0.03671289	0.056379873	0.05988026	
0.045300856	-0.053916518	0.042065267	-0.0772126	0.025795445	-0.010415648	-0.018850187	0.003770753	0.09177387	-0.0039624246	
-0.014815947	-0.019381134	0.09072576	0.021777604	0.062443893	0.056522537	0.059247423	0.063278094	-0.024681235	0.04363139	
-0.002390395	-0.05679432	-0.05843862	-0.010542996	-0.023079246	0.023344321	-0.050887793	-0.0027485709	0.007987518	-0.029980196	
0.04030476	-0.06501869	-0.10449411	0.08348353	-0.004129061	-0.034982182	-0.0059894263	0.02579604	0.050940894	-0.0041658683	
-0.09779416	-0.06233062	-0.028087543	-0.0059213615	0.081123084	0.05091007	0.04220674	-0.032040946	-0.059531163	-0.053805027	
-0.01875326	0.07273296	-0.007399862	0.07882162	0.021843271	0.02896334	0.068366095	-0.004212861	-0.025624318	-0.06675306	
-0.022815932	-0.010689255	0.050213832	-0.025122687	-0.01550431	0.02374101	-0.08513307	-0.021948863	0.005468467	-0.0030234263	
-0.006073841	-0.05834788	-0.004578129	0.009176207	-0.030833136	0.059426494	0.074880995	-0.07707089	0.050928667	0.03368649	
-0.015608784	0.07037114	-0.037571367	0.018360917	0.07642298	0.042880837	0.040879022	-0.0390694	0.045550555	-0.1103057	
-0.040629234	-0.06444372	0.0718944	0.020467004	0.033522207	0.08341788	-0.03939809	-0.0124142375	-0.04263471	-0.1062398	
-0.023988917	0.014468397	-0.009087077	-0.05229423	-0.057588827	-0.07432196	0.03243214	-0.03230672	0.038678635	-0.0060018958	
-0.04108373	0.01855113	0.03662013	0.03983211	-0.08288685	0.007745553	0.04640886	0.009168808	0.045343895	0.03745086	
0.080245875	0.04535993	0.012873645	-0.0865114	0.026708359	-0.03952055	-0.06046736	0.015913581	0.007343284	-0.06168627	
-0.03569996	0.07119541	0.025366291	-0.0016582892	0.030001227	-0.03552162	0.011001411	-0.040291317	-0.041452795	-0.10450632	
-0.041172326	0.03669952	0.1292214	-0.010013141	0.0703749	-0.04265939	0.07467823	-0.04770185	0.067195006	0.02334136	
-0.018907655	0.021087354	0.09824563	0.07963393	-0.06526475	-0.014554537	-0.03789569	-0.098013476	-0.11437137	-0.04988867	
0.00946536	-0.066069394	0.053290844	-0.079517186	0.026441224	-0.060575288	0.076292016	0.0102891885	0.0031039754	-0.0040226965	
-0.082076214	-0.087766126	0.05111964	0.03854134	0.06286097	0.02487563	0.15852426	0.019988589	0.03673548	-0.024643254	
0.0844709	0.09566475	0.011043033	-0.03888604	-0.0645434	0.01511708	0.03998164	-0.06789754	0.011131972	-0.07110813	
-0.05328231	0.04412507	-0.014953959	0.07830305	0.029344475	-0.0002968683	-0.03891041	0.08335632	0.041105207	-0.0032925627	
-0.050826237	-0.026794415	-0.008530811	-0.0145516675	0.05161125	-0.014745399	0.10261828	0.08116503	0.042976584	-0.00028322855	
-0.011648783	0.014681745	-0.067385174	-0.01060188	0.05375541	0.0033585278	-0.0318221	-0.010940255	-0.018121528	-0.02204556	
-0.03685849	-0.059109304	-0.026556224	-0.088628195	-0.06628651	-0.0046355547	0.005370773	-0.02104347	-0.06545935	-0.012498742	
-0.08025705	0.029536765	0.06119975	-0.052118115	0.016340457	0.0848399	-0.0065402933	-0.050316185	0.03707778	0.046437282	
0.0956229	-0.051648483	-0.038662188	0.10020571	0.014471988	-0.03150555	0.07472103	-0.023817379	-0.1148229	-0.03266977	
0.08142337	0.013203806	-0.012330715	-0.046721805	-0.009739279	-0.018855242	0.044098873	0.05583577	-0.09828551	0.039476227	
0.07554717	0.061224896	-0.02235106	-0.08476488	-0.0660404	-0.06848648	0.005261316	0.072176784	0.021750567	0.022975666	
-0.056703866	0.105086714	0.05507845	-0.035786547	-0.049767375	0.093537204	-0.035875224	-0.030645944	0.007946283	-0.015914276	
-0.03923076	-0.047538735	0.022531446	-0.023684375	-0.03028954	-0.09031098	-0.012740453	0.03783764	-0.059201766	-0.00015210072	
0.09613397	0.02065585	0.023994764	0.0032347937	0.095310666	-0.051663898	0.037443053	0.0953206	-0.070565104	0.112890884	
-0.08979971	-0.05054365	0.0026272521	-0.04471314	-0.049740966	0.073051766	-0.05553241	-0.0415947	0.010002076	-0.08691061	
-0.08180695	0.017687375	-0.07722191	-0.026068414	-0.016462393	0.016701704	0.033124812	0.0880624	-0.07020207	-0.06946516	
-0.0568913	0.06876936	-0.07069489	-0.023647847	0.021873495	-0.018207973	-0.10295782	-0.08648952	-0.06181307	-0.011538429	
-0.061952565	0.015683405	0.013115628	0.04605006	0.05484999	-0.025579859	-0.04325008	0.037955355	-0.06531208	-0.0069598933	
-0.061274	0.029166998	0.06274206	0.103798725	0.035950497	0.035513118	0.010152216	0.023373732	-0.06707237	-0.026198782	
0.01174799	-0.09300547	0.022646686	0.056593608	0.104762174	-0.07103043	-0.07054603	0.013426127	0.0073593273	-0.020022599	
-0.10735751	0.071570545	-0.039449234	-0.02482734	-0.02419693	-0.07949057	-0.021194313	0.08994475	-0.106235944	-0.04721647	
0.095394395	-0.011479422	0.10039129	0.09520638	0.016826112	0.00011460458	0.07507662	-0.07713667	0.011522058	-0.04257637	
-0.015255031	0.011557826	0.007379123	0.03832353	-0.03281807	-0.11456487	-0.066619664	0.017057804	0.066873185	0.028013377	
-0.010515689	-0.03607685	0.10612852	0.018546734	-0.046133045	-0.014472861	-0.016055867	-0.101699926	-0.05329259	-0.01288724	
0.07139572	-0.098044395	0.010138962	-0.045720972	0.07430026	-0.023026407	-0.0013512003	-0.045626737	0.0075752805	0.08073683	
-0.014833966	-0.035182886	-0.036313664	0.061952148	0.048506614	-0.08655736	-0.06522816	-0.066942364	0.021497082	0.009169535	
-0.00066779234	0.09942212	0.048011843	0.03683484	-0.050978344	0.048029225	0.013228406	-0.007947856	-0.11716398	-0.03291813	
-0.107141934	0.106095284	0.057408668	-0.01872891	-0.062325116	0.019110017	-0.044998627	-0.108034275	-0.024786497	-0.014428088	
0.050420508	-0.017943375	0.080970965	0.12735295	0.047642913	0.010695228	0.01345852	-0.0015781659	-0.0025427514	-0.121706605	
0.014661027	0.03263573	0.029308332	0.029176593	-0.09583297	-0.036769714	0.10142852	-0.03386826	-0.055165578	-0.015656829	
0.056566577	0.008123813	-0.016065404	-0.054830782	0.014622975	0.052531082	0.012660827	-0.08749019	0.015064361	-0.04945569	
0.051300872	0.06793985	0.06488394	0.032635655	0.051358066	-0.041244913	0.065454304	0.009894184	-0.052305683	-0.04252053	
0.00288681	0.07900023	-0.062339358	-0.007801136	-0.053499136	0.0831183	0.093677476	-0.11072636	-0.016204566	0.027390009	
-0.02089567	0.07136663	0.06597183	0.030478474	0.035829414	-0.0013263898	0.024278942	-0.07076739	-0.088838406	-0.08280524	
0.06982326	0.015002157	-0.07905255	-0.10158512	0.02106171	-0.059297446	0.028840434	0.03240195	0.027292166	-0.050410617	
0.050798904	0.03369644	0.022076242	2.088735e-06	0.05771245	-0.04489411	-0.0033377688	-0.063938685	-0.007980792	0.043291464	
0.05019532	-0.0032219335	0.012444508	0.054407004	-0.00972129	0.055610925	0.068056874	-0.07228138	0.0019185862	-0.044956174	
0.08202775	-0.054797027	-0.010067733	-0.07476571	0.041107334	0.06358737	-0.0007363013	-0.06368852	-0.00828343	-0.03278795	
0.02775869	-0.009087426	-0.07516523	0.037104852	-0.017323818	0.04868712	-0.031475917	-0.04120672	-0.047705483	0.031037277	
0.010236195	-0.032090496	-0.03485547	0.06394205	-0.021092799	0.0035040379	0.020351237	-0.02087163	0.110344365	0.034426212	
-0.00074240705	-0.026441757	-0.03052258	0.035979774	0.0133038135	-0.03078814	-0.0062483433	0.111350514	0.06484656	0.00828443	
-0.019817105	-0.039269295	-0.031597894	-0.056735415	-0.06307633	-0.0037740013	0.029952234	-0.04095022	0.048030134	0.03153959	
0.017680576	0.041127197	0.04492253	0.07681375	0.006347842	0.028785782	0.09110215	-0.087917104	-0.07453883	0.009080269	
0.03994924	0.007054069	0.03352276	0.08332033	0.029400127	-0.048932888	0.055214766	-0.041987848	-0.10313625	0.042330444	
-0.02030821	0.014163647	-0.054088295	-0.033959437	0.059403557	0.0028870897	-0.104850344	0.056239683	0.024160564	-0.064226955	
0.08068977	-0.048257954	0.055238284	-0.02958682	0.047753338	0.04173049	0.016719906	0.0024262138	-0.015122722	-0.065242216	
-0.026351148	-0.018545343	0.041567117	0.03123971	0.060148224	0.040609486	0.0038821797	-0.031136746	0.03509814	0.0075340057	
0.04847888	-0.007038364	0.009945194	-0.029377485	-0.021175938	0.038368426	-0.020536633	0.05601952	0.056529954	-0.03738487	
0.056959134	-0.007177237	0.056670774	-0.05307845	0.075620346	-0.00572144	-0.014776517	0.027507456	0.0496207	0.096013196	
-0.061869252	-0.04809933	-0.06395809	0.011366575	-0.053407207	0.0077147186	-0.006138322	-0.03715347	-0.024691584	0.061962314	
-0.00048178938	0.0604592	-0.005068479	0.02914062	-0.00666329	-0.033552513	-0.007739739	0.040591884	0.0038270296	-0.060465403	
-0.06753417	-0.03686574	0.019117856	0.0029583236	-0.045412835	-0.05116647	0.024975745	0.04884547	-0.037246827	0.004611766	
0.08949585	-0.018692292	0.08114971	0.02903722	-0.016083475	0.03583973	0.00017799465	-0.012738177	-0.07060422	0.08701741	
-0.029811766	-0.018906554	0.14748196	0.0865995	-0.07287037	0.018838892	-0.057227306	-0.05747047	-0.08850303	0.07812548	
-0.017235117	-0.021180013	0.10264057	-0.0066793067	-0.075940214	-0.03746135	-0.026081542	-0.092903495	0.0020951887	-0.057926428	
0.02614114	-0.07926488	0.025077967	-0.025516504	-0.08261762	0.05873479	0.012090741	-0.06956595	0.0631448	-0.10655293	
0.09026373	0.02228178	0.07056242	-0.023559444	-0.10100814	-0.06743289	0.013704125	-0.06506761	0.01872849	-0.08153363	
0.03803996	-0.040116318	0.13822165	0.054380126	-0.031252064	-0.08670467	0.0791174	0.03935991	0.050390083	-0.15431468	
0.021176426	-0.017064856	0.08329779	-0.037404433	-0.024700165	0.011479643	-0.06817173	-0.085224204	0.033776637	-0.10130633	
-0.001718709	0.016063027	0.07271971	0.07355157	-0.09759213	-0.044889674	-0.05464883	-0.12041438	0.09810084	-0.084383644	
0.084517725	0.060427006	0.021263486	0.009068993	0.018517103	0.029402087	0.03271713	-0.045998745	-0.028005088	-0.04675623	
-0.069678605	0.0769958	0.07998792	0.05610288	0.0510449	-0.11444492	-0.035363313	-0.08855061	-0.009649368	-0.08258786	
0.06577683	0.06531727	-0.0043931785	0.035665236	0.006583235	0.067208916	0.004231808	-0.048422705	-0.044364117	-0.053033352	
-0.09586876	-0.03271747	-0.0365102	0.049208675	0.03986656	-0.021679621	-0.055239085	-0.0057144845	-0.021904213	0.011607979	
0.0407019	0.020559859	-0.08677251	-0.0020599205	-0.017723976	0.033617947	-0.0005346242	-0.052722923	-0.0013417662	-0.0023484249	
0.044901602	0.024808396	0.08420812	-0.03225157	0.069290824	0.025503892	0.013148119	-0.04266401	0.079146445	0.0728071	
-0.031076506	0.0034873884	-0.029473964	-0.023711685	-0.075544834	-0.033429913	-0.08228413	-0.060914963	0.023039687	-0.012696485	
-0.0033358256	0.028770821	-0.058934983	0.0060921777	-0.01487733	-0.08868308	0.003189208	0.032520164	-0.023067543	0.023250464	
-0.03444162	-0.01579375	-0.041160766	-0.044847663	0.039944038	-0.062000632	-0.03386751	-0.06552013	0.01241263	-0.02667191	
0.025911452	0.046173166	-0.0013443785	-0.07787418	-0.034228325	0.069149494	-0.023682646	-0.040829264	0.040637095	0.010923226	
-0.017872833	-0.050902758	0.055606574	-0.048723396	0.048560895	-0.04739934	-0.0034564112	-0.04486009	-0.044773187	-0.09418377	
0.03439482	0.009571241	0.032144982	0.100630865	0.0109001575	-0.022520954	0.03099819	-0.05287989	0.076425456	0.03455042	
-0.015449986	-0.00950111	0.03927066	0.015354349	-0.028966958	0.08393645	-0.011435277	0.07922032	-0.109327994	0.018472457	
-0.014173002	0.0076267864	0.012929308	0.09643579	0.06224066	0.054757867	-0.017197592	0.020073893	-0.061019372	0.0061285724	
-0.02854413	0.016002849	-0.078071624	0.055287644	-0.06471239	-0.05747466	-0.0028109686	0.022206506	-0.03182391	-0.0355576	
-0.10214564	-0.06374867	-0.028295524	-0.051049024	-0.00855777	0.017205099	-0.05358268	0.04174571	-0.024279665	-0.011132654	
-0.057978585	-0.025123427	-0.04834818	-0.03990327	0.01967323	0.05588164	0.009731358	0.051967226	0.074493945	-0.0013274174	
-0.03168422	-0.090473846	0.04236666	0.0217785	0.06535537	-0.06874866	0.03396935	-0.019609032	-0.025775924	0.05542643	
-0.0018915526	-0.09519896	-0.07502028	-0.031364348	0.023691164	-0.10086613	-0.031237373	-0.077878445	0.001842824	0.042760845	
-0.022234576	0.021610191	-0.0736435	0.053801212	0.105420485	-0.060947794	0.02725969	-0.015665535	0.012953721	0.0071132397	
-0.0438336	-0.054626085	0.08069568	-0.010320203	0.00030224063	0.09024419	-0.0048497515	-0.005046371	0.025355471	-0.062873445	
0.08922102	-0.0021458908	0.0041467207	-0.019308377	-0.021088755	-0.01841083	0.103049226	-0.06474485	0.05169538	-0.019323107	
-0.01027982	0.072428	0.045381393	0.12915756	-0.048476696	0.0105385985	-0.007844475	-0.0016479952	0.09574251	-0.03986313	
-0.014845994	0.012129502	0.09472315	-0.009441742	-0.0503606	0.06893365	-0.06551233	-0.06601467	-0.014574227	-0.062969804	
-0.0077580446	0.005404716	0.08314663	0.14214523	-0.008854325	0.030544037	0.01855944	-0.087056346	0.0060362467	0.08831598	
0.011185256	0.00018349044	-0.034065627	0.13330224	-0.086209275	-0.03517638	0.0038774714	-0.06401377	-0.019868614	-0.041427504	
0.012402389	0.018170893	0.028065335	0.092966	-0.060531367	-0.016137412	-0.009427931	-0.09241514	0.075013086	0.09660878	
0.03298132	-0.024973787	-0.048128873	0.016118404	-0.078472584	0.046155427	0.018811362	-0.152812	0.044436827	0.017257703	
0.017887386	0.0602792	-0.061154556	-0.08039208	-0.0036566977	-0.06749764	-0.052293777	-0.041838545	0.05926061	0.028653441	
-0.0644479	0.04347728	-0.07143374	-0.014003821	0.014560704	-0.016565328	-0.07295799	-0.012459124	0.13265306	-0.06916567	
0.06242484	0.028359825	-0.08888504	-0.022460654	-0.039792832	0.00025984232	-0.007430842	-0.0438293	0.101251796	-0.024450026	
-0.012149287	-0.030041361	0.09496122	-0.036014397	-0.06757741	0.024684265	-0.03969254	0.04469603	-0.026353924	0.0008601772	
0.099290036	-0.011825919	-0.022698645	-0.09716985	-0.06577355	0.05582797	-0.0506743	-0.07273194	-0.023619084	0.0071098427	
-0.02364509	-0.038900565	0.014391181	0.0057410225	0.111321166	0.07480989	0.012764597	0.022278134	-0.01298987	-0.026753167	
0.06023394	0.0006769382	0.007859015	0.00057634496	-0.02396033	0.019494122	0.016238414	-0.030670643	0.036280733	0.02620713	
-0.0825163	-0.06183426	-0.0033592049	0.09630284	-0.062706634	-0.0018130034	0.09068345	-0.114188805	-0.054748464	0.004016542	
-0.055871755	0.036573745	0.057449866	0.002794772	-0.044238754	0.040560715	0.012391773	0.07268165	-0.038631137	0.07576411	
0.055945363	0.021110278	-0.085550375	-0.047098823	0.1131553	0.027263284	0.034011938	0.016034694	0.09148418	-0.014699424	
-0.064807504	-0.026859654	-0.055920336	-0.065715246	-0.105308734	0.05847897	-0.010133148	0.050369103	-0.030309543	0.026564257	
0.023803262	0.002231254	0.060695056	0.05681637	-0.04648957	0.034481827	0.011313118	0.025958695	0.061191723	0.023052793	
-0.00488624	-0.089645594	0.035850137	-0.08361158	0.0011616917	-0.010199035	0.035881992	-0.0437188	0.017933955	-0.08162868	
0.01590178	0.02365369	-0.10805432	0.034820374	0.058322757	-0.0141164735	0.09134034	-0.0510444	0.044078846	0.06900371	
0.06148138	0.05386137	0.0069528064	0.08666443	-0.032661818	0.023318684	-0.06760969	-0.033315867	0.06965668	0.026937677	
0.009348722	0.074647434	-0.044443727	0.058411676	-0.07167381	0.0057273754	-0.058050267	-0.05704719	-0.03059597	0.02435647	
-0.0062891035	0.05040269	-0.05645991	0.11689773	-0.08834283	-0.038501758	-0.041993164	0.031647444	0.07254679	-0.04275339	
-0.057341464	0.0123358965	0.043397456	0.079327114	0.025595924	0.009355609	0.058027018	-0.0413208	-0.0054486156	-0.015509826	
0.08086562	0.006640789	0.033570245	0.04737651	0.040435955	0.078095816	0.08564271	0.08849408	-0.0235392	-0.038830217	
0.060699582	-0.10424423	0.101810135	0.060888693	-0.02048458	-0.08599332	-0.01709585	0.11348107	-0.055724148	-0.091509625	
-0.0059221853	-0.016218446	0.0016503837	0.008841386	-0.0235942	-0.059273228	0.023604076	0.01631832	-0.06065176	-0.0541439	
0.028940942	-0.06081389	-0.049859785	0.06914583	-0.06084878	0.014568368	0.024600063	-0.029154519	0.07570469	-0.027710617	
0.03334046	-0.055033036	-0.002555827	-0.055037983	-0.014101589	0.06432065	-0.06045013	0.10781716	-0.02468271	0.019465692	
0.018529402	-0.09873421	0.063550584	-0.00062539126	-0.13041933	0.05877062	-0.0002122287	0.06812424	0.054541226	0.07382979	
-0.063423	0.07517897	-0.01704281	-0.04800252	-0.10325842	-0.06210029	0.03824508	0.00049924006	-0.04860722	-0.017796448	
-0.0015748468	-0.016899914	-0.051213793	-0.02689754	-0.05246743	-0.002668069	0.021021085	-0.06945671	-0.023990966	0.008619233	
0.008045967	0.099028274	-0.028432528	-0.09996947	-0.11806808	-0.011241849	0.017511597	0.009634022	0.051794324	0.046016715	
0.0802707	0.068616696	0.09445106	0.041927	0.025556097	0.07613269	-0.024517165	0.04887793	-0.008734523	0.08375524	
0.023985367	0.05674043	0.01469063	0.062429592	0.00549695	-0.092784144	-0.007353198	-0.078451045	0.04152187	0.021551453	
0.044219207	-0.032271113	0.060616948	-0.04663081	0.0451084	0.080804735	-0.11437428	-0.022115685	-0.016954754	0.09038219	
0.045785073	-0.046675086	0.019047903	0.017599033	0.043392334	0.08330111	-0.07740618	0.004332139	0.0194623	-0.00063762156	
0.062595986	-0.059573304	0.07062389	-0.011613994	0.007652049	-0.06731257	-0.09809069	0.06318058	0.05135193	-0.023171198	
0.081710994	0.054091204	0.0030452244	0.04115905	0.076993756	0.11594959	-0.047575936	0.04646494	0.058548003	-0.017903982	
0.0032131248	-0.03118247	-0.03434309	0.014410185	-0.03203717	-0.031084293	-0.0063480577	0.023003599	0.05680848	-0.06369876	
0.027587345	0.028042328	-0.04076787	-0.038468078	0.09898766	-0.0018322112	-0.08153575	0.051361844	0.0500943	-0.049665276	
0.006904597	-0.07361829	0.026134139	0.00900784	0.10820582	0.07548742	0.016990393	-0.049950704	0.0797442	0.0320465	
0.06774872	0.060125876	0.037923466	0.0017322025	-0.1048588	0.060792074	0.029906191	-0.064614356	0.019660247	0.02420511	
-0.06095581	-0.03781439	0.043601025	-0.03559755	-0.10971963	0.010096965	-0.07161411	-0.04818906	-0.06461154	-0.04742839	
0.059848025	-0.036197226	0.04559584	0.098964624	0.04967216	-0.035947423	-0.006306152	0.07051371	0.11053217	-0.023020174	
-0.051720083	-0.00794995	-0.045336973	-0.0076327077	-0.06283899	0.024785392	-0.018349797	-0.039305307	0.008045505	0.08686582	
-0.068941705	0.04003921	-0.053229976	0.0065258876	-0.09078089	-0.024753371	0.032569326	-0.034887716	0.044582326	0.050176933	
0.011756064	-0.08540007	0.0746296	-0.010750027	0.032476306	-0.057849318	0.00043862118	-0.0858686	-0.08049871	-0.043553848	
-0.102267705	0.06345629	0.020454947	0.0069274446	0.054248687	0.014299832	-0.03887251	0.043736447	0.112086706	-0.043206047	
-0.04373786	0.014831426	0.08471851	0.01825457	0.052779887	-0.040263016	0.08428427	-0.0029467158	0.0035625757	-0.09370196	
-0.0871909	-0.06180199	0.06661789	-0.024908567	-0.07824254	-0.030656617	0.01930015	0.028247358	0.068988815	0.014906627	
0.08418749	0.03156076	0.029533442	-0.007853133	-0.035465073	-0.04842358	0.043748002	0.11946345	-0.01013807	0.049756117	
0.04623708	-0.0459878	-0.014287023	0.08449493	0.0643052	0.04202924	0.018278828	0.10938047	-0.03227567	-0.004073937	
-0.07988092	-0.039061703	-0.061340295	-0.03911556	0.038178056	0.061560467	-0.03455816	-0.0030328194	-0.038109448	-0.043908756	
0.027263787	-0.0618692	0.015171469	-0.048511412	-0.012488463	-0.101863496	0.029996485	-0.009930649	0.06878506	-0.016399983	
0.008003932	0.012339453	0.0303025	0.04335606	0.0303701	0.03550473	-0.028601985	0.03547543	-0.07615869	-0.03894465	
0.034693915	-0.045377545	0.02720479	0.006422687	0.023968264	-0.062559396	0.04160861	0.055289317	-0.04393113	0.13194767	
0.09580341	-0.14591375	-0.0151307965	-0.03720039	-0.022555275	0.026102494	-0.064690866	0.092000276	-0.043985177	0.05356064	
-0.0027240815	-0.12621796	-0.08418406	0.01478667	-0.15707347	0.027411971	0.08180027	0.07259592	-0.025589839	0.19941114	
0.059462663	0.056998186	-0.084485196	-0.023397744	-0.032859568	-0.027768094	0.052827287	0.060292166	0.09258161	0.014381572	
0.033476096	-0.0072174757	-0.020843232	-0.051623892	-0.12918288	0.03312038	-0.056568306	0.06277827	-0.070750244	0.06603342	
0.02035299	0.005641867	-0.017259741	0.024923675	-0.04034921	-0.060254518	-0.13179205	0.084299766	0.016266756	-0.028960425	
-0.031842027	0.026691146	0.07192513	0.052379113	0.011487635	0.02295774	-0.05653179	0.027938023	-0.04772314	0.13012575	
-0.01743365	-0.048501465	0.03387649	-0.019630732	-0.015474502	0.0014758314	-0.055229567	0.13545966	0.008561337	0.010457662	
0.06276378	0.0009243412	0.02295648	0.05911834	0.026874417	0.009096077	-0.083223745	0.056412708	0.04207102	-0.033703815	
0.13466075	0.012449253	-0.010554159	0.003238089	-0.013580827	-0.024326183	-0.05746767	0.045076262	0.0056983205	-0.043293737	
0.0032615447	0.008565409	0.047419958	0.062217794	-0.009294561	0.056206364	-0.09241217	-0.09420479	-0.08187134	-0.09458745	
-0.021719623	-0.040216308	0.051036462	0.0230501	0.0756424	-0.033213194	0.031624876	-0.0348237	0.0012914856	-0.050828613	
0.0075651053	0.08785848	-0.03922391	-0.03123247	-0.058286812	0.013209904	0.031079821	0.04129132	0.05452926	0.028373677	
-0.038521074	0.0055604014	-0.1061879	-0.066145875	0.012690693	0.089809895	-0.020098997	0.0006463055	-0.029049076	-0.092337325	
0.07113984	0.017264128	-0.03478532	-0.07235146	0.033575665	0.08513153	-0.08288112	0.063664615	0.050369952	-0.035220135	
0.078528136	0.03607444	-0.02963967	-0.023286132	0.025646472	0.002054114	0.009326268	-0.04680487	0.050972816	0.005724971	
-0.085525624	0.044088922	0.01460377	-0.10221359	0.030120188	0.023726696	0.034598257	0.032861028	-0.016494766	0.061989244	
0.022972096	0.06188478	-0.03817521	-0.06550287	-0.07035878	-0.044736434	0.063236855	-0.1001496	0.013268727	-0.040742587	
-0.021113269	0.07433085	0.037169907	-0.035588253	0.04390774	-0.0018004986	0.0073977984	-0.042306658	-0.013533892	0.025963154	
0.021963397	-0.018613042	-0.02133113	0.025837649	-0.07056659	-0.034364555	0.035334364	0.06075638	-0.0009614396	-0.011097697	
-0.100680225	0.06659888	-0.06079099	-0.009987107	-0.07902807	0.08883814	-0.03104351	0.029999562	-0.04577456	0.04214054	
-0.018277934	0.014953901	-0.029812897	0.0014724298	-0.040680844	-0.04336148	0.0035293002	0.076777995	0.059776653	-0.02322392	
-0.005442022	-0.038159136	0.0088813985	0.06847027	-0.088839255	-0.017278498	0.06817959	0.066096865	0.010358145	-0.049011026	
-0.014023662	-0.04580314	-0.0951171	-0.043280303	-0.014196661	-0.04612665	-0.022702515	0.026100932	0.09791588	-0.032259803	
-0.020271376	0.05674686	0.047829963	-0.061590437	0.032228727	-0.006091203	-0.047989074	0.08396318	0.018251408	-0.027702106	
0.055710327	0.01446015	0.018745892	0.060811654	0.005199827	0.065059766	-0.033210255	0.059555437	0.016846081	-0.02071077	
0.07206438	0.015103706	-0.032802217	-0.037341814	-0.06693071	0.013014708	0.0032735984	0.08898895	0.0113695385	-0.017781368	
-0.048436638	-0.04443688	-0.0066095437	-0.10958305	-0.0868786	0.110775754	0.05112378	0.059181027	0.080370985	0.021005679	
-0.041118987	-0.11410274	-0.11027747	-0.009338277	0.010251597	0.021087348	-0.040166255	0.051944967	-0.034971688	0.023673018	
0.09982634	0.022884294	-0.037254076	-0.071580544	0.045832112	0.12041632	-0.040329784	0.055262227	0.10126057	0.05888086	
-0.031888843	0.057349138	-0.060355637	-0.044159316	-0.110583834	0.03011081	0.045128666	0.046574436	-0.00893087	0.11293674	
0.06430949	0.028910968	-0.057014305	-0.042221017	-0.1318384	0.06406712	0.078849964	0.15015559	-0.0021968966	-0.028565638	
0.10648333	0.055741064	0.033773433	-0.074283406	-0.13243173	-0.0128944665	-0.044742752	0.16944593	-0.034501504	0.033189114	
0.038053427	0.09521058	-0.02565623	0.06257132	-0.049588084	0.0071599702	-0.105200164	0.12175539	-0.14742422	0.0014358532	
0.04669738	-0.016826704	-0.059161853	-0.0325102	-0.0027087028	-0.057049666	-0.0321084	0.13025685	0.015503721	0.12910242	
0.065321356	-0.03648705	0.08388758	-0.036096796	-0.007215631	-0.00814021	-0.18741302	0.05473695	-0.0464523	-0.047825977	
-0.038828135	-0.09518848	-0.05549643	0.028586866	-0.028484663	0.09344249	0.006664507	0.105292276	0.05408844	-0.020423211	
-0.017171314	0.048992567	-0.06554866	-0.05776157	-0.0745742	-0.017187934	-0.023693241	0.04807623	0.070883155	-0.026328456	
-0.0053062732	-0.075948946	-0.024658808	-0.07268453	0.052666508	-0.02227985	0.0011741115	-0.0033309844	-0.003227711	0.019276137	
-0.016307622	-0.09430344	-0.012980752	-0.00889794	0.062179066	0.037433464	-0.03909603	0.024905082	-0.012065925	0.0539773	
0.029183194	0.035383705	-0.006788301	-0.08442018	0.02033835	0.019473886	-0.047696654	0.013152106	0.016981427	-0.07643123	
0.051770907	0.023573533	-0.022825843	-0.039321568	-0.021876048	0.06281585	-0.025969243	-0.09831759	-0.019414702	-0.049548287	
0.006093565	0.07411777	0.008644242	-0.015874797	-0.03544297	-0.01743956	0.010223886	-0.041761678	0.06673127	-0.019045105	
0.027574686	-0.033795185	0.031299043	-0.0029010526	-0.01182081	-0.038771637	-0.013603404	-0.074489236	0.046088725	0.07267972	
0.01393117	0.003348487	-0.056886952	-0.032096833	-0.021345986	0.08473585	0.02307076	-0.014385714	-0.062563695	-0.063811876	
-0.00087081466	0.0073953997	0.089670695	0.026594125	-0.022988226	0.05647914	0.060442373	0.0041700574	-0.025145655	-0.046681847	
-0.061117332	-0.008568163	-0.015929885	-0.063030794	0.05628377	-0.06656527	-0.0008912921	0.027150752	0.040460736	0.011569372	
-0.012273597	-0.09697939	-0.015461461	-0.07199447	0.015710518	0.1131567	0.018993082	-0.035947237	0.0037566822	-0.036882974	
-0.11179139	0.013439294	0.028887028	-0.049289003	0.00020486077	-0.005306063	-0.057857126	0.08043595	-0.026873143	0.058742628	
-0.0145062115	-0.017221747	0.07087718	0.049816635	0.07160185	-0.05913968	-0.06705342	0.023854421	-0.039730538	-0.013882486	
-0.092443585	0.04951237	0.02221326	-0.019265328	-0.0027662013	0.05942638	0.058304437	0.06366553	0.10817611	0.011241165	
-0.003803489	0.0015552029	-0.0028122193	0.00817011	0.075766906	-0.053495985	-0.0038411932	-0.012248728	-0.014325345	0.01156374	
0.05375039	-0.052833147	-0.021757267	-0.032993905	0.04844532	0.023575762	0.046506852	-0.0051406696	0.009696012	0.08498678	
0.02005827	0.03215802	-0.03582246	-0.02100152	-0.015301472	0.00787028	-0.04151626	-0.047857262	0.018782722	0.09471587	
0.046557635	0.017240578	0.022941645	-0.041975196	0.0016931538	0.07991565	0.032303035	0.04766064	-0.04506266	0.05089435	
-0.00033702306	-0.0031042153	0.0096004745	-0.11565676	0.05616241	0.06634332	-0.08457288	0.02828104	0.009237753	0.08690304	
0.12432754	-0.07321151	-0.15547995	0.029093433	-0.06482854	-0.054906998	0.08300607	-0.019360708	0.11642503	0.0359107	
0.048021615	-0.052941836	-0.11981251	-0.0067535904	0.046542358	0.07508716	0.08995123	0.037848674	0.0654737	-0.094261594	
-0.045884337	-0.0076927487	0.043999497	0.06990204	-0.015198307	-0.0039410815	0.13329607	-0.01693656	-0.0067427675	-0.022213012	
0.019621965	0.04355148	-0.028951632	-0.06462864	-0.06629737	0.03296305	0.08094362	0.044523124	-0.016755514	0.05896821	
0.0070587783	0.08417258	0.009542122	0.00016188173	0.01762857	0.04568511	-0.018615779	0.064159706	0.023592383	0.021584336	
0.0059007127	0.06636883	0.052244194	0.04672972	-0.016380863	0.014018411	-0.049762096	0.047018293	0.01786512	-0.045906436	
0.047634415	0.037571147	-0.011940215	0.08864946	0.010577686	-0.0920802	0.010239594	0.022372264	0.009272989	-0.028077263	
-0.045125935	-0.050311387	0.03483532	0.045953274	0.06631237	-0.07661024	-0.021081092	0.039436083	0.04322501	0.029557284	
0.010418525	0.062353257	0.081273325	0.08245381	-0.07521262	-0.12762189	0.0011627611	0.0325107	0.06810145	0.0480347	
-0.025090808	-0.016776325	0.09214874	-0.09880058	-0.009576353	-0.017274724	-0.07999049	0.019326992	-0.019859726	0.047936708	
0.03804944	-0.0017221915	-0.004019044	-0.050491262	-0.044953465	0.03609883	-0.015821842	0.045163386	0.088607416	-0.05055907	
-0.0006806419	0.005077697	-0.039521884	0.01916431	-0.046150915	-0.016022833	-0.098442756	0.030506268	0.078137614	0.009857089	
0.09549921	0.046239685	-0.076880425	0.012651086	0.03965706	0.06472203	-0.021445855	0.019843195	-0.037211563	-0.046720937	
0.04202292	-0.016071325	-0.09268183	0.035747234	-0.09572103	-0.0007427909	0.0064818203	0.04216681	0.08231621	-0.0037028012	
-0.022032391	0.089658596	0.0030176858	-0.062897004	0.027341431	0.050008215	0.04341167	-0.010968777	0.015569897	0.11002396	
-0.0193086	0.08459988	-0.041880157	-0.038795307	0.0025679413	-0.027961403	0.017422406	0.090671994	0.08643457	0.010132943	
0.0067169718	0.037458878	-0.0070367604	0.033749197	0.032187037	-0.045953155	-0.068040654	-0.0065604057	0.00516866	-0.11226423	
0.019665146	-0.060476918	-0.050947964	0.028024018	0.07340177	0.050259877	-0.0027812016	0.024919081	0.048151985	-0.07727384	
0.04659104	-0.0029873904	0.011295415	0.03595304	0.036019217	-0.043226495	0.042856067	0.039739963	-0.0381413	-0.026024634	
0.0039100284	0.05458032	0.026822172	-0.06682149	0.020445578	0.038371176	-0.055666633	-0.09152048	0.00082832767	-0.03992396	
0.033664927	-0.018721828	0.0034117356	0.003149165	0.014084523	0.024854064	-0.023072071	0.007863231	-0.046740264	-0.048093386	
-0.0977861	0.05736857	-0.043014657	0.08413674	0.041538227	-0.02097126	-0.025947563	0.07201837	-0.024016595	-0.006834995	
0.005185666	-0.07789465	0.0035639664	0.07745135	-0.016702864	0.10277981	-0.06099966	-0.0026955314	-0.013223634	-0.038936026	
-0.07073452	-0.016380377	0.010828843	-0.07611027	0.11875767	-0.0035040106	0.03201138	-0.025964942	0.056700274	0.030352408	
-0.015443378	-0.033881597	0.0359258	-0.0028467814	0.0241995	-0.09395745	0.0018097505	-0.0017751541	-0.09730965	0.08190065	
0.06847965	-0.012989452	-0.09721806	-0.097845405	-0.04376054	0.03590223	0.029350167	0.13326207	0.096028626	-0.00017603778	
0.023024553	-0.050245043	-0.10542488	-0.06819561	0.084238976	0.09601885	0.106749766	0.013520502	-0.052788816	0.083287835	
0.0020886273	-0.061028875	-0.08953777	-0.021712564	0.040435556	-0.00029212047	0.020573737	0.01498057	0.053834856	0.12185192	
0.02363679	-0.031219749	-0.044708233	-0.13476332	-0.012977753	0.06107278	-0.04856855	0.017510103	-0.046319105	0.119714215	
-0.043757003	-0.040676475	-0.14749238	-0.0011547428	-0.021477865	0.0315213	0.015451462	0.018443296	0.05835833	-0.061015926	
-0.02292947	0.02603022	0.031756353	-0.066146575	-0.04473092	-0.004117492	-0.0050390265	0.021042679	0.007942926	-0.1369153	
0.00757176	0.17979632	-0.03109432	0.14074288	-0.06359909	-0.058966313	-0.072676234	0.09388467	-0.03761327	-0.060429744	
0.012064217	0.08668685	-0.049556006	0.07698755	-0.046015874	0.06631407	0.020344632	0.022415064	-0.0876496	-0.034635093	
-0.0677393	0.051387187	0.046712607	0.07968444	0.031773936	-0.124069944	-0.03512596	0.075898916	0.05069735	0.033886816	
-0.0842646	-0.059004325	0.086770885	0.09807439	-0.014927305	0.04873815	-0.005148372	0.11436784	0.0018187553	-0.035389833	
-0.03439206	-0.035412174	0.09781484	0.08517769	0.089912824	-0.036444858	-0.03639593	0.05505274	0.011220445	0.13670675	
-0.031086192	-0.012277724	0.04214442	-0.03965035	-0.03213243	-0.099532664	-0.032127213	0.04026534	-0.068830825	0.046550773	
0.051393006	-0.07254798	0.067972146	0.03273862	-0.02287517	-0.07271356	0.016487211	0.049301278	0.03206136	-0.031600244	
0.050795536	-0.018825995	-0.063725755	0.055290323	0.089805074	-0.11611516	-0.12584327	-0.01829174	-0.062204123	0.07494125	
0.04721762	-0.06373126	-0.01896481	-0.0016834596	-0.0690209	0.04348362	-0.09871292	0.0387309	0.033389516	-0.0607055	
0.02345378	0.013954824	0.029439626	-0.04394364	0.0048708282	0.010915372	0.05870941	0.08939665	0.07804474	0.02967202	
0.024119506	0.08878503	-0.023834463	0.06719652	0.07779069	-0.096295394	0.008769188	0.005556103	-0.06776019	-0.054137744	
0.004830307	0.05548212	0.04433165	-0.03749568	0.03619511	-0.015415604	0.018010048	0.041531432	0.0502121	-0.044864424	
-0.015999777	0.027682077	0.01937055	-0.066761464	-0.093373746	-0.06671219	-0.07047627	0.006072474	0.031160865	0.039528754	
-0.03555354	-0.032767307	-0.019830873	-0.0038571232	-0.08950428	-0.012907822	-0.0060802647	-0.0498537	-0.03426057	-0.04816535	
0.022543782	-0.045201913	0.0045130104	0.108744085	-0.015986048	0.041279647	0.07619993	0.06817656	-0.020158028	-0.026109261	
0.0008694057	-0.009500866	-0.056619126	0.052374724	-0.015560906	0.019223502	0.07597124	0.0032181102	-0.01452541	0.08218757	
0.09144474	-0.008854006	0.058638614	-0.057247393	-0.044162758	-0.019444777	0.0009456277	-0.0825373	0.076268554	-0.029506499	
-0.06447466	0.07253343	0.044356998	0.025130738	0.005150579	-0.023473874	0.027360912	0.055285614	-0.018109834	-0.055287965	
-0.06885306	0.051098205	0.11020689	-0.06428911	-0.06533014	-0.09968163	0.06542222	0.052752446	0.031044057	-0.054107532	
0.012678194	0.03554514	0.010298118	0.03445048	-0.08558281	0.02863567	0.058262296	-0.072332084	-0.017474318	0.054312564	
-0.0007420883	-0.01667777	-0.011418859	-0.011079215	-0.0042445217	-0.015484173	-0.038531188	0.057721578	0.01774695	0.021037836	
0.07593674	0.04102793	-0.1341676	-0.03149983	0.056256566	0.0089906715	-0.07677859	-0.06250333	0.026982903	-0.0231427	
0.064951	0.047992893	-0.097868025	-0.06351171	0.055209626	0.034845036	-0.031160753	0.028554728	-0.03144295	0.12360208	
0.093939535	-0.02971481	-0.007709304	-0.07901617	-0.031525746	0.050248016	-0.024981787	0.027590998	0.015251173	0.038780887	
-0.008994578	-0.02970012	-0.04445414	-0.06633732	0.079027615	0.055743854	-0.0067984005	-0.06988176	0.069562286	0.059254803	
0.08173504	0.030488865	-0.06304227	-0.046517752	0.03942044	0.048704606	0.038927972	6.931466e-05	0.053402934	-0.012086449	
-0.035207424	0.0318845	-0.06868397	0.09681045	0.008217252	0.09155165	-0.044787116	-0.04846011	0.07094154	0.035249375	
0.017622024	0.05405369	0.014468321	0.16343328	-0.030482696	0.10130152	-0.015042886	-0.09145193	0.02094849	0.009408953	
-0.10267595	0.20371985	0.0074230684	0.11247345	-0.10823206	0.018675873	-0.028874626	-0.05851731	-0.0570835	-0.07624339	
0.024754163	0.19525312	-0.040588405	0.0013765137	-0.01805349	0.020050583	-0.047524687	-0.05823047	-0.04043725	0.061547995	
-0.14851944	0.091642566	-0.13875116	0.017041825	0.06121375	-0.02278621	-0.011760498	-0.0114218965	0.06518854	0.038439505	
-0.08373583	-0.035817362	0.01825841	0.040705513	0.034863014	-0.022206562	-0.095242694	0.048581645	0.006426341	0.035534516	
-0.08218084	-0.104919165	0.025038123	-0.021535918	0.006180913	-0.12973244	-0.03158407	0.05220389	-0.016686287	0.043200664	
0.0770572	-0.049758375	-0.086615294	-0.070921876	0.057168446	-0.06505106	0.021778962	0.016392877	0.007780069	0.052978624	
0.12516537	-0.10376499	0.02409711	-0.08209524	0.008791414	-0.0407777	-0.012731689	-0.014529008	-0.0016487949	-0.042440888	
0.09927515	-0.056758177	0.016271017	-0.031745303	0.047918227	-0.120425016	-0.04697024	0.018972674	-0.091022216	-0.034962147	
0.062192235	-0.038856834	-0.030554945	-0.066695206	0.024596602	0.08983667	0.005952663	0.04054843	0.040145177	-0.033003937	
0.052961126	0.049886398	-0.009620479	0.0043232837	-0.011867802	-0.010331869	0.072678536	0.06289424	0.019173888	0.022658486	
0.06644567	-0.05584265	0.04081581	-0.00042207233	-0.059859294	0.09384326	0.055040207	0.036697976	-0.092252485	-0.030968675	
0.007829153	0.10355228	0.03518422	-0.019479202	-0.059267353	0.039653435	0.0009474325	0.088757925	-0.038867064	-0.04887432	
-0.04113657	0.049416855	-0.0035392675	0.03461737	0.018852275	-0.022875147	-0.03640949	0.017212154	0.010815829	-0.054068714	
-0.015443436	0.07961206	0.05201589	0.026921457	-0.009288366	0.09376045	0.09848689	-0.098926485	0.0207473	0.033984955	
-0.071607694	0.01714595	-0.00664715	-0.035312485	0.019017901	-0.050617974	0.01958942	0.092474565	-0.0605859	0.03628883	
-0.05322526	-0.0072916714	0.10023992	0.025501492	-0.076266915	-0.03250142	0.07265514	-0.02286988	0.05177464	-0.028490692	
0.026738452	-0.024448482	-0.048568964	-0.014561077	-0.049154725	-0.040624745	0.01690031	-0.048963495	0.02785141	-0.028390465	
-0.03814722	0.055105112	0.029332727	-0.0064045778	0.06025359	-0.012226876	-0.027118511	-0.02811234	0.0428148	-0.007380929	
-0.11283608	0.05942189	-0.004813992	-0.10657546	-0.0030373593	0.005683228	-0.033473488	-0.008977493	-0.013914243	0.031345498	
0.01888503	0.020096635	-0.069931924	0.0351258	0.019547932	-0.0017000763	-0.04467757	0.044617612	0.026299516	0.02891533	
0.07253439	0.0075320364	0.0032604584	-0.06820615	-0.02795043	-0.0036033494	-0.019606136	-0.017220257	-0.040380187	-0.042752746	
0.050513174	-0.026107477	-0.12851034	-0.044603605	0.06305802	-0.04118841	0.003491876	0.05792395	0.051268227	0.11152784	
-0.009345933	-0.05030742	-0.08996874	0.018826552	0.10536628	-0.05759791	-0.06548778	-0.009560635	0.0011245157	0.017523015	
0.10654484	-0.026209248	-0.03358541	0.017176325	0.050124366	-0.0028446894	0.011804654	-0.036364015	-0.048559412	0.09058468	
-0.057109255	-0.079379864	-0.08078191	-0.024266437	0.039163817	0.070354305	-0.018322991	0.0050841062	-0.008191014	0.042257518	
0.038226716	0.0012415699	-0.08727602	-0.060957115	0.08125665	0.01931059	0.10080707	-0.1163663	8.003741e-05	-0.10008279	
0.04005818	-0.114150286	-0.14560874	0.03990795	0.07663413	0.040152304	0.070956826	0.049297888	0.05894435	-0.09624653	
-0.12829371	0.14666802	0.009981517	0.037263084	-0.016285568	0.07246778	-0.038441148	-0.049453195	0.054794308	-0.022039324	
-0.08299125	0.1950994	-0.008572214	0.030059472	-0.02438154	0.10132324	-0.046472922	-0.032677125	0.0037557583	-0.0086403	
-0.17348412	0.1624478	0.0037067735	-0.008618531	0.0047313324	0.03786072	-0.07887077	-0.01725586	0.028532906	0.040867373	
-0.043475598	-0.09546357	0.026145076	0.04039764	0.016426468	0.06799956	0.07786477	0.021797217	-0.062128138	-0.013534284	
-0.16895837	-0.12604292	0.021741081	0.07444494	0.007755527	-0.09548491	-0.03012094	0.033705454	0.06541676	0.10508136	
-0.03425344	-0.01649916	0.045817338	0.00884254	0.03559965	-0.06591807	-0.062116835	0.043607388	0.05396115	0.0735267	
-0.007944939	0.017340852	-0.014896682	-0.104122706	0.049097072	-0.02006462	-0.080431595	0.100416645	-0.020239018	-0.011474278	
0.0023656401	-0.024543723	0.022089554	-0.08639377	0.06006902	-0.0072762608	-0.03536021	-0.025063472	0.074597575	-0.012025145	
0.03250863	-0.05071143	-0.04871909	-0.00553011	-0.06793259	-0.056380954	-0.061662205	-0.057210356	-0.0593637	-0.046028897	
0.079634584	-0.03530238	0.011848349	0.03380795	-0.100869805	-0.07249237	0.047113303	0.036337823	-0.008589232	0.041153733	
0.0028606427	0.050446965	-0.06196094	-0.038782917	0.020363035	0.008128909	0.053707015	-0.0032156305	-0.10064225	-0.11963092	
-0.022296196	-0.08149447	0.0873199	-0.02170374	-0.04596739	-0.094628565	-0.052330866	0.026293103	0.061806757	0.05302707	
0.013009871	-0.032731935	0.032659132	-0.024051992	0.04295948	-0.05380691	0.025820851	0.0350318	0.04048237	-0.034500692	
0.10324305	-0.03473484	0.0394911	0.04553459	-0.016571164	-0.05209184	0.04581434	-0.059233684	0.03946588	-0.06767439	
0.09262986	-0.0045835827	0.039880887	-0.018227736	-0.03543949	0.0049044015	-0.100130424	-0.06326072	-0.08672502	0.0068244534	
0.05458928	-0.050751	0.030225914	-0.0163013	-0.005552526	0.045145847	-0.012165635	-0.049821913	-0.058642134	-0.055224814	
-0.015990006	-0.031574797	0.02701279	0.10069339	0.013037661	0.015349026	-0.031257614	0.017772367	-0.031135472	0.08180273	
0.082293816	0.07572594	-0.031950798	0.021494366	-0.06099836	-0.044153612	-0.056863472	-0.004294622	0.06662642	-0.060394138	
-0.018619804	0.027346775	-0.029009733	0.038021747	0.023714647	0.02244715	-0.06900409	0.050704468	-0.050555166	-0.030975584	
-0.02449622	0.029522413	-0.05488845	0.033576205	-0.007878027	-0.080706485	0.051834863	-0.07600404	0.018617222	0.06213926	
0.022974012	0.0454984	0.0163659	-0.0005913755	-0.0240512	0.082521915	0.024163898	0.103366524	-0.053694144	-0.056596182	
-0.047766622	-0.07947603	0.009633762	-0.0073065576	-0.008841176	-0.09713992	0.0025527773	0.019119712	-0.060775716	-0.02110755	
0.07301333	0.0015708115	-0.012885198	-0.08268677	0.037294332	0.038990527	0.041577056	-0.054823104	0.013408342	0.07636163	
0.15913633	-0.04703272	-0.06270002	-0.06079439	0.10378637	0.06461088	-0.0027566396	-0.08958917	-0.14697276	0.026955115	
0.008136159	-0.032349363	-0.028431136	-0.05561173	0.10933991	0.07183949	0.077704124	-0.07613245	-0.078201585	0.016142918	
0.0571199	-0.043225065	-0.009862702	-0.009451247	-0.04022954	-0.007454398	0.0070789033	-0.019187132	-0.05508847	0.023237083	
0.06505401	-0.06488125	0.0024767958	0.085577235	0.013642849	0.025331827	0.09082002	-0.07755965	0.032147832	0.024088722	
-0.054928623	0.01658049	-0.03012962	-0.052808978	-0.0580631	-0.042613983	-0.056794833	-0.13455456	0.03343062	0.037433594	
-0.10874634	0.12650876	0.034929547	-0.044636633	-0.08729686	0.030603174	-0.01087978	-0.11695496	0.0437165	-0.022763744	
-0.13218741	0.1266141	-0.0012860548	-0.0010481641	-0.1135635	-0.018981712	-0.019185588	-0.06093476	0.07416883	0.13269499	
-0.14680012	0.082897894	0.014738192	-0.064929925	0.051248576	-0.04910785	-0.04208985	-0.019095462	-0.009442993	0.06838889	
-0.08608507	0.0643148	-0.0900584	-0.08109668	0.12685421	-0.09513554	-0.022756089	0.006248623	0.005783624	0.08182795	
-0.118710585	-0.08180617	-0.058089364	0.059176847	0.019512573	-0.06646337	0.03425281	0.036321014	-0.08745875	0.14600384	
-0.04315813	-0.081052415	-0.02681924	-0.0031116337	0.085656464	-0.027765628	-0.0351036	0.049605798	-0.0039933897	-0.01460702	
0.013865102	-0.06317285	0.05577924	0.05508871	0.0457369	-0.03073508	-0.015799118	0.061079394	-0.010754397	0.0050695287	
0.02263395	-0.022510288	-0.032165658	-0.0036478224	-0.004920878	0.009720197	0.032217443	-0.016436081	-0.06696401	-0.065612435	
0.09121118	-0.056560755	-0.030955225	-0.09415362	-0.000120816636	-0.0494391	0.009234661	-0.046820775	-0.12141647	-0.02318611	
0.009139333	-0.036312632	0.04929031	-0.07181452	0.05776369	-0.026461735	0.026765645	-0.023197385	-0.03167047	-0.018988937	
0.12781686	0.011708967	0.031664997	-0.0077660223	-0.02017274	0.061316278	0.030315058	0.01067171	0.0062016114	-0.09241375	
0.0013893606	-0.040748216	-0.044539265	-0.03792452	0.0011149549	0.013822872	0.068049386	-0.059704714	-0.012877796	-0.055811003	
-0.067635305	0.07040471	0.0024719755	-0.02623741	-0.0992802	-0.049466036	0.022182846	0.029362604	0.021446817	-0.098356284	
0.111362025	-0.038402997	-0.013002895	-0.04916606	0.094785266	-0.072062805	-0.012837443	0.038385756	-0.09946466	-0.039830245	
0.027508931	0.03326367	0.044260114	0.026710872	-0.0017372839	0.083232805	0.0675899	-0.011599032	0.024682203	0.010298311	
-0.0043095793	-0.040072963	-0.044183984	-0.0064810095	0.0035063813	-0.06658697	0.004628016	0.07513074	0.057908844	-0.05200361	
-0.065403104	-0.031603172	-0.02649848	0.07551537	-0.08267285	0.07628975	0.005555637	0.055330947	0.0019474224	0.027431823	
-0.0499875	-0.0098250015	0.05107497	0.0013788322	-0.015231556	-0.058590356	0.074604005	0.07650262	0.040471923	0.032998502	
-0.04046059	0.09742587	0.014421334	0.048653964	-0.031173985	0.046956584	0.09709488	0.047403596	0.0155067295	0.042794246	
0.017443964	-0.0041149436	-0.05541721	-0.040104907	-0.10916946	0.04456338	-0.035462424	0.08446808	0.049687333	0.09735574	
0.08840284	0.009950731	-0.04076547	0.029860817	0.044615988	-0.02075227	0.01737038	-0.012128996	-0.022987772	-0.057267796	
-0.054026045	0.027867848	-0.0633066	-0.05223204	0.047426473	-0.017831428	0.036974445	-0.09659248	-0.0012772604	0.04802956	
-0.011624825	-0.08404464	0.008314137	-0.04846691	0.021262353	-0.004181063	-0.036075145	-0.0435602	-0.027068008	0.008410139	
0.033327688	-0.09466674	-0.039453328	-0.04762136	0.05760987	-0.009768361	0.015940556	-0.010013762	-0.09286837	0.09902803	
0.047480635	-0.005875421	-0.0739521	-0.057250366	0.01798982	0.043913737	0.14672267	0.026605818	0.0064663514	0.08487785	
-0.020373443	-0.10128448	-0.03636085	-0.07269838	0.08881245	0.10207737	0.02302613	-0.028736094	0.033600915	-0.002247814	
-0.039912086	-0.016560614	0.09081054	0.0045136535	0.09720991	0.032657586	0.020073079	-0.007804971	-0.012884699	0.16746984	
-0.08352869	0.033796147	0.020574588	-0.04391976	0.09805316	-0.06689401	-0.0016262969	-0.16746973	0.10495019	0.043376133	
-0.11124071	0.113284834	-0.015600858	0.0033208195	0.003545212	-0.0008562079	-0.052854057	-0.039932575	0.05257556	-0.063213244	
-0.07299442	0.07799041	-0.007902899	-0.057635438	0.032056097	-0.10362219	-0.023799377	-0.036412206	0.045084685	0.03732842	
-0.060079947	-0.052967858	0.0075487862	-0.06175174	0.015585192	0.058995906	-0.010425225	-0.0076104677	0.06543495	0.017048769	
-0.04923408	-0.042508353	-0.109744415	-0.04517981	0.024756638	-0.07656913	0.077983946	0.04984772	-0.04437007	0.11831242	
-0.061717007	-0.085031465	0.046392415	0.015465729	0.022067925	-0.052532647	-0.057211693	0.019378815	-0.037291445	0.06697508	
-0.107706636	-0.02832826	0.062960416	0.051818416	-0.037228353	-0.028334346	-0.022794064	-0.049861103	-0.035560783	0.009539681	
-0.009877677	-0.08685444	-0.08802648	0.111827366	0.036637858	0.033697583	0.025908288	-0.002363496	-0.062250514	-0.037544925	
0.11412695	-0.08443018	-0.04573468	0.04727142	-0.06372883	-0.021262202	0.05012145	0.010273634	-0.0093837585	-0.07000587	
0.05376066	-0.011376941	-0.013003292	-0.022374263	0.0059465147	-0.05633277	0.034003057	0.048214253	-0.03913548	-0.12853445	
0.07772781	-0.025264626	-0.026952576	-0.011860527	-0.05044683	0.010106455	0.01977595	-0.0859341	-0.027298676	-0.061518107	
0.05192228	0.036254097	-0.07991575	0.02946559	0.089921825	-0.05694792	-0.0110075865	0.009779006	-0.115394644	-0.050093804	
0.009997568	-0.052195396	-0.098052494	0.0150271375	-0.10531366	0.055358917	0.008407085	-0.019697212	-0.052624483	-0.0579957	
0.007957661	-0.032387093	-0.055883843	-0.033094246	-0.0021963485	-0.018281564	0.07153703	0.00787864	0.041242164	0.04924728	
0.02846465	-0.10553749	0.02481538	-0.06567347	0.03514574	-0.026692722	-0.034583602	0.08162043	0.02397234	0.023068996	
-0.055355895	0.033929814	-0.02136086	-0.036441356	0.0580405	0.067974776	0.061474387	0.026156368	0.059237495	0.026242148	
0.05676478	-0.076700784	0.005891799	-0.051272858	-0.10123563	0.011670534	0.03610231	0.042787965	-0.053272806	-0.032700587	
-0.026430832	-0.0135240955	0.08528798	0.054069404	0.034413856	0.1013489	-0.0022937965	-0.009687416	-0.06229794	0.044773433	
-0.10931341	-0.037874445	0.0811223	-0.07263546	0.07515596	0.035175752	-0.08423283	0.071389996	-0.009161063	0.113326386	
0.064752795	-0.07794256	-0.01964241	-0.0366079	-0.07385738	0.020651273	0.10443645	0.033793136	-0.018506011	-0.020724587	
-0.019062044	0.05962113	0.05042947	-0.03328315	0.00477236	0.023017822	-0.0046108207	-0.040447984	0.010340887	-0.05997582	
-0.018400637	-0.011849497	-0.052971717	0.027190415	-0.036436334	0.027640965	0.044668544	-0.030429188	-0.0124188	-0.072439514	
0.025561329	-0.041096825	-0.0008921305	-0.027922004	0.06196366	0.05231356	-0.06572674	-0.06829844	-0.07953413	0.033393838	
0.025867788	-0.048894014	-0.013106393	-0.016866848	0.017665412	-0.12265596	-0.04788544	-0.06090614	-0.046388157	0.07047617	
-0.031628314	-0.030711215	-0.010221286	-0.050675455	-0.027542816	0.03538505	0.11913857	-0.07847707	-0.014139759	0.0048412913	
-0.025011454	0.014730159	-0.0038434349	-0.06906705	0.043951333	-0.091836646	0.041262873	-0.071765415	-0.000591955	0.026539605	
0.00738322	0.045426447	-0.045034293	-0.056377128	0.045835104	-0.10906423	0.028826673	0.02310214	0.013849959	0.10024317	
-0.01774696	-0.006218238	-0.005826326	-0.08156956	0.09606203	-0.003852468	0.0045869537	-0.0203329	0.061947472	0.067053445	
-0.053794682	-0.020186514	0.044769805	-0.04993638	0.026890937	-0.037198104	0.0483452	-0.08417176	0.052415192	-0.03728095	
-0.17751089	0.03171861	-0.008345767	-0.11700776	0.12561588	-0.022056427	0.06593103	0.0066266507	0.067890994	-0.020697825	
-0.1229071	0.12865503	0.11507301	-0.06548641	0.03271984	-0.072235435	-0.014742374	-0.083813824	-0.032000996	-0.058613792	
-0.098099686	0.029922789	0.0068330653	0.0025314933	0.081222735	-0.021906247	-0.08040198	-0.057144206	0.061722107	0.03892757	
-0.030857246	-0.076448485	0.104696944	-0.013834626	0.04186285	0.06320372	-0.06256008	0.072321005	-0.0055527976	-0.006393955	
0.0060956576	-0.08446131	0.08961038	0.008055547	0.092961796	-0.037691735	0.072644465	0.062052835	-0.048187084	0.0053469683	
0.007813246	-0.06815439	0.040150404	-0.00584073	0.056911062	0.020679496	0.00080527813	0.0677845	-0.059583787	0.00078600144	
0.043905117	-0.00539293	0.069458015	0.07680433	0.10556049	-0.021533381	0.09975538	-0.041853137	-0.0374765	-0.058746167	
0.08101892	-0.063589714	0.030396927	0.056655385	-0.014093722	0.062161192	0.06893109	-0.018226366	-0.06700862	-0.044611014	
0.025250051	-0.07412756	0.04002184	0.020846987	-0.10074872	-0.01629837	0.09551696	-0.018898712	0.008516818	-0.022840956	
0.023618773	-0.036804277	-0.022398924	-0.05752235	0.027530966	0.038340904	0.063405536	-0.004211426	0.036404993	-0.05205377	
-0.043358963	0.06202452	0.025042407	-0.036548622	-0.011405215	-0.06683257	0.05011384	0.011050729	0.07083547	-0.004855024	
-0.015437383	-0.013372411	0.04462426	0.042073812	-0.027995728	-0.06543271	0.050381463	-0.059853178	-0.027054641	0.022578819	
-0.050408036	-0.068288356	-0.017379433	-0.020981248	-0.06671676	0.095108286	0.015787305	-0.07164297	-0.016773315	-0.030149162	
0.02572814	0.014829507	0.022993485	-0.014504299	0.018605594	0.030696386	0.08783216	-0.00033184668	-0.040096484	0.00773339	
0.083489835	0.01533039	-0.0354861	0.015128684	-0.07058827	0.06076224	0.06535518	0.02343971	-0.07508967	0.0992804	
0.062349092	-0.013425781	-0.070837945	0.054692708	0.07715699	0.03336298	0.0025144692	0.0031121247	-0.028785393	0.06149856	
0.005030018	0.0704101	0.031432793	-0.02626518	-0.004360805	0.10925362	0.00044240995	0.086868405	-0.057299487	-0.07224639	
-0.05647021	0.009422864	-0.0044070655	-0.024118198	-0.008984499	-0.0055119274	-0.017396592	0.016569965	0.06186346	-0.05536175	
0.051836148	-0.06727609	-0.042452026	-0.039354384	0.0257927	0.10099072	0.10001097	-0.036949243	0.013149912	-0.061059672	
0.0055006677	-0.019521764	0.034149773	-0.080131814	0.024998782	-0.066441074	-0.06302638	-0.0041910023	-0.059975732	0.07240521	
0.017172746	-0.022980426	0.0054595927	0.00797893	0.044986952	-0.046853896	-0.042294506	-0.04605766	0.027706943	-0.032107696	
0.054535188	-0.011718201	0.09983652	0.060450487	0.056341823	0.014006911	0.041636687	0.013447209	0.07496399	0.025792383	
0.04300157	-0.074249394	7.586649e-05	-0.05524246	0.06752147	0.013824379	-0.02416827	-0.0032825808	-0.010514311	-0.054110985	
0.02015182	-0.122048765	0.030973632	-0.037669703	-0.045199096	-0.043889336	0.04812826	-0.020156654	-0.05587771	-0.002689202	
0.021664001	-0.08274746	-0.040564083	-0.008604005	0.06216227	-0.09654211	0.044408772	-0.06577121	-0.050619394	-0.035389457	
-0.02594304	-0.057949994	0.08998247	-0.076004	0.014009361	-0.03061534	0.13503747	-0.1269971	0.021137852	-0.0011880337	
0.022029487	0.090099975	0.0961071	-0.16162562	-0.02739942	0.018914668	0.07185958	-0.04781866	0.0372411	-0.06234342	
-0.090398215	0.04943242	0.12902258	-0.08040024	0.058228496	-0.11657102	-0.018302208	-0.11351561	0.040057756	-0.06800277	
0.006155131	0.13343725	0.088085435	-0.12767829	0.09203963	-0.012668412	-0.011154756	-0.07255105	-0.0018234374	-0.015458071	
-0.024704905	0.11136325	0.08586813	-0.00829901	-0.005469133	-0.02440049	0.017005552	-0.06420603	0.063724875	-0.026022093	
-0.020780567	-0.045462113	-0.0029764255	0.025093408	-0.02770491	-0.017839843	-0.0045418786	0.064596415	-0.103039674	0.086662926	
-0.0990058	0.020575041	-0.050142184	-0.021450259	0.052044693	-0.05049675	-0.004932304	0.15735468	-0.09874267	0.05532107	
0.030993808	0.033437055	0.07400129	-0.015629228	0.03757432	0.09557556	0.052235242	0.07195818	-0.051966466	0.14045762	
-0.045508567	-0.14290711	0.08856255	0.016781235	0.12611823	-0.026900321	0.117786445	-0.055659108	-0.071257524	0.013472211	
-0.042759914	-0.058927123	0.0021039834	0.081066325	-0.049939636	0.013309685	-0.036670905	-0.06897797	-0.017552262	-0.06960219	
-0.0046316828	-0.011485466	0.049310442	0.05923304	0.0023252121	0.022715202	-0.009027349	-0.07663766	0.0144633725	-0.053794958	
0.0967634	0.010534983	-0.02066621	0.027534075	0.043595083	0.06235897	-0.027661169	0.01095076	-0.026878143	-0.03493351	
0.04438137	-0.07891212	-0.012878165	0.029275998	-0.026884925	-0.02930126	0.08030084	-0.02661998	0.00091554824	-0.06704132	
0.08973743	0.016737195	-0.00740492	-0.0102093015	-0.061418943	0.00024286874	-0.01450092	-0.016042992	0.08202723	0.05291259	
0.028060745	0.0043788212	0.049653914	-0.017868787	0.002728171	-0.08296914	-0.10562222	-0.074133165	0.011042725	-0.050370727	
0.07931842	-0.07825206	0.027042747	-0.08758445	-0.057625186	-0.059040297	0.05291381	0.010538765	-0.032637585	-0.0051037115	
-0.095612645	0.037564706	0.09538485	0.081409946	0.04176139	-0.040474564	0.10430947	0.03433358	0.027266623	0.0784328	
-0.077227704	-0.10315317	-0.084381014	-0.007242213	-0.057584092	0.058441926	-0.014741729	0.025887838	-0.031781513	0.11307958	
-0.03456681	-0.014556927	-0.030272573	-0.056645606	-0.025623038	-0.031241508	0.08547336	0.04596671	0.05042793	0.025277002	
0.032661192	-0.06178235	0.031980507	0.03254649	0.032960694	-0.059731547	0.027380077	-0.08605426	0.03550471	-0.012589433	
-0.036831878	0.0143213365	0.055401612	-0.05295868	-0.034769107	0.058942955	-0.017754706	0.08386914	-0.040184278	-0.0026784774	
0.019626625	-0.064779654	0.050650645	0.07790332	-0.012327088	0.041946556	0.09972715	0.052780025	-0.013961036	-0.074394524	
0.00054197386	-0.07891673	-0.030878874	0.06492779	-0.013757562	-0.03144199	-0.06733909	-0.012040847	-0.0903642	0.055125035	
-0.011599327	0.045531522	-0.04996084	-0.06973462	-0.053149916	0.04261543	0.08207972	-0.017536508	-0.06417469	-0.059807412	
0.05936861	-0.011933602	0.120647915	-0.037545122	0.051903658	0.048996802	0.0091755465	-0.020338664	-0.012730842	-0.0738016	
0.1416917	-0.026939536	0.012438329	-0.03609331	0.024228906	-0.007879524	-0.014969888	-0.059603617	0.067174055	-0.06526039	
0.04223738	-0.00532912	0.00740859	-0.12410389	-0.0433725	-0.034796428	0.066701725	-0.00014277641	0.022794323	-0.09101441	
-0.032544393	0.021603765	0.06595901	-0.11330243	0.012922321	-0.12747085	0.055081688	-0.04379679	-0.018000595	-0.064501666	
0.0040329313	-0.01960451	-0.034883507	-0.0011297002	-0.06791631	-0.058946557	0.028303735	-0.11824157	0.036130615	0.0010401685	
-0.044396505	-0.006759894	0.14641267	0.038856257	-0.06872001	-0.06419604	0.08859428	-0.010516657	0.12407231	-0.037806384	
-0.11826519	0.051209938	-0.06198569	-0.028983347	-0.08274969	-0.013175994	-0.008631983	0.029687474	0.06582977	0.019590221	
-0.04108104	0.07054732	0.051448423	-0.17422244	0.052190848	-0.08667084	0.015054607	0.034861743	-0.044207226	-0.039691158	
-0.13853341	0.05294904	0.051709674	-0.05821777	0.087299675	-0.094648466	0.04078304	0.06689297	0.042404145	0.021735935	
-0.07761973	0.07419575	-0.060590845	0.00061202416	0.08296269	0.011501893	-0.007324108	-0.022395179	-0.062852606	0.13149928	
-0.107137345	0.0022248086	0.05942174	-0.1212397	-0.056992322	0.059735052	0.11063193	0.07370456	0.060773406	0.117761716	
0.028149476	0.0034568622	0.10289268	0.06384936	0.023354467	0.06438673	0.0782327	-0.093128696	0.05319157	-0.03238749	
0.041360144	-0.079185724	0.06213345	0.13216701	-0.03670468	0.03592038	0.15909709	0.029894179	0.047410354	0.03761077	
0.081691936	-0.12773016	-0.03281766	0.07166779	0.028541414	0.07091687	0.08207037	0.060728267	0.0045106104	-0.0052099037	
-0.04520707	0.027936311	0.0222885	-0.056207545	0.065477036	-0.057742763	0.044265613	0.00924139	-0.006338939	-0.01944103	
-0.026169864	-0.07751788	0.060394797	0.036403447	-0.07372294	0.00871261	0.09326829	0.015841898	0.0629462	-0.0070135365	
0.105963975	-0.08891892	0.0818424	-0.07556213	-0.010680153	0.025601842	0.00025770147	0.037684657	-0.071979895	0.029550092	
-0.011552012	-0.02012422	0.07123218	-0.02199662	0.0025887527	-0.0706039	-0.09070199	0.0024638146	-0.022594826	0.042106915	
0.041055042	-0.02027414	-0.021974059	0.028493367	0.0093143415	-0.08809759	0.09970252	0.0017665277	-0.025365828	-0.026705798	
0.034319475	0.06315954	0.01596099	-0.019465113	-0.11006518	0.011855242	0.058729213	-0.03266157	-0.0021577207	-0.02246702	
-0.004901555	0.054235615	0.027418278	-0.0036125507	-0.029225951	-0.033560015	0.032986097	-0.051651247	0.11063173	0.018491207	
0.037458304	0.051086936	0.03307392	0.0013631524	0.0043718247	0.02804652	-0.045377854	-0.009028559	0.037075657	0.04716639	
0.015335362	0.017602528	0.051140122	-0.04153284	-0.012118853	0.06007761	-0.058234535	-0.009886822	-0.014863954	0.08568669	
0.026068842	-0.07175792	0.021976445	0.013531722	-0.006064981	0.03553167	0.028885042	-0.058188606	0.058616042	0.012504875	
0.054570794	0.021416185	-0.016146308	0.039893568	-0.0018130994	0.0047766827	0.042347178	-0.020460587	0.046151455	-0.034697797	
0.075018115	-0.05537066	-0.011065067	0.03268944	-0.05184096	-0.0503037	0.032101553	0.04797773	0.012202351	-0.017314605	
0.07316184	-0.034715332	0.052010175	0.061261754	-0.009047941	0.08575773	-0.06983284	-0.041810583	-0.08936455	-0.08557545	
0.02241505	-0.008656634	-0.035529006	0.014273824	0.066847086	0.015521969	-0.123654865	0.00921361	-0.020905014	-0.1353348	
0.08930451	0.005964482	0.0585338	-0.07552391	0.02890007	0.1312124	-0.022711	-0.033493914	0.04800088	-0.065904	
0.12876543	-0.023042068	0.09035075	-0.014926246	0.07010067	0.098764576	-0.0032969858	-0.024370974	0.0942675	-0.01359205	
0.04851036	-0.0063657337	0.08852806	-0.072848186	0.0026979332	0.060354058	-0.04995012	-0.077757	-0.031926066	-0.0792672	
-0.033992846	-0.01761184	0.04271708	0.06433175	-0.03655109	-0.10274536	0.04612002	-0.08192005	-0.0012464578	-0.107284926	
-0.027971793	-0.030589567	0.0698069	0.026622519	-0.0058313473	0.04793211	0.035527255	0.03365186	0.14295615	-0.043289505	
-0.07778685	0.083356805	-0.046529442	-0.029899321	-0.09124242	0.026371125	0.09453462	-0.0014375786	-0.016905224	-0.10732114	
-0.026970657	0.059617583	-0.027851386	-0.086554274	-0.016932156	0.0057408013	0.11659684	-0.03569448	0.06670685	-0.08244926	
-0.062135477	0.16173568	0.09903521	0.0012292109	0.043898568	-0.041829076	0.06008315	0.034264587	-0.12726924	-0.043522242	
-0.007902773	0.065665394	0.0041369195	-0.0038677852	0.0900567	0.04555166	-0.03484639	0.09941273	-0.031734504	-0.020023214	
-0.007408177	0.07556627	0.04449451	0.05938897	0.03429074	-0.046694245	0.0632928	-0.03589386	-0.08950805	-0.040020365	
-0.003142366	-0.07913055	-0.01042469	0.04225304	0.08133615	-0.063016005	-0.050783526	-0.097329624	0.027166026	-0.0380941	
0.08747329	-0.12368692	0.07929222	-0.07546571	0.011663608	0.10183611	-0.035475664	-0.024518274	-0.018571317	-0.08247792	
0.007949905	0.026547143	-0.0074436655	0.10190476	-0.05962155	0.031994227	0.026815848	-0.027773138	-0.04822649	-0.03791225	
0.03506942	-0.017116671	0.039521582	0.043932196	0.028572407	-0.045760788	0.07401526	0.061998002	-0.105169706	-0.04786319	
0.020968584	-0.04052322	0.08240625	-0.025853314	0.0009972624	0.00562267	-0.04857034	-0.012071429	-0.035252344	-0.0011215447	
-0.017623443	-0.055373494	-0.04567897	-0.05618026	-0.06958384	-0.020467207	0.010827396	-0.002830657	0.009954735	-0.030850487	
-0.06746316	-0.057366878	0.043628365	0.055750117	-0.010724942	-0.09276554	0.015854033	0.004649008	-0.014981488	-0.076265395	
0.03410736	-0.04750249	0.05666296	-0.0060677435	0.048147015	0.08260588	0.027423978	0.05309663	-0.009318581	-0.04140051	
-0.001694892	0.061492443	0.083067454	-0.029430397	0.04523983	-0.005945277	0.01998861	0.011914937	0.055034913	-0.05709156	
-0.056476198	-0.027822563	0.06871089	-0.0124241235	0.008195194	-0.024066076	0.031596303	-0.101274125	-0.08997287	0.017238965	
0.032916177	0.01652823	-0.02022148	-0.008916312	-0.011270322	-0.011782107	-0.064425975	0.030178184	-0.055895176	-0.081975885	
-0.07350525	0.038903523	0.058558814	-0.030677866	0.06368067	-0.028769458	0.09563382	0.09835887	-0.054857366	0.019921103	
0.036092497	-0.06687852	-0.015954707	0.04649179	-0.04330338	-0.05808449	-0.023737144	0.004279535	0.08607207	0.10661435	
0.03441623	0.07497882	0.024065772	0.07409391	0.07101831	0.010622063	0.052185055	-0.012145939	-0.035417695	0.024552455	
-0.09036885	0.06389724	-0.052466396	0.050880976	0.08740435	0.02120042	0.03201657	-0.01111692	-0.07873029	0.022093887	
-0.044801835	-0.00961063	-0.023146642	0.113681175	-0.023020359	-0.07407432	-0.023357889	-0.101519465	-0.008477952	0.020457832	
0.0051163984	0.0077210492	-0.018428616	0.016009295	-0.085217014	-0.102318674	-0.041361656	0.013631922	-0.11724986	0.07875616	
0.0060815183	0.008429302	-0.0361999	-0.049427092	-0.0056927553	0.008483567	0.06918049	-0.066930205	-0.0036129148	-0.0019021103	
0.033415075	-0.022021454	0.13740392	0.09995459	-0.071942955	0.12579417	0.008495614	0.047630783	0.026020074	0.063411094	
0.082153834	-0.035389133	0.025264163	0.039843764	-0.111631975	-0.041172914	0.008506836	-0.07990272	0.038866792	-0.043512568	
0.12640025	0.08312244	0.080073595	0.008887996	0.04599065	0.028663108	0.050227422	0.005394824	-0.06396047	0.015359121	
-0.03139299	0.0020816815	0.038523547	-0.028779984	-0.08680551	0.077800445	0.05341602	0.012127716	0.014433006	0.012832961	
0.06553632	-0.008804257	0.039196942	-0.03649696	-0.07080521	0.04689596	0.029216615	0.04298989	0.075600125	-0.12000968	
-0.0136230895	0.066216014	0.10373636	-0.077765726	-0.014865831	0.008298721	0.054395966	-0.06747464	0.031196728	-0.080592975	
0.072975725	0.092707336	0.033936046	-0.115314014	-0.049505357	-0.035015434	0.09613923	0.014799029	-0.095289744	-0.08663368	
-0.062295895	-0.030933136	-0.037726726	0.06294646	-0.024396263	-0.0819199	0.15139815	0.01705628	0.0071634287	0.0806029	
0.030755026	0.035915285	0.028219035	-0.02365958	-0.07353275	-0.07109342	0.05878804	0.11715144	-0.02511449	-0.076441824	
0.011799045	-0.08636101	0.024400076	-0.0123889735	-0.042181805	0.0024433946	0.008295127	0.0905494	0.0006102623	-0.1003622	
0.032252744	-0.025480578	-0.047353305	-0.015266781	-0.06198629	-0.04818424	0.1255412	-0.040346995	-0.060927674	0.012816261	
-0.06749785	-0.027387492	-0.006498972	0.008111019	-0.03665832	0.071284264	-0.015996663	-0.047198057	0.012483156	-0.043875545	
0.114252046	-0.026610307	-0.06822005	0.0858166	0.028051224	0.020853749	-0.019755878	-0.053946123	-0.027233243	0.025307132	
-0.031106869	0.031914312	0.0064819916	0.021740004	0.0638607	0.103872806	0.08474876	-0.121918924	-0.09747956	-0.02852058	
0.0011790618	-0.09464118	0.09626452	-0.05639283	-0.111986674	-0.011008981	-0.0069418526	-0.064569116	-0.016996404	-0.019603318	
-0.0106493775	0.003135753	0.09415084	0.024759063	0.105310895	0.098181374	-0.049255032	0.03242072	-0.017802749	-0.01116847	
0.09718909	-0.08773324	-0.04247016	-0.010067083	-0.022985326	0.027467292	-0.11321897	-0.09394808	0.07442569	-0.08984146	
0.108794436	-0.013189235	-0.023095947	-0.0077252802	0.024534643	-0.010617796	-0.078612015	0.05286446	0.006751758	0.01416393	
-0.0428964	-0.035756864	-0.08013017	0.03741529	-0.047537327	0.009416969	-0.10520292	0.014707345	0.10926989	0.028999357	
0.041243576	-0.007982376	-0.003645478	0.034894925	-0.047530565	-0.069949195	-0.04081507	0.02532716	0.04751342	0.024912862	
-0.014143631	0.0075424174	0.0127548305	0.09148369	0.00049910875	0.06025227	0.015064118	0.01563553	0.09229144	0.07459689	
0.0738978	0.038551215	-0.019788621	-0.018491002	-0.021329239	-0.007733355	-0.04985997	0.0043585165	0.03544788	0.048916496	
-0.071160875	-0.019588122	-0.0074469144	-0.009511717	-0.043473773	0.006405827	-0.042771976	-0.053887386	0.012987612	-0.0009242476	
0.026847947	0.060742795	0.09280612	0.090002336	0.048259236	-0.0036718068	0.02535164	-0.010551318	-0.05719033	0.036690008	
0.035225987	-0.065435	-0.07430479	-0.013441747	0.049060136	0.028188318	-0.10824439	0.0077411095	-0.023312397	-0.0054284814	
-0.05483464	-0.00409614	0.033862606	-0.05479766	0.053644147	-0.082444154	0.024643572	0.022565737	0.07952968	0.008819187	
-0.03606653	0.092382096	-0.013381465	0.08191785	-0.06794879	0.019837981	-0.033507206	0.054381672	-0.03462599	0.08459131	
0.10100228	0.023082726	-0.0210624	0.0934424	-0.02152705	-0.01683889	0.03327214	-0.06223735	-0.0022241634	0.014276071	
-0.050912786	-0.025559532	0.024341822	0.057717986	0.041998945	0.016111637	0.016528042	-0.0028814594	-0.015043159	-0.12758279	
0.070682466	-0.08363317	0.09727276	-0.023575192	0.028917164	0.0763307	-0.10664322	-0.029207686	0.0521599	-0.11100423	
0.023669392	-0.031126382	0.030528277	0.048144266	-0.011712076	0.07413348	0.052950244	-0.009545543	-0.05239996	-0.098319046	
0.06395281	0.029990586	0.11503897	0.03616064	-0.14584598	0.1036501	0.0131457	-0.110529006	0.064211704	-0.01978863	
0.10034474	-0.083481915	-0.02548384	0.013030783	-0.07005938	0.09565033	-0.031320293	-0.045313857	-0.07313817	-0.0742627	
-0.013478882	-0.055228315	0.060242034	-0.063030615	-0.04536169	0.05181145	0.076463126	0.035541438	-0.004843623	-0.013875905	
0.030750506	0.01779357	0.0020758	-0.08807411	0.005243583	-0.06768992	0.06789688	-0.07820171	0.07648667	-0.044707146	
-0.08495521	0.09848952	-0.111831725	-0.014966062	-0.0018184052	-0.02953789	-0.009947654	0.07463426	0.0031144824	-0.047622997	
-0.047033228	0.07126742	-0.071024805	0.025970593	0.033371296	0.04701785	-0.009246189	-0.01585019	-0.011130679	0.07821708	
0.009649469	0.04805687	0.040156472	0.1116951	0.01828095	-0.008361042	-0.010743385	0.034099244	-0.033165798	-0.070661396	
0.012933546	-0.113130584	0.0403275	-0.018500144	0.040010266	-0.049727608	0.02712003	-0.0035806487	0.024964448	0.02095347	
0.057772562	-0.05864503	-0.0426262	0.04988371	-0.0134226065	0.014619825	-0.0030898438	0.01291578	0.026324514	0.013006279	
0.052634045	0.061364993	0.046772305	0.121465854	0.0044226106	0.084089175	-0.04677826	-0.05139217	-0.021152286	-0.015508993	
-0.09227644	-0.0042139282	-0.0806776	0.051824477	0.00808488	0.064853065	-0.0075679803	-0.028584175	-0.030800814	0.05108768	
-0.07657153	0.020424418	0.027165323	0.033071622	0.016279269	0.005335661	-0.0975634	0.06794976	0.0012607699	-0.013320667	
-0.070226625	0.07989001	0.061741028	-0.03937632	-0.030560374	-0.012045878	0.0028741888	-0.028802564	-0.07224516	-0.00922613	
-0.056429263	0.05694326	-0.029648632	-0.006899206	-0.038064767	-0.0440858	-0.08066845	0.05014409	-0.0009865215	0.00114876	
0.011601295	-0.101391494	0.10778612	0.032463927	-0.0799567	0.05539466	0.015438341	-0.019377267	-0.0909789	0.07131876	
-0.037083022	0.08659722	0.06563661	-0.0137724625	0.034777027	0.054847416	-0.02481695	-0.086748175	-0.047961198	-0.06993433	
0.07054737	-0.0034915325	0.030214801	0.09070764	0.034166913	0.020322839	-0.014440792	0.016433818	0.017578436	-0.025513548	
0.0071194284	-0.073463656	-0.055672973	0.0077328747	-0.05259885	-0.04333336	-0.07991887	0.015130614	0.04349548	0.037967212	
-0.03737499	-0.049139228	-0.109687164	0.021860939	-0.012813714	0.072052725	0.04372354	-0.058549818	0.047317866	-0.072743155	
-0.019785337	-0.05417783	-0.0076092808	0.0019596892	0.0025848926	0.10951279	0.10157524	-0.036467567	-2.542858e-05	0.04083926	
-0.055187006	0.107662275	0.018583832	0.05637014	0.042625595	-0.04508269	-0.008191391	0.02016822	0.032133464	-0.022159936	
0.021410294	0.069734834	0.026752342	-0.052298013	0.025473433	0.04127508	0.001789311	-0.104585305	0.10626709	0.031227065	
0.03856218	0.07450324	-0.005589236	0.012505011	-0.05930441	-0.06830977	0.11201231	-0.027078325	-0.003095413	-0.009176254	
-0.032167897	0.04109936	-0.018551558	-0.00057236844	-0.021612423	0.06445845	-0.0265324	0.03642945	-0.03581617	0.052478798	
0.08731201	-0.036152046	0.04009724	0.046362694	-0.041384965	0.05609788	-0.09302943	0.016137112	-0.03927585	-0.09572969	
0.058674447	-0.0011914845	0.076203875	0.008466147	-0.12679873	-0.07120048	-0.08726173	0.009776254	0.039027043	-0.013406724	
0.06852162	-0.039374057	0.053512987	0.057277087	-0.046669047	0.091866076	-0.109055504	0.021778762	0.06604866	-0.019068435	
0.061153516	-0.021203382	0.08047515	0.16526593	-0.048321314	-0.0012389761	-0.07931448	-0.01677366	0.10056731	-0.07369259	
0.03289672	-0.021544749	-0.08025392	0.077969365	0.048661426	-0.02563554	-0.0041368343	-0.05153367	0.04310531	-0.11644263	
0.08619106	0.07262666	-0.020790672	0.062670074	-0.061478775	0.09326487	-0.045344405	0.01271316	0.04495251	-0.021149825	
0.060236253	-0.045669902	0.02077783	0.014297902	-0.005657847	0.065040335	0.044713378	-0.018866953	0.04072211	0.013226439	
0.04989634	-0.028915953	-0.046608746	0.093553714	-0.03939196	0.024376977	0.021228611	-0.06737789	0.113836974	0.043689325	
0.055771858	-0.020566422	-0.09194353	0.01613123	-0.0701815	0.11563399	-0.03374042	0.0051006377	-0.007694117	-0.047753375	
-0.059261627	0.041952774	-0.045384627	0.021174794	-0.02651396	0.075123884	0.016891327	-0.0011376723	0.12826096	-0.002787979	
-0.012313858	-0.02404519	-0.040681034	0.030457634	0.050449967	-0.03297756	0.025723983	0.05677363	0.06716079	0.033951204	
0.01767038	-0.09879818	-0.0014026032	0.04928324	-0.048667468	-0.034443736	0.036149956	0.017237715	-0.008504066	-0.055788025	
0.043763403	0.03457718	-0.093645774	0.0058888174	0.068205565	0.035694305	-0.06143596	-0.012928996	-0.018610448	-0.08985888	
-0.028308785	-0.030611899	0.084076	-0.025985185	0.040879432	0.059966203	-0.050162703	0.009036923	0.060158815	-0.021119155	
-0.0320341	0.00827548	0.041142903	0.07835871	-0.03499851	-0.0067789555	0.016977888	-0.034201104	-0.042833507	0.032847494	
-0.035317123	0.0057735224	0.031276934	0.066396736	-0.058395762	-0.016413515	0.0486696	0.059668463	0.013246342	0.027078904	
0.026884532	0.04231059	0.029479505	-0.033502717	-0.09947293	-0.012434942	0.07644875	-0.03610049	0.03548236	0.037710387	
0.019408643	-0.0956912	-0.04804109	-0.016619878	0.003862262	0.052249487	-0.08257424	-0.039907806	-0.024218645	-0.047042724	
-0.08966775	0.008644666	0.119952	0.055183534	-0.035876397	-0.041391503	0.07992283	-0.06219679	0.0754326	-0.04643453	
-0.015998913	0.020701803	0.10788892	-0.07648835	-0.06685657	0.027843269	-0.058259726	0.007276114	-0.005149734	-0.055866938	
-0.019113844	-0.05381293	0.04364747	-0.0013803768	0.028442102	-0.017629506	-0.06490373	-0.057178147	0.0054895375	0.031455293	
0.11397159	0.08581778	-0.044740975	0.0012471451	0.033564884	-0.014695453	-0.021847831	0.03342789	0.029164718	0.028495505	
-0.10277998	0.011625248	-0.031525318	-0.012382317	0.0034100977	-0.07786533	-0.058250636	-0.007411855	0.022613807	-0.0075073573	
0.057626206	-0.094907604	0.027360743	-0.06725972	0.022363478	-0.039417416	0.066322215	0.08104581	0.042964216	-0.029549856	
-0.029646145	-0.058085777	-0.09508442	-0.080071114	-0.07024904	-0.015783407	0.001299444	-0.00913276	0.082917675	0.0239281	
0.02058238	0.048874505	0.016560622	-0.031117741	0.01817217	0.066632725	-0.02949811	0.011711247	-0.025940627	-0.037988316	
-0.01369836	-0.08030119	-0.024133872	-0.043209106	0.06732447	-0.057974245	0.04608905	0.040203348	-0.0071947128	-0.041255035	
0.029363774	0.04352542	-0.04445878	0.058383115	0.07989714	0.06102609	-0.0009716877	-0.008650005	-0.012685539	0.025607103	
-0.05511807	-0.0049089566	0.029875562	0.04091002	0.019413901	0.031987127	-0.030672772	0.024216948	0.0024539838	0.01944984	
-0.025309375	-0.013604011	0.0006255994	0.044366144	-0.059659142	0.015756475	-0.05096138	-0.028213294	0.011913433	-0.03445773	
0.04280234	-0.009843543	-0.11362541	0.052681956	0.031178147	-0.04527078	-0.016934069	-0.053431567	0.012991208	0.06363772	
0.01996485	0.06087563	0.08080368	0.112203315	-0.07759348	0.01002175	-0.005528869	-0.011723144	-0.043521255	-0.13590887	
-0.018099291	0.009288449	0.044493623	0.046518996	0.04223179	-0.013329987	-0.0073746117	-0.08935276	0.057838574	-0.083253585	
-0.0077109206	0.020987386	-0.104294926	0.0029555159	0.068383604	0.029988088	0.030521754	0.022377133	0.12442107	-0.0034133042	
0.054145686	-0.03055776	-0.029233519	0.030641234	0.050335363	0.033891097	-0.107528895	0.035033572	0.017700618	-0.009809134	
-0.018506845	0.08487318	-0.09257536	0.068472594	-0.05944602	0.09002812	-0.12068294	-0.07147059	0.033815034	-0.016527267	
0.0055740434	0.064639665	0.008008721	0.042059556	0.009564354	0.061814725	-0.065371126	0.07248437	0.12993753	0.052490372	
0.051128425	-0.013308735	-0.06285333	0.07720545	-0.0015020455	0.05503036	-0.1276597	-0.0126866	0.026361391	-0.047731247	
-0.0061007957	0.024533255	0.026639944	-0.0291026	-0.0025276383	0.002434211	0.0012603601	-0.10360059	0.0211261	-0.054868344	
-0.015097642	0.0044234092	-0.05252585	0.037367914	-0.014747832	-0.028262472	-0.0787126	0.035297118	-0.028243348	-0.010350301	
0.05625261	-0.056525614	-0.037417136	0.056453653	0.00060964184	-0.03547038	-0.028362578	-0.0030591083	-0.041501094	0.11224235	
-0.015823297	-0.03481163	-0.05239181	0.052905217	-0.024920868	0.04742502	0.045097284	-0.1051516	0.054877676	0.060468905	
0.09710229	-0.056138687	0.10799006	0.035907418	0.073812686	0.03201137	0.017228026	0.0045116763	-0.074430645	0.050373774	
-0.04988957	-0.056491148	0.0049416935	-0.0008373911	0.064590834	0.04656342	-0.04595545	-0.08370595	-0.073594615	0.043593187	
0.02575109	0.10330884	0.045210272	-0.036305226	0.03873161	-0.077387884	0.03558751	-0.029945804	-0.01570426	-0.085345656	
0.015177511	0.08835736	-0.0666014	0.035283566	-0.018479938	0.06683838	0.0073325173	0.02688751	0.036591526	-0.0073421313	
-0.0067771184	-0.0066390927	-0.00813019	-0.05133354	0.014055431	0.018008832	-0.003124898	0.06738664	-0.024343848	0.018159272	
-0.07171593	-0.0683952	-0.0028156643	0.048059028	0.052534852	-0.010370851	-0.049456187	0.019718502	0.021189367	-0.0084859235	
-0.06403805	0.09472267	-0.021723798	0.042638585	0.0055765104	0.0057169492	0.10853834	-0.11277967	-0.016029907	-0.010900786	
0.06892391	0.10655296	0.07121231	-0.016489217	-0.08683242	0.006935944	-0.05208895	-0.0016705492	-0.002371219	-0.041505493	
-0.04883961	0.02457608	-0.10190608	0.03171099	-0.030946318	-0.058367714	-0.07856083	0.046527684	-0.10706559	0.035430003	
-0.015216859	0.08033641	0.060815718	-0.06283163	0.014791555	0.019129643	-0.04721988	-0.0039690044	-0.080366485	-0.0017030032	
-0.00232095	-0.05836992	-0.008883538	0.029545827	-0.09765029	0.03616547	0.015301015	-0.080856875	-0.03342303	-0.08764173	
-0.02836478	-0.016248561	0.020517725	0.038490172	0.024365941	-0.066872776	-0.020569386	-0.06484799	-0.02838438	-0.091603	
-0.03123794	0.020622792	-0.0039544604	-0.025636023	0.053404268	-0.018192474	-0.022887573	-0.09737192	0.01371179	0.028552603	
-0.029299023	-0.028002769	-0.003986567	-0.022657653	-0.11246912	-0.015273319	-0.031832065	0.030040044	-0.083058015	-0.033379596	
-0.018877782	-0.023044217	0.06986629	-0.0017577648	-0.0026862384	-0.014274459	0.022918576	-0.052716956	-0.021560695	0.074234575	
0.08899578	0.001511305	0.015628649	0.013116716	0.012980466	-0.04077648	-0.043823417	-0.02488191	0.004735609	-0.02821476	
-0.03489434	0.03187779	-0.02699975	0.013553983	-0.049510222	0.040022023	0.044148795	0.012861581	0.034196083	-0.04446084	
-0.005569535	0.031573325	-0.003306968	-0.10289539	-0.004569453	0.0042286757	0.06506941	0.0055875718	0.0016828541	0.0028179612	
-0.048179526	0.08812995	-0.111648105	0.056375038	0.023927035	-0.018903084	0.015164441	0.012411136	0.03369791	0.058358278	
0.024290876	-0.05339898	-0.07551736	0.012420562	-0.019368518	-0.014256225	-0.10302904	0.09060282	-0.026628375	0.0820101	
-0.004254782	0.011918294	-0.09331949	-0.01364065	-0.009025531	0.017331075	-0.007524783	0.06671249	0.0754987	-0.048944432	
0.065573886	-0.11753981	0.0040343706	0.04884391	0.084836535	0.0492265	-0.023937041	-0.01131908	0.10204023	-0.030487956	
0.03493905	-0.07842282	0.027348371	0.057595886	0.04901841	0.020144273	-0.049672622	0.09036023	0.023618767	0.019390117	
-0.044410698	-0.020379487	-0.052899394	-0.016616609	0.0012253607	0.014285348	-0.004170891	-0.036284395	0.0024283072	0.11281076	
-0.03072139	0.031965833	0.077556014	0.005620822	0.064229846	0.11103309	0.0049240077	0.04181436	0.02087492	0.057990663	
0.035215955	-0.04343905	-0.03265914	-0.028551748	0.032634486	-0.035888486	0.022020385	-0.022785563	0.062494118	0.08485984	
0.058066547	0.08707078	0.04992093	0.0034533413	0.03467713	0.020581352	-0.059976596	-0.011597165	-0.009778986	0.10725105	
-0.046445817	-0.049929716	-0.091526516	-0.00579941	0.0055131405	-0.025442736	-0.026053067	0.03579284	0.016540779	0.041065603	
0.009469337	0.081261545	0.009790504	-0.06736371	-0.06258571	0.002522098	0.06938365	0.062439688	-0.001338361	0.039449044	
0.014680393	0.03191203	-0.08832056	-0.052901644	-0.023777815	-0.04487653	-0.07019347	0.02218164	0.053098436	-0.052225947	
0.028350037	0.03708838	0.038940426	0.059165817	-0.016207978	0.005804223	-0.028047794	0.021488179	0.00076333235	-0.019132333	
0.059586354	0.06609945	0.022713851	0.058793187	-0.0692451	0.032133665	0.0858412	-0.00037126042	0.027020447	-0.025873061	
0.033618234	0.027630247	-0.029904513	-0.009423163	0.019549165	0.053022645	0.07833502	-0.01733188	-0.022618165	-0.00692747	
-0.03792896	0.017865613	0.061984695	-0.06761665	0.029129237	0.08613771	-0.03852843	-0.092208706	0.031906165	-0.016532812	
-0.034852758	-0.026079837	-0.023898834	0.04056212	0.035111647	0.0064467206	-0.06859154	-0.09226082	-0.05161519	-0.028230898	
-0.013507985	-0.062085614	0.101317964	-0.054997083	-0.014005963	-0.08307392	0.027202915	0.032325562	-0.112167545	-0.038904987	
-0.0126519725	-0.028921468	-0.013717953	-0.02455939	-0.033090487	0.10584258	-0.064299956	0.055882208	0.03480261	0.00894448	
-0.007958148	0.040626578	0.0055519943	-0.061285224	-0.016815275	-0.00059533125	0.061866008	0.036662128	0.05841574	0.05300402	
-6.8264504e-05	0.024278374	-0.09177039	0.03204513	0.07108665	0.05159821	0.045845397	0.023344554	-0.03893137	-0.07275249	
0.025343455	0.002919888	0.05044708	-0.08997276	0.074263096	-0.03118294	0.0075555355	0.02601595	-0.0022855992	-0.06503376	
-0.030294573	-0.021985067	-0.00020046381	-0.05974003	0.078708954	-0.07773288	0.022076769	-0.016723512	0.046734765	0.018585067	
-0.038069703	0.002588252	-0.02969499	0.040829327	-0.012626844	-0.09893804	-0.024111927	0.060984213	-0.008832707	-0.038734112	
-0.010852271	0.098006316	0.0007199562	-0.010392419	0.007326084	0.0921674	0.07593385	0.022513242	-0.113131024	0.07661734	
-0.013725166	0.017644554	-0.033142224	-0.040028814	-0.0837803	-0.10729831	-0.049261674	0.04685838	0.020447742	0.0051788203	
0.027681068	-0.10448181	0.02160987	-0.007551894	0.022441525	-0.016429458	0.02630053	0.00023697357	0.031411223	-0.10553397	
0.03736976	-0.05537187	-0.04144753	0.02279281	-0.070327014	-0.03284092	0.04120003	-0.044423807	0.04204158	-0.024073675	
-0.0049156966	0.020005774	-0.07059671	-0.00773422	-0.11222651	-0.0640473	-0.023403777	0.046281267	0.04208082	-0.033101693	
0.07845855	-0.003340491	0.053563304	-0.028163938	0.010037795	-0.013249932	0.07294588	0.055409733	-0.011650995	0.03815835	
0.022489244	0.00035316646	-0.028538074	-0.047100566	0.005566938	-0.02533842	0.01529162	0.05490962	-0.078090504	0.024646174	
0.03584036	0.01646208	-0.028619884	-0.09297597	0.038470477	-0.037914746	-0.065561995	-0.039082613	0.031086186	-0.012198678	
-0.00019348106	-0.032230712	-0.11557205	-0.0025547806	-0.01548576	0.058197886	0.048889574	0.06366943	-0.012723113	0.034142602	
-0.07458198	0.02984033	-0.06910709	0.013368352	-0.0653348	-0.008229287	0.033522945	0.008339429	0.05875608	-0.021765286	
-0.007016212	-0.04163741	0.018494446	-0.058948595	-0.024720833	0.06666598	-0.10380722	-0.018744636	-0.09388688	0.030365016	
0.07627377	0.051142678	-0.08625549	-0.0065561626	-0.034770463	-0.0006888434	-0.013639994	-0.066165596	0.009831325	0.10829488	
0.02002544	-0.09560584	0.012410223	-0.08526225	0.09736436	-0.06499173	-0.10486776	0.02263387	0.07117968	0.022500455	
-0.005576488	-0.087667905	-0.098965816	-0.056758337	0.04224105	-0.047437154	-0.034039807	-0.034758832	-0.070938475	-0.052603833	
-0.08857137	0.100968316	-0.011281633	0.097364955	0.0897184	0.057399314	-0.027744707	0.06669279	-0.049733173	-0.028017774	
0.012680614	0.021430999	0.100452095	-0.01904993	0.035554096	-0.041194193	-0.010495818	-0.00515454	0.057365973	-0.041896243	
-0.0006563419	0.029339252	-0.031880215	-0.025085943	0.006090013	0.054883946	-0.051294364	-0.04626435	-0.050647017	0.074414335	
0.082835704	0.024682954	0.06107883	-0.064025335	0.003016898	-0.018908525	-0.012449508	0.05145598	0.053309012	0.027070174	
0.048039258	0.033138987	-0.041908193	-0.009624012	-0.0019317506	-0.012204035	0.012853168	0.009383627	-0.004723597	-0.050798636	
-0.036125075	-0.059154518	0.032447446	0.015174545	-0.0508091	0.041874908	0.07366513	0.0116112	0.018811928	-0.0127718765	
-0.07502128	-0.012067978	0.07710362	-0.04475146	-0.022210749	0.049285006	-0.075795	-0.025853692	0.058276728	0.0070602437	
0.021193437	-0.05538597	-0.03848718	-0.0035107587	-0.07674947	0.018251836	0.027655205	0.053788014	0.025258753	0.012149335	
0.04610282	-0.05716253	0.025198428	0.06151066	-0.011163478	0.013629901	0.073711514	-0.04410694	-0.011313971	-0.023092557	
0.038245775	-0.05667975	-0.008821681	-0.05717433	-0.10791626	-0.024215423	-0.055870675	-0.011171377	-0.011050141	-0.014494165	
-0.034669317	0.0032296702	0.0012278236	0.097089715	-0.009702128	0.08525595	0.007327183	0.104019694	0.010348674	-0.0073288428	
-0.009473395	-0.044489536	0.10449313	0.007862683	-0.090249866	-0.06811247	-0.0484449	0.055606086	0.054641988	0.076423235	
-0.020394564	0.07413607	0.036776457	0.010363868	0.08679701	-0.00032499456	-0.05907399	-0.01976316	-0.02209734	0.03903192	
0.047072	0.021002047	0.06658457	0.055172745	-0.039745003	-0.026875313	-0.010834411	-0.061188884	0.048366338	-0.035719212	
0.029760048	0.038326535	-0.10111524	0.048188128	0.0087585775	-0.05186333	-0.054218907	0.008904044	-0.029733986	0.00018020712	
-0.030363372	-0.025054576	-0.07260591	-0.045812033	-0.0911764	-0.010500972	0.02408312	-0.08105235	-0.040015154	-0.0058750277	
0.010674894	0.05623906	0.010246612	0.00068475306	0.04452492	-0.061827622	-0.015296805	0.002815953	0.049862027	-0.10426092	
-0.087954104	0.01447013	0.0036643292	-0.049616266	0.049020894	-0.07785517	0.044198524	0.037344236	0.023157014	-0.034886826	
-0.105837226	0.041597843	-0.109299004	0.00034770806	-0.008254436	0.0460103	0.013840092	0.005871738	-0.056385957	0.097685665	
-0.07273736	0.013649339	-0.10764536	0.07096225	-0.04417751	-0.007687451	0.011802094	-0.0075348	0.045257013	0.018780306	
0.006008488	0.044266425	-0.01127899	0.008877034	0.07666848	-0.044110097	-0.06652708	-0.007853951	-0.042459927	-0.04792382	
-0.025811056	0.02218296	-0.020080145	0.021540225	-0.024378357	0.002175556	-0.039126456	-0.029174287	-0.08137148	-0.038698714	
-0.1049789	0.0055762986	-0.048956987	-0.034319606	-0.07257975	0.030143505	-0.062816486	-0.015188879	0.001024802	0.047793247	
-0.023100263	-0.06549515	0.007324036	-0.0052222777	-0.059775732	-0.09822974	0.03139627	-0.017832087	-0.02854531	0.019754367	
-0.08956058	-0.07234591	-0.0041496414	0.07944508	0.011372036	0.06235542	-0.0050118812	-0.021829303	-0.03827286	-0.03487822	
-0.029256644	-0.07017427	-0.055103477	0.011451998	-0.086511485	-0.0057098097	0.0040102573	0.034091238	0.06024823	0.015482225	
-0.0017883006	0.059962645	-0.023394702	-0.03297157	-0.0765556	-0.0015535845	0.029011933	-0.062205423	-0.009562503	0.05108218	
0.045318104	-0.0069137956	-0.01991741	-0.041263133	-0.007823387	0.027337126	0.018949833	0.0005298298	0.0063148635	-0.0031144528	
-0.11369837	0.02394852	0.006046685	0.0009823415	0.018552333	-0.026667822	-0.03501668	0.070912406	-0.041989945	-0.0067291334	
0.006435262	-0.06142018	-0.08279424	-0.044526786	0.053441193	-0.048189502	-0.025586883	0.06221979	-0.02185482	0.050217487	
-0.01595781	-0.011669892	0.006082232	0.05293745	0.045840085	-0.02028419	-0.0530229	0.089687794	0.07132843	0.029124612	
0.020568257	-0.007217302	-0.033302378	0.044025403	-0.032578677	0.06713971	-0.0046921605	0.061202366	0.027178472	0.023858	
-0.047565762	-0.09368838	0.029837571	-0.057148717	-0.045937173	0.027876472	0.022489885	-0.04094391	-0.02086244	0.03440662	
-0.03462679	-0.035868764	-0.034996767	0.0016263827	0.07443916	0.03116613	0.008266366	-0.059879184	0.011570628	-0.072494	
0.03391588	0.100077115	-0.01785716	-0.059487537	-0.06111557	-0.108679496	-0.044881724	0.024941135	-0.0036995334	-0.11005844	
0.08728834	0.027201766	-0.044615224	-0.028401898	-0.064550176	0.045690168	-0.10697531	0.016242055	-0.011625683	0.013502464	
0.033514477	-0.01636771	-0.005969262	0.037205487	0.024939459	-0.026908994	-0.029782113	0.037035838	0.024392046	-0.060609926	
-0.028840331	-0.034019135	-0.019048927	0.04746414	0.016735734	-0.04101664	0.04216643	0.01480962	0.0991697	0.06813434	
-0.07555531	-0.00029625537	-0.0018312999	-0.030955007	0.099974796	0.05180831	0.060698703	-0.056932103	-1.8839577e-05	0.004876904	
-0.10975932	-0.045199037	-0.021724619	-0.028217142	-0.044638734	0.010020662	-0.030355796	0.03464543	0.03009794	0.007507666	
-0.08728902	0.021768421	0.041467983	0.064445786	0.050824024	0.04822958	0.042414647	0.009911194	0.014516229	-0.033691604	
0.00041566615	0.11092314	0.06555729	0.09198398	0.04803976	0.030295866	-0.01568838	0.017522937	-0.01050045	0.035922367	
-0.051599853	0.019553073	-0.0324882	-0.015904846	0.016931059	0.023146205	-0.020376047	0.05633657	0.07118447	-0.024042059	
0.005534625	0.00087321305	0.013519037	0.019914612	-0.03586565	0.039296813	-0.027434332	-0.047088765	0.042987622	-0.011499978	
0.052528232	0.051091213	-0.0146487085	0.00818362	-0.008334168	-0.03565293	0.07805656	-0.06755694	0.06563837	0.039020408	
0.018740885	0.031139469	-0.053527094	0.08207232	0.0057467837	0.03639755	-0.0060952916	-0.020025127	0.03961739	-0.07618252	
-0.03326212	-0.037753835	0.0051880395	-0.036680758	0.038492534	0.020716375	0.06397996	-0.026437474	-0.049249135	0.10737153	
-0.0351988	0.06009967	-0.027187007	0.07470571	0.04005251	0.019001352	-0.041120507	-0.010680333	-0.07823971	0.052736107	
0.031361826	-0.003368436	0.032767314	-0.03193308	-0.083350144	-0.029275201	0.03712448	0.017309856	-0.057986706	0.020249419	
-0.04137392	-0.10666894	0.08397961	0.040054776	0.053092398	0.024838999	-0.007858383	0.11216567	-0.06025954	-0.048951507	
0.095388606	-0.0915194	-0.040817663	-0.06318893	-0.036407925	-0.05863573	-0.045932267	0.068518974	0.006926006	0.015630607	
0.061864186	0.077962115	0.035065748	0.035316158	-0.05289185	-0.022881884	-0.031139188	-0.04289395	-0.017039586	0.042873845	
0.066839546	-0.0008002965	0.08239375	0.03276438	0.0153898755	0.049697466	-0.031159762	0.020970166	-0.033036266	-0.07964923	
-0.002423969	0.031282026	0.016471347	-0.06131572	-0.021252751	0.056886792	-0.025938807	0.008212601	0.045974944	0.047550797	
-0.038612396	-0.05949394	0.020764185	0.021987012	0.008954055	-0.06823405	-0.08051198	0.011986028	-0.022067593	-0.055139575	
0.05503191	-0.026247056	-0.007979915	0.024643205	0.07761149	-0.06471939	0.047139455	-0.008901561	-0.046749055	0.08545696	
-0.06392125	-0.006517762	-0.024884678	0.0003850361	0.05420567	-0.0034213392	0.02331048	0.057439588	-0.072566524	-0.04431911	
-0.056823663	-0.068736255	-0.015209398	0.021140222	-0.07986516	-0.07885398	0.08956752	0.053827718	0.07203292	-0.0069205784	
-0.06571064	-0.07063359	0.035047054	0.055268146	0.03252722	0.015321317	-0.10472924	0.09064765	0.023445114	-0.01343198	
-0.049042135	-0.04097918	-0.017450396	0.06094411	0.023408746	0.07663472	0.0030225997	-0.064948194	-0.007897337	-0.058836006	
-0.023899514	-0.00013524963	-0.04287669	0.0035465315	-0.087612696	-0.05460641	0.004850802	0.049443934	-0.04072202	0.09396752	
0.05528775	-0.106542125	-0.0007535049	0.063323036	-0.04602407	-0.06790845	0.0911559	0.098766685	0.058483247	-0.009471255	
0.043029178	-0.023757935	-0.0048078913	0.006221135	0.090227045	0.11183481	-0.084509596	0.042973757	-0.093752004	-0.073042355	
0.09940777	0.07013234	-0.008419058	0.06375128	0.038185667	-0.059584558	-0.016670601	-0.04000275	0.03882133	0.001841796	
-0.022307023	0.0035063562	-0.06583533	0.015684733	0.0054036058	0.04125401	-0.064196736	-0.010935028	-0.014319823	-0.050474953	
***0.1***
--------------------------------------------------
0.0009024707	-0.09072517	0.0059107626	0.046315566	-0.0012214618	0.006737086	-0.00031940296	-0.00826168	-0.0026933218	0.0587515	
-0.022876682	0.006843852	0.045574922	-0.07793668	-0.031092277	-0.007436676	0.01849827	0.013766553	0.079014786	0.053395696	
0.055161458	-0.07387604	-0.030072004	0.055852182	0.050535616	0.04208237	-0.06477568	-0.10909413	0.069481894	-0.062132537	
-0.030236429	0.04776835	-0.055124316	0.032351945	-0.073109545	-0.008928335	-0.048407376	-0.04369037	-0.06434536	-0.023704048	
-0.080023475	0.05188744	0.070146754	0.018516656	-0.041329157	0.019550262	0.02385157	-0.029473986	0.054761603	0.017324163	
0.0036620246	0.03297941	-0.10063511	-0.010177545	-0.027643649	0.041783657	-0.052986886	-0.018718282	-0.017579857	0.085226335	
-0.08362882	0.05493527	0.03565802	0.056755826	0.04671748	0.04318154	-0.03812198	0.104945	-0.031472433	0.06570989	
0.09618123	-0.018584177	0.021491665	0.018112862	-0.047193483	-0.081165925	-0.046791587	-0.04579082	0.029082222	0.01914837	
0.025105642	0.03561281	-0.0038341158	0.08121278	-0.01993954	-0.067577265	0.021740168	0.009159934	0.04159899	-0.00090744166	
-0.014275232	0.042454988	0.00662324	-0.01154738	0.05538532	-0.0499724	0.03812226	-0.0045396523	0.037482247	-0.04114738	
0.07520628	0.010117934	-0.019214183	-0.0020434414	-0.05655265	0.042305022	-0.04310673	0.07713576	-0.041442137	-0.035822526	
-0.050281476	-0.02343245	0.04892008	-0.022021597	-0.0690745	-0.06069391	0.030687204	0.05552446	-0.049806498	-0.03964346	
-0.02578148	-0.043888442	-0.01116927	0.10356553	0.027998077	0.0618737	-0.018094767	-0.031332377	-0.0049439725	-0.01641269	
0.02234495	0.043533947	0.03462582	0.023843948	-0.07237135	0.06740593	0.047724072	0.046111096	-0.08913438	-0.041796338	
0.038486972	0.0025547142	0.0024189723	-0.053971704	0.09699734	-0.093656525	0.06469976	-0.049530476	0.060582045	-0.05489588	
-0.040810723	-0.09664006	0.037733942	0.04236634	-0.020751704	-0.03142356	0.03373814	0.052408446	0.033667445	-0.10147974	
-0.075716846	0.04417969	-0.021370994	0.09043187	-0.047503315	-0.035079435	-0.03289308	0.0038742772	0.00903913	0.073583566	
-0.0038813832	0.021026246	-0.010882807	0.037906576	0.00038969464	-0.035162177	-0.07526409	0.0059105125	0.026092872	0.06525821	
-0.024861451	0.027123595	0.0062440448	-0.007071952	-0.049017243	-0.088512905	-0.06228542	0.026371397	-0.001537889	0.003683487	
-0.023990713	0.009960154	0.016981319	-0.077576704	0.062095217	-0.016007941	-0.0067361672	-0.014435578	-0.06524647	-0.0677612	
0.013296831	0.10081024	-0.008367928	-0.03745615	0.019726772	0.012136452	-0.03908587	0.035020802	0.06480513	-0.046084937	
0.046058632	-0.07081137	-0.05684595	0.00077024515	0.04862824	0.005800582	-0.0047955005	-0.060937718	-0.022196416	-0.010548849	
0.04112537	0.09178141	0.028027624	-0.047401007	-0.03130487	0.06746992	-0.022471996	-0.046617888	0.04770298	-0.026808372	
0.013912771	0.03942458	-0.013139416	-0.081586875	-0.04672928	0.07453396	-0.049713966	-0.091458976	0.038515292	-0.043584045	
0.006311517	-0.086476	0.0139785865	0.032215483	0.06098069	0.029960608	0.00040908938	-0.026050534	-0.10407922	-0.057225373	
-0.09838443	-0.008093047	0.085818626	-0.014126898	0.03498889	-0.00037755427	-0.021758892	0.012508509	-0.022473622	0.028158298	
0.040890943	-0.09766956	0.01484608	0.0029703302	0.031876262	0.049966633	-0.0009236528	0.03518676	-0.036501266	0.024829514	
0.057734106	0.044570025	0.011350722	0.020707455	0.036255173	-0.04324384	0.039528742	-0.09616916	-0.004199827	0.07880018	
-0.077776805	0.036629636	-0.04319673	-0.07074213	0.065535516	-0.055986423	-0.0032474673	0.04350816	-0.012485072	0.07620624	
