0.0009024706	-0.09072516	0.005910761	0.04631557	-0.0012214619	0.006737085	-0.00031940299	-0.00826168	-0.0026933216	0.058751505	
-0.022876682	0.0068438514	0.04557492	-0.07793667	-0.031092273	-0.007436676	0.018498268	0.013766554	0.07901479	0.0533957	
0.05516145	-0.07387604	-0.030071998	0.055852175	0.05053562	0.04208237	-0.06477568	-0.109094106	0.069481894	-0.062132545	
-0.030236425	0.04776834	-0.05512432	0.03235195	-0.07310955	-0.008928336	-0.048407365	-0.04369036	-0.06434536	-0.023704043	
-0.08002347	0.051887438	0.07014675	0.018516654	-0.041329153	0.019550264	0.023851564	-0.029473986	0.0547616	0.01732416	
0.0036620242	0.032979414	-0.1006351	-0.010177546	-0.027643643	0.041783653	-0.052986894	-0.01871828	-0.017579855	0.08522633	
-0.08362881	0.054935258	0.03565802	0.056755822	0.046717472	0.043181535	-0.03812198	0.10494498	-0.031472433	0.06570989	
0.09618122	-0.018584173	0.021491664	0.01811286	-0.04719349	-0.08116593	-0.046791587	-0.045790814	0.029082226	0.019148368	
0.025105638	0.03561281	-0.003834115	0.081212774	-0.019939538	-0.067577265	0.021740165	0.009159933	0.041598987	-0.0009074417	
-0.014275231	0.04245498	0.0066232397	-0.011547379	0.05538531	-0.04997239	0.038122255	-0.0045396523	0.037482247	-0.041147377	
0.07520628	0.010117933	-0.019214183	-0.0020434414	-0.056552656	0.042305015	-0.043106727	0.07713575	-0.041442133	-0.035822522	
-0.05028148	-0.02343245	0.048920076	-0.022021595	-0.0690745	-0.060693894	0.030687198	0.055524454	-0.049806494	-0.039643463	
-0.025780309	-0.043886892	-0.011165952	0.103568524	0.028001191	0.06187571	-0.01811428	-0.031330764	-0.0049421457	-0.016410809	
0.022348717	0.043538503	0.0346113	0.023852853	-0.07235877	0.06741118	0.047684476	0.04611589	-0.0891268	-0.041789673	
0.038488302	0.002556031	0.0023947349	-0.053969152	0.09700372	-0.09365559	0.064703256	-0.049529064	0.06058603	-0.054893047	
-0.04081067	-0.096640006	0.037732933	0.04236645	-0.020751433	-0.031423517	0.03373829	0.052408494	0.033667605	-0.10147962	
-0.07571684	0.04417969	-0.021370992	0.09043186	-0.047503304	-0.03507943	-0.032893084	0.003874278	0.009039131	0.07358356	
-0.003881383	0.021026243	-0.010882805	0.037906576	0.00038969456	-0.035162177	-0.07526409	0.0059105116	0.026092876	0.06525822	
-0.02486145	0.027123597	0.0062440448	-0.0070719514	-0.049017232	-0.088512905	-0.06228542	0.026371397	-0.0015378889	0.0036834874	
-0.023990711	0.009960152	0.016981319	-0.0775767	0.062095225	-0.016007943	-0.0067361677	-0.014435576	-0.06524648	-0.06776119	
0.013296832	0.100810215	-0.008367929	-0.037456147	0.019726768	0.012136451	-0.03908586	0.035020802	0.06480512	-0.04608494	
0.046058632	-0.07081136	-0.056845944	0.00077024504	0.04862825	0.0058005815	-0.0047955	-0.060937706	-0.022196412	-0.010548848	
0.041125372	0.091781415	0.02802762	-0.047401004	-0.031304866	0.06746991	-0.022471994	-0.04661788	0.047702976	-0.02680837	
0.013912768	0.03942458	-0.013139417	-0.08158687	-0.046729278	0.07453396	-0.049713966	-0.091458976	0.03851529	-0.043584038	
0.0063115167	-0.086476006	0.013978587	0.032215483	0.060980685	0.0299606	0.0004090894	-0.026050529	-0.104079224	-0.05722537	
-0.098384425	-0.008093045	0.085818626	-0.014126896	0.03498889	-0.0003775543	-0.021758894	0.012508508	-0.022473622	0.028158294	
0.040890936	-0.097669564	0.014846077	0.0029703302	0.03187626	0.049966626	-0.0009236529	0.035186756	-0.036501266	0.02482951	
0.05773411	0.04457002	0.011350722	0.02070745	0.036255173	-0.043243837	0.039528746	-0.09616916	-0.004199827	0.07880017	
-0.077776805	0.036629632	-0.043196723	-0.07074212	0.06553551	-0.055986423	-0.0032474678	0.043508153	-0.012485073	0.07620623	
0.043284565	-0.014664742	-0.024723379	0.024207827	-0.07973844	-0.008225754	-0.09995991	0.07435305	0.081657596	-0.06837487	
-0.002416808	0.020760389	0.02079314	0.1135683	0.06559614	0.024418954	0.08559032	-0.095390186	-0.085329965	-0.0049838517	
-0.0065881535	0.01564231	0.068285465	0.06603436	-0.108343065	0.05244752	0.08387197	-0.08177442	-0.078602925	0.051863633	
-0.021449346	0.06833768	0.05956975	-0.009024386	0.062363587	-0.032472406	-0.011147735	0.0036660533	-0.035159513	-0.007767758	
-0.031091183	-0.01450856	-0.033937868	0.02280662	-0.019148055	-0.075911865	0.08201702	-0.0025323473	-0.0082216235	-0.021129081	
0.038264126	0.022763949	0.009830584	-0.02975476	-0.07141868	0.058046702	-0.04106219	-0.014028666	0.03913631	0.0041548857	
-0.0011948074	-0.0038658069	0.05853585	0.02836354	0.020545641	0.08690268	0.026665453	0.06673968	0.04858188	-0.060873292	
-0.030459205	0.029128674	-0.020062706	-0.048851606	-0.031396173	0.046288066	-0.1136445	-0.027189033	0.02428311	-0.024833752	
-0.038864095	-0.05261827	-0.085888006	0.07293084	-0.055698168	0.059614472	0.015804123	-0.03591831	-0.0023069128	0.06151386	
-0.05135542	-0.028836409	0.009851832	-0.013862236	0.0077067325	-0.047713857	-0.005764523	0.010569129	0.01788729	-0.01344968	
0.0039532417	0.048473094	0.07632057	-0.0014029951	-0.027765958	0.011303525	0.09562697	-0.0053777453	-0.104115866	0.049021997	
0.009691803	-0.05805223	0.013640305	-0.07631022	-0.019148966	-0.0739453	0.0037236852	0.100308776	0.022368943	0.062085804	
0.01812658	0.0062160585	0.10236092	0.03639411	-0.013789482	-0.062157016	0.00833206	-0.014330347	0.047733516	0.10103718	
0.06741572	-0.036471285	0.09583839	0.057263102	-0.08448917	-0.025372103	-0.098035514	0.0010031323	0.022442866	-0.046620656	
-0.037147187	-0.023877723	0.016857982	0.010045755	0.03989488	-8.3221166e-05	0.06942759	0.003291494	-0.04828786	1.2123603e-05	
-0.07141918	0.016888598	0.039169982	0.016269647	0.0019879553	0.04017895	0.05295841	-0.014156095	-0.027405966	0.0011814495	
0.004722225	-0.113720566	0.051202454	0.0604988	0.0054215216	0.075058185	-0.037249133	0.10447566	0.084324725	-0.05587141	
0.048777845	0.038753066	-0.0025580456	0.01262691	-0.019210901	0.0013694682	-0.0017451175	-0.03351889	-0.030583777	0.06583314	
0.08768604	0.010966165	-0.0997202	-0.03425563	-0.039272267	-0.065503486	-0.07442375	0.07529853	-0.07161787	0.033373766	
0.0073587936	0.025738753	0.05083304	0.057082947	-0.032182198	-0.08642146	0.03961803	0.062606834	0.01687674	-0.0012520637	
0.027651284	-0.07779291	-0.088352546	0.020046176	-0.033788726	0.060069017	-0.053294167	-0.017129023	0.002682624	-0.04033285	
0.098607525	0.044745572	-0.068947084	0.061825458	0.017361498	0.05317285	0.08966383	0.010696901	-0.014472092	-0.016140785	
0.046504337	0.035017896	0.026283292	0.028570708	-0.0875746	-0.037518006	-0.011710736	0.013409909	-0.0072640968	-0.04948217	
0.0203258	-0.024322055	-0.053555973	-0.025097499	0.10409456	-0.0049199504	-0.039304577	-0.03463516	0.026035167	-0.013297806	
-0.009968711	0.011030354	-0.0031800505	0.02208865	-0.011755968	-0.0751277	-0.024983149	-0.08970282	-0.006371636	0.020571066	
0.03313781	0.075743325	-0.031677447	0.0136509985	-0.016965605	0.044191983	0.03814547	-0.10984836	0.032648563	-0.09095482	
-0.030123731	0.025728038	0.06674388	0.021714402	-0.036038134	-0.06143145	0.07064521	0.10346756	0.022168318	0.048269905	
0.01766707	-0.052723765	-0.023128115	-0.013189083	0.10077632	-0.045136627	0.040900227	-0.015228849	-0.0898443	0.009281734	
-0.026056707	0.03569654	-0.01561622	-0.05592996	-0.014163017	0.093291536	0.095869996	-0.021572528	0.094407514	-0.03372675	
0.074453965	0.048744954	-0.039587215	-0.06636419	-0.04437674	0.04398731	-0.07940034	0.016993618	-0.011869016	0.08088461	
0.021151887	0.006235727	0.020703197	-0.07721248	-0.019861994	0.03618182	-0.0612809	-0.0049594794	0.008622789	0.0024361624	
-0.046727717	-0.0028566013	-0.009534725	-0.036372382	-0.016876025	0.048334703	-0.08011793	-0.022326926	-0.084166825	0.08790247	
0.013654013	0.07520611	0.070156015	0.04673485	0.052596103	-0.01849445	-0.06637502	-0.009992029	-0.009269308	0.021414833	
-0.031085063	-0.010513717	0.048621636	0.03850124	0.022683103	-0.0403382	-0.07688347	-0.01672759	-0.02928671	0.010146694	
0.048410315	-0.024619285	-0.07515609	0.023477562	-0.01929714	-0.02964205	0.078944035	-0.008434863	-0.046369743	0.08355425	
0.05746502	-0.05498975	-0.0201372	0.05923942	0.010811624	-0.055186093	0.04379623	0.093749344	0.02454188	0.031174025	
-0.0066839457	0.036679097	-0.049446777	-0.06015187	0.06731419	0.07915458	0.054959886	-0.0012078464	0.08005581	-0.06504204	
-0.045734502	0.08117715	0.085970275	0.047298126	-0.044670727	0.020148782	-0.0033534958	0.08432152	0.016026944	0.01694453	
-0.050294213	-0.047530048	-0.052173126	-0.022528043	-0.003448244	0.06598573	0.04131487	-0.004584926	-0.045099687	-0.07451643	
0.014738769	-0.018670287	0.06656777	-0.034914125	0.04867847	0.018660054	0.09816423	0.007262475	0.036987264	-0.027580164	
0.04877595	-0.106903985	-0.03341528	0.06666334	-0.05215122	-0.03546158	0.029706955	0.0033657544	-0.05604929	-0.08095595	
0.01598397	-0.043143213	-0.05544652	-0.032620914	0.105716795	-0.06458969	0.06581072	-0.025399603	-0.018597983	-0.04336407	
0.0003895915	0.008654209	-0.105170526	-0.03127948	0.035847083	-0.01529536	-0.010864693	0.041126456	0.068275884	0.08207552	
-0.113458216	0.059854694	0.076786645	0.052397925	-0.031276446	-0.00025882586	0.065335155	0.073923305	0.011561555	-0.049845308	
0.075166665	-0.03679192	0.040218342	-0.027939402	0.0772251	-0.030719334	0.032523017	-0.036329187	0.006409165	-0.07869251	
-0.033342984	0.010764264	-0.0190175	-0.08638206	-0.004781525	-0.06455385	0.0244727	-0.050876666	-0.08314822	-0.045463372	
-0.006327499	-0.068543404	-0.012630642	0.052105382	0.03918551	0.07314514	0.011239306	0.025773508	-0.023079053	0.053271003	
0.1005008	-0.062491357	-0.041277952	-0.014721904	0.030572418	-0.009297212	0.10067472	0.031071337	0.002785814	0.0399954	
0.006799275	0.059597757	-0.029866518	0.022222899	0.044862468	-0.06491513	-0.006131045	-0.04857553	-0.002674899	-0.024362331	
0.0448782	0.016344883	0.007097238	-0.021246776	0.03320787	-0.06393491	0.08035635	-0.054674946	0.015700078	0.03953701	
0.0558302	-0.08601475	0.018790659	-0.04707346	-0.009380969	-0.049445137	-0.08237231	-0.023556303	-0.08128869	0.052260343	
0.038457874	-0.09683259	0.076798216	0.029995827	0.017834567	0.05154862	0.09700879	-0.036722936	0.056313258	0.059851628	
0.04527712	-0.053926744	0.04203173	-0.07721495	0.02568204	-0.010434605	-0.018578706	0.0037654159	0.09172843	-0.0039809654	
-0.014815947	-0.019381134	0.09072576	0.021777604	0.062443893	0.056522537	0.059247423	0.063278094	-0.024681235	0.04363139	
-0.002390395	-0.05679432	-0.05843862	-0.010542996	-0.023079246	0.023344321	-0.050887793	-0.0027485709	0.007987518	-0.029980196	
0.04030476	-0.06501869	-0.10449411	0.08348353	-0.004129061	-0.034982182	-0.0059894263	0.02579604	0.050940894	-0.0041658683	
-0.09779416	-0.06233062	-0.028087543	-0.0059213615	0.081123084	0.05091007	0.04220674	-0.032040946	-0.059531163	-0.053805027	
-0.018735787	0.07274395	-0.0073855636	0.07883695	0.021888368	0.028993651	0.0681718	-0.004207909	-0.02560293	-0.06671861	
-0.023025377	-0.010681607	0.050236184	-0.025110422	-0.015473865	0.023765005	-0.08510773	-0.021918245	0.005486537	-0.002984653	
-0.0061416305	-0.058335174	-0.004632043	0.009188512	-0.030805333	0.059436943	0.07488923	-0.07705983	0.05094299	0.03371131	
-0.015678568	0.070351556	-0.0376084	0.018510776	0.07643058	0.04283764	0.041038856	-0.039137177	0.045519486	-0.11035454	
-0.04098492	-0.064643145	0.07256562	0.020531775	0.03333435	0.0831504	-0.03785243	-0.012884274	-0.04299356	-0.10668183	
-0.024107344	0.014223868	-0.00923758	-0.052342657	-0.057714768	-0.0745343	0.034692142	-0.03289992	0.03830747	-0.006397484	
-0.040710844	0.018523047	0.03518371	0.04015248	-0.0825559	0.0078543965	0.046714094	0.009006032	0.045310322	0.03767308	
0.0811517	0.04582596	0.00983007	-0.08707876	0.028366636	-0.039001197	-0.06322285	0.016453436	0.007997834	-0.06006493	
-0.035924815	0.071322314	0.023265272	-0.0029041187	0.0326269	-0.03505795	0.008720762	-0.039977435	-0.041081455	-0.10255659	
-0.041159324	0.03620872	0.12362215	-0.011692201	0.07173626	-0.04218686	0.07900226	-0.048016995	0.067200154	0.02524815	
-0.01898589	0.021405647	0.09155106	0.0775009	-0.06578134	-0.013938967	-0.030663976	-0.09859189	-0.11473901	-0.04768687	
0.011778242	-0.06463462	0.047472034	-0.08316657	0.02641693	-0.060160704	0.078352034	0.010233769	0.0030757766	-0.0006709883	
-0.07889305	-0.08544562	0.045921706	0.03453048	0.06228382	0.026712088	0.15541624	0.020395802	0.037310015	-0.020075437	
0.08742201	0.09754338	0.007570948	-0.04178042	-0.06470043	0.018481744	0.032150183	-0.067170404	0.011550926	-0.066097245	
-0.050952688	0.046103537	-0.015959946	0.07679325	0.0298424	0.0024323978	-0.048497293	0.08381032	0.04083719	0.0010861377	
-0.049903624	-0.027044397	-0.007936271	-0.015115878	0.051875982	-0.014059231	0.09851929	0.080702536	0.043136913	0.002462555	
-0.013981275	0.012040847	-0.06629145	-0.010179347	0.05343279	0.0046690735	-0.031167142	-0.011654025	-0.017862089	-0.019776665	
-0.038598813	-0.06124189	-0.02352461	-0.08703997	-0.067572705	-0.0026126616	0.00048580853	-0.021190386	-0.06473443	-0.009674767	
-0.08010509	0.028735906	0.06289525	-0.052008145	0.013312354	0.08940595	-0.012279486	-0.05030839	0.0377228	0.0488283	
0.0974697	-0.051402763	-0.039025944	0.10034045	0.0124390405	-0.029255005	0.070124835	-0.023800561	-0.11381053	-0.031183979	
0.083052136	0.013642367	-0.012133823	-0.046357766	-0.011578571	-0.019221604	0.041776888	0.056032404	-0.09763589	0.0405292	
0.07592752	0.061574697	-0.021967854	-0.084490284	-0.067671336	-0.06884984	0.0047073457	0.07237987	0.021998564	0.023684839	
-0.05663926	0.10524884	0.055155043	-0.035679888	-0.050496403	0.093231596	-0.03577505	-0.030555429	0.0080351485	-0.015569399	
-0.039258387	-0.047550637	0.02249242	-0.023687106	-0.030421518	-0.090333045	-0.012424511	0.03783143	-0.05925465	-0.00017367811	
0.09613397	0.02065585	0.023994764	0.0032347937	0.095310666	-0.051663898	0.037443053	0.0953206	-0.070565104	0.112890884	
-0.08979971	-0.05054365	0.0026272521	-0.04471314	-0.049740966	0.073051766	-0.05553241	-0.0415947	0.010002076	-0.08691061	
-0.08180695	0.017687375	-0.07722191	-0.026068414	-0.016462393	0.016701704	0.033124812	0.0880624	-0.07020207	-0.06946516	
-0.0568913	0.06876936	-0.07069489	-0.023647847	0.021873495	-0.018207973	-0.10295782	-0.08648952	-0.06181307	-0.011538429	
-0.061964273	0.015673747	0.013101259	0.046154786	0.05484432	-0.02560257	-0.04325709	0.037952147	-0.06533542	-0.00696692	
-0.061256908	0.029174527	0.0627547	0.10373153	0.035968788	0.03552943	0.010088127	0.023390148	-0.067053616	-0.026174575	
0.011717304	-0.09300179	0.022538925	0.056475863	0.10473572	-0.071042	-0.070207216	0.013399776	0.007348179	-0.020033399	
-0.10776908	0.0713955	-0.03867077	-0.024158217	-0.02455876	-0.07966376	-0.020535605	0.08955836	-0.10652573	-0.047524996	
0.09351702	-0.011880408	0.10277367	0.09844998	0.015869211	-0.0005973255	0.076521754	-0.07822038	0.010447857	-0.04354259	
-0.017384706	0.01056066	0.008825034	0.044600893	-0.033690285	-0.11525689	-0.065380305	0.015589822	0.06530461	0.026777567	
-0.011787907	-0.03774825	0.11002098	0.023637548	-0.047613412	-0.015438461	-0.017680984	-0.1026113	-0.05466108	-0.012577853	
0.06936198	-0.09917274	0.010646416	-0.042183183	0.075472146	-0.023081433	-0.005167218	-0.045499165	0.0064570433	0.08354152	
-0.017974487	-0.034733225	-0.04028229	0.06391783	0.04790986	-0.08532801	-0.06605647	-0.06652226	0.020578362	0.014554757	
-0.0074263066	0.09972157	0.042494684	0.035228234	-0.049460877	0.049317	0.018933048	-0.007193439	-0.12017518	-0.02559225	
-0.1118184	0.103758425	0.051145457	-0.021746403	-0.061347414	0.019364597	-0.031007294	-0.10817893	-0.031756725	-0.0062449793	
0.05293882	-0.01568732	0.07473635	0.124134876	0.04547693	0.00922477	0.020710785	-0.0016181036	-0.012107537	-0.111040905	
0.01605047	0.049111534	0.022604525	0.020767316	-0.098761715	-0.03610768	0.100788146	-0.034763932	-0.065290265	-0.004483814	
0.05701321	0.020416781	-0.02240996	-0.06430985	0.012507911	0.055489957	0.006714863	-0.08773905	0.010134106	-0.03609243	
0.053749178	0.07330614	0.068003334	0.020268438	0.048565216	-0.0375214	0.057382196	0.009665798	-0.055489607	-0.03053426	
0.0064567877	0.074871935	-0.058090374	-0.019881103	-0.053589504	0.08596751	0.089917384	-0.11170134	-0.014747638	0.036298748	
-0.021417813	0.06386849	0.0703812	0.022255873	0.033402912	0.0049187983	0.016139835	-0.07063485	-0.08178437	-0.07383733	
0.06865846	0.012293296	-0.07675078	-0.108135894	0.01613364	-0.05125901	0.016714739	0.032992754	0.035954475	-0.04252448	
0.05031941	0.034321267	0.026449637	-0.005265936	0.048635878	-0.039921205	-0.012757483	-0.06314483	-0.0013696624	0.05015951	
0.05179537	-0.0010185614	0.014875095	0.05258201	-0.019829232	0.056905314	0.062075656	-0.07136156	0.005416088	-0.03898757	
0.08441489	-0.053562384	-0.010617912	-0.074239016	0.03590511	0.061687056	-0.0034097831	-0.06293361	-0.0067058313	-0.028941432	
0.029033354	-0.0070457067	-0.07511598	0.036893595	-0.019737141	0.047292564	-0.032463007	-0.040957123	-0.04802547	0.032749172	
0.010163143	-0.031236965	-0.034855127	0.06380423	-0.023255158	0.005294338	0.019747233	-0.020752877	0.10985122	0.035133906	
-0.0010119883	-0.026514461	-0.030641356	0.035818975	0.013597809	-0.029488625	-0.0064489655	0.11121824	0.064561434	0.007930887	
-0.019923551	-0.039300162	-0.03161662	-0.056809258	-0.06314545	-0.003065675	0.02989659	-0.041000523	0.047891602	0.03137473	
0.017680576	0.041127197	0.04492253	0.07681375	0.006347842	0.028785782	0.09110215	-0.087917104	-0.07453883	0.009080269	
0.03994924	0.007054069	0.03352276	0.08332033	0.029400127	-0.048932888	0.055214766	-0.041987848	-0.10313625	0.042330444	
-0.02030821	0.014163647	-0.054088295	-0.033959437	0.059403557	0.0028870897	-0.104850344	0.056239683	0.024160564	-0.064226955	
0.08070205	-0.04825236	0.055248417	-0.02954693	0.047773212	0.041733533	0.016596837	0.0024307366	-0.015108811	-0.06522837	
-0.02632557	-0.018550903	0.04163607	0.031075114	0.05986906	0.040625516	0.00407764	-0.031076228	0.035126068	0.0075887456	
0.04837417	-0.007192203	0.010302134	-0.02810678	-0.022233348	0.038147565	-0.02016079	0.05588957	0.056258023	-0.037449732	
0.05597285	-0.0074800737	0.05803281	-0.04792321	0.073327176	-0.0066300617	-0.014002906	0.026641248	0.04844649	0.09525363	
-0.063779265	-0.04910454	-0.062073734	0.021479731	-0.057092685	0.0064562606	-0.004912363	-0.03927336	-0.027007466	0.06103323	
-0.0025176008	0.059030123	-0.004486907	0.041020084	-0.010252355	-0.0358296	-0.006502304	0.038854614	0.0012336025	-0.06050277	
-0.071065314	-0.038876485	0.020669958	0.01361724	-0.049366407	-0.053800985	0.02237771	0.04968594	-0.039348956	0.008389446	
0.08324558	-0.02008094	0.0801501	0.03829399	-0.018782739	0.03462427	-0.005540209	-0.009767884	-0.07258507	0.095042065	
-0.037707888	-0.01872379	0.14278658	0.09996229	-0.07578797	0.016219594	-0.059961528	-0.055514447	-0.09474933	0.08973151	
-0.024002109	-0.02170578	0.09619621	0.0020000397	-0.073412396	-0.0438005	-0.017306527	-0.09163761	-0.008259402	-0.04874177	
0.02645531	-0.08087852	0.015293516	-0.02211203	-0.079055004	0.054146938	0.025473336	-0.0697213	0.05053198	-0.0984588	
0.09198419	0.02921316	0.06270777	-0.026154252	-0.104005165	-0.07047497	0.013255158	-0.065458335	0.011364926	-0.065491326	
0.03951972	-0.024001548	0.12497881	0.045047574	-0.03302729	-0.08872024	0.071043424	0.03864046	0.04747518	-0.13383189	
0.028885197	-0.009993209	0.07516932	-0.049382422	-0.031661943	0.01104695	-0.081632756	-0.084158495	0.034207474	-0.07661632	
0.00564995	0.016002018	0.07165022	0.054936413	-0.10290381	-0.039384264	-0.06512546	-0.11969401	0.091794044	-0.056130406	
0.09302428	0.04831987	0.022124922	-0.009451072	0.019367862	0.037187018	0.02461615	-0.044663057	-0.036902305	-0.018464616	
-0.065735355	0.057214815	0.08148689	0.040890068	0.05012149	-0.1035958	-0.04520112	-0.08654034	-0.005955361	-0.05882341	
0.06213532	0.05608569	-0.004648517	0.020955417	0.0011175547	0.07814786	-0.0045710295	-0.045281257	-0.03540606	-0.03395986	
-0.103435546	-0.03191008	-0.03574521	0.037018303	0.03334694	-0.013490894	-0.060012728	-0.0030075281	-0.019040575	0.027329944	
0.037738696	0.023121659	-0.084231414	-0.009805461	-0.025240235	0.037362944	-0.003449006	-0.05071332	-0.003853138	0.010446395	
0.045230146	0.024819244	0.08483353	-0.033819567	0.065754674	0.02514305	0.012433941	-0.041492518	0.07575552	0.080242716	
-0.030803526	0.0047892584	-0.03136617	-0.023762992	-0.07587672	-0.031506646	-0.08389417	-0.06042891	0.01810108	-0.007856513	
-0.003891789	0.028414257	-0.058813002	0.005864631	-0.015063386	-0.08454222	0.0020984714	0.032334916	-0.026281796	0.024804166	
-0.034813873	-0.015763117	-0.041145112	-0.04497344	0.039640997	-0.05994602	-0.033972934	-0.06561857	0.01117752	-0.02653248	
0.025925333	0.04621384	-0.00133517	-0.07782495	-0.034278434	0.06895859	-0.02363668	-0.040775903	0.04058414	0.011004627	
-0.017872833	-0.050902758	0.055606574	-0.048723396	0.048560895	-0.04739934	-0.0034564112	-0.04486009	-0.044773187	-0.09418377	
0.03439482	0.009571241	0.032144982	0.100630865	0.0109001575	-0.022520954	0.03099819	-0.05287989	0.076425456	0.03455042	
-0.015449986	-0.00950111	0.03927066	0.015354349	-0.028966958	0.08393645	-0.011435277	0.07922032	-0.109327994	0.018472457	
-0.0141695235	0.0076216017	0.013076659	0.09642321	0.06224304	0.054750465	-0.017299552	0.020062223	-0.06102149	0.0061162896	
-0.028616663	0.015929978	-0.077860415	0.056201596	-0.06521636	-0.05757627	-0.0028114894	0.0221084	-0.032005087	-0.035652127	
-0.10229646	-0.064011686	-0.027999666	-0.04708551	-0.010331544	0.016320396	-0.053312782	0.04117012	-0.025112353	-0.011181489	
-0.058572695	-0.02588101	-0.049320597	-0.032895487	0.017825449	0.05451433	0.010881056	0.05023741	0.0733914	-0.0011132566	
-0.03373562	-0.09141065	0.041065007	0.03512687	0.06316931	-0.072118774	0.0355757	-0.023698125	-0.026984127	0.055614598	
-0.0062771677	-0.096143864	-0.07704373	-0.012367264	0.019141296	-0.105953105	-0.029331325	-0.08226302	-0.00038949307	0.045466393	
-0.029854713	0.02104041	-0.06889579	0.07373342	0.10068167	-0.06783319	0.022687681	-0.018575361	0.008199788	0.014486193	
-0.05297558	-0.05470254	0.08614557	0.0028810105	-0.0022339427	0.08632419	-0.01278066	-0.006348368	0.022981986	-0.0542405	
0.08147525	-0.0033481803	0.008526853	-0.006674093	-0.021385552	-0.024285816	0.102019556	-0.062942766	0.04459413	-0.014886155	
-0.015746178	0.06918291	0.049060144	0.13982338	-0.043088876	-0.0019367541	0.0034394248	-0.0024837104	0.08774348	-0.040856764	
-0.016819356	0.010267422	0.0965612	-0.0006628664	-0.048193146	0.06095362	-0.061146654	-0.07168355	-0.014976092	-0.062234048	
-0.00945478	0.013240943	0.08260536	0.14698869	-0.010774024	0.022059603	0.013952961	-0.09044099	0.010850787	0.091454394	
0.01585254	0.014617496	-0.0358965	0.1355302	-0.08766341	-0.03922811	-0.0088053625	-0.06467791	-0.021087188	-0.04085668	
0.015667617	0.025968643	0.025495904	0.095352	-0.061719563	-0.0073191347	-0.023780672	-0.09410638	0.073026486	0.09613151	
0.03997088	-0.027808206	-0.054525472	0.012778831	-0.07520484	0.06430936	0.010179677	-0.15580092	0.03797833	0.01950155	
0.02592395	0.048039194	-0.06621137	-0.08760932	0.008342792	-0.05006911	-0.05836676	-0.048280966	0.052878704	0.034602445	
-0.058229707	0.034365624	-0.06788101	-0.023241758	0.024514318	-0.0036284444	-0.074227795	-0.022231268	0.12721233	-0.06699479	
0.06491064	0.02436695	-0.085585475	-0.03497202	-0.03780547	0.006270643	-0.005243954	-0.050509553	0.10205832	-0.018040627	
-0.016851122	-0.030215103	0.093749814	-0.048492678	-0.07065338	0.027934834	-0.03563784	0.04332881	-0.024789015	0.014999016	
0.0896994	-0.009703052	-0.022187423	-0.10270472	-0.06982361	0.059392944	-0.047142185	-0.07226904	-0.03246243	0.024936557	
-0.030058721	-0.039297514	0.016054295	0.0046487413	0.10730021	0.07772842	0.015629897	0.023333121	-0.023428794	-0.012890114	
0.057786774	0.0013724536	0.006022098	0.0019620375	-0.024758046	0.023119256	0.016278898	-0.030291429	0.026035363	0.035409935	
-0.08339704	-0.061872713	-0.0025200762	0.09691641	-0.0659293	0.00012853206	0.09055988	-0.11324252	-0.06029962	0.009493177	
-0.056555778	0.036840018	0.05754495	0.0026356294	-0.044864427	0.041298963	0.01241677	0.07278243	-0.039161	0.076537296	
0.055617474	0.021250261	-0.085553765	-0.0470875	0.11358514	0.027972275	0.034048174	0.016114159	0.09016608	-0.014455924	
-0.06474513	-0.026746906	-0.055889238	-0.06566554	-0.10525984	0.05776511	-0.010050769	0.05042995	-0.030208312	0.026728965	
0.023803262	0.002231254	0.060695056	0.05681637	-0.04648957	0.034481827	0.011313118	0.025958695	0.061191723	0.023052793	
-0.0048485855	-0.089635395	0.035904698	-0.08375973	0.0011883792	-0.010164277	0.03592357	-0.043927073	0.017976012	-0.08151979	
0.015908856	0.023604559	-0.1074432	0.034974378	0.058280807	-0.014166774	0.09127805	-0.051556364	0.04401269	0.069013305	
0.06135847	0.05368664	0.007256637	0.088063456	-0.032957934	0.023136295	-0.0678266	-0.03328756	0.069014736	0.026841737	
0.008804253	0.074380055	-0.045248143	0.067357205	-0.073284365	0.004264035	-0.057848774	-0.060977884	-0.031949066	0.02518465	
-0.00688041	0.049824737	-0.05756571	0.1253395	-0.09112358	-0.04112664	-0.04016459	0.026382582	0.07303234	-0.040561553	
-0.05934401	0.011692943	0.04189207	0.09096154	0.02260509	0.0052619716	0.06115623	-0.049086843	-0.0038345004	-0.0128835365	
0.07447336	0.005740415	0.03582276	0.0638928	0.035589475	0.072099596	0.08639745	0.07976019	-0.02213903	-0.03287836	
0.051922396	-0.10408271	0.11546495	0.07270375	-0.026975479	-0.09311375	-0.022272829	0.1079977	-0.055780403	-0.08402754	
-0.016815284	-0.01767821	0.01641477	0.017718518	-0.027344748	-0.06392691	0.016597487	0.014896873	-0.061433204	-0.047810856	
0.02335717	-0.063115135	-0.035386186	0.07151267	-0.061076395	0.004767072	0.025141565	-0.032391008	0.077996	-0.026227988	
0.029547611	-0.05876211	0.010092133	-0.049473803	-0.0107932715	0.04608413	-0.054924645	0.106793076	-0.016337989	0.010860973	
0.017067835	-0.1011833	0.07500441	0.011117737	-0.12939803	0.045086082	-0.0022395106	0.066620365	0.0664802	0.0588021	
-0.060221393	0.08372224	-0.004447588	-0.030798998	-0.108106524	-0.0719681	0.02909625	-0.0034043656	-0.0420328	-0.03814702	
0.0039219935	-0.00181834	-0.042469583	-0.0152626755	-0.04804281	0.0015821478	0.0068038735	-0.07443193	-0.0275049	-0.018308317	
0.0138579365	0.10757052	-0.026629362	-0.08966647	-0.106943	0.0037306666	0.008295292	0.0024950441	0.047680233	0.013930555	
0.084071495	0.064404234	0.09156301	0.05700832	0.04246655	0.094583325	-0.029454095	0.036686588	-0.0056721442	0.050682023	
0.02796845	0.04446574	0.010573392	0.072668046	0.030749321	-0.0796241	-0.00613823	-0.09198834	0.03870923	0.00044682348	
0.055128388	-0.03883207	0.061230518	-0.04711119	0.06295556	0.08634359	-0.10867627	-0.038693562	-0.019887056	0.07632518	
0.055230454	-0.04586049	0.02461253	0.011665933	0.04931232	0.08488871	-0.06987568	-0.016235063	0.021199094	-0.0067396313	
0.06665718	-0.05576616	0.07136705	-0.021783272	0.0053994157	-0.06403494	-0.090090774	0.04917787	0.05166392	-0.01694862	
0.07512285	0.0592976	0.0037146693	0.032748837	0.075092934	0.11914386	-0.03847259	0.03906486	0.048791185	-0.0020221672	
-0.0078004953	-0.028315429	-0.034455847	0.0113523295	-0.03384025	-0.031788483	0.001177177	0.02110348	0.04824615	-0.04693576	
0.022146035	0.029957648	-0.041766513	-0.034919165	0.09856786	-0.0071986876	-0.07806466	0.05192233	0.040127855	-0.036967278	
0.00490494	-0.07323888	0.027339451	0.009677697	0.10391999	0.072678596	0.01796033	-0.047504716	0.07530248	0.03991311	
0.06708776	0.060250193	0.03805337	0.001883095	-0.10456096	0.057659574	0.02989795	-0.0638624	0.01992564	0.026287248	
-0.061083134	-0.037724115	0.043503173	-0.0356286	-0.10995078	0.0096169645	-0.07159582	-0.04827354	-0.063765764	-0.04733051	
0.059842218	-0.036109466	0.045613464	0.09897533	0.049698226	-0.03628129	-0.0062445663	0.07053357	0.110592306	-0.022964265	
-0.051720083	-0.00794995	-0.045336973	-0.0076327077	-0.06283899	0.024785392	-0.018349797	-0.039305307	0.008045505	0.08686582	
-0.06893194	0.040040046	-0.05321871	0.006557178	-0.09077437	-0.024748115	0.032579258	-0.035005968	0.044588666	0.050213985	
0.011761377	-0.08548039	0.074904576	-0.010221867	0.032330282	-0.05795138	0.00030267495	-0.085936435	-0.08072461	-0.04360419	
-0.10227079	0.06337268	0.02015962	0.0067351973	0.0535092	0.014334865	-0.039093576	0.045160364	0.111687735	-0.0427301	
-0.04366223	0.014927753	0.083963625	0.02274787	0.050748635	-0.04133293	0.0849756	-0.0059351386	0.0034296764	-0.092079684	
-0.08552369	-0.06247645	0.06570352	-0.01843685	-0.08110331	-0.03291971	0.020601515	0.02208326	0.068732016	0.018602805	
0.08319875	0.029897867	0.0305002	0.00077322277	-0.0380581	-0.05215702	0.047310654	0.107803464	-0.0055780974	0.052684244	
0.04039543	-0.04796188	-0.007273764	0.09341375	0.060019244	0.03905977	0.017450567	0.099636115	-0.026669879	4.1251053e-05	
-0.089937106	-0.03872907	-0.043792766	-0.03153858	0.032637607	0.056211192	-0.03698147	-0.010418772	-0.037132848	-0.0395784	
0.019802164	-0.06347262	0.03576017	-0.040325183	-0.01580861	-0.1047281	0.024387969	-0.018354718	0.068413995	-0.015514944	
0.00475889	0.008190018	0.043832984	0.04534561	0.030614426	0.02395696	-0.02836597	0.029979896	-0.06404612	-0.04261608	
0.031148897	-0.049273457	0.03947863	0.010951405	0.033168964	-0.07478948	0.04173719	0.05575382	-0.033645023	0.11473746	
0.09520174	-0.1439596	-0.0029572614	-0.025711449	-0.01924705	0.018477513	-0.06683852	0.0931062	-0.037515152	0.027431337	
-0.0012875396	-0.11453873	-0.0726789	0.026697563	-0.15453483	0.03173219	0.068609	0.073388234	-0.029330695	0.17215768	
0.060561597	0.07344173	-0.08311083	-0.013116397	-0.021874664	-0.01730533	0.03858993	0.059749886	0.086780734	-0.015684841	
0.03665244	0.0033498404	-0.023063038	-0.041681048	-0.11811706	0.044584382	-0.060911454	0.065024	-0.07125571	0.024641616	
0.01775987	-0.00091247103	-0.02027163	0.04296027	-0.021352638	-0.05427098	-0.13232312	0.08229106	0.02304733	-0.06405441	
-0.039254118	0.013010799	0.07268926	0.06861954	0.0344605	0.024905877	-0.054325182	0.02134205	-0.04567823	0.111640446	
-0.016375626	-0.05352811	0.032345638	-0.014775389	-0.004573242	0.00019852996	-0.048405513	0.12713599	0.009290453	0.0022492793	
0.069578476	0.0013409898	0.030009853	0.05496936	0.02167763	0.00863715	-0.07504487	0.04448202	0.046595056	-0.038959283	
0.13731469	0.017315337	-0.0072951736	-0.0070126234	-0.012819523	-0.018926052	-0.046399835	0.037321497	6.398732e-05	-0.0476637	
0.0023347223	0.0145010725	0.049738172	0.05314569	-0.011261822	0.059179436	-0.08277668	-0.098178044	-0.09408314	-0.087297626	
-0.030730926	-0.035886034	0.048383318	0.017456947	0.0745532	-0.0323265	0.039044164	-0.037402224	-0.004567584	-0.0366777	
-0.0024158373	0.09088918	-0.0394459	-0.031220892	-0.058508802	0.010097562	0.034223795	0.040375005	0.05033468	0.04083695	
-0.042464364	0.006478703	-0.10507673	-0.065482005	0.010891201	0.08662408	-0.019454723	0.0026524535	-0.031650025	-0.08615002	
0.07053758	0.017111225	-0.03459226	-0.07247218	0.033920538	0.08454076	-0.08357682	0.06436193	0.049260255	-0.033182055	
0.078274354	0.03576894	-0.029854309	-0.023418505	0.025285952	0.00312777	0.008911361	-0.047124945	0.05197069	0.005655454	
-0.085493244	0.04418861	0.014675255	-0.10215858	0.030180996	0.023607211	0.034668352	0.03289742	-0.016875708	0.06206369	
0.02295038	0.061874446	-0.038206574	-0.0655463	-0.07037674	-0.04476165	0.06321206	-0.0999367	0.013254326	-0.040766247	
-0.021146286	0.07431582	0.03713547	-0.0356471	0.04387734	-0.0018382105	0.007366367	-0.042004306	-0.013555928	0.025923768	
0.021983588	-0.01869462	-0.021111015	0.025769224	-0.07066715	-0.034403708	0.035208426	0.060762435	-0.0010701955	-0.010819555	
-0.10058248	0.066496484	-0.061046198	-0.011845625	-0.08011711	0.0889245	-0.031287722	0.032881122	-0.045707975	0.04255837	
-0.01813897	0.01500046	-0.03004195	0.0030695635	-0.04246632	-0.04428696	0.0033465885	0.07747017	0.05909107	-0.021889847	
-0.004084283	-0.038848817	0.010729834	0.074365824	-0.091647156	-0.019079527	0.06994643	0.06022482	0.008169564	-0.046518344	
-0.016833862	-0.04798036	-0.09219654	-0.036624257	-0.016876886	-0.046883944	-0.017500872	0.017187104	0.10097294	-0.03275101	
-0.029871989	0.054230805	0.056326233	-0.05760925	0.031106437	-0.0026950457	-0.047456294	0.08078817	0.020984564	-0.030421186	
0.046867087	0.014169392	0.032245457	0.06801817	0.0026058573	0.06461359	-0.031385303	0.051988017	0.017209727	-0.023857383	
0.07229677	0.014960122	-0.020298008	-0.032563467	-0.070828535	0.011637271	-0.001961286	0.0838214	0.014346195	-0.022448933	
-0.050348334	-0.045304954	0.00080416404	-0.11212608	-0.08273206	0.10972866	0.05050605	0.065382674	0.090281576	0.0003190466	
-0.046148185	-0.112467825	-0.10401586	-0.013856956	0.01886307	0.02081408	-0.040041305	0.06519137	-0.028005183	-0.0033536425	
0.09688519	0.028806321	-0.028020006	-0.068180576	0.048486598	0.12705177	-0.047884397	0.06791762	0.09402448	0.036110077	
-0.034974895	0.071269296	-0.052085005	-0.038253047	-0.10540366	0.04253895	0.02481283	0.055532586	-0.02290264	0.0956464	
0.06613273	0.043906365	-0.06111846	-0.041710537	-0.12346032	0.068217106	0.065906085	0.15449335	-0.005217365	-0.04268999	
0.103643075	0.056003317	0.030687422	-0.07389427	-0.12749769	-0.017587364	-0.048777133	0.17709738	-0.021704659	0.021810818	
0.02981473	0.082148775	-0.027776621	0.07162552	-0.03915915	-0.0013936142	-0.10891085	0.13076101	-0.13532889	-0.0034638804	
0.038356964	-0.028381813	-0.05966087	-0.023988526	0.008567435	-0.06870516	-0.028869549	0.13265496	0.023546027	0.12767377	
0.06631797	-0.041149806	0.08400006	-0.030434532	-0.008647517	-0.017276496	-0.17790201	0.054075576	-0.044529613	-0.050138596	
-0.03415737	-0.09340351	-0.050595455	0.022818929	-0.037004095	0.08687398	0.018126536	0.101644486	0.05443918	-0.019088766	
-0.0122972205	0.053577136	-0.062447485	-0.06818872	-0.075644314	-0.0246381	-0.013488484	0.047818676	0.06896655	-0.027970025	
-0.00021968655	-0.07138405	-0.023315338	-0.082717896	0.051804975	-0.03165247	0.010657289	-0.0039431234	-0.0052737896	0.021726206	
-0.018786225	-0.08847327	-0.01750875	-0.012863507	0.0640718	0.031170264	-0.03261263	0.020503778	-0.016195912	0.06554135	
0.020849586	0.038690846	-0.00659409	-0.084207505	0.022724468	0.015042371	-0.04494442	0.01216033	0.014285106	-0.06882867	
0.04493128	0.0243052	-0.02171112	-0.038624797	-0.02210162	0.060245123	-0.024723705	-0.09624384	-0.020051545	-0.045137208	
0.005294878	0.0733792	0.008477299	-0.016299553	-0.034817826	-0.013077404	0.00906672	-0.041743334	0.06432057	-0.018354168	
0.027313547	-0.034224022	0.031282175	-0.0032140769	-0.012129959	-0.035939977	-0.014230399	-0.07492596	0.04584984	0.07247957	
0.013828561	0.0032967485	-0.056918535	-0.032120455	-0.021438833	0.08558132	0.022964725	-0.014571636	-0.06271732	-0.06390939	
-0.0009229894	0.0073705753	0.08959534	0.026489776	-0.02303137	0.05641856	0.060382795	0.0046815635	-0.025180254	-0.04673869	
-0.061239645	-0.008601395	-0.016035846	-0.06316928	0.056161825	-0.06666417	-0.0009719749	0.02811314	0.040375497	0.011393924	
-0.012344131	-0.097042024	-0.015390747	-0.07211254	0.015552457	0.11309982	0.018895498	-0.035376377	0.003614423	-0.03681828	
-0.11196208	0.013282324	0.02886737	-0.049770087	-0.0008903425	-0.0055985474	-0.058232743	0.08355722	-0.026759338	0.058098838	
-0.014551756	-0.01737598	0.070683464	0.04987658	0.069405004	-0.060350142	-0.06778137	0.030081911	-0.04127492	-0.014096987	
-0.09148923	0.049053967	0.025669865	-0.01810772	-0.004343834	0.056655146	0.061076507	0.06508336	0.105373114	0.009095478	
-0.007950999	-0.0007360691	0.00047396286	0.009044231	0.07342339	-0.051650744	0.0013789935	-0.008441644	-0.013499709	0.004489649	
0.04797591	-0.05542784	-0.016472222	-0.031594265	0.051212136	0.028049989	0.049225606	-0.0027404716	0.011629257	0.07238159	
0.018775411	0.03267539	-0.029745005	-0.016064506	-0.016604435	0.0108787315	-0.040674914	-0.049155142	0.021306006	0.080699496	
0.047374863	0.018098183	0.023634262	-0.039696265	0.0019261325	0.08490005	0.032040026	0.053939056	-0.03768259	0.027630383	
-0.0054285633	-0.0010841647	0.007557266	-0.11314389	0.065097496	0.07094455	-0.081395395	0.03970543	0.015561506	0.05503794	
0.12280554	-0.06908276	-0.15403295	0.034859847	-0.053715825	-0.053145602	0.08222772	-0.01335886	0.11178721	0.0126302065	
0.04916152	-0.046157334	-0.115145236	0.003403275	0.045460656	0.08078024	0.07964775	0.042637486	0.04933676	-0.09996819	
-0.047762122	0.010574838	0.045122117	0.07976467	-0.019995268	-0.009305154	0.11775927	-0.012901334	-0.014425629	-0.02023621	
0.014615721	0.051060755	-0.027923066	-0.055964265	-0.067903526	0.015669296	0.07098924	0.053443953	-0.0145023	0.06445697	
0.0035703154	0.07613197	0.009980017	0.0085452385	0.01792143	0.023392644	-0.024166798	0.077887185	0.03461939	0.027090142	
-5.7290526e-05	0.06542232	0.052841876	0.04953283	-0.010230511	-0.012297552	-0.045910403	0.060138054	0.022887165	-0.044230912	
0.04620736	0.02851519	-0.008531207	0.09314312	0.013613723	-0.11343873	0.023202097	0.02709038	0.011376811	-0.026964191	
-0.035758343	-0.052560322	0.033003636	0.05211063	0.059949826	-0.08924444	-0.007445202	0.03972875	0.04134994	0.02505522	
0.019826666	0.06527634	0.07893538	0.077658914	-0.077941194	-0.13410453	0.010113005	0.03320968	0.07071071	0.03978952	
-0.02182806	-0.012575068	0.09311136	-0.10764542	-0.0060126586	-0.023065409	-0.073871955	0.025040427	-0.017637514	0.03652928	
0.040425546	0.0023895914	-0.0059626745	-0.05727522	-0.044884365	0.032259762	-0.0115727605	0.047992416	0.089179926	-0.052197464	
-0.0016803468	0.009508749	-0.041937098	0.017501777	-0.044363305	-0.016986033	-0.09454642	0.027624946	0.073205136	0.013599552	
0.09014053	0.04905769	-0.07654371	0.012705935	0.040525608	0.06322816	-0.01747947	0.01864182	-0.041325983	-0.042596303	
0.035371196	-0.015172794	-0.09240594	0.035878897	-0.09542354	-0.0005600771	0.0085481955	0.043035876	0.0807092	-0.00016637007	
-0.02265095	0.08966006	0.003032555	-0.063051194	0.027689952	0.05156928	0.04293623	-0.010793907	0.014397264	0.110343315	
-0.019591479	0.08432892	-0.0419185	-0.039027274	0.0022399232	-0.026019482	0.01694071	0.090217814	0.08679407	0.009919456	
0.006673424	0.037393283	-0.0071116243	0.033728473	0.03212099	-0.0459389	-0.06810922	-0.006634874	0.0056299428	-0.11232587	
0.019649636	-0.060484298	-0.050970364	0.027992997	0.07338895	0.05024187	-0.0027989128	0.025071139	0.0481417	-0.077290736	
0.04649166	-0.0030088443	0.011203814	0.035856057	0.035922274	-0.04329468	0.04279633	0.040498685	-0.03821237	-0.026177887	
0.0037622189	0.054539856	0.026674658	-0.06719039	0.020121776	0.038238827	-0.055779535	-0.08978372	0.00066457613	-0.040223144	
0.033306904	-0.018919302	0.003195867	0.003542615	0.0133236	0.02452828	-0.023234533	0.010788812	-0.04671884	-0.049413428	
-0.09807839	0.056943152	-0.04246981	0.08356479	0.039841782	-0.022587836	-0.026353605	0.0782796	-0.024770847	-0.007878035	
0.0054993965	-0.07785902	0.0065556406	0.07568227	-0.017657325	0.102134325	-0.056934424	0.0025850812	-0.0144815855	-0.04699537	
-0.0717001	-0.017522855	0.012431855	-0.07634487	0.11946423	-0.0006329745	0.039310504	-0.020104028	0.05703931	0.014016703	
-0.012265434	-0.035131346	0.036095224	-0.0023066055	0.02619518	-0.08490993	0.0066365963	-0.002148362	-0.09712943	0.06358824	
0.07218448	-0.011806336	-0.0967975	-0.092314616	-0.045332223	0.04547522	0.031815156	0.13157491	0.09532217	-0.019089796	
0.020546105	-0.04862368	-0.1083563	-0.0643525	0.09322758	0.10869299	0.10740531	0.015674377	-0.04616371	0.0521281	
-0.0029519766	-0.05806991	-0.09402152	-0.02131322	0.049134266	0.011794879	0.025639435	0.017292442	0.061949175	0.09173342	
0.024034107	-0.028127331	-0.047373958	-0.13145353	-0.0103643425	0.06588493	-0.05229993	0.0134644145	-0.045489073	0.11509752	
-0.041173596	-0.03797352	-0.14506356	0.00872476	-0.034621716	0.026926868	0.0042381934	0.017013714	0.053469766	-0.04333868	
-0.028912142	0.03923237	0.031693783	-0.053072657	-0.05302573	-0.0109659545	-0.020136733	0.020182608	0.006413114	-0.12450868	
0.0013852301	0.17299394	-0.029814273	0.15332742	-0.06802549	-0.062361337	-0.084780104	0.098784566	-0.029489174	-0.054396357	
0.005165911	0.08024505	-0.04958089	0.07883041	-0.047601704	0.058559384	0.022072794	0.034742396	-0.075837694	-0.03963563	
-0.071315385	0.054275848	0.04553429	0.07926524	0.03003351	-0.13232169	-0.022433663	0.08158668	0.051508866	0.026973752	
-0.08254718	-0.06615785	0.09148327	0.10184336	-0.01616133	0.041384455	0.010497884	0.113427185	0.0020798899	-0.044817656	
-0.01942845	-0.035435524	0.09336224	0.08794298	0.091027774	-0.046652175	-0.023399366	0.055172723	0.009530325	0.1211206	
-0.019563073	-0.009474154	0.032816127	-0.037755042	-0.028151108	-0.10309407	-0.023449278	0.043812376	-0.06653471	0.024718339	
0.051713314	-0.06911436	0.0627199	0.030643407	-0.019699762	-0.07286648	0.024204332	0.05589962	0.036551706	-0.04983267	
0.046647906	-0.014666483	-0.06623516	0.052639052	0.08953451	-0.116871126	-0.11795198	-0.01763348	-0.06356075	0.07392557	
0.04684164	-0.060918003	-0.019010244	-0.0029411037	-0.06970996	0.043122083	-0.09292478	0.036614444	0.029066531	-0.06013668	
0.01891167	0.015139591	0.03167014	-0.0445138	0.004531163	0.011501058	0.06356068	0.08712297	0.07454353	0.03204604	
0.021978669	0.08904167	-0.024380613	0.066726044	0.077029176	-0.09459315	0.011982251	0.005573861	-0.06999038	-0.05317887	
0.0038689014	0.05554307	0.044197798	-0.037540935	0.035941653	-0.01445342	0.018212652	0.041493963	0.050659593	-0.045106657	
-0.016124379	0.027623639	0.019694591	-0.066814035	-0.093518734	-0.06677473	-0.070654586	0.0058961585	0.03171287	0.039450485	
-0.03557099	-0.03256117	-0.019866843	-0.0038935663	-0.08952941	-0.01293798	-0.00612114	-0.049823076	-0.034283243	-0.048193336	
0.022543782	-0.045201913	0.0045130104	0.108744085	-0.015986048	0.041279647	0.07619993	0.06817656	-0.020158028	-0.026109261	
0.0008420667	-0.009506314	-0.05664145	0.05235799	-0.015578225	0.019211425	0.07596007	0.0033969018	-0.014546034	0.08214176	
0.09141802	-0.008926252	0.05843219	-0.05755853	-0.044485662	-0.019556202	0.00080257416	-0.08131989	0.076104745	-0.029366087	
-0.064479046	0.07239714	0.044487968	0.025682976	0.004765749	-0.024062337	0.027404854	0.055919286	-0.017543307	-0.05610117	
-0.06899401	0.05135127	0.11141404	-0.06397215	-0.06774078	-0.10067801	0.065395	0.05696727	0.031213704	-0.056693904	
0.013554854	0.035068933	0.012562203	0.03408144	-0.08709275	0.027761163	0.062301904	-0.065819375	-0.018033335	0.0444085	
0.0033228279	-0.017097555	-0.009093449	-0.010441553	-0.00070208183	-0.012044701	-0.03068596	0.055459034	0.017786134	0.0018245156	
0.081862666	0.040804856	-0.13535936	-0.032036755	0.060963627	0.02229722	-0.07031768	-0.072678484	0.028005866	-0.042441003	
0.06728445	0.049171824	-0.10081348	-0.06538999	0.06721816	0.049854945	-0.027448522	0.018958202	-0.034210406	0.10654111	
0.091776304	-0.027272807	-0.012047764	-0.080511756	-0.020849232	0.061772935	-0.018546274	0.027183754	0.022045802	0.009301931	
-0.012534161	-0.025748603	-0.048048712	-0.06841261	0.07822321	0.06263033	9.380648e-05	-0.06960538	0.078873076	0.041944787	
0.081476256	0.03559958	-0.06391299	-0.045607883	0.025165416	0.046374172	0.03622042	0.0017155859	0.060893763	-0.0068225474	
-0.040447127	0.034537897	-0.06816012	0.11049022	-0.0049962485	0.08459425	-0.06353288	-0.046634164	0.08109703	0.050572135	
0.009152672	0.061168876	0.014558856	0.17542385	-0.03566821	0.10146061	-0.030783972	-0.09313555	0.031018727	0.011073123	
-0.106452525	0.19876572	0.0029207973	0.12269683	-0.1114801	0.02415573	-0.031122027	-0.05465422	-0.048732363	-0.0854221	
0.02194278	0.19538304	-0.04416355	0.0023583907	-0.018266251	0.029215558	-0.040638585	-0.057908513	-0.032342006	0.04257292	
-0.14621633	0.09514689	-0.13666336	0.014880399	0.05500998	-0.01199208	0.002669976	-0.009111937	0.06436444	0.012196778	
-0.076266	-0.038911592	0.022002684	0.03632481	0.037903592	-0.013402736	-0.08383998	0.046050485	0.009430194	0.008070362	
-0.07009158	-0.104006946	0.012718272	-0.018163394	0.017079169	-0.13205837	-0.022348193	0.053565033	-0.012140527	0.015429327	
0.09263049	-0.04568065	-0.1030517	-0.06745516	0.065199114	-0.073703356	0.031168863	0.02242681	0.012201767	0.027074989	
0.12396926	-0.101026304	0.0184184	-0.07721156	0.008248181	-0.043481648	-0.0004987562	-0.008291846	-0.0054530385	-0.054606758	
0.09042479	-0.054471944	0.017525751	-0.028103888	0.046658363	-0.118424036	-0.037850343	0.016844254	-0.09728622	-0.03476345	
0.059886407	-0.037244163	-0.028587196	-0.066585034	0.023176437	0.08967498	0.012721441	0.039590534	0.035263136	-0.03373484	
0.0518998	0.050311025	-0.006996926	0.00391427	-0.013915977	-0.010271193	0.07742493	0.06087347	0.014685709	0.024829745	
0.06835717	-0.05601761	0.040746503	-0.0007985729	-0.061598327	0.094680205	0.058363456	0.035399638	-0.09563933	-0.029996362	
0.006846433	0.103363864	0.03510319	-0.01945066	-0.059528496	0.040487	0.0012756928	0.08903605	-0.03886928	-0.048827536	
-0.041228704	0.04931698	-0.0029315636	0.03454826	0.018678349	-0.022953186	-0.036740392	0.017509107	0.010845561	-0.054159023	
-0.015471642	0.07986733	0.051959082	0.026864305	-0.009334926	0.09371222	0.09842143	-0.09876656	0.020687014	0.033932596	
-0.07160558	0.017092431	-0.0066405497	-0.035305154	0.019021554	-0.050612446	0.019594405	0.09248081	-0.06057774	0.036297724	
-0.05322526	-0.0072916714	0.10023992	0.025501492	-0.076266915	-0.03250142	0.07265514	-0.02286988	0.05177464	-0.028490692	
0.026900703	-0.024489883	-0.048736036	-0.014726077	-0.049385816	-0.04070416	0.01673512	-0.048707154	0.027740939	-0.027849318	
-0.037679657	0.055191755	0.029140249	-0.0065062484	0.06048786	-0.012851378	-0.02721601	-0.027624376	0.043185752	-0.008012167	
-0.111785874	0.05969189	-0.004166791	-0.10673818	-0.0049067372	0.0035673417	-0.03394855	-0.0047416775	-0.013668512	0.02951896	
0.020907352	0.019825073	-0.06755781	0.035437927	0.018710772	-0.004454048	-0.0400904	0.048351824	0.028014854	0.018032238	
0.0777559	0.0072665503	0.0044074794	-0.06776219	-0.019113988	-0.0033836083	-0.013390167	-0.020886598	-0.04068169	-0.060607236	
0.05639087	-0.026942879	-0.12991202	-0.048538398	0.08125131	-0.028402712	0.010116829	0.049991615	0.050490074	0.08292318	
-0.010515158	-0.04876412	-0.08955404	0.012359089	0.12247258	-0.04180042	-0.060365822	-0.013187717	0.0024329936	-0.012512894	
0.10268902	-0.02390143	-0.03620801	0.01574618	0.053893127	0.0072691785	0.017173948	-0.029535059	-0.047570772	0.06910636	
-0.060645245	-0.07405901	-0.083521485	-0.028153986	0.029059693	0.07503944	-0.013644784	0.013099725	-0.003925372	0.035554986	
0.034695733	0.0062206867	-0.08756949	-0.056711815	0.077128634	0.013908595	0.090379305	-0.11029436	0.0062104785	-0.09772778	
0.03408055	-0.109779894	-0.14665394	0.051006865	0.087689035	0.028950743	0.054298054	0.050954025	0.06978446	-0.1003789	
-0.13250944	0.15199599	0.0015393025	0.04749818	-0.0040202984	0.0653694	-0.046031557	-0.049826387	0.06784142	-0.035183858	
-0.08407792	0.19638693	-0.018598784	0.045084815	-0.01804995	0.10305015	-0.041682813	-0.032746777	0.009845559	-0.03269996	
-0.17187239	0.16696401	-0.005988534	0.0045747426	0.0059827045	0.04578654	-0.06419659	-0.019734921	0.027493907	0.010907425	
-0.03935126	-0.09540602	0.021457646	0.043988053	0.015333527	0.08082304	0.08727079	0.025950931	-0.0595386	-0.04450535	
-0.16203238	-0.12552501	0.020037254	0.07782955	0.01486114	-0.0889819	-0.02506726	0.03757139	0.07014681	0.068689846	
-0.024914457	-0.012905358	0.030251963	0.005234625	0.053564757	-0.0620632	-0.05952583	0.049574904	0.05848061	0.044864677	
0.006455963	0.01941758	-0.026254373	-0.10683061	0.060926974	-0.027150877	-0.069612406	0.10699324	-0.025615567	-0.030652408	
-0.001340348	-0.023303008	0.027966	-0.08084179	0.06136103	-0.013631434	-0.02503053	-0.024171207	0.065976314	-0.018527275	
0.022263983	-0.04947072	-0.045945544	0.00041034873	-0.06499234	-0.056394745	-0.055441245	-0.060483247	-0.06494213	-0.04603593	
0.074540704	-0.035317577	0.0142155215	0.035215773	-0.10025886	-0.07201851	0.056341402	0.033814013	-0.015145677	0.041254833	
0.0043671187	0.049958512	-0.059829276	-0.039708097	0.017707596	0.0063407505	0.061221775	-0.006132153	-0.10479549	-0.117857635	
-0.017898146	-0.08193354	0.08735708	-0.022247717	-0.047005113	-0.09547222	-0.047790516	0.023750534	0.05774496	0.053519417	
0.012201132	-0.032848954	0.0326384	-0.02401859	0.042800106	-0.05302396	0.026887937	0.034999643	0.039561987	-0.03432584	
0.10323522	-0.034725793	0.03972524	0.045518078	-0.016644549	-0.052079014	0.045655057	-0.05924269	0.039449763	-0.067648426	
0.09262986	-0.0045835827	0.039880887	-0.018227736	-0.03543949	0.0049044015	-0.100130424	-0.06326072	-0.08672502	0.0068244534	
0.05458928	-0.050751	0.030225914	-0.0163013	-0.005552526	0.045145847	-0.012165635	-0.049821913	-0.058642134	-0.055224814	
-0.015983805	-0.031566218	0.027064769	0.1005407	0.0130470395	0.015360869	-0.031239737	0.017785568	-0.031117674	0.08181856	
0.08222003	0.07572128	-0.032082126	0.02135027	-0.061166823	-0.044199415	-0.056970503	-0.0039876015	0.066539675	-0.059939247	
-0.018247865	0.027787603	-0.029165654	0.037520193	0.024304781	0.022227256	-0.069183625	0.050791197	-0.050677285	-0.031286553	
-0.022310153	0.029429346	-0.054057945	0.032681353	-0.0057208524	-0.08303149	0.050529946	-0.07549704	0.018751848	0.060940888	
0.024660967	0.04532477	0.017138178	-2.9416522e-05	-0.019545196	0.07822933	0.026326155	0.10370994	-0.05231344	-0.06354616	
-0.040642288	-0.08055598	0.008103045	-0.007138402	0.0058179446	-0.104261406	0.008559167	0.014753513	-0.06197861	-0.033767097	
0.07575252	0.00019054265	-0.014770406	-0.08488577	0.062354144	0.0459403	0.04546245	-0.059011877	0.009182025	0.051600296	
0.15349634	-0.044005524	-0.061656583	-0.062177002	0.11622914	0.078865886	0.0036476443	-0.08505215	-0.14909282	-0.005621413	
-0.0061290814	-0.028298287	-0.030442862	-0.05357535	0.11410814	0.09205897	0.08094159	-0.066525735	-0.08002808	-0.009683834	
0.049743224	-0.036319885	-0.01389891	-0.0065927347	-0.035564277	0.0043123458	0.008048814	-0.011567203	-0.058958266	0.0037260568	
0.06153448	-0.060066722	0.0021413092	0.09779364	0.03299086	0.020807417	0.08330945	-0.0725376	0.025751695	0.004969807	
-0.060371242	0.015140538	-0.035551146	-0.035003144	-0.026627818	-0.058472823	-0.06521142	-0.13207161	0.039286852	0.016433697	
-0.11103325	0.13092852	0.025810005	-0.029834976	-0.06118426	0.013626477	-0.014998752	-0.11535213	0.050800703	-0.044280175	
-0.13334718	0.1274069	-0.011667377	0.013555547	-0.095093496	-0.026985481	-0.007907951	-0.061470255	0.07423207	0.10756966	
-0.1471855	0.08346554	0.0039093783	-0.055006087	0.057360455	-0.047271214	-0.026904386	-0.021701723	-0.008164341	0.04730216	
-0.086414196	0.060670856	-0.09952838	-0.07085663	0.1322586	-0.08556027	-0.018348424	0.00860468	0.013661804	0.055403516	
-0.116571195	-0.08115097	-0.06779345	0.06628587	0.03584456	-0.06311466	0.031156866	0.040040944	-0.07567753	0.11370899	
-0.03951194	-0.081224225	-0.037501037	-0.0012902209	0.10853379	-0.02824455	-0.03813481	0.055252958	-0.00053600484	-0.037700016	
0.022498433	-0.064447805	0.051212106	0.05210801	0.058871612	-0.03230476	-0.014808244	0.06401605	-0.011727606	-0.009267501	
0.018672185	-0.02162465	-0.023073524	-0.0014380113	-0.00090067374	0.005126992	0.030665575	-0.018692391	-0.06998569	-0.06644199	
0.07819787	-0.056309413	-0.023089131	-0.0877259	0.0058667096	-0.051396675	0.008745584	-0.04961652	-0.12863289	-0.018250804	
0.0056665186	-0.03723966	0.05457044	-0.06769136	0.057527684	-0.027940264	0.033104952	-0.027605763	-0.04016099	-0.015719019	
0.12714092	0.01082618	0.03425349	-0.008704607	-0.022136724	0.060462255	0.039700795	0.0060587884	0.0010582249	-0.08931666	
0.0035211232	-0.041351717	-0.04407137	-0.038370736	-0.0021834187	0.011914407	0.07558984	-0.060918443	-0.016381511	-0.05497807	
-0.06832451	0.070611954	0.0029506772	-0.0259849	-0.10031728	-0.04913238	0.023017755	0.02936497	0.020364238	-0.097657636	
0.111285694	-0.03840914	-0.012695316	-0.04933369	0.09471454	-0.07213404	-0.012605318	0.038336392	-0.09953133	-0.039862033	
0.027508931	0.03326367	0.044260114	0.026710872	-0.0017372839	0.083232805	0.0675899	-0.011599032	0.024682203	0.010298311	
-0.0043095793	-0.040072963	-0.044183984	-0.0064810095	0.0035063813	-0.06658697	0.004628016	0.07513074	0.057908844	-0.05200361	
-0.065403104	-0.031603172	-0.02649848	0.07551537	-0.08267285	0.07628975	0.005555637	0.055330947	0.0019474224	0.027431823	
-0.050006572	-0.009639597	0.050881814	0.00071618083	-0.015239202	-0.058542356	0.07461638	0.07702061	0.040479105	0.033109777	
-0.039903387	0.09753399	0.012491482	0.04751652	-0.030371575	0.047559906	0.09703815	0.046662975	0.01557273	0.044520773	
0.01991715	-0.00429859	-0.057102766	-0.041065842	-0.10399074	0.04436071	-0.036827937	0.082620986	0.04937034	0.09626532	
0.09171439	0.009784656	-0.04075666	0.030486127	0.04975066	-0.0241041	0.016919479	-0.014865454	-0.022645975	-0.05998743	
-0.04784816	0.027292881	-0.067211896	-0.052529782	0.057903208	-0.02494406	0.041227784	-0.10018392	-0.0022492225	0.04357285	
-0.009064509	-0.08508453	0.003605065	-0.04578105	0.035960473	-0.006116699	-0.033090014	-0.043648075	-0.032414902	-0.0014039238	
0.021041526	-0.091183156	-0.04517416	-0.042538106	0.06360763	-0.002592826	0.025090175	-0.002920489	-0.09850555	0.0846835	
0.032061	-0.0005797664	-0.07641845	-0.049122054	0.023788625	0.06069406	0.15318781	0.03261368	-0.0010068108	0.06175281	
-0.030129101	-0.09754473	-0.038856205	-0.058480695	0.101068646	0.11786441	0.017129833	-0.025069783	0.023486624	-0.023658643	
-0.0476842	-0.021569619	0.085436866	0.027187461	0.1175337	0.04216269	0.0106483465	-0.0066932244	-0.018951839	0.14749819	
-0.089771464	0.031557947	0.009549197	-0.021587081	0.11997114	-0.06783512	-0.0032678822	-0.16744925	0.106929645	0.01921666	
-0.11076171	0.11772602	-0.027585866	0.01983089	0.025282301	-0.00794063	-0.045696504	-0.041604146	0.04926588	-0.0894862	
-0.07069354	0.077493176	-0.014714511	-0.046959452	0.04733206	-0.10540975	-0.0062842006	-0.042293295	0.033796266	0.017826632	
-0.061629865	-0.049545493	0.0028979222	-0.055400524	0.02652156	0.061498325	-0.0009379364	-0.011790424	0.061408423	-0.001242883	
-0.052898064	-0.039184652	-0.11259444	-0.04640259	0.034644492	-0.06770125	0.07843522	0.045351624	-0.02762968	0.09127285	
-0.062015817	-0.08418045	0.046145305	0.013381232	0.03536801	-0.048384298	-0.06755833	0.019197796	-0.017616272	0.042153098	
-0.10716091	-0.029990593	0.06335437	0.05283001	-0.027692782	-0.029289218	-0.032760788	-0.044320468	-0.028488722	-0.0019805508	
-0.010272051	-0.09003764	-0.08566351	0.11440433	0.044943403	0.031600777	0.022697702	-0.0025586644	-0.058657777	-0.045308456	
0.10806635	-0.084816545	-0.036429398	0.05139905	-0.06157143	-0.026441468	0.044016726	0.007911113	-0.009221718	-0.06567165	
0.046666205	-0.0116734775	-0.0063450565	-0.01318624	0.008219618	-0.061492138	0.027029933	0.046055917	-0.045079615	-0.11903253	
0.07662614	-0.025704082	-0.02438133	-0.0021953965	-0.049697645	0.008261875	0.018457588	-0.09027609	-0.03550861	-0.05724733	
0.051576678	0.03533504	-0.079490416	0.03127374	0.08802867	-0.057550848	-0.004078827	0.0058632884	-0.119507805	-0.04746621	
0.010125983	-0.05299325	-0.09661027	0.014009607	-0.10894449	0.05379509	0.015570912	-0.02077615	-0.054174766	-0.057092197	
0.007364706	-0.03256088	-0.05458387	-0.03350301	-0.002589901	-0.018489677	0.07365121	0.007280009	0.04006057	0.04938964	
0.028466852	-0.10554077	0.02438876	-0.06588066	0.035102878	-0.026679078	-0.033971284	0.081650466	0.02395189	0.02311121	
-0.055355895	0.033929814	-0.02136086	-0.036441356	0.0580405	0.067974776	0.061474387	0.026156368	0.059237495	0.026242148	
0.05676478	-0.076700784	0.005891799	-0.051272858	-0.10123563	0.011670534	0.03610231	0.042787965	-0.053272806	-0.032700587	
-0.026428603	-0.01359906	0.085297175	0.0540818	0.034418017	0.1013577	-0.0022824872	-0.00967935	-0.06229115	0.044785425	
-0.10933209	-0.037765406	0.080578305	-0.07275075	0.07541941	0.03519878	-0.08417097	0.07148426	-0.009129369	0.113420226	
0.065075405	-0.07800496	-0.022262001	-0.036297973	-0.072745495	0.021405565	0.104256906	0.03307992	-0.018639822	-0.019516043	
-0.01790397	0.05927915	0.04749186	-0.032943834	0.009299885	0.022987647	-0.005734862	-0.042895246	0.009617166	-0.05839622	
-0.013211265	-0.012025597	-0.058739666	0.028206812	-0.031768084	0.023989169	0.044975806	-0.036264747	-0.0123273	-0.068283334	
0.031166831	-0.0400624	-0.011621509	-0.027303923	0.0659882	0.04478301	-0.06191303	-0.07132237	-0.080591805	0.04063709	
0.025348943	-0.04754518	-0.021822901	-0.013592397	0.016094554	-0.12258694	-0.042976793	-0.058302533	-0.05266117	0.075349	
-0.041757092	-0.027720625	-0.015331898	-0.042857	-0.041008126	0.042262714	0.13388596	-0.072667494	-0.021828437	0.002988078	
-0.038137697	0.017154673	-0.001715167	-0.05730274	0.037267964	-0.083213925	0.044218294	-0.066573836	-0.008570333	0.021236738	
-0.0029722333	0.041622944	-0.03558526	-0.037087895	0.044789996	-0.0995063	0.021411994	0.027049836	0.009563328	0.0849045	
-0.029870212	-0.017259773	0.00030568088	-0.05927814	0.092462175	0.010736692	-0.0028838797	-0.017325079	0.06610818	0.051108807	
-0.061389174	-0.025517492	0.04509833	-0.03422148	0.021708366	-0.02775072	0.055076934	-0.08491422	0.05475755	-0.052992065	
-0.17653109	0.035239484	-0.0103660235	-0.108359054	0.12124291	-0.022824597	0.08111648	0.0014666371	0.058449227	-0.027268942	
-0.12218819	0.13016805	0.1169539	-0.055065516	0.031929757	-0.06827145	0.003113204	-0.09216212	-0.052897535	-0.06493087	
-0.099882476	0.041368123	0.01270643	0.005469237	0.08398859	-0.011199112	-0.07387001	-0.05943388	0.048550636	0.015914248	
-0.034082267	-0.06673566	0.112284444	-0.026129533	0.051744543	0.07761727	-0.06750809	0.06528126	0.005856077	-0.031889353	
0.0019000475	-0.084661044	0.093852624	-0.0066876025	0.09705897	-0.031088337	0.0637818	0.062222	-0.025319131	-0.004634953	
0.0050871614	-0.07084273	0.04425022	-0.015588222	0.06208928	0.018182471	-0.011538063	0.07310286	-0.041949175	-0.0014437567	
0.039066188	-0.008414897	0.07436989	0.078908205	0.1077557	-0.02063219	0.09293071	-0.041915487	-0.03266982	-0.058917955	
0.07830869	-0.064497516	0.03452692	0.060544424	-0.012403421	0.05753196	0.059709396	-0.018197464	-0.06733031	-0.03656387	
0.026035303	-0.07516214	0.04471057	0.03191949	-0.10187347	-0.02609991	0.08752138	-0.023368344	0.005444585	-0.011892063	
0.025042811	-0.038272317	-0.017533552	-0.045850042	0.02350072	0.036435653	0.05720231	-0.006423402	0.030346489	-0.048137464	
-0.042112645	0.06086565	0.025465209	-0.031143637	-0.016216977	-0.065479174	0.05174857	0.008141542	0.06741744	-0.0026191082	
-0.018070387	-0.014154721	0.046900958	0.041138228	-0.02957012	-0.0653825	0.054776356	-0.060657244	-0.027980179	0.023511792	
-0.050610147	-0.06872853	-0.014544139	-0.021704175	-0.06690231	0.094830185	0.016494377	-0.07192883	-0.018182458	-0.03016851	
0.025704904	0.014747393	0.023136709	-0.014658405	0.018521417	0.030676814	0.08818602	-0.0003347154	-0.04021556	0.0077216607	
0.08348533	0.015322312	-0.035431046	0.015121765	-0.07059068	0.060758483	0.06534315	0.02343664	-0.075096674	0.09927312	
0.062349092	-0.013425781	-0.070837945	0.054692708	0.07715699	0.03336298	0.0025144692	0.0031121247	-0.028785393	0.06149856	
0.004983975	0.07034028	0.03133445	-0.026034916	-0.0043821805	0.10921131	0.00041983943	0.0870217	-0.057342634	-0.07228644	
-0.05665118	0.009365726	-0.0047455276	-0.02347956	-0.008529043	-0.00559634	-0.01744427	0.016252706	0.06179732	-0.05536491	
0.051552903	-0.06734993	-0.046644993	-0.037015904	0.027127378	0.101722665	0.09988555	-0.037878808	0.012927908	-0.059639238	
0.0075652916	-0.019682039	0.025824333	-0.077201836	0.027072882	-0.06739293	-0.062448747	-0.0053267214	-0.060148187	0.07550367	
0.020931227	-0.021756152	-0.0032423239	0.011564591	0.042366825	-0.053884067	-0.040399957	-0.04692027	0.027787192	-0.02343706	
0.059662376	-0.009823522	0.09270155	0.060597714	0.052407417	0.0064102337	0.042189386	0.014789018	0.07245155	0.037907332	
0.04129523	-0.07133843	-0.006321432	-0.05048149	0.048152793	0.017253026	-0.018764302	-4.7650203e-05	-0.017620707	-0.03927266	
0.012775942	-0.12028602	0.030401042	-0.02621109	-0.07167619	-0.038651593	0.06351006	-0.015833143	-0.06525069	0.0029429384	
0.013433064	-0.0865634	-0.031033339	0.0020766535	0.038919494	-0.09374616	0.046224818	-0.059753656	-0.050415643	-0.03114479	
-0.036364693	-0.069197364	0.100903906	-0.065956175	4.858784e-05	-0.0268891	0.12779641	-0.12257494	0.0331749	0.0005287133	
0.014007564	0.0737613	0.10518219	-0.15562573	-0.04111704	0.024606436	0.0729156	-0.045384213	0.04908356	-0.06036347	
-0.09348744	0.046113953	0.13283418	-0.07792113	0.040744472	-0.114283495	-0.008624193	-0.11687866	0.041057773	-0.06000135	
0.009203129	0.13711654	0.092591524	-0.12612212	0.07619549	-0.01620736	0.0055391355	-0.0818548	-0.012439032	-0.005639291	
-0.023384986	0.12155752	0.094196714	-0.00498789	-0.01741059	-0.02201953	0.030721005	-0.072147705	0.05339636	-0.035059165	
-0.020389343	-0.03244328	0.01040482	0.02483319	-0.032646697	-0.008150981	-0.0072597545	0.062318675	-0.10980291	0.06714675	
-0.10387937	0.029484587	-0.04339973	-0.035484046	0.058560763	-0.04110066	-0.008994492	0.14987978	-0.09392291	0.049380656	
0.028402131	0.03248638	0.07626071	-0.035847586	0.035090204	0.09581576	0.04610835	0.08089201	-0.035570305	0.14499775	
-0.048668142	-0.1466987	0.089453086	0.006675997	0.13042733	-0.027994657	0.10763229	-0.046132892	-0.05501465	0.010808254	
-0.042539794	-0.062644444	-0.0021950928	0.08200904	-0.04855036	0.013500452	-0.04026293	-0.06931586	-0.0102516115	-0.06769985	
-0.0009256166	-0.012320265	0.04351467	0.0640239	-0.003249509	0.02245808	-0.012542644	-0.08023513	0.016120665	-0.044379532	
0.1028953	0.009538842	-0.022352414	0.039184812	0.037243128	0.053407706	-0.030437222	0.00433855	-0.029225789	-0.02299647	
0.0449118	-0.07995614	-0.014543705	0.04161212	-0.03268961	-0.03221499	0.080200925	-0.030956315	-0.002101819	-0.06102767	
0.08695968	0.016320666	-0.009559797	-0.005331083	-0.06537074	0.002841683	-0.01230424	-0.017744973	0.080763966	0.05550492	
0.025369322	0.0038739934	0.05089209	-0.017763918	0.0028195507	-0.08122603	-0.10440119	-0.07586716	0.010562665	-0.049359206	
0.07946904	-0.078703664	0.029051201	-0.08818638	-0.057635926	-0.05896948	0.05311168	0.01012305	-0.03381331	-0.0048758597	
-0.09562162	0.03753144	0.095968135	0.08140059	0.041691203	-0.040506214	0.10435989	0.034255482	0.026924336	0.078373134	
-0.0772351	-0.10316532	-0.08429258	-0.0072532585	-0.057587974	0.058435522	-0.014762478	0.025883075	-0.03179252	0.11306853	
-0.03456681	-0.014556927	-0.030272573	-0.056645606	-0.025623038	-0.031241508	0.08547336	0.04596671	0.05042793	0.025277002	
0.03260218	-0.06180929	0.031847224	0.032898735	0.03293254	-0.059795313	0.027347473	-0.08596656	0.035448015	-0.012629029	
-0.036927883	0.014285661	0.055476554	-0.052793466	-0.03457062	0.058980856	-0.017789122	0.0835743	-0.040158663	-0.0027203753	
0.019226473	-0.06462417	0.045902472	0.07862796	-0.0110853445	0.04268352	0.100181386	0.052406263	-0.01381099	-0.07233621	
0.0037951716	-0.078867026	-0.04168835	0.06507129	-0.012019457	-0.03211389	-0.06582454	-0.011812989	-0.090549864	0.059864283	
-0.0057810387	0.047822144	-0.059817154	-0.067936905	-0.0575462	0.034078106	0.08302321	-0.014965363	-0.06489984	-0.049715336	
0.06330451	-0.007646514	0.11263763	-0.03899752	0.04368604	0.038144827	0.012884912	-0.017080383	-0.016040446	-0.05715335	
0.14273998	-0.02237512	0.0050608832	-0.03744761	0.009703834	-0.0110528665	-0.011454192	-0.05787717	0.0610234	-0.043536156	
0.041423105	-0.0068749213	0.0072341166	-0.117358364	-0.06299435	-0.036686815	0.071811065	-0.001457957	0.0170204	-0.07173142	
-0.03584283	0.012720463	0.072005734	-0.10535051	-0.0073638326	-0.12332766	0.05094039	-0.042506814	-0.015420037	-0.04990104	
-0.0041916403	-0.03616138	-0.03357467	0.0066794567	-0.082578205	-0.052480157	0.023202792	-0.11606932	0.04360742	0.020352462	
-0.046826355	-0.022201616	0.13885742	0.04159163	-0.080317564	-0.062204897	0.0978746	-0.012334087	0.13270359	-0.021601427	
-0.116056085	0.048091516	-0.06390833	-0.026610872	-0.096768245	-0.011441405	0.0029025525	0.020436047	0.059675768	0.036207717	
-0.033280876	0.07974508	0.0590396	-0.17290586	0.041642845	-0.08823477	0.027834168	0.023121927	-0.06292663	-0.035806157	
-0.1325012	0.06748865	0.06379699	-0.057421546	0.07686111	-0.09285711	0.053602483	0.06506537	0.02749215	0.0008481988	
-0.078332946	0.08497498	-0.043316994	-0.004793213	0.08111615	0.01799477	-0.0036543014	-0.026378334	-0.07419605	0.116573386	
-0.11042551	0.007471363	0.0704604	-0.13878621	-0.052741457	0.061849266	0.10657715	0.07182262	0.057077043	0.12557447	
0.025706794	0.0003566089	0.10549912	0.044292852	0.022408988	0.06287851	0.0706803	-0.08420273	0.061413597	-0.017040383	
0.0404283	-0.08461538	0.056735273	0.12366906	-0.031182284	0.0365668	0.15544555	0.0336419	0.061239112	0.037773903	
0.08330261	-0.1315596	-0.039761096	0.07487793	0.028556103	0.07225596	0.07940913	0.057514254	0.0131487185	-0.0033765803	
-0.03828273	0.025977254	0.014225164	-0.04544888	0.06019801	-0.06197038	0.04334651	0.0029574747	-0.004946127	-0.0117884	
-0.023841156	-0.07821095	0.04805003	0.052477833	-0.07790345	0.0011776788	0.099713504	0.008123717	0.06109496	0.0024596616	
0.10383078	-0.08853599	0.07251302	-0.06643006	-0.013842124	0.024129782	0.00586899	0.033769816	-0.07300433	0.03545797	
-0.013906909	-0.019579466	0.06334964	-0.014988728	0.00060656277	-0.068454295	-0.08781813	0.0015451468	-0.023667254	0.04373072	
0.039815128	-0.020334102	-0.02676019	0.02944545	0.008414355	-0.08511754	0.101619765	0.000753116	-0.024424417	-0.025497701	
0.0346031	0.06312073	0.013965932	-0.019585233	-0.1099184	0.012496617	0.05920829	-0.032754093	-0.0022948168	-0.021634264	
-0.004830501	0.05439818	0.02641416	-0.0034413813	-0.029170178	-0.033485226	0.03340034	-0.051654346	0.110621236	0.018559344	
0.037458304	0.051086936	0.03307392	0.0013631524	0.0043718247	0.02804652	-0.045377854	-0.009028559	0.037075657	0.04716639	
0.015335362	0.017602528	0.051140122	-0.04153284	-0.012118853	0.06007761	-0.058234535	-0.009886822	-0.014863954	0.08568669	
0.026174802	-0.0717982	0.021860527	0.013825679	-0.00609786	0.035474908	0.028842283	-0.058223203	0.058562487	0.012481595	
0.05456128	0.021232307	-0.01706048	0.04176021	-0.001934973	0.0047466177	0.04227536	-0.020779451	0.04603598	-0.03479905	
0.07477262	-0.055098914	-0.012614222	0.031145228	-0.05154897	-0.049806233	0.03240348	0.047877513	0.0125397835	-0.015575429	
0.07771605	-0.034329757	0.046500795	0.056576766	-0.0074929274	0.08563613	-0.06864618	-0.041651607	-0.09152252	-0.080941364	
0.030298367	-0.005522877	-0.04293724	0.008871307	0.0663581	0.0062283156	-0.12296953	0.012165906	-0.024239298	-0.12406219	
0.094625026	0.010935157	0.050753705	-0.08181482	0.025129126	0.1171659	-0.018993815	-0.029299362	0.043769006	-0.047990598	
0.13211384	-0.022187103	0.089495525	-0.022176014	0.06528221	0.08568929	-0.0013655327	-0.023993822	0.092763945	0.007396401	
0.05177938	-0.009617542	0.08601727	-0.073354214	-0.003829023	0.049080953	-0.051865462	-0.0790674	-0.030253738	-0.056911573	
-0.03093708	-0.02774849	0.036938023	0.072951466	-0.042812094	-0.111243814	0.0405716	-0.083992615	-0.00043201633	-0.08147746	
-0.03595603	-0.045314338	0.06264653	0.033414923	-0.010903967	0.045962725	0.035851885	0.031146059	0.1469325	-0.014966052	
-0.08119063	0.070740595	-0.05313038	-0.024561977	-0.096678495	0.022862941	0.10115886	-0.0059521236	-0.012656881	-0.08745391	
-0.026810456	0.058280487	-0.029711979	-0.08137889	-0.020844245	0.004712394	0.13004775	-0.04858168	0.05685167	-0.07036036	
-0.060354944	0.17867383	0.10190552	0.004320391	0.042018056	-0.04242262	0.074002765	0.02732595	-0.14429235	-0.05568739	
-0.006251329	0.08484763	0.0091227675	-0.010301291	0.08076428	0.049525257	-0.020893786	0.098622136	-0.038890477	-0.04009601	
-0.009534181	0.08431912	0.051752757	0.044011533	0.03704624	-0.040416673	0.06321558	-0.03375044	-0.10147797	-0.037658803	
-0.009029907	-0.07626566	-0.0040733907	0.019463774	0.09332929	-0.0575437	-0.06163691	-0.101700395	0.017872097	-0.011588013	
0.08210203	-0.13012046	0.07769303	-0.08896148	0.01781364	0.10899815	-0.048219778	-0.017706076	-0.014258122	-0.06727677	
0.006273784	0.02016822	-0.010447103	0.101934366	-0.052943636	0.03504705	0.020269554	-0.026458457	-0.039482556	-0.040129136	
0.03834761	-0.020978227	0.035320103	0.056036502	0.03010959	-0.047304448	0.06595261	0.058458395	-0.09787954	-0.0508671	
0.023120714	-0.041910365	0.07597404	-0.010635506	-3.8114016e-05	-0.0044653895	-0.046460688	-0.01766675	-0.034377266	0.0030610275	
-0.019293854	-0.055596616	-0.05477902	-0.040841073	-0.07260815	-0.025476726	0.014989211	-0.008471996	0.010853842	-0.026581893	
-0.069062084	-0.056364864	0.036061645	0.060109086	-0.01399913	-0.092252	0.021039572	0.0024202287	-0.013995587	-0.073644675	
0.033312574	-0.046537705	0.048036262	-0.0015331483	0.046177454	0.08401892	0.030544631	0.052232873	-0.009020021	-0.039479896	
-0.0018836301	0.061888628	0.07641793	-0.028728526	0.044310655	-0.003210753	0.022595342	0.011418964	0.055886943	-0.056120083	
-0.056367323	-0.027359918	0.066518374	-0.012195441	0.008284515	-0.02368935	0.03211957	-0.10142246	-0.08987213	0.017689709	
0.032886617	0.016586632	-0.020151014	-0.008858213	-0.011272475	-0.011796426	-0.064310946	0.030025708	-0.05593403	-0.08204074	
-0.07350525	0.038903523	0.058558814	-0.030677866	0.06368067	-0.028769458	0.09563382	0.09835887	-0.054857366	0.019921103	
0.036092497	-0.06687852	-0.015954707	0.04649179	-0.04330338	-0.05808449	-0.023737144	0.004279535	0.08607207	0.10661435	
0.034696262	0.07485671	0.023931598	0.07474059	0.07092776	0.010505525	0.052088324	-0.012256809	-0.035589263	0.024468232	
-0.09043325	0.06349728	-0.053503495	0.053580184	0.08712114	0.021609027	0.031825937	-0.01144925	-0.07923718	0.021800453	
-0.04546815	-0.009514797	-0.02328766	0.11229911	-0.022469278	-0.074166305	-0.023303045	-0.10147052	-0.008188017	0.021699255	
0.009227397	0.009012271	-0.022578936	0.010298816	-0.08388183	-0.102926284	-0.040433776	0.014576502	-0.11970202	0.08306752	
0.010523819	0.0108710965	-0.0407382	-0.05759494	-0.004062154	0.004413046	0.07034312	-0.063989945	-0.00922943	0.00787383	
0.037164412	-0.017701674	0.13145849	0.08743441	-0.06999925	0.11546337	0.007961688	0.051468324	0.02510918	0.07980117	
0.08302931	-0.035485327	0.027955096	0.027659172	-0.111591324	-0.052860856	0.006236898	-0.07856195	0.042466197	-0.025820682	
0.1306389	0.07943339	0.08107691	0.00097002625	0.045435593	0.019083112	0.04425581	0.0058581894	-0.06342771	0.03683783	
-0.028933726	-0.008955198	0.039591644	-0.027593954	-0.08829278	0.0683989	0.047601692	0.010482806	0.012031819	0.039906383	
0.0564961	-0.019137338	0.041022897	-0.034464877	-0.07155429	0.040316135	0.032306295	0.03888885	0.07576715	-0.09632026	
-0.019405536	0.054961324	0.10817433	-0.071932845	-0.016036952	0.00425346	0.058773138	-0.07918148	0.034365054	-0.06445271	
0.07147308	0.09095812	0.04241388	-0.10975156	-0.05179684	-0.036776472	0.10459202	0.0012994988	-0.093393736	-0.090225324	
-0.061858155	-0.01502506	-0.03416655	0.06037057	-0.030643312	-0.08010213	0.16220818	0.013710276	0.0048749303	0.06252459	
0.031309262	0.049565695	0.029781776	-0.03446733	-0.07989245	-0.069168255	0.062113583	0.120837115	-0.023117159	-0.08597566	
0.011339557	-0.07668467	0.019813055	-0.02732881	-0.03761869	0.0031023065	0.0020375252	0.091386676	-0.011508459	-0.07773924	
0.031413063	-0.023896683	-0.051798556	-0.03415543	-0.05506315	-0.03855311	0.110443115	-0.041765112	-0.07106064	0.04549488	
-0.065781966	-0.030049877	-0.009088166	-0.004969027	-0.03294555	0.07910116	-0.030146481	-0.043952383	0.011868382	-0.027272291	
0.1141834	-0.0320394	-0.06424789	0.09318241	0.032827314	0.020081775	-0.028870089	-0.055262048	-0.023316728	0.021975612	
-0.02664373	0.029194042	0.009831263	0.036927298	0.065305784	0.095057875	0.078985244	-0.1247942	-0.092642084	-0.037627745	
0.0020634315	-0.09542183	0.09428831	-0.040035173	-0.11413525	-0.020288661	-0.0048931967	-0.06861411	-0.015384887	-0.022274178	
-0.014067499	0.0032210816	0.08576536	0.0353286	0.10076914	0.0995164	-0.043558326	0.028810402	-0.015072532	-0.011629068	
0.09708424	-0.08697565	-0.052573234	-0.006860142	-0.025559774	0.029885238	-0.10823687	-0.09503201	0.07662115	-0.08953557	
0.107891105	-0.012547986	-0.028074503	-0.0070214695	0.022187615	-0.009301599	-0.07497147	0.053015016	0.0068418463	0.0158492	
-0.043083787	-0.03547415	-0.07993215	0.037256528	-0.049157795	0.00998077	-0.10403099	0.014444543	0.10838469	0.029897572	
0.041297603	-0.007772624	-0.0039184946	0.034974366	-0.04762699	-0.06999302	-0.04060335	0.025067432	0.047354177	0.02519107	
-0.014234927	0.007487933	0.0133723505	0.09134499	0.00046649436	0.06016893	0.015072115	0.015518137	0.09221972	0.074561045	
0.0738978	0.038551215	-0.019788621	-0.018491002	-0.021329239	-0.007733355	-0.04985997	0.0043585165	0.03544788	0.048916496	
-0.071160875	-0.019588122	-0.0074469144	-0.009511717	-0.043473773	0.006405827	-0.042771976	-0.053887386	0.012987612	-0.0009242476	
0.026789661	0.060695935	0.09275874	0.09043192	0.048224352	-0.0037254577	0.025327241	-0.01059209	-0.05727509	0.036651444	
0.03519812	-0.06560435	-0.07425874	-0.013415517	0.04892267	0.028791295	-0.10830069	0.007727934	-0.02355176	-0.0054601175	
-0.05522344	-0.0040045073	0.03595156	-0.0588207	0.053949717	-0.08211844	0.024635905	0.023034375	0.07990407	0.009583811	
-0.033043727	0.09338865	-0.014651977	0.07366833	-0.06621817	0.018954089	-0.03260882	0.0557983	-0.035616554	0.0879123	
0.10317487	0.024582481	-0.020866133	0.08270805	-0.01976341	-0.018731514	0.034990463	-0.05915719	-0.007912849	0.022162696	
-0.049742803	-0.024082033	0.0241566	0.04121858	0.045663044	0.009537901	0.017261956	0.0011306223	-0.016633576	-0.11379234	
0.07193214	-0.08563768	0.10124873	-0.040815674	0.03155504	0.06979954	-0.11059348	-0.025871845	0.05355642	-0.09387495	
0.027446738	-0.036162853	0.039183475	0.033389192	-0.011974444	0.0698039	0.04535921	-0.008142017	-0.057165578	-0.07541266	
0.06844943	0.01970443	0.11779902	0.031183504	-0.14549688	0.0988171	0.005467952	-0.11132676	0.061676037	0.0037133559	
0.09912905	-0.092288524	-0.021228077	0.012844644	-0.070792526	0.093415186	-0.037944973	-0.051407453	-0.073313005	-0.05245037	
-0.018878128	-0.06424029	0.07020699	-0.0628644	-0.04722599	0.059776902	0.07434979	0.022101557	0.0020631568	-0.007057125	
0.028475627	0.021681666	0.009432346	-0.0870018	-0.0049494533	-0.05482093	0.06568126	-0.08902564	0.08540637	-0.05331125	
-0.08492159	0.11115681	-0.10679094	-0.016615942	-0.015363933	-0.019334247	-0.0122583555	0.07537417	0.004328756	-0.06002031	
-0.049571704	0.079694405	-0.07240486	0.01670268	0.028723495	0.05674879	-0.017233122	-0.010447744	-0.01786813	0.08721515	
0.005393147	0.055847846	0.033196557	0.0985151	0.019877404	-0.0036160864	-0.024819888	0.032513287	-0.04469104	-0.033211045	
0.006675394	-0.11306043	0.03584242	-0.028627342	0.0434918	-0.043508977	0.014447389	-0.0052490514	0.014768504	0.056587886	
0.051645856	-0.061887998	-0.04279651	0.05633116	-0.014278488	0.016778342	-0.0095651	0.011971595	0.02559714	0.022944707	
0.05087699	0.057275727	0.054641236	0.1380247	0.010688684	0.07629247	-0.054483455	-0.052890502	-0.018562328	-0.025939977	
-0.095054455	-0.006802072	-0.07238645	0.06474082	0.010864834	0.05840684	-0.006085745	-0.030785255	-0.028020272	0.03685647	
-0.080430344	0.019521894	0.031874143	0.04670669	0.012971862	0.0031697168	-0.09245691	0.06552975	0.00029808067	-0.023150768	
-0.07118389	0.07963546	0.060574967	-0.03294905	-0.0352217	-0.010498933	0.0065164166	-0.030049218	-0.07032975	-0.014470034	
-0.057452403	0.057307273	-0.028632369	-0.0060945153	-0.041442834	-0.04285085	-0.07863289	0.050124045	-4.7909532e-05	-0.0008236398	
0.011167408	-0.10132203	0.1103705	0.031601798	-0.082982324	0.05569633	0.016165813	-0.019690251	-0.09225365	0.07354442	
-0.037195977	0.08678952	0.0673106	-0.013730747	0.03283511	0.054452024	-0.024288516	-0.08682276	-0.048622448	-0.069184475	
0.07043291	-0.0034149096	0.029760988	0.09066727	0.034072194	0.02035081	-0.0142911095	0.016354565	0.01746604	-0.02487222	
0.0070775445	-0.073444605	-0.055731855	0.007698829	-0.052601803	-0.043330878	-0.079867326	0.015132285	0.04350425	0.038021434	
-0.03737499	-0.049139228	-0.109687164	0.021860939	-0.012813714	0.072052725	0.04372354	-0.058549818	0.047317866	-0.072743155	
-0.019785337	-0.05417783	-0.0076092808	0.0019596892	0.0025848926	0.10951279	0.10157524	-0.036467567	-2.542858e-05	0.04083926	
-0.055189446	0.107660286	0.01858198	0.056387283	0.04262418	-0.045084015	-0.00819251	0.020166261	0.032130226	-0.022161735	
0.021682337	0.0697784	0.026889348	-0.053896572	0.025567796	0.041611373	0.0018396782	-0.10438411	0.10643541	0.031522334	
0.038720164	0.07431447	-0.0045763105	0.009694137	-0.05921905	-0.06773674	0.112017676	-0.026697066	-0.002933888	-0.008554241	
-0.029543657	0.041929282	-0.017398644	-0.009179445	-0.020827634	0.0638424	-0.026190916	0.037801445	-0.03609787	0.054879196	
0.08972918	-0.036617517	0.04128088	0.03437267	-0.03963432	0.056615114	-0.0920573	0.019147564	-0.042273287	-0.09012548	
0.056137435	-0.002183626	0.07970123	-0.007992552	-0.12415776	-0.07049035	-0.085905954	0.014904706	0.035424795	-0.0031474773	
0.064784124	-0.039556615	0.058349397	0.04105401	-0.04416299	0.093265004	-0.11058103	0.026544692	0.058817636	-0.0036728627	
0.061017606	-0.026823424	0.091984846	0.1520585	-0.047090784	0.00060978346	-0.084283	-0.015364219	0.09083141	-0.056020413	
0.03901966	-0.029252958	-0.073494546	0.06546804	0.050048806	-0.025238568	-0.0137681	-0.05339067	0.043745287	-0.10004959	
0.093836434	0.06677071	-0.01567029	0.05898523	-0.059233326	0.09740442	-0.057236172	0.0009804434	0.04684258	-0.009023999	
0.06456934	-0.050496567	0.030153025	0.016708642	-0.008358684	0.07623033	0.036074758	-0.03092754	0.04496832	0.0099005615	
0.053069774	-0.027821796	-0.035626903	0.101608954	-0.056733172	0.032735147	0.012328876	-0.07300754	0.12519799	0.032540876	
0.054537956	-0.008872655	-0.086324334	0.022588223	-0.08466376	0.121071585	-0.04644016	0.011161243	-0.008823565	-0.053470746	
-0.0638009	0.0490962	-0.049062595	0.024481649	-0.029315695	0.07719809	0.0026808493	0.0023589865	0.11467142	0.020016873	
-0.019675799	-0.02110481	-0.050977517	0.034621537	0.047919776	-0.031617455	0.016294805	0.055676203	0.049670376	0.07369796	
0.011688677	-0.10064967	-0.010319192	0.060710557	-0.04941735	-0.034781296	0.032091044	0.013419613	-0.018618116	-0.031382557	
0.038324058	0.030791024	-0.09798692	0.022372285	0.065719485	0.031963084	-0.062403634	-0.011811449	-0.01703327	-0.088278964	
-0.03414175	-0.032789618	0.08356141	-0.01247592	0.049386825	0.055265833	-0.04918123	0.007849921	0.06355674	-0.03309586	
-0.035498753	0.00812488	0.04597847	0.08895921	-0.02974839	-0.008351472	0.018819034	-0.03562215	-0.040734448	0.014834256	
-0.036083322	0.007031193	0.034210846	0.075694464	-0.058089238	-0.017960312	0.051369023	0.059370846	0.013179548	0.013263249	
0.026546804	0.043546095	0.033000056	-0.030771531	-0.10105999	-0.011637566	0.07815302	-0.035547122	0.03455066	0.030025104	
0.019427389	-0.09489359	-0.046945173	-0.015268471	0.0021934623	0.053343	-0.081592925	-0.03949244	-0.0235037	-0.05184267	
-0.089731306	0.008971319	0.12143083	0.05552106	-0.037757788	-0.04178096	0.08022033	-0.062073227	0.074063264	-0.045294914	
-0.015902126	0.020774018	0.10853379	-0.076319635	-0.06777012	0.027476694	-0.058127947	0.0073580276	-0.00551525	-0.055417757	
-0.019204265	-0.053866602	0.044130743	-0.0014991671	0.028185397	-0.01764359	-0.064995915	-0.057296913	0.0052084257	0.03199782	
0.11393437	0.08574948	-0.044421256	0.0012232905	0.033533324	-0.01471058	-0.021898534	0.033405766	0.02913061	0.028458802	
-0.10277998	0.011625248	-0.031525318	-0.012382317	0.0034100977	-0.07786533	-0.058250636	-0.007411855	0.022613807	-0.0075073573	
0.057626206	-0.094907604	0.027360743	-0.06725972	0.022363478	-0.039417416	0.066322215	0.08104581	0.042964216	-0.029549856	
-0.029646145	-0.058085777	-0.09508442	-0.080071114	-0.07024904	-0.015783407	0.001299444	-0.00913276	0.082917675	0.0239281	
0.02065047	0.0488949	0.016511442	-0.031275366	0.018175237	0.06671354	-0.02950318	0.0116898455	-0.025915217	-0.037952926	
-0.013680275	-0.08025463	-0.025013216	-0.043171633	0.06736758	-0.05782585	0.046195365	0.040258043	-0.007119853	-0.040905442	
0.029624011	0.043191303	-0.0465272	0.059145868	0.07987067	0.060732655	-0.000870089	-0.0075835553	-0.0131319435	0.026584832	
-0.054882422	-0.0053614993	0.030265989	0.036807004	0.01962177	0.03342322	-0.030605037	0.026856087	-0.0004228878	0.021906614	
-0.02751312	-0.013896902	0.0048578624	0.03733339	-0.058856625	0.016930373	-0.050029024	-0.025195498	0.0052575655	-0.028429786	
0.036206387	-0.008280058	-0.10604981	0.03979624	0.032432865	-0.040181562	-0.016100142	-0.051702164	0.0058903466	0.07217816	
0.010999665	0.05953896	0.08903195	0.10225254	-0.073796995	0.018695876	-0.0057967054	-0.01293479	-0.05220986	-0.12618321	
-0.024624817	0.00894236	0.05103625	0.041412055	0.04543229	-0.008969612	-0.0064802445	-0.095743276	0.055421926	-0.07746418	
-0.0055445866	0.017762393	-0.09557315	0.0061183716	0.06840581	0.032872178	0.035947584	0.009281998	0.12621821	-0.011271312	
0.06071268	-0.03494403	-0.01940202	0.031907625	0.03986455	0.041718073	-0.09896737	0.025734251	0.022748575	-0.024749206	
-0.01053872	0.08591171	-0.08812236	0.07658243	-0.08008639	0.09652744	-0.114303544	-0.07438528	0.03660147	-0.030200785	
0.0023881416	0.072019614	-0.00048124915	0.055673193	0.00073152006	0.064430885	-0.06607039	0.07640003	0.12573731	0.050382975	
0.044124406	-0.011642461	-0.07803054	0.09116977	-0.0009885867	0.05196534	-0.1320369	-0.0094494	0.01479519	-0.025909832	
-0.014858406	0.021523912	0.013401829	-0.018394224	-0.000420058	-0.0017625686	-0.0023342106	-0.10250333	0.010423768	-0.025272248	
-0.022827012	0.002655349	-0.06101473	0.048480675	-0.014613972	-0.032235038	-0.080958776	0.033847798	-0.029448291	0.0052677067	
0.051958486	-0.059057634	-0.042808518	0.06796455	0.001350158	-0.03893293	-0.028548816	-0.000960903	-0.038821083	0.11108224	
-0.017552774	-0.0356872	-0.052815635	0.06360186	-0.014745878	0.041924983	0.04545881	-0.104328066	0.05598232	0.04583826	
0.09642242	-0.05610106	0.11151483	0.04191207	0.08318918	0.028148303	0.01824475	0.006998852	-0.07460746	0.032648284	
-0.048968405	-0.05586891	0.008865579	0.0027055447	0.069494985	0.04533423	-0.044145517	-0.08164401	-0.07476802	0.028211046	
0.026323415	0.10383453	0.049740445	-0.034405913	0.037975036	-0.07570718	0.03645014	-0.029316328	-0.016011504	-0.09498195	
0.0155686345	0.08877009	-0.06354519	0.03663462	-0.019763554	0.06769264	0.007752289	0.02664983	0.036663134	-0.012377467	
-0.006670739	-0.0063170474	-0.0057620998	-0.051176257	0.013288348	0.01713084	-0.0030699165	0.06777854	-0.025012242	0.017072313	
-0.07164787	-0.06861716	-0.0010633378	0.048039656	0.05071517	-0.011037117	-0.049341716	0.020114735	0.02125504	-0.008155293	
-0.06408862	0.094730765	-0.021414116	0.042589057	0.004888619	0.005685306	0.10852853	-0.1128736	-0.016047556	-0.010277479	
0.06893732	0.106368795	0.07122865	-0.016484829	-0.08680526	0.0069544944	-0.05205319	-0.0016737957	-0.0023281272	-0.041476775	
-0.04883961	0.02457608	-0.10190608	0.03171099	-0.030946318	-0.058367714	-0.07856083	0.046527684	-0.10706559	0.035430003	
-0.015216859	0.08033641	0.060815718	-0.06283163	0.014791555	0.019129643	-0.04721988	-0.0039690044	-0.080366485	-0.0017030032	
-0.00232095	-0.05836992	-0.008883538	0.029545827	-0.09765029	0.03616547	0.015301015	-0.080856875	-0.03342303	-0.08764173	
-0.028399402	-0.016262498	0.020334344	0.039073493	0.024317246	-0.066923745	-0.020591542	-0.06496683	-0.028456332	-0.09164176	
-0.03133514	0.020571724	-0.004216608	-0.025092747	0.053348936	-0.018252239	-0.022944555	-0.09718692	0.013605374	0.02851345	
-0.029583434	-0.028267507	-0.004429767	-0.022145174	-0.112546176	-0.015809592	-0.031917788	0.030528896	-0.08330311	-0.032444276	
-0.01896434	-0.02400076	0.069236815	-0.0025284754	-0.0024103953	-0.014551093	0.023000546	-0.051859777	-0.022325432	0.07650429	
0.08779803	0.00032494013	0.0155912405	0.01230239	0.013311446	-0.03917843	-0.04348588	-0.024596088	0.0016008356	-0.024396937	
-0.036900144	0.03228055	-0.027701885	0.016706018	-0.048978038	0.04420738	0.044472758	0.010033034	0.02755212	-0.040876307	
-0.0064498344	0.03369191	-0.0041801976	-0.09885831	-0.0001690302	0.00652256	0.06652795	0.0003590666	-0.006755667	0.0039294986	
-0.048332904	0.091603026	-0.11089773	0.062546976	0.028769707	-0.012404577	0.020076787	0.00027789245	0.029446347	0.048244536	
0.02643272	-0.053141322	-0.07400468	0.026026592	-0.016062737	-0.0043365797	-0.094203226	0.0746264	-0.026336245	0.058125615	
-0.0014137962	0.0089751035	-0.093949355	0.0022966003	-0.013762633	0.029494788	0.00043595358	0.060965683	0.08072021	-0.079009555	
0.06944423	-0.1230584	0.0015996239	0.05896453	0.07819666	0.05563878	-0.019367218	-0.007350695	0.10822913	-0.051021684	
0.039184052	-0.08047542	0.019100254	0.06377977	0.04852217	0.018203417	-0.05142429	0.095675595	0.026965138	0.01479555	
-0.04105515	-0.024408888	-0.06411946	-0.014613953	0.005157191	0.0094390055	-0.009716256	-0.03121749	0.0037518628	0.12278116	
-0.028945958	0.027746972	0.06655335	0.004476096	0.0725925	0.1036474	-0.00054145127	0.04374649	0.022071855	0.07394622	
0.03700141	-0.04456557	-0.03869088	-0.025558932	0.034831703	-0.040037014	0.019755155	-0.025708072	0.06871954	0.088154405	
0.05884902	0.08595467	0.046910256	0.01122177	0.042494766	0.017732173	-0.05998145	-0.009906274	-0.0075660236	0.09395987	
-0.04555166	-0.048571724	-0.09229325	5.6972727e-05	0.020232564	-0.029313255	-0.026062418	0.036063686	0.016141232	0.023013458	
0.010285304	0.083151996	0.011203587	-0.06442864	-0.05435147	0.0011934406	0.070740096	0.06432861	-0.0018114728	0.02271715	
0.015417291	0.032862168	-0.085156456	-0.05015654	-0.01944952	-0.043216776	-0.06862858	0.02373171	0.05134412	-0.06717062	
0.028843341	0.037739858	0.0432014	0.060713254	-0.016604075	0.007368304	-0.027470715	0.021918884	0.00096052	-0.028458647	
0.059676174	0.066231064	0.026294343	0.05929267	-0.06915598	0.03215776	0.08560044	-0.0007853461	0.027055087	-0.029667571	
0.033798695	0.027723005	-0.027974391	-0.009345573	0.019749215	0.05186153	0.07843279	-0.017092973	-0.022645216	-0.008556476	
-0.037724182	0.017910557	0.06254125	-0.06751666	0.028436342	0.08547312	-0.038249906	-0.09197919	0.032147836	-0.016831236	
-0.03485862	-0.02607528	-0.023908874	0.040535193	0.03466177	0.0064393277	-0.06858849	-0.092348225	-0.05162875	-0.027637413	
-0.013507985	-0.062085614	0.101317964	-0.054997083	-0.014005963	-0.08307392	0.027202915	0.032325562	-0.112167545	-0.038904987	
-0.0126519725	-0.028921468	-0.013717953	-0.02455939	-0.033090487	0.10584258	-0.064299956	0.055882208	0.03480261	0.00894448	
-0.007958148	0.040626578	0.0055519943	-0.061285224	-0.016815275	-0.00059533125	0.061866008	0.036662128	0.05841574	0.05300402	
-6.8264504e-05	0.024278374	-0.09177039	0.03204513	0.07108665	0.05159821	0.045845397	0.023344554	-0.03893137	-0.07275249	
0.025330532	0.002912137	0.050404448	-0.08987955	0.07424664	-0.03119742	0.00754037	0.025980474	-0.0023071093	-0.06496055	
-0.030298814	-0.02198699	-0.00022145928	-0.05967075	0.078703225	-0.0777393	0.022074012	-0.016737072	0.046725713	0.018580465	
-0.03802356	0.0026349998	-0.029632714	0.04066559	-0.012559838	-0.09889445	-0.024053024	0.06034238	-0.008718747	-0.038367067	
-0.010767773	0.097971864	0.00078094914	-0.010021843	0.007493459	0.09217806	0.07600686	0.020758895	-0.11336631	0.07787456	
-0.013480313	0.017716488	-0.03278581	-0.039163616	-0.08351428	-0.10725444	-0.049008146	0.04415489	0.018663934	0.0075649736	
0.028531183	-0.10401395	0.022193061	-0.0047840104	0.023272598	-0.016021857	0.02661861	-0.006657634	0.030091718	-0.10354545	
0.04025997	-0.05299782	-0.039740052	0.027100809	-0.06776573	-0.033366792	0.043592736	-0.05540153	0.043949608	-0.030712841	
-0.00020558396	0.025302371	-0.06798888	-0.0013027119	-0.10879772	-0.061837956	-0.018366825	0.031051591	0.04705993	-0.05257349	
0.083177865	0.0025113048	0.056333676	-0.021333495	0.012394607	-0.010687848	0.07906379	0.046674557	-0.0041302526	0.008163992	
0.026054222	0.0052468367	-0.02652066	-0.03915804	0.004954638	-0.02188395	0.020348836	0.051388647	-0.07066506	-0.0055760974	
0.037130933	0.019035885	-0.028592281	-0.08643946	0.038385212	-0.036094714	-0.06336202	-0.02801046	0.031551197	-0.038096536	
-0.00040919578	-0.03209744	-0.1168131	0.0015524189	-0.014898032	0.058545634	0.04966458	0.07500225	-0.014703922	0.020296343	
-0.077005446	0.028631706	-0.07169525	0.011899925	-0.06050928	-0.009368966	0.031644594	0.016894184	0.055698708	-0.021381458	
-0.010577943	-0.042591996	0.015799522	-0.060955215	-0.021985088	0.06396839	-0.10642917	-0.012611483	-0.096363634	0.038510498	
0.075466365	0.050283596	-0.085929625	-0.005193829	-0.032834135	-0.0027334697	-0.013425445	-0.06470375	0.010766061	0.10576942	
0.021530893	-0.09473864	0.014133843	-0.082351774	0.10209089	-0.065980576	-0.1031407	0.023275096	0.07269765	0.007870309	
-0.0035955803	-0.0865824	-0.09732764	-0.05386105	0.047233038	-0.04755685	-0.032309398	-0.035766505	-0.06881001	-0.06792787	
-0.08738157	0.101981	-0.009326845	0.09943764	0.09182138	0.058386292	-0.026180483	0.067511275	-0.04871958	-0.04073356	
0.0135725625	0.022341637	0.10238919	-0.017328162	0.036809504	-0.039493863	-0.009057573	-0.0033971742	0.057861492	-0.05400509	
-0.00024149148	0.029908407	-0.030732876	-0.024070371	0.007084843	0.055828042	-0.050596613	-0.045757785	-0.05010476	0.06758138	
0.08313922	0.025070623	0.061938513	-0.063359834	0.0040296423	-0.018516673	-0.011947552	0.05131944	0.053691223	0.022701692	
0.04805668	0.033171345	-0.041646805	-0.009596955	-0.001297621	-0.012967453	0.012895188	0.009467454	-0.0046894583	-0.051167473	
-0.036077123	-0.059145566	0.032513276	0.015198683	-0.0507339	0.04145515	0.073741086	0.011667698	0.018841252	-0.012735961	
-0.07503193	-0.012071811	0.07708506	-0.04477773	-0.022326073	0.049273588	-0.07580634	-0.025911402	0.05825389	0.007338199	
0.021193437	-0.05538597	-0.03848718	-0.0035107587	-0.07674947	0.018251836	0.027655205	0.053788014	0.025258753	0.012149335	
0.04610282	-0.05716253	0.025198428	0.06151066	-0.011163478	0.013629901	0.073711514	-0.04410694	-0.011313971	-0.023092557	
0.038245775	-0.05667975	-0.008821681	-0.05717433	-0.10791626	-0.024215423	-0.055870675	-0.011171377	-0.011050141	-0.014494165	
-0.034669317	0.0032296702	0.0012278236	0.097089715	-0.009702128	0.08525595	0.007327183	0.104019694	0.010348674	-0.0073288428	
-0.009473395	-0.044489536	0.10449313	0.007862683	-0.090249866	-0.06811247	-0.0484449	0.055606086	0.054641988	0.076423235	
-0.020394564	0.07413607	0.036776457	0.010363868	0.08679701	-0.00032499456	-0.05907399	-0.01976316	-0.02209734	0.03903192	
0.047146827	0.021048779	0.066644356	0.055184927	-0.03968856	-0.026840242	-0.010807919	-0.0617402	0.048472203	-0.035585172	
0.029739266	0.03834169	-0.10112958	0.04799583	0.008660176	-0.0518294	-0.054316286	0.008410989	-0.029785061	0.0010989504	
-0.030594606	-0.025071759	-0.0727208	-0.046337325	-0.09132899	-0.01052721	0.023851287	-0.0804446	-0.04024499	-0.0049527944	
0.010544821	0.056314107	0.010196206	0.00010601385	0.044612166	-0.061593294	-0.015513791	0.0030064543	0.049684532	-0.1036942	
-0.08766049	0.01492467	0.0037357928	-0.049592935	0.04973029	-0.07723737	0.044280473	0.033066526	0.023822688	-0.033527374	
-0.10455622	0.042611465	-0.10887644	0.0016327926	-0.005920931	0.04627817	0.014764088	-0.0029545135	-0.0541344	0.09673271	
-0.071610086	0.01473745	-0.1071034	0.07171211	-0.042132553	-0.0071770316	0.0128662875	-0.0122567015	0.04751781	0.014114732	
0.006584375	0.04519072	-0.010882943	0.008912127	0.07857163	-0.04320605	-0.06604347	-0.008631907	-0.04108093	-0.053745836	
-0.026220303	0.022607295	-0.020517962	0.02120954	-0.023430394	0.0026831527	-0.039449867	-0.020570057	-0.08140921	-0.047643006	
-0.1065238	0.004969676	-0.05052962	-0.03584941	-0.074162	0.02934196	-0.06398569	0.0040728403	-0.00034902236	0.03871351	
-0.024448914	-0.06569153	0.0065161437	-0.0055212737	-0.061573245	-0.09884488	0.030835498	-0.007073157	-0.02968791	0.015763812	
-0.090912156	-0.07224441	-0.0045269965	0.07891632	0.01092938	0.061307	-0.0053723883	-0.017488116	-0.0392029	-0.03428104	
-0.03000193	-0.0701308	-0.054785445	0.011556418	-0.0872139	-0.006774353	0.0041204933	0.03537186	0.059788827	0.016597131	
-0.0011315087	0.060295664	-0.022394981	-0.03183894	-0.07592295	-0.0016399944	0.029946951	-0.06362118	-0.008542067	0.046874754	
0.045871366	-0.0065681213	-0.019500727	-0.040638994	-0.0071873	0.027895607	0.019579407	0.0006748686	0.007409746	-0.0081178285	
-0.11348366	0.024194622	0.006257114	0.0012781484	0.019101113	-0.026551923	-0.034666352	0.07168557	-0.041629486	-0.009844723	
0.0069129183	-0.061049093	-0.08205486	-0.043859903	0.054291308	-0.048315313	-0.024876947	0.062741615	-0.02145247	0.04560374	
-0.015645133	-0.01140524	0.006468837	0.05335982	0.04620302	-0.020718204	-0.052627653	0.089282185	0.07159362	0.027554378	
0.020795671	-0.0071099196	-0.03313089	0.044223014	-0.032549437	0.06686793	-0.0044810497	0.060763773	0.027339991	0.023462685	
-0.047539555	-0.09367781	0.029863194	-0.057126645	-0.04622642	0.027883703	0.022527296	-0.040906105	-0.020842167	0.034508735	
-0.0346264	-0.035868645	-0.034996357	0.0016267061	0.07443128	0.031166434	0.008267075	-0.05987782	0.011570982	-0.072490096	
0.033901818	0.10007016	-0.017871313	-0.05949269	-0.061129205	-0.108686075	-0.04489061	0.025045263	-0.0037216933	-0.11007102	
0.08728834	0.027201766	-0.044615224	-0.028401898	-0.064550176	0.045690168	-0.10697531	0.016242055	-0.011625683	0.013502464	
0.033514477	-0.01636771	-0.005969262	0.037205487	0.024939459	-0.026908994	-0.029782113	0.037035838	0.024392046	-0.060609926	
-0.028840331	-0.034019135	-0.019048927	0.04746414	0.016735734	-0.04101664	0.04216643	0.01480962	0.0991697	0.06813434	
-0.07555531	-0.00029625537	-0.0018312999	-0.030955007	0.099974796	0.05180831	0.060698703	-0.056932103	-1.8839577e-05	0.004876904	
-0.10975932	-0.045199037	-0.021724619	-0.028217142	-0.044638734	0.010020662	-0.030355796	0.03464543	0.03009794	0.007507666	
-0.08728902	0.021768421	0.041467983	0.064445786	0.050824024	0.04822958	0.042414647	0.009911194	0.014516229	-0.033691604	
0.00039887603	0.11091391	0.06554801	0.0919664	0.048031546	0.030291883	-0.015710767	0.01764162	-0.010516973	0.035907693	
-0.05168284	0.019507457	-0.032534078	-0.015991744	0.01689046	0.023126518	-0.020486696	0.05692318	0.071102805	-0.024114585	
0.005382888	0.0008190064	0.013448601	0.019814335	-0.035957627	0.039234042	-0.027568024	-0.046299897	0.042827357	-0.011463208	
0.05225767	0.050979488	-0.014801962	0.008046883	-0.0085663535	-0.035792273	0.077814154	-0.066472374	0.06529988	0.039560948	
0.018389648	0.030975658	-0.053726003	0.081917144	0.005470596	0.03622372	-0.00640559	-0.018475961	0.039188925	-0.07567373	
-0.033359487	-0.03784833	0.0050684134	-0.036819723	0.038481593	0.020632565	0.06380711	-0.025634106	-0.049410183	0.10744697	
-0.035440043	0.060011946	-0.027380692	0.074267045	0.040175803	0.018873096	-0.041489556	-0.008639424	-0.078389786	0.052180666	
0.031172393	-0.0034732914	0.032558	-0.032230992	-0.083275594	-0.029350653	0.036877863	0.019683188	-0.058143865	0.019082988	
-0.04163615	-0.10671953	0.08371808	0.039804105	0.053304743	0.02474129	-0.008035145	0.115242	-0.06046278	-0.050936747	
0.09505175	-0.091627546	-0.041117046	-0.06352505	-0.036473207	-0.058814533	-0.046161033	0.07079626	0.0066642095	0.015169255	
0.06165815	0.07795308	0.034927845	0.03513943	-0.052950837	-0.02295829	-0.031274904	-0.041201986	-0.017212618	0.042155746	
0.06632839	-0.00084820954	0.08240753	0.032602604	0.015265602	0.04956614	-0.03123107	0.02172971	-0.03322548	-0.0791858	
-0.0028208087	0.031257678	0.016511424	-0.061401777	-0.02133927	0.056802213	-0.025949378	0.008318746	0.04586322	0.04820514	
-0.038416624	-0.059434064	0.020942723	0.02222619	0.009074952	-0.068094365	-0.08034212	0.010000874	-0.021912515	-0.054413237	
0.0551944	-0.026202349	-0.0078778425	0.024793228	0.077733	-0.06460881	0.047265112	-0.010085883	-0.04664442	0.0857197	
-0.063878156	-0.0064996607	-0.024838924	0.00044566352	0.054341476	-0.0033678014	0.023375668	0.05726837	-0.07250839	-0.044628065	
-0.056771725	-0.06871059	-0.015113927	0.021213174	-0.07972891	-0.078776285	0.089651495	0.053698443	0.07210155	-0.007403814	
-0.06566382	-0.070619665	0.035081446	0.055292945	0.032550618	0.015349615	-0.10469112	0.09045227	0.023479033	-0.013480238	
-0.048907716	-0.04094263	-0.017376347	0.0610098	0.023458239	0.07671091	0.003118592	-0.065647356	-0.0078087063	-0.05875778	
-0.023868825	-0.00012690511	-0.042859785	0.0035615289	-0.08760139	-0.05458902	0.004872718	0.04928431	-0.040701784	0.09398538	
0.05528775	-0.106542125	-0.0007535049	0.063323036	-0.04602407	-0.06790845	0.0911559	0.098766685	0.058483247	-0.009471255	
0.043029178	-0.023757935	-0.0048078913	0.006221135	0.090227045	0.11183481	-0.084509596	0.042973757	-0.093752004	-0.073042355	
0.09940777	0.07013234	-0.008419058	0.06375128	0.038185667	-0.059584558	-0.016670601	-0.04000275	0.03882133	0.001841796	
-0.022307023	0.0035063562	-0.06583533	0.015684733	0.0054036058	0.04125401	-0.064196736	-0.010935028	-0.014319823	-0.050474953	
***0.1***
--------------------------------------------------
0.0009024707	-0.09072517	0.0059107626	0.046315566	-0.0012214618	0.006737086	-0.00031940296	-0.00826168	-0.0026933218	0.0587515	
-0.022876682	0.006843852	0.045574922	-0.07793668	-0.031092277	-0.007436676	0.01849827	0.013766553	0.079014786	0.053395696	
0.055161458	-0.07387604	-0.030072004	0.055852182	0.050535616	0.04208237	-0.06477568	-0.10909413	0.069481894	-0.062132537	
-0.030236429	0.04776835	-0.055124316	0.032351945	-0.073109545	-0.008928335	-0.048407376	-0.04369037	-0.06434536	-0.023704048	
-0.080023475	0.05188744	0.070146754	0.018516656	-0.041329157	0.019550262	0.02385157	-0.029473986	0.054761603	0.017324163	
0.0036620246	0.03297941	-0.10063511	-0.010177545	-0.027643649	0.041783657	-0.052986886	-0.018718282	-0.017579857	0.085226335	
-0.08362882	0.05493527	0.03565802	0.056755826	0.04671748	0.04318154	-0.03812198	0.104945	-0.031472433	0.06570989	
0.09618123	-0.018584177	0.021491665	0.018112862	-0.047193483	-0.081165925	-0.046791587	-0.04579082	0.029082222	0.01914837	
0.025105642	0.03561281	-0.0038341158	0.08121278	-0.01993954	-0.067577265	0.021740168	0.009159934	0.04159899	-0.00090744166	
-0.014275232	0.042454988	0.00662324	-0.01154738	0.05538532	-0.0499724	0.03812226	-0.0045396523	0.037482247	-0.04114738	
0.07520628	0.010117934	-0.019214183	-0.0020434414	-0.05655265	0.042305022	-0.04310673	0.07713576	-0.041442137	-0.035822526	
-0.050281476	-0.02343245	0.04892008	-0.022021597	-0.0690745	-0.06069391	0.030687204	0.05552446	-0.049806498	-0.03964346	
-0.02578148	-0.043888442	-0.01116927	0.10356553	0.027998077	0.0618737	-0.018094767	-0.031332377	-0.0049439725	-0.01641269	
0.02234495	0.043533947	0.03462582	0.023843948	-0.07237135	0.06740593	0.047724072	0.046111096	-0.08913438	-0.041796338	
0.038486972	0.0025547142	0.0024189723	-0.053971704	0.09699734	-0.093656525	0.06469976	-0.049530476	0.060582045	-0.05489588	
-0.040810723	-0.09664006	0.037733942	0.04236634	-0.020751704	-0.03142356	0.03373814	0.052408446	0.033667445	-0.10147974	
-0.075716846	0.04417969	-0.021370994	0.09043187	-0.047503315	-0.035079435	-0.03289308	0.0038742772	0.00903913	0.073583566	
-0.0038813832	0.021026246	-0.010882807	0.037906576	0.00038969464	-0.035162177	-0.07526409	0.0059105125	0.026092872	0.06525821	
-0.024861451	0.027123595	0.0062440448	-0.007071952	-0.049017243	-0.088512905	-0.06228542	0.026371397	-0.001537889	0.003683487	
-0.023990713	0.009960154	0.016981319	-0.077576704	0.062095217	-0.016007941	-0.0067361672	-0.014435578	-0.06524647	-0.0677612	
0.013296831	0.10081024	-0.008367928	-0.03745615	0.019726772	0.012136452	-0.03908587	0.035020802	0.06480513	-0.046084937	
0.046058632	-0.07081137	-0.05684595	0.00077024515	0.04862824	0.005800582	-0.0047955005	-0.060937718	-0.022196416	-0.010548849	
0.04112537	0.09178141	0.028027624	-0.047401007	-0.03130487	0.06746992	-0.022471996	-0.046617888	0.04770298	-0.026808372	
0.013912771	0.03942458	-0.013139416	-0.081586875	-0.04672928	0.07453396	-0.049713966	-0.091458976	0.038515292	-0.043584045	
0.006311517	-0.086476	0.0139785865	0.032215483	0.06098069	0.029960608	0.00040908938	-0.026050534	-0.10407922	-0.057225373	
-0.09838443	-0.008093047	0.085818626	-0.014126898	0.03498889	-0.00037755427	-0.021758892	0.012508509	-0.022473622	0.028158298	
0.040890943	-0.09766956	0.01484608	0.0029703302	0.031876262	0.049966633	-0.0009236528	0.03518676	-0.036501266	0.024829514	
0.057734106	0.044570025	0.011350722	0.020707455	0.036255173	-0.04324384	0.039528742	-0.09616916	-0.004199827	0.07880018	
-0.077776805	0.036629636	-0.04319673	-0.07074213	0.065535516	-0.055986423	-0.0032474673	0.04350816	-0.012485072	0.07620624	
0.043284573	-0.014664741	-0.024723375	0.024207829	-0.07973845	-0.008225755	-0.0999599	0.074353054	0.08165761	-0.06837488	
