0.0009024706	-0.09072516	0.005910761	0.04631557	-0.0012214619	0.006737085	-0.00031940299	-0.00826168	-0.0026933216	0.058751505	
-0.022876682	0.0068438514	0.04557492	-0.07793667	-0.031092273	-0.007436676	0.018498268	0.013766554	0.07901479	0.0533957	
0.05516145	-0.07387604	-0.030071998	0.055852175	0.05053562	0.04208237	-0.06477568	-0.109094106	0.069481894	-0.062132545	
-0.030236425	0.04776834	-0.05512432	0.03235195	-0.07310955	-0.008928336	-0.048407365	-0.04369036	-0.06434536	-0.023704043	
-0.08002347	0.051887438	0.07014675	0.018516654	-0.041329153	0.019550264	0.023851564	-0.029473986	0.0547616	0.01732416	
0.0036620242	0.032979414	-0.1006351	-0.010177546	-0.027643643	0.041783653	-0.052986894	-0.01871828	-0.017579855	0.08522633	
-0.08362881	0.054935258	0.03565802	0.056755822	0.046717472	0.043181535	-0.03812198	0.10494498	-0.031472433	0.06570989	
0.09618122	-0.018584173	0.021491664	0.01811286	-0.04719349	-0.08116593	-0.046791587	-0.045790814	0.029082226	0.019148368	
0.025105638	0.03561281	-0.003834115	0.081212774	-0.019939538	-0.067577265	0.021740165	0.009159933	0.041598987	-0.0009074417	
-0.014275231	0.04245498	0.0066232397	-0.011547379	0.05538531	-0.04997239	0.038122255	-0.0045396523	0.037482247	-0.041147377	
0.07520628	0.010117933	-0.019214183	-0.0020434414	-0.056552656	0.042305015	-0.043106727	0.07713575	-0.041442133	-0.035822522	
-0.05028148	-0.02343245	0.048920076	-0.022021595	-0.0690745	-0.060693894	0.030687198	0.055524454	-0.049806494	-0.039643463	
-0.025780309	-0.043886892	-0.011165952	0.103568524	0.028001191	0.06187571	-0.01811428	-0.031330764	-0.0049421457	-0.016410809	
0.022348717	0.043538503	0.0346113	0.023852853	-0.07235877	0.06741118	0.047684476	0.04611589	-0.0891268	-0.041789673	
0.038488302	0.002556031	0.0023947349	-0.053969152	0.09700372	-0.09365559	0.064703256	-0.049529064	0.06058603	-0.054893047	
-0.04081067	-0.096640006	0.037732933	0.04236645	-0.020751433	-0.031423517	0.03373829	0.052408494	0.033667605	-0.10147962	
-0.07571684	0.04417969	-0.021370992	0.09043186	-0.047503304	-0.03507943	-0.032893084	0.003874278	0.009039131	0.07358356	
-0.003881383	0.021026243	-0.010882805	0.037906576	0.00038969456	-0.035162177	-0.07526409	0.0059105116	0.026092876	0.06525822	
-0.02486145	0.027123597	0.0062440448	-0.0070719514	-0.049017232	-0.088512905	-0.06228542	0.026371397	-0.0015378889	0.0036834874	
-0.023990711	0.009960152	0.016981319	-0.0775767	0.062095225	-0.016007943	-0.0067361677	-0.014435576	-0.06524648	-0.06776119	
0.013296832	0.100810215	-0.008367929	-0.037456147	0.019726768	0.012136451	-0.03908586	0.035020802	0.06480512	-0.04608494	
0.046058632	-0.07081136	-0.056845944	0.00077024504	0.04862825	0.0058005815	-0.0047955	-0.060937706	-0.022196412	-0.010548848	
0.041125372	0.091781415	0.02802762	-0.047401004	-0.031304866	0.06746991	-0.022471994	-0.04661788	0.047702976	-0.02680837	
0.013912768	0.03942458	-0.013139417	-0.08158687	-0.046729278	0.07453396	-0.049713966	-0.091458976	0.03851529	-0.043584038	
0.0063115167	-0.086476006	0.013978587	0.032215483	0.060980685	0.0299606	0.0004090894	-0.026050529	-0.104079224	-0.05722537	
-0.098384425	-0.008093045	0.085818626	-0.014126896	0.03498889	-0.0003775543	-0.021758894	0.012508508	-0.022473622	0.028158294	
0.040890936	-0.097669564	0.014846077	0.0029703302	0.03187626	0.049966626	-0.0009236529	0.035186756	-0.036501266	0.02482951	
0.05773411	0.04457002	0.011350722	0.02070745	0.036255173	-0.043243837	0.039528746	-0.09616916	-0.004199827	0.07880017	
-0.077776805	0.036629632	-0.043196723	-0.07074212	0.06553551	-0.055986423	-0.0032474678	0.043508153	-0.012485073	0.07620623	
0.043284565	-0.014664742	-0.024723379	0.024207827	-0.07973844	-0.008225754	-0.09995991	0.07435305	0.081657596	-0.06837487	
-0.002416808	0.020760389	0.02079314	0.1135683	0.06559614	0.024418954	0.08559032	-0.095390186	-0.085329965	-0.0049838517	
-0.0065881535	0.01564231	0.068285465	0.06603436	-0.108343065	0.05244752	0.08387197	-0.08177442	-0.078602925	0.051863633	
-0.021449346	0.06833768	0.05956975	-0.009024386	0.062363587	-0.032472406	-0.011147735	0.0036660533	-0.035159513	-0.007767758	
-0.031091183	-0.01450856	-0.033937868	0.02280662	-0.019148055	-0.075911865	0.08201702	-0.0025323473	-0.0082216235	-0.021129081	
0.038264126	0.022763949	0.009830584	-0.02975476	-0.07141868	0.058046702	-0.04106219	-0.014028666	0.03913631	0.0041548857	
-0.0011949976	-0.003867298	0.05854287	0.028363163	0.020545136	0.0869022	0.026663402	0.06673931	0.04858096	-0.060873937	
-0.030486913	0.02905028	-0.019757038	-0.048886605	-0.031463154	0.046259955	-0.113559686	-0.027228417	0.024222312	-0.02488789	
-0.038903825	-0.052686285	-0.085693404	0.072882265	-0.05579899	0.05958738	0.016087301	-0.035974484	-0.0023737259	0.061443314	
-0.051268432	-0.02885732	0.010069321	-0.013857704	0.00781726	-0.047701374	-0.006243915	0.010613547	0.01789825	-0.013436753	
0.0042346288	0.048466507	0.07619923	-0.0014237704	-0.027835572	0.011287378	0.09571932	-0.0054308707	-0.10415243	0.048972446	
0.010316122	-0.058056805	0.013423564	-0.076330744	-0.019236779	-0.07396946	0.0036908055	0.10022421	0.022282524	0.062019214	
0.018391695	0.0062287026	0.102025405	0.036399014	-0.0137705915	-0.062190995	0.008560948	-0.014379107	0.047671866	0.10098661	
0.06741191	-0.036466938	0.0955365	0.057247873	-0.08448754	-0.02540131	-0.09759972	0.0009763702	0.022415329	-0.046657942	
-0.037119675	-0.02384192	0.016547654	0.010085478	0.03991677	-2.7928398e-05	0.06941182	0.0033394718	-0.048259337	8.157871e-05	
-0.071335584	0.016983604	0.038305517	0.016402045	0.0022414767	0.040309127	0.052707296	-0.01404051	-0.027259735	0.0013408887	
0.004799002	-0.11364005	0.050592393	0.06059469	0.0056914673	0.07516816	-0.037642602	0.104574546	0.08446932	-0.05574432	
0.048801947	0.038832426	-0.0024603107	0.012647297	-0.01913224	0.0014040328	-0.002234214	-0.033488106	-0.030507501	0.06588025	
0.08772245	0.011016632	-0.09967355	-0.03420663	-0.039204806	-0.065472774	-0.07488928	0.07536205	-0.07157011	0.033447254	
0.0074461405	0.025851618	0.050976627	0.057232894	-0.031975348	-0.08634387	0.038351007	0.06277035	0.016997458	-0.0010475972	
0.027673258	-0.07776328	-0.088301025	0.020092754	-0.033720598	0.060090806	-0.053673077	-0.017085336	0.002718371	-0.04027303	
0.098607525	0.044745572	-0.068947084	0.061825458	0.017361498	0.05317285	0.08966383	0.010696901	-0.014472092	-0.016140785	
0.046504337	0.035017896	0.026283292	0.028570708	-0.0875746	-0.037518006	-0.011710736	0.013409909	-0.0072640968	-0.04948217	
0.0203258	-0.024322055	-0.053555973	-0.025097499	0.10409456	-0.0049199504	-0.039304577	-0.03463516	0.026035167	-0.013297806	
-0.009968711	0.011030354	-0.0031800505	0.02208865	-0.011755968	-0.0751277	-0.024983149	-0.08970282	-0.006371636	0.020571066	
0.03313781	0.075743325	-0.031677447	0.0136509985	-0.016965605	0.044191983	0.03814547	-0.10984836	0.032648563	-0.09095482	
-0.030123731	0.025728038	0.06674388	0.021714402	-0.036038134	-0.06143145	0.07064521	0.10346756	0.022168318	0.048269905	
0.01766707	-0.052723765	-0.023128115	-0.013189083	0.10077632	-0.045136627	0.040900227	-0.015228849	-0.0898443	0.009281734	
-0.026056707	0.03569654	-0.01561622	-0.05592996	-0.014163017	0.093291536	0.095869996	-0.021572528	0.094407514	-0.03372675	
0.074453965	0.048744954	-0.039587215	-0.06636419	-0.04437674	0.04398731	-0.07940034	0.016993618	-0.011869016	0.08088461	
0.021151887	0.006235727	0.020703197	-0.07721248	-0.019861994	0.03618182	-0.0612809	-0.0049594794	0.008622789	0.0024361624	
-0.04668702	-0.0028298611	-0.009460957	-0.03630618	-0.016835485	0.048372563	-0.08052684	-0.022296555	-0.08412443	0.08795285	
0.013660556	0.075212054	0.07016848	0.046746146	0.052606266	-0.018490866	-0.066463135	-0.009980553	-0.009254759	0.021426976	
-0.031032475	-0.010509115	0.04880077	0.03861914	0.022747727	-0.040315226	-0.07754819	-0.016621092	-0.02922611	0.010202372	
0.048448905	-0.024691094	-0.07438758	0.023638379	-0.019263687	-0.029625027	0.07777123	-0.008333392	-0.04634874	0.08365803	
0.05734007	-0.05522622	-0.018909868	0.059189595	0.010616622	-0.055281803	0.043606274	0.09364811	0.024346635	0.031135315	
-0.0070340177	0.036337703	-0.047895063	-0.060518	0.06705101	0.07893953	0.05593316	-0.0015537422	0.07968177	-0.065311074	
-0.04638397	0.08086307	0.088029124	0.046923954	-0.0450924	0.019935384	-0.0022381686	0.083861515	0.015663607	0.016566748	
-0.05031744	-0.047299705	-0.04992553	-0.022201775	-0.0030072774	0.06622126	0.03736576	-0.004461749	-0.04488455	-0.074363254	
0.01553197	-0.01814576	0.067662284	-0.034109134	0.050266597	0.01932956	0.09094354	0.007818386	0.037588425	-0.026990926	
0.04942454	-0.10644035	-0.033553116	0.067481354	-0.049873613	-0.03489908	0.023411756	0.003998687	-0.055601392	-0.08037365	
0.016343733	-0.042719923	-0.05573542	-0.03204885	0.10769091	-0.06365526	0.060550746	-0.024786986	-0.018523565	-0.0427652	
0.001148596	0.00933708	-0.104144946	-0.030433608	0.03809822	-0.013068296	-0.021427017	0.042147014	0.06887456	0.08322858	
-0.112610504	0.06093763	0.076833434	0.053923186	-0.029034492	0.0024565267	0.053645775	0.07493808	0.012554355	-0.048622377	
0.07585176	-0.03590482	0.04001652	-0.02663882	0.07884056	-0.028438905	0.023771597	-0.035524327	0.0069147577	-0.077817425	
-0.032847047	0.011391613	-0.018853374	-0.085730515	-0.0039355694	-0.06304322	0.01902591	-0.05031331	-0.08314943	-0.04487384	
-0.0059379125	-0.06842637	-0.012266295	0.052307535	0.039592445	0.07439513	0.007937033	0.026045188	-0.023227734	0.053720172	
0.1008975	-0.06253752	-0.0411199	-0.014803632	0.030663587	-0.008184917	0.09875039	0.031085407	0.002635653	0.040424835	
0.0069831805	0.05946336	-0.029931549	0.022050403	0.04467757	-0.06420025	-0.006329751	-0.0486676	-0.0029189123	-0.024170203	
0.045180302	0.016310042	0.007128193	-0.021236863	0.033163328	-0.06342955	0.0795658	-0.054679792	0.015680406	0.03958335	
0.055915043	-0.086053096	0.018794917	-0.047133803	-0.009393043	-0.049277414	-0.08241705	-0.023593245	-0.08130551	0.05221294	
0.03844557	-0.09687227	0.07738201	0.02996013	0.017929547	0.0515027	0.096568726	-0.036748175	0.056250628	0.059834346	
0.045288417	-0.05393626	0.042444352	-0.077228025	0.025784416	-0.010445866	-0.019053673	0.0037627243	0.091704085	-0.003971433	
-0.014815947	-0.019381134	0.09072576	0.021777604	0.062443893	0.056522537	0.059247423	0.063278094	-0.024681235	0.04363139	
-0.002390395	-0.05679432	-0.05843862	-0.010542996	-0.023079246	0.023344321	-0.050887793	-0.0027485709	0.007987518	-0.029980196	
0.04030476	-0.06501869	-0.10449411	0.08348353	-0.004129061	-0.034982182	-0.0059894263	0.02579604	0.050940894	-0.0041658683	
-0.09779416	-0.06233062	-0.028087543	-0.0059213615	0.081123084	0.05091007	0.04220674	-0.032040946	-0.059531163	-0.053805027	
-0.018736722	0.072741	-0.007361942	0.078834035	0.021885654	0.028991478	0.0681698	-0.0042085107	-0.025610263	-0.06672062	
-0.023025377	-0.010681607	0.050236184	-0.025110422	-0.015473865	0.023765005	-0.08510773	-0.021918245	0.005486537	-0.002984653	
-0.006159148	-0.058346555	-0.004657532	0.009157095	-0.030837186	0.059410345	0.07511999	-0.07710628	0.050917275	0.033697046	
-0.015680434	0.070338644	-0.037535783	0.018834697	0.076343074	0.04271609	0.041143145	-0.03921122	0.045394085	-0.110432215	
-0.04073722	-0.06445294	0.07182015	0.020646192	0.033282958	0.083332896	-0.038650002	-0.012539518	-0.04275831	-0.1064025	
-0.024102159	0.0142144505	-0.008438609	-0.052252926	-0.057963494	-0.0744614	0.033519182	-0.03252453	0.038149025	-0.006150286	
-0.04166142	0.018352943	0.035734437	0.040283155	-0.08310298	0.008123603	0.047969025	0.009088862	0.04467629	0.037686888	
0.08014602	0.0457338	0.0072787674	-0.08563924	0.027099194	-0.03847737	-0.058419794	0.016029926	0.0068926043	-0.06038491	
-0.03546298	0.07174292	0.019831795	-0.00036754666	0.03113855	-0.03494526	0.011247514	-0.04014563	-0.042119514	-0.10248583	
-0.040121235	0.037418284	0.12317683	-0.009672771	0.072085	-0.042306326	0.075306244	-0.047484886	0.065712415	0.025848709	
-0.018459778	0.022670377	0.093784705	0.07829387	-0.063085385	-0.013665028	-0.038903728	-0.09749327	-0.116510145	-0.04656231	
0.012220361	-0.06273026	0.051244587	-0.08268471	0.029091101	-0.059897542	0.07051654	0.010737094	0.00035138475	-0.00015261566	
-0.07908487	-0.08371301	0.051264405	0.035583507	0.06565707	0.02738027	0.14669573	0.02056044	0.03355437	-0.019740805	
0.0872455	0.09918222	0.012416014	-0.038248435	-0.06104323	0.020055322	0.021860195	-0.06746132	0.0068886094	-0.06592405	
-0.04838686	0.046754897	-0.015381059	0.08219846	0.032579433	0.004772995	-0.058965288	0.083954796	0.03620066	0.0017683724	
-0.049262006	-0.027368026	-0.009227515	-0.011401676	0.05278299	-0.011787298	0.098462224	0.080703236	0.0371919	0.0025437614	
-0.013023271	0.012371319	-0.06769876	-0.0078123864	0.053368907	0.004779808	-0.027733237	-0.011650937	-0.023738615	-0.01963298	
-0.037831143	-0.06083809	-0.02776175	-0.08713696	-0.06847446	-0.003063541	0.010823668	-0.02161479	-0.06960524	-0.0102035785	
-0.079626046	0.028228857	0.05931668	-0.050869305	0.01239654	0.08583477	-0.0018112593	-0.05068372	0.03481503	0.048597332	
0.09728388	-0.052213036	-0.040306423	0.10086636	0.011458226	-0.03286084	0.07948567	-0.024200138	-0.11604695	-0.03157132	
0.08205789	0.013051864	-0.01323011	-0.04614628	-0.010697184	-0.021157492	0.047613468	0.055649463	-0.09904089	0.04000484	
0.07583923	0.061327074	-0.022306785	-0.08464456	-0.06739409	-0.07013479	0.0074068927	0.07224683	0.021549027	0.023404825	
-0.05629818	0.10512331	0.055607833	-0.035764024	-0.050210472	0.09271	-0.035642996	-0.030651966	0.007811288	-0.015729818	
-0.039134767	-0.04757938	0.022872498	-0.0237174	-0.0301031	-0.09038619	-0.012963608	0.037793975	-0.059328485	-0.00023333626	
0.09613397	0.02065585	0.023994764	0.0032347937	0.095310666	-0.051663898	0.037443053	0.0953206	-0.070565104	0.112890884	
-0.08979971	-0.05054365	0.0026272521	-0.04471314	-0.049740966	0.073051766	-0.05553241	-0.0415947	0.010002076	-0.08691061	
-0.08180695	0.017687375	-0.07722191	-0.026068414	-0.016462393	0.016701704	0.033124812	0.0880624	-0.07020207	-0.06946516	
-0.0568913	0.06876936	-0.07069489	-0.023647847	0.021873495	-0.018207973	-0.10295782	-0.08648952	-0.06181307	-0.011538429	
-0.06196216	0.015659964	0.013189029	0.046029672	0.054833394	-0.025603278	-0.04326501	0.037948135	-0.06525658	-0.0069732275	
-0.061250936	0.029179454	0.06276203	0.10367811	0.03597168	0.035541017	0.010091704	0.023391783	-0.06704171	-0.026170991	
0.011659047	-0.09307644	0.023056071	0.056718998	0.104650944	-0.071168095	-0.07016593	0.013230989	0.007162537	-0.020136703	
-0.10769283	0.07144788	-0.038596783	-0.023529692	-0.024966694	-0.07982024	-0.020454176	0.089552574	-0.10685584	-0.04753731	
0.09454748	-0.011477871	0.102180116	0.09629352	0.015761267	0.00012060061	0.07572727	-0.07750589	0.01056309	-0.042871423	
-0.016948385	0.0108682215	0.009084244	0.04087878	-0.034410857	-0.1136657	-0.06475579	0.016575782	0.06455457	0.027764902	
-0.011342539	-0.036783412	0.10436689	0.02196523	-0.04790176	-0.013587085	-0.013077485	-0.10208262	-0.056083344	-0.011934523	
0.07119543	-0.09731038	0.002957522	-0.042703174	0.07473416	-0.021903234	0.0017495345	-0.04582919	0.003963065	0.08352331	
-0.014714887	-0.033810172	-0.04273725	0.06201223	0.047693912	-0.08373593	-0.06491112	-0.06675273	0.01878529	0.014236066	
-0.0033743929	0.10150713	0.04454052	0.03025322	-0.04891176	0.052760787	0.011776114	-0.0075319107	-0.1192025	-0.025970263	
-0.10921585	0.10494632	0.05926411	-0.030225473	-0.058742296	0.023882784	-0.045688637	-0.10791308	-0.028287254	-0.005853754	
0.051901996	-0.016591715	0.08275635	0.1140624	0.04985211	0.013058935	0.009785561	-0.0021157463	-0.0044738874	-0.11146928	
0.015864111	0.048051447	0.029991115	0.014607946	-0.09402695	-0.033415906	0.09196709	-0.035432413	-0.062404376	-0.0052906787	
0.05595572	0.01859679	-0.013109535	-0.06601564	0.016962646	0.05704534	-0.0025953886	-0.08805917	0.007998933	-0.035058547	
0.048273206	0.07071556	0.07044137	0.01966441	0.056056064	-0.039398618	0.05593098	0.00924635	-0.05474154	-0.028797394	
0.0019701554	0.06920969	-0.058917932	-0.020485157	-0.050471455	0.08240657	0.097236656	-0.1111709	-0.012794326	0.03851502	
-0.020032724	0.059787612	0.0684056	0.022744952	0.03309133	-0.0020244282	0.034650303	-0.07082138	-0.08958416	-0.07292642	
0.07492975	0.010112452	-0.07896451	-0.106153406	0.012994231	-0.059456084	0.03855563	0.03192988	0.0234298	-0.043303445	
0.05752864	0.030978017	0.021726644	-0.0028910364	0.047615737	-0.048908968	0.0082206	-0.06422298	-0.011855338	0.049233958	
0.055044353	-0.005183618	0.010454752	0.05441751	-0.01679789	0.051067226	0.07546591	-0.072325446	0.00034407544	-0.040034294	
0.08388096	-0.055913106	-0.011830679	-0.07355899	0.039366685	0.059231833	0.004775469	-0.06363561	-0.010565628	-0.03015476	
0.028653681	-0.009773941	-0.07541391	0.03748063	-0.016792487	0.04499501	-0.02735984	-0.041175023	-0.049946703	0.031956017	
0.010357253	-0.03227607	-0.034284256	0.06391013	-0.021594489	0.0034571474	0.021980582	-0.02091911	0.10864565	0.03461656	
-0.00097554526	-0.026625114	-0.030289864	0.03581903	0.013855052	-0.03048873	-0.0060946136	0.11117092	0.06476171	0.007889142	
-0.01985486	-0.039374806	-0.03165313	-0.05681125	-0.06316556	-0.0036613562	0.02985466	-0.040995646	0.04852459	0.031439133	
0.01767733	0.041108415	0.044913277	0.0768019	0.0063343076	0.02876392	0.091087304	-0.08792272	-0.074425	0.009065422	
0.03994924	0.007054069	0.03352276	0.08332033	0.029400127	-0.048932888	0.055214766	-0.041987848	-0.10313625	0.042330444	
-0.02030821	0.014163647	-0.054088295	-0.033959437	0.059403557	0.0028870897	-0.104850344	0.056239683	0.024160564	-0.064226955	
0.080705956	-0.04824914	0.055253208	-0.029581837	0.0477751	0.041741103	0.016599175	0.0024318052	-0.0151010305	-0.06522603	
-0.026335543	-0.018529737	0.04165781	0.030875215	0.05988326	0.04064193	0.0041119973	-0.031069001	0.03516011	0.007649406	
0.048262764	-0.0071221003	0.009886781	-0.027838038	-0.021604551	0.037860196	-0.019541558	0.055708475	0.055742595	-0.037525866	
0.056239594	-0.006854101	0.057334565	-0.048627347	0.074667156	-0.0059606796	-0.0146819195	0.0263614	0.047587745	0.09557054	
-0.06358892	-0.047433652	-0.06193746	0.016216347	-0.056099914	0.0086753	-0.0057905708	-0.038522243	-0.027982088	0.06218743	
-0.0016171574	0.06039076	-0.0073833643	0.034390613	-0.010921487	-0.031655025	-0.0042645466	0.04001273	-0.00021547906	-0.05869121	
-0.06829263	-0.03679548	0.010384109	0.009087382	-0.047050238	-0.050275322	0.030381996	0.048335694	-0.042864952	0.00937222	
0.0865265	-0.017945789	0.07137267	0.034201	-0.01748753	0.038429525	0.0016110472	-0.013306239	-0.07402009	0.09521697	
-0.031722434	-0.015703987	0.1380631	0.089468166	-0.073364384	0.020147366	-0.0599458	-0.05697522	-0.09256317	0.08884898	
-0.019300386	-0.016714653	0.099138275	-0.01048907	-0.07043416	-0.040858157	-0.031053118	-0.09231028	-0.000770397	-0.047880817	
0.026662977	-0.07941317	0.023233408	-0.034907363	-0.07898174	0.058772944	0.0053612282	-0.07160231	0.06869021	-0.09614617	
0.08468656	0.023840854	0.066307455	-0.03464694	-0.1029861	-0.06554067	0.004851596	-0.068788685	0.034194343	-0.06498263	
0.028558012	-0.025886394	0.12833543	0.046477478	-0.03325178	-0.084198385	0.061527375	0.033776093	0.06632143	-0.13454324	
0.016939793	-0.012362762	0.07821499	-0.040617958	-0.032978784	0.0061044944	-0.08511671	-0.09105644	0.054075822	-0.077348776	
-0.0035164324	0.012633372	0.07257292	0.06286151	-0.10718508	-0.050305817	-0.061933815	-0.12574594	0.11451467	-0.05710997	
0.085091755	0.044574875	0.024050737	-0.0043613557	0.012626867	0.02413255	0.03826748	-0.051739965	-0.01781587	-0.019674232	
-0.0729659	0.061578486	0.08157285	0.041859202	0.03735046	-0.11459064	-0.024437895	-0.09272738	0.006097605	-0.059879538	
0.06493535	0.059763055	-0.0047864527	0.02063433	-0.0107112	0.06645242	0.015308822	-0.05035349	-0.031822048	-0.034849636	
-0.09715052	-0.031550802	-0.037850164	0.036410864	0.025736215	-0.024143765	-0.045117	-0.0056951074	-0.01648479	0.026897704	
0.041745525	0.020496242	-0.08791369	-0.009577075	-0.02134125	0.029055199	0.005651051	-0.052473497	-0.004171273	0.009905268	
0.045472033	0.022901151	0.08234697	-0.036669593	0.07407934	0.022208845	0.0159207	-0.043328837	0.07704515	0.07892367	
-0.030414509	0.0016553315	-0.030722944	-0.023263011	-0.07182647	-0.03400733	-0.08117594	-0.061162382	0.016590271	-0.0082787	
-0.0020184526	0.027311366	-0.05835251	0.0058889887	-0.014236683	-0.0886481	0.004201262	0.032282062	-0.026749348	0.02524491	
-0.03427575	-0.015700178	-0.040930316	-0.04472723	0.04021432	-0.06328391	-0.032571126	-0.06549412	0.010842967	-0.026022088	
0.02607332	0.04624864	-0.001286497	-0.07788399	-0.034142777	0.06819309	-0.023574572	-0.04072486	0.040730625	0.011202498	
-0.017872833	-0.050902758	0.055606574	-0.048723396	0.048560895	-0.04739934	-0.0034564112	-0.04486009	-0.044773187	-0.09418377	
0.03439482	0.009571241	0.032144982	0.100630865	0.0109001575	-0.022520954	0.03099819	-0.05287989	0.076425456	0.03455042	
-0.015449986	-0.00950111	0.03927066	0.015354349	-0.028966958	0.08393645	-0.011435277	0.07922032	-0.109327994	0.018472457	
-0.014178361	0.0076071913	0.012908172	0.09652507	0.062236246	0.054748904	-0.01729274	0.020186448	-0.061052762	0.006114756	
-0.028704222	0.015924245	-0.0782069	0.05665469	-0.06463936	-0.05776232	-0.0028115483	0.022014486	-0.032254174	-0.035713397	
-0.10254453	-0.06384626	-0.029869704	-0.047907837	-0.008914044	0.016281826	-0.05289811	0.04244445	-0.025377916	-0.011208756	
-0.059821036	-0.025402807	-0.045661584	-0.03774398	0.0174306	0.05615415	0.009150362	0.053465743	0.07235445	-0.0008610146	
-0.033350557	-0.090094835	0.044139925	0.027439473	0.061205182	-0.06950743	0.03469294	-0.01889654	-0.029875867	0.05684935	
-0.0026572882	-0.09402509	-0.08068143	-0.021877771	0.018607643	-0.10168194	-0.025256203	-0.08097834	-0.0046151564	0.04800031	
-0.025870247	0.022025954	-0.079936124	0.066828676	0.10217969	-0.06529768	0.03176282	-0.021548912	0.00910141	0.016421214	
-0.04709143	-0.05373482	0.072542414	-0.00031723938	-0.0018044076	0.08637009	-0.0069715898	-0.008817115	0.027646367	-0.052773967	
0.08899906	-0.0014033521	-0.005222548	-0.013226609	-0.022340022	-0.022908648	0.09814821	-0.05962027	0.052573368	-0.011911018	
-0.011848869	0.072618045	0.043928258	0.13136612	-0.043100137	0.0021184587	-0.014920149	0.0027809022	0.10172803	-0.039536532	
-0.019294616	0.009670836	0.091615014	-0.008597697	-0.04726871	0.0661628	-0.076090954	-0.066988066	0.004673896	-0.061817918	
-0.01589053	0.0098503195	0.07311037	0.14596456	-0.007812809	0.029847926	0.006046627	-0.08829095	0.024353487	0.093303464	
0.0033187543	0.017711096	-0.04285787	0.1383402	-0.08347656	-0.0352396	-0.013992287	-0.06507873	-0.010855951	-0.040086754	
0.008067698	0.024552533	0.025990577	0.1021414	-0.06663547	-0.016456941	-0.022045799	-0.09688676	0.089668065	0.09631204	
0.03521673	-0.030326845	-0.05374586	0.024313917	-0.08723079	0.04370148	0.020569658	-0.1585353	0.058938336	0.018467685	
0.02174735	0.0482729	-0.064573236	-0.07659839	-0.0045230445	-0.07384836	-0.041642945	-0.048432644	0.06917119	0.029671846	
-0.06453002	0.040036894	-0.06907349	-0.014646762	0.006541487	-0.023545127	-0.05951845	-0.022630315	0.13869773	-0.06167644	
0.06149554	0.025921922	-0.08984933	-0.030276062	-0.0527666	-0.007698262	0.003953546	-0.052676797	0.11436916	-0.007026059	
-0.014812363	-0.02947334	0.092804655	-0.04812255	-0.077807754	0.01742929	-0.0321093	0.04104047	-0.018148547	0.022569852	
0.09194691	-0.012300771	-0.024876317	-0.10559379	-0.06626606	0.053506076	-0.04510801	-0.07589001	-0.024270928	0.026587399	
-0.02884989	-0.04335836	0.0135929305	-0.001532084	0.1158993	0.07425133	0.014624587	0.019880675	-0.010629165	-0.014861062	
0.059949473	-0.0017271142	0.0063681016	-9.603947e-06	-0.01984324	0.018899608	0.016255168	-0.0324859	0.03069213	0.034838416	
-0.08030781	-0.062444314	-0.002548017	0.09675606	-0.065373994	-0.004338437	0.092004284	-0.113518715	-0.06055279	0.010159545	
-0.054990496	0.03747053	0.057764594	0.0034463152	-0.045138534	0.035532717	0.014456882	0.07339642	-0.040156156	0.07769245	
0.056265417	0.021650638	-0.08522645	-0.046752132	0.11350766	0.024833167	0.034552533	0.016505633	0.0901113	-0.013791385	
-0.064743586	-0.026740713	-0.055884972	-0.06566226	-0.10525607	0.057768546	-0.0100455275	0.050432168	-0.030243024	0.026733726	
0.023803262	0.002231254	0.060695056	0.05681637	-0.04648957	0.034481827	0.011313118	0.025958695	0.061191723	0.023052793	
-0.004848469	-0.08963535	0.035905026	-0.08375923	0.0011885235	-0.010164157	0.035923705	-0.043929275	0.017976167	-0.081519134	
0.015951049	0.023834262	-0.10805134	0.034939975	0.058337476	-0.014099945	0.09137824	-0.051542923	0.04400506	0.06915444	
0.061262015	0.05377015	0.006704181	0.08935484	-0.032986574	0.02296596	-0.06777934	-0.033594508	0.06858816	0.027000338	
0.008430541	0.074381925	-0.04609065	0.06328103	-0.07291	0.004480286	-0.057794783	-0.056379292	-0.03167472	0.02495598	
-0.007663879	0.049461298	-0.051294398	0.12094994	-0.09205007	-0.03947041	-0.043594494	0.032478984	0.06985298	-0.041516084	
-0.058232404	0.012403975	0.04598685	0.08542694	0.021897417	0.0070622372	0.05936981	-0.0427772	-0.010662556	-0.012059144	
0.07748594	0.007198178	0.031263262	0.05802443	0.033764478	0.073460884	0.09057697	0.0818289	-0.02447715	-0.030372716	
0.05670876	-0.1047376	0.10140473	0.073649034	-0.027421033	-0.09604197	-0.014040586	0.10715579	-0.052836116	-0.082010664	
-0.01089713	-0.018002475	0.0019403822	0.018500762	-0.02472612	-0.07159176	0.018696195	0.014103388	-0.051204313	-0.04620583	
0.024150841	-0.0629213	-0.04852211	0.07378763	-0.059303865	-0.00027031067	0.018054934	-0.028034665	0.091921456	-0.02429146	
0.027445532	-0.05657383	0.0011701643	-0.048998076	-0.0092625	0.05226043	-0.07061147	0.10535347	-0.0025063108	0.014806393	
0.016201472	-0.10118265	0.06939393	0.01263101	-0.12643814	0.05163958	-0.011022549	0.066475436	0.06921213	0.06044719	
-0.06432842	0.08029228	-0.010232566	-0.027529245	-0.09329926	-0.06337036	0.020785648	-0.001893095	-0.044489495	-0.042242482	
-0.004688443	-0.0015571897	-0.0459889	-0.0133766895	-0.038783353	0.004519886	0.008097758	-0.0680079	-0.030245792	-0.025501482	
0.0027820214	0.10495495	-0.020907579	-0.08524841	-0.114146054	-0.002412474	0.023496835	0.009453674	0.040871527	0.015468257	
0.07473591	0.06623747	0.095800534	0.0619625	0.02328728	0.08175179	-0.0084692845	0.043705598	-0.009388855	0.056706257	
0.020420443	0.0517016	0.009797837	0.08211619	0.012317298	-0.093666665	0.009493586	-0.090937495	0.04372542	0.0028564616	
0.04768987	-0.031146858	0.0630919	-0.038594402	0.040826503	0.07287451	-0.10278049	-0.035369597	-0.013087419	0.08527837	
0.047036357	-0.04348556	0.024367318	0.02031012	0.036826104	0.0750372	-0.070505925	-0.014182325	0.025640188	0.007155948	
0.06318419	-0.058494166	0.06682757	-0.014229164	0.0032173512	-0.0718319	-0.09142726	0.04782194	0.05785623	-0.0072871326	
0.0767412	0.052083883	-0.00094133674	0.03374052	0.07879547	0.11031073	-0.04223555	0.037273884	0.062153134	0.004555364	
-0.005209944	-0.034921657	-0.0348305	0.0076473216	-0.024751237	-0.036548097	-0.003402595	0.017782755	0.05912375	-0.0461516	
0.021422891	0.026219456	-0.040634133	-0.038527895	0.10327972	-0.007567529	-0.08005829	0.050208088	0.046812	-0.037350945	
0.0075797806	-0.07314952	0.0268706	0.0092077665	0.103610456	0.069489405	0.01871582	-0.049641207	0.078464955	0.039804365	
0.06892674	0.060973074	0.038250364	0.0023057463	-0.10545816	0.055657163	0.031080497	-0.06420102	0.018480426	0.026606802	
-0.0605524	-0.037557557	0.04373465	-0.035379272	-0.10945929	0.007918227	-0.07129893	-0.04788505	-0.06487359	-0.046878442	
0.059888266	-0.03609639	0.04563502	0.09901047	0.049721513	-0.036568884	-0.00624587	0.07056127	0.11067939	-0.02292916	
-0.051720083	-0.00794995	-0.045336973	-0.0076327077	-0.06283899	0.024785392	-0.018349797	-0.039305307	0.008045505	0.08686582	
-0.068930425	0.040040676	-0.05321443	0.0065636514	-0.090772495	-0.024746554	0.032581013	-0.035034582	0.044590674	0.050222497	
0.011825292	-0.08539353	0.07462563	-0.010603586	0.03242491	-0.057859734	0.00040433937	-0.08616669	-0.080608495	-0.043268044	
-0.10271577	0.06334215	0.019942483	0.009857606	0.05322421	0.01411818	-0.039356764	0.044665318	0.11030732	-0.042520545	
-0.044326622	0.014425294	0.08368962	0.022988105	0.05065549	-0.04171647	0.08409402	-0.0027772896	0.0032443372	-0.092495486	
-0.08770248	-0.0629468	0.07073691	-0.023983682	-0.081763364	-0.030714234	0.018103912	0.027605377	0.06741868	0.018505534	
0.08342078	0.030433068	0.03181568	-0.006224102	-0.038830463	-0.050820217	0.045493014	0.116221316	-0.010980607	0.055842303	
0.042712998	-0.04670627	-0.009527417	0.08959415	0.056622375	0.03406303	0.019873992	0.104551814	-0.027352689	0.0042744465	
-0.08457606	-0.03934396	-0.054558724	-0.034253366	0.030844852	0.046392687	-0.03289851	-0.008297422	-0.02787942	-0.03469487	
0.017388536	-0.06458722	0.025927952	-0.04732702	-0.014896492	-0.11258026	0.023831675	-0.012782842	0.08723355	-0.012051157	
0.0032726135	0.0068587954	0.041583832	0.04295841	0.03470829	0.019547913	-0.038313564	0.03199153	-0.05002358	-0.040937107	
0.030166054	-0.04459522	0.036670197	0.00940664	0.028129568	-0.0670485	0.033680145	0.05169739	-0.030740747	0.12189926	
0.096911535	-0.14227061	-0.0030092555	-0.022444345	-0.014042664	0.027546676	-0.074364595	0.088171475	-0.045831762	0.027321	
-0.0011283722	-0.116852924	-0.06929558	0.03443638	-0.13945036	0.03482066	0.06343581	0.068051144	-0.037728533	0.16392325	
0.056728814	0.06979211	-0.07751309	-0.009787913	-0.0142938085	-0.01879707	0.05433538	0.057826508	0.07273748	-0.023000367	
0.032749604	0.0026916605	-0.013748981	-0.034255467	-0.12099673	0.042715535	-0.039826695	0.061318196	-0.09414437	0.022717195	
0.015576503	0.005183086	-0.012715471	0.048396897	-0.035058286	-0.05491511	-0.10831494	0.0799966	0.003307055	-0.06858502	
-0.038477637	0.02680735	0.072601505	0.06867093	0.022921093	0.022815038	-0.041889936	0.019926053	-0.045812808	0.09984959	
-0.016252164	-0.045909528	0.03915959	-0.014924215	-0.018389814	0.004777465	-0.04686778	0.12149555	0.015240388	-0.004768913	
0.07172233	0.005515347	0.03057154	0.06115293	0.019602504	0.011000368	-0.07952999	0.039677955	0.045649767	-0.04207693	
0.1405233	0.012810463	-0.0127878245	0.00050847104	-0.009904837	-0.023142248	-0.053564828	0.032906625	0.0060221413	-0.041474428	
-0.00012691072	0.0066533783	0.0419291	0.058085594	-0.003987755	0.058662202	-0.087636255	-0.10475848	-0.08188166	-0.08164095	
-0.031694647	-0.042474784	0.04807374	0.01677805	0.08074802	-0.030159907	0.034849767	-0.04116449	0.0036202364	-0.036734004	
-0.0050385855	0.08793506	-0.03662425	-0.032622453	-0.058053553	0.01838407	0.03274401	0.038663	0.050345153	0.03943081	
-0.042434108	0.00615576	-0.10606955	-0.066220015	0.011074173	0.09074865	-0.019919962	-0.0009790717	-0.028712781	-0.0872759	
0.07025879	0.017596457	-0.03486586	-0.07263733	0.034619957	0.087489426	-0.08315885	0.06254474	0.048057202	-0.033995915	
0.078418255	0.03624982	-0.02956015	-0.023214895	0.025707843	0.0023617744	0.009206718	-0.047022883	0.050568625	0.005881914	
-0.085489705	0.044170164	0.01466965	-0.102157794	0.030171664	0.0235203	0.034622453	0.032892175	-0.016694976	0.0620501	
0.022972096	0.06188478	-0.03817521	-0.06550287	-0.07035878	-0.044736434	0.063236855	-0.1001496	0.013268727	-0.040742587	
-0.021107083	0.074334435	0.0371929	-0.03556737	0.04391	-0.0017927648	0.007411144	-0.042393945	-0.013529544	0.02596912	
0.02180919	-0.018698085	-0.021441044	0.026162177	-0.07073902	-0.03446604	0.035157565	0.061131112	-0.0012732587	-0.01068483	
-0.10113646	0.06640414	-0.06177157	-0.007405243	-0.08031082	0.088659644	-0.031503815	0.031561647	-0.04719682	0.042972337	
-0.019303272	0.014389852	-0.029241052	0.00548598	-0.04324172	-0.044960015	0.0028224303	0.07862103	0.058494776	-0.021915713	
-0.0075622187	-0.039309915	0.010797079	0.07170209	-0.09190949	-0.017048711	0.067068934	0.065349154	0.009908953	-0.045739535	
-0.016401395	-0.04799705	-0.09220486	-0.038407918	-0.0176742	-0.04825931	-0.020297116	0.020451019	0.100105114	-0.028805183	
-0.027035208	0.054216687	0.053170376	-0.05638898	0.025322847	-0.013704838	-0.046642564	0.07974556	0.028401513	-0.021705665	
0.04709627	0.013069179	0.02882774	0.063030586	-0.0024648982	0.05168718	-0.03295233	0.051791117	0.03683511	-0.01444637	
0.069587015	0.01268442	-0.020391107	-0.037531875	-0.0705319	0.0037224654	-0.003020725	0.08670996	0.02892625	-0.021194594	
-0.049239952	-0.044556234	0.0043590497	-0.112243205	-0.08380725	0.10625277	0.045876365	0.06274488	0.09198302	0.0051392615	
-0.041024275	-0.10731733	-0.10115902	-0.009867013	0.012077846	0.027027112	-0.04406392	0.05716291	-0.030829862	-0.0050270734	
0.10109802	0.03113474	-0.024818564	-0.0640796	0.058943138	0.12582074	-0.05495846	0.05964335	0.09092906	0.03147983	
-0.03102029	0.06796663	-0.051670678	-0.03742576	-0.09447482	0.03734681	0.034156073	0.04961752	-0.030194541	0.09187401	
0.06672212	0.04076212	-0.054525584	-0.0378474	-0.119494274	0.065147296	0.08506607	0.15034375	-0.023113044	-0.04860761	
0.11335865	0.059261713	0.03355168	-0.06413385	-0.13141389	-0.018565841	-0.029814713	0.17450365	-0.05290932	0.015942505	
0.038608357	0.09267944	-0.024797982	0.07180104	-0.048125956	0.00047671353	-0.094427064	0.130185	-0.15512832	-0.012950584	
0.046078347	-0.016225323	-0.06261615	-0.032731026	0.0019273869	-0.058488224	-0.022762323	0.13384649	0.016424162	0.11574266	
0.067014836	-0.03558865	0.089374766	-0.037696484	-0.009123254	-0.0063320408	-0.1801363	0.054314334	-0.04596205	-0.0615551	
-0.034836914	-0.093805976	-0.048633214	0.027290532	-0.029065609	0.096092075	0.013382801	0.09947898	0.052573573	-0.032827765	
-0.013596886	0.04654119	-0.06812361	-0.062874444	-0.06649185	-0.016302092	-0.01981898	0.046967197	0.07509938	-0.035714786	
-0.0031920453	-0.080055565	-0.035907768	-0.077922	0.058414172	-0.02130382	0.0045750015	-0.0057957876	0.0040716617	0.022796119	
-0.025723258	-0.0949562	-0.019175163	-0.011655432	0.0621968	0.044771776	-0.03539522	0.019301549	-0.009367845	0.06484683	
0.015358756	0.035177834	-0.0047968007	-0.087395556	0.019906273	0.029262638	-0.046792924	0.007747593	0.019757846	-0.069050275	
0.04458904	0.022715874	-0.023576325	-0.03998326	-0.023798283	0.07178534	-0.026118949	-0.10154935	-0.016807072	-0.046371244	
0.0045694388	0.07377516	0.008308669	-0.016374106	-0.035397638	-0.0099869985	0.009517056	-0.043638047	0.06419756	-0.01872462	
0.027624441	-0.033526752	0.031382095	-0.0028841968	-0.011683204	-0.03935656	-0.013551988	-0.07454338	0.045945145	0.0728554	
0.013949659	0.0033828856	-0.05685264	-0.032070294	-0.021320842	0.08477891	0.023092607	-0.014372086	-0.062816575	-0.063776486	
-0.00087081466	0.0073953997	0.089670695	0.026594125	-0.022988226	0.05647914	0.060442373	0.0041700574	-0.025145655	-0.046681847	
-0.06110716	-0.008562271	-0.015892072	-0.062996455	0.056287486	-0.06655255	-0.0008693439	0.027007202	0.040467888	0.011579183	
-0.012365234	-0.09700263	-0.015557635	-0.07216486	0.015631545	0.113119744	0.01890815	-0.035452638	0.0035262716	-0.036564592	
-0.11199851	0.01343807	0.028733185	-0.0471327	-0.00038667984	-0.0055513596	-0.058147173	0.08022989	-0.02763097	0.05903938	
-0.015687885	-0.017518446	0.07063737	0.054796133	0.068904236	-0.060738176	-0.067010514	0.025846105	-0.041846905	-0.01276688	
-0.094158016	0.048975665	0.023698948	-0.013586062	-0.0044754595	0.058196623	0.05812798	0.06335927	0.10672759	0.011198609	
-0.0064492836	-0.0008739245	-0.0011952408	0.013237052	0.07244462	-0.054625414	-0.0023981943	-0.015535241	-0.009992613	0.011918374	
0.04637749	-0.05567634	-0.017306663	-0.026239825	0.044637438	0.017164186	0.0512656	-0.012443912	0.023084382	0.083376616	
0.018503593	0.03129484	-0.026214214	-0.016730778	-0.021794615	-0.0037403393	-0.041004937	-0.05588233	0.041566204	0.08609435	
0.04963	0.017588792	0.030547485	-0.040633455	0.0021067401	0.06830217	0.028532602	0.048926428	-0.024789223	0.031956267	
0.0010929806	0.0019941388	0.015607204	-0.113531016	0.06058793	0.06614564	-0.08770701	0.03479069	0.016234975	0.057639226	
0.12583753	-0.0651703	-0.15479173	0.033152103	-0.058049425	-0.04135771	0.078042455	-0.015608265	0.10848203	0.010436222	
0.05024417	-0.044816546	-0.11825835	-0.0021856532	0.057535417	0.08114458	0.078963764	0.04181876	0.05081226	-0.1061059	
-0.044217333	0.008936663	0.040692598	0.072512284	-0.007447382	-0.013747221	0.13031429	-0.014366066	-0.01753523	-0.02655613	
0.021404801	0.05133477	-0.031525124	-0.062816	-0.06309024	0.011836576	0.08863353	0.05197191	-0.024742	0.060930513	
0.011662265	0.08317259	0.009089789	0.0053579863	0.014755627	0.023693515	-0.010498828	0.0765972	0.019291531	0.021849932	
0.010213205	0.0679177	0.05525472	0.046052836	-0.019667638	-0.0028381252	-0.040575784	0.05789137	0.017239438	-0.053389676	
0.05070325	0.039371163	-0.011481195	0.07968811	0.012059656	-0.10028812	0.021832328	0.026487807	0.011266932	-0.035422336	
-0.0426176	-0.046559848	0.03791448	0.04021948	0.06681339	-0.07849316	-0.011258148	0.042011466	0.045165144	0.012988519	
0.010597234	0.060840156	0.08420867	0.07658991	-0.07013163	-0.12905228	0.007530059	0.03511672	0.08101914	0.026751937	
-0.02760601	-0.02012821	0.08708811	-0.10240604	0.0001791624	-0.019871641	-0.07382716	0.024517104	-0.0054050307	0.029504396	
0.03878455	-0.0052499427	-0.01743935	-0.052125555	-0.04474243	0.037374806	-0.011091648	0.046244092	0.0985664	-0.04996655	
-0.0066527985	0.003773615	-0.046247184	0.019170461	-0.04892861	-0.009562497	-0.09441447	0.026300564	0.08412134	0.0143633215	
0.08457502	0.045644835	-0.076607704	0.009633233	0.03928389	0.07492792	-0.019233417	0.0152649125	-0.03395702	-0.043181136	
0.03387701	-0.016614407	-0.094067425	0.03523399	-0.09774655	0.0077027194	0.008693186	0.039745674	0.08389174	-0.00090330566	
-0.022911618	0.0896979	0.0026748693	-0.063259244	0.026677532	0.053469617	0.04390372	-0.01162237	0.013814734	0.110688	
-0.019215902	0.08497202	-0.042049803	-0.038769003	0.002669195	-0.028457306	0.017534181	0.090751946	0.08606939	0.010379569	
0.006716544	0.037515197	-0.0070396974	0.03374403	0.03218573	-0.045956254	-0.06804475	-0.006563693	0.0051343753	-0.112265944	
0.019665146	-0.060476918	-0.050947964	0.028024018	0.07340177	0.050259877	-0.0027812016	0.024919081	0.048151985	-0.07727384	
0.04655433	-0.0029915161	0.011275759	0.03592213	0.03599635	-0.043242272	0.042837564	0.039937098	-0.038159944	-0.026054526	
0.003701385	0.054561082	0.026567398	-0.066977546	0.020287864	0.038252816	-0.05583994	-0.09002766	0.00059402286	-0.04009421	
0.033077568	-0.018863617	0.0031260466	0.003717442	0.013971965	0.024482628	-0.023627918	0.0105993	-0.047713205	-0.048369404	
-0.09993123	0.057041805	-0.044128783	0.08657473	0.039701533	-0.022319593	-0.024899868	0.07610169	-0.02561156	-0.0060373335	
0.0052793915	-0.07836697	0.0072742645	0.08033758	-0.019969689	0.10156197	-0.060080495	0.00027686998	-0.0146768885	-0.043106247	
-0.07128055	-0.018462416	0.0124556115	-0.07329569	0.11386088	-0.0038215516	0.034166347	-0.025271447	0.06097602	0.026631568	
-0.01343943	-0.036110338	0.037877195	-0.0017588155	0.018924627	-0.09959241	0.008659092	-0.0036560183	-0.08282778	0.070549116	
0.078367256	-0.012783026	-0.09193593	-0.09740962	-0.048152357	0.023525903	0.031934682	0.1302536	0.11726099	-0.020023946	
0.027605528	-0.046715092	-0.10261417	-0.0682437	0.092073865	0.092110716	0.10424134	0.00904074	-0.030169407	0.052855045	
0.0040153572	-0.054976042	-0.09300849	-0.020941276	0.04462987	0.010436481	0.018874532	0.016206462	0.060921956	0.09503023	
0.019398978	-0.026789228	-0.04951975	-0.13420223	-0.005392243	0.071362406	-0.055059023	0.020345412	-0.04715154	0.11037457	
-0.045482397	-0.03562635	-0.1539456	-0.001304611	-0.019215332	0.025798958	0.006160147	0.022578089	0.061164636	-0.051935032	
-0.022295207	0.037567265	0.022125378	-0.068333924	-0.04187248	-0.020920364	-0.0039602728	0.023722405	0.012298806	-0.13143963	
0.011983131	0.18112072	-0.035896737	0.14418419	-0.06753516	-0.076487735	-0.066166334	0.100187235	-0.035973374	-0.05779674	
0.014807175	0.08786159	-0.04972761	0.07844145	-0.051857393	0.051173143	0.03144226	0.033741906	-0.0841279	-0.044796236	
-0.06269153	0.059298012	0.04931414	0.07635231	0.027341168	-0.13452916	-0.019789394	0.08196113	0.051168926	0.014682175	
-0.08034581	-0.05444591	0.09085171	0.089180246	-0.011477803	0.03957238	0.011576833	0.115139656	0.0048067793	-0.05382625	
-0.028707575	-0.034275196	0.096507736	0.07784258	0.103637315	-0.047602937	-0.026860721	0.056417577	0.024148881	0.112127535	
-0.027178248	-0.014012336	0.041561767	-0.041712757	-0.021163883	-0.10336459	-0.026286501	0.048602372	-0.051093046	0.0079717245	
0.049945883	-0.074255645	0.061224923	0.032660495	-0.014007368	-0.070694424	0.021070125	0.055706106	0.042657387	-0.054089557	
0.050833456	-0.021013198	-0.07476935	0.05533543	0.0842135	-0.115597144	-0.12059771	-0.016774159	-0.05377512	0.07797277	
0.044246316	-0.064568974	-0.021066701	-0.0019742996	-0.073101714	0.045647785	-0.095985904	0.036883593	0.03572472	-0.055804294	
0.018722292	0.013939005	0.030958323	-0.04440566	0.0037293623	0.013662458	0.061062872	0.08623076	0.077041455	0.033569146	
0.019810213	0.088517934	-0.024572736	0.06692126	0.07648274	-0.09162052	0.012109198	0.0040785344	-0.06908797	-0.052451923	
0.0036956395	0.05548012	0.044645812	-0.037725676	0.03586372	-0.014303811	0.019791817	0.041169576	0.049034346	-0.044835232	
-0.015981484	0.027919149	0.019356303	-0.06678526	-0.09336807	-0.06672387	-0.070462435	0.00608404	0.03086364	0.039589215	
-0.03555364	-0.032753967	-0.01983157	-0.0038583472	-0.08950459	-0.0129085565	-0.006081236	-0.04985448	-0.034268692	-0.048165757	
0.022543782	-0.045201913	0.0045130104	0.108744085	-0.015986048	0.041279647	0.07619993	0.06817656	-0.020158028	-0.026109261	
0.00073701574	-0.00954141	-0.05674404	0.052253544	-0.015635679	0.019162128	0.07585952	0.0040986235	-0.01462463	0.08207329	
0.09116447	-0.008921038	0.05836489	-0.057570606	-0.044312216	-0.019579055	0.00076383096	-0.0805915	0.076061375	-0.029835204	
-0.06498908	0.0723149	0.043676253	0.025007188	0.0054602865	-0.024081245	0.02686277	0.058493134	-0.018474033	-0.055797286	
-0.071267344	0.050851848	0.10938078	-0.063337035	-0.067282245	-0.10076788	0.06618798	0.05980209	0.03029048	-0.055595703	
0.014246559	0.03499137	0.012900519	0.036105715	-0.09090348	0.024410967	0.06070696	-0.06494123	-0.018400889	0.049677674	
0.0017110023	-0.017742585	-0.0080162715	-0.008847785	-0.007821724	-0.01650084	-0.033871356	0.059333403	0.017767703	0.012317707	
0.08311534	0.04090489	-0.13091792	-0.03158797	0.05310154	0.005365751	-0.06734177	-0.06534573	0.033395886	-0.03958695	
0.07834047	0.050725147	-0.09605986	-0.06892722	0.062679105	0.024284832	-0.025505753	0.023986151	-0.015940962	0.09759039	
0.09859622	-0.02442727	-0.0067239483	-0.08619258	-0.024900775	0.044705357	-0.020287296	0.030127654	0.039259553	0.002698354	
-0.009100154	-0.025556313	-0.042666063	-0.07537548	0.07976268	0.06159557	-0.008852636	-0.06908395	0.08391017	0.042780135	
0.07711397	0.034584887	-0.06258071	-0.056034803	0.04157342	0.049875606	0.033581894	0.0016819105	0.0629742	-0.011676937	
-0.039527982	0.036467455	-0.072151914	0.092159934	0.009280627	0.0801683	-0.054090563	-0.050315157	0.09376246	0.0417538	
0.016111156	0.062455162	0.007993531	0.15842456	-0.031776585	0.09217001	-0.012992688	-0.096716695	0.042782847	0.0058094715	
-0.09957438	0.20503114	0.0011495859	0.117012195	-0.11163281	0.014457126	-0.019149572	-0.058476336	-0.049102794	-0.08904316	
0.030796973	0.19759811	-0.039833136	0.0044202614	-0.020273572	0.016702708	-0.037233025	-0.06050788	-0.028984541	0.035464894	
-0.13964523	0.101035446	-0.13213377	0.01411006	0.053386323	-0.029646898	0.0019097341	-0.010371222	0.07466557	0.006973314	
-0.0772686	-0.032601897	0.021778855	0.031192912	0.046356823	-0.03569065	-0.080092765	0.045693386	0.022677222	0.005314185	
-0.07513205	-0.105259456	0.025589032	-0.02814685	0.027687522	-0.14961946	-0.0261073	0.05648678	-0.002704624	0.017185293	
0.08737924	-0.048626736	-0.08835618	-0.07336025	0.06709104	-0.07954459	0.025285961	0.030455219	0.020842236	0.019644406	
0.12227703	-0.10362193	0.021253444	-0.0820407	0.010969622	-0.043973852	-0.00901655	-0.0018674989	0.0015619646	-0.05547598	
0.0960943	-0.057264376	0.012833993	-0.031357914	0.04450756	-0.12013943	-0.044218205	0.02384922	-0.09562879	-0.028122902	
0.060296927	-0.03849468	-0.028893502	-0.06555538	0.024343038	0.090325825	0.0073952037	0.042017356	0.032120727	-0.029395685	
0.05214014	0.04993525	-0.008023863	0.004657865	-0.012087441	-0.00877273	0.07559057	0.05918213	0.015004149	0.025126876	
0.06693279	-0.05595237	0.041438892	-0.0003472663	-0.059069976	0.09515206	0.056913145	0.034660485	-0.09695051	-0.029282022	
0.006863631	0.10357159	0.034787074	-0.019346837	-0.05879622	0.040073764	0.002176238	0.088512324	-0.039726507	-0.048679106	
-0.041137706	0.04941381	-0.0034702304	0.034614913	0.018845862	-0.02287729	-0.03643676	0.017197471	0.010808689	-0.05407349	
-0.015443436	0.07961206	0.05201589	0.026921457	-0.009288366	0.09376045	0.09848689	-0.098926485	0.0207473	0.033984955	
-0.07160558	0.017092431	-0.0066405497	-0.035305154	0.019021554	-0.050612446	0.019594405	0.09248081	-0.06057774	0.036297724	
-0.05327232	-0.0073095206	0.100188285	0.025457121	-0.076292455	-0.032523833	0.0726094	-0.022534192	0.05173509	-0.028532181	
0.026411347	-0.024513466	-0.04876264	-0.014877981	-0.049298592	-0.040757857	0.016718162	-0.047079727	0.02768444	-0.028745307	
-0.038496133	0.05487491	0.028503299	-0.0069458694	0.06127171	-0.012673178	-0.02743653	-0.025365284	0.04234477	-0.007960563	
-0.114186406	0.05927095	-0.0045080422	-0.10693797	-0.004231017	0.003971651	-0.032820974	-0.002438236	-0.015222424	0.0299258	
0.023244146	0.01975087	-0.06701324	0.03642636	0.013932597	-0.0076888166	-0.040767305	0.05014681	0.024355384	0.024791278	
0.07889524	0.0076154317	0.007042386	-0.06563171	-0.029209208	-0.010509285	-0.014002426	-0.016540475	-0.047093306	-0.04696021	
0.061143894	-0.02536138	-0.12563096	-0.045701247	0.06929743	-0.044496123	0.012381557	0.055110417	0.044712543	0.09591437	
0.00094750157	-0.04524141	-0.081502885	0.011216507	0.117395885	-0.0626658	-0.058093324	-0.007903165	0.0016603789	-0.015245896	
0.1095138	-0.020597111	-0.026313333	0.007866613	0.054613743	-0.00512454	0.017969368	-0.024417182	-0.04226233	0.057411224	
-0.05818273	-0.075913176	-0.07546228	-0.03822877	0.03323975	0.06869522	-0.016137894	0.01577366	0.006768268	0.028246906	
0.0304783	0.0048491573	-0.08405016	-0.06609559	0.08138234	0.010704003	0.09297871	-0.11522747	0.023494452	-0.10228197	
0.031511933	-0.10901427	-0.14970687	0.0359307	0.08211997	0.021750089	0.065774985	0.043903	0.099170655	-0.10149786	
-0.13087486	0.1515264	-0.002193233	0.038512766	-0.015091051	0.05694382	-0.034967806	-0.05268327	0.08954806	-0.034053475	
-0.08290301	0.19796418	-0.017672017	0.04109095	-0.026285093	0.09284668	-0.040036555	-0.035119064	0.027209241	-0.030589035	
-0.1718703	0.16181089	-0.0024012728	0.0060886634	0.0023029703	0.036037233	-0.0691969	-0.023917664	0.04872818	0.0123338215	
-0.04153249	-0.09153274	0.025986474	0.05086204	0.010215298	0.065759964	0.08566189	0.023057738	-0.045128375	-0.047327913	
-0.16333367	-0.1220168	0.023063434	0.07959399	0.021972964	-0.10543567	-0.026801942	0.035568506	0.07891168	0.06600516	
-0.027886918	-0.011801075	0.048670113	0.005660298	0.05730603	-0.07971575	-0.06593314	0.05543182	0.057747282	0.043083154	
0.0034642338	0.019748416	-0.012335223	-0.106096864	0.06405049	-0.033683788	-0.08405632	0.11548036	-0.024279952	-0.034612812	
0.0039664013	-0.02268428	0.025932778	-0.08955022	0.06781574	-0.012787002	-0.03959155	-0.012612881	0.062354274	-0.014385372	
0.027900338	-0.049717236	-0.04913207	-0.0074403984	-0.06369215	-0.056254342	-0.063989766	-0.049203116	-0.0718318	-0.037669793	
0.077126585	-0.035187587	0.013830267	0.033573516	-0.09651021	-0.0726947	0.051787637	0.037282526	-0.020506293	0.043939367	
0.006635054	0.05049051	-0.059712563	-0.039425846	0.021186024	0.008319688	0.056802318	-0.0065268194	-0.10908024	-0.117416196	
-0.019634271	-0.081888914	0.08726434	-0.022180308	-0.04235819	-0.0945273	-0.05058762	0.023800993	0.056371886	0.053763002	
0.012526169	-0.03277567	0.032373685	-0.024032485	0.044723064	-0.053613074	0.025851104	0.034631226	0.039544217	-0.034356836	
0.1032662	-0.034730855	0.039769933	0.045552764	-0.016609699	-0.052066013	0.0456378	-0.05935087	0.039443865	-0.06767036	
0.09262986	-0.0045835827	0.039880887	-0.018227736	-0.03543949	0.0049044015	-0.100130424	-0.06326072	-0.08672502	0.0068244534	
0.05458928	-0.050751	0.030225914	-0.0163013	-0.005552526	0.045145847	-0.012165635	-0.049821913	-0.058642134	-0.055224814	
-0.015983805	-0.031566218	0.027064769	0.1005407	0.0130470395	0.015360869	-0.031239737	0.017785568	-0.031117674	0.08181856	
0.08209334	0.07570663	-0.032002755	0.021239351	-0.061085116	-0.044230565	-0.0569441	-0.0033213317	0.06656326	-0.060533173	
-0.01887082	0.027196456	-0.029261233	0.037437744	0.024389088	0.022528345	-0.06918055	0.05225139	-0.050900172	-0.031518914	
-0.025394937	0.029732775	-0.054308336	0.033582136	-0.00598677	-0.08160415	0.051340148	-0.074243575	0.017147565	0.06145277	
0.02831582	0.045419954	0.01614786	0.0016701143	-0.027727356	0.07743028	0.02746427	0.105732	-0.056300297	-0.058196634	
-0.036240406	-0.0795245	0.007788784	-0.0048155794	-0.00382666	-0.106896594	0.006914106	0.017785769	-0.07114359	-0.021150066	
0.08473194	0.0027451855	-0.015066982	-0.08119367	0.05179603	0.03332434	0.049480844	-0.057729512	-0.0050712884	0.06880018	
0.16463129	-0.04200172	-0.06066067	-0.058097918	0.11924142	0.060076408	0.0093004415	-0.08376582	-0.16324799	-0.00083747675	
0.0043916423	-0.026586162	-0.026787046	-0.05322107	0.120909795	0.081023306	0.08600125	-0.06522904	-0.09428341	-0.013793796	
0.04842347	-0.037554003	-0.009024231	-0.0057385215	-0.03375319	-0.00049492414	0.011292968	-0.009411647	-0.060461435	-0.00035734667	
0.05457919	-0.05855507	0.0008924315	0.092139915	0.021813076	0.025406035	0.083356194	-0.074201174	0.04845274	0.0028037701	
-0.06691102	0.020179417	-0.04098809	-0.04500044	-0.043425385	-0.049566343	-0.060114622	-0.1336845	0.06347149	0.01358486	
-0.11292873	0.13102202	0.019132677	-0.03186838	-0.07999598	0.022824366	-0.013211637	-0.117946245	0.07268241	-0.045231592	
-0.1347478	0.12777017	-0.014122926	0.014180042	-0.1043385	-0.022793971	-0.015925368	-0.06563933	0.09472043	0.107187726	
-0.1502671	0.08054135	0.005319648	-0.047637142	0.057657283	-0.047413386	-0.03710558	-0.022261398	0.0044685723	0.04249784	
-0.08788935	0.063553244	-0.09576046	-0.057309553	0.13633867	-0.08998167	-0.02383152	0.0026473743	0.02120858	0.0409072	
-0.11711017	-0.07889311	-0.06333707	0.08369347	0.037996314	-0.06915615	0.027609752	0.03721775	-0.08292721	0.10763186	
-0.0375647	-0.0779007	-0.028106056	0.005316401	0.10733589	-0.03567054	-0.04458999	0.06128283	-0.009357192	-0.041098576	
0.01970703	-0.060226068	0.058636427	0.05462096	0.060706556	-0.0396884	-0.022922818	0.071233116	-0.022301186	-0.0036109344	
0.022185262	-0.01908653	-0.027430926	-0.0073473942	0.003019271	0.003935638	0.020290853	-0.005907693	-0.08092808	-0.0564195	
0.0861236	-0.054388605	-0.024741225	-0.09551435	0.008021471	-0.052564543	-0.0023871036	-0.03952838	-0.13763084	-0.009597923	
0.00974316	-0.035675768	0.053190276	-0.07238677	0.06659295	-0.029314585	0.02781346	-0.025878325	-0.047047883	-0.01252379	
0.13026531	0.011500509	0.031239783	-0.009463786	-0.013931543	0.061509497	0.034632187	0.0062583713	-0.0030672108	-0.0896011	
0.0028810329	-0.04122048	-0.043233674	-0.038539294	0.0028889268	0.013899533	0.06894104	-0.060934316	-0.017266814	-0.054646667	
-0.06760609	0.070460886	0.0029481302	-0.026232108	-0.09790857	-0.04918075	0.021244312	0.028991006	0.020216301	-0.09804039	
0.11141499	-0.038375817	-0.013544626	-0.049115017	0.09478656	-0.07201713	-0.012473323	0.038334552	-0.09945677	-0.03978749	
0.027508931	0.03326367	0.044260114	0.026710872	-0.0017372839	0.083232805	0.0675899	-0.011599032	0.024682203	0.010298311	
-0.0043095793	-0.040072963	-0.044183984	-0.0064810095	0.0035063813	-0.06658697	0.004628016	0.07513074	0.057908844	-0.05200361	
-0.065403104	-0.031603172	-0.02649848	0.07551537	-0.08267285	0.07628975	0.005555637	0.055330947	0.0019474224	0.027431823	
-0.049929515	-0.00977329	0.05100659	0.0007081294	-0.015186804	-0.05850649	0.07468175	0.076744676	0.040575042	0.033076074	
-0.04045431	0.09745151	0.013082564	0.047701616	-0.030020526	0.047306612	0.09712253	0.047722254	0.015286434	0.0434237	
0.019075707	-0.0040286873	-0.059275255	-0.03937734	-0.10487493	0.045244772	-0.035967283	0.084069125	0.048275143	0.096108094	
0.09550425	0.010138039	-0.04760308	0.030471655	0.04574146	-0.020648306	0.019260226	-0.01446831	-0.025468701	-0.05663073	
-0.040107936	0.028610583	-0.07438711	-0.051853526	0.051688846	-0.021559777	0.041184403	-0.100100815	-0.011267488	0.05282272	
-0.00068289746	-0.08194191	-0.0005960656	-0.046877217	0.03041474	-0.008820896	-0.026194118	-0.047093943	-0.048010036	0.0127659915	
0.03542686	-0.09014047	-0.04007412	-0.042131975	0.069996685	-0.017173536	0.030978687	-0.006520205	-0.11741749	0.08856737	
0.03877116	-0.002554186	-0.07208011	-0.049062338	0.04205898	0.045620214	0.1615834	0.027705733	-0.01563083	0.06055957	
-0.034531754	-0.09860375	-0.038869802	-0.05835967	0.117586605	0.113402694	0.021875309	-0.031124694	0.024117885	-0.029688196	
-0.055640798	-0.018046787	0.07990069	0.021659572	0.12594695	0.046113096	0.007359607	-0.012232795	0.0001789753	0.1403229	
-0.09646117	0.033592023	0.0017619923	-0.027132178	0.1202554	-0.059278447	-0.005791579	-0.17203954	0.13089173	0.0115108555	
-0.11556216	0.11524051	-0.029376954	0.016566282	0.023559328	0.00061819743	-0.051373232	-0.050481368	0.07708315	-0.09724297	
-0.07363934	0.07838437	-0.012765118	-0.046012316	0.046526972	-0.098836325	-0.018703414	-0.04418141	0.052804198	0.006512401	
-0.06254333	-0.056317594	0.0067457645	-0.045133308	0.022479882	0.06481805	-0.0061549586	-0.01448121	0.07267163	-0.010315065	
-0.052464288	-0.037668925	-0.10933306	-0.025863167	0.028824147	-0.06536232	0.08151971	0.038043257	-0.034589723	0.0801754	
-0.061815932	-0.08311227	0.044165466	0.03866725	0.030446876	-0.045028467	-0.05983972	0.018123906	-0.042519707	0.037398666	
-0.10463096	-0.02743268	0.06462069	0.06257584	-0.028264772	-0.029146656	-0.028769292	-0.039746117	-0.049689718	-0.00501551	
-0.009405696	-0.0849958	-0.085839026	0.115756616	0.04338783	0.027420748	0.021851497	0.00037814668	-0.07675	-0.030654006	
0.10922754	-0.08057317	-0.04237587	0.05110875	-0.060865197	-0.025633719	0.039668232	0.014287326	-0.023612317	-0.053987503	
0.05373017	-0.008708719	-0.011698042	-0.020185297	0.010625287	-0.059493046	0.023097226	0.04863839	-0.053820837	-0.111019254	
0.08323803	-0.023920178	-0.027899167	-0.009136765	-0.04510833	0.0061001843	0.017517978	-0.091701105	-0.03904017	-0.051713582	
0.056270618	0.036606748	-0.0814231	0.02967523	0.094811656	-0.05790491	-0.009698199	0.005985817	-0.1242925	-0.04604771	
0.012033818	-0.052554134	-0.09746649	0.014232153	-0.102675416	0.055247173	0.008989655	-0.022122141	-0.05626706	-0.056506984	
0.008194635	-0.03231688	-0.057401594	-0.03292095	-0.0018858851	-0.018111238	0.07255511	0.0074507105	0.040791605	0.049663898	
0.028537849	-0.105495706	0.02383936	-0.06572726	0.035170846	-0.026599757	-0.033979796	0.08168779	0.023977788	0.023189474	
-0.055355895	0.033929814	-0.02136086	-0.036441356	0.0580405	0.067974776	0.061474387	0.026156368	0.059237495	0.026242148	
0.05676478	-0.076700784	0.005891799	-0.051272858	-0.10123563	0.011670534	0.03610231	0.042787965	-0.053272806	-0.032700587	
-0.026428603	-0.01359906	0.085297175	0.0540818	0.034418017	0.1013577	-0.0022824872	-0.00967935	-0.06229115	0.044785425	
-0.10918758	-0.03776517	0.08096445	-0.07356068	0.07527874	0.035333123	-0.084058315	0.07133801	-0.008955891	0.11356614	
0.06482584	-0.07780896	-0.022560198	-0.036433388	-0.07249488	0.02090618	0.10470657	0.033561047	-0.018632255	-0.019717755	
-0.016205385	0.059913095	0.041421674	-0.03218258	0.008843173	0.024384644	-0.0043411567	-0.041427754	0.009184254	-0.058788333	
-0.008724518	-0.011229847	-0.06738301	0.029246252	-0.035394218	0.030181125	0.046250958	-0.03538684	-0.014796827	-0.0682112	
0.04063851	-0.039792538	-0.01561615	-0.026116269	0.064356565	0.05105047	-0.06136775	-0.07647738	-0.08981056	0.042894844	
0.03058179	-0.04724201	-0.020090481	-0.012312808	0.02137912	-0.1222044	-0.03841143	-0.06670441	-0.06502962	0.07733803	
-0.033527408	-0.029355433	-0.007347187	-0.04481828	-0.02279641	0.033366755	0.13820086	-0.08029888	-0.035112854	-0.002344839	
-0.038444143	0.014785307	-0.0007186244	-0.061838496	0.062032185	-0.09340185	0.05501831	-0.074455775	-0.012987014	0.014373734	
-0.010890004	0.04268681	-0.043356407	-0.044178728	0.0703	-0.105129	0.027708452	0.017747112	0.019308303	0.07999069	
-0.03601476	-0.009788727	-0.008946543	-0.06653766	0.11218113	0.0061187786	-0.008553456	-0.026298009	0.0877163	0.04422369	
-0.062787436	-0.023476912	0.04137289	-0.03965858	0.032306045	-0.030560547	0.040398847	-0.09198909	0.0840748	-0.059826307	
-0.17797472	0.03072749	-0.0057133525	-0.11336961	0.12798183	-0.023045622	0.062621236	-0.0040297695	0.09052675	-0.035561167	
-0.12295481	0.13334009	0.1225507	-0.060016282	0.030208277	-0.06842325	-0.010238115	-0.090943374	-0.03044508	-0.076433405	
-0.09923719	0.032695327	0.020228336	0.005289901	0.07993431	-0.006399436	-0.07616902	-0.07060351	0.058126997	0.019735927	
-0.03348003	-0.070029736	0.11244211	-0.009691874	0.043772124	0.082030915	-0.059945654	0.057954468	-0.001692948	-0.034927096	
0.00442543	-0.082072414	0.09176961	0.022118244	0.09313112	-0.024572978	0.068939425	0.05873919	-0.054230437	-0.011824008	
0.007798172	-0.06867974	0.04053426	0.0012292112	0.056520604	0.019793743	0.0003431245	0.07335803	-0.06705528	-0.0024937813	
0.037980407	-0.0034837525	0.06753793	0.07835311	0.10270609	-0.02485924	0.10260231	-0.043874566	-0.0447572	-0.041727	
0.07721187	-0.059640527	0.030025896	0.057586186	-0.019120613	0.05803991	0.063258536	-0.019189674	-0.073165804	-0.023376472	
0.032111283	-0.07127953	0.03822938	0.026840588	-0.10117028	-0.021760236	0.08527499	-0.024797032	-0.0013859521	-0.004826804	
0.027222358	-0.034982767	-0.0265706	-0.048367042	0.029872539	0.03584106	0.05872963	-0.009491754	0.027702132	-0.043642316	
-0.04077349	0.06313464	0.025607605	-0.03398744	-0.01239739	-0.06728374	0.048275314	0.008590213	0.0650414	-0.00013922111	
-0.015839487	-0.01307546	0.045814496	0.042626765	-0.027716115	-0.064602986	0.049126677	-0.060785122	-0.029762844	0.024726082	
-0.049648724	-0.06828679	-0.019791692	-0.020793302	-0.06578462	0.09506173	0.016222185	-0.071665235	-0.017011406	-0.02974615	
0.02574557	0.014825552	0.022202957	-0.014523827	0.01909765	0.030716578	0.08814247	-0.00031545127	-0.04017044	0.0077652032	
0.083489835	0.01533039	-0.0354861	0.015128684	-0.07058827	0.06076224	0.06535518	0.02343971	-0.07508967	0.0992804	
0.062349092	-0.013425781	-0.070837945	0.054692708	0.07715699	0.03336298	0.0025144692	0.0031121247	-0.028785393	0.06149856	
0.0050314814	0.070360914	0.031438828	-0.026257046	-0.004358074	0.1092594	0.0004498303	0.086873695	-0.05729503	-0.07223852	
-0.05635456	0.0095121125	-0.004568593	-0.025055429	-0.008877206	-0.005394015	-0.017251322	0.01669875	0.062035255	-0.055139422	
0.052462824	-0.06703092	-0.048933256	-0.038071573	0.027660327	0.10133015	0.10068625	-0.037017275	0.013085468	-0.059484012	
0.010019132	-0.018372882	0.018218795	-0.07804152	0.0298439	-0.06874304	-0.06097034	-0.0041358178	-0.06040335	0.076350465	
0.024669103	-0.020990904	-0.010603521	0.014150989	0.04373237	-0.050870672	-0.040435273	-0.04816786	0.024222963	-0.022699269	
0.06640546	-0.010818068	0.096238814	0.06271306	0.05059108	0.013503375	0.042919476	0.008491086	0.06309456	0.036150612	
0.044837795	-0.073702455	0.0017171399	-0.049775682	0.054067094	0.013471943	-0.014816662	-0.008702201	-0.02343282	-0.04081242	
0.018809853	-0.12382978	0.037301227	-0.0343307	-0.059501786	-0.048992157	0.067766614	-0.02164432	-0.06262233	-0.0012372378	
0.007533819	-0.08662318	-0.030613024	-0.0056079747	0.051141664	-0.096680135	0.059255302	-0.06618799	-0.039319444	-0.04490282	
-0.04563794	-0.06499981	0.094587006	-0.07207509	0.012258802	-0.028823728	0.13739558	-0.12899818	0.05334345	-0.015581988	
0.008128861	0.08258079	0.10186022	-0.1553382	-0.03035751	0.019283826	0.0665608	-0.055315662	0.072587885	-0.072926424	
-0.09407975	0.045152776	0.13617867	-0.078457125	0.05140461	-0.11935011	-0.022151548	-0.12421733	0.068069555	-0.072999015	
0.0072461795	0.13562274	0.098449476	-0.1292517	0.088764556	-0.019456288	-0.010764318	-0.07966732	0.009140406	-0.021703342	
-0.023858985	0.124126025	0.09874756	-0.010330374	-0.009834085	-0.023794828	0.021553414	-0.072030194	0.058764633	-0.038487025	
-0.019758703	-0.040058635	0.0130104	0.023208708	-0.031497575	-0.0022571317	-0.0020690109	0.04810143	-0.10508719	0.07041232	
-0.10091323	0.024852766	-0.03646655	-0.027641144	0.054779142	-0.030697323	-0.0058483873	0.14459006	-0.104283504	0.04215178	
0.028461466	0.034391463	0.08714565	-0.0145764025	0.037588496	0.10348144	0.04649315	0.07823169	-0.06094228	0.12836032	
-0.050245486	-0.14437921	0.09606963	0.019879267	0.1206386	-0.028224034	0.11591481	-0.04806459	-0.0752419	0.014138905	
-0.0449064	-0.058407005	-0.0021387963	0.0791323	-0.055166323	0.0081842095	-0.032714732	-0.0691193	-0.021029348	-0.05179031	
-0.0009731488	-0.008201486	0.044280946	0.061101265	-0.005068956	0.017767226	-0.0149463555	-0.078039326	0.0130645875	-0.036521874	
0.1068415	0.012870411	-0.024274912	0.03261909	0.040303532	0.057412647	-0.037665993	0.006279167	-0.03307133	-0.019719202	
0.046963323	-0.07751073	-0.018555133	0.04085884	-0.026736269	-0.03189687	0.07630605	-0.03013372	-0.005607222	-0.060450844	
0.09040628	0.018512627	-0.009885504	-0.006894762	-0.063247666	0.0006326726	-0.017160593	-0.015828567	0.07834889	0.05719721	
0.027771981	0.0051024947	0.05009488	-0.01567314	0.0029331886	-0.08258055	-0.1072239	-0.075275026	0.008137315	-0.048386272	
0.08011355	-0.07805243	0.024208397	-0.08731401	-0.05673087	-0.05894046	0.053526156	0.01056635	-0.03307097	-0.004734852	
-0.09551891	0.037744086	0.09416275	0.08156398	0.041959397	-0.04037646	0.10480491	0.034387145	0.027080795	0.078568794	
-0.077227704	-0.10315317	-0.084381014	-0.007242213	-0.057584092	0.058441926	-0.014741729	0.025887838	-0.031781513	0.11307958	
-0.03456681	-0.014556927	-0.030272573	-0.056645606	-0.025623038	-0.031241508	0.08547336	0.04596671	0.05042793	0.025277002	
0.032661192	-0.06178235	0.031980507	0.03254649	0.032960694	-0.059731547	0.027380077	-0.08605426	0.03550471	-0.012589433	
-0.03661527	0.014463566	0.05539108	-0.054767933	-0.034620944	0.059206307	-0.017557591	0.08428341	-0.039924506	-0.002500567	
0.021000411	-0.06422347	0.04281057	0.0779595	-0.0106619075	0.042614315	0.1009485	0.05340794	-0.0141939595	-0.072490945	
0.006034913	-0.07741529	-0.0498094	0.06867187	-0.009354285	-0.035598543	-0.06367449	-0.010343619	-0.093234144	0.060576685	
-0.006883792	0.04765482	-0.06246267	-0.06377946	-0.054186624	0.03838835	0.08210029	-0.01622302	-0.07091435	-0.04943423	
0.07054795	-0.011498944	0.12070378	-0.03585986	0.04228969	0.04946987	0.007973105	-0.023449026	-0.025880268	-0.060558695	
0.14678107	-0.028345207	0.019214367	-0.036545392	0.007815313	-0.01035046	-0.008639915	-0.064866334	0.059032995	-0.0493124	
0.04283435	-0.01054829	0.014991104	-0.12582795	-0.060123306	-0.04412553	0.07892356	-0.005531518	0.02584651	-0.07605671	
-0.044509094	0.014232858	0.06991286	-0.1155953	-0.0051374864	-0.12889263	0.062597334	-0.04686721	0.0019717994	-0.051760163	
-0.016071297	-0.028466118	-0.033398498	-0.0012729797	-0.08403237	-0.05698209	0.025868384	-0.12221193	0.070061795	0.015293616	
-0.054490354	-0.01186924	0.14524153	0.039351992	-0.07775817	-0.067327894	0.08540739	-0.020289948	0.15413804	-0.026858903	
-0.12035145	0.04833892	-0.05622511	-0.029656364	-0.088354565	-0.017631315	-0.015036728	0.02221992	0.07774696	0.031477388	
-0.0376203	0.077341475	0.059643354	-0.17657244	0.05609343	-0.08999641	0.00765551	0.030722199	-0.05043352	-0.038608048	
-0.13607752	0.06796419	0.062113818	-0.057961814	0.08537811	-0.08572936	0.04051744	0.062066592	0.0287709	0.005328832	
-0.07708067	0.0801169	-0.049812082	0.0040979567	0.07755856	0.030088484	-0.0025268188	-0.03537201	-0.0754975	0.11841475	
-0.10808468	0.0036394433	0.07415711	-0.12235163	-0.0591528	0.07013	0.10845166	0.070724994	0.048301812	0.11306201	
0.024342554	0.002681562	0.11562133	0.060325556	0.022901086	0.06585609	0.07200485	-0.08117681	0.04080692	-0.03137071	
0.03796392	-0.08192906	0.06685572	0.12839964	-0.03856901	0.031388436	0.16185054	0.036024608	0.043203305	0.044513106	
0.08429577	-0.12786429	-0.0351295	0.06966198	0.027125243	0.06650818	0.08118714	0.05815332	0.0013412155	0.009083531	
-0.03896004	0.029291173	0.01782233	-0.051796723	0.06312662	-0.063026085	0.034822706	0.0065889615	-0.0062119435	-0.0073914267	
-0.023246568	-0.07691598	0.053679537	0.04515354	-0.07521509	0.004988916	0.08877532	0.012746504	0.05923683	0.0039382637	
0.10308802	-0.08838408	0.07583264	-0.06743973	-0.009843463	0.023660576	-0.0005530415	0.036308657	-0.07430249	0.035393056	
-0.010475744	-0.018546522	0.0642545	-0.016161023	0.0013948752	-0.07026848	-0.09282184	0.003406575	-0.025108533	0.04514453	
0.04338641	-0.019430473	-0.026623547	0.030960819	0.00931852	-0.08788244	0.098756954	0.0016450117	-0.027457502	-0.024759077	
0.035274647	0.063813046	0.009192605	-0.018654173	-0.10873012	0.012427623	0.05986469	-0.032212403	-0.0020767408	-0.021691397	
-0.004858837	0.054389544	0.026444657	-0.003442974	-0.029114153	-0.03350181	0.033449832	-0.051609024	0.11045385	0.018600632	
0.037458304	0.051086936	0.03307392	0.0013631524	0.0043718247	0.02804652	-0.045377854	-0.009028559	0.037075657	0.04716639	
0.015335362	0.017602528	0.051140122	-0.04153284	-0.012118853	0.06007761	-0.058234535	-0.009886822	-0.014863954	0.08568669	
0.026068842	-0.07175792	0.021976445	0.013531722	-0.006064981	0.03553167	0.028885042	-0.058188606	0.058616042	0.012504875	
0.05460208	0.02152961	-0.016817389	0.039746094	-0.0016812675	0.0049353037	0.042585194	-0.02040816	0.046122704	-0.034576222	
0.07591728	-0.05492756	-0.01700851	0.033567928	-0.050832942	-0.04947208	0.033049386	0.04839413	0.011116415	-0.01571092	
0.07994624	-0.033115983	0.03834689	0.064858034	-0.0063145407	0.081863426	-0.06678987	-0.040008362	-0.09633792	-0.08060518	
0.024352558	-0.006948131	-0.04359329	0.017138481	0.06699709	0.014690249	-0.12336213	0.010812603	-0.03144022	-0.12445944	
0.097552545	0.005591517	0.061255537	-0.07711174	0.022736246	0.13253145	-0.02727256	-0.035127804	0.03592897	-0.05180698	
0.13866335	-0.02737558	0.0980453	-0.0169455	0.062807865	0.090844296	-0.0050140894	-0.030112665	0.08976453	0.0023402725	
0.053930763	-0.011380647	0.08952719	-0.07494972	-0.0062169703	0.049704704	-0.045026217	-0.084585875	-0.029364713	-0.059660207	
-0.041204907	-0.02522067	0.038050525	0.0594966	-0.04305602	-0.11430614	0.052497435	-0.08920676	0.01588425	-0.08111631	
-0.045332853	-0.035479378	0.06506195	0.023214888	-0.010827688	0.038008764	0.039708834	0.022995563	0.16578777	-0.014319894	
-0.08747433	0.07970665	-0.042111397	-0.034920074	-0.09508704	0.017326294	0.09300349	-0.010797139	-0.002899328	-0.08360457	
-0.03144713	0.05826389	-0.021243596	-0.088716544	-0.011652519	0.002963053	0.110588156	-0.040625177	0.06089449	-0.06682174	
-0.06385586	0.17549086	0.108546056	0.0035470803	0.05490054	-0.03637307	0.048537016	0.037755817	-0.15056244	-0.052503705	
-0.006364755	0.086073846	0.009440623	0.0020785376	0.08340751	0.05930955	-0.044622187	0.09439954	-0.049591117	-0.027687317	
-0.0072645317	0.079643846	0.047707893	0.06345295	0.030572252	-0.030597957	0.058162194	-0.044892333	-0.10051837	-0.038761694	
-0.0055473745	-0.07725409	-0.0076277917	0.04060494	0.083038785	-0.05420162	-0.050710067	-0.102080934	0.009432163	-0.026825719	
0.08729595	-0.12522963	0.0808948	-0.08355553	0.017122028	0.10356083	-0.032567862	-0.017026193	-0.033063643	-0.07736803	
0.009524685	0.0234775	-0.0060009467	0.09788679	-0.058697335	0.025504675	0.034800764	-0.026843823	-0.054757327	-0.030664632	
0.04127384	-0.017746037	0.041565303	0.046048656	0.027428208	-0.050634306	0.06860525	0.058486648	-0.1067226	-0.041111622	
0.02353067	-0.039468545	0.08115248	-0.017948547	7.890217e-05	-0.0034174398	-0.05180021	-0.016625214	-0.035311993	0.006408581	
-0.019830668	-0.05455114	-0.04993527	-0.044865515	-0.07399521	-0.022525245	0.011216863	-0.005971803	0.008135095	-0.025484154	
-0.06987208	-0.05612516	0.044184804	0.06080881	-0.012499095	-0.09442269	0.015091675	0.002836693	-0.015415593	-0.07427471	
0.03623646	-0.046228472	0.052178945	-0.0019024083	0.04700784	0.082815	0.025464334	0.052264586	-0.009904145	-0.04017948	
0.000656289	0.06262972	0.07557376	-0.02750934	0.044871546	-0.006160812	0.021370256	0.012274887	0.054505717	-0.05563601	
-0.055889573	-0.026894078	0.062133864	-0.011523718	0.009070597	-0.02357899	0.03312535	-0.10082873	-0.08955273	0.017643088	
0.032870613	0.01647948	-0.020199846	-0.008834154	-0.011218843	-0.011843381	-0.06429077	0.030170636	-0.056035962	-0.0819627	
-0.07350525	0.038903523	0.058558814	-0.030677866	0.06368067	-0.028769458	0.09563382	0.09835887	-0.054857366	0.019921103	
0.036092497	-0.06687852	-0.015954707	0.04649179	-0.04330338	-0.05808449	-0.023737144	0.004279535	0.08607207	0.10661435	
0.03441623	0.07497882	0.024065772	0.07409391	0.07101831	0.010622063	0.052185055	-0.012145939	-0.035417695	0.024552455	
-0.09060932	0.063837	-0.05341467	0.052700996	0.08740361	0.021050604	0.032105234	-0.011180644	-0.079174116	0.02209224	
-0.04467273	-0.009250492	-0.026716985	0.11511415	-0.021990793	-0.073894575	-0.022726215	-0.101153046	-0.010423661	0.021843445	
0.010538714	0.009040291	-0.027014842	0.018234447	-0.08336282	-0.10299811	-0.04029089	0.014531187	-0.124887384	0.08286732	
0.0060293605	0.009066365	-0.043060094	-0.04984033	-0.004951082	0.012248485	0.06994408	-0.06640281	-0.012599656	0.007972558	
0.03878214	-0.023425473	0.13651218	0.091665715	-0.07217582	0.1317017	0.0041752923	0.04587282	0.017289653	0.0777578	
0.089661844	-0.03881286	0.030913344	0.03008047	-0.113028884	-0.042467996	0.0056788707	-0.08380676	0.03448746	-0.02968367	
0.1346869	0.080618605	0.08466718	0.004406747	0.04657334	0.01941355	0.045875154	0.00027622824	-0.07036331	0.03400538	
-0.03349313	-0.0029011443	0.04229454	-0.036563918	-0.08625864	0.06526052	0.05242464	0.0033601574	0.020440679	0.03967367	
0.048023738	-0.010894988	0.04683727	-0.041980885	-0.07027629	0.03182795	0.040312685	0.032452315	0.08018782	-0.0931675	
-0.025149375	0.060771637	0.11475462	-0.080387585	-0.013271406	-0.004117544	0.061017152	-0.07546977	0.029478876	-0.058109883	
0.07062133	0.08909325	0.04335166	-0.112788275	-0.03889391	-0.040766057	0.09617725	0.0144067975	-0.10574253	-0.08667236	
-0.0589332	-0.018748185	-0.03315132	0.064862214	-0.017329777	-0.07540127	0.15046585	0.020706719	-0.019896831	0.069310874	
0.036174767	0.054717842	0.032264348	-0.02504498	-0.08235787	-0.061474312	0.05594823	0.1130452	-0.0425303	-0.07976322	
0.013780956	-0.08372312	0.02329913	-0.015923643	-0.05049213	0.009116475	0.009286084	0.08257165	-0.00901569	-0.0820994	
0.03358936	-0.025128907	-0.04782757	-0.025348652	-0.06202173	-0.039800547	0.133342	-0.043136783	-0.07849389	0.025889263	
-0.060766015	-0.025653787	-0.008800166	-0.0026022494	-0.036778815	0.07037097	-0.007427111	-0.041892104	-0.004619239	-0.035068687	
0.113721475	-0.028603323	-0.062225282	0.083216995	0.030429648	0.016131828	-0.017131824	-0.05368263	-0.031735666	0.028389283	
-0.030610716	0.031250235	0.013808381	0.027435265	0.061167825	0.09816357	0.08175147	-0.12488449	-0.094710454	-0.0297821	
-0.0023568105	-0.09593342	0.10054148	-0.041863143	-0.11435183	-0.01680499	-0.007982908	-0.068156354	-0.01744144	-0.02035056	
-0.014536198	0.002812886	0.095592804	0.03508301	0.09815827	0.09707519	-0.046944264	0.029057067	-0.016062733	-0.011154299	
0.09754238	-0.08700748	-0.041311443	-0.003874583	-0.026952932	0.025624339	-0.113158785	-0.09610684	0.07495773	-0.090895295	
0.11171565	-0.012384174	-0.026931958	-0.006065981	0.022793429	-0.011637832	-0.07793678	0.05250775	0.0072314576	0.014576971	
-0.04194805	-0.03529469	-0.08148103	0.037695244	-0.048573595	0.008840025	-0.10366484	0.014759528	0.10817224	0.029780779	
0.041589107	-0.0073827975	-0.0073672556	0.035524957	-0.046887424	-0.06970735	-0.039646886	0.025522511	0.04761106	0.024714222	
-0.014168487	0.007514001	0.012654391	0.0915043	0.0005245722	0.060225222	0.015165199	0.01564431	0.092249155	0.07466392	
0.0738978	0.038551215	-0.019788621	-0.018491002	-0.021329239	-0.007733355	-0.04985997	0.0043585165	0.03544788	0.048916496	
-0.071160875	-0.019588122	-0.0074469144	-0.009511717	-0.043473773	0.006405827	-0.042771976	-0.053887386	0.012987612	-0.0009242476	
0.026847947	0.060742795	0.09280612	0.090002336	0.048259236	-0.0036718068	0.02535164	-0.010551318	-0.05719033	0.036690008	
0.03533588	-0.0655078	-0.0744344	-0.0132517135	0.04905974	0.028157657	-0.1082626	0.0077837696	-0.023519546	-0.005312139	
-0.054751493	-0.0037900358	0.034037735	-0.05573898	0.054190185	-0.08310631	0.024908824	0.02328876	0.07802175	0.009831377	
-0.033107832	0.0929556	-0.016333114	0.08246294	-0.06640974	0.0191541	-0.033230796	0.05510156	-0.0406382	0.08762643	
0.099584445	0.021862859	-0.026076587	0.0941197	-0.020749517	-0.014916542	0.03462374	-0.061430182	-0.0080519365	0.022219028	
-0.049127806	-0.027752804	0.02584161	0.046830285	0.04296593	0.018735506	0.016943453	-0.0032524439	-0.021361057	-0.11510712	
0.07930807	-0.08513527	0.102994874	-0.03777008	0.02985655	0.07774808	-0.11218503	-0.03188349	0.045633923	-0.097271435	
0.036157504	-0.036072146	0.040680576	0.03932095	-0.010630719	0.07293109	0.04348745	-0.015691953	-0.06404853	-0.079813346	
0.06936091	0.026866527	0.12225499	0.02957513	-0.14643577	0.09802773	0.0065968037	-0.11751842	0.058685098	0.0025705781	
0.09607999	-0.08508666	-0.02174887	0.006258581	-0.072726436	0.09078834	-0.028463501	-0.05514248	-0.070916235	-0.05308126	
-0.021359576	-0.06326088	0.06982587	-0.07054047	-0.043565683	0.0522779	0.086669676	0.03275785	-0.009642011	-0.004935764	
0.025044039	0.016822092	0.0033172953	-0.09636802	0.012452379	-0.061225433	0.08262188	-0.07800276	0.07251249	-0.05561526	
-0.08496876	0.1097883	-0.1116145	-0.02225277	-0.0061998395	-0.020394338	0.0047382805	0.07074587	-0.008414408	-0.05588307	
-0.04732869	0.08498622	-0.074306265	0.01592657	0.018393967	0.06098749	0.002652511	-0.022078028	-0.024222076	0.08654035	
0.011984739	0.050759073	0.030574663	0.10188151	0.0076856194	0.00066015794	0.0007513381	0.023685947	-0.043838583	-0.045137864	
0.01509239	-0.11405886	0.034974556	-0.02641679	0.03641205	-0.048662115	0.036710598	-0.0032295184	0.016126892	0.03441998	
0.054407444	-0.05655408	-0.04278017	0.045736857	-0.018603988	0.014756467	0.00083149713	0.01554977	0.02854513	0.014848956	
0.046896007	0.06106249	0.05145019	0.12677562	0.0060934895	0.07601293	-0.047313176	-0.051568367	-0.014649935	-0.018843323	
-0.09891584	-0.0066038813	-0.075186335	0.066823736	0.0039044728	0.056558177	-0.00472557	-0.031558417	-0.021559734	0.042989478	
-0.08314229	0.017802449	0.03018041	0.04656595	0.014487271	0.003363872	-0.09685761	0.06489081	0.007980437	-0.021242194	
-0.0701383	0.07901532	0.0632864	-0.032046646	-0.035872083	-0.015327429	0.0034049845	-0.030933587	-0.06808167	-0.011283347	
-0.055437017	0.05686718	-0.025410008	-0.004827252	-0.042451806	-0.045998577	-0.079594254	0.04913221	-0.0005975142	-0.00022817584	
0.012682354	-0.1013856	0.11166204	0.03210698	-0.08319997	0.05402528	0.015346215	-0.019214584	-0.09120179	0.071478315	
-0.036673512	0.08685347	0.06556825	-0.013691394	0.03354245	0.054841172	-0.02391558	-0.08644852	-0.04910051	-0.06943283	
0.07069226	-0.003245283	0.028755033	0.09102483	0.03466103	0.020485565	-0.013993085	0.016569443	0.017277248	-0.025700403	
0.0071461378	-0.073415466	-0.05624121	0.00778005	-0.052553166	-0.043287005	-0.07978279	0.015163987	0.043565713	0.038081568	
-0.03737499	-0.049139228	-0.109687164	0.021860939	-0.012813714	0.072052725	0.04372354	-0.058549818	0.047317866	-0.072743155	
-0.019785337	-0.05417783	-0.0076092808	0.0019596892	0.0025848926	0.10951279	0.10157524	-0.036467567	-2.542858e-05	0.04083926	
-0.055187006	0.107662275	0.018583832	0.05637014	0.042625595	-0.04508269	-0.008191391	0.02016822	0.032133464	-0.022159936	
0.02172509	0.069855876	0.02695884	-0.054287594	0.025620196	0.041567657	0.001879179	-0.104356945	0.106511995	0.03157168	
0.03912175	0.07474827	-0.0051859105	0.009475594	-0.059045002	-0.06809213	0.112165995	-0.02641354	-0.0034201369	-0.008325636	
-0.02963754	0.04153699	-0.01920783	-0.005916884	-0.020831443	0.06426408	-0.02623567	0.037604287	-0.037418	0.05505664	
0.086962186	-0.03773926	0.038462862	0.04450924	-0.04056361	0.0573675	-0.09266874	0.017746385	-0.043540932	-0.09010009	
0.054498248	-0.0027981703	0.076920174	0.0041830633	-0.1262622	-0.06648342	-0.08737376	0.0105201155	0.03370021	-0.0046157287	
0.07043558	-0.041506555	0.061447345	0.046637945	-0.045115165	0.09557044	-0.11295546	0.019389639	0.05633746	-0.0054028765	
0.069416545	-0.026463514	0.0933718	0.15393221	-0.048715863	0.0037804896	-0.087939836	-0.021597939	0.08684281	-0.05571155	
0.043865215	-0.023041576	-0.068156146	0.063015565	0.04670832	-0.026127499	-0.0132472385	-0.05847616	0.034721605	-0.0961785	
0.08592575	0.07275363	-0.015663052	0.053318713	-0.062382396	0.096033484	-0.049193032	0.007199239	0.042799596	-0.007140056	
0.049513124	-0.053418156	0.022210697	0.009834775	0.0010520204	0.07852379	0.050505195	-0.019891506	0.038580623	0.011903231	
0.038969032	-0.029375754	-0.050810173	0.093210466	-0.035271518	0.03098632	0.031705797	-0.070056364	0.12737419	0.02754337	
0.045110773	-0.010743688	-0.098664545	0.016197303	-0.08156704	0.11745782	-0.020987153	0.005112933	0.0026502146	-0.053817745	
-0.06444828	0.053391162	-0.05655218	0.020252824	-0.041884247	0.07490598	0.030491965	-0.009676349	0.12997949	0.011852765	
-0.020066023	-0.02242132	-0.05435338	0.029420147	0.038981304	-0.03458598	0.037944067	0.04743092	0.07317258	0.058977507	
0.0065273014	-0.10023966	-0.011312378	0.05333639	-0.05797603	-0.03918882	0.044433802	0.018464586	0.006726898	-0.048034288	
0.030460838	0.035628747	-0.09913448	0.015043162	0.057906788	0.028323704	-0.054598656	-0.010983087	0.004578406	-0.095576376	
-0.04128476	-0.030093295	0.08474741	-0.016273761	0.04041649	0.050251044	-0.046612166	0.007778687	0.07825662	-0.029256554	
-0.04019889	0.006812963	0.048842818	0.088273115	-0.036145028	-0.013447507	0.01917716	-0.038401265	-0.027042817	0.018884173	
-0.038041167	0.004801208	0.0360962	0.074140936	-0.05683462	-0.02089128	0.049769696	0.056440562	0.021522712	0.014981864	
0.027068498	0.04248626	0.03271499	-0.029481802	-0.10062038	-0.015567581	0.0776047	-0.037207257	0.037128326	0.032681424	
0.02013277	-0.09513358	-0.047594674	-0.015773177	0.0009824106	0.05235285	-0.08139266	-0.03966059	-0.022079553	-0.050407626	
-0.08919724	0.008819854	0.12041898	0.055241644	-0.03740639	-0.04168781	0.0804516	-0.06128723	0.07554865	-0.047332652	
-0.015335534	0.020639133	0.10906499	-0.07664067	-0.06756931	0.027611934	-0.058231086	0.0074065784	-0.0060422225	-0.05581368	
-0.01902345	-0.0537265	0.043579124	-0.001407452	0.028626487	-0.017615836	-0.06491868	-0.057180114	0.0051815514	0.031500995	
0.11397632	0.08576391	-0.04477674	0.0012572767	0.033573635	-0.014687287	-0.021823647	0.03343353	0.029179681	0.028508564	
-0.10277998	0.011625248	-0.031525318	-0.012382317	0.0034100977	-0.07786533	-0.058250636	-0.007411855	0.022613807	-0.0075073573	
0.057626206	-0.094907604	0.027360743	-0.06725972	0.022363478	-0.039417416	0.066322215	0.08104581	0.042964216	-0.029549856	
-0.029646145	-0.058085777	-0.09508442	-0.080071114	-0.07024904	-0.015783407	0.001299444	-0.00913276	0.082917675	0.0239281	
0.020699611	0.048948128	0.01665548	-0.031962715	0.018242316	0.06678136	-0.029461298	0.011780452	-0.025800696	-0.03789393	
-0.01338608	-0.08008779	-0.024652544	-0.044838436	0.067495175	-0.057502266	0.04624312	0.04046418	-0.00705517	-0.040830243	
0.030168626	0.043870304	-0.046986457	0.05839069	0.0798895	0.060605608	-0.00087226694	-0.008092324	-0.012451329	0.026514366	
-0.056130104	-0.0049599735	0.027853364	0.042115197	0.019839438	0.03184814	-0.030212186	0.024934044	0.0003298387	0.021990586	
-0.030459633	-0.012682642	0.001545315	0.04735651	-0.05916948	0.015766898	-0.05038997	-0.028318916	0.0060868347	-0.029277327	
0.035035856	-0.008574346	-0.10725483	0.051621687	0.031060977	-0.043092646	-0.017832514	-0.056571763	0.007034107	0.07276083	
0.01581214	0.057895906	0.08674091	0.11015656	-0.0775937	0.017676726	-0.009320665	-0.017515065	-0.051751174	-0.122507446	
-0.016852086	0.0044315835	0.04992974	0.042942118	0.042506583	-0.0054505174	-0.012602474	-0.0949487	0.05096511	-0.07196054	
-0.0036231908	0.014783813	-0.09943281	0.0029677371	0.069380365	0.03501642	0.027176151	0.020752013	0.122327775	-0.0051323213	
0.054026317	-0.038763627	-0.029338675	0.031424757	0.057954833	0.040503882	-0.10681231	0.03340225	0.026558775	-0.024340687	
-0.021083267	0.08483607	-0.09912781	0.068463884	-0.061843585	0.09032713	-0.11813409	-0.07239303	0.059916034	-0.032987352	
-0.002732034	0.070372865	-0.0031308304	0.043017406	0.0026166271	0.05205906	-0.06638593	0.07003833	0.16744085	0.047902845	
0.039475247	-0.010794601	-0.0765426	0.08031132	-0.010728685	0.043927986	-0.12991403	-0.023952711	0.0651304	-0.03292699	
-0.022810316	0.01746102	0.013034664	-0.024453437	-0.006371655	-0.0063919257	-0.0021638821	-0.107961565	0.05857789	-0.039122194	
-0.030524382	0.0016612841	-0.060377795	0.047104366	-0.024536276	-0.038901772	-0.08067722	0.038511142	0.008166239	-0.011274585	
0.046524905	-0.059283406	-0.040956184	0.06590754	-0.0059056	-0.0453634	-0.027539466	-0.00080360455	-0.012744829	0.1033851	
-0.021104325	-0.03604905	-0.05413727	0.060365014	-0.02175496	0.036791798	0.045338698	-0.10641316	0.07613133	0.048505038	
0.095988736	-0.057683825	0.11052169	0.041503515	0.07765925	0.024662033	0.016735869	0.0021235247	-0.059563443	0.03641908	
-0.04955075	-0.05656414	0.007082058	0.0021377064	0.069579914	0.043119535	-0.045638382	-0.08566459	-0.06589752	0.03061279	
0.02621956	0.10376242	0.04854588	-0.03539456	0.040006515	-0.077719085	0.035950582	-0.03112637	-0.013571676	-0.09277181	
0.015916146	0.08881455	-0.06511456	0.035581514	-0.020796346	0.06741913	0.008146361	0.026686888	0.037577663	-0.010185759	
-0.0061254795	-0.006365407	-0.0075280606	-0.05138946	0.01217825	0.01799784	-0.0026100748	0.068353795	-0.024348574	0.01709874	
-0.07061171	-0.068602666	-0.0022149018	0.04807971	0.050923496	-0.010906724	-0.04918469	0.020007126	0.021381741	-0.00860928	
-0.063886434	0.0947276	-0.021731798	0.042653937	0.005243473	0.005712999	0.10856093	-0.11275429	-0.016005674	-0.010799868	
0.068943806	0.10622212	0.07124286	-0.01645412	-0.086796254	0.0069683767	-0.0520373	-0.0016555812	-0.0023107862	-0.04145589	
-0.04883961	0.02457608	-0.10190608	0.03171099	-0.030946318	-0.058367714	-0.07856083	0.046527684	-0.10706559	0.035430003	
-0.015216859	0.08033641	0.060815718	-0.06283163	0.014791555	0.019129643	-0.04721988	-0.0039690044	-0.080366485	-0.0017030032	
-0.00232095	-0.05836992	-0.008883538	0.029545827	-0.09765029	0.03616547	0.015301015	-0.080856875	-0.03342303	-0.08764173	
-0.028364597	-0.016250376	0.020510076	0.038540658	0.02435907	-0.06687378	-0.020570818	-0.064849265	-0.028404534	-0.09161347	
-0.031309716	0.020566143	-0.004027343	-0.02537492	0.053328488	-0.01751249	-0.02296071	-0.09746314	0.0133683905	0.028396288	
-0.029226411	-0.028249456	-0.004156014	-0.021703599	-0.11250199	-0.015718296	-0.031894308	0.029913172	-0.08318236	-0.033199474	
-0.018748293	-0.023252333	0.07026636	-0.0013743505	-0.00245716	-0.015209706	0.02316132	-0.052922856	-0.022806764	0.075444646	
0.086958066	0.0021785963	0.017167388	0.01618298	0.013962721	-0.04206553	-0.04303447	-0.028384546	0.0020300718	-0.025722397	
-0.039624017	0.035640784	-0.025566172	0.017696394	-0.049457397	0.03835434	0.044366814	0.008801359	0.029064834	-0.038478445	
-0.010347299	0.03695777	-0.0038646078	-0.096894965	-0.0031456752	0.0027825418	0.06441109	0.00014438655	-0.006237751	0.01081746	
-0.051023524	0.093333796	-0.11329114	0.062339965	0.027821446	-0.015213098	0.013801586	0.011254692	0.023657916	0.0566527	
0.023460746	-0.05224141	-0.07658417	0.023102418	-0.011398323	-0.008803332	-0.10322215	0.08659444	-0.031812284	0.068031274	
-0.004777994	0.0131543735	-0.09484718	0.0003522354	0.00026558893	0.019144155	-0.0070604347	0.06677316	0.07732361	-0.07557791	
0.06585376	-0.11521439	0.0009903697	0.059815496	0.08750388	0.042545572	-0.02433219	-0.008866779	0.1164219	-0.053448945	
0.036353167	-0.07749995	0.022504164	0.06710536	0.048464026	0.007906769	-0.053334963	0.08459619	0.04934731	0.008874897	
-0.04463013	-0.024356736	-0.060846377	-0.008345141	0.0010733138	-0.00088505226	-0.009786392	-0.043468326	0.03043108	0.11680558	
-0.030731635	0.027334446	0.0677911	0.009600225	0.06622221	0.094044656	-0.0011248882	0.040193543	0.04788671	0.06407672	
0.035978675	-0.044580095	-0.038526084	-0.0229194	0.024659118	-0.046988484	0.02033581	-0.018177185	0.0865595	0.077560365	
0.059539516	0.086519994	0.048292905	0.009585838	0.0331523	0.014977561	-0.05843422	-0.008738441	0.004175879	0.090595625	
-0.045445323	-0.04933334	-0.09323487	-0.0023939135	0.011686705	-0.03169581	-0.024747783	0.036050558	0.024892606	0.027936108	
0.0100285495	0.08244967	0.01017546	-0.06521816	-0.06028151	0.0010031553	0.07112925	0.06306861	0.0030047328	0.02766892	
0.015494806	0.033120174	-0.08711257	-0.050548587	-0.020535188	-0.043615323	-0.06855041	0.022343403	0.053581018	-0.064600624	
0.028934142	0.038366955	0.039640523	0.060038466	-0.013873038	0.006761031	-0.027089598	0.020900039	0.0013127369	-0.026779242	
0.059952036	0.06664604	0.022960432	0.059252534	-0.070697166	0.03265644	0.08645081	-0.0005477505	0.027396278	-0.027370716	
0.03383363	0.027903274	-0.029939393	-0.009142797	0.018446296	0.05285039	0.07898457	-0.016609661	-0.022438299	-0.007937492	
-0.037663814	0.017948806	0.062328134	-0.0674079	0.028491568	0.08570702	-0.038150337	-0.09183573	0.032234382	-0.017444162	
-0.034838416	-0.026068006	-0.023873648	0.04058505	0.03488066	0.006460998	-0.06856696	-0.09223869	-0.05158541	-0.028164983	
-0.013507985	-0.062085614	0.101317964	-0.054997083	-0.014005963	-0.08307392	0.027202915	0.032325562	-0.112167545	-0.038904987	
-0.0126519725	-0.028921468	-0.013717953	-0.02455939	-0.033090487	0.10584258	-0.064299956	0.055882208	0.03480261	0.00894448	
-0.007958148	0.040626578	0.0055519943	-0.061285224	-0.016815275	-0.00059533125	0.061866008	0.036662128	0.05841574	0.05300402	
-6.8264504e-05	0.024278374	-0.09177039	0.03204513	0.07108665	0.05159821	0.045845397	0.023344554	-0.03893137	-0.07275249	
0.025343455	0.002919888	0.05044708	-0.08997276	0.074263096	-0.03118294	0.0075555355	0.02601595	-0.0022855992	-0.06503376	
-0.030360486	-0.022001507	-0.00022895704	-0.059842598	0.07866335	-0.07701309	0.022022996	-0.016804585	0.046526056	0.01846783	
-0.03810849	0.0025683248	-0.02973869	0.040747598	-0.012640519	-0.098360494	-0.024155125	0.060935203	-0.009148256	-0.03870594	
-0.010650972	0.098146625	0.0009852498	-0.010312863	0.0075733657	0.09285351	0.07606421	0.021398587	-0.11363448	0.07648567	
-0.0130115505	0.01799918	-0.032282934	-0.03897502	-0.0826106	-0.10654713	-0.048631154	0.04371191	0.018221213	0.0050203553	
0.029207088	-0.10392954	0.022885026	-0.0054735346	0.023336511	-0.015062723	0.02728782	-0.0072976486	0.028395144	-0.10366285	
0.039456464	-0.05422693	-0.040436763	0.025228003	-0.0682898	-0.03284999	0.041973367	-0.050092775	0.03693165	-0.022772368	
-0.0029002381	0.022919977	-0.070063785	-0.0036479132	-0.10620221	-0.06440977	-0.022494843	0.0450002	0.036331635	-0.042190332	
0.080700316	0.001173783	0.054271955	-0.023587028	0.017069908	-0.014911333	0.07474021	0.05630503	-0.014325994	0.020732315	
0.025657754	0.0059218733	-0.026921801	-0.03935572	0.0077392585	-0.025981274	0.019093098	0.057156052	-0.07657437	-0.002547887	
0.038088992	0.021551147	-0.027386833	-0.08670047	0.042895578	-0.038310092	-0.062680505	-0.03584151	0.028188542	-0.034302305	
0.0006256443	-0.030431723	-0.11464153	0.002667232	-0.009279732	0.057839558	0.05050998	0.06300986	-0.016501248	0.02233809	
-0.07511148	0.030106083	-0.06901756	0.014719154	-0.05947781	-0.009194926	0.03331645	0.0054562693	0.055542983	-0.021529173	
-0.008414924	-0.041573673	0.017938353	-0.05997933	-0.024459835	0.064929746	-0.10489164	-0.014138373	-0.09452431	0.031880073	
0.07642394	0.051083606	-0.08468043	-0.0058374614	-0.0359674	-0.0013004945	-0.012711106	-0.059685763	0.011687477	0.098455146	
0.021978365	-0.09457502	0.015037536	-0.082650214	0.09781147	-0.0639587	-0.10248725	0.027421117	0.07311827	0.0036905902	
-0.0043660565	-0.087238185	-0.097455405	-0.054930206	0.045787	-0.04616865	-0.032566287	-0.034851104	-0.06994242	-0.064774446	
-0.08826081	0.101316914	-0.009833964	0.0986941	0.0904938	0.059738122	-0.026666248	0.06690991	-0.049842305	-0.03575367	
0.013528296	0.022188561	0.1023903	-0.017500728	0.03664312	-0.03916508	-0.008888328	-0.0041838586	0.057584997	-0.052904263	
-0.00032431196	0.029961761	-0.030756935	-0.02414367	0.006884507	0.055804163	-0.05032148	-0.045844026	-0.05029308	0.06793213	
0.08295535	0.025083197	0.061346408	-0.0634997	0.003551676	-0.018414497	-0.011929492	0.051150624	0.05353288	0.02428991	
0.04804633	0.033224147	-0.041692264	-0.00950443	-0.0017227863	-0.012481976	0.013093694	0.009634875	-0.004652338	-0.051720418	
-0.036067232	-0.059142303	0.032519996	0.015206567	-0.050726186	0.041470423	0.07374902	0.011685331	0.018852666	-0.012823681	
-0.07502128	-0.012067978	0.07710362	-0.04475146	-0.022210749	0.049285006	-0.075795	-0.025853692	0.058276728	0.0070602437	
0.021193437	-0.05538597	-0.03848718	-0.0035107587	-0.07674947	0.018251836	0.027655205	0.053788014	0.025258753	0.012149335	
0.04610282	-0.05716253	0.025198428	0.06151066	-0.011163478	0.013629901	0.073711514	-0.04410694	-0.011313971	-0.023092557	
0.038245775	-0.05667975	-0.008821681	-0.05717433	-0.10791626	-0.024215423	-0.055870675	-0.011171377	-0.011050141	-0.014494165	
-0.034669317	0.0032296702	0.0012278236	0.097089715	-0.009702128	0.08525595	0.007327183	0.104019694	0.010348674	-0.0073288428	
-0.009473395	-0.044489536	0.10449313	0.007862683	-0.090249866	-0.06811247	-0.0484449	0.055606086	0.054641988	0.076423235	
-0.020394564	0.07413607	0.036776457	0.010363868	0.08679701	-0.00032499456	-0.05907399	-0.01976316	-0.02209734	0.03903192	
0.047158603	0.021056429	0.066654675	0.055197	-0.039676134	-0.026836963	-0.01079185	-0.061805725	0.048489142	-0.035610195	
0.029878197	0.038408123	-0.10106794	0.048078176	0.008861458	-0.05178755	-0.054227665	0.008674045	-0.029647874	1.7455712e-05	
-0.030233892	-0.024966149	-0.07266598	-0.046181213	-0.09111355	-0.010403578	0.024022058	-0.08036471	-0.040314965	-0.0061498526	
0.011491007	0.05665437	0.010476534	0.0004652022	0.0451273	-0.06142934	-0.014787369	-0.00085457787	0.04967149	-0.103150934	
-0.087119274	0.015013597	0.0038332976	-0.049932703	0.050226465	-0.07774375	0.044675417	0.031444427	0.022581065	-0.03143579	
-0.10577267	0.04201962	-0.1094414	-0.00057482236	-0.006685405	0.04491943	0.013707458	0.00420876	-0.05751238	0.10070722	
-0.07264396	0.014418475	-0.10753331	0.06990309	-0.042639732	-0.008130453	0.0117421495	-0.010124331	0.04434184	0.021334063	
0.007121764	0.045875974	-0.010220093	0.009131651	0.07908458	-0.043200493	-0.06525254	-0.012411276	-0.042272598	-0.052191	
-0.024987323	0.023692895	-0.019239109	0.02235992	-0.022140855	0.00316831	-0.038067777	-0.027993543	-0.081596136	-0.047940023	
-0.1051149	0.0063033868	-0.0489191	-0.033634473	-0.07250742	0.03047133	-0.062644236	-0.010429113	-0.00037296157	0.04254511	
-0.023105193	-0.06467653	0.007747235	-0.0041822554	-0.059993602	-0.097660534	0.03197692	-0.016618285	-0.029545832	0.01633413	
-0.09021231	-0.0719276	-0.004064754	0.07937836	0.012236033	0.06258698	-0.0048339074	-0.01722634	-0.03949568	-0.039314184	
-0.02998602	-0.06998071	-0.05487177	0.011248435	-0.086189516	-0.005123266	0.0041120313	0.040983435	0.05895895	0.00937706	
-0.0013367991	0.060423035	-0.022585131	-0.03232106	-0.0761653	-0.0003799418	0.029913995	-0.058643214	-0.009875127	0.04299419	
0.04557364	-0.006685298	-0.019796893	-0.04125442	-0.0074436767	0.028438354	0.019320004	0.0020286916	0.0061743297	-0.006937145	
-0.113540076	0.024126504	0.006225116	0.0011385147	0.019134128	-0.026507836	-0.034716945	0.072089374	-0.041913785	-0.009694775	
0.0068041463	-0.06109607	-0.08212414	-0.04387438	0.05415573	-0.048330896	-0.024941448	0.06296673	-0.021609047	0.045990396	
-0.015845018	-0.011444471	0.0063963276	0.053307258	0.04602752	-0.020770187	-0.052693468	0.089714885	0.07141161	0.027961228	
0.020697018	-0.0071137836	-0.033158466	0.0441861	-0.032603297	0.066854216	-0.0044974564	0.061064973	0.02732405	0.023428459	
-0.047550745	-0.09367814	0.029860087	-0.057130966	-0.046232644	0.027882187	0.022525484	-0.04087131	-0.020843452	0.03450373	
-0.0346264	-0.035868645	-0.034996357	0.0016267061	0.07443128	0.031166434	0.008267075	-0.05987782	0.011570982	-0.072490096	
0.03391588	0.100077115	-0.01785716	-0.059487537	-0.06111557	-0.108679496	-0.044881724	0.024941135	-0.0036995334	-0.11005844	
0.08728834	0.027201766	-0.044615224	-0.028401898	-0.064550176	0.045690168	-0.10697531	0.016242055	-0.011625683	0.013502464	
0.033514477	-0.01636771	-0.005969262	0.037205487	0.024939459	-0.026908994	-0.029782113	0.037035838	0.024392046	-0.060609926	
-0.028840331	-0.034019135	-0.019048927	0.04746414	0.016735734	-0.04101664	0.04216643	0.01480962	0.0991697	0.06813434	
-0.07555531	-0.00029625537	-0.0018312999	-0.030955007	0.099974796	0.05180831	0.060698703	-0.056932103	-1.8839577e-05	0.004876904	
-0.10975932	-0.045199037	-0.021724619	-0.028217142	-0.044638734	0.010020662	-0.030355796	0.03464543	0.03009794	0.007507666	
-0.08728902	0.021768421	0.041467983	0.064445786	0.050824024	0.04822958	0.042414647	0.009911194	0.014516229	-0.033691604	
0.00041566615	0.11092314	0.06555729	0.09198398	0.04803976	0.030295866	-0.01568838	0.017522937	-0.01050045	0.035922367	
-0.051599853	0.019553073	-0.0324882	-0.015904846	0.016931059	0.023146205	-0.020376047	0.05633657	0.07118447	-0.024042059	
0.0055713775	0.0008936505	0.013524554	0.019921666	-0.035851903	0.039308723	-0.027410608	-0.047263347	0.043016285	-0.01147305	
0.052562334	0.051107105	-0.014663189	0.008172423	-0.0083345985	-0.03564526	0.0780675	-0.06761949	0.06565192	0.039027154	
0.018707922	0.031092213	-0.053571235	0.082013436	0.0057081357	0.036377072	-0.0061625657	-0.019714624	0.03956027	-0.07612624	
-0.033440787	-0.037949484	0.0049403836	-0.03704493	0.03841476	0.020609686	0.06362255	-0.024388375	-0.04958166	0.107182875	
-0.035414718	0.060121838	-0.02732559	0.074513376	0.040163055	0.018924834	-0.041279394	-0.009356145	-0.07847351	0.05229515	
0.03121889	-0.0033429684	0.03267142	-0.032015733	-0.083258964	-0.029289648	0.037106514	0.01857543	-0.058047317	0.019281903	
-0.041416477	-0.10661697	0.08392555	0.039957937	0.053362228	0.024930846	-0.0078212805	0.11363941	-0.06025431	-0.050687548	
0.09534918	-0.09152977	-0.04089874	-0.063302405	-0.036397446	-0.05862112	-0.045973033	0.06913334	0.00678851	0.015414472	
0.0617707	0.07801216	0.03495865	0.03518422	-0.05295794	-0.022877324	-0.031246092	-0.041578572	-0.017248154	0.04221836	
0.06665421	-0.0008112819	0.082289465	0.032556742	0.015297958	0.04963327	-0.031290714	0.021902127	-0.033283148	-0.07953878	
-0.0027980024	0.031193852	0.016080976	-0.061763775	-0.021365816	0.05676844	-0.026129257	0.010466692	0.045454122	0.047540143	
-0.03890131	-0.05957471	0.020411957	0.021680482	0.008899952	-0.06830895	-0.080604374	0.013349837	-0.022449413	-0.05487153	
0.055086154	-0.026247883	-0.008024511	0.024611164	0.07767745	-0.06467746	0.047186296	-0.009207878	-0.04675077	0.08563355	
-0.06389003	-0.0065058535	-0.024857147	0.00041774046	0.054330163	-0.0033771114	0.023363827	0.05739155	-0.07252126	-0.044641692	
-0.056771725	-0.06871059	-0.015113927	0.021213174	-0.07972891	-0.078776285	0.089651495	0.053698443	0.07210155	-0.007403814	
-0.06566382	-0.070619665	0.035081446	0.055292945	0.032550618	0.015349615	-0.10469112	0.09045227	0.023479033	-0.013480238	
-0.048907716	-0.04094263	-0.017376347	0.0610098	0.023458239	0.07671091	0.003118592	-0.065647356	-0.0078087063	-0.05875778	
-0.023868825	-0.00012690511	-0.042859785	0.0035615289	-0.08760139	-0.05458902	0.004872718	0.04928431	-0.040701784	0.09398538	
0.05528775	-0.106542125	-0.0007535049	0.063323036	-0.04602407	-0.06790845	0.0911559	0.098766685	0.058483247	-0.009471255	
0.043029178	-0.023757935	-0.0048078913	0.006221135	0.090227045	0.11183481	-0.084509596	0.042973757	-0.093752004	-0.073042355	
0.09940777	0.07013234	-0.008419058	0.06375128	0.038185667	-0.059584558	-0.016670601	-0.04000275	0.03882133	0.001841796	
-0.022307023	0.0035063562	-0.06583533	0.015684733	0.0054036058	0.04125401	-0.064196736	-0.010935028	-0.014319823	-0.050474953	
***0.1***
--------------------------------------------------
0.0009024707	-0.09072517	0.0059107626	0.046315566	-0.0012214618	0.006737086	-0.00031940296	-0.00826168	-0.0026933218	0.0587515	
-0.022876682	0.006843852	0.045574922	-0.07793668	-0.031092277	-0.007436676	0.01849827	0.013766553	0.079014786	0.053395696	
0.055161458	-0.07387604	-0.030072004	0.055852182	0.050535616	0.04208237	-0.06477568	-0.10909413	0.069481894	-0.062132537	
-0.030236429	0.04776835	-0.055124316	0.032351945	-0.073109545	-0.008928335	-0.048407376	-0.04369037	-0.06434536	-0.023704048	
-0.080023475	0.05188744	0.070146754	0.018516656	-0.041329157	0.019550262	0.02385157	-0.029473986	0.054761603	0.017324163	
0.0036620246	0.03297941	-0.10063511	-0.010177545	-0.027643649	0.041783657	-0.052986886	-0.018718282	-0.017579857	0.085226335	
-0.08362882	0.05493527	0.03565802	0.056755826	0.04671748	0.04318154	-0.03812198	0.104945	-0.031472433	0.06570989	
0.09618123	-0.018584177	0.021491665	0.018112862	-0.047193483	-0.081165925	-0.046791587	-0.04579082	0.029082222	0.01914837	
0.025105642	0.03561281	-0.0038341158	0.08121278	-0.01993954	-0.067577265	0.021740168	0.009159934	0.04159899	-0.00090744166	
-0.014275232	0.042454988	0.00662324	-0.01154738	0.05538532	-0.0499724	0.03812226	-0.0045396523	0.037482247	-0.04114738	
0.07520628	0.010117934	-0.019214183	-0.0020434414	-0.05655265	0.042305022	-0.04310673	0.07713576	-0.041442137	-0.035822526	
-0.050281476	-0.02343245	0.04892008	-0.022021597	-0.0690745	-0.06069391	0.030687204	0.05552446	-0.049806498	-0.03964346	
-0.02578148	-0.043888442	-0.01116927	0.10356553	0.027998077	0.0618737	-0.018094767	-0.031332377	-0.0049439725	-0.01641269	
0.02234495	0.043533947	0.03462582	0.023843948	-0.07237135	0.06740593	0.047724072	0.046111096	-0.08913438	-0.041796338	
0.038486972	0.0025547142	0.0024189723	-0.053971704	0.09699734	-0.093656525	0.06469976	-0.049530476	0.060582045	-0.05489588	
-0.040810723	-0.09664006	0.037733942	0.04236634	-0.020751704	-0.03142356	0.03373814	0.052408446	0.033667445	-0.10147974	
-0.075716846	0.04417969	-0.021370994	0.09043187	-0.047503315	-0.035079435	-0.03289308	0.0038742772	0.00903913	0.073583566	
-0.0038813832	0.021026246	-0.010882807	0.037906576	0.00038969464	-0.035162177	-0.07526409	0.0059105125	0.026092872	0.06525821	
-0.024861451	0.027123595	0.0062440448	-0.007071952	-0.049017243	-0.088512905	-0.06228542	0.026371397	-0.001537889	0.003683487	
-0.023990713	0.009960154	0.016981319	-0.077576704	0.062095217	-0.016007941	-0.0067361672	-0.014435578	-0.06524647	-0.0677612	
0.013296831	0.10081024	-0.008367928	-0.03745615	0.019726772	0.012136452	-0.03908587	0.035020802	0.06480513	-0.046084937	
0.046058632	-0.07081137	-0.05684595	0.00077024515	0.04862824	0.005800582	-0.0047955005	-0.060937718	-0.022196416	-0.010548849	
0.04112537	0.09178141	0.028027624	-0.047401007	-0.03130487	0.06746992	-0.022471996	-0.046617888	0.04770298	-0.026808372	
0.013912771	0.03942458	-0.013139416	-0.081586875	-0.04672928	0.07453396	-0.049713966	-0.091458976	0.038515292	-0.043584045	
0.006311517	-0.086476	0.0139785865	0.032215483	0.06098069	0.029960608	0.00040908938	-0.026050534	-0.10407922	-0.057225373	
-0.09838443	-0.008093047	0.085818626	-0.014126898	0.03498889	-0.00037755427	-0.021758892	0.012508509	-0.022473622	0.028158298	
0.040890943	-0.09766956	0.01484608	0.0029703302	0.031876262	0.049966633	-0.0009236528	0.03518676	-0.036501266	0.024829514	
0.057734106	0.044570025	0.011350722	0.020707455	0.036255173	-0.04324384	0.039528742	-0.09616916	-0.004199827	0.07880018	
-0.077776805	0.036629636	-0.04319673	-0.07074213	0.065535516	-0.055986423	-0.0032474673	0.04350816	-0.012485072	0.07620624	
0.043284573	-0.014664741	-0.024723375	0.024207829	-0.07973845	-0.008225755	-0.0999599	0.074353054	0.08165761	-0.06837488	
