0.0009024706	-0.09072516	0.005910761	0.04631557	-0.0012214619	0.006737085	-0.00031940299	-0.00826168	-0.0026933216	0.058751505	
-0.022876682	0.0068438514	0.04557492	-0.07793667	-0.031092273	-0.007436676	0.018498268	0.013766554	0.07901479	0.0533957	
0.05516145	-0.07387604	-0.030071998	0.055852175	0.05053562	0.04208237	-0.06477568	-0.109094106	0.069481894	-0.062132545	
-0.030236425	0.04776834	-0.05512432	0.03235195	-0.07310955	-0.008928336	-0.048407365	-0.04369036	-0.06434536	-0.023704043	
-0.08002347	0.051887438	0.07014675	0.018516654	-0.041329153	0.019550264	0.023851564	-0.029473986	0.0547616	0.01732416	
0.0036620242	0.032979414	-0.1006351	-0.010177546	-0.027643643	0.041783653	-0.052986894	-0.01871828	-0.017579855	0.08522633	
-0.08362881	0.054935258	0.03565802	0.056755822	0.046717472	0.043181535	-0.03812198	0.10494498	-0.031472433	0.06570989	
0.09618122	-0.018584173	0.021491664	0.01811286	-0.04719349	-0.08116593	-0.046791587	-0.045790814	0.029082226	0.019148368	
0.025105638	0.03561281	-0.003834115	0.081212774	-0.019939538	-0.067577265	0.021740165	0.009159933	0.041598987	-0.0009074417	
-0.014275231	0.04245498	0.0066232397	-0.011547379	0.05538531	-0.04997239	0.038122255	-0.0045396523	0.037482247	-0.041147377	
0.07520628	0.010117933	-0.019214183	-0.0020434414	-0.056552656	0.042305015	-0.043106727	0.07713575	-0.041442133	-0.035822522	
-0.05028148	-0.02343245	0.048920076	-0.022021595	-0.0690745	-0.060693894	0.030687198	0.055524454	-0.049806494	-0.039643463	
-0.025780309	-0.043886892	-0.011165952	0.103568524	0.028001191	0.06187571	-0.01811428	-0.031330764	-0.0049421457	-0.016410809	
0.022348717	0.043538503	0.0346113	0.023852853	-0.07235877	0.06741118	0.047684476	0.04611589	-0.0891268	-0.041789673	
0.038488302	0.002556031	0.0023947349	-0.053969152	0.09700372	-0.09365559	0.064703256	-0.049529064	0.06058603	-0.054893047	
-0.04081067	-0.096640006	0.037732933	0.04236645	-0.020751433	-0.031423517	0.03373829	0.052408494	0.033667605	-0.10147962	
-0.07571684	0.04417969	-0.021370992	0.09043186	-0.047503304	-0.03507943	-0.032893084	0.003874278	0.009039131	0.07358356	
-0.003881383	0.021026243	-0.010882805	0.037906576	0.00038969456	-0.035162177	-0.07526409	0.0059105116	0.026092876	0.06525822	
-0.02486145	0.027123597	0.0062440448	-0.0070719514	-0.049017232	-0.088512905	-0.06228542	0.026371397	-0.0015378889	0.0036834874	
-0.023990711	0.009960152	0.016981319	-0.0775767	0.062095225	-0.016007943	-0.0067361677	-0.014435576	-0.06524648	-0.06776119	
0.013296832	0.100810215	-0.008367929	-0.037456147	0.019726768	0.012136451	-0.03908586	0.035020802	0.06480512	-0.04608494	
0.046058632	-0.07081136	-0.056845944	0.00077024504	0.04862825	0.0058005815	-0.0047955	-0.060937706	-0.022196412	-0.010548848	
0.041125372	0.091781415	0.02802762	-0.047401004	-0.031304866	0.06746991	-0.022471994	-0.04661788	0.047702976	-0.02680837	
0.013912768	0.03942458	-0.013139417	-0.08158687	-0.046729278	0.07453396	-0.049713966	-0.091458976	0.03851529	-0.043584038	
0.0063115167	-0.086476006	0.013978587	0.032215483	0.060980685	0.0299606	0.0004090894	-0.026050529	-0.104079224	-0.05722537	
-0.098384425	-0.008093045	0.085818626	-0.014126896	0.03498889	-0.0003775543	-0.021758894	0.012508508	-0.022473622	0.028158294	
0.040890936	-0.097669564	0.014846077	0.0029703302	0.03187626	0.049966626	-0.0009236529	0.035186756	-0.036501266	0.02482951	
0.05773411	0.04457002	0.011350722	0.02070745	0.036255173	-0.043243837	0.039528746	-0.09616916	-0.004199827	0.07880017	
-0.077776805	0.036629632	-0.043196723	-0.07074212	0.06553551	-0.055986423	-0.0032474678	0.043508153	-0.012485073	0.07620623	
0.043284565	-0.014664742	-0.024723379	0.024207827	-0.07973844	-0.008225754	-0.09995991	0.07435305	0.081657596	-0.06837487	
-0.002416808	0.020760389	0.02079314	0.1135683	0.06559614	0.024418954	0.08559032	-0.095390186	-0.085329965	-0.0049838517	
-0.0065881535	0.01564231	0.068285465	0.06603436	-0.108343065	0.05244752	0.08387197	-0.08177442	-0.078602925	0.051863633	
-0.021449346	0.06833768	0.05956975	-0.009024386	0.062363587	-0.032472406	-0.011147735	0.0036660533	-0.035159513	-0.007767758	
-0.031091183	-0.01450856	-0.033937868	0.02280662	-0.019148055	-0.075911865	0.08201702	-0.0025323473	-0.0082216235	-0.021129081	
0.038264126	0.022763949	0.009830584	-0.02975476	-0.07141868	0.058046702	-0.04106219	-0.014028666	0.03913631	0.0041548857	
-0.0012379411	-0.0038815862	0.058469187	0.028354416	0.020496253	0.086892016	0.02692067	0.06672436	0.04856386	-0.06090041	
-0.03061155	0.029086407	-0.02027902	-0.048879273	-0.031560518	0.04624962	-0.11277825	-0.027248641	0.024222396	-0.024938235	
-0.039082102	-0.052740127	-0.08595585	0.07288282	-0.055923525	0.059549578	0.016906992	-0.036012564	-0.0024103522	0.061354853	
-0.051421776	-0.029000564	0.010143947	-0.013903567	0.007669352	-0.047754228	-0.0055067255	0.010539231	0.017811263	-0.013543939	
0.0037847909	0.048222937	0.076643325	-0.001488814	-0.02794487	0.01119954	0.09648207	-0.00547688	-0.10425366	0.048868243	
0.00963895	-0.058244694	0.01412401	-0.07631179	-0.019222397	-0.0739845	0.0036799307	0.10031112	0.02234042	0.062031455	
0.018196361	0.0061778734	0.1025775	0.03648807	-0.0136703905	-0.062112182	0.007609541	-0.014257614	0.04782796	0.10108636	
0.06744114	-0.03604465	0.09583529	0.057289783	-0.084409066	-0.025369516	-0.09864979	0.0010064992	0.022474749	-0.046600144	
-0.03687342	-0.023437405	0.017261818	0.009967611	0.0398448	-9.808087e-05	0.06862934	0.003202436	-0.04833068	-3.2700224e-05	
-0.07060608	0.016753372	0.039563112	0.016276592	0.0020480081	0.04023419	0.051870003	-0.014284189	-0.027366163	0.0011651627	
0.0050818846	-0.11374191	0.050874017	0.06056193	0.005556812	0.07512116	-0.037636183	0.104465134	0.084385574	-0.055806145	
0.04871356	0.03882257	-0.0025297147	0.012620421	-0.01924238	0.0013667115	-0.0017575352	-0.033513278	-0.030589562	0.06585252	
0.08769629	0.011013675	-0.09969708	-0.034214742	-0.0392378	-0.06548386	-0.074744284	0.07535454	-0.071594566	0.033439007	
0.0074461405	0.025851618	0.050976627	0.057232894	-0.031975348	-0.08634387	0.038351007	0.06277035	0.016997458	-0.0010475972	
0.027673258	-0.07776328	-0.088301025	0.020092754	-0.033720598	0.060090806	-0.053673077	-0.017085336	0.002718371	-0.04027303	
0.098607525	0.044745572	-0.068947084	0.061825458	0.017361498	0.05317285	0.08966383	0.010696901	-0.014472092	-0.016140785	
0.046504337	0.035017896	0.026283292	0.028570708	-0.0875746	-0.037518006	-0.011710736	0.013409909	-0.0072640968	-0.04948217	
0.0203258	-0.024322055	-0.053555973	-0.025097499	0.10409456	-0.0049199504	-0.039304577	-0.03463516	0.026035167	-0.013297806	
-0.009968711	0.011030354	-0.0031800505	0.02208865	-0.011755968	-0.0751277	-0.024983149	-0.08970282	-0.006371636	0.020571066	
0.03313781	0.075743325	-0.031677447	0.0136509985	-0.016965605	0.044191983	0.03814547	-0.10984836	0.032648563	-0.09095482	
-0.030123731	0.025728038	0.06674388	0.021714402	-0.036038134	-0.06143145	0.07064521	0.10346756	0.022168318	0.048269905	
0.01766707	-0.052723765	-0.023128115	-0.013189083	0.10077632	-0.045136627	0.040900227	-0.015228849	-0.0898443	0.009281734	
-0.026056707	0.03569654	-0.01561622	-0.05592996	-0.014163017	0.093291536	0.095869996	-0.021572528	0.094407514	-0.03372675	
0.074453965	0.048744954	-0.039587215	-0.06636419	-0.04437674	0.04398731	-0.07940034	0.016993618	-0.011869016	0.08088461	
0.021151887	0.006235727	0.020703197	-0.07721248	-0.019861994	0.03618182	-0.0612809	-0.0049594794	0.008622789	0.0024361624	
-0.046693645	-0.0028448245	-0.009469179	-0.03632985	-0.016854675	0.048350893	-0.080380276	-0.022306744	-0.0841518	0.08793819	
0.013662544	0.07521136	0.0701707	0.046745017	0.052606527	-0.018490043	-0.06646349	-0.009980903	-0.009256862	0.021426307	
-0.031023871	-0.010498976	0.048746835	0.03863176	0.022760151	-0.040311214	-0.07758084	-0.01660652	-0.029211275	0.010211748	
0.048848197	-0.024605764	-0.07500376	0.02371724	-0.019228034	-0.029639633	0.077701494	-0.008354245	-0.046250377	0.08368181	
0.057402216	-0.055128157	-0.019938527	0.059339184	0.010678116	-0.055242505	0.04389946	0.09376206	0.02452376	0.03116916	
-0.007014365	0.036258902	-0.049000695	-0.060375106	0.06727133	0.07895064	0.056498796	-0.0015161126	0.079865165	-0.065307125	
-0.046126686	0.080714695	0.0872726	0.047188472	-0.044670813	0.019918576	-0.0028600714	0.08413243	0.015829816	0.01673005	
-0.0505396	-0.04800173	-0.049111743	-0.022362519	-0.0033109395	0.06600688	0.038508464	-0.0045121955	-0.044993997	-0.07455698	
0.015156452	-0.018793859	0.07096786	-0.034051895	0.04950638	0.019337546	0.088724	0.00801866	0.038011987	-0.026982594	
0.0494685	-0.10676636	-0.030439273	0.0679103	-0.0505087	-0.034506433	0.018703401	0.004445151	-0.05465678	-0.08007458	
0.015893506	-0.042281143	-0.054976203	-0.03219478	0.10677426	-0.06412269	0.06171068	-0.025135245	-0.018021775	-0.04329599	
-0.0008048325	0.00936025	-0.10633922	-0.031868983	0.035691123	-0.01537368	-0.00702828	0.040639352	0.06792841	0.08155575	
-0.11472463	0.059346907	0.07464964	0.05187802	-0.032177515	-0.00041108343	0.07320135	0.07322575	0.010582797	-0.050550543	
0.073853195	-0.03804375	0.03823221	-0.028457819	0.0763004	-0.031109303	0.04115733	-0.036900092	0.005386769	-0.079348825	
-0.034050792	0.01051503	-0.01909012	-0.08637444	-0.005225929	-0.06452976	0.026524575	-0.050948992	-0.08365223	-0.045496017	
-0.006038611	-0.06835632	-0.011794771	0.052481584	0.039730188	0.07368949	0.0073269266	0.026096912	-0.022835398	0.053839725	
0.101836964	-0.061507873	-0.04014505	-0.013944326	0.03219639	-0.008029082	0.09030428	0.031798057	0.003993947	0.0413088	
0.007817508	0.060352784	-0.02909577	0.022842823	0.04607558	-0.06400876	-0.013789076	-0.048064895	-0.0017748156	-0.023398697	
0.045416508	0.016559087	0.007433276	-0.020994179	0.033692576	-0.06356616	0.07735815	-0.05451015	0.016046947	0.039829146	
0.056015644	-0.08598908	0.018852929	-0.047053676	-0.009268502	-0.049383037	-0.082947195	-0.023536662	-0.08122837	0.052287683	
0.038513124	-0.09681523	0.07684957	0.030001877	0.017995972	0.051580273	0.0965805	-0.03671289	0.056379873	0.05988026	
0.045300856	-0.053916518	0.042065267	-0.0772126	0.025795445	-0.010415648	-0.018850187	0.003770753	0.09177387	-0.0039624246	
-0.014815947	-0.019381134	0.09072576	0.021777604	0.062443893	0.056522537	0.059247423	0.063278094	-0.024681235	0.04363139	
-0.002390395	-0.05679432	-0.05843862	-0.010542996	-0.023079246	0.023344321	-0.050887793	-0.0027485709	0.007987518	-0.029980196	
0.04030476	-0.06501869	-0.10449411	0.08348353	-0.004129061	-0.034982182	-0.0059894263	0.02579604	0.050940894	-0.0041658683	
-0.09779416	-0.06233062	-0.028087543	-0.0059213615	0.081123084	0.05091007	0.04220674	-0.032040946	-0.059531163	-0.053805027	
-0.018735787	0.07274395	-0.0073855636	0.07883695	0.021888368	0.028993651	0.0681718	-0.004207909	-0.02560293	-0.06671861	
-0.023025377	-0.010681607	0.050236184	-0.025110422	-0.015473865	0.023765005	-0.08510773	-0.021918245	0.005486537	-0.002984653	
-0.00597776	-0.058338404	-0.0046103415	0.009177145	-0.030821193	0.059386745	0.0748442	-0.0770706	0.05091646	0.03368874	
-0.015279745	0.070302024	-0.03694826	0.018183688	0.07630658	0.04265649	0.04097238	-0.039194025	0.045367815	-0.11045667	
-0.04037142	-0.064737305	0.073450916	0.02011264	0.033435788	0.08308596	-0.03940553	-0.012626832	-0.0429312	-0.106471375	
-0.023360847	0.014174871	-0.00776334	-0.052908354	-0.057563137	-0.07451348	0.03199232	-0.032525424	0.0385153	-0.0060584224	
-0.041325934	0.018072756	0.035909593	0.039150808	-0.08238044	0.007906186	0.04702911	0.009371339	0.045518402	0.037899703	
0.08122977	0.044869356	0.009169088	-0.08775715	0.028516237	-0.038873516	-0.061925575	0.016596897	0.0082751205	-0.05984085	
-0.035091877	0.07067563	0.023021434	-0.003611919	0.032005664	-0.034885243	0.008134241	-0.039499722	-0.040417038	-0.10189741	
-0.04017163	0.03577454	0.12690668	-0.012164582	0.07234976	-0.041237015	0.07029003	-0.046874896	0.06855617	0.026533505	
-0.017446129	0.021025887	0.09554615	0.07723353	-0.06282064	-0.0125877615	-0.045342136	-0.096938424	-0.112530135	-0.046069782	
0.012043499	-0.0658029	0.05159883	-0.08149239	0.028590461	-0.059864692	0.06745242	0.011149344	0.0053250375	-0.0003015052	
-0.080967076	-0.08645244	0.04834776	0.037430454	0.06433971	0.02626904	0.15128447	0.020245332	0.03858068	-0.020917762	
0.08232893	0.09365092	0.013383075	-0.04028663	-0.066228345	0.01696653	0.041982915	-0.06907271	0.010716451	-0.06846787	
-0.056850802	0.039554283	-0.011540624	0.07644656	0.027243935	0.0009935686	-0.028695943	0.08143963	0.03860778	-0.0017025103	
-0.05529942	-0.033758588	-0.0057241395	-0.016738245	0.049191274	-0.01626294	0.12154054	0.079056494	0.04067137	-3.827435e-05	
-0.014250089	0.010177589	-0.06622564	-0.01154158	0.052973315	0.0029086103	-0.024966193	-0.011449925	-0.018724347	-0.019670494	
-0.03743601	-0.05973228	-0.022252845	-0.08861532	-0.066228256	-0.0017929296	-0.006323129	-0.0203454	-0.0644005	-0.008577032	
-0.07901651	0.03084231	0.06485094	-0.051769022	0.01738274	0.08815189	-0.024900205	-0.049167395	0.03920726	0.050617877	
0.09720552	-0.050539326	-0.037382606	0.100377396	0.014666464	-0.030977648	0.06624632	-0.023303002	-0.11403511	-0.030362835	
0.082211025	0.0141349435	-0.0122447135	-0.04633228	-0.010914439	-0.019408632	0.041631725	0.05614765	-0.09789671	0.040777165	
0.07579105	0.061774306	-0.022059996	-0.08450224	-0.067536674	-0.06928564	0.004898832	0.07241598	0.022056906	0.023741387	
-0.056662444	0.10524516	0.055225648	-0.035694454	-0.05038548	0.093203105	-0.035939183	-0.030540675	0.008066649	-0.015562978	
-0.03923076	-0.047538735	0.022531446	-0.023684375	-0.03028954	-0.09031098	-0.012740453	0.03783764	-0.059201766	-0.00015210072	
0.09613397	0.02065585	0.023994764	0.0032347937	0.095310666	-0.051663898	0.037443053	0.0953206	-0.070565104	0.112890884	
-0.08979971	-0.05054365	0.0026272521	-0.04471314	-0.049740966	0.073051766	-0.05553241	-0.0415947	0.010002076	-0.08691061	
-0.08180695	0.017687375	-0.07722191	-0.026068414	-0.016462393	0.016701704	0.033124812	0.0880624	-0.07020207	-0.06946516	
-0.0568913	0.06876936	-0.07069489	-0.023647847	0.021873495	-0.018207973	-0.10295782	-0.08648952	-0.06181307	-0.011538429	
-0.061952565	0.015683405	0.013115628	0.04605006	0.05484999	-0.025579859	-0.04325008	0.037955355	-0.06531208	-0.0069598933	
-0.061250936	0.029179454	0.06276203	0.10367811	0.03597168	0.035541017	0.010091704	0.023391783	-0.06704171	-0.026170991	
0.011866931	-0.09298289	0.022496173	0.05652106	0.1048622	-0.07105619	-0.0705294	0.013415152	0.007360946	-0.020022595	
-0.107464455	0.07106214	-0.037623324	-0.025053892	-0.024114396	-0.07964958	-0.021100083	0.08962006	-0.10658749	-0.04754189	
0.09463673	-0.012359801	0.1027404	0.09532883	0.017686902	-0.00018675158	0.07491148	-0.07775631	0.0115614515	-0.04322417	
-0.01627357	0.009350684	0.010230254	0.039469767	-0.031664453	-0.1151846	-0.06721549	0.016296668	0.067627065	0.027310066	
-0.011667832	-0.039439548	0.10805023	0.018941436	-0.04502018	-0.01478629	-0.016303163	-0.101927966	-0.052235484	-0.012071408	
0.07026844	-0.1005577	0.010487695	-0.04763771	0.076482765	-0.02268725	-0.003253551	-0.044816848	0.008121006	0.083970025	
-0.016015308	-0.03691054	-0.03805394	0.060192898	0.04962849	-0.084593184	-0.06964824	-0.06542048	0.021961227	0.014924703	
-0.002913161	0.09541113	0.043506145	0.03346019	-0.049050227	0.054545287	0.009195192	-0.006304565	-0.11730597	-0.02469815	
-0.10524351	0.10289203	0.05000511	-0.021805592	-0.05972794	0.023649983	-0.048373915	-0.10728904	-0.026733657	-0.0052053747	
0.056447826	-0.013573202	0.06965025	0.1260496	0.04954194	0.012615004	0.008066614	-0.002365155	-0.007767325	-0.11189721	
0.018579967	0.041952968	0.018324113	0.02824621	-0.09840071	-0.031969815	0.10444519	-0.03638965	-0.06832085	-0.0065544057	
0.056931794	0.0012449982	-0.014914212	-0.052534856	0.0092982175	0.0586349	0.021693101	-0.09013238	0.00036221472	-0.03886224	
0.0474515	0.055916898	0.07736302	0.03318799	0.04441458	-0.038792968	0.08405556	0.0057099573	-0.06663991	-0.035273973	
-0.0011890129	0.07244656	-0.051840004	-0.01272094	-0.055393226	0.088482715	0.10364529	-0.11505845	-0.024293453	0.031422254	
-0.028822955	0.0759315	0.07124146	0.02834469	0.035929054	0.004954166	0.016268948	-0.07300156	-0.09021174	-0.077341735	
0.066995114	0.024869867	-0.08186571	-0.10148801	0.022218762	-0.054099586	0.01065541	0.031743288	0.029233776	-0.044185538	
0.050626077	0.042701323	0.018501164	-0.001559088	0.05919109	-0.04170125	-0.018998226	-0.06394821	-0.006793282	0.04940624	
0.050609056	0.0044402876	0.008530691	0.053320553	-0.011952672	0.05753025	0.059241187	-0.07211347	0.0027988402	-0.03995237	
0.08210348	-0.052372288	-0.012406045	-0.07522738	0.039359704	0.06451058	-0.0032158473	-0.06363104	-0.00742759	-0.030096525	
0.027321517	-0.008747297	-0.07573192	0.036805812	-0.019267244	0.049868684	-0.031502187	-0.04120665	-0.047112316	0.03219579	
0.009768622	-0.032279428	-0.034563977	0.06399227	-0.02324994	0.005708043	0.019752124	-0.020747408	0.11041367	0.035099626	
-0.000989304	-0.026475934	-0.030526502	0.035913914	0.013204632	-0.029799948	-0.0063111763	0.111325465	0.06450628	0.008174567	
-0.01982091	-0.039271187	-0.031599555	-0.05673689	-0.06307821	-0.0037502146	0.029949635	-0.040951896	0.048028234	0.031532697	
0.017680576	0.041127197	0.04492253	0.07681375	0.006347842	0.028785782	0.09110215	-0.087917104	-0.07453883	0.009080269	
0.03994924	0.007054069	0.03352276	0.08332033	0.029400127	-0.048932888	0.055214766	-0.041987848	-0.10313625	0.042330444	
-0.02030821	0.014163647	-0.054088295	-0.033959437	0.059403557	0.0028870897	-0.104850344	0.056239683	0.024160564	-0.064226955	
0.080694	-0.048054915	0.055224992	-0.029607195	0.04774113	0.04172082	0.016573675	0.002421706	-0.015121101	-0.065244764	
-0.026326496	-0.018425925	0.04170678	0.030924415	0.059848234	0.040601328	0.0040739635	-0.0310756	0.035143506	0.007575399	
0.048296567	-0.0074204863	0.010931703	-0.028055191	-0.021811785	0.037912525	-0.020208193	0.05585147	0.056122996	-0.03779096	
0.056374818	-0.008500899	0.05935572	-0.049867503	0.075710595	-0.006576463	-0.014468002	0.026179885	0.048460543	0.09496908	
-0.062132623	-0.050032716	-0.059735812	0.012676856	-0.05386759	0.006664458	-0.0057898043	-0.039163273	-0.024538755	0.061644994	
-0.000520758	0.056997295	-0.005332021	0.031018537	-0.0063460628	-0.03419159	-0.0069025075	0.0395691	0.004819468	-0.05906472	
-0.06858195	-0.040847376	0.014771538	0.004577621	-0.045381673	-0.049936295	0.026097193	0.049007848	-0.037352104	0.009927102	
0.08614136	-0.021692414	0.07513969	0.029245056	-0.015736397	0.03650781	-0.0012764373	-0.011357504	-0.06892901	0.096556395	
-0.033881214	-0.02215956	0.14064106	0.086738616	-0.07207594	0.020290146	-0.059467312	-0.054737534	-0.089744985	0.09065065	
-0.02009486	-0.025929082	0.09334091	-0.007062294	-0.071315676	-0.038680136	-0.024650274	-0.09124139	0.0012174245	-0.046257757	
0.0307217	-0.08333574	0.011192013	-0.025908003	-0.07657215	0.05918663	0.011420015	-0.068902515	0.05953712	-0.09566732	
0.09324403	0.024308344	0.055271793	-0.027094638	-0.09974898	-0.06376167	0.014284848	-0.06727936	0.017581433	-0.06986868	
0.036645282	-0.031188013	0.11910465	0.047111183	-0.03667013	-0.08074848	0.0844941	0.03474525	0.054690838	-0.14106575	
0.017891854	-0.019501511	0.06977883	-0.039048016	-0.03771687	0.014153612	-0.055223126	-0.09023048	0.04167129	-0.08591913	
-0.004959065	-0.0020204778	0.07149602	0.07558836	-0.11227716	-0.039295617	-0.04137983	-0.12577102	0.10244549	-0.06703643	
0.083062015	0.049956195	0.025428437	0.00995441	0.008715403	0.035232387	0.029481597	-0.050783776	-0.028557342	-0.027332298	
-0.07423096	0.08104407	0.083764575	0.05445191	0.044909753	-0.108702414	-0.053448226	-0.09131447	-0.008510534	-0.06410354	
0.06064241	0.078891374	-0.0057656383	0.028903678	0.0055805347	0.06891926	-0.01131037	-0.048656177	-0.047232866	-0.03539868	
-0.101109944	-0.019511012	-0.042070378	0.03791489	0.04825799	-0.022549296	-0.06393366	-0.0047705504	-0.026044013	0.02486849	
0.038784247	0.029297223	-0.09386478	-0.010931511	-0.0060984436	0.028737782	-0.0052134283	-0.052317686	-0.003761848	0.0067481725	
0.045578834	0.027140597	0.08140382	-0.038122393	0.07737482	0.020450164	0.012303126	-0.0429823	0.077943176	0.07781172	
-0.03101535	0.003635224	-0.030976148	-0.024321476	-0.07530293	-0.031975534	-0.08212248	-0.060875565	0.018598724	-0.008249135	
-0.0038821278	0.02793204	-0.058305003	0.006482702	-0.018222133	-0.083446264	0.0034368508	0.032382336	-0.026505657	0.02505081	
-0.03472004	-0.01593201	-0.041004576	-0.04462371	0.039485257	-0.059873424	-0.03387058	-0.06554451	0.010500302	-0.02636437	
0.025986973	0.046226222	-0.0013116909	-0.07781395	-0.03420726	0.06856775	-0.023590486	-0.04075286	0.040709566	0.01102123	
-0.017872833	-0.050902758	0.055606574	-0.048723396	0.048560895	-0.04739934	-0.0034564112	-0.04486009	-0.044773187	-0.09418377	
0.03439482	0.009571241	0.032144982	0.100630865	0.0109001575	-0.022520954	0.03099819	-0.05287989	0.076425456	0.03455042	
-0.015449986	-0.00950111	0.03927066	0.015354349	-0.028966958	0.08393645	-0.011435277	0.07922032	-0.109327994	0.018472457	
-0.014205886	0.0076068477	0.012855455	0.096973315	0.062217344	0.054687954	-0.01737308	0.020011015	-0.061040442	0.006070403	
-0.028760092	0.015593411	-0.07817005	0.058340617	-0.06523359	-0.05793322	-0.0030737582	0.021896305	-0.03218041	-0.035977416	
-0.10268729	-0.064632066	-0.028236857	-0.047758218	-0.0081196185	0.016525298	-0.053652823	0.04163279	-0.025161754	-0.011750377	
-0.058437023	-0.026949245	-0.047455873	-0.03768793	0.021689594	0.05525859	0.00997822	0.050255634	0.07336892	-0.0009551589	
-0.03236334	-0.09252205	0.041343875	0.024385383	0.06699674	-0.070752144	0.0356681	-0.022846384	-0.02548872	0.058182236	
-0.004344453	-0.09799831	-0.08573399	-0.021156438	0.026001599	-0.10236787	-0.028314922	-0.08192812	0.0020772137	0.048602	
-0.026659122	0.016898602	-0.08403963	0.06824584	0.105649	-0.06354929	0.028243115	-0.020069472	0.014924071	0.01602385	
-0.048768945	-0.05893967	0.07453022	-0.0039249524	-0.0015947969	0.09075637	-0.006667242	-0.008007166	0.029932091	-0.05226777	
0.08701091	-0.009778997	-0.0004147474	-0.014726737	-0.0224143	-0.01887006	0.10208737	-0.064153664	0.055340312	-0.010991401	
-0.009157706	0.06020278	0.041094888	0.13065183	-0.0423577	0.00677393	-0.0051561007	-0.0038575542	0.1026225	-0.035682134	
-0.0106429355	0.00043616875	0.089378	-0.009522235	-0.04261492	0.06816146	-0.065358184	-0.07200887	-0.0059994534	-0.05976331	
-0.00739387	0.00304274	0.076636195	0.14177291	-0.0030573013	0.026366869	0.021275584	-0.0926115	0.015485771	0.08896622	
0.008611863	0.009353526	-0.04109058	0.130984	-0.08775631	-0.039654516	0.014310057	-0.06984949	-0.012937626	-0.044182178	
0.009913186	0.018361945	0.020555919	0.09409106	-0.06755053	-0.013797052	0.0023624983	-0.100538276	0.08298689	0.09833005	
0.0314473	-0.036064055	-0.05451528	0.02460953	-0.08497838	0.05214063	0.021849876	-0.15836132	0.051977504	0.023269873	
0.0175101	0.05709158	-0.060993854	-0.067275405	-0.008115043	-0.06628693	-0.061687116	-0.046472907	0.059043497	0.03643743	
-0.061550993	0.057493445	-0.06830318	-0.008574231	0.013590441	-0.023523312	-0.08467303	-0.01583959	0.12680432	-0.06576459	
0.06750303	0.042230453	-0.08698729	-0.024805903	-0.040984236	-0.0114250025	-0.011714698	-0.04465889	0.09560524	-0.019312598	
-0.008995442	-0.022942876	0.09400885	-0.045980126	-0.05671382	0.0128498785	-0.041374803	0.044243015	-0.03160178	0.009883997	
0.09619335	-0.0104610445	-0.02709572	-0.10341559	-0.05037307	0.04701824	-0.049579866	-0.074103035	-0.029827813	0.019383611	
-0.027388792	-0.04018538	0.0130080795	-0.0020226024	0.115069956	0.07109249	0.016171237	0.022512319	-0.012495967	-0.016741656	
0.060663827	-0.0019991018	0.006608062	-0.0012312934	-0.026465105	0.02321024	0.018037312	-0.031196503	0.031367175	0.03394126	
-0.08273144	-0.06394745	-0.0021267214	0.09689998	-0.0693413	0.0059478967	0.091331884	-0.11396591	-0.06156384	0.009332318	
-0.055987548	0.03648737	0.05774165	0.003219313	-0.045730166	0.041638337	0.012741582	0.072961845	-0.040798567	0.07720062	
0.0556918	0.021363903	-0.08542054	-0.046990063	0.1132308	0.027735319	0.03425525	0.016223192	0.089869596	-0.014302992	
-0.0648163	-0.026763832	-0.055897903	-0.065681174	-0.105294146	0.05809571	-0.010086922	0.05038776	-0.03028354	0.026698602	
0.023803262	0.002231254	0.060695056	0.05681637	-0.04648957	0.034481827	0.011313118	0.025958695	0.061191723	0.023052793	
-0.004862707	-0.08963648	0.035890527	-0.08379673	0.0011801465	-0.010170354	0.03591535	-0.04380782	0.017968852	-0.08154297	
0.015826069	0.023576424	-0.10813229	0.035236306	0.058277223	-0.014196365	0.09126847	-0.050977655	0.044031106	0.06899699	
0.06133698	0.053375646	0.006634219	0.090168364	-0.033662237	0.022755211	-0.06819858	-0.032727793	0.068909585	0.026694654	
0.008246949	0.07387137	-0.045884956	0.0637723	-0.07153191	0.005081963	-0.058131237	-0.05743736	-0.031910412	0.02460436	
-0.006733619	0.048970114	-0.05926791	0.12016307	-0.08594314	-0.0398275	-0.041714393	0.028810788	0.07301498	-0.04031824	
-0.058828544	0.010727345	0.036426388	0.079961985	0.02984729	0.007393494	0.06006832	-0.043345347	-0.0028819253	-0.010950224	
0.077619895	0.0046961526	0.019000892	0.054007985	0.042158935	0.07414786	0.088897675	0.084669404	-0.016638672	-0.029804572	
0.05534847	-0.10823791	0.0933733	0.06622224	-0.021875229	-0.08942255	-0.015799355	0.10401053	-0.04458523	-0.07720065	
-0.008880387	-0.02337489	-0.0034376015	0.0130494535	-0.02590987	-0.062166788	0.022220895	0.0072083953	-0.0491314	-0.03896343	
0.027634904	-0.07272409	-0.050506543	0.06864576	-0.061048754	0.010193361	0.02388526	-0.035431903	0.088510096	-0.014582135	
0.03178983	-0.07258293	0.0035595084	-0.056575887	-0.010643712	0.058262423	-0.05781277	0.104063965	-0.009873059	0.022900864	
0.023442676	-0.11190935	0.07086629	0.005509879	-0.121255815	0.047562458	0.0015851788	0.06520558	0.06320192	0.063150816	
-0.05851321	0.0750892	-0.0047333487	-0.039795507	-0.09710923	-0.0711964	0.045244463	-0.0044063106	-0.049061514	-0.041818574	
0.0041369246	-0.0032691006	-0.04309984	-0.02686378	-0.04716062	-0.0041315686	0.0319486	-0.06949977	-0.031717	-0.02586564	
0.01276144	0.1083257	-0.02362211	-0.098335706	-0.113075756	-0.0067671747	0.026645483	0.011503613	0.04152568	0.015362356	
0.07923864	0.067581005	0.0919167	0.0561176	0.032391	0.078447565	-0.024140812	0.04478083	-0.0035645212	0.06357035	
0.023209563	0.06078927	0.009842465	0.08408552	0.014548242	-0.095541164	-0.013514489	-0.086991034	0.036543354	0.014863966	
0.04803572	-0.018000588	0.055704672	-0.03598923	0.05346015	0.07140561	-0.116927	-0.026080268	-0.027434021	0.084614746	
0.047375593	-0.036784504	0.020804243	0.018291472	0.04926774	0.074622236	-0.075932905	-0.0032767917	0.011425177	0.0024134472	
0.0668021	-0.06046105	0.0711109	-0.019740064	0.018208062	-0.068949796	-0.09682787	0.05356776	0.047304865	-0.015365246	
0.08335209	0.048149675	0.0009607279	0.03138416	0.08770585	0.11401237	-0.044654567	0.042424023	0.054776687	-0.0056219785	
0.0016355211	-0.03586429	-0.03517986	0.007022768	-0.03205374	-0.033012025	-0.0010952562	0.021209422	0.05679195	-0.050713193	
0.028351998	0.02421408	-0.04036393	-0.03912943	0.09545987	-0.002028771	-0.07771071	0.04936912	0.045131292	-0.039490815	
0.006281559	-0.075327314	0.027567085	0.009395806	0.10103975	0.08107226	0.01913724	-0.05003428	0.07265864	0.039160535	
0.067579634	0.05987624	0.038352195	0.0019676322	-0.106125854	0.06207592	0.03042244	-0.064323924	0.016112871	0.026683941	
-0.060877725	-0.03780342	0.04364553	-0.03543041	-0.10928142	0.009933894	-0.07160443	-0.04802957	-0.065653786	-0.047131084	
0.059872903	-0.036094785	0.04563326	0.09900753	0.049703166	-0.036444403	-0.0062306765	0.07054678	0.110596806	-0.022934996	
-0.051720083	-0.00794995	-0.045336973	-0.0076327077	-0.06283899	0.024785392	-0.018349797	-0.039305307	0.008045505	0.08686582	
-0.06897732	0.040036943	-0.05326218	0.0064401445	-0.090800084	-0.024766967	0.032553494	-0.03463456	0.044566583	0.050143994	
0.011640346	-0.08543884	0.07451576	-0.010869013	0.032353383	-0.057877794	0.00030140104	-0.08519273	-0.08064009	-0.043412287	
-0.10253318	0.06327192	0.020022126	0.008334608	0.05331975	0.014095097	-0.039424725	0.04574125	0.11083227	-0.042794075	
-0.045069102	0.013928165	0.08243287	0.020177184	0.052471507	-0.040624958	0.08419868	-0.00092013745	0.0032799842	-0.092092544	
-0.086860195	-0.063872084	0.06314444	-0.026620584	-0.07580083	-0.031061435	0.019253142	0.02881245	0.06926512	0.019000513	
0.08395706	0.02879205	0.021801053	-0.010964773	-0.033342738	-0.050956566	0.044510238	0.122146785	-0.005705217	0.056133963	
0.04276177	-0.049454425	-0.020879935	0.082799286	0.062492754	0.039015003	0.017161593	0.10756643	-0.022199223	0.00884544	
-0.08348797	-0.04219047	-0.06405883	-0.041009065	0.030289084	0.055418056	-0.034081522	-0.004509244	-0.026932778	-0.028697	
0.025424609	-0.07022792	0.019282067	-0.050987132	-0.018554095	-0.10672949	0.02770539	-0.016059518	0.08054806	-0.00024113624	
0.00682334	-0.0015927411	0.038156483	0.041576155	0.029843094	0.028562661	-0.028207533	0.02580791	-0.05917605	-0.030142048	
0.034704052	-0.062002312	0.03486228	0.012163551	0.03486469	-0.06370074	0.038872935	0.0497494	-0.036817253	0.12657581	
0.09879459	-0.15589619	-0.0026940983	-0.018945487	-0.0112312315	0.021413969	-0.06095298	0.09331772	-0.054567255	0.028758539	
-0.001341533	-0.11905496	-0.06980874	0.03099375	-0.15065885	0.026379382	0.088386245	0.07456136	-0.049624197	0.17039153	
0.058512866	0.079569034	-0.081261024	-0.016244583	-0.02537073	-0.02535638	0.06142385	0.061244722	0.07440698	-0.018886315	
0.039297234	0.017252652	-0.025649961	-0.04636473	-0.12152388	0.034462187	-0.053025648	0.0671427	-0.080396645	0.028031206	
0.022036035	0.013698123	-0.023125418	0.040704317	-0.032702632	-0.06091575	-0.13472922	0.08565224	0.018312674	-0.056057535	
-0.03302652	0.03701534	0.069788136	0.06674148	0.017153252	0.02160227	-0.062402245	0.025334839	-0.054775428	0.11998217	
-0.01905782	-0.03698676	0.026277179	-0.0066230986	-0.016026435	0.001501292	-0.05401255	0.13180493	-0.0042406633	0.010928154	
0.06526552	0.00014457743	0.022965187	0.064835995	0.026852235	0.007591068	-0.080841035	0.04843694	0.033973537	-0.025931988	
0.13749869	0.004571832	-0.00812289	-0.002742744	-0.004600967	-0.020323833	-0.054143913	0.03711993	0.0027448416	-0.040095367	
0.0055971555	-0.001026451	0.045659605	0.04992062	-0.004907321	0.060992718	-0.08895174	-0.09285787	-0.083845116	-0.085274555	
-0.021740427	-0.046523534	0.04718704	0.014717752	0.07664194	-0.030749401	0.036693633	-0.03386313	-0.0005133296	-0.040005576	
0.005953773	0.0846046	-0.03870908	-0.03394932	-0.057976678	0.017352842	0.033961743	0.03747116	0.049415827	0.037038624	
-0.03951565	0.004105342	-0.10509002	-0.06547588	0.009151762	0.09624032	-0.018537302	-0.00056105154	-0.03655835	-0.08739272	
0.07076737	0.016322657	-0.034535605	-0.07246674	0.033752322	0.09193015	-0.08339276	0.06307289	0.044132203	-0.03367441	
0.07866336	0.03586345	-0.029602043	-0.023151606	0.026121574	0.0021872253	0.009206492	-0.046830304	0.050177783	0.0059600724	
-0.08552265	0.04415282	0.014636876	-0.10216839	0.03003524	0.023681518	0.034581598	0.03283999	-0.016455071	0.061971944	
0.022972096	0.06188478	-0.03817521	-0.06550287	-0.07035878	-0.044736434	0.063236855	-0.1001496	0.013268727	-0.040742587	
-0.021219507	0.07431801	0.03709389	-0.03574002	0.04383195	-0.0018666588	0.0073263156	-0.041528836	-0.013619859	0.025831517	
0.021882674	-0.018645765	-0.021411864	0.02571107	-0.07074477	-0.034382343	0.03524599	0.0611486	-0.0011091104	-0.010737222	
-0.10080227	0.06657381	-0.0613482	-0.009345092	-0.08013262	0.08887721	-0.031268973	0.03132517	-0.046499368	0.04289328	
-0.019524284	0.013849148	-0.030893467	-0.0012477115	-0.041369908	-0.04393984	0.0032323766	0.08357446	0.060200952	-0.022729391	
-0.005939465	-0.040815495	0.0053654495	0.064771384	-0.08713079	-0.018238677	0.066767976	0.07565783	0.010052707	-0.04723427	
-0.015156243	-0.050738186	-0.10105482	-0.047418896	-0.01583506	-0.05116124	-0.02309235	0.038004648	0.10161718	-0.024654675	
-0.025435187	0.05260881	0.046084795	-0.064390376	0.027136689	-0.013325103	-0.050612602	0.09572294	0.025657225	-0.018063713	
0.05214143	0.011233681	0.022009589	0.059177656	-0.009531755	0.059054483	-0.03297291	0.06351996	0.02572128	-0.007876572	
0.073346235	0.0071069305	-0.02440622	-0.03821129	-0.07984029	0.00788818	0.0029559818	0.08594644	0.019794207	-0.005615718	
-0.047787428	-0.059077427	0.0014252228	-0.10914005	-0.07778286	0.106772095	0.052724507	0.06047042	0.08798088	0.010926412	
-0.035137873	-0.12889741	-0.098757744	-0.0016127957	0.023751685	0.019917784	-0.038372736	0.06295091	-0.042758044	-0.004096519	
0.10341773	0.017614236	-0.023166094	-0.059851974	0.05891236	0.121096805	-0.03835646	0.06312883	0.07696032	0.035448156	
-0.03029605	0.071692705	-0.044080768	-0.040889785	-0.10337122	0.031718694	0.04475581	0.050213963	-0.03307218	0.089514874	
0.068375565	0.06347608	-0.050638705	-0.046596993	-0.12763444	0.06293338	0.074429974	0.14789695	-0.016122567	-0.051661644	
0.1133354	0.09009489	0.028107254	-0.07523228	-0.13003515	-0.018246027	-0.05303182	0.16915742	-0.03683171	0.012459906	
0.0420725	0.11171936	-0.030778848	0.06828351	-0.04848215	0.0035369662	-0.11382085	0.12364757	-0.14165807	-0.016202414	
0.04800161	-0.0020181728	-0.06468551	-0.025922174	-0.005472219	-0.058562886	-0.033125985	0.12882216	0.01156087	0.12259764	
0.06366175	-0.032006975	0.08130087	-0.025954565	-0.013719727	-0.0057509094	-0.1828473	0.054774746	-0.0616107	-0.043531712	
-0.041428518	-0.10160028	-0.051163275	0.035321042	-0.02869302	0.0934376	0.012429147	0.09721626	0.042304836	-0.008168326	
-0.014816501	0.036021	-0.06106461	-0.06024277	-0.07035238	-0.021356663	-0.01997618	0.045335572	0.07233661	-0.020192271	
-3.588153e-05	-0.087023765	-0.028222917	-0.08359402	0.054286513	-0.029504953	0.004687282	0.0019851797	0.003971028	0.029137308	
-0.015253282	-0.097825095	-0.019569887	-0.013457886	0.06616813	0.031212172	-0.03445324	0.028098524	-0.014417611	0.06434446	
0.027608892	0.03505196	-0.0065954034	-0.08550348	0.023647502	0.01660719	-0.04553234	0.012728357	0.010863751	-0.06970084	
0.05030752	0.023013966	-0.020910934	-0.03776177	-0.021341963	0.060916707	-0.024635747	-0.09860796	-0.024218706	-0.04587613	
0.0062897615	0.07297269	0.008693502	-0.015685724	-0.03440621	-0.015056145	0.010077069	-0.0419798	0.06323635	-0.017895984	
0.027772121	-0.033647563	0.031467058	-0.0027771033	-0.011415287	-0.038820878	-0.013569467	-0.07439149	0.04468096	0.07296231	
0.013918483	0.003344872	-0.056883406	-0.0320888	-0.021378295	0.08512206	0.023029566	-0.014409698	-0.06284126	-0.06381831	
-0.00087081466	0.0073953997	0.089670695	0.026594125	-0.022988226	0.05647914	0.060442373	0.0041700574	-0.025145655	-0.046681847	
-0.061247762	-0.008585929	-0.016017316	-0.06319955	0.056178726	-0.06665698	-0.0009856127	0.028118446	0.040340234	0.011417469	
-0.012260234	-0.09694712	-0.015462371	-0.071725585	0.015591673	0.11317862	0.018996857	-0.03639832	0.0036856523	-0.036581583	
-0.11171854	0.01354359	0.028949182	-0.049793504	-0.0007434008	-0.005167483	-0.057736088	0.08107196	-0.026909579	0.059096217	
-0.016496658	-0.018250354	0.069650166	0.046979193	0.06988693	-0.059545536	-0.06722378	0.034563847	-0.03984423	-0.015104688	
-0.09246849	0.047425557	0.017224018	-0.02199399	-0.0012824356	0.056209322	0.05705083	0.077169485	0.10758319	0.011147156	
-0.0051709358	-0.0015115887	-0.00981256	0.0071217436	0.0735981	-0.058283422	-0.0035612273	-0.001129049	-0.010576898	0.01585645	
0.049201712	-0.05574751	-0.023326563	-0.028369928	0.04226619	0.0179463	0.046691164	0.0041658464	0.014839406	0.08657435	
0.020951957	0.029167922	-0.033086132	-0.016770642	-0.029699251	0.0053488263	-0.039423186	-0.047369502	0.02622513	0.09674933	
0.051262334	0.010495439	0.031118497	-0.039087236	-0.007156465	0.075944826	0.03550353	0.04529038	-0.035676736	0.04447537	
0.0025613965	-0.014523416	0.021097396	-0.11241497	0.066513404	0.06603748	-0.0821132	0.035821717	0.01243518	0.057443544	
0.13070637	-0.08363529	-0.14140157	0.03364693	-0.049497552	-0.052516732	0.08995846	-0.013580662	0.09729137	0.010007894	
0.054291222	-0.05501543	-0.107142664	-0.006622855	0.05872541	0.07940891	0.092046686	0.04162029	0.040844873	-0.108998306	
-0.04270605	0.013938622	0.052015275	0.066171475	-0.012401441	-0.010001131	0.13124841	-0.017028987	-0.022124298	-0.03052012	
0.01896953	0.08434414	-0.026144475	-0.064932056	-0.06495727	0.021406882	0.06804027	0.04034747	-0.022793407	0.049659047	
0.007606764	0.12213862	0.0068167527	0.0050909403	0.01569102	0.031465013	-0.03215619	0.06376226	0.027978087	0.0065761204	
0.010362377	0.09592564	0.05235215	0.047530334	-0.018471735	0.001294836	-0.0528217	0.050727025	0.016258335	-0.06506104	
0.05072005	0.05379409	-0.014196463	0.092013605	0.0039778687	-0.099005714	0.015881537	0.030810967	-0.0043822713	-0.03539563	
-0.04560887	-0.050222013	0.036303204	0.051583998	0.06108312	-0.0777607	-0.013365115	0.04622953	0.029729491	0.028222088	
0.009794409	0.052106693	0.0880056	0.083774686	-0.075825974	-0.13013595	0.0063355016	0.03028031	0.069229715	0.04991197	
-0.022681056	-0.029420074	0.09431783	-0.107218266	-0.0030122336	-0.02126891	-0.07729179	0.024614347	-0.009979632	0.043988775	
0.044779405	-0.009031141	-0.011572296	-0.05997841	-0.042154685	0.031425867	-0.014311545	0.053819444	0.092951596	-0.045570556	
-0.0012672943	0.0040727817	-0.04597121	0.01915618	-0.041577484	-0.019837055	-0.094914205	0.03528671	0.07176717	0.015210674	
0.09368381	0.048106533	-0.07552667	0.013365504	0.0430946	0.06009301	-0.01866364	0.022302505	-0.047270183	-0.042833213	
0.041619	-0.015257037	-0.09138132	0.03702221	-0.0941559	-0.0055679553	0.0080344295	0.042697497	0.07787384	-0.0010717068	
-0.021815425	0.089714885	0.0029512644	-0.062466603	0.02764937	0.048250057	0.04398692	-0.010577278	0.014684469	0.11075504	
-0.019232605	0.08477659	-0.041643173	-0.0387688	0.0026642196	-0.028204245	0.01743342	0.090733774	0.0857816	0.010343461	
0.0067039165	0.03744301	-0.007049538	0.033741448	0.032163445	-0.045808665	-0.068066806	-0.006576058	0.005156259	-0.11228145	
0.019665146	-0.060476918	-0.050947964	0.028024018	0.07340177	0.050259877	-0.0027812016	0.024919081	0.048151985	-0.07727384	
0.046554085	-0.0029946181	0.011258089	0.035884425	0.035983894	-0.043258667	0.042821027	0.04007598	-0.03818021	-0.026069134	
0.0037873925	0.054560483	0.026624614	-0.06638959	0.020280251	0.038301937	-0.055736046	-0.090860166	0.0006374192	-0.040181376	
0.033113997	-0.019017458	0.0029753877	0.0032720845	0.013103584	0.024674807	-0.023348097	0.012230068	-0.047236186	-0.04936783	
-0.10028638	0.05596793	-0.044322986	0.08269062	0.041062515	-0.021929532	-0.02614249	0.08310087	-0.023990117	-0.009659412	
0.0054804957	-0.079927534	0.0015713495	0.07577663	-0.016765645	0.09923813	-0.06260108	0.009460676	-0.01207845	-0.041625954	
-0.070367284	-0.019109698	0.00792106	-0.07544737	0.11668599	-0.007423067	0.03200084	-0.015637277	0.05957443	0.02776062	
-0.013683932	-0.036763426	0.03624336	0.0026657237	0.01610936	-0.096545815	0.004090114	0.0030888712	-0.095497295	0.07892114	
0.078401335	-0.015475919	-0.09562305	-0.09216109	-0.057121977	0.038407	0.033873037	0.1330791	0.099829786	-0.01217048	
0.029030535	-0.05542335	-0.101560146	-0.062021222	0.08025598	0.10114744	0.11067041	0.01367995	-0.045132197	0.05953754	
0.008084027	-0.07201158	-0.08420034	-0.019485272	0.0455052	0.008882367	0.026134737	0.02116257	0.055005968	0.09211778	
0.02467279	-0.047363214	-0.035495333	-0.13437411	-0.0015833883	0.070577696	-0.049091246	0.023876347	-0.05820303	0.110358894	
-0.040660575	-0.050265767	-0.13961686	0.0032790736	-0.017442279	0.02807212	0.014939179	0.02426004	0.039807864	-0.054174468	
-0.022564776	0.046408415	0.0334675	-0.06280522	-0.040834785	-0.013646858	-0.014867163	0.02316069	-0.002955529	-0.13846691	
0.0074548344	0.2230827	-0.033137593	0.14645411	-0.06609845	-0.068825215	-0.09207969	0.09546724	-0.045212172	-0.069485016	
0.011912145	0.1366423	-0.051786635	0.08085274	-0.052317157	0.05167858	0.011356539	0.026285268	-0.09276012	-0.054905687	
-0.06274073	0.08237496	0.04943809	0.08449433	0.024684533	-0.13504118	-0.0302058	0.081115104	0.03687691	0.01211199	
-0.078889996	-0.050750826	0.08884331	0.099631794	-0.021364601	0.041645944	0.0065528755	0.12364234	-0.0097469315	-0.048527237	
-0.024751622	-0.04300058	0.100796595	0.087565295	0.089302644	-0.045007117	-0.025380619	0.063867986	0.012233378	0.11761976	
-0.02526121	-0.025547257	0.041535083	-0.041702185	-0.023003992	-0.10415805	-0.025352566	0.042586144	-0.055144355	0.029379454	
0.05443019	-0.082050145	0.06533997	0.025644118	-0.014075664	-0.07428929	0.019375363	0.05914836	0.03685463	-0.04015335	
0.05444992	-0.021813039	-0.07253745	0.0521073	0.094434164	-0.12016485	-0.12176105	-0.008964276	-0.066961735	0.07703964	
0.046669614	-0.06306368	-0.02340952	-0.0005595789	-0.06617714	0.042259727	-0.0940796	0.04347853	0.022324799	-0.057439893	
0.019698333	0.014650979	0.031841367	-0.04318997	0.007181593	0.010199083	0.06200775	0.089546576	0.07018907	0.032387987	
0.023816003	0.08867955	-0.023537502	0.06740208	0.07771736	-0.09700141	0.011694881	0.005656794	-0.07080337	-0.053436723	
0.0043462417	0.05541218	0.044919074	-0.037429787	0.035917167	-0.015819276	0.01831977	0.04160931	0.050582025	-0.04504019	
-0.016084751	0.027615601	0.019315502	-0.06682254	-0.09341896	-0.06610772	-0.070547126	0.0059894784	0.031058263	0.03949339	
-0.035561353	-0.032777432	-0.019844979	-0.003868757	-0.08951121	-0.012911193	-0.0060867257	-0.049857385	-0.034189533	-0.048172284	
0.022543782	-0.045201913	0.0045130104	0.108744085	-0.015986048	0.041279647	0.07619993	0.06817656	-0.020158028	-0.026109261	
0.0008694057	-0.009500866	-0.056619126	0.052374724	-0.015560906	0.019223502	0.07597124	0.0032181102	-0.01452541	0.08218757	
0.09120335	-0.008945105	0.05834889	-0.057483178	-0.04430698	-0.01955143	0.00083822594	-0.08067626	0.0760593	-0.02994201	
-0.06500886	0.072114885	0.04383286	0.025615606	0.004338763	-0.023772985	0.027049148	0.06030773	-0.018782962	-0.057221357	
-0.07082945	0.050260596	0.1090958	-0.064918146	-0.06628187	-0.101033874	0.065091394	0.06371895	0.031873643	-0.058714323	
0.014671593	0.033907223	0.009188833	0.033501793	-0.08749831	0.023035739	0.05812962	-0.059288677	-0.015517907	0.048663758	
0.00027483684	-0.019038755	-0.01236959	-0.010638674	-0.008565577	-0.016507043	-0.037469782	0.06549596	0.022305511	0.014843298	
0.08229945	0.03789868	-0.13322158	-0.031052642	0.046726216	0.011865306	-0.071022406	-0.06132747	0.029821733	-0.03088045	
0.071964644	0.045855295	-0.095794134	-0.06536835	0.051341474	0.041952617	-0.024951579	0.02733642	-0.028902894	0.10774134	
0.09402801	-0.03652337	-0.0062905382	-0.07572694	-0.032924816	0.06134928	-0.018146902	0.034020014	0.026125927	0.0069496627	
-0.008037682	-0.045680802	-0.04363805	-0.07097587	0.07956192	0.06771353	-0.00030589494	-0.05845905	0.07619542	0.0410479	
0.08241514	0.009331522	-0.05995836	-0.049999032	0.042478036	0.05996453	0.031114414	0.015218826	0.049293537	-0.008759926	
-0.037163034	0.013811149	-0.0658176	0.10307886	0.009632508	0.09487033	-0.05620154	-0.04018499	0.066908814	0.048579413	
0.018462101	0.07439288	0.015346804	0.16407238	-0.029259274	0.106732294	-0.034690093	-0.0933999	0.014428386	0.008178912	
-0.10025149	0.25579515	0.0030528216	0.10977236	-0.112632416	0.023803817	-0.044326354	-0.061728995	-0.07296434	-0.0898478	
0.02795641	0.24560244	-0.04337805	-0.0014500984	-0.02306729	0.025180038	-0.051243898	-0.070020236	-0.05255946	0.041130986	
-0.14211816	0.116513416	-0.1290275	0.0139334425	0.04820291	-0.013856194	-0.008593719	-0.009686942	0.052669972	0.012249967	
-0.07280743	-0.03797412	0.026042072	0.03443307	0.03475316	-0.017061135	-0.09011148	0.05306655	0.006833572	0.010194448	
-0.066652	-0.11820561	0.029681584	-0.025119413	0.016263805	-0.1331606	-0.02652157	0.058659274	-0.0044601313	0.009504888	
0.091214396	-0.06049389	-0.097193874	-0.07369101	0.07434153	-0.06993085	0.02678593	0.022532431	0.013506626	0.033747893	
0.12762634	-0.111708246	0.016304065	-0.08336068	0.01884948	-0.041736692	-0.0057879756	-0.0023740656	-0.0082140565	-0.04952685	
0.09378951	-0.059521142	0.011305163	-0.030090492	0.051474765	-0.11931919	-0.04037745	0.025303071	-0.0991062	-0.03290603	
0.0608802	-0.03969056	-0.031249896	-0.067333296	0.026753003	0.08894167	0.013649828	0.043340553	0.033463344	-0.034594864	
0.047988098	0.0497273	-0.006228189	0.0046968795	-0.011649087	-0.009675678	0.07642932	0.061529335	0.015963309	0.023973819	
0.06814797	-0.056405142	0.04103096	-0.00045132058	-0.060713843	0.09328588	0.058138542	0.03579626	-0.095036864	-0.030295644	
0.007255658	0.10319198	0.035595965	-0.019532152	-0.059618536	0.039927315	0.0014937227	0.088367835	-0.038374607	-0.048870865	
-0.04124279	0.04928433	-0.0032695532	0.03450583	0.01865634	-0.022604486	-0.036613375	0.01713019	0.011221421	-0.05418277	
-0.015470219	0.07957734	0.051967528	0.026881568	-0.009312133	0.09374889	0.09846474	-0.09893912	0.020990863	0.033961188	
-0.07160558	0.017092431	-0.0066405497	-0.035305154	0.019021554	-0.050612446	0.019594405	0.09248081	-0.06057774	0.036297724	
-0.05322526	-0.0072916714	0.10023992	0.025501492	-0.076266915	-0.03250142	0.07265514	-0.02286988	0.05177464	-0.028490692	
0.026633142	-0.024477523	-0.048654445	-0.014693847	-0.049209557	-0.040673222	0.016858067	-0.04808391	0.027766516	-0.028686982	
-0.03830728	0.054990046	0.029148934	-0.006427919	0.0604449	-0.012767079	-0.02713571	-0.025122004	0.04258612	-0.009293493	
-0.11293877	0.059111744	-0.0052704937	-0.106907226	-0.0040415064	0.0035123727	-0.0336	0.00050147605	-0.013507943	0.02596319	
0.023919314	0.019269057	-0.06944891	0.036215175	0.016066069	-0.008157782	-0.043881584	0.05315134	0.028396146	0.021649873	
0.07599965	0.0052830996	0.002775428	-0.068037376	-0.029640159	-0.005959482	-0.017385611	-0.014552722	-0.036253642	-0.048620492	
0.055274203	-0.029645111	-0.1287334	-0.046819877	0.06368318	-0.03523335	0.0065423558	0.054969624	0.055508226	0.10182795	
-0.0050291484	-0.05331525	-0.08551547	0.017128622	0.10730246	-0.045670953	-0.059924584	-0.011368081	0.008676147	-0.011710421	
0.10473491	-0.035906218	-0.031699203	0.02006685	0.04607175	0.014180969	0.018674053	-0.024337884	-0.040399235	0.05728335	
-0.056503765	-0.0977619	-0.08336853	-0.028137093	0.03696512	0.08090577	-0.017181557	0.02635836	-0.0011231718	0.028652016	
0.041288782	-0.023440259	-0.09142872	-0.058317922	0.08567266	0.033538584	0.08646458	-0.10331093	0.0018120013	-0.09604389	
0.043247722	-0.132431	-0.14927864	0.047119293	0.0816576	0.046547096	0.057428245	0.052642763	0.06624317	-0.09323188	
-0.12511827	0.16850142	0.0015226518	0.03795175	-0.014338324	0.078366645	-0.054441277	-0.052300077	0.053568345	-0.027044537	
-0.081725806	0.2496425	-0.016864479	0.033497	-0.028000817	0.1073879	-0.0545271	-0.042976186	-0.010350208	-0.029573074	
-0.17246585	0.20136705	-0.0013965283	-0.0012667632	-0.0035053035	0.048002575	-0.0776528	-0.028985986	0.017094385	0.018726995	
-0.037866313	-0.08913447	0.030861383	0.045912612	0.006074562	0.083167136	0.07813672	0.027279988	-0.06258575	-0.04581766	
-0.15820608	-0.13519958	0.031027015	0.07574149	0.010334859	-0.08690148	-0.026701663	0.04261971	0.07116736	0.06365533	
-0.020794902	-0.030005276	0.044686865	0.002473896	0.05427343	-0.06049523	-0.058511432	0.05213008	0.059736006	0.03908049	
0.0049384334	0.0080880355	-0.024549717	-0.108324215	0.07255907	-0.020770255	-0.07857723	0.107821606	-0.027229076	-0.026268112	
0.005205593	-0.030779613	0.016312579	-0.08628885	0.0715945	-0.008325232	-0.032866176	-0.0176711	0.06396599	-0.012684309	
0.023038406	-0.053293157	-0.052246813	-0.0028919945	-0.06329249	-0.054788657	-0.059805404	-0.05079373	-0.06568416	-0.04127289	
0.07733383	-0.037424304	0.013212828	0.034080114	-0.099757515	-0.07335554	0.054396763	0.03508661	-0.013614145	0.042682335	
-0.00047560065	0.048996765	-0.059864376	-0.038979955	0.019393802	0.008420802	0.058969874	-0.006638314	-0.1018959	-0.11665424	
-0.019317176	-0.08263785	0.08637209	-0.021916876	-0.045627095	-0.09616277	-0.048476264	0.024366982	0.060239427	0.053185068	
0.012556566	-0.03320081	0.03260527	-0.02408407	0.043195818	-0.054104578	0.027471753	0.034707613	0.039689768	-0.033964887	
0.103257604	-0.034731247	0.03933367	0.04556195	-0.01665451	-0.052061524	0.04580904	-0.059237983	0.03948736	-0.067521326	
0.09262986	-0.0045835827	0.039880887	-0.018227736	-0.03543949	0.0049044015	-0.100130424	-0.06326072	-0.08672502	0.0068244534	
0.05458928	-0.050751	0.030225914	-0.0163013	-0.005552526	0.045145847	-0.012165635	-0.049821913	-0.058642134	-0.055224814	
-0.015983805	-0.031566218	0.027064769	0.1005407	0.0130470395	0.015360869	-0.031239737	0.017785568	-0.031117674	0.08181856	
0.082292	0.075726606	-0.03194374	0.021464836	-0.060999427	-0.044153094	-0.05686278	-0.0042444207	0.066626124	-0.060420554	
-0.018448805	0.027377887	-0.028774733	0.037692364	0.02452973	0.022351772	-0.068806596	0.050609328	-0.05045267	-0.032007575	
-0.024680706	0.029509198	-0.054471347	0.033070303	-0.0047688717	-0.08230629	0.051732495	-0.07170734	0.018697184	0.05664275	
0.028913464	0.044836745	0.015811648	0.0003974049	-0.024080222	0.07705456	0.024825156	0.107333854	-0.052520875	-0.06261508	
-0.042010948	-0.08182173	0.004302292	-0.0064169187	-0.0044093034	-0.10265518	0.0059197913	0.019532809	-0.059759952	-0.023787627	
0.07809343	-0.0025486576	-0.018539466	-0.08248864	0.047132123	0.03828647	0.044068668	-0.05481193	0.013066362	0.069561854	
0.15844263	-0.05151075	-0.066376135	-0.057169065	0.114066504	0.07427107	0.004108359	-0.08037821	-0.1444367	-0.0063735833	
0.0010541753	-0.039163016	-0.03413303	-0.049511522	0.116206616	0.09398394	0.08241934	-0.05891501	-0.073789485	-0.025716322	
0.057665855	-0.057563487	-0.017678749	-0.008611704	-0.028107528	0.010952805	0.0025499852	-0.0015145319	-0.052228197	-0.0025303469	
0.07550301	-0.08861608	-0.0014486836	0.095454276	0.03173307	0.03538994	0.0753814	-0.06495488	0.035102595	0.0031480684	
-0.048207138	0.0032209149	-0.036928717	-0.04539296	-0.042327475	-0.036859576	-0.064958856	-0.12731828	0.038441245	0.017879272	
-0.10486746	0.15634002	0.02571092	-0.04316571	-0.07903021	0.030622898	-0.021282384	-0.11694311	0.042134624	-0.045036536	
-0.13283226	0.18000303	-0.012052676	-0.00087490736	-0.11078734	-0.019705145	-0.018901067	-0.0704225	0.06372012	0.10814818	
-0.14938758	0.1124014	0.008142056	-0.059529044	0.052059267	-0.043566737	-0.032897692	-0.026322762	-0.0122009	0.03710915	
-0.08268537	0.057337515	-0.0905769	-0.06551803	0.12988257	-0.08610307	-0.014499933	0.00977481	0.011569233	0.040712748	
-0.112127066	-0.09949371	-0.058204707	0.07317129	0.03156066	-0.0622091	0.04342203	0.039235994	-0.07864449	0.106027745	
-0.033650964	-0.09424468	-0.032827057	-0.001118922	0.10826817	-0.02686859	-0.029918266	0.05416914	-0.0017338503	-0.04241775	
0.023228118	-0.07340555	0.047316317	0.04736938	0.066845104	-0.02846173	-0.017767895	0.066081636	-0.016900755	0.001857191	
0.023015069	-0.027925584	-0.037677903	-0.009419632	0.0023799655	0.015082798	0.028209645	-0.010231331	-0.07171445	-0.05940354	
0.08285507	-0.059557304	-0.028866844	-0.08989485	0.0025087106	-0.048720386	0.0048150173	-0.043661147	-0.12671912	-0.014967859	
0.010689566	-0.03839657	0.05136821	-0.06915968	0.056690864	-0.028273642	0.026678393	-0.024376698	-0.03810832	-0.012600261	
0.12411859	0.009518966	0.030670723	-0.007664894	-0.022039909	0.061865807	0.038011394	0.0089442255	0.003643426	-0.08772662	
0.0028234841	-0.04201192	-0.046430074	-0.038358025	-0.00027943333	0.013083077	0.0721162	-0.05933389	-0.013594791	-0.05524425	
-0.068480134	0.069846354	0.0011885777	-0.026060032	-0.09943368	-0.04960675	0.023903662	0.0299972	0.020884313	-0.097345434	
0.11143986	-0.03835829	-0.014109515	-0.049091157	0.09478818	-0.0719839	-0.012329852	0.038408242	-0.09941169	-0.03958586	
0.027508931	0.03326367	0.044260114	0.026710872	-0.0017372839	0.083232805	0.0675899	-0.011599032	0.024682203	0.010298311	
-0.0043095793	-0.040072963	-0.044183984	-0.0064810095	0.0035063813	-0.06658697	0.004628016	0.07513074	0.057908844	-0.05200361	
-0.065403104	-0.031603172	-0.02649848	0.07551537	-0.08267285	0.07628975	0.005555637	0.055330947	0.0019474224	0.027431823	
-0.049907055	-0.009770085	0.051016446	0.0007760681	-0.015172773	-0.058491506	0.074698634	0.07656326	0.040586982	0.03309625	
-0.040387265	0.09754571	0.012875295	0.04739225	-0.029601606	0.047168963	0.09743365	0.04772651	0.015757574	0.04271089	
0.018560715	-0.0043108584	-0.05862	-0.04025	-0.10298106	0.044651598	-0.03533939	0.08629369	0.04975882	0.09148646	
0.09506868	0.009088452	-0.046107523	0.031312164	0.048951983	-0.024389604	0.018513435	-0.009568045	-0.0231522	-0.06341931	
-0.04777861	0.025444996	-0.07647059	-0.051675174	0.05459615	-0.024631128	0.041973908	-0.093745194	-0.0032002951	0.050518453	
-0.0043086056	-0.087931596	-0.0059528407	-0.04636665	0.031445123	-0.0108514745	-0.03103713	-0.038966205	-0.032423455	0.009358902	
0.029839778	-0.098350964	-0.05061579	-0.043701403	0.06719774	-0.0085408455	0.027462501	0.00025340385	-0.09762581	0.08559954	
0.04392298	-0.011936095	-0.080165036	-0.051721558	0.035659008	0.06222303	0.15278627	0.038512196	-0.0020999226	0.049800765	
-0.016880648	-0.115635976	-0.041503172	-0.06464739	0.11277524	0.12637408	0.015300759	-0.017120358	0.02147709	-0.03432334	
-0.031180823	-0.039210293	0.08155637	0.018765192	0.12016786	0.052412387	0.0060471767	-0.0017837516	-0.014344361	0.14313808	
-0.080976576	0.033947706	0.003316857	-0.029840535	0.11408736	-0.0609399	0.0004113656	-0.16220993	0.10515119	0.01436453	
-0.10842931	0.1539561	-0.030535186	0.012558732	0.014409982	-0.0052492535	-0.04760003	-0.04382123	0.040565442	-0.09682373	
-0.070938945	0.13161089	-0.019675143	-0.060795575	0.037197728	-0.10379489	-0.012541403	-0.04552934	0.026139965	0.008423921	
-0.059921406	-0.029158691	0.00010557092	-0.061122514	0.01876748	0.06479683	0.0026385386	-0.01533169	0.060435917	-0.009427193	
-0.04640623	-0.05460633	-0.111144945	-0.03266532	0.027133698	-0.0667473	0.09683024	0.044413574	-0.038645852	0.08513433	
-0.056094654	-0.10393642	0.044461913	0.035089962	0.029355189	-0.051508803	-0.0456335	0.01835961	-0.034242798	0.040649187	
-0.099364236	-0.04063008	0.057041157	0.057902087	-0.029701369	-0.03525466	-0.020489383	-0.04323963	-0.031629562	-0.00012556126	
-0.0039750426	-0.09755722	-0.09913557	0.107078515	0.04010812	0.03432946	0.022607835	0.0027738581	-0.055447794	-0.029627759	
0.112663135	-0.09116591	-0.053294018	0.04177185	-0.06535629	-0.0136430105	0.047723837	0.017834622	-0.009141574	-0.060148116	
0.049237624	-0.014344317	-0.015026813	-0.017714946	0.0027809206	-0.052371327	0.027156116	0.050227024	-0.04188191	-0.11689857	
0.083113335	-0.027444573	-0.03196856	-0.004617973	-0.051038876	0.004736362	0.018247163	-0.08639493	-0.032077074	-0.054220278	
0.05086919	0.034044005	-0.08519482	0.031410445	0.08721681	-0.058026373	-0.002489788	0.009292155	-0.11722916	-0.04590902	
0.0103870435	-0.053562958	-0.10189466	0.014696732	-0.107554816	0.055354927	0.014172488	-0.020726005	-0.051269542	-0.05669096	
0.0074219815	-0.032650456	-0.058261067	-0.032873996	-0.0026507364	-0.018046709	0.073222205	0.0078590885	0.04163428	0.050365955	
0.02855598	-0.1055277	0.023653597	-0.0654519	0.035121642	-0.02662104	-0.034042083	0.08169004	0.02387671	0.023345267	
-0.055355895	0.033929814	-0.02136086	-0.036441356	0.0580405	0.067974776	0.061474387	0.026156368	0.059237495	0.026242148	
0.05676478	-0.076700784	0.005891799	-0.051272858	-0.10123563	0.011670534	0.03610231	0.042787965	-0.053272806	-0.032700587	
-0.026428765	-0.013594915	0.085296094	0.05408125	0.034417797	0.10135717	-0.002282722	-0.009679509	-0.062292207	0.044785272	
-0.109241374	-0.0378058	0.0807773	-0.073125504	0.07526163	0.035287634	-0.084070005	0.071299836	-0.008984395	0.113553554	
0.06482958	-0.07793435	-0.02263381	-0.037255716	-0.07199856	0.02132752	0.1048015	0.034210466	-0.01827098	-0.02072367	
-0.016802654	0.05916439	0.043321487	-0.033558562	0.011582754	0.022674171	-0.0043338025	-0.03898335	0.010228506	-0.062490504	
-0.013282624	-0.012763747	-0.06407303	0.02798006	-0.029535549	0.023485024	0.04698974	-0.02908244	-0.011715088	-0.07344761	
0.03220644	-0.04327443	-0.016967414	-0.028138148	0.07338965	0.042721793	-0.059498627	-0.068461195	-0.081792295	0.039577812	
0.029653145	-0.05265734	-0.026083395	-0.015688894	0.032092698	-0.130733	-0.04166512	-0.06174074	-0.053724237	0.07785218	
-0.03058478	-0.0357307	-0.01764318	-0.047698576	-0.016171472	0.033174884	0.13139652	-0.07461126	-0.02416204	-0.0020004278	
-0.023150926	0.0060447217	-0.0033951488	-0.06700378	0.05921628	-0.081564516	0.046788324	-0.06647211	-0.01630381	0.010212346	
0.011786432	0.029403668	-0.040401116	-0.05199884	0.06364571	-0.08995734	0.022999303	0.027276149	0.005446427	0.07599531	
-0.014151294	-0.016040849	-0.006779276	-0.07421732	0.10642724	0.018050281	-0.0040799105	-0.017566973	0.060042314	0.04242036	
-0.05562995	-0.005863644	0.036913417	-0.043371074	0.03180225	-0.02690696	0.054600947	-0.08606508	0.043216377	-0.058840107	
-0.17618674	0.077623956	-0.019999407	-0.117353246	0.12773333	-0.021677256	0.0776114	-0.006099526	0.05004395	-0.039528914	
-0.12285937	0.17664868	0.10847978	-0.070430934	0.02679861	-0.06729627	-0.0026779212	-0.0959548	-0.049067743	-0.07698744	
-0.0970648	0.04713266	0.0055902703	-0.0046927705	0.07401775	-0.003827531	-0.07053786	-0.06591743	0.05416685	0.024746187	
-0.025907455	-0.08828537	0.10444683	-0.005294369	0.04177408	0.08270903	-0.05355755	0.06527259	-0.004069127	-0.030644678	
0.012005206	-0.102562144	0.085679494	0.02726865	0.09371133	-0.03350718	0.06967079	0.062300228	-0.03908127	-0.009053338	
0.014136327	-0.08018871	0.030592505	-0.00074807333	0.05405991	0.0133077735	-0.004766507	0.07638749	-0.049973667	0.008545505	
0.047830492	-0.015285525	0.056485735	0.07252906	0.09711322	-0.022070438	0.09810587	-0.034698498	-0.026970796	-0.042560253	
0.07919231	-0.0697086	0.021202406	0.046459682	-0.021798022	0.07131834	0.06744151	-0.012579842	-0.059040967	-0.030857326	
0.027209895	-0.0771997	0.029105816	0.025945809	-0.10957654	-0.011038822	0.09167054	-0.020362211	0.011811176	-0.010329042	
0.027127381	-0.038875416	-0.031151637	-0.050099	0.020861864	0.03631582	0.0651653	-0.0031248177	0.03554487	-0.0454527	
-0.044839155	0.060022056	0.019156514	-0.03265223	-0.016516114	-0.067820944	0.05617951	0.012006233	0.07097922	-0.00044737256	
-0.017584004	-0.015557654	0.04451052	0.04230615	-0.03044894	-0.0652608	0.05577051	-0.060964264	-0.026229898	0.023972515	
-0.05006768	-0.06902358	-0.016738392	-0.021092113	-0.06737052	0.09550515	0.016150273	-0.07183169	-0.016996868	-0.0299774	
0.025786202	0.014794171	0.022536986	-0.014536522	0.018576734	0.030755041	0.08807591	-0.00028860095	-0.040124457	0.007910901	
0.083489835	0.01533039	-0.0354861	0.015128684	-0.07058827	0.06076224	0.06535518	0.02343971	-0.07508967	0.0992804	
0.062349092	-0.013425781	-0.070837945	0.054692708	0.07715699	0.03336298	0.0025144692	0.0031121247	-0.028785393	0.06149856	
0.0050290367	0.070423685	0.03142247	-0.026265407	-0.0043613827	0.10925141	0.00044627656	0.08687128	-0.05731105	-0.072240844	
-0.056438368	0.009471984	-0.004778124	-0.02440644	-0.008903453	-0.0054266714	-0.017272448	0.016538858	0.0619961	-0.05517575	
0.052385665	-0.067405045	-0.04873976	-0.038132824	0.028585136	0.10147055	0.100392014	-0.036635738	0.0132663725	-0.060498007	
0.009232833	-0.0198234	0.02092271	-0.07758217	0.03115244	-0.06996307	-0.061808012	-0.0023099175	-0.059382215	0.07332813	
0.020407908	-0.023632057	-0.0063195745	0.012185378	0.048668254	-0.056071077	-0.039427757	-0.04403041	0.029011413	-0.027780049	
0.060546312	-0.015693255	0.09406863	0.060456514	0.05830134	0.007490698	0.044483237	0.013965775	0.072140165	0.033533685	
0.04417487	-0.08004355	-0.0060533728	-0.051836774	0.0679394	0.012898237	-0.0154518355	-0.0051496085	-0.021022176	-0.04260299	
0.020525679	-0.13109781	0.02956939	-0.031407904	-0.044287052	-0.04340105	0.057538908	-0.018927412	-0.06790653	0.0011154423	
0.02242529	-0.09695969	-0.036322597	-0.004033273	0.058156848	-0.09346407	0.05261663	-0.062738195	-0.05539194	-0.036289636	
-0.022197427	-0.068789504	0.09131741	-0.07319655	0.010452822	-0.025120895	0.13251191	-0.124792635	0.024526369	-0.0032406598	
0.025510969	0.092673935	0.09762032	-0.16343783	-0.031403903	0.023071142	0.06857159	-0.051068686	0.0370901	-0.06156114	
-0.090133935	0.070663825	0.12874262	-0.0842155	0.053466108	-0.11975449	-0.012761556	-0.1218848	0.034572713	-0.06914169	
0.0056661917	0.18082815	0.08528319	-0.13579658	0.088546224	-0.02068539	-0.0018245247	-0.0897445	-0.0145865055	-0.019301023	
-0.026109517	0.15140563	0.081259914	-0.014219116	-0.0148934275	-0.02436918	0.024022607	-0.075779594	0.058417168	-0.034872912	
-0.019988028	-0.03813278	-0.0025976407	0.023569824	-0.03758841	0.0051357895	-0.004439899	0.05534533	-0.10350599	0.0762135	
-0.09667557	0.0069925524	-0.05018219	-0.012393373	0.053083993	-0.029942263	-0.004846554	0.15082452	-0.09786528	0.041536286	
0.035429113	0.014648744	0.07039368	-0.0025848602	0.041690253	0.093103535	0.04425789	0.079412766	-0.047314513	0.13960262	
-0.04020544	-0.15539208	0.07528999	0.022245146	0.12228388	-0.0357309	0.11060447	-0.042333115	-0.065874055	0.029598854	
-0.036299895	-0.06940179	-0.017204052	0.07543333	-0.054562513	0.010836655	-0.03573736	-0.06108619	-0.010957514	-0.048974503	
-0.0069783796	-0.017954536	0.033266123	0.05198648	-0.0067715067	0.03079385	-0.0018517158	-0.072656944	0.023853702	-0.041222885	
0.10102245	0.0064358735	-0.036125045	0.031404566	0.033032626	0.066356905	-0.023602858	0.010610184	-0.02201518	-0.025522998	
0.045158558	-0.081055135	-0.026886687	0.03688042	-0.033830024	-0.029620767	0.087841325	-0.02718363	0.0035168563	-0.06158499	
0.08693264	0.015081568	-0.014371325	-0.0063877786	-0.06617994	-0.0002631103	-0.010406452	-0.014476324	0.08445802	0.0576949	
0.028559895	0.002168342	0.049147006	-0.01655911	0.00078760186	-0.083399504	-0.10334802	-0.07457518	0.010856225	-0.04873473	
0.080145724	-0.07976212	0.027424868	-0.08787716	-0.05821048	-0.05858525	0.05420297	0.010853004	-0.03338518	-0.0052352683	
-0.095525794	0.03756414	0.095179126	0.081508376	0.041770745	-0.040388767	0.104367025	0.034359675	0.027020222	0.078521885	
-0.077227704	-0.10315317	-0.084381014	-0.007242213	-0.057584092	0.058441926	-0.014741729	0.025887838	-0.031781513	0.11307958	
-0.03456681	-0.014556927	-0.030272573	-0.056645606	-0.025623038	-0.031241508	0.08547336	0.04596671	0.05042793	0.025277002	
0.032660916	-0.061775245	0.031978656	0.032545544	0.032960318	-0.059732452	0.027379675	-0.08605453	0.035502896	-0.012589697	
-0.03707012	0.014187156	0.054954983	-0.052070584	-0.034770615	0.059034396	-0.01777702	0.08383555	-0.040243782	-0.0027222761	
0.019883744	-0.06513195	0.0431189	0.08247416	-0.01066195	0.042250067	0.10015692	0.052650645	-0.014101868	-0.07346636	
0.0043900176	-0.080126636	-0.046390478	0.07228091	-0.009097526	-0.037020598	-0.065649025	-0.010696099	-0.09006557	0.05823138	
-0.007958552	0.044101253	-0.060639996	-0.06322765	-0.054260474	0.032898493	0.08390402	-0.0147782015	-0.06344547	-0.052329596	
0.0644751	-0.017839571	0.11864526	-0.032854214	0.046053022	0.047228713	0.010127275	-0.02078679	-0.018935977	-0.062372774	
0.14373906	-0.03583359	0.0032584707	-0.030165184	0.020979887	-0.0005718014	-0.009608977	-0.062466573	0.055797894	-0.050344136	
0.042031407	-0.018471092	0.0014995695	-0.11563572	-0.044201013	-0.03366432	0.071293	-0.0028880974	0.012602377	-0.07218253	
-0.031007033	0.008040618	0.06118865	-0.10768552	0.0066457773	-0.12796791	0.057495937	-0.04490442	-0.018837247	-0.047016796	
0.0037706052	-0.025373783	-0.04221375	0.0015062992	-0.0789553	-0.054820873	0.030023238	-0.11839734	0.033620674	0.019625904	
-0.03991115	0.0064096116	0.13681878	0.03780935	-0.077111274	-0.06568032	0.09210372	-0.01632744	0.11652531	-0.025096016	
-0.11523794	0.07772846	-0.068812266	-0.034038655	-0.0925669	-0.020688727	-0.0015031223	0.01988784	0.058737084	0.029023338	
-0.03972936	0.11511526	0.04552003	-0.1820251	0.048267778	-0.09555625	0.019683493	0.020912457	-0.054097466	-0.039857592	
-0.13677728	0.08534087	0.04551372	-0.060361244	0.07855717	-0.09147579	0.047167193	0.05726399	0.03608309	0.011065534	
-0.07382552	0.074128896	-0.061529674	0.0058500892	0.07348138	0.029995365	-0.005310683	-0.030654594	-0.06385177	0.12171024	
-0.10467137	-0.014080406	0.062689595	-0.11273043	-0.056796864	0.068519056	0.109890394	0.07166951	0.059468158	0.11492745	
0.03131663	-0.016221793	0.10046288	0.06988639	0.03019355	0.05358001	0.072763935	-0.08411514	0.05504636	-0.020917056	
0.04638693	-0.09383262	0.050040532	0.1297038	-0.035496414	0.031132188	0.15349069	0.04149329	0.05246747	0.0543157	
0.08416004	-0.13865979	-0.05430323	0.0629757	0.03382923	0.07354994	0.08451618	0.06707902	0.0076895915	0.013528743	
-0.048639707	0.019869031	0.0006702072	-0.057974722	0.06429844	-0.051430836	0.053212278	0.013211067	-0.00023007792	-0.008718885	
-0.025796935	-0.083574004	0.03860578	0.043956853	-0.07706493	0.009270382	0.10517647	0.01527319	0.06874342	-0.0014488943	
0.10220648	-0.09246365	0.06682011	-0.0697068	-0.012399394	0.027217947	0.0075498354	0.037594892	-0.066729315	0.033669714	
-0.013631036	-0.022616092	0.06365116	-0.01751764	0.00028170025	-0.06976366	-0.08889116	0.0035817823	-0.019824516	0.0455499	
0.04399994	-0.022882473	-0.023042597	0.029627468	0.008037745	-0.08872769	0.10007383	0.0016094298	-0.02570266	-0.025076738	
0.03591784	0.062009003	0.013043308	-0.019276682	-0.10978281	0.012454438	0.059608217	-0.03243774	-0.0020638583	-0.022263695	
-0.004818361	0.054087956	0.026924742	-0.0034631693	-0.02916716	-0.03347969	0.033182614	-0.05162596	0.11058488	0.018586	
0.037458304	0.051086936	0.03307392	0.0013631524	0.0043718247	0.02804652	-0.045377854	-0.009028559	0.037075657	0.04716639	
0.015335362	0.017602528	0.051140122	-0.04153284	-0.012118853	0.06007761	-0.058234535	-0.009886822	-0.014863954	0.08568669	
0.026068842	-0.07175792	0.021976445	0.013531722	-0.006064981	0.03553167	0.028885042	-0.058188606	0.058616042	0.012504875	
0.05389222	0.021258634	-0.017411979	0.04185908	-0.0018227915	0.005384239	0.042348433	-0.020654678	0.045972247	-0.034787506	
0.07451322	-0.05611037	-0.015302299	0.038493842	-0.051891766	-0.050135862	0.032241773	0.047543563	0.011803598	-0.017061003	
0.07510796	-0.03649561	0.04094247	0.07011534	-0.007950207	0.081485994	-0.06759576	-0.041732818	-0.089764014	-0.08226707	
0.022849198	-0.011627869	-0.045406565	0.022942474	0.06627052	0.0122975595	-0.12137566	0.010681387	-0.02584868	-0.12659127	
0.09237034	-0.0011269128	0.054387122	-0.065936424	0.024601094	0.13399866	-0.02499269	-0.03198655	0.037042312	-0.054076985	
0.13068436	-0.03785747	0.082398035	-0.0012275879	0.06808106	0.100382626	-0.0034916617	-0.025850875	0.08860116	0.0013004128	
0.042835023	-0.022549558	0.08307424	-0.061838925	0.0022274025	0.06196269	-0.051029243	-0.08044857	-0.034269508	-0.057985388	
-0.031600557	-0.027993565	0.034529287	0.06702034	-0.036704015	-0.1088256	0.04531407	-0.08512394	-0.0044682636	-0.08033199	
-0.030680614	-0.024281945	0.06163651	0.028782208	-0.007903608	0.040433686	0.038607296	0.027871037	0.13230236	-0.017954042	
-0.07483946	0.10243072	-0.050150722	-0.03207594	-0.098454244	0.018168325	0.09714088	-0.009149845	-0.030081805	-0.08984791	
-0.025649348	0.0844617	-0.031200169	-0.09075262	-0.019610995	-0.0019319245	0.119473346	-0.048193347	0.057738494	-0.072126776	
-0.06315178	0.19916072	0.09655531	-0.0033885653	0.045094285	-0.046006866	0.05663447	0.022870354	-0.13614905	-0.046127357	
-0.0065796506	0.0855542	0.0016794021	-0.000927068	0.081675254	0.052514102	-0.040386677	0.0909693	-0.03431858	-0.023727898	
-0.004325657	0.07013971	0.044116892	0.06401631	0.031615734	-0.036520675	0.056963738	-0.036351517	-0.092491545	-0.039651316	
-0.0028504624	-0.09215677	-0.005383902	0.046839267	0.086547315	-0.060588002	-0.06028828	-0.094560795	0.020379478	-0.029105213	
0.089018084	-0.1416396	0.08329892	-0.07903541	0.018150263	0.099049576	-0.048265304	-0.015951836	-0.0137414755	-0.070817314	
0.0044366964	0.011841755	-0.0057330807	0.088292055	-0.055655103	0.034489293	0.019872647	-0.01867152	-0.041720077	-0.022920702	
0.0289175	-0.02793921	0.031703535	0.036864188	0.03664745	-0.03962324	0.073963545	0.064994514	-0.10429432	-0.03403729	
0.01793342	-0.049513344	0.06851344	-0.019405965	0.0059761493	0.0036566402	-0.04264857	-0.010228155	-0.03401193	0.006328683	
-0.02075844	-0.06100489	-0.0618437	-0.04582311	-0.069019325	-0.020122789	0.017431092	-0.0021209319	0.015617686	-0.030161748	
-0.0686487	-0.060077738	0.028622082	0.06075938	-0.0109415045	-0.09039063	0.01850978	0.0061549353	-0.008810381	-0.0748621	
0.03652979	-0.048897002	0.04481445	-0.002690477	0.04782992	0.08366253	0.027539277	0.053849243	-0.006088417	-0.038793925	
0.0028346283	0.059883237	0.0775891	-0.028807184	0.044843793	-0.006221497	0.020529702	0.0119013665	0.05541422	-0.055389717	
-0.05529918	-0.027691167	0.06347927	-0.011722989	0.008721231	-0.023639642	0.03294202	-0.1009342	-0.08950712	0.017357368	
0.03294613	0.016499573	-0.020933459	-0.008791379	-0.011175088	-0.0117409	-0.06417384	0.030209908	-0.055803183	-0.081902705	
-0.07350525	0.038903523	0.058558814	-0.030677866	0.06368067	-0.028769458	0.09563382	0.09835887	-0.054857366	0.019921103	
0.036092497	-0.06687852	-0.015954707	0.04649179	-0.04330338	-0.05808449	-0.023737144	0.004279535	0.08607207	0.10661435	
0.03441623	0.07497882	0.024065772	0.07409391	0.07101831	0.010622063	0.052185055	-0.012145939	-0.035417695	0.024552455	
-0.09095574	0.063526034	-0.053430963	0.05371157	0.08728511	0.021149484	0.03195998	-0.011308446	-0.07906458	0.021938646	
-0.04615728	-0.0105643	-0.025567353	0.119324505	-0.023073956	-0.07472242	-0.023357144	-0.10189763	-0.008460379	0.020605458	
0.0062656906	0.0063824956	-0.025996918	0.023103809	-0.084578246	-0.10545435	-0.039944865	0.01377885	-0.11850176	0.08160603	
0.006619751	0.005166158	-0.04066627	-0.044963583	-0.005381158	0.008474994	0.0709429	-0.06588697	-0.011809245	0.005913013	
0.035450216	-0.03061224	0.13456099	0.10479778	-0.07349209	0.13104391	0.0050787632	0.048540868	0.01742268	0.075367756	
0.07990557	-0.05054698	0.02385162	0.044380292	-0.113267936	-0.0349359	0.0059251506	-0.07940673	0.03803925	-0.030918438	
0.11939207	0.07197657	0.07534566	0.01911973	0.046272807	0.033088334	0.04675408	0.004205455	-0.06853	0.032534905	
-0.03624943	-0.0018549412	0.037853573	-0.025966581	-0.085000336	0.076849684	0.047620274	0.009258895	0.005625966	0.036095988	
0.05257888	0.008779271	0.04159245	-0.034546304	-0.0710816	0.03562761	0.033033103	0.040340986	0.057187807	-0.10019267	
-0.020976467	0.08169983	0.10914855	-0.07552968	-0.015705498	-0.0015309897	0.059461847	-0.077886425	0.013938009	-0.06309635	
0.06846379	0.10405398	0.042372294	-0.110806264	-0.046134192	-0.04159729	0.09224762	0.002583197	-0.09939382	-0.082992956	
-0.06598907	-0.010958839	-0.035481934	0.06528836	-0.024232782	-0.081805736	0.14363538	0.006473914	0.0073316167	0.07763442	
0.03155663	0.043497074	0.028726902	-0.019540232	-0.07985232	-0.06856521	0.051570956	0.11319776	-0.02552561	-0.07407704	
0.0109029235	-0.09361441	0.03000903	-0.007800908	-0.049341638	0.0009326746	0.0014609102	0.0949139	-0.0048278966	-0.08583127	
0.030431353	-0.03400335	-0.030852685	-0.022413725	-0.06049446	-0.04816329	0.11391281	-0.035496175	-0.06710406	0.025246518	
-0.06878351	-0.040302273	0.012949483	-0.009809882	-0.033801626	0.07642289	-0.03209379	-0.043005157	0.018108878	-0.03292001	
0.10237617	-0.040113755	-0.052557237	0.073421314	0.03591153	0.02762707	-0.029045869	-0.050716896	-0.024811994	0.03642464	
-0.036977146	0.020636939	0.01733401	0.022678012	0.071389966	0.10541509	0.07842888	-0.12255601	-0.10048143	-0.022275036	
-0.001436887	-0.10321585	0.09988204	-0.04551006	-0.1077824	-0.016263535	-0.010006596	-0.06244157	-0.019107278	-0.01881673	
-0.0134226745	-0.001404674	0.08892455	0.033228897	0.106627695	0.098927535	-0.049960546	0.03376823	-0.013267457	-0.014338083	
0.09906498	-0.08923602	-0.05680828	-0.0057602697	-0.022578616	0.02991059	-0.11145577	-0.09265217	0.07978687	-0.09145275	
0.11434525	-0.0141979195	-0.036243305	-0.0061580865	0.02441781	-0.010675899	-0.07722345	0.053687625	0.009868319	0.01604916	
-0.03999279	-0.036096655	-0.08644036	0.037705496	-0.047742866	0.009291235	-0.10390113	0.015207627	0.109667145	0.030588502	
0.041822135	-0.007310244	-0.008903127	0.035615563	-0.046484396	-0.06953754	-0.039749928	0.02567419	0.04805693	0.024786197	
-0.014115769	0.0076076407	0.012111496	0.09153848	0.00055182556	0.060297545	0.015241392	0.01567355	0.092367806	0.07470261	
0.0738978	0.038551215	-0.019788621	-0.018491002	-0.021329239	-0.007733355	-0.04985997	0.0043585165	0.03544788	0.048916496	
-0.071160875	-0.019588122	-0.0074469144	-0.009511717	-0.043473773	0.006405827	-0.042771976	-0.053887386	0.012987612	-0.0009242476	
0.026847947	0.060742795	0.09280612	0.090002336	0.048259236	-0.0036718068	0.02535164	-0.010551318	-0.05719033	0.036690008	
0.035022043	-0.06575445	-0.07399201	-0.012688911	0.048947826	0.028154949	-0.108346954	0.007752618	-0.023573399	-0.0054731695	
-0.056143433	-0.0044674026	0.036253475	-0.053490642	0.053542115	-0.08351125	0.024304872	0.022473056	0.0791614	0.008768904	
-0.034148466	0.09267567	-0.017239194	0.08387056	-0.06672177	0.01591974	-0.032738872	0.05467874	-0.035403863	0.08668913	
0.10160787	0.021400342	-0.021146093	0.096528836	-0.020815523	-0.017369974	0.035000157	-0.061580624	-0.012367978	0.019929715	
-0.05097246	-0.032126054	0.025949271	0.05993135	0.04217188	0.016729569	0.015165083	-0.0023841748	-0.02212329	-0.11762336	
0.07125522	-0.09511482	0.1030825	-0.022594672	0.027594313	0.0786217	-0.111528546	-0.030292816	0.050295115	-0.10002073	
0.023005877	-0.038649026	0.035373222	0.051127393	-0.013069993	0.077827804	0.045267317	-0.012599465	-0.05951447	-0.08244796	
0.06474788	0.03425799	0.11589744	0.040154673	-0.14877492	0.10721478	0.0038981026	-0.11308366	0.050059322	-0.004388442	
0.095437445	-0.06433402	-0.024151765	0.016916644	-0.07437783	0.09409335	-0.038051635	-0.053980723	-0.08918942	-0.05639744	
-0.02004409	-0.04916848	0.070804365	-0.061518442	-0.046332654	0.057012655	0.079607196	0.02394762	-0.020111822	-0.005958411	
0.025957238	0.01901248	0.0103162695	-0.08868251	0.003503532	-0.05837999	0.07006927	-0.09061356	0.07283885	-0.04244973	
-0.08730136	0.10706995	-0.10875725	-0.015554434	-0.005003674	-0.022661885	-0.012983632	0.06768009	-0.001333769	-0.04559882	
-0.049199797	0.08076711	-0.072694674	0.02092313	0.026392216	0.04997696	-0.014467029	-0.014850333	-0.019549903	0.09425952	
0.0069459095	0.052469272	0.04051582	0.1032535	0.008376853	-0.012048659	-0.02099595	0.042573582	-0.036091466	-0.045993585	
0.0086838575	-0.118448704	0.053192344	-0.030214425	0.0385207	-0.045813374	0.012316531	0.0031111327	0.02446045	0.03556057	
0.04886459	-0.064535856	-0.024565378	0.04174177	-0.013060698	0.02059224	-0.017791165	0.015372737	0.031809106	0.018313177	
0.04305452	0.05250208	0.06462506	0.12230215	0.011894066	0.08589171	-0.0593377	-0.05167896	-0.021965943	-0.011366587	
-0.098255016	-0.012086727	-0.06806476	0.060223706	0.015500529	0.06257348	-0.014078337	-0.02866868	-0.03712687	0.0517134	
-0.08073493	0.014879833	0.035271246	0.039958373	0.0216191	0.001173954	-0.10019832	0.06977752	-0.0008557096	-0.016860725	
-0.071931876	0.07682413	0.06260526	-0.034577888	-0.029265447	-0.01350659	0.003093157	-0.027821261	-0.06838826	-0.015007207	
-0.053345274	0.05573087	-0.03423249	-0.00542416	-0.03833834	-0.043608733	-0.079445586	0.050302226	0.00410992	-0.0042940252	
0.014714024	-0.10151204	0.10290186	0.032710668	-0.08143671	0.05546034	0.015426075	-0.018934088	-0.08876258	0.071731456	
-0.03611789	0.08716181	0.06129691	-0.013409248	0.03449042	0.055284068	-0.024319548	-0.08644176	-0.047148786	-0.06925337	
0.07070929	-0.0026087228	0.026949806	0.090949096	0.03530903	0.020510873	-0.013987511	0.016583415	0.01784267	-0.025731614	
0.007377602	-0.07342905	-0.056245252	0.007752487	-0.05256541	-0.043309674	-0.079819165	0.015125981	0.04353411	0.038036145	
-0.03737499	-0.049139228	-0.109687164	0.021860939	-0.012813714	0.072052725	0.04372354	-0.058549818	0.047317866	-0.072743155	
-0.019785337	-0.05417783	-0.0076092808	0.0019596892	0.0025848926	0.10951279	0.10157524	-0.036467567	-2.542858e-05	0.04083926	
-0.055187006	0.107662275	0.018583832	0.05637014	0.042625595	-0.04508269	-0.008191391	0.02016822	0.032133464	-0.022159936	
0.021610212	0.06957857	0.026905166	-0.053026486	0.02549368	0.041507486	0.0017910134	-0.10444082	0.10622293	0.031403862	
0.038360354	0.07421406	-0.0025160692	0.009784565	-0.059402958	-0.06826236	0.11190129	-0.026868979	-0.0032479777	-0.008933294	
-0.029883074	0.042152375	-0.017172785	-0.0069640223	-0.0209412	0.06267544	-0.026228562	0.03702358	-0.03583085	0.05438309	
0.08785855	-0.038127977	0.04275688	0.042150997	-0.039630875	0.05601716	-0.09209016	0.017684914	-0.044759165	-0.09142453	
0.058329277	-0.0044620684	0.08179624	0.0059125684	-0.12579161	-0.074046254	-0.08695294	0.010509358	0.033461545	-0.006467483	
0.06937719	-0.042280287	0.06421859	0.056012236	-0.047511935	0.082571015	-0.10965641	0.020471508	0.060404032	-0.008766851	
0.061513785	-0.02022058	0.092246324	0.1668598	-0.052049156	-0.007790001	-0.080065876	-0.0197868	0.0883354	-0.06212655	
0.03769938	-0.007890238	-0.07435225	0.07353749	0.04275088	-0.030566826	-0.0068707173	-0.057313632	0.029728549	-0.10363818	
0.09035789	0.09001855	-0.019271169	0.056273505	-0.06496639	0.09148321	-0.047786325	0.0012442317	0.03574411	-0.009441119	
0.057957828	-0.046512697	0.029225083	0.010870798	-0.002177649	0.07356259	0.047127675	-0.028149929	0.029161131	0.017755948	
0.046600245	-0.03446407	-0.039881542	0.09189233	-0.040220097	0.026116148	0.027101008	-0.07144244	0.11051638	0.048071444	
0.052209053	-0.0150529025	-0.09190078	0.011460445	-0.07142881	0.11156012	-0.031562783	0.008230176	-0.015721513	-0.037034336	
-0.059605166	0.05645004	-0.051362395	0.017275235	-0.031653058	0.07059319	0.009297957	0.003541963	0.11189724	0.021883205	
-0.014887364	-0.017258165	-0.0443708	0.02826926	0.04059673	-0.031515706	0.014841813	0.066173196	0.056152053	0.056501098	
0.010984282	-0.10308592	0.0010532528	0.05193632	-0.053699747	-0.029074885	0.028638918	0.02278306	-0.007388912	-0.04940652	
0.03730805	0.031378847	-0.08745824	0.012960054	0.06717717	0.035245154	-0.065103	-0.012390379	-0.0135616055	-0.0939048	
-0.035270106	-0.034354568	0.09127232	-0.018896306	0.04892526	0.056354493	-0.05045357	0.007940941	0.05651567	-0.02410249	
-0.03722848	0.005365632	0.048651494	0.082225844	-0.026362116	-0.013867745	0.017041307	-0.03427605	-0.044885755	0.03009376	
-0.03708762	0.003767006	0.03614387	0.070929766	-0.05213698	-0.022760985	0.04850563	0.06126791	0.013711211	0.019645996	
0.026955131	0.0411248	0.033340544	-0.031787578	-0.09808266	-0.013153344	0.076508775	-0.035317283	0.037438557	0.02977911	
0.020884808	-0.09595756	-0.048530914	-0.01582771	0.0036669418	0.054002557	-0.082040116	-0.039510556	-0.019729055	-0.05553268	
-0.088827744	0.008778219	0.11809448	0.055383272	-0.035749756	-0.041207287	0.0803208	-0.06169219	0.07663552	-0.048166208	
-0.015951997	0.021022378	0.10710432	-0.07646025	-0.067018315	0.027906042	-0.05827595	0.0074079153	-0.0050430563	-0.055601377	
-0.019217495	-0.053462446	0.043573994	-0.001568928	0.028957045	-0.017666684	-0.06494568	-0.057247482	0.005200447	0.031393185	
0.11397819	0.08575946	-0.044698063	0.0012283149	0.033566702	-0.014691052	-0.021834178	0.0334271	0.02916973	0.028499018	
-0.10277998	0.011625248	-0.031525318	-0.012382317	0.0034100977	-0.07786533	-0.058250636	-0.007411855	0.022613807	-0.0075073573	
0.057626206	-0.094907604	0.027360743	-0.06725972	0.022363478	-0.039417416	0.066322215	0.08104581	0.042964216	-0.029549856	
-0.029646145	-0.058085777	-0.09508442	-0.080071114	-0.07024904	-0.015783407	0.001299444	-0.00913276	0.082917675	0.0239281	
0.020669209	0.04889541	0.016544104	-0.031544115	0.018198494	0.06676261	-0.029485315	0.011739868	-0.025854118	-0.037937503	
-0.013485994	-0.08035981	-0.024839042	-0.043772567	0.0673371	-0.057680834	0.046250686	0.04039055	-0.0070819166	-0.04090833	
0.029754208	0.043789577	-0.045711163	0.056605607	0.08001885	0.061431117	-0.000642318	-0.008145646	-0.012642939	0.026579397	
-0.05576631	-0.0053028003	0.030724665	0.036385275	0.020422406	0.033005416	-0.029926067	0.024763782	0.0011862584	0.022116132	
-0.028053036	-0.013489274	0.008084606	0.040069513	-0.058631152	0.014463081	-0.04994032	-0.027301302	0.005824454	-0.030569004	
0.041815706	-0.0048391973	-0.10197566	0.044306062	0.031405576	-0.05316417	-0.014519739	-0.055078212	0.007091508	0.06914652	
0.023199681	0.06822763	0.089278996	0.104170725	-0.078514256	0.0034035728	-0.0032358693	-0.017010432	-0.049995583	-0.129927	
-0.015874816	0.027067786	0.045844834	0.04471371	0.038058463	-0.019948345	-0.0065083853	-0.09945154	0.051168073	-0.0761045	
-0.0034002673	0.033322465	-0.10582364	0.005718808	0.06431811	0.02641989	0.032368656	0.010364219	0.12260377	-0.0016700168	
0.06521703	-0.031074526	-0.03261876	0.030563872	0.051544808	0.03371324	-0.10437116	0.028081547	0.017048908	-0.013481071	
-0.0098139495	0.08080815	-0.09914174	0.0699853	-0.06265075	0.087545134	-0.11761483	-0.072993286	0.036106355	-0.014247527	
0.004973558	0.06898243	-0.0059415065	0.045066986	0.010892124	0.05499272	-0.06788479	0.07845469	0.13174517	0.05992264	
0.045199662	-0.002447809	-0.079718746	0.08150079	-0.0053609908	0.049449213	-0.13140367	-0.007654461	0.027491428	-0.03306918	
-0.016159331	0.03232861	0.015924763	-0.023774624	-0.007957542	0.0017529291	0.0005145698	-0.097518615	0.022177335	-0.04748834	
-0.020389022	0.0074636526	-0.055438694	0.043497592	-0.019630462	-0.029650891	-0.07517364	0.03580437	-0.021481184	-0.015848918	
0.0546203	-0.056292813	-0.035861153	0.06117409	-0.0002680677	-0.039392184	-0.02344736	-0.0021203093	-0.037394058	0.1022056	
-0.015970638	-0.03561895	-0.05359977	0.05681497	-0.019828504	0.040907804	0.048767433	-0.103734985	0.057885725	0.052053228	
0.09536252	-0.05723054	0.10532479	0.038084883	0.08134964	0.025372125	0.016402708	0.006982688	-0.07027563	0.046996377	
-0.05169877	-0.057519834	0.0029144473	0.0011630155	0.0721044	0.04496113	-0.04638592	-0.08129786	-0.07178188	0.036758646	
0.025403997	0.10231365	0.046239283	-0.034713555	0.04112774	-0.07559769	0.03561675	-0.030190498	-0.01340092	-0.09289789	
0.015525102	0.08813049	-0.06519423	0.036436815	-0.018755004	0.068518944	0.007954532	0.026657104	0.03858084	-0.013808858	
-0.005834352	-0.0064650527	-0.0077922787	-0.050935764	0.013289328	0.017773705	-0.0025267648	0.06823811	-0.023415895	0.014930942	
-0.07123267	-0.068514064	-0.0026985735	0.048321746	0.05118722	-0.0106955655	-0.049102794	0.020069957	0.021578033	-0.008651184	
-0.06402108	0.09472079	-0.02150256	0.04262155	0.00516908	0.0057260166	0.10857192	-0.11274569	-0.016030548	-0.0107886875	
0.068943806	0.10622212	0.07124286	-0.01645412	-0.086796254	0.0069683767	-0.0520373	-0.0016555812	-0.0023107862	-0.04145589	
-0.04883961	0.02457608	-0.10190608	0.03171099	-0.030946318	-0.058367714	-0.07856083	0.046527684	-0.10706559	0.035430003	
-0.015216859	0.08033641	0.060815718	-0.06283163	0.014791555	0.019129643	-0.04721988	-0.0039690044	-0.080366485	-0.0017030032	
-0.00232095	-0.05836992	-0.008883538	0.029545827	-0.09765029	0.03616547	0.015301015	-0.080856875	-0.03342303	-0.08764173	
-0.02836108	-0.016245134	0.020524062	0.038447473	0.024369052	-0.06686579	-0.020566633	-0.06484429	-0.02837453	-0.09160017	
-0.031225204	0.02052497	-0.004013293	-0.02545347	0.05336337	-0.018172646	-0.022893416	-0.09736305	0.013684755	0.028559064	
-0.0292885	-0.028241092	-0.0036836509	-0.02287862	-0.112415455	-0.015601994	-0.03185646	0.02995436	-0.08289096	-0.033015825	
-0.01907759	-0.023336977	0.07072834	-0.0041102106	-0.0022950473	-0.014136065	0.023022888	-0.05258561	-0.02128382	0.07517509	
0.08659656	0.0016999382	0.020344079	0.0098460475	0.013858764	-0.03976429	-0.04306908	-0.026978958	0.0048567276	-0.028117312	
-0.03660925	0.03319775	-0.019998219	0.013828576	-0.048064392	0.037726298	0.046559855	0.0064118197	0.031324618	-0.043579902	
-0.0043417583	0.03173607	0.0011918641	-0.10226464	-0.0014023199	0.0010979321	0.06902847	-0.003460987	-0.0023548857	0.0053926054	
-0.043910876	0.092877686	-0.11089244	0.05380484	0.02656203	-0.01796733	0.019744448	0.0015142191	0.031002674	0.056600265	
0.02937735	-0.049666956	-0.07754726	0.0076517807	-0.015496772	-0.011650942	-0.09801466	0.081164956	-0.026375197	0.07768875	
-0.00045233453	0.010990966	-0.09736088	-0.017829033	-0.0047168303	0.018473934	-0.0017683745	0.06495835	0.081930615	-0.059471063	
0.06759	-0.11962953	-0.0004568518	0.039896607	0.0873679	0.048017662	-0.020196874	-0.01016831	0.11302308	-0.034168985	
0.035930827	-0.07627845	0.019146424	0.04932295	0.04549468	0.013372879	-0.051122192	0.09563915	0.041614544	0.02120118	
-0.043471392	-0.017205197	-0.06260314	-0.02399062	-0.001977549	0.008115038	-0.007251027	-0.027743462	0.020961376	0.111161	
-0.027967926	0.03400695	0.07010114	0.0013759021	0.065362565	0.1066339	0.003982149	0.046868958	0.036415618	0.04851556	
0.040308665	-0.04335756	-0.034903973	-0.026826018	0.030264355	-0.037788052	0.025395477	-0.020931	0.076788805	0.06495506	
0.06170865	0.08503762	0.049600814	0.00751839	0.03752304	0.018945744	-0.055970527	-0.008596672	-0.0023950008	0.0862983	
-0.04517295	-0.05048115	-0.09259784	-0.0026694213	0.009679503	-0.027081553	-0.024362944	0.037749544	0.01873913	0.0299158	
0.008858285	0.08160817	0.008392831	-0.06646221	-0.058957268	0.0033678892	0.06949938	0.06493434	-0.0012755123	0.033063956	
0.01303231	0.031478688	-0.0898428	-0.051790338	-0.01759322	-0.042184044	-0.07077914	0.023444334	0.052116107	-0.058304146	
0.027304485	0.036631428	0.03843574	0.059455212	-0.013543093	0.008450954	-0.02836779	0.021428183	0.0010502782	-0.022632737	
0.059705105	0.0660376	0.02309482	0.058959458	-0.068754844	0.03275346	0.08590133	-0.00047799252	0.027949054	-0.02846887	
0.0344283	0.027840454	-0.029136034	-0.009170192	0.019482339	0.052123547	0.07871722	-0.016692754	-0.022147335	-0.009494961	
-0.03751996	0.01795088	0.062317174	-0.06741405	0.028649818	0.08560489	-0.038203586	-0.09184224	0.032223806	-0.01755874	
-0.034838416	-0.026068006	-0.023873648	0.04058505	0.03488066	0.006460998	-0.06856696	-0.09223869	-0.05158541	-0.028164983	
-0.013507985	-0.062085614	0.101317964	-0.054997083	-0.014005963	-0.08307392	0.027202915	0.032325562	-0.112167545	-0.038904987	
-0.0126519725	-0.028921468	-0.013717953	-0.02455939	-0.033090487	0.10584258	-0.064299956	0.055882208	0.03480261	0.00894448	
-0.007958148	0.040626578	0.0055519943	-0.061285224	-0.016815275	-0.00059533125	0.061866008	0.036662128	0.05841574	0.05300402	
-6.8264504e-05	0.024278374	-0.09177039	0.03204513	0.07108665	0.05159821	0.045845397	0.023344554	-0.03893137	-0.07275249	
0.025343455	0.002919888	0.05044708	-0.08997276	0.074263096	-0.03118294	0.0075555355	0.02601595	-0.0022855992	-0.06503376	
-0.030303158	-0.021993186	-0.00022168741	-0.05976848	0.07869923	-0.077748604	0.022059102	-0.016581105	0.046722874	0.018564016	
-0.038090736	0.0025910626	-0.029707918	0.040508147	-0.012635908	-0.09897027	-0.024166424	0.0612662	-0.008776955	-0.038623735	
-0.0108087165	0.09803118	0.0007860122	-0.010231736	0.0075122854	0.09226098	0.07595407	0.021989929	-0.11305359	0.076468326	
-0.013054614	0.018045506	-0.03249542	-0.038254473	-0.08300381	-0.10654227	-0.048372827	0.042162605	0.02011601	0.00429385	
0.029629096	-0.10368525	0.022932727	-0.004044303	0.024290035	-0.014853563	0.02820486	-0.011591349	0.03187066	-0.10706641	
0.040177576	-0.055385757	-0.039564926	0.027136108	-0.06765639	-0.03163443	0.044067863	-0.05911829	0.042758387	-0.025857482	
-0.0020327342	0.020153847	-0.068606205	-0.005692946	-0.10952527	-0.061447706	-0.019638605	0.034654465	0.043226168	-0.03874622	
0.08044622	-0.0030882037	0.055115975	-0.030597422	0.011119606	-0.009026505	0.07748675	0.05230586	-0.008232624	0.026641656	
0.02382651	0.0011729845	-0.02688307	-0.049633	0.0058571347	-0.02226433	0.020484036	0.054483324	-0.07342118	0.01056684	
0.03547299	0.016642474	-0.028492663	-0.09610447	0.042245828	-0.03548673	-0.06317475	-0.036650535	0.031028394	-0.019975934	
-0.00094992033	-0.03377531	-0.11591874	-0.002728093	-0.016533505	0.060924415	0.05046867	0.06937697	-0.014269272	0.029545685	
-0.07481782	0.029543426	-0.06923922	0.014130252	-0.065052465	-0.0064194333	0.034891773	0.014729857	0.05931398	-0.032269657	
-0.006367578	-0.04160847	0.019182572	-0.055828087	-0.021160375	0.06810098	-0.10225627	-0.015123587	-0.09204426	0.013871407	
0.07855185	0.05061304	-0.08426996	-0.0027608785	-0.02981111	-0.00017254597	-0.011235488	-0.063492544	0.013511198	0.086534545	
0.022622712	-0.09502184	0.014712865	-0.08248787	0.10102969	-0.06453775	-0.10217964	0.02659878	0.07373083	0.00092093355	
-0.0047698147	-0.08770407	-0.09831366	-0.054520734	0.044979505	-0.04725178	-0.033103425	-0.033988483	-0.06963129	-0.06220001	
-0.08904028	0.10111666	-0.011177115	0.09906096	0.089437984	0.05811933	-0.027742403	0.06916566	-0.04974923	-0.03239549	
0.012358945	0.02188211	0.10070348	-0.018085385	0.035982594	-0.040690053	-0.010497336	-0.0020027312	0.057237394	-0.047195558	
-0.0009787952	0.029450512	-0.03214626	-0.02520229	0.0066889385	0.054501045	-0.051619835	-0.045080315	-0.0506328	0.07391833	
0.08300457	0.02483221	0.061345585	-0.06363704	0.004210655	-0.019361058	-0.012275546	0.051155843	0.05357263	0.025218267	
0.048095267	0.03302298	-0.041856512	-0.009605601	-0.0011628595	-0.012997359	0.012900154	0.0095327655	-0.004701888	-0.051002022	
-0.036090117	-0.059166454	0.03246007	0.015184235	-0.05063678	0.04145605	0.073704585	0.011647104	0.018826386	-0.012660453	
-0.07502128	-0.012067978	0.07710362	-0.04475146	-0.022210749	0.049285006	-0.075795	-0.025853692	0.058276728	0.0070602437	
0.021193437	-0.05538597	-0.03848718	-0.0035107587	-0.07674947	0.018251836	0.027655205	0.053788014	0.025258753	0.012149335	
0.04610282	-0.05716253	0.025198428	0.06151066	-0.011163478	0.013629901	0.073711514	-0.04410694	-0.011313971	-0.023092557	
0.038245775	-0.05667975	-0.008821681	-0.05717433	-0.10791626	-0.024215423	-0.055870675	-0.011171377	-0.011050141	-0.014494165	
-0.034669317	0.0032296702	0.0012278236	0.097089715	-0.009702128	0.08525595	0.007327183	0.104019694	0.010348674	-0.0073288428	
-0.009473395	-0.044489536	0.10449313	0.007862683	-0.090249866	-0.06811247	-0.0484449	0.055606086	0.054641988	0.076423235	
-0.020394564	0.07413607	0.036776457	0.010363868	0.08679701	-0.00032499456	-0.05907399	-0.01976316	-0.02209734	0.03903192	
0.04715452	0.021051927	0.06665109	0.055194106	-0.039678115	-0.026838439	-0.010796813	-0.06177537	0.048485078	-0.035612997	
0.029914359	0.038386375	-0.10101581	0.04811949	0.008892661	-0.051772155	-0.05418318	0.008334384	-0.029523686	3.3974233e-05	
-0.029997412	-0.024914933	-0.07243823	-0.046004623	-0.09098823	-0.010316024	0.024299199	-0.08283259	-0.03967588	-0.0055032154	
0.011599331	0.056528393	0.01066435	0.00061804487	0.04521322	-0.06139653	-0.014581646	-0.0032959639	0.050620463	-0.10230559	
-0.087105155	0.01450491	0.0040921792	-0.049598925	0.049990352	-0.07757775	0.044925444	0.029241387	0.024039516	-0.030967943	
-0.10532437	0.04089589	-0.1090665	0.00027325918	-0.0074412567	0.045645624	0.014373854	-0.00068731565	-0.055751067	0.10266039	
-0.07293962	0.012982953	-0.10764418	0.07080108	-0.044448886	-0.007408944	0.012188695	-0.009060183	0.04561667	0.020583546	
0.005354091	0.043535244	-0.011312321	0.008679414	0.076847605	-0.043423958	-0.06626507	-0.006252545	-0.04231997	-0.04917486	
-0.02660667	0.021599045	-0.020254431	0.02209909	-0.022916023	0.0029629904	-0.038799148	-0.025506347	-0.08129042	-0.044031564	
-0.10536556	0.00508267	-0.04933069	-0.03306989	-0.07224465	0.030576782	-0.06225963	-0.0083280355	0.0012349257	0.039401848	
-0.022924555	-0.06549868	0.00806534	-0.0028413972	-0.059960347	-0.097287506	0.032678436	-0.015623776	-0.027809452	0.011477497	
-0.08843729	-0.071907684	-0.0028930586	0.08169064	0.012581853	0.06312581	-0.0035705524	-0.022697149	-0.03734783	-0.043417502	
-0.027764322	-0.069817066	-0.053746026	0.012421686	-0.085039504	-0.00539883	0.0052258233	0.034576964	0.061060213	0.007010296	
-0.0005472461	0.060414255	-0.022074392	-0.032073617	-0.07520122	-0.0012264833	0.030200701	-0.061756436	-0.0087903915	0.043080572	
0.045192543	-0.0067450223	-0.019854015	-0.04142702	-0.0074751335	0.02763387	0.019100908	0.0025293636	0.0064096516	-0.0059472136	
-0.11437495	0.023983097	0.0056016245	0.00031362043	0.018309074	-0.026932316	-0.03535893	0.0759464	-0.04222123	-0.008926287	
0.0061799493	-0.061254106	-0.082687594	-0.04460503	0.053600077	-0.048643854	-0.025615377	0.065482125	-0.02188098	0.04736624	
-0.015984943	-0.011513967	0.00615135	0.052934214	0.045947142	-0.020901572	-0.052963514	0.090743214	0.07138393	0.028269798	
0.020741533	-0.00714065	-0.033210166	0.044131406	-0.032576468	0.066819005	-0.0045302645	0.060899947	0.027296377	0.023750948	
-0.047539555	-0.09367781	0.029863194	-0.057126645	-0.04622642	0.027883703	0.022527296	-0.040906105	-0.020842167	0.034508735	
-0.0346264	-0.035868645	-0.034996357	0.0016267061	0.07443128	0.031166434	0.008267075	-0.05987782	0.011570982	-0.072490096	
0.03391588	0.100077115	-0.01785716	-0.059487537	-0.06111557	-0.108679496	-0.044881724	0.024941135	-0.0036995334	-0.11005844	
0.08728834	0.027201766	-0.044615224	-0.028401898	-0.064550176	0.045690168	-0.10697531	0.016242055	-0.011625683	0.013502464	
0.033514477	-0.01636771	-0.005969262	0.037205487	0.024939459	-0.026908994	-0.029782113	0.037035838	0.024392046	-0.060609926	
-0.028840331	-0.034019135	-0.019048927	0.04746414	0.016735734	-0.04101664	0.04216643	0.01480962	0.0991697	0.06813434	
-0.07555531	-0.00029625537	-0.0018312999	-0.030955007	0.099974796	0.05180831	0.060698703	-0.056932103	-1.8839577e-05	0.004876904	
-0.10975932	-0.045199037	-0.021724619	-0.028217142	-0.044638734	0.010020662	-0.030355796	0.03464543	0.03009794	0.007507666	
-0.08728902	0.021768421	0.041467983	0.064445786	0.050824024	0.04822958	0.042414647	0.009911194	0.014516229	-0.033691604	
0.00041566615	0.11092314	0.06555729	0.09198398	0.04803976	0.030295866	-0.01568838	0.017522937	-0.01050045	0.035922367	
-0.051599853	0.019553073	-0.0324882	-0.015904846	0.016931059	0.023146205	-0.020376047	0.05633657	0.07118447	-0.024042059	
0.0055834525	0.0009017705	0.013535821	0.019933011	-0.035840277	0.039314557	-0.027397443	-0.047378138	0.043032262	-0.011447679	
0.05253554	0.05112134	-0.014639586	0.008177371	-0.008336644	-0.03566235	0.078064926	-0.0676421	0.06566995	0.039037548	
0.01856913	0.031084048	-0.053594604	0.081935786	0.0056583104	0.036306232	-0.0062639574	-0.019054934	0.0395097	-0.07626514	
-0.033287127	-0.037828956	0.005095254	-0.03683186	0.038566463	0.020707894	0.063819565	-0.02595405	-0.049297005	0.1073746	
-0.035246354	0.06016957	-0.027264485	0.07464604	0.0402424	0.019042157	-0.04114918	-0.010547997	-0.07814375	0.0524203	
0.031227766	-0.0034423403	0.032485396	-0.032108046	-0.08326572	-0.029317787	0.037058968	0.019017484	-0.058026608	0.019270277	
-0.04183302	-0.10673316	0.08359729	0.039698463	0.053220447	0.024722373	-0.0080231	0.11525448	-0.060456928	-0.050427716	
0.094773374	-0.09165082	-0.041166775	-0.06368642	-0.03660862	-0.058894236	-0.04621194	0.07083098	0.006629388	0.01594752	
0.06177051	0.07799128	0.03515105	0.03524754	-0.053000573	-0.022923065	-0.031145489	-0.043644052	-0.017049119	0.0438376	
0.0669158	-0.0007644248	0.082499444	0.032832917	0.015412595	0.049755413	-0.031144021	0.019833295	-0.032999188	-0.07893235	
-0.0023315644	0.031331092	0.01656247	-0.061233785	-0.021181313	0.05696389	-0.025863182	0.0074902065	0.046026025	0.047683373	
-0.03852336	-0.0594412	0.020886334	0.02212969	0.009020724	-0.06814118	-0.080398805	0.010804926	-0.021966081	-0.054739214	
0.055009812	-0.026236696	-0.00800385	0.024562335	0.07758889	-0.06470562	0.047119543	-0.0088279685	-0.046732143	0.08551172	
-0.06404433	-0.006536066	-0.024959372	0.00025343226	0.054215576	-0.0034523674	0.023233512	0.058412354	-0.072604604	-0.044808127	
-0.056938235	-0.06874834	-0.015202706	0.021100886	-0.07981986	-0.07885029	0.08952383	0.0546478	0.071989894	-0.0075436	
-0.065701045	-0.07063023	0.03505737	0.05526707	0.032530237	0.015330394	-0.10471887	0.090642415	0.02345131	-0.013477556	
-0.048941758	-0.040978	-0.01746442	0.060927544	0.02343396	0.07665722	0.0030805457	-0.06569632	-0.007849258	-0.05831263	
-0.023868825	-0.00012690511	-0.042859785	0.0035615289	-0.08760139	-0.05458902	0.004872718	0.04928431	-0.040701784	0.09398538	
0.05528775	-0.106542125	-0.0007535049	0.063323036	-0.04602407	-0.06790845	0.0911559	0.098766685	0.058483247	-0.009471255	
0.043029178	-0.023757935	-0.0048078913	0.006221135	0.090227045	0.11183481	-0.084509596	0.042973757	-0.093752004	-0.073042355	
0.09940777	0.07013234	-0.008419058	0.06375128	0.038185667	-0.059584558	-0.016670601	-0.04000275	0.03882133	0.001841796	
-0.022307023	0.0035063562	-0.06583533	0.015684733	0.0054036058	0.04125401	-0.064196736	-0.010935028	-0.014319823	-0.050474953	
***0.1***
--------------------------------------------------
0.0009024707	-0.09072517	0.0059107626	0.046315566	-0.0012214618	0.006737086	-0.00031940296	-0.00826168	-0.0026933218	0.0587515	
-0.022876682	0.006843852	0.045574922	-0.07793668	-0.031092277	-0.007436676	0.01849827	0.013766553	0.079014786	0.053395696	
0.055161458	-0.07387604	-0.030072004	0.055852182	0.050535616	0.04208237	-0.06477568	-0.10909413	0.069481894	-0.062132537	
-0.030236429	0.04776835	-0.055124316	0.032351945	-0.073109545	-0.008928335	-0.048407376	-0.04369037	-0.06434536	-0.023704048	
-0.080023475	0.05188744	0.070146754	0.018516656	-0.041329157	0.019550262	0.02385157	-0.029473986	0.054761603	0.017324163	
0.0036620246	0.03297941	-0.10063511	-0.010177545	-0.027643649	0.041783657	-0.052986886	-0.018718282	-0.017579857	0.085226335	
-0.08362882	0.05493527	0.03565802	0.056755826	0.04671748	0.04318154	-0.03812198	0.104945	-0.031472433	0.06570989	
0.09618123	-0.018584177	0.021491665	0.018112862	-0.047193483	-0.081165925	-0.046791587	-0.04579082	0.029082222	0.01914837	
0.025105642	0.03561281	-0.0038341158	0.08121278	-0.01993954	-0.067577265	0.021740168	0.009159934	0.04159899	-0.00090744166	
-0.014275232	0.042454988	0.00662324	-0.01154738	0.05538532	-0.0499724	0.03812226	-0.0045396523	0.037482247	-0.04114738	
0.07520628	0.010117934	-0.019214183	-0.0020434414	-0.05655265	0.042305022	-0.04310673	0.07713576	-0.041442137	-0.035822526	
-0.050281476	-0.02343245	0.04892008	-0.022021597	-0.0690745	-0.06069391	0.030687204	0.05552446	-0.049806498	-0.03964346	
-0.02578148	-0.043888442	-0.01116927	0.10356553	0.027998077	0.0618737	-0.018094767	-0.031332377	-0.0049439725	-0.01641269	
0.02234495	0.043533947	0.03462582	0.023843948	-0.07237135	0.06740593	0.047724072	0.046111096	-0.08913438	-0.041796338	
0.038486972	0.0025547142	0.0024189723	-0.053971704	0.09699734	-0.093656525	0.06469976	-0.049530476	0.060582045	-0.05489588	
-0.040810723	-0.09664006	0.037733942	0.04236634	-0.020751704	-0.03142356	0.03373814	0.052408446	0.033667445	-0.10147974	
-0.075716846	0.04417969	-0.021370994	0.09043187	-0.047503315	-0.035079435	-0.03289308	0.0038742772	0.00903913	0.073583566	
-0.0038813832	0.021026246	-0.010882807	0.037906576	0.00038969464	-0.035162177	-0.07526409	0.0059105125	0.026092872	0.06525821	
-0.024861451	0.027123595	0.0062440448	-0.007071952	-0.049017243	-0.088512905	-0.06228542	0.026371397	-0.001537889	0.003683487	
-0.023990713	0.009960154	0.016981319	-0.077576704	0.062095217	-0.016007941	-0.0067361672	-0.014435578	-0.06524647	-0.0677612	
0.013296831	0.10081024	-0.008367928	-0.03745615	0.019726772	0.012136452	-0.03908587	0.035020802	0.06480513	-0.046084937	
0.046058632	-0.07081137	-0.05684595	0.00077024515	0.04862824	0.005800582	-0.0047955005	-0.060937718	-0.022196416	-0.010548849	
0.04112537	0.09178141	0.028027624	-0.047401007	-0.03130487	0.06746992	-0.022471996	-0.046617888	0.04770298	-0.026808372	
0.013912771	0.03942458	-0.013139416	-0.081586875	-0.04672928	0.07453396	-0.049713966	-0.091458976	0.038515292	-0.043584045	
0.006311517	-0.086476	0.0139785865	0.032215483	0.06098069	0.029960608	0.00040908938	-0.026050534	-0.10407922	-0.057225373	
-0.09838443	-0.008093047	0.085818626	-0.014126898	0.03498889	-0.00037755427	-0.021758892	0.012508509	-0.022473622	0.028158298	
0.040890943	-0.09766956	0.01484608	0.0029703302	0.031876262	0.049966633	-0.0009236528	0.03518676	-0.036501266	0.024829514	
0.057734106	0.044570025	0.011350722	0.020707455	0.036255173	-0.04324384	0.039528742	-0.09616916	-0.004199827	0.07880018	
-0.077776805	0.036629636	-0.04319673	-0.07074213	0.065535516	-0.055986423	-0.0032474673	0.04350816	-0.012485072	0.07620624	
