0.0009024706	-0.09072516	0.005910761	0.04631557	-0.0012214619	0.006737085	-0.00031940299	-0.00826168	-0.0026933216	0.058751505	
-0.022876682	0.0068438514	0.04557492	-0.07793667	-0.031092273	-0.007436676	0.018498268	0.013766554	0.07901479	0.0533957	
0.05516145	-0.07387604	-0.030071998	0.055852175	0.05053562	0.04208237	-0.06477568	-0.109094106	0.069481894	-0.062132545	
-0.030236425	0.04776834	-0.05512432	0.03235195	-0.07310955	-0.008928336	-0.048407365	-0.04369036	-0.06434536	-0.023704043	
-0.08002347	0.051887438	0.07014675	0.018516654	-0.041329153	0.019550264	0.023851564	-0.029473986	0.0547616	0.01732416	
0.0036620242	0.032979414	-0.1006351	-0.010177546	-0.027643643	0.041783653	-0.052986894	-0.01871828	-0.017579855	0.08522633	
-0.08362881	0.054935258	0.03565802	0.056755822	0.046717472	0.043181535	-0.03812198	0.10494498	-0.031472433	0.06570989	
0.09618122	-0.018584173	0.021491664	0.01811286	-0.04719349	-0.08116593	-0.046791587	-0.045790814	0.029082226	0.019148368	
0.025105638	0.03561281	-0.003834115	0.081212774	-0.019939538	-0.067577265	0.021740165	0.009159933	0.041598987	-0.0009074417	
-0.014275231	0.04245498	0.0066232397	-0.011547379	0.05538531	-0.04997239	0.038122255	-0.0045396523	0.037482247	-0.041147377	
0.07520628	0.010117933	-0.019214183	-0.0020434414	-0.056552656	0.042305015	-0.043106727	0.07713575	-0.041442133	-0.035822522	
-0.05028148	-0.02343245	0.048920076	-0.022021595	-0.0690745	-0.060693894	0.030687198	0.055524454	-0.049806494	-0.039643463	
-0.025780309	-0.043886892	-0.011165952	0.103568524	0.028001191	0.06187571	-0.01811428	-0.031330764	-0.0049421457	-0.016410809	
0.022348717	0.043538503	0.0346113	0.023852853	-0.07235877	0.06741118	0.047684476	0.04611589	-0.0891268	-0.041789673	
0.038488302	0.002556031	0.0023947349	-0.053969152	0.09700372	-0.09365559	0.064703256	-0.049529064	0.06058603	-0.054893047	
-0.04081067	-0.096640006	0.037732933	0.04236645	-0.020751433	-0.031423517	0.03373829	0.052408494	0.033667605	-0.10147962	
-0.07571684	0.04417969	-0.021370992	0.09043186	-0.047503304	-0.03507943	-0.032893084	0.003874278	0.009039131	0.07358356	
-0.003881383	0.021026243	-0.010882805	0.037906576	0.00038969456	-0.035162177	-0.07526409	0.0059105116	0.026092876	0.06525822	
-0.02486145	0.027123597	0.0062440448	-0.0070719514	-0.049017232	-0.088512905	-0.06228542	0.026371397	-0.0015378889	0.0036834874	
-0.023990711	0.009960152	0.016981319	-0.0775767	0.062095225	-0.016007943	-0.0067361677	-0.014435576	-0.06524648	-0.06776119	
0.013296832	0.100810215	-0.008367929	-0.037456147	0.019726768	0.012136451	-0.03908586	0.035020802	0.06480512	-0.04608494	
0.046058632	-0.07081136	-0.056845944	0.00077024504	0.04862825	0.0058005815	-0.0047955	-0.060937706	-0.022196412	-0.010548848	
0.041125372	0.091781415	0.02802762	-0.047401004	-0.031304866	0.06746991	-0.022471994	-0.04661788	0.047702976	-0.02680837	
0.013912768	0.03942458	-0.013139417	-0.08158687	-0.046729278	0.07453396	-0.049713966	-0.091458976	0.03851529	-0.043584038	
0.0063115167	-0.086476006	0.013978587	0.032215483	0.060980685	0.0299606	0.0004090894	-0.026050529	-0.104079224	-0.05722537	
-0.098384425	-0.008093045	0.085818626	-0.014126896	0.03498889	-0.0003775543	-0.021758894	0.012508508	-0.022473622	0.028158294	
0.040890936	-0.097669564	0.014846077	0.0029703302	0.03187626	0.049966626	-0.0009236529	0.035186756	-0.036501266	0.02482951	
0.05773411	0.04457002	0.011350722	0.02070745	0.036255173	-0.043243837	0.039528746	-0.09616916	-0.004199827	0.07880017	
-0.077776805	0.036629632	-0.043196723	-0.07074212	0.06553551	-0.055986423	-0.0032474678	0.043508153	-0.012485073	0.07620623	
0.043284565	-0.014664742	-0.024723379	0.024207827	-0.07973844	-0.008225754	-0.09995991	0.07435305	0.081657596	-0.06837487	
-0.002416808	0.020760389	0.02079314	0.1135683	0.06559614	0.024418954	0.08559032	-0.095390186	-0.085329965	-0.0049838517	
-0.0065881535	0.01564231	0.068285465	0.06603436	-0.108343065	0.05244752	0.08387197	-0.08177442	-0.078602925	0.051863633	
-0.021449346	0.06833768	0.05956975	-0.009024386	0.062363587	-0.032472406	-0.011147735	0.0036660533	-0.035159513	-0.007767758	
-0.031091183	-0.01450856	-0.033937868	0.02280662	-0.019148055	-0.075911865	0.08201702	-0.0025323473	-0.0082216235	-0.021129081	
0.03817758	0.022744123	0.009742704	-0.029806694	-0.07178565	0.058010574	-0.040246405	-0.014096388	0.039094888	0.004097678	
-0.0013448948	-0.003896878	0.05836888	0.028275505	0.019734975	0.086840555	0.028284904	0.06661135	0.048511934	-0.06098511	
-0.030550266	0.029111264	-0.020179823	-0.048893943	-0.031742934	0.04623844	-0.112825505	-0.027239714	0.024242764	-0.024897365	
-0.03887561	-0.052621514	-0.08590494	0.072923236	-0.05575277	0.059605654	0.01593031	-0.035924595	-0.0023134672	0.061503246	
-0.051241837	-0.028828822	0.009966688	-0.013848113	0.007846037	-0.04768839	-0.0063003493	0.010626091	0.017917618	-0.013416021	
0.0039741774	0.04847538	0.076296024	-0.001400398	-0.02786159	0.011295729	0.09570812	-0.0053558066	-0.10410882	0.049013868	
0.0096394	-0.058059614	0.013423756	-0.07634977	-0.019565547	-0.07401201	0.004621579	0.1002999	0.022353794	0.06201072	
0.018079184	0.006245901	0.10198365	0.036384653	-0.014074106	-0.06221721	0.00913959	-0.014330672	0.047728103	0.10098428	
0.067333184	-0.03647274	0.09558962	0.057234492	-0.08490815	-0.02543934	-0.097055025	0.00096484146	0.022408681	-0.04668134	
-0.037156094	-0.023846544	0.016773973	0.0100852465	0.039609168	-7.03959e-05	0.06962864	0.0033222307	-0.048257038	4.441363e-05	
-0.07132663	0.01697938	0.038630944	0.016414091	0.0022738078	0.04031303	0.052302096	-0.014035749	-0.027240213	0.001343088	
0.004742938	-0.113763765	0.050689094	0.060471404	0.005471574	0.075111724	-0.03688347	0.10451407	0.08432617	-0.055817384	
0.0487231	0.038700048	-0.0025538078	0.012504374	-0.019404694	0.0013353511	-0.0011291598	-0.033558104	-0.030669857	0.065796226	
0.08766137	0.010951878	-0.09971253	-0.03426657	-0.03937008	-0.065509036	-0.07433348	0.075328216	-0.07162795	0.03340925	
0.007388256	0.025783407	0.050910786	0.057177916	-0.032178603	-0.086379185	0.038977347	0.06273602	0.016937416	-0.0010942487	
0.027637348	-0.077825405	-0.08842546	0.020063918	-0.033981565	0.060066156	-0.052996337	-0.017113203	0.0026659977	-0.040332735	
0.098604545	0.044740416	-0.06895741	0.061823066	0.01733984	0.053170804	0.089719996	0.010694589	-0.014476438	-0.01614574	
0.046504337	0.035017896	0.026283292	0.028570708	-0.0875746	-0.037518006	-0.011710736	0.013409909	-0.0072640968	-0.04948217	
0.0203258	-0.024322055	-0.053555973	-0.025097499	0.10409456	-0.0049199504	-0.039304577	-0.03463516	0.026035167	-0.013297806	
-0.009968711	0.011030354	-0.0031800505	0.02208865	-0.011755968	-0.0751277	-0.024983149	-0.08970282	-0.006371636	0.020571066	
0.03313781	0.075743325	-0.031677447	0.0136509985	-0.016965605	0.044191983	0.03814547	-0.10984836	0.032648563	-0.09095482	
-0.030123731	0.025728038	0.06674388	0.021714402	-0.036038134	-0.06143145	0.07064521	0.10346756	0.022168318	0.048269905	
0.01766707	-0.052723765	-0.023128115	-0.013189083	0.10077632	-0.045136627	0.040900227	-0.015228849	-0.0898443	0.009281734	
-0.026056707	0.03569654	-0.01561622	-0.05592996	-0.014163017	0.093291536	0.095869996	-0.021572528	0.094407514	-0.03372675	
0.074453965	0.048744954	-0.039587215	-0.06636419	-0.04437674	0.04398731	-0.07940034	0.016993618	-0.011869016	0.08088461	
0.021151887	0.006235727	0.020703197	-0.07721248	-0.019861994	0.03618182	-0.0612809	-0.0049594794	0.008622789	0.0024361624	
-0.04668392	-0.002828862	-0.009457392	-0.03630465	-0.016832879	0.048376117	-0.080544844	-0.022295738	-0.08412358	0.087953836	
0.013663551	0.075213015	0.07017192	0.046747625	0.05260878	-0.018487433	-0.06648052	-0.009979764	-0.009253942	0.021427926	
-0.03112932	-0.010513504	0.04863531	0.038578287	0.022166628	-0.040348228	-0.076467454	-0.01668861	-0.029251978	0.010136979	
0.048240848	-0.024641553	-0.075246476	0.023554683	-0.02061126	-0.02970528	0.08059694	-0.008476477	-0.046359416	0.08351555	
0.05718115	-0.055031363	-0.020210372	0.059152722	0.009143376	-0.055340063	0.046513785	0.09356549	0.024461215	0.031029252	
-0.0068606148	0.036613755	-0.048508856	-0.06034436	0.06631478	0.079013556	0.056016117	-0.0013652628	0.07995345	-0.06520165	
-0.045833938	0.081214204	0.08754226	0.047197513	-0.04552237	0.020117506	-0.0038913828	0.08431899	0.016032828	0.01695277	
-0.050548214	-0.047515195	-0.049826104	-0.022726847	-0.0047197086	0.065960184	0.040621717	-0.0046041138	-0.045022096	-0.07449479	
0.014982084	-0.018317685	0.068341635	-0.03454134	0.04717318	0.019041691	0.09506354	0.0076831277	0.037674636	-0.027207278	
0.049380723	-0.10646731	-0.032313462	0.06747896	-0.053712286	-0.03487307	0.025209883	0.0041444837	-0.054985754	-0.08028844	
0.016189095	-0.04188431	-0.056397144	-0.032045983	0.10415214	-0.06410665	0.06356938	-0.024872063	-0.01752783	-0.042727448	
0.00022786057	0.01059988	-0.10636025	-0.031296834	0.03366768	-0.015081857	-0.01093257	0.04128326	0.06914753	0.082504466	
-0.1131978	0.06092621	0.07574639	0.05220101	-0.03441004	1.9522067e-06	0.06751808	0.07389704	0.012013267	-0.049674947	
0.07527268	-0.036390282	0.04088983	-0.027595976	0.075129345	-0.03014864	0.030816054	-0.035789207	0.007142649	-0.07825491	
-0.033802643	0.011152488	-0.017734358	-0.08623557	-0.0072934083	-0.0641984	0.024945965	-0.050680395	-0.08317623	-0.045304965	
-0.006975605	-0.06809928	-0.011758881	0.052134264	0.03668999	0.07410343	0.01207082	0.02592014	-0.023279049	0.053333774	
0.100532666	-0.06274054	-0.041362673	-0.014720803	0.029201236	-0.00888419	0.10161729	0.031250764	0.0026845757	0.040234078	
0.006917051	0.059638754	-0.029946854	0.022403976	0.04448921	-0.064566486	-0.007036273	-0.048408855	-0.002519431	-0.024014192	
0.04483542	0.016223565	0.0069575324	-0.02117011	0.03259678	-0.06388725	0.08136159	-0.054665934	0.01552582	0.039488293	
0.05567763	-0.086166926	0.01862287	-0.0471605	-0.00990547	-0.049565904	-0.080599315	-0.023636485	-0.08156222	0.052046493	
0.03849093	-0.09684275	0.0767972	0.029987898	0.017910477	0.05156296	0.096861705	-0.0367237	0.05635154	0.059857115	
0.045299757	-0.05391831	0.04206171	-0.077213496	0.025789993	-0.010416662	-0.018832892	0.0037701533	0.09177226	-0.0039637	
-0.014815947	-0.019381134	0.09072576	0.021777604	0.062443893	0.056522537	0.059247423	0.063278094	-0.024681235	0.04363139	
-0.002390395	-0.05679432	-0.05843862	-0.010542996	-0.023079246	0.023344321	-0.050887793	-0.0027485709	0.007987518	-0.029980196	
0.04030476	-0.06501869	-0.10449411	0.08348353	-0.004129061	-0.034982182	-0.0059894263	0.02579604	0.050940894	-0.0041658683	
-0.09779416	-0.06233062	-0.028087543	-0.0059213615	0.081123084	0.05091007	0.04220674	-0.032040946	-0.059531163	-0.053805027	
-0.018735787	0.07274395	-0.0073855636	0.07883695	0.021888368	0.028993651	0.0681718	-0.004207909	-0.02560293	-0.06671861	
-0.023025377	-0.010681607	0.050236184	-0.025110422	-0.015473865	0.023765005	-0.08510773	-0.021918245	0.005486537	-0.002984653	
-0.0061400924	-0.058333244	-0.004628974	0.009212248	-0.03080106	0.059437193	0.07484158	-0.07705527	0.05094758	0.033715025	
-0.0156595	0.07038007	-0.037865587	0.018789398	0.07643921	0.042830396	0.040859945	-0.03908052	0.0455397	-0.11032285	
-0.04083134	-0.064447716	0.07138118	0.020809721	0.032665584	0.083315246	-0.037712652	-0.012562514	-0.042706355	-0.10636899	
-0.02426084	0.014399513	-0.0095878355	-0.05258839	-0.059353314	-0.07445428	0.036124893	-0.03263002	0.038504086	-0.0061639594	
-0.041572656	0.01873761	0.0358311	0.039494812	-0.08500083	0.007875373	0.04926994	0.009272527	0.0454221	0.037821345	
0.080690205	0.046212874	0.009217572	-0.0877356	0.02590068	-0.038245935	-0.06097345	0.016691666	0.008251233	-0.059750356	
-0.03590023	0.07196074	0.021340497	-0.0033793699	0.029082324	-0.034226447	0.011143303	-0.0395092	-0.04045865	-0.101619706	
-0.041447975	0.036546964	0.1238786	-0.011412244	0.06785537	-0.042238936	0.079977036	-0.047340285	0.06773475	0.026407806	
-0.019298635	0.021750081	0.09424624	0.07867701	-0.068706766	-0.014069006	-0.034996573	-0.09748055	-0.11370871	-0.04634525	
0.01042763	-0.06462517	0.05458755	-0.08143637	0.022999866	-0.059512474	0.06908837	0.011458023	0.0053001107	0.00040773305	
-0.08164405	-0.08551175	0.049977813	0.03780552	0.057449862	0.02784821	0.15037885	0.021179032	0.040180095	-0.019506823	
0.08427128	0.09784519	0.0084104445	-0.038115054	-0.070019305	0.019757899	0.032200877	-0.06716813	0.013807595	-0.06601875	
-0.0515251	0.04585797	-0.018783737	0.07958267	0.02300286	0.0040385835	-0.04280075	0.08385464	0.040943045	0.0013272312	
-0.050149895	-0.02634228	-0.011199541	-0.012895772	0.04564039	-0.01258251	0.10274837	0.08142074	0.042828336	0.0031715361	
-0.012973584	0.0134906685	-0.06926693	-0.010262625	0.04917531	0.005187629	-0.029045047	-0.010732091	-0.01766858	-0.018674301	
-0.037686758	-0.059897866	-0.027399397	-0.08911172	-0.07078091	-0.00185218	0.005236683	-0.02070626	-0.06457229	-0.008934739	
-0.080178015	0.028691327	0.059456583	-0.05229607	0.010896364	0.08611064	-0.0044976915	-0.049968243	0.03840364	0.049581293	
0.09623006	-0.0516838	-0.03998213	0.10030395	0.01009553	-0.03159022	0.07654868	-0.023667898	-0.113596335	-0.03076189	
0.08142316	0.013316425	-0.012814883	-0.046550248	-0.011668573	-0.020224303	0.04614005	0.05587256	-0.097613804	0.04022607	
0.075382836	0.06128346	-0.022077475	-0.08465674	-0.06760644	-0.07001258	0.006746312	0.072201684	0.02279043	0.023242762	
-0.05674001	0.10519094	0.055087823	-0.035726067	-0.050590727	0.09289369	-0.03505313	-0.030586448	0.008111343	-0.015631907	
-0.039291658	-0.0475548	0.022501035	-0.023702065	-0.030356193	-0.090343304	-0.012425253	0.03782132	-0.059244875	-0.00018378497	
0.09613397	0.02065585	0.023994764	0.0032347937	0.095310666	-0.051663898	0.037443053	0.0953206	-0.070565104	0.112890884	
-0.08979971	-0.05054365	0.0026272521	-0.04471314	-0.049740966	0.073051766	-0.05553241	-0.0415947	0.010002076	-0.08691061	
-0.08180695	0.017687375	-0.07722191	-0.026068414	-0.016462393	0.016701704	0.033124812	0.0880624	-0.07020207	-0.06946516	
-0.0568913	0.06876936	-0.07069489	-0.023647847	0.021873495	-0.018207973	-0.10295782	-0.08648952	-0.06181307	-0.011538429	
-0.061952565	0.015683405	0.013115628	0.04605006	0.05484999	-0.025579859	-0.04325008	0.037955355	-0.06531208	-0.0069598933	
-0.061109565	0.029175252	0.06275397	0.10366687	0.035937622	0.035516124	0.010078213	0.023380589	-0.06705669	-0.026190206	
0.011738649	-0.092985064	0.022501368	0.05649904	0.10504191	-0.07102606	-0.070548646	0.013396916	0.0073411316	-0.020027762	
-0.10733618	0.07161055	-0.039217487	-0.025192367	-0.02442154	-0.07933645	-0.021126743	0.08992779	-0.10618751	-0.04717293	
0.094405964	-0.011726649	0.10171962	0.0959271	0.014817328	0.00063172914	0.07682186	-0.07749599	0.011152251	-0.042914685	
-0.017043868	0.010909551	0.007909828	0.040173564	-0.035083145	-0.11406554	-0.0629387	0.016408116	0.06618535	0.02749064	
-0.01168695	-0.037149377	0.108786285	0.01873893	-0.049708154	-0.014031261	-0.014482486	-0.10182493	-0.053008452	-0.012093871	
0.07033473	-0.09869098	0.012139094	-0.047704455	0.07042367	-0.022253245	-0.0010121316	-0.044994816	0.0083055645	0.0838287	
-0.017052978	-0.034020446	-0.03525924	0.060070902	0.04134271	-0.08413502	-0.06388049	-0.06651161	0.021399342	0.014110434	
-0.006024457	0.10292499	0.050675213	0.032202043	-0.05824871	0.05236429	0.015742568	-0.0076139015	-0.12008793	-0.026090544	
-0.10805707	0.110165894	0.062030513	-0.025638055	-0.070604846	0.022601355	-0.044510547	-0.10768562	-0.030512359	-0.0056255423	
0.052524485	-0.009846392	0.08309123	0.12128224	0.037097074	0.014243209	0.0060617616	-0.0007142481	-0.0069562877	-0.11001847	
0.01583101	0.041028153	0.030994529	0.022360805	-0.10748011	-0.033090018	0.09806786	-0.033696752	-0.060521666	-0.003582975	
0.06100961	0.0061789853	-0.013065422	-0.058462746	-0.00019449591	0.05694998	0.009925106	-0.08698374	0.011692448	-0.03532897	
0.052473694	0.06701682	0.066451944	0.03030889	0.03776995	-0.034780204	0.06579633	0.009670439	-0.058042657	-0.0292738	
0.006965809	0.07584439	-0.06861279	-0.012580961	-0.06057488	0.08886698	0.09677766	-0.11096007	-0.018457863	0.03823041	
-0.014886713	0.06242413	0.058419287	0.025314618	0.027712883	0.0035261116	0.028422372	-0.0704111	-0.084517255	-0.07271453	
0.079557665	0.007948676	-0.08873729	-0.105523534	0.009181927	-0.054831523	0.03200395	0.033434078	0.03230203	-0.041262183	
0.05733683	0.026068749	0.015304635	-0.003221941	0.04901446	-0.041982178	0.00062018476	-0.062964335	-0.0042401445	0.051487833	
0.053106416	-0.005291081	0.006597857	0.053096652	-0.014890816	0.055280145	0.06947294	-0.07148184	0.0047663255	-0.038204826	
0.08357876	-0.054583024	-0.012926981	-0.07443511	0.037290663	0.060037393	-6.9446854e-05	-0.06289667	-0.0057942728	-0.028604709	
0.028242946	-0.008900521	-0.07484473	0.037453886	-0.02011574	0.044536907	-0.031094775	-0.040749848	-0.045022774	0.033118766	
0.01038292	-0.032046136	-0.034764655	0.06413957	-0.022417659	0.0016311477	0.020621026	-0.020731108	0.11183408	0.03524494	
-0.0008592036	-0.026500441	-0.030661406	0.035863668	0.014129951	-0.03076473	-0.0063144076	0.11126914	0.0647608	0.008098567	
-0.019831588	-0.039284345	-0.031630002	-0.05675197	-0.062768735	-0.0037783503	0.029898304	-0.04096693	0.047935903	0.031479336	
0.017680576	0.041127197	0.04492253	0.07681375	0.006347842	0.028785782	0.09110215	-0.087917104	-0.07453883	0.009080269	
0.03994924	0.007054069	0.03352276	0.08332033	0.029400127	-0.048932888	0.055214766	-0.041987848	-0.10313625	0.042330444	
-0.02030821	0.014163647	-0.054088295	-0.033959437	0.059403557	0.0028870897	-0.104850344	0.056239683	0.024160564	-0.064226955	
0.080705956	-0.04824914	0.055253208	-0.029581837	0.0477751	0.041741103	0.016599175	0.0024318052	-0.0151010305	-0.06522603	
-0.026145414	-0.018530887	0.041645642	0.030631669	0.0599646	0.040655844	0.0040860428	-0.031075917	0.035179354	0.007634578	
0.048369605	-0.007200808	0.010388268	-0.028789945	-0.021195404	0.03804631	-0.020527016	0.05603529	0.056293514	-0.037590995	
0.056065213	-0.007856542	0.05882009	-0.049859144	0.07563708	-0.006715947	-0.015291826	0.026469368	0.04934352	0.09502608	
-0.06460005	-0.049353763	-0.062155023	0.018565228	-0.0553846	0.007306907	-0.0044604456	-0.0397521	-0.025324149	0.06088379	
-0.0028834948	0.059163142	-0.0048869257	0.03753223	-0.011499926	-0.03382011	-0.0043396275	0.038346514	0.0025099933	-0.060075086	
-0.06957027	-0.03760815	0.019074878	0.009523892	-0.0515006	-0.052881896	0.027431285	0.047564518	-0.03861645	0.00886562	
0.08661954	-0.019644558	0.08068478	0.03392501	-0.023421617	0.036038328	0.00131974	-0.013239051	-0.073037736	0.095354185	
-0.03698632	-0.01711078	0.14929943	0.09773977	-0.08202345	0.019551957	-0.057668928	-0.05787592	-0.09745899	0.08878604	
-0.020292597	-0.016352713	0.10728585	0.0007482287	-0.08345279	-0.037316438	-0.027027108	-0.09359001	-0.012035952	-0.048640452	
0.030193519	-0.0725134	0.028007384	-0.023301318	-0.09427885	0.059896946	0.007233608	-0.07014231	0.05228868	-0.09571353	
0.0938448	0.032295953	0.06692391	-0.025913466	-0.12119938	-0.061220825	0.008513171	-0.06594772	0.014028866	-0.06438998	
0.04363537	-0.030931542	0.124863364	0.051037636	-0.049397606	-0.07845766	0.07439965	0.037219416	0.04891172	-0.13416287	
0.032633014	-0.01763271	0.070793584	-0.04232881	-0.04555486	0.021321328	-0.07211248	-0.086045094	0.034035385	-0.07925342	
0.0059109377	0.016994143	0.066554494	0.06394572	-0.12086806	-0.032836	-0.05993885	-0.12146817	0.097993195	-0.05949916	
0.08992574	0.04822013	0.018699676	-0.0023264051	0.0060937987	0.045075145	0.030957056	-0.04637967	-0.03518407	-0.019928934	
-0.0688939	0.061085667	0.074610904	0.048903838	0.043650433	-0.10037648	-0.035675365	-0.08809591	-0.012174967	-0.05917821	
0.06703902	0.05516009	-0.0074395435	0.023545051	0.0014371165	0.07759069	0.0074943462	-0.046973307	-0.049941894	-0.033343274	
-0.0932907	-0.034016054	-0.04382055	0.03801816	0.045260932	-0.0159611	-0.055172205	-0.003653029	-0.03278133	0.026464809	
0.042489044	0.018885313	-0.093305215	-0.009718497	-0.009782894	0.032807752	-0.0006094664	-0.050656363	-0.008964575	0.010231937	
0.0457619	0.024210267	0.07944239	-0.036517136	0.076728426	0.021381786	0.012821253	-0.04164967	0.0764136	0.080306664	
-0.031541187	0.0024693056	-0.031415176	-0.023146968	-0.068382435	-0.0373884	-0.08412719	-0.060922425	0.019970734	-0.008122978	
-0.0031553656	0.026995903	-0.058967777	0.0063878	-0.0104213245	-0.09124525	0.0026134716	0.032182325	-0.02423649	0.024770556	
-0.034451116	-0.015853574	-0.04130108	-0.04471735	0.041547373	-0.06276503	-0.03417378	-0.06569694	0.011748317	-0.026284315	
0.025878768	0.046182457	-0.0013745952	-0.0778535	-0.034099855	0.06917203	-0.023666704	-0.040920917	0.04049871	0.011019039	
-0.017872833	-0.050902758	0.055606574	-0.048723396	0.048560895	-0.04739934	-0.0034564112	-0.04486009	-0.044773187	-0.09418377	
0.03439482	0.009571241	0.032144982	0.100630865	0.0109001575	-0.022520954	0.03099819	-0.05287989	0.076425456	0.03455042	
-0.015451136	-0.009501751	0.03926954	0.015359633	-0.028967261	0.08393584	-0.011435496	0.07922005	-0.10932854	0.018472025	
-0.014212396	0.0075827	0.012849885	0.096448705	0.062193185	0.054715775	-0.01731476	0.020575278	-0.061122578	0.0060870517	
-0.0286092	0.01591956	-0.0782567	0.056283813	-0.0650117	-0.057586975	-0.0028881233	0.022290457	-0.03195092	-0.035688702	
-0.10245652	-0.06423038	-0.028003778	-0.047641534	-0.008287093	0.015883466	-0.053941112	0.0415592	-0.024709245	-0.012013672	
-0.060169566	-0.02626566	-0.04778635	-0.035237134	0.020840557	0.05436121	0.009769128	0.051399585	0.07406137	-0.0019063005	
-0.036151726	-0.092147365	0.043691244	0.031832308	0.06616567	-0.07091068	0.034991655	-0.021693451	-0.02796934	0.054795947	
-0.006758757	-0.097089104	-0.07461043	-0.015866175	0.020632371	-0.10579612	-0.028536336	-0.08101483	-0.0004871194	0.044364214	
-0.026239308	0.019423425	-0.06880398	0.072293855	0.09982479	-0.07084616	0.02739252	-0.02020188	0.010368033	0.012459096	
-0.049302448	-0.057115834	0.08820758	0.0021699113	-0.0065324716	0.08558414	-0.0046858587	-0.009591674	0.02176426	-0.055447448	
0.084511966	-0.0030361277	0.010391819	-0.007685689	-0.02311383	-0.023100788	0.102687635	-0.067517415	0.044413187	-0.014460094	
-0.01099811	0.07309145	0.056193717	0.13945697	-0.055985447	0.006251541	-0.009697835	-0.0053516137	0.09207364	-0.039896846	
-0.010219509	0.01924597	0.098661475	-0.0013195015	-0.071156956	0.07036257	-0.07023887	-0.072044455	-0.0076347105	-0.0635889	
-2.2261289e-05	0.02296931	0.07311963	0.14803731	-0.034485698	0.03489166	0.01444085	-0.092452824	0.018365202	0.085621625	
0.021985928	0.011057956	-0.044642944	0.14153396	-0.10962617	-0.028702723	0.004503714	-0.06717295	-0.013795047	-0.047351442	
0.028365774	0.027489228	0.01683676	0.09857797	-0.08713038	-0.004428547	-0.00809592	-0.09879698	0.08060668	0.09129305	
0.047239643	-0.021823226	-0.059765823	0.0190883	-0.106630474	0.060862552	0.021609668	-0.15595679	0.047721323	0.019031793	
0.028330926	0.0516588	-0.062188655	-0.07958795	-0.019137042	-0.052327532	-0.050174933	-0.041624513	0.050406545	0.033894986	
-0.057562754	0.037230354	-0.06823723	-0.014308432	0.0075688763	-0.005369195	-0.07103095	-0.012779523	0.119373806	-0.065225765	
0.06417621	0.021857433	-0.08835158	-0.029517498	-0.037267532	0.0070624063	-0.0016004605	-0.044040482	0.08649674	-0.013365895	
-0.011861473	-0.030865146	0.09077321	-0.048223466	-0.05027852	0.026787119	-0.035774942	0.043672256	-0.047398742	0.016543375	
0.09613123	-0.011171713	-0.029210635	-0.104117446	-0.04827463	0.052886866	-0.047554933	-0.073700435	-0.043404482	0.026154026	
-0.028116819	-0.040533796	0.00966293	0.002268331	0.12603877	0.069515556	0.014561122	0.023590999	-0.024063144	-0.013901528	
0.05906116	0.00016240503	0.00518794	0.00013331963	-0.013118973	0.015660293	0.01522628	-0.030199965	0.026667263	0.034157325	
-0.08214454	-0.06293605	-0.0029441142	0.09744701	-0.05959629	-0.004935468	0.08964031	-0.11353316	-0.060090285	0.008929167	
-0.05568135	0.036928993	0.057435323	0.0031918364	-0.041834008	0.03736284	0.012219593	0.072874784	-0.040299326	0.077276535	
0.056063585	0.021541553	-0.08531641	-0.046829678	0.11405774	0.025726061	0.03436622	0.01628782	0.08977901	-0.014019368	
-0.064743586	-0.026740713	-0.055884972	-0.06566226	-0.10525607	0.057768546	-0.0100455275	0.050432168	-0.030243024	0.026733726	
0.023803262	0.002231254	0.060695056	0.05681637	-0.04648957	0.034481827	0.011313118	0.025958695	0.061191723	0.023052793	
-0.0048616463	-0.08964217	0.035888936	-0.083733395	0.0011595739	-0.010174941	0.035915896	-0.043830067	0.017964646	-0.08154904	
0.015869096	0.02355833	-0.108134754	0.03482579	0.05816353	-0.014192879	0.0913059	-0.05037938	0.04389435	0.0689961	
0.06123431	0.053648505	0.0066282935	0.08849731	-0.033528354	0.02302354	-0.067958996	-0.032037098	0.06896873	0.026809331	
0.008484461	0.07421419	-0.044787493	0.062409624	-0.07123761	0.004351013	-0.058578987	-0.057460774	-0.03128111	0.02456784	
-0.009163148	0.048985478	-0.05442096	0.12213115	-0.0865272	-0.039755687	-0.04253914	0.029159678	0.071588784	-0.04230355	
-0.06135532	0.010322298	0.050110158	0.08880914	0.026381524	0.007181497	0.05822964	-0.04885156	-0.0077716904	-0.014636066	
0.075125895	0.004242117	0.04101513	0.062212713	0.037406232	0.071509786	0.08641114	0.080191165	-0.02440819	-0.0349486	
0.05569704	-0.10695427	0.11497963	0.077821136	-0.02925768	-0.09501634	-0.015737418	0.103495136	-0.058544297	-0.08464719	
-0.012360536	-0.020580603	0.015829792	0.020324608	-0.026502114	-0.06525068	0.024095504	0.006545873	-0.064674124	-0.04681105	
0.024051735	-0.06516185	-0.03906241	0.0730982	-0.060953725	0.014640121	0.022797232	-0.03601096	0.07717291	-0.025993466	
0.030025084	-0.057363596	0.010113605	-0.051429644	-0.02366339	0.06247951	-0.06445927	0.10476052	-0.010850763	0.013478352	
0.025089394	-0.09039421	0.0737196	0.0029100624	-0.15890318	0.057915784	-0.0026118292	0.06536171	0.075455554	0.058819484	
-0.05264545	0.09891297	-0.010509132	-0.04118847	-0.12953275	-0.0625822	0.03232027	-0.003858377	-0.037186183	-0.040031005	
0.010323195	-0.0016209851	-0.046054117	-0.024986327	-0.073901966	-0.0008780001	0.02393684	-0.06716719	-0.0155742	-0.019599382	
0.01781199	0.10789746	-0.02499207	-0.10022675	-0.14077602	-0.005096879	0.02754383	0.0066865254	0.062361643	0.02312199	
0.09007674	0.06944561	0.09664783	0.04782985	0.001447329	0.08216644	-0.018318336	0.039248805	0.009227283	0.06857463	
0.03359598	0.052732773	0.01576995	0.07253691	-0.0028541905	-0.08986446	-0.0047131246	-0.0874109	0.041473966	0.016573468	
0.054588545	-0.0384229	0.06757211	-0.04645946	0.039034337	0.082963265	-0.11325742	-0.025856435	-0.026581587	0.09521205	
0.049785342	-0.047024608	0.02612229	0.011885396	0.05136978	0.08499731	-0.07108916	-0.005257509	0.0016322978	0.0057839085	
0.06570698	-0.05732452	0.0698645	-0.02371787	0.02326733	-0.065497845	-0.090779886	0.05392885	0.034150172	-0.013950799	
0.08110267	0.05638989	-0.0040817815	0.031442247	0.0924419	0.11244557	-0.04048042	0.038273793	0.043989837	0.00096222194	
-0.0046871025	-0.029639615	-0.038375136	0.010559666	-0.016888127	-0.03850403	-0.0015010975	0.021603217	0.042597998	-0.04642015	
0.022154918	0.029365882	-0.04127849	-0.03683665	0.10727693	-0.01527599	-0.079986624	0.053260002	0.042732175	-0.037605587	
0.0057795043	-0.07239251	0.027293298	0.0104373675	0.10648735	0.06560974	0.017680537	-0.04672212	0.077591166	0.03918919	
0.068246536	0.06097215	0.038208652	0.00237555	-0.10300427	0.05393291	0.03022173	-0.06403496	0.01912166	0.026582193	
-0.060697712	-0.03757336	0.043701023	-0.035372596	-0.10899889	0.007953744	-0.071479015	-0.047950592	-0.06496383	-0.046850506	
0.05986074	-0.036100853	0.04563135	0.098999485	0.0497092	-0.036346618	-0.0062576775	0.07054144	0.110555306	-0.022936763	
-0.051720083	-0.00794995	-0.045336973	-0.0076327077	-0.06283899	0.024785392	-0.018349797	-0.039305307	0.008045505	0.08686582	
-0.0689909	0.040005192	-0.05332644	0.006402822	-0.091029674	-0.024810946	0.032517567	-0.034039818	0.044519305	0.050052848	
0.011654565	-0.08552944	0.07485687	-0.010974439	0.032038875	-0.058013618	0.00026538837	-0.084541224	-0.08079453	-0.043582756	
-0.10291286	0.06325471	0.020450795	0.007511291	0.05239086	0.013937237	-0.039376244	0.047556773	0.11093991	-0.04288824	
-0.04527798	0.014311501	0.084387206	0.020374708	0.05189534	-0.041902684	0.08352037	0.00022700384	0.0031208189	-0.09287349	
-0.08927247	-0.06361248	0.07369186	-0.022971889	-0.0777099	-0.031079302	0.017734326	0.025779227	0.065953694	0.01674972	
0.08281106	0.028300717	0.04485939	-0.005489199	-0.03533541	-0.05137063	0.04191193	0.111108884	-0.0125507	0.05212838	
0.042711176	-0.04934353	0.003400268	0.08853554	0.06151598	0.036888465	0.017132364	0.09901668	-0.032803234	0.0010557747	
-0.08338563	-0.041668747	-0.042599473	-0.036957413	0.03253081	0.055366095	-0.031093204	-0.013023303	-0.042263485	-0.036164563	
0.020285496	-0.0671124	0.035363924	-0.053983446	-0.011784668	-0.1008353	0.029863559	-0.021941466	0.07172923	-0.011422329	
0.00426603	0.0064464384	0.048135202	0.031569343	0.032111805	0.03858885	-0.02980184	0.02595615	-0.06591398	-0.03970214	
0.03362875	-0.046245903	0.039444473	-0.00057373923	0.020829547	-0.05516939	0.03575345	0.05376376	-0.03164391	0.11949038	
0.10080379	-0.13056788	-0.0051948694	-0.036881726	-0.04924282	0.029968029	-0.06448654	0.0960238	-0.03591535	0.033493124	
0.00052008074	-0.09820147	-0.07589446	0.01827033	-0.17822006	0.03750997	0.074602805	0.075418405	-0.03151188	0.17773083	
0.056767333	0.071626954	-0.07814411	-0.023731157	-0.045630183	-0.020641256	0.059275784	0.06718747	0.087838136	-0.0065081064	
0.031271756	0.0025847761	-0.01705662	-0.049763408	-0.1436259	0.03749497	-0.049057648	0.07175091	-0.06689206	0.042529374	
0.018859472	0.006515828	-0.016596958	0.039297782	-0.049642388	-0.06385421	-0.1271223	0.089552194	0.023919234	-0.048045967	
-0.034272596	0.021668404	0.0724989	0.06834052	0.011799157	0.01617074	-0.056053635	0.031020181	-0.04773576	0.1239854	
-0.016351689	-0.05348799	0.03879869	-0.020204363	-0.014093212	-0.0046311333	-0.05039154	0.13175225	0.0043424005	0.017838897	
0.06751528	-0.0008098839	0.030331647	0.05278428	0.03153288	0.0015294827	-0.07847387	0.050406393	0.03295199	-0.02447151	
0.13871317	0.016027266	-0.008843402	-0.0076568243	0.0007147779	-0.027964365	-0.04878053	0.037548084	-0.007425859	-0.0404271	
0.003904687	0.012379139	0.04086017	0.05457204	0.002681524	0.049820885	-0.08227663	-0.10173137	-0.09357351	-0.08133361	
-0.029057562	-0.03613103	0.046835516	0.020202223	0.08319494	-0.04409379	0.038529474	-0.034539916	-0.009055322	-0.034039315	
-0.0011548793	0.09198178	-0.036095925	-0.03136244	-0.055916037	0.0022807764	0.033821814	0.042676657	0.049045943	0.039887894	
-0.042656746	0.008188352	-0.10481569	-0.064909875	0.012412154	0.08202213	-0.018750114	0.0023636618	-0.030947348	-0.08653817	
0.070743166	0.018028073	-0.03452514	-0.0722349	0.034786846	0.08288971	-0.08311066	0.06380776	0.04928418	-0.033759862	
0.07852267	0.036067605	-0.029654546	-0.023214051	0.025792524	0.0006952911	0.009381582	-0.046788935	0.051743776	0.006050728	
-0.085489035	0.044174314	0.014671729	-0.10215708	0.03015903	0.023533504	0.03466524	0.032888066	-0.016750494	0.06205871	
0.022972096	0.06188478	-0.03817521	-0.06550287	-0.07035878	-0.044736434	0.063236855	-0.1001496	0.013268727	-0.040742587	
-0.021302493	0.07425411	0.036906928	-0.035848696	0.0435259	-0.0019319738	0.00723992	-0.04038202	-0.013708882	0.025674064	
0.021782141	-0.018749867	-0.020926606	0.025592364	-0.071246706	-0.03454164	0.035147313	0.0622252	-0.0012838846	-0.011041417	
-0.100964926	0.06648086	-0.060773544	-0.011056284	-0.08145221	0.0887431	-0.031253807	0.034469772	-0.0465748	0.042654283	
-0.019789914	0.014391121	-0.028929634	0.0017508403	-0.04276874	-0.044781808	0.0026297276	0.08325713	0.05804243	-0.022648029	
-0.007078283	-0.040050887	0.016465738	0.06905918	-0.088116005	-0.018494561	0.06671745	0.06764538	0.005730278	-0.048619743	
-0.016166558	-0.04925536	-0.0811569	-0.045904566	-0.01338953	-0.048883807	-0.023739634	0.02809291	0.09436416	-0.033447742	
-0.023268225	0.05423795	0.06446254	-0.061875723	0.028718736	-0.008820393	-0.04802382	0.08661232	0.011586656	-0.028244931	
0.052286517	0.013017097	0.033653293	0.057268355	0.0013382086	0.06003642	-0.027300613	0.055635322	0.012087406	-0.015542366	
0.06890826	0.012424509	-0.022121292	-0.045494553	-0.0678524	0.011560156	0.003494697	0.0872984	0.018611653	-0.01785972	
-0.047572184	-0.047258887	0.000425913	-0.12214121	-0.082027026	0.116409875	0.04841434	0.06551405	0.09014163	0.004614599	
-0.037161544	-0.11044739	-0.10352826	-0.021408342	0.007040266	0.036474265	-0.04089996	0.060669485	-0.035645045	0.001899369	
0.10133401	0.042498514	-0.030894019	-0.07804348	0.035140246	0.13360453	-0.04663217	0.065321736	0.09087773	0.0420007	
-0.037596636	0.08554542	-0.054889884	-0.05160072	-0.115750544	0.040414628	0.03702119	0.057757374	-0.025997126	0.101283625	
0.059160024	0.041639037	-0.053727724	-0.046123207	-0.1340299	0.06496482	0.07744926	0.15629484	-0.007979906	-0.033183277	
0.10487092	0.057383344	0.039030347	-0.06877326	-0.13658969	-0.022025324	-0.044737827	0.17585348	-0.031439148	0.026214726	
0.034921713	0.09235581	-0.024691878	0.07876764	-0.043763194	-0.009513915	-0.10704671	0.13276866	-0.1437853	-0.011687371	
0.046458747	-0.022473108	-0.05940363	-0.023892015	0.011591636	-0.07505913	-0.028929504	0.13728993	0.018137243	0.117484644	
0.06819621	-0.0417974	0.08520443	-0.034008384	0.006218745	-0.024636038	-0.17933404	0.05439492	-0.050159514	-0.049753588	
-0.03722025	-0.09642174	-0.05343453	0.026433326	-0.023064114	0.079353124	0.017554445	0.10214343	0.04531753	-0.010997922	
-0.013607679	0.051918738	-0.0670908	-0.06626459	-0.06253727	-0.028209675	-0.014109106	0.043675452	0.06394415	-0.022027463	
-0.002457046	-0.07259057	-0.030096533	-0.07813136	0.05642791	-0.03108578	0.010749414	-0.007746849	-0.009742752	0.030355217	
-0.021809919	-0.08933673	-0.016564948	-0.010833717	0.062453985	0.03423334	-0.031589806	0.022284722	-0.020953748	0.066961505	
0.016187375	0.03892063	-0.0025410256	-0.08546928	0.019845285	0.019853486	-0.04582023	0.015912866	0.013150403	-0.07086214	
0.043704033	0.024112588	-0.022613008	-0.0390951	-0.023480196	0.06659922	-0.025535125	-0.097337805	-0.018269747	-0.047198076	
0.004709102	0.07338039	0.008008272	-0.016545499	-0.036687348	-0.010903961	0.009239314	-0.042572103	0.06694608	-0.019328833	
0.02729769	-0.03417512	0.031081297	-0.0031634048	-0.012376821	-0.03722072	-0.014091278	-0.0744297	0.04689919	0.07243868	
0.013902924	0.0032191942	-0.056937147	-0.032119054	-0.021511836	0.0846986	0.022979451	-0.013859368	-0.062475212	-0.063902594	
-0.00087081466	0.0073953997	0.089670695	0.026594125	-0.022988226	0.05647914	0.060442373	0.0041700574	-0.025145655	-0.046681847	
-0.06130527	-0.00863614	-0.016174812	-0.06324393	0.05592884	-0.0666789	-0.0010356907	0.028892083	0.04030069	0.011314797	
-0.012530924	-0.097061224	-0.015311503	-0.072247334	0.014961772	0.11298546	0.018828118	-0.034121957	0.0035020348	-0.036926776	
-0.11203548	0.013295492	0.02929256	-0.050247643	-0.0024322087	-0.005525707	-0.058156528	0.085089445	-0.027449599	0.058761828	
-0.016053392	-0.017792383	0.07184089	0.050150234	0.06804114	-0.060768463	-0.067682676	0.033981588	-0.041989703	-0.015112135	
-0.09329569	0.04820633	0.026270889	-0.0182264	-0.0021077741	0.056125734	0.057989195	0.07215812	0.10331197	0.0076332088	
-0.004906915	-0.0014422722	0.0054562194	0.005274931	0.07740154	-0.055855174	-0.005374158	0.00028401258	-0.018418588	0.004112134	
0.053566583	-0.05518706	-0.012229082	-0.035685632	0.04457828	0.023070361	0.046272933	0.008909009	0.0013503326	0.079598404	
0.020352343	0.031299554	-0.03211501	-0.02417461	-0.020186298	0.006876191	-0.036072336	-0.03853849	0.014212029	0.09044473	
0.04705054	0.01578108	0.020140579	-0.0462879	0.0050285915	0.0822021	0.035479262	0.056760855	-0.03684385	0.032866567	
0.00084232545	-0.0027974558	0.0044983397	-0.12144774	0.06805996	0.07951229	-0.08651862	0.038773682	0.015464607	0.056481253	
0.1242932	-0.068062305	-0.15761583	0.020233959	-0.050456006	-0.034624077	0.083529636	-0.016299786	0.10758787	0.012401449	
0.048992272	-0.036460392	-0.12056141	-0.01602774	0.052370254	0.08876558	0.0817356	0.039622433	0.051601388	-0.10087352	
-0.049368903	0.018919101	0.043693136	0.06383061	-0.018441023	-0.00967129	0.12930626	-0.013026101	-0.017348768	-0.019299893	
0.014892014	0.054706044	-0.026614953	-0.058536645	-0.06664037	0.0150775565	0.0754787	0.049128316	-0.019089378	0.065540515	
0.004110971	0.078724824	0.015620218	0.017587898	0.025196278	0.022332545	-0.02136457	0.065474086	0.026070824	0.021221006	
0.0015434498	0.06570208	0.061562244	0.057604183	0.0030145817	-0.0119797615	-0.04391806	0.048968177	0.014357323	-0.058752187	
0.047985166	0.03196298	-0.008666276	0.09386385	0.03597445	-0.11298152	0.0224202	0.022326766	0.0013460083	-0.040003642	
-0.038406402	-0.053449	0.03663104	0.04757264	0.088229485	-0.09063496	-0.012348777	0.03891885	0.03153953	0.0181505	
0.014185646	0.06206729	0.081264354	0.07855352	-0.065496214	-0.13736627	0.007877699	0.032334812	0.06580953	0.04425424	
-0.025141831	-0.0138882715	0.08936337	-0.105916545	-0.0035476522	-0.022850564	-0.0708383	0.01961289	-0.018705407	0.043961674	
0.04002993	0.00043828328	-0.012216468	-0.054003928	-0.050629836	0.033439416	-0.0078770295	0.043582093	0.09137702	-0.043783005	
-0.007937242	0.007847816	-0.041989934	0.01820856	-0.050633665	-0.017226983	-0.091505416	0.03199915	0.07768705	0.015477508	
0.083183534	0.048267707	-0.0735528	0.011854527	0.038070824	0.064651884	-0.018060442	0.023602605	-0.037178915	-0.04448542	
0.03378778	-0.016332595	-0.09363211	0.035553772	-0.09906968	0.0018264387	0.008252241	0.04365193	0.08856227	-0.0027859847	
-0.023605898	0.08876755	0.001699128	-0.06362973	0.023966432	0.055621553	0.042114064	-0.011444714	0.020869246	0.1087745	
-0.019717796	0.084166564	-0.04244962	-0.0390082	0.0011510744	-0.02617267	0.01676802	0.09045036	0.08907036	0.0096257385	
0.006700609	0.037404913	-0.007064177	0.033732496	0.032120474	-0.045979336	-0.06807537	-0.0064310655	0.0053230515	-0.11230612	
0.019665146	-0.060476918	-0.050947964	0.028024018	0.07340177	0.050259877	-0.0027812016	0.024919081	0.048151985	-0.07727384	
0.0465231	-0.00301522	0.011193613	0.035859738	0.0358686	-0.043270815	0.042799484	0.040429946	-0.03819765	-0.026116025	
0.003538357	0.05449325	0.026447695	-0.06720787	0.019503975	0.038111497	-0.05594188	-0.087984234	0.0004949117	-0.040430702	
0.03324151	-0.018876651	0.0031212568	0.002674019	0.011934516	0.024559608	-0.023356888	0.0130749075	-0.047211714	-0.04876055	
-0.099859014	0.05658477	-0.042809986	0.0853151	0.039370846	-0.022501787	-0.0265097	0.08216666	-0.025434973	-0.009831533	
0.0059813233	-0.07883991	0.0069744326	0.07910226	-0.015700845	0.099487714	-0.061731115	0.0064557865	-0.01612266	-0.047077917	
-0.06627373	-0.018772861	0.015265005	-0.07725133	0.12222728	-0.0057985694	0.031394847	-0.011564641	0.051092003	0.015639681	
-0.009177015	-0.03567396	0.040298566	-0.0032581817	0.023649653	-0.096235454	0.0029001376	0.009524912	-0.105567865	0.07216796	
0.07603679	-0.013286936	-0.09671495	-0.09702511	-0.044741992	0.03727079	0.034242976	0.13864206	0.09255992	-0.015939964	
0.027070682	-0.050522245	-0.11049801	-0.072207995	0.097670354	0.106877446	0.11123106	0.012322164	-0.04451741	0.052770406	
-0.0024838725	-0.06003559	-0.0960273	-0.027164018	0.06609134	0.022442725	0.018470807	0.014213809	0.055263717	0.09043192	
0.017423518	-0.030684413	-0.047117136	-0.14281556	0.00804211	0.07833659	-0.05556606	0.01467779	-0.05448769	0.11557421	
-0.044430584	-0.0318149	-0.14978668	0.00092299044	-0.016546918	0.028354961	0.0059709717	0.015621394	0.046488468	-0.04657975	
-0.028795341	0.044704847	0.025352925	-0.049898896	-0.04762675	-0.021723047	-0.008302871	0.021264587	-0.002411962	-0.12567008	
0.0014379293	0.18185504	-0.032400213	0.16158755	-0.068185754	-0.0766615	-0.07188627	0.09324226	-0.040419344	-0.05095197	
0.0048313593	0.08192778	-0.042205434	0.08947359	-0.03655998	0.048404958	0.028484194	0.019600999	-0.08848925	-0.038509466	
-0.07171215	0.05088057	0.053722773	0.08230928	0.05714357	-0.13839504	-0.02251027	0.07270675	0.04377358	0.015194275	
-0.08364844	-0.06673264	0.09183487	0.09462151	0.018502075	0.037169497	0.00849971	0.113003545	-0.002410602	-0.059792463	
-0.022117158	-0.04101674	0.09854606	0.080063	0.11593383	-0.046905085	-0.02696659	0.055983815	0.009127268	0.110607974	
-0.01901154	-0.0131295035	0.039685544	-0.045093246	-0.023660786	-0.10320743	-0.025341453	0.04033517	-0.06297647	0.025737377	
0.052799225	-0.06981234	0.06678987	0.026459511	-0.025667833	-0.07045533	0.022011569	0.0470833	0.041777328	-0.040759545	
0.046321683	-0.01804795	-0.06966005	0.05128636	0.08307617	-0.11555143	-0.1194203	-0.016888114	-0.05342597	0.07814196	
0.034960467	-0.063561544	-0.019365752	-0.0030377905	-0.07732853	0.045707636	-0.092032164	0.04449205	0.03803127	-0.057861187	
0.009244206	0.013958938	0.033314858	-0.04438739	-0.0007659464	0.012629134	0.06375597	0.09174908	0.08327273	0.03174249	
0.017693635	0.08806103	-0.025471967	0.06674711	0.07442963	-0.093958326	0.011953925	0.0065661184	-0.06195115	-0.05388132	
0.0033490378	0.05524429	0.043555256	-0.03781792	0.034835592	-0.012840825	0.017433602	0.040777594	0.053937342	-0.045657318	
-0.016221391	0.027479481	0.019174462	-0.066863984	-0.09395786	-0.06592835	-0.07076909	0.0056752707	0.032617234	0.039285567	
-0.03555354	-0.032767307	-0.019830873	-0.0038571232	-0.08950428	-0.012907822	-0.0060802647	-0.0498537	-0.03426057	-0.04816535	
0.022543782	-0.045201913	0.0045130104	0.108744085	-0.015986048	0.041279647	0.07619993	0.06817656	-0.020158028	-0.026109261	
0.0008669838	-0.009503047	-0.056624558	0.05236814	-0.015572419	0.019220825	0.07596904	0.0032564302	-0.014527833	0.08218467	
0.091078	-0.008948777	0.0583044	-0.057548147	-0.044746436	-0.019675113	0.0007459809	-0.07962057	0.07599234	-0.030036785	
-0.0649253	0.0723826	0.043982193	0.025084369	0.0035430426	-0.024383204	0.027031323	0.06117509	-0.018652217	-0.05676588	
-0.07153091	0.050599936	0.11036308	-0.063654885	-0.065871626	-0.10048318	0.064931504	0.06429212	0.029816423	-0.0602012	
0.015470254	0.03439021	0.012886367	0.035478845	-0.08280534	0.023313247	0.058429174	-0.060536105	-0.020243268	0.042410158	
0.008333843	-0.018276617	-0.009052229	-0.009576213	0.00030448	-0.01968561	-0.037438054	0.06535387	0.013484091	0.0048806905	
0.082202695	0.04042636	-0.133249	-0.030106092	0.062024444	0.009397231	-0.071333304	-0.0632975	0.022321824	-0.0372793	
0.07116242	0.048595108	-0.09825389	-0.06557154	0.07212584	0.039686054	-0.024656156	0.018633548	-0.033478934	0.10293611	
0.09069418	-0.028567133	-0.012659459	-0.08179597	0.00025166737	0.060399953	-0.016108748	0.01972983	0.022744562	-0.0018202516	
-0.018735342	-0.028975626	-0.050188646	-0.07177018	0.113616906	0.0682442	-0.009911117	-0.08077103	0.07123072	0.044692583	
0.07751237	0.02965931	-0.066026814	-0.0465116	0.058517054	0.049589235	0.03008208	-0.007822472	0.04918831	-0.0030810721	
-0.040719334	0.03474485	-0.07457704	0.112578146	0.008840219	0.08016555	-0.056110423	-0.05384638	0.071983844	0.054458167	
0.011539188	0.0672342	0.009021523	0.18185997	-0.03771745	0.0928593	-0.017529657	-0.09652271	0.013168143	0.020351287	
-0.10575338	0.20365803	0.009839502	0.12628241	-0.1142289	0.013993898	-0.024975829	-0.060661558	-0.06551767	-0.071964964	
0.02419399	0.19079626	-0.035667937	0.0036599613	-0.0074346806	0.014963662	-0.033499777	-0.06697066	-0.046701927	0.054817084	
-0.14514196	0.09084357	-0.1309357	0.010262236	0.08590752	-0.026634548	-0.0017729071	-0.011509088	0.059492007	0.009785371	
-0.074367024	-0.042705752	0.023860248	0.026283277	0.07040369	-0.02735286	-0.08898601	0.050690103	0.011736917	-0.002180056	
-0.06572192	-0.108776614	0.026447115	-0.03574264	0.032060936	-0.13934548	-0.029020345	0.055114377	-0.004952599	0.009934472	
0.09314857	-0.0471412	-0.0911361	-0.08334661	0.059752483	-0.07087066	0.028910037	0.016133625	0.021674316	0.033697356	
0.126307	-0.10214078	0.021029959	-0.08599131	0.00049028575	-0.040287353	-0.003750185	-0.013963284	0.008288643	-0.049911063	
0.08738811	-0.057134274	0.013143994	-0.031451095	0.039649557	-0.11754654	-0.042081602	0.022856073	-0.08463353	-0.029633395	
0.048790492	-0.039142676	-0.029054597	-0.06694188	0.01742115	0.09001722	0.012813161	0.04857607	0.042030632	-0.030346543	
0.04159605	0.049931746	-0.006503767	0.0035905852	-0.016930295	-0.0097801965	0.08005033	0.064337	0.020701706	0.02576292	
0.06354406	-0.05647134	0.03955275	-0.0005962768	-0.05995833	0.09466977	0.058457606	0.035658084	-0.09226847	-0.029091164	
0.0068161217	0.10355351	0.034047775	-0.019422784	-0.05822387	0.040778536	0.00037949308	0.08829502	-0.038052578	-0.048735045	
-0.04121227	0.049286313	-0.0036489458	0.034554977	0.018938564	-0.02225985	-0.03654654	0.017054161	0.0108647	-0.054146018	
-0.015443436	0.07961206	0.05201589	0.026921457	-0.009288366	0.09376045	0.09848689	-0.098926485	0.0207473	0.033984955	
-0.07160558	0.017092431	-0.0066405497	-0.035305154	0.019021554	-0.050612446	0.019594405	0.09248081	-0.06057774	0.036297724	
-0.05322526	-0.0072916714	0.10023992	0.025501492	-0.076266915	-0.03250142	0.07265514	-0.02286988	0.05177464	-0.028490692	
0.026643569	-0.024463965	-0.048626576	-0.014633932	-0.049258802	-0.040681385	0.016857093	-0.048215996	0.027791902	-0.028633602	
-0.038338415	0.054993477	0.028982408	-0.0065036514	0.060769558	-0.012979095	-0.02737591	-0.025252007	0.042436816	-0.008616791	
-0.114066094	0.059527874	-0.0040564365	-0.10660623	-0.0011145797	0.004245679	-0.03357051	-0.0017054952	-0.014298857	0.024466697	
0.02710105	0.019579157	-0.06792004	0.03636378	0.022777528	-0.008957237	-0.0428769	0.048563275	0.025349615	0.017198168	
0.08224032	0.007521751	0.0042821546	-0.06456991	-0.017921796	-0.011659273	-0.01669483	-0.024664385	-0.042649172	-0.05227715	
0.053636935	-0.02589775	-0.12946764	-0.04198812	0.08339063	-0.037475675	0.00841322	0.04316273	0.047824744	0.09577699	
-0.008223708	-0.047997948	-0.08977941	0.016779162	0.13769352	-0.04933107	-0.058854956	-0.027684115	-2.521506e-05	-0.012000786	
0.09904893	-0.023923788	-0.036272317	0.012859171	0.090698056	0.0050813947	0.018559068	-0.046291884	-0.047644764	0.05656188	
-0.06549852	-0.07821305	-0.08424706	-0.02779898	0.07570833	0.06740397	-0.021789806	-0.0012098196	-0.010328533	0.03478889	
0.033563703	0.00084316346	-0.090454556	-0.050383992	0.10078027	0.010248098	0.08899585	-0.12245224	-0.005918469	-0.08897897	
0.03183602	-0.11221865	-0.1499019	0.05138524	0.08009856	0.026147535	0.067552835	0.046262365	0.06584279	-0.08705537	
-0.13129094	0.1517311	0.0056521217	0.04176025	-0.01740504	0.06567408	-0.039818462	-0.05051469	0.057353202	-0.016470708	
-0.08431876	0.19778493	-0.009219051	0.03678792	-0.021647751	0.1017328	-0.043628816	-0.035013616	-0.0025926635	-0.013371744	
-0.17216478	0.15982682	0.0006483835	-0.004939504	0.015386811	0.041561715	-0.073419526	-0.020903615	0.024785537	0.029145475	
-0.03772621	-0.09969661	0.024410931	0.037818436	0.036717243	0.0749141	0.07648778	0.02625535	-0.061425775	-0.041714348	
-0.15720585	-0.13005462	0.02401725	0.06836275	0.035067093	-0.09528092	-0.03793707	0.04418948	0.07345348	0.062940605	
-0.020489583	-0.013725607	0.043946296	-0.0063902014	0.059768535	-0.06927797	-0.06829664	0.05026277	0.06549987	0.041282408	
0.007458741	0.02061187	-0.018911904	-0.11639012	0.056876954	-0.027746808	-0.08002434	0.10035882	-0.009314811	-0.025229689	
-0.0002939413	-0.022954354	0.023989359	-0.08920552	0.054152142	-0.0094527155	-0.031137614	-0.024148237	0.079304434	-0.011790326	
0.017629331	-0.050493408	-0.049671542	-0.0020143986	-0.06981382	-0.054614894	-0.061351668	-0.052329775	-0.059035286	-0.039333146	
0.06980576	-0.035796043	0.013894	0.03585241	-0.102326624	-0.07228479	0.051669903	0.039924078	-0.012262923	0.04416804	
-0.0016289874	0.050102565	-0.06070436	-0.03999534	0.020919088	0.006542972	0.05885171	-0.0042853625	-0.1029511	-0.115577206	
-0.023733582	-0.082017146	0.08636729	-0.02202301	-0.043282606	-0.09538641	-0.04876728	0.023914399	0.059241667	0.05571249	
0.012863677	-0.03270392	0.032058783	-0.024042832	0.04460357	-0.05348543	0.02526751	0.034499716	0.04010188	-0.0342911	
0.10319824	-0.03477574	0.03899209	0.045504067	-0.015890868	-0.051978037	0.045803055	-0.059327535	0.039389133	-0.06767138	
0.09262986	-0.0045835827	0.039880887	-0.018227736	-0.03543949	0.0049044015	-0.100130424	-0.06326072	-0.08672502	0.0068244534	
0.05458928	-0.050751	0.030225914	-0.0163013	-0.005552526	0.045145847	-0.012165635	-0.049821913	-0.058642134	-0.055224814	
-0.015983805	-0.031566218	0.027064769	0.1005407	0.0130470395	0.015360869	-0.031239737	0.017785568	-0.031117674	0.08181856	
0.082293145	0.075723805	-0.031954493	0.021462236	-0.060926024	-0.044156313	-0.05686948	-0.0042947074	0.06662523	-0.060417857	
-0.01860689	0.027249655	-0.02925084	0.03759705	0.026449613	0.022216968	-0.06920006	0.050098173	-0.050741896	-0.031741414	
-0.02332483	0.02947149	-0.055204943	0.03392515	-0.0033114164	-0.08231143	0.051180784	-0.074253425	0.018819947	0.05672553	
0.030244172	0.045397308	0.015770487	0.0019423818	-0.01866568	0.07623969	0.026157921	0.10214288	-0.05308331	-0.066187784	
-0.040038127	-0.079884954	0.0060382932	-0.003733927	0.0058392133	-0.107575335	0.006950351	0.0067940713	-0.0625105	-0.022985237	
0.07324233	0.0011826385	-0.019766096	-0.07891706	0.07362917	0.03722811	0.045064252	-0.07052862	0.008617193	0.062070735	
0.15216434	-0.04510666	-0.067133576	-0.05909441	0.14738627	0.06891294	0.0026412576	-0.09834526	-0.15329611	-0.003483988	
-0.004775592	-0.030075548	-0.029152386	-0.05720494	0.15597832	0.07998854	0.07893942	-0.07836759	-0.08538671	-0.017503658	
0.047284655	-0.04327298	-0.008592679	-0.010613872	0.004918111	-0.006347771	0.0038202973	-0.020555181	-0.06776352	0.004064461	
0.05991701	-0.06575427	0.0042888075	0.0935018	0.049497526	0.01766413	0.08132137	-0.0769127	0.01929701	0.013880527	
-0.062108096	0.014411908	-0.0304352	-0.05102311	-0.028385201	-0.049995016	-0.056672126	-0.13351549	0.028286755	0.026989529	
-0.11165633	0.12681071	0.03319118	-0.048881285	-0.061924133	0.027104784	-0.01352158	-0.119223274	0.046634044	-0.03404647	
-0.1345627	0.12695612	-0.0066001406	0.00032082555	-0.08540557	-0.0202836	-0.017334139	-0.064106785	0.070947036	0.116371006	
-0.14797458	0.079859145	0.0062027588	-0.06219289	0.08149143	-0.045098335	-0.043314558	-0.02334797	-0.0072758193	0.047469445	
-0.0830113	0.05855522	-0.09679001	-0.07614933	0.16313484	-0.08933412	-0.033773445	0.009268794	0.012502783	0.04550326	
-0.11329098	-0.08342264	-0.064155474	0.063987136	0.05804004	-0.06788209	0.022520714	0.041341264	-0.07857797	0.10418822	
-0.035365652	-0.08053716	-0.037973452	-0.006102286	0.12062793	-0.030721355	-0.03680002	0.052351482	0.0030482756	-0.04886734	
0.020377755	-0.06208772	0.048716553	0.04255488	0.06618505	-0.031593833	-0.0151410885	0.057223182	-0.0071324357	-0.0029437628	
0.0126224505	-0.020769197	-0.030879676	-0.00876725	-0.0029868972	0.010331	0.03721836	-0.016616415	-0.06765501	-0.06018452	
0.073142186	-0.055971038	-0.026606038	-0.09295968	0.00034746947	-0.048850603	0.010895283	-0.043560047	-0.12580085	-0.012844383	
0.0036565422	-0.037161566	0.051045965	-0.06791477	0.058879033	-0.029216073	0.028666927	-0.022585064	-0.039055806	-0.011800273	
0.1255679	0.010788633	0.028198494	-0.007392244	-0.017141229	0.05978328	0.034355693	0.011285234	0.0011272572	-0.08722975	
0.0004861348	-0.0411893	-0.045196515	-0.038152825	0.0033333316	0.012948364	0.06953517	-0.06029346	-0.015610192	-0.05308977	
-0.06788665	0.07052076	0.0028564513	-0.02593731	-0.09920826	-0.049195863	0.02162645	0.029225107	0.0204465	-0.097553775	
0.111429445	-0.038409166	-0.013539627	-0.049104337	0.09483805	-0.07201654	-0.012644084	0.038395803	-0.099415556	-0.039768048	
0.027508931	0.03326367	0.044260114	0.026710872	-0.0017372839	0.083232805	0.0675899	-0.011599032	0.024682203	0.010298311	
-0.0043115374	-0.0400732	-0.044184603	-0.0064821844	0.0035038458	-0.06658889	0.004626683	0.07514587	0.05790765	-0.052007765	
-0.065403104	-0.031603172	-0.02649848	0.07551537	-0.08267285	0.07628975	0.005555637	0.055330947	0.0019474224	0.027431823	
-0.049914226	-0.009776592	0.050992124	0.0007593016	-0.015057382	-0.058502052	0.074682675	0.076552525	0.040577836	0.033081997	
-0.040147673	0.09756379	0.012624381	0.04709829	-0.028161718	0.047167107	0.097257555	0.04596858	0.015668968	0.043582626	
0.020800075	-0.0037513804	-0.05870912	-0.040328443	-0.104570776	0.044118296	-0.035783254	0.083984	0.05036478	0.09312591	
0.09382089	0.010428308	-0.04429336	0.031189779	0.050278537	-0.024756823	0.020131752	-0.014481897	-0.021530412	-0.06448754	
-0.049899623	0.028093535	-0.07174737	-0.05047938	0.060510937	-0.02423185	0.042601794	-0.10384764	-0.0017145626	0.04574563	
-0.012256562	-0.08417893	-0.00083282153	-0.04556009	0.051505674	-0.0077403286	-0.034486968	-0.05188261	-0.0338308	0.002230376	
0.021771545	-0.094132766	-0.04317202	-0.045082603	0.09556267	-0.013007313	0.021118611	-0.01330001	-0.099911325	0.081671394	
0.034678224	-0.005788978	-0.07078033	-0.054013025	0.062855646	0.046564285	0.14975408	0.025029065	-0.0031490156	0.05183732	
-0.029065568	-0.10381633	-0.03388259	-0.06694463	0.13549167	0.11132584	0.018719325	-0.027262205	0.017322753	-0.036063362	
-0.05035516	-0.025330765	0.09261152	0.010658902	0.14507233	0.0462159	0.013465703	-0.0089186095	-0.025765963	0.13792484	
-0.090081975	0.02930355	0.019317996	-0.04227106	0.13906209	-0.057640675	-0.0001334468	-0.17091233	0.102996476	0.0076812753	
-0.11241247	0.1124881	-0.018639857	0.0039054137	0.040825203	0.0052409666	-0.052516643	-0.043615665	0.053921532	-0.10015385	
-0.07232504	0.07889584	-0.010144124	-0.0615409	0.06850439	-0.096821375	-0.024846835	-0.043089546	0.043453947	0.008019861	
-0.06365592	-0.05361394	0.00067211303	-0.060577635	0.053470105	0.062764764	-0.011504654	-0.018428678	0.069240026	-0.006573777	
-0.053609036	-0.04477373	-0.116575845	-0.04388635	0.067772105	-0.07447847	0.08272318	0.040124685	-0.040063962	0.08607268	
-0.060504578	-0.08849774	0.034902114	0.020124124	0.060834426	-0.051762994	-0.05376598	0.01704636	-0.034765076	0.03289522	
-0.10318929	-0.02954109	0.04835821	0.05175697	-0.003178667	-0.033956468	-0.023834635	-0.04669371	-0.035107248	-0.010101951	
-0.0145351235	-0.08686699	-0.09754117	0.10236427	0.05918677	0.031925607	0.025418496	-0.0031878292	-0.061356686	-0.03425386	
0.09627238	-0.08361554	-0.053766266	0.042626355	-0.055884868	-0.016006207	0.053902257	0.0140535645	-0.008609759	-0.061729994	
0.038915142	-0.011409771	-0.018582063	-0.018063737	0.0025126091	-0.05236472	0.033918153	0.05083299	-0.0423764	-0.11221757	
0.076148055	-0.025582781	-0.03257294	-0.0062952023	-0.051364306	0.0069811917	0.02020784	-0.08402855	-0.03252551	-0.0526302	
0.05292233	0.035974983	-0.08598433	0.03251086	0.08951373	-0.05958179	-0.009166425	0.010327514	-0.118323945	-0.04420945	
0.010359731	-0.052380558	-0.10021961	0.015091179	-0.104024164	0.05474242	0.008647068	-0.02111903	-0.05340886	-0.05477714	
0.0071549267	-0.032305475	-0.057209894	-0.032879263	-0.0018145207	-0.017963963	0.07283874	0.0075141815	0.040688124	0.04999639	
0.028558563	-0.10558818	0.023868568	-0.06573925	0.03573137	-0.026620412	-0.034406412	0.08165549	0.023981268	0.023159228	
-0.055355895	0.033929814	-0.02136086	-0.036441356	0.0580405	0.067974776	0.061474387	0.026156368	0.059237495	0.026242148	
0.05675359	-0.076702155	0.005888257	-0.05127957	-0.10125012	0.011659561	0.03609469	0.04287443	-0.053279635	-0.032724313	
-0.026428603	-0.01359906	0.085297175	0.0540818	0.034418017	0.1013577	-0.0022824872	-0.00967935	-0.06229115	0.044785425	
-0.10917906	-0.03775961	0.08084439	-0.07355463	0.07529077	0.035340972	-0.08403573	0.071349055	-0.008915999	0.11357262	
0.06529584	-0.07772644	-0.021498593	-0.038375236	-0.07292282	0.021069555	0.10479553	0.033537857	-0.018122997	-0.019700438	
-0.016344773	0.060386192	0.04440705	-0.034690388	0.008405748	0.022414068	-0.003650223	-0.04077629	0.011402692	-0.060751244	
-0.015878735	-0.01058699	-0.06086374	0.027705995	-0.03160909	0.02369653	0.047957573	-0.03241771	-0.010330249	-0.073119596	
0.029861128	-0.039380196	-0.01280795	-0.026868854	0.06912471	0.044192825	-0.05998338	-0.07077988	-0.08225664	0.03866014	
0.021982403	-0.047231037	-0.024136493	-0.01569006	0.034533482	-0.12604597	-0.043445755	-0.061560486	-0.052291147	0.071188845	
-0.038772482	-0.030250616	-0.014002565	-0.04793437	-0.0023728989	0.03359731	0.12428508	-0.07701795	-0.021196842	-0.010364627	
-0.032175627	0.013134547	-0.0039608446	-0.06443168	0.07391734	-0.08992873	0.04599565	-0.07059199	-0.012502761	0.0049178256	
-0.0003150934	0.038591363	-0.040553894	-0.046805516	0.070824794	-0.10048604	0.027432187	0.024293091	0.008393265	0.072827265	
-0.02997336	-0.013238422	-0.0018260744	-0.07190762	0.11645222	0.011182863	0.005182841	-0.023008345	0.06272027	0.038531557	
-0.05862465	-0.02822617	0.046429425	-0.04553788	0.04339569	-0.026903128	0.05629707	-0.0907869	0.057512894	-0.063688844	
-0.17534041	0.026582438	-0.012833498	-0.116433255	0.1452845	-0.016325584	0.06785131	-0.00027557768	0.07091238	-0.037245642	
-0.124130204	0.13261962	0.109182395	-0.06818633	0.05821165	-0.06861037	-0.005974821	-0.09899048	-0.035299808	-0.07216151	
-0.10107512	0.034819208	0.00146349	-0.0026625649	0.115655735	-0.018811697	-0.069885656	-0.07245535	0.061179444	0.015392712	
-0.034837537	-0.071264945	0.09972696	-0.019392427	0.08490982	0.067814305	-0.05439627	0.06421404	-0.011386504	-0.03893633	
0.00484638	-0.08673765	0.07969351	0.010203906	0.12418366	-0.036472175	0.077016376	0.061626427	-0.051896073	-0.01602728	
0.0061485996	-0.069502145	0.024871357	-0.005370628	0.07590445	0.016582435	-0.002084917	0.0764234	-0.059911445	-0.001702568	
0.033228926	-0.0041775736	0.057125613	0.06928252	0.116058394	-0.021649998	0.100090876	-0.04090911	-0.03166654	-0.04690066	
0.064093076	-0.06172259	0.019866545	0.050078887	-0.014128556	0.07053799	0.06975029	-0.016580487	-0.059027664	-0.031238126	
0.020013694	-0.07283208	0.028371302	0.025355758	-0.110993996	-0.011239238	0.09417923	-0.021258742	0.012454783	-0.0068135313	
0.027601764	-0.03642719	-0.034082614	-0.04860212	0.02179005	0.038739935	0.063272655	-0.0057305903	0.034050424	-0.04429865	
-0.041023925	0.06256639	0.019111186	-0.029715318	-0.013898163	-0.06794475	0.046655405	0.00943261	0.06960097	0.0012838211	
-0.0154452445	-0.013373537	0.043920755	0.043337326	-0.0292415	-0.06546331	0.04922393	-0.06051308	-0.028065741	0.026132748	
-0.05093053	-0.06840296	-0.017911544	-0.020959886	-0.06688834	0.095442854	0.016811842	-0.071582645	-0.017388651	-0.029634546	
0.025698712	0.014740916	0.023239156	-0.014600031	0.01857152	0.03069618	0.08797945	-0.00033886597	-0.0402336	0.0077326465	
0.083489835	0.01533039	-0.0354861	0.015128684	-0.07058827	0.06076224	0.06535518	0.02343971	-0.07508967	0.0992804	
0.062349092	-0.013425781	-0.070837945	0.054692708	0.07715699	0.03336298	0.0025144692	0.0031121247	-0.028785393	0.06149856	
0.0050314814	0.070360914	0.031438828	-0.026257046	-0.004358074	0.1092594	0.0004498303	0.086873695	-0.05729503	-0.07223852	
-0.05633708	0.009527785	-0.004719248	-0.025066642	-0.008857716	-0.0053321654	-0.01720928	0.016608242	0.062125202	-0.055133544	
0.052459303	-0.06694605	-0.04787126	-0.039444204	0.02700915	0.10148679	0.10059658	-0.036896758	0.01366842	-0.059373908	
0.00833744	-0.018187309	0.02264216	-0.08028763	0.029861953	-0.07053016	-0.06093148	-0.003782012	-0.058405206	0.075049184	
0.018905256	-0.020029426	-0.006958007	0.012634882	0.04314285	-0.05954793	-0.035451163	-0.043125696	0.028955936	-0.025516165	
0.05662956	-0.0081658	0.09237542	0.061429296	0.050277624	0.0055004586	0.0463429	0.01818315	0.070638366	0.036079526	
0.038470805	-0.071223885	-0.0044150106	-0.051857866	0.05664674	0.01262977	-0.020037511	0.0011410383	-0.014431286	-0.04407191	
0.01744848	-0.12113811	0.030137088	-0.03260947	-0.05168786	-0.04329587	0.055403598	-0.01604639	-0.06034914	-0.0061403057	
0.018977609	-0.0873895	-0.035128526	-0.001217144	0.05285072	-0.09030514	0.048909936	-0.061176207	-0.04887876	-0.04864402	
-0.034024548	-0.067840904	0.098119125	-0.06601741	0.009678507	-0.019815195	0.1354633	-0.124909565	0.029983778	-0.019163392	
0.01374434	0.08094969	0.10488152	-0.15569782	-0.025097819	0.029396519	0.073027395	-0.053993557	0.04572885	-0.0758676	
-0.09500961	0.042202074	0.13110253	-0.07926743	0.067834474	-0.11133597	-0.0067557767	-0.1251728	0.045148175	-0.079186246	
0.0075620585	0.12944624	0.08747974	-0.12728599	0.1067566	-0.018013608	0.0023999896	-0.08809382	-0.0017553602	-0.020104805	
-0.025761105	0.120684855	0.078539655	-0.0075996504	0.013264498	-0.02940157	0.032700744	-0.07927541	0.062586926	-0.0408711	
-0.024513884	-0.03495057	-0.0067517795	0.020875266	-5.3319847e-05	-0.015494434	0.0027145115	0.053649884	-0.10313867	0.06167808	
-0.10363523	0.029152278	-0.057827473	-0.030943872	0.08531338	-0.046438824	-0.00086319505	0.15173115	-0.10586212	0.039911903	
0.026364252	0.03340006	0.06255407	-0.013919334	0.060037337	0.09358282	0.052476157	0.07556108	-0.056467455	0.13505831	
-0.05237384	-0.14451778	0.07581911	0.022730812	0.13394792	-0.02694203	0.11838846	-0.049606975	-0.075903095	0.018952243	
-0.05027985	-0.056723207	-0.011599808	0.07747015	-0.045294635	0.015155553	-0.038316645	-0.068501554	-0.012047545	-0.057812613	
-0.012562361	-0.007594157	0.034830358	0.05106906	-0.0028314155	0.031172594	-0.00922061	-0.076147	0.02609014	-0.042342838	
0.10098112	0.012189322	-0.036479462	0.028751409	0.03598611	0.06462964	-0.027200138	0.0077344105	-0.022034679	-0.022962144	
0.052414205	-0.0784854	-0.029215556	0.038891356	-0.031920724	-0.029023824	0.08085197	-0.030697897	0.0012356474	-0.06081369	
0.09236877	0.017273631	-0.0147586	-0.0030268638	-0.06314859	0.0004312356	-0.01908101	-0.016315939	0.08089676	0.05744222	
0.029075515	0.0051910016	0.047627833	-0.016756741	0.002498781	-0.08279978	-0.10708291	-0.07484723	0.008995827	-0.047001634	
0.07938149	-0.07839206	0.028236063	-0.087866396	-0.05870967	-0.05883298	0.05315806	0.010531057	-0.033243828	-0.004691044	
-0.09562067	0.037592623	0.09558075	0.0814302	0.04161128	-0.040461186	0.10463735	0.034292724	0.02687383	0.07843933	
-0.077227704	-0.10315317	-0.084381014	-0.007242213	-0.057584092	0.058441926	-0.014741729	0.025887838	-0.031781513	0.11307958	
-0.03456681	-0.014556927	-0.030272573	-0.056645606	-0.025623038	-0.031241508	0.08547336	0.04596671	0.05042793	0.025277002	
0.032661192	-0.06178235	0.031980507	0.03254649	0.032960694	-0.059731547	0.027380077	-0.08605426	0.03550471	-0.012589433	
-0.036783334	0.014401028	0.05512335	-0.05367599	-0.034504853	0.05908721	-0.017638259	0.083932	-0.040005654	-0.0025778816	
0.02034423	-0.06435656	0.042805143	0.079162136	-0.010409206	0.042279664	0.10053025	0.05312532	-0.013493431	-0.07281601	
0.0049196896	-0.07699881	-0.0476374	0.06606578	-0.009320359	-0.03907303	-0.06324787	-0.010310503	-0.088814005	0.060272537	
-0.0096614985	0.050131414	-0.06557682	-0.065039165	-0.058005054	0.026309466	0.09150079	-0.012278213	-0.06389878	-0.049219582	
0.061627343	-0.006529751	0.11044624	-0.03547112	0.038225748	0.035321996	0.017147139	-0.015515476	-0.013369007	-0.058143184	
0.14047775	-0.022703528	0.004985605	-0.033363365	0.0023331698	-0.015920537	-0.011174662	-0.055144534	0.071647145	-0.046353925	
0.04271808	-0.005969719	0.0039758743	-0.116403066	-0.06632091	-0.040414188	0.069293216	0.0012071312	0.025196027	-0.07289912	
-0.035439327	0.014457253	0.069001675	-0.10230093	-0.0056819823	-0.123044245	0.05228831	-0.042635467	-0.016823912	-0.053868808	
-0.004581689	-0.03177036	-0.032204293	0.010070447	-0.083147466	-0.049169727	0.028606432	-0.118622586	0.03967279	0.009934958	
-0.049111135	-0.014133652	0.14724389	0.043131337	-0.06975759	-0.058716826	0.09334582	-0.017533008	0.12572564	-0.034650445	
-0.12463644	0.04419426	-0.059569564	-0.029372029	-0.08516613	-0.012012905	0.0040608076	0.01672339	0.07028181	0.028030038	
-0.04359962	0.069251895	0.055022605	-0.17401177	0.052452285	-0.08995101	0.030590026	0.021071214	-0.047777552	-0.034809723	
-0.14203441	0.06414948	0.05412074	-0.05847692	0.082112215	-0.0989496	0.055426955	0.059404798	0.041212246	0.0154149495	
-0.082057804	0.08643608	-0.061927635	-0.0036606165	0.088174924	0.014161039	-0.00055895036	-0.032762855	-0.05709716	0.11928693	
-0.1113143	0.012242104	0.054103	-0.1268585	-0.045295484	0.057047322	0.110881455	0.07419317	0.05968552	0.11420705	
0.021638766	0.004628116	0.09655288	0.06483302	0.02699772	0.06437203	0.08104184	-0.08540455	0.04438432	-0.027038094	
0.037080865	-0.080396496	0.056543	0.13464834	-0.039367884	0.042457417	0.15848929	0.031142244	0.042718016	0.04639458	
0.07826145	-0.12550786	-0.0377167	0.06893518	0.02700743	0.075134285	0.079219356	0.059168696	0.005365873	0.004500742	
-0.04580701	0.029739505	0.019148856	-0.062307596	0.057243794	-0.057152245	0.043462742	0.009449317	0.0016554184	-0.01116623	
-0.019777905	-0.07650589	0.0461847	0.04224442	-0.08296611	0.0053893714	0.09860725	0.013118937	0.06643593	0.00040940678	
0.11100562	-0.08746444	0.067452565	-0.067047454	-0.016896186	0.024997622	0.0029353863	0.035676755	-0.07109984	0.034199525	
-0.0073237033	-0.018888393	0.06335022	-0.01421865	0.00016889084	-0.06869796	-0.0956509	0.002367129	-0.025071843	0.0447837	
0.043051768	-0.019644411	-0.023826787	0.028283415	0.0086416155	-0.0872822	0.09794502	0.0015314535	-0.026982103	-0.023802562	
0.034392536	0.06318702	0.014421949	-0.019587312	-0.11033864	0.0120762605	0.059657976	-0.032587204	-0.0021174948	-0.021897087	
-0.004783111	0.054423824	0.026128506	-0.0033848279	-0.029161595	-0.033448514	0.033389065	-0.051605094	0.11063672	0.018616507	
0.037458304	0.051086936	0.03307392	0.0013631524	0.0043718247	0.02804652	-0.045377854	-0.009028559	0.037075657	0.04716639	
0.015335362	0.017602528	0.051140122	-0.04153284	-0.012118853	0.06007761	-0.058234535	-0.009886822	-0.014863954	0.08568669	
0.02606624	-0.07177348	0.02197096	0.013515163	-0.0060758535	0.03552307	0.028878968	-0.05808222	0.058605038	0.012475237	
0.05441666	0.021434857	-0.017186878	0.040589493	-0.001370941	0.004769022	0.04241661	-0.020477954	0.04613407	-0.034686647	
0.07547235	-0.0550079	-0.017851569	0.03451595	-0.05091896	-0.050465185	0.03303607	0.048341464	0.012670155	-0.015698425	
0.078397304	-0.0330842	0.036522426	0.06439171	-0.007358963	0.07886478	-0.06593253	-0.040103257	-0.089879036	-0.07997385	
0.02299767	-0.0037039435	-0.052333225	0.018360276	0.0638641	-0.0006650307	-0.114193715	0.013690634	-0.020842288	-0.12298461	
0.089196354	0.011942923	0.050337438	-0.07609053	0.016218945	0.112204745	-0.012414983	-0.027829641	0.05023064	-0.049515978	
0.12415215	-0.020188648	0.09095014	-0.017019	0.05300599	0.079776034	0.0016225324	-0.0202165	0.10372541	0.0072096614	
0.050015982	-0.0065558203	0.086002946	-0.06833192	-0.016893262	0.041623697	-0.048310947	-0.07406643	-0.02810347	-0.05340268	
-0.032131743	-0.022415398	0.038331278	0.07690142	-0.054135337	-0.11725363	0.04266643	-0.07857301	-0.0048836437	-0.07668918	
-0.035069864	-0.03722247	0.066505596	0.0386497	-0.017468587	0.042927388	0.036202937	0.031708598	0.13818067	-0.015597653	
-0.08251695	0.0766691	-0.046179056	-0.026220674	-0.10238504	0.025434617	0.098817945	-0.007204369	-0.016766697	-0.08650687	
-0.037175655	0.055006355	-0.022395523	-0.086496115	-0.030034006	0.00794266	0.12487989	-0.04488207	0.06881645	-0.063449144	
-0.0721373	0.16257653	0.108677685	-7.472578e-05	0.031530127	-0.042601954	0.0695849	0.0316799	-0.12602806	-0.037709944	
-0.014735856	0.079164766	0.013477354	-0.008334936	0.068999656	0.04324624	-0.027286015	0.091540135	-0.022153085	-0.017463358	
-0.012256331	0.08768926	0.04368772	0.050878167	0.028618732	-0.04380253	0.05983927	-0.038578622	-0.080214985	-0.038349204	
-0.008394219	-0.070437364	-0.012368074	0.032305636	0.085394315	-0.060281646	-0.054481212	-0.09966339	0.02627557	-0.02951127	
0.08211836	-0.122682065	0.08055179	-0.08303517	0.007971861	0.1119396	-0.04089613	-0.01776797	-0.02537141	-0.07275434	
0.0032032346	0.024020104	0.0018756989	0.10033832	-0.0650965	0.04204281	0.021019544	-0.027384244	-0.055625714	-0.0301558	
0.034958586	-0.017272558	0.049850497	0.03896881	0.02345629	-0.047449626	0.06929924	0.06260521	-0.10602646	-0.04119169	
0.024649005	-0.040210992	0.08820135	-0.026077555	-0.0063443766	-0.002450376	-0.046055518	-0.012215352	-0.035470773	0.0025756024	
-0.012820586	-0.054413754	-0.048389688	-0.04711383	-0.079408586	-0.024580214	0.011965797	-0.0049712155	0.010969735	-0.029045852	
-0.06321338	-0.05537061	0.038608067	0.0631934	-0.018842714	-0.091432855	0.01607252	0.0031165283	-0.01599099	-0.07582732	
0.038097195	-0.046369843	0.05745973	-0.0031784151	0.044291638	0.08382204	0.024138363	0.05231496	-0.01225654	-0.040567204	
0.00027944305	0.061781373	0.08264879	-0.030258467	0.043334804	-0.0056233313	0.019850193	0.011897799	0.0538115	-0.05514581	
-0.056283817	-0.027388431	0.066054076	-0.012234613	0.00822405	-0.023806468	0.032631412	-0.101113714	-0.089776136	0.017398914	
0.03296983	0.0166843	-0.021431994	-0.008732445	-0.011154814	-0.011710456	-0.06408911	0.030232226	-0.05575425	-0.08187828	
-0.07350525	0.038903523	0.058558814	-0.030677866	0.06368067	-0.028769458	0.09563382	0.09835887	-0.054857366	0.019921103	
0.036092497	-0.06687852	-0.015954707	0.04649179	-0.04330338	-0.05808449	-0.023737144	0.004279535	0.08607207	0.10661435	
0.03441573	0.07497584	0.024064722	0.074090734	0.07101622	0.010620415	0.052183893	-0.01212556	-0.035419803	0.024546778	
-0.090620376	0.06383033	-0.05351209	0.05234239	0.087533474	0.021100607	0.032057807	-0.0111411745	-0.078873366	0.022093793	
-0.044742733	-0.009285785	-0.029286094	0.1153416	-0.022252345	-0.07456467	-0.022503236	-0.10097865	-0.007656524	0.022058468	
0.009777628	0.009139621	-0.031449664	0.01816115	-0.08559074	-0.10515742	-0.03900399	0.015339358	-0.11835288	0.08379555	
0.006734838	0.012187802	-0.050070923	-0.050324902	-0.008090316	-0.0014071235	0.07549528	-0.06285105	-0.0036418517	0.0103772115	
0.033401392	-0.016455567	0.13022372	0.093485534	-0.080527745	0.10973785	0.015632916	0.0526165	0.029655755	0.080387875	
0.076074235	-0.033593435	0.02996229	0.03277932	-0.12579863	-0.060223002	0.017082509	-0.07397537	0.044533722	-0.023818294	
0.12785944	0.08459713	0.08096316	0.010026122	0.030737422	0.0076873973	0.051018033	0.012385585	-0.06716992	0.042054024	
-0.027577804	-0.00327015	0.040435642	-0.024038423	-0.10023242	0.061064787	0.047299054	0.015060219	0.009359577	0.04613482	
0.059272032	-0.012743532	0.041543167	-0.027661888	-0.081467606	0.035636704	0.030832924	0.041790407	0.0655564	-0.08943725	
-0.015385053	0.061251663	0.11029143	-0.07218956	-0.03115412	-0.0017273767	0.059947837	-0.07634549	0.026420189	-0.051584613	
0.066808045	0.0872257	0.045392603	-0.10867857	-0.06770818	-0.0424632	0.098395534	0.011934414	-0.08991243	-0.07219278	
-0.065127715	-0.032545455	-0.026552431	0.06521977	-0.048784193	-0.089786455	0.15735996	0.015049728	0.018702237	0.088365205	
0.031796545	0.04231572	0.03609507	-0.029815288	-0.09709362	-0.07724396	0.065734625	0.11280886	-0.0141378	-0.06947148	
0.014717256	-0.075015515	0.028005902	-0.024249477	-0.055981345	-0.0009660477	0.0046631205	0.089783974	0.004504014	-0.08865932	
0.03311109	-0.020080784	-0.04111066	-0.031729706	-0.06811803	-0.04256581	0.11882226	-0.039468102	-0.0622803	0.02448506	
-0.06488168	-0.024853338	0.0038136118	-0.010067742	-0.04206576	0.08136415	-0.025153996	-0.042621866	0.0050144414	-0.033778604	
0.115476854	-0.029158952	-0.051337387	0.078228354	0.027397193	0.024346713	-0.024746612	-0.053576216	-0.035208683	0.027093345	
-0.027524631	0.030470043	0.02322747	0.022483394	0.059709337	0.0963972	0.08453957	-0.12134941	-0.105093904	-0.029265465	
0.006242856	-0.0960316	0.109227054	-0.050319333	-0.11661164	-0.018355003	-0.007880873	-0.06537193	-0.022955807	-0.022642054	
-0.00903943	0.00282471	0.104797915	0.033420645	0.09589849	0.0978269	-0.049978793	0.029821135	-0.021377329	-0.015113515	
0.100469016	-0.08748896	-0.033992615	-0.006002885	-0.031486936	0.029206758	-0.1144072	-0.09570705	0.07207812	-0.09385146	
0.111044206	-0.01334908	-0.015693657	-0.0075421077	0.019935835	-0.011219972	-0.07971556	0.052105684	0.004680827	0.01362184	
-0.042238154	-0.036343686	-0.0727908	0.035904665	-0.050924893	0.009164322	-0.10605457	0.014238563	0.10747816	0.029851886	
0.04149553	-0.007846253	-0.003918087	0.035101302	-0.047792826	-0.069721304	-0.040585767	0.02537145	0.047425907	0.024440138	
-0.014115769	0.0076076407	0.012111496	0.09153848	0.00055182556	0.060297545	0.015241392	0.01567355	0.092367806	0.07470261	
0.0738978	0.038551215	-0.019788621	-0.018491002	-0.021329239	-0.007733355	-0.04985997	0.0043585165	0.03544788	0.048916496	
-0.07116166	-0.019551765	-0.007452656	-0.009516175	-0.043476883	0.006402189	-0.042774785	-0.053889688	0.012977882	-0.0009280323	
0.026847703	0.060754158	0.09280433	0.09000094	0.048258264	-0.0036729437	0.025350763	-0.0105520375	-0.05719337	0.036688827	
0.035296485	-0.06546434	-0.0744113	-0.01361453	0.048976533	0.028229777	-0.10822875	0.007861431	-0.02330279	-0.0052936734	
-0.054374613	-0.003630084	0.030676	-0.056561377	0.05396665	-0.08276266	0.02519707	0.023481408	0.08072736	0.010172551	
-0.0322217	0.09393348	-0.023712952	0.080138914	-0.067332484	0.018761704	-0.031734597	0.05580557	-0.03458944	0.08853358	
0.101981774	0.02519883	-0.035857294	0.09244522	-0.02151122	-0.020402836	0.037940357	-0.05855607	-0.0038712143	0.023819802	
-0.050231107	-0.0219653	0.012728988	0.05189713	0.0388319	0.0048420257	0.021889536	0.0030407626	-0.014165128	-0.112150654	
0.06814268	-0.08080681	0.09687859	-0.03310019	0.021266762	0.06590449	-0.10126169	-0.023227079	0.049601834	-0.092101075	
0.024898078	-0.034186795	0.03602179	0.043896765	-0.021824572	0.061985165	0.05617986	-0.005555025	-0.06030607	-0.074787	
0.06982018	0.023107106	0.12274368	0.039775297	-0.15620077	0.08953523	0.008489863	-0.10814563	0.056113016	0.0047488827	
0.09816804	-0.08946238	-0.018334111	0.017339861	-0.08485041	0.08746286	-0.03320877	-0.047687892	-0.077139325	-0.046319604	
-0.016934667	-0.05816238	0.072201766	-0.06433296	-0.06650661	0.050449703	0.07878068	0.032770492	-0.0076671056	0.007642179	
0.027807068	0.016881859	0.012623817	-0.08951963	-0.022683673	-0.06512263	0.06982768	-0.08087989	0.0869914	-0.034347996	
-0.08276226	0.09775626	-0.10065269	-0.017837314	-0.03373039	-0.026667459	-0.006024591	0.06789055	0.013810511	-0.03622075	
-0.04471793	0.07702038	-0.06322943	0.017110743	0.0035725287	0.05091779	-0.004577458	-0.014902041	-0.013035171	0.093400374	
0.0116044	0.05983164	0.044736583	0.09578335	-0.0005896079	-0.007823281	-0.013343333	0.03175695	-0.033067822	-0.049884256	
0.015446183	-0.1083286	0.04839339	-0.03754619	0.033893898	-0.04139946	0.018012775	-0.0041597406	0.022254035	0.03480123	
0.060447372	-0.05555818	-0.031487826	0.037297487	-0.01607392	0.02170328	-0.0075397324	0.015528638	0.019190812	0.013231721	
0.054680105	0.05863197	0.06528672	0.12044681	0.008259124	0.08079082	-0.048594046	-0.051317304	-0.03144319	-0.020820865	
-0.09134024	-0.0064359903	-0.0601055	0.05826719	0.011354509	0.058244713	-0.0060297432	-0.028847422	-0.044959497	0.041584164	
-0.078421794	0.018099865	0.04571487	0.03889456	0.016041638	0.004080374	-0.09763119	0.0686187	-0.006780608	-0.024584386	
-0.07051206	0.0782213	0.0775991	-0.032566097	-0.035398763	-0.010593518	0.001128189	-0.030068394	-0.077879556	-0.01790698	
-0.05587091	0.05586704	-0.012057879	-0.006301096	-0.04418823	-0.04504819	-0.08187876	0.049429942	-0.0033006582	-0.005196337	
0.011597166	-0.1021665	0.12243181	0.031058839	-0.08562136	0.054349273	0.013523877	-0.02003502	-0.09251	0.06967107	
-0.037038673	0.08637411	0.06941163	-0.014299675	0.03165957	0.054832943	-0.025049549	-0.0867391	-0.04817359	-0.06943514	
0.070740424	-0.003243981	0.028910698	0.09101116	0.034093466	0.020579074	-0.014110827	0.016626462	0.01763995	-0.02571991	
0.0071205576	-0.0734352	-0.055825878	0.0077127763	-0.052640166	-0.043308903	-0.07985042	0.015136138	0.043492433	0.038056593	
-0.03737499	-0.049139228	-0.109687164	0.021860939	-0.012813714	0.072052725	0.04372354	-0.058549818	0.047317866	-0.072743155	
-0.019786092	-0.054142606	-0.0076148435	0.00195537	0.0025818779	0.10950927	0.10157252	-0.0364698	-3.485529e-05	0.040835593	
-0.055187248	0.10767364	0.018582039	0.056368746	0.042624623	-0.045083825	-0.008192269	0.0201675	0.032130424	-0.022161119	
0.02165184	0.06979693	0.026767468	-0.053634804	0.025549067	0.041510414	0.0017967102	-0.104362085	0.10645402	0.031516407	
0.03915148	0.074941315	-0.007391819	0.009262081	-0.059184425	-0.06781822	0.11241403	-0.026385445	-0.0018388185	-0.008120822	
-0.028364869	0.042712364	-0.02423649	-0.0076703266	-0.021188388	0.06413414	-0.025343798	0.038013853	-0.034486644	0.055644527	
0.08948227	-0.035554245	0.03125347	0.041416634	-0.041146655	0.05582965	-0.09046622	0.02002538	-0.04115271	-0.08925022	
0.057916477	0.00014130858	0.067915626	0.0046283333	-0.12805375	-0.072288975	-0.08378553	0.015090571	0.033384632	-0.0026581578	
0.06711745	-0.037628327	0.054084465	0.04753364	-0.04756001	0.087414145	-0.106331855	0.026000699	0.05679168	-0.0025822408	
0.061372288	-0.028377913	0.08849904	0.15837792	-0.051188435	-0.004820128	-0.07675718	-0.0144677665	0.08900388	-0.05472447	
0.03704244	-0.032058403	-0.067938395	0.07046778	0.038847655	-0.028355021	-0.00523599	-0.05133158	0.03832113	-0.0966735	
0.09315126	0.06794222	-0.008496243	0.058188334	-0.07371181	0.09344052	-0.050787434	0.0026903742	0.040940266	0.000298711	
0.062382706	-0.043159865	0.032033946	0.0117710745	-0.023887329	0.07285282	0.041257467	-0.024986636	0.036167543	0.024392238	
0.05323699	-0.029804125	-0.035279915	0.09438268	-0.06681644	0.031675894	0.022007475	-0.072793216	0.11741225	0.050269626	
0.060331736	-0.023386324	-0.08461003	0.014468473	-0.09789706	0.122665495	-0.03067945	0.0040123537	-0.008727586	-0.03541636	
-0.052117396	0.044575166	-0.04432541	0.018530399	-0.055220313	0.0830934	0.018042471	0.003299818	0.11970877	0.012728555	
-0.008943735	-0.0153664	-0.04468284	0.020852573	0.03478345	-0.020683888	0.02526671	0.054818287	0.055473227	0.05298062	
0.015475099	-0.095095836	-0.00472483	0.04367614	-0.052011084	-0.023523659	0.03404108	0.017159393	-0.015129052	-0.04713001	
0.04132705	0.03711574	-0.09680951	0.013667725	0.07144779	0.037742138	-0.060592048	-0.01256891	-0.023072643	-0.096605994	
-0.032688014	-0.031815328	0.08963037	-0.013740421	0.04969594	0.056085765	-0.04683892	0.009100451	0.051278617	-0.032774612	
-0.036981158	0.0062006162	0.056987867	0.08610177	-0.02547549	-0.010007275	0.01721113	-0.03482381	-0.05157446	0.019119697	
-0.037633035	0.0038895595	0.04710289	0.073028095	-0.05109668	-0.018113278	0.048077133	0.060784772	0.0056874	0.010259518	
0.025719184	0.041948	0.041962188	-0.03021679	-0.09614725	-0.012216021	0.075349905	-0.035833575	0.029957147	0.02628341	
0.019364538	-0.09561293	-0.038588196	-0.01601052	0.0018991668	0.05248054	-0.08286175	-0.03948184	-0.024584146	-0.055178806	
-0.089747556	0.008939546	0.12457881	0.055305168	-0.03743491	-0.04132735	0.07966539	-0.061818853	0.07457382	-0.04916465	
-0.01613204	0.020667424	0.11004169	-0.076670475	-0.06822163	0.027513908	-0.058480307	0.0072692945	-0.005499727	-0.05539851	
-0.019116772	-0.05378424	0.043843143	-0.0014296457	0.028376797	-0.017589035	-0.06488765	-0.057185706	0.0053286306	0.031460356	
0.11397632	0.08576391	-0.04477674	0.0012572767	0.033573635	-0.014687287	-0.021823647	0.03343353	0.029179681	0.028508564	
-0.10277998	0.011625248	-0.031525318	-0.012382317	0.0034100977	-0.07786533	-0.058250636	-0.007411855	0.022613807	-0.0075073573	
0.057626206	-0.094907604	0.027360743	-0.06725972	0.022363478	-0.039417416	0.066322215	0.08104581	0.042964216	-0.029549856	
-0.029646145	-0.058085777	-0.09508442	-0.080071114	-0.07024904	-0.015783407	0.001299444	-0.00913276	0.082917675	0.0239281	
0.02058321	0.048849165	0.01641775	-0.030859005	0.018148314	0.06667191	-0.029580725	0.011711324	-0.025953379	-0.037999824	
-0.01357052	-0.08013297	-0.025518294	-0.04356424	0.06733228	-0.05777581	0.04614407	0.040527966	-0.0066537787	-0.04093869	
0.030408053	0.045209326	-0.048825294	0.055730887	0.07976692	0.061481073	-0.00049557805	-0.007386564	-0.011748008	0.026895808	
-0.05458182	-0.0022028075	0.02461772	0.037811052	0.01938572	0.032076914	-0.029715627	0.026723908	0.0005317117	0.022961903	
-0.02708853	-0.010978019	0.0015106117	0.042609997	-0.058415458	0.014293615	-0.04933002	-0.02592235	0.0016614938	-0.027883265	
0.037204027	-0.009051443	-0.103774644	0.044286788	0.033645406	-0.04523757	-0.014317556	-0.052379504	0.0004565123	0.07335754	
0.013940534	0.05408957	0.093350805	0.10432358	-0.07483791	0.014687004	-0.003979437	-0.010689303	-0.056470186	-0.12481689	
-0.019104507	0.0022025674	0.05199936	0.04392795	0.038162164	-0.0076688807	-0.0060977237	-0.09659703	0.052181363	-0.07003908	
-0.0017222476	0.019701056	-0.100262254	0.0022070701	0.056879885	0.038140316	0.032790784	0.009142492	0.1243028	0.0030420558	
0.06909762	-0.029504418	-0.02923165	0.027262349	0.031670336	0.045696754	-0.1047267	0.027044587	0.019526739	-0.01221013	
-0.0024580958	0.08399532	-0.094468854	0.06700322	-0.08708651	0.10462789	-0.11568927	-0.077542715	0.036000468	-0.016394513	
0.013378996	0.061786003	0.0010046157	0.04064057	-0.0119103445	0.07527795	-0.061099753	0.0735627	0.13203126	0.05653723	
0.051689092	-0.013011332	-0.07420815	0.07540822	-0.018533994	0.066337034	-0.1253531	-0.00823761	0.025169322	-0.035270408	
-0.013541769	0.0273387	0.014291133	-0.02687992	-0.004165043	0.010607901	-0.00034460137	-0.10437972	0.017785845	-0.04091308	
-0.022098886	0.007986341	-0.06171931	0.048436176	-0.010777479	-0.02767462	-0.08096108	0.034069937	-0.029491631	-0.008615603	
0.053812664	-0.055017885	-0.04040008	0.072004296	0.008107711	-0.039056964	-0.027235685	-0.004045952	-0.047471315	0.102529794	
-0.016190508	-0.035147306	-0.050050788	0.063910134	-0.0108248	0.042018883	0.046282504	-0.10456193	0.048395183	0.043848053	
0.096444115	-0.056534164	0.11715306	0.041030213	0.08716566	0.02618575	0.016800512	0.0053439527	-0.08081177	0.035592925	
-0.05060331	-0.05679828	0.01532537	0.0030770854	0.0763376	0.0448098	-0.04666499	-0.082012214	-0.07997092	0.025715591	
0.025544718	0.10343759	0.053413507	-0.034775123	0.043651957	-0.076714985	0.03447099	-0.029211678	-0.0188704	-0.097046085	
0.015628697	0.088771395	-0.062975526	0.0365303	-0.017917594	0.06723373	0.007685418	0.027249124	0.035792965	-0.013953722	
-0.006238138	-0.006149987	-0.0070148758	-0.050934836	0.013798268	0.0176253	-0.0024062642	0.068318225	-0.02439876	0.014662631	
-0.071388476	-0.06861677	-0.0020997422	0.04797366	0.051241446	-0.010855821	-0.049392592	0.01995314	0.021414436	-0.007967166	
-0.063890584	0.09468715	-0.02125151	0.042576972	0.005056741	0.0056899013	0.10852483	-0.11278943	-0.016043855	-0.010839341	
0.068943806	0.10622212	0.07124286	-0.01645412	-0.086796254	0.0069683767	-0.0520373	-0.0016555812	-0.0023107862	-0.04145589	
-0.04883961	0.02457608	-0.10190608	0.03171099	-0.030946318	-0.058367714	-0.07856083	0.046527684	-0.10706559	0.035430003	
-0.015216859	0.08033641	0.060815718	-0.06283163	0.014791555	0.019129643	-0.04721988	-0.0039690044	-0.080366485	-0.0017030032	
-0.00232095	-0.05836992	-0.008883538	0.029545827	-0.09765029	0.03616547	0.015301015	-0.080856875	-0.03342303	-0.08764173	
-0.028414851	-0.016307956	0.020392332	0.039044846	0.024324208	-0.066925116	-0.020657538	-0.06488345	-0.028450541	-0.09163893	
-0.03132814	0.020532332	-0.0042000455	-0.024802648	0.053329665	-0.018278103	-0.023035772	-0.09734618	0.013647181	0.028492795	
-0.029062856	-0.028131532	-0.0041260575	-0.023887822	-0.112435535	-0.015491059	-0.031877294	0.030394398	-0.08294262	-0.03235807	
-0.01817904	-0.022956323	0.06931874	-0.0051192017	-0.0022700203	-0.014096243	0.022908451	-0.051554393	-0.022309031	0.07635788	
0.08866575	0.00317941	0.016662056	0.009119163	0.015610412	-0.03989608	-0.043235924	-0.026593188	0.0011226877	-0.025362357	
-0.03554813	0.034971572	-0.024514418	0.0098141935	-0.044600956	0.042650532	0.04467594	0.010353928	0.024884641	-0.04188952	
-0.0051114047	0.035598658	-0.0011238464	-0.10630171	0.0013985928	0.007318	0.06659615	-0.00061444356	-0.011515391	0.008378649	
-0.04754687	0.09328805	-0.110822916	0.054680917	0.026499722	-0.010876109	0.01811756	-0.0026048142	0.02639969	0.06220163	
0.025177948	-0.048926197	-0.077068254	0.01428756	-0.016515132	-0.0041672927	-0.100128174	0.077903934	-0.031002283	0.07756976	
-0.0039029203	0.012558474	-0.09726196	-0.008124228	-0.014672842	0.02904985	-0.0052588694	0.06299656	0.08084145	-0.061468188	
0.068344794	-0.1196172	-0.0001809601	0.053144395	0.07277692	0.05878143	-0.023085598	-0.008726557	0.1108044	-0.040961094	
0.03958272	-0.07778949	0.02216971	0.061763722	0.033529863	0.027277892	-0.052330185	0.09474072	0.0313719	0.014011237	
-0.04022004	-0.022967687	-0.061240084	-0.013104189	-0.007837455	0.015917232	-0.009033892	-0.029603064	0.008814258	0.11527002	
-0.02847195	0.030355316	0.06836619	0.010307782	0.065005556	0.107773244	0.0005678969	0.042976454	0.026356176	0.062058102	
0.037808914	-0.0420594	-0.03904503	-0.019929094	0.03297347	-0.041047778	0.020602245	-0.022717794	0.07017415	0.077147506	
0.060522582	0.088669404	0.047030848	0.0128178615	0.045674477	0.014868579	-0.05865704	-0.009988544	-0.007873315	0.08660876	
-0.045444425	-0.049070373	-0.090924874	0.00028025548	0.022989018	-0.03111638	-0.024870643	0.037070565	0.013029367	0.021778295	
0.009023181	0.081863135	0.012501019	-0.06477099	-0.050103936	0.0015808512	0.06998647	0.064602934	-0.0052001486	0.0235488	
0.014344686	0.03206259	-0.08468117	-0.050537195	-0.0166645	-0.04317833	-0.069454074	0.024707166	0.04894209	-0.06596285	
0.028382296	0.037187237	0.041876372	0.06031666	-0.012874616	0.006749672	-0.027643235	0.02274375	-0.00090882386	-0.027616533	
0.06004095	0.06621257	0.024178678	0.059818238	-0.06957951	0.031654287	0.086353615	6.687611e-05	0.02682782	-0.028874759	
0.034167096	0.027919246	-0.029120218	-0.008983566	0.01936864	0.052191403	0.07912949	-0.016609363	-0.022287907	-0.0098243365	
-0.037482165	0.017952735	0.062333763	-0.06740042	0.02849713	0.08560646	-0.03814482	-0.09183457	0.032223545	-0.017543662	
-0.034675162	-0.025841832	-0.023908481	0.040543485	0.034829453	0.006408079	-0.0686177	-0.092278056	-0.051662344	-0.028206792	
-0.01351004	-0.062045503	0.10131381	-0.055002317	-0.014008702	-0.08307865	0.027195858	0.032321867	-0.11217437	-0.038908593	
-0.0126519725	-0.028921468	-0.013717953	-0.02455939	-0.033090487	0.10584258	-0.064299956	0.055882208	0.03480261	0.00894448	
-0.007958148	0.040626578	0.0055519943	-0.061285224	-0.016815275	-0.00059533125	0.061866008	0.036662128	0.05841574	0.05300402	
-6.8264504e-05	0.024278374	-0.09177039	0.03204513	0.07108665	0.05159821	0.045845397	0.023344554	-0.03893137	-0.07275249	
0.025339492	0.0029152564	0.05043737	-0.08992872	0.07425979	-0.031187313	0.0075488337	0.026013063	-0.002291203	-0.06503662	
-0.030326286	-0.022022119	-0.00027815677	-0.059387706	0.078682505	-0.07776788	0.022023154	-0.016746609	0.046689935	0.018562209	
-0.038089585	0.0024770421	-0.029928636	0.04095497	-0.012719927	-0.09902868	-0.024232112	0.061104883	-0.009067089	-0.03807764	
-0.010797959	0.098015755	0.0007725252	-0.00993666	0.007317467	0.0921496	0.07592764	0.021268822	-0.1130922	0.07728373	
-0.013240725	0.017949777	-0.032578975	-0.039110422	-0.082396545	-0.10668533	-0.048695907	0.043403037	0.019229973	0.005019088	
0.029025294	-0.1039207	0.022323826	-0.0063737994	0.023631966	-0.014297181	0.026935117	-0.0062991125	0.029971715	-0.10531169	
0.040340114	-0.053811707	-0.03978217	0.024289254	-0.06960024	-0.030981468	0.043199044	-0.057635766	0.04182578	-0.022921234	
-0.0013532795	0.023444477	-0.06836177	-0.007233034	-0.113344476	-0.06015353	-0.020082243	0.030342104	0.043059573	-0.033972777	
0.08125512	0.0007489842	0.05506679	-0.030022558	0.007578508	-0.009465165	0.076175734	0.04898913	-0.008051317	0.029897831	
0.02506752	0.0036571804	-0.027373107	-0.046927087	-0.0015903292	-0.019887026	0.018823678	0.05100539	-0.07090689	0.0123247495	
0.036949042	0.018144365	-0.028803593	-0.09233254	0.029305492	-0.033459123	-0.06398243	-0.033603787	0.036892246	-0.023597784	
-0.00039970712	-0.032951906	-0.1162399	-0.0022554963	-0.024008904	0.060619764	0.04931208	0.072321296	-0.0056269867	0.025372446	
-0.07561076	0.028850222	-0.07031638	0.012827202	-0.072338924	-0.007141418	0.032758046	0.017377885	0.06511002	-0.026704226	
-0.008143178	-0.042167902	0.017780628	-0.057058424	-0.030737108	0.067400135	-0.10437358	-0.010777554	-0.08860328	0.02344703	
0.07758385	0.051043984	-0.08479567	-0.0032315492	-0.039386436	0.00019631253	-0.012175107	-0.061872195	0.014741356	0.09536458	
0.022968918	-0.094347976	0.015435203	-0.08153495	0.097731285	-0.06367321	-0.10204875	0.026059039	0.07492845	-0.0001286067	
-0.0034351968	-0.087010965	-0.09656897	-0.054123756	0.045696534	-0.04719491	-0.032388166	-0.032520354	-0.06951254	-0.06944391	
-0.08760905	0.10148816	-0.009569682	0.09920119	0.08867113	0.058090396	-0.02672913	0.06996486	-0.04917628	-0.037534833	
0.013493544	0.021741036	0.10332127	-0.017348442	0.03491825	-0.040804874	-0.009564152	-0.002042177	0.05757143	-0.051592845	
-0.00047353219	0.029224746	-0.029719695	-0.02430791	0.0066231894	0.05439346	-0.051245976	-0.04432282	-0.05053248	0.06925976	
0.08293896	0.024584373	0.062117603	-0.06361996	0.0039984994	-0.019651614	-0.0124679655	0.051908474	0.053360213	0.024897825	
0.04819604	0.03316121	-0.041545685	-0.009556926	-0.0012499716	-0.012941828	0.013062834	0.009675375	-0.0046422454	-0.051933818	
-0.036067232	-0.059142303	0.032519996	0.015206567	-0.050726186	0.041470423	0.07374902	0.011685331	0.018852666	-0.012823681	
-0.07502128	-0.012067978	0.07710362	-0.04475146	-0.022210749	0.049285006	-0.075795	-0.025853692	0.058276728	0.0070602437	
0.021193437	-0.05538597	-0.03848718	-0.0035107587	-0.07674947	0.018251836	0.027655205	0.053788014	0.025258753	0.012149335	
0.04610282	-0.05716253	0.025198428	0.06151066	-0.011163478	0.013629901	0.073711514	-0.04410694	-0.011313971	-0.023092557	
0.038245775	-0.05667975	-0.008821681	-0.05717433	-0.10791626	-0.024215423	-0.055870675	-0.011171377	-0.011050141	-0.014494165	
-0.034669317	0.0032296702	0.0012278236	0.097089715	-0.009702128	0.08525595	0.007327183	0.104019694	0.010348674	-0.0073288428	
-0.009473395	-0.044489536	0.10449313	0.007862683	-0.090249866	-0.06811247	-0.0484449	0.055606086	0.054641988	0.076423235	
-0.020394564	0.07413607	0.036776457	0.010363868	0.08679701	-0.00032499456	-0.05907399	-0.01976316	-0.02209734	0.03903192	
0.04712242	0.021041969	0.06661837	0.055167045	-0.03972497	-0.026851658	-0.010818084	-0.061561197	0.048469912	-0.035628837	
0.029824872	0.038389143	-0.10111545	0.04801807	0.008726367	-0.051836837	-0.054253817	0.009017364	-0.029558731	-2.4714325e-05	
-0.030344395	-0.025033908	-0.07270342	-0.046243556	-0.091477916	-0.010506835	0.023913786	-0.079596	-0.04006448	-0.006315695	
0.011356132	0.056551512	0.010457222	0.0005286924	0.0441809	-0.061531525	-0.015016275	0.0011199577	0.050108653	-0.104092136	
-0.0871295	0.015074635	0.0039621424	-0.049455937	0.04838905	-0.07736673	0.044684686	0.031496346	0.024163038	-0.032275088	
-0.10509806	0.042090695	-0.10902465	0.00033276502	-0.0098483525	0.04584658	0.014249187	-0.002875271	-0.054876752	0.104780905	
-0.07211445	0.014003483	-0.10720445	0.0707501	-0.04788413	-0.00763412	0.01222887	-0.016920928	0.04694306	0.02850275	
0.0065790783	0.044555135	-0.010891709	0.008773286	0.07166552	-0.04365632	-0.066290535	-0.013224552	-0.041254397	-0.040585093	
-0.025825705	0.022413751	-0.020176407	0.021842651	-0.02936218	0.0025077064	-0.039270893	-0.02708456	-0.08061447	-0.037168883	
-0.105345	0.005591226	-0.049591478	-0.03363752	-0.078863665	0.030246602	-0.0632092	-0.006854147	0.0015071111	0.04585361	
-0.023524832	-0.065057814	0.0068487637	-0.0041826614	-0.06468785	-0.097533874	0.031318367	-0.010620534	-0.0283719	0.016087295	
-0.0891446	-0.071746685	-0.0038215462	0.08013237	0.00917574	0.06349852	-0.0043982165	-0.016395837	-0.037976798	-0.04219699	
-0.027920887	-0.06954847	-0.053870555	0.012818411	-0.08706766	-0.0046460615	0.0052869297	0.034664057	0.060991086	0.007821967	
0.00018457786	0.06061549	-0.021774318	-0.03127307	-0.075725585	-0.0010294854	0.030568646	-0.062345747	-0.008404169	0.04120941	
0.046202056	-0.006690448	-0.019369064	-0.040974107	-0.0077901473	0.02749914	0.019407654	0.0036572309	0.0067199664	-0.009242882	
-0.11351839	0.023916082	0.0060952064	0.0011131811	0.018016938	-0.02709915	-0.035064477	0.074040115	-0.041947357	-0.009211084	
0.0067437943	-0.061335858	-0.08243437	-0.04362622	0.053650193	-0.048745736	-0.025312591	0.06435282	-0.021715246	0.046364028	
-0.01576168	-0.011565653	0.0062445053	0.05381071	0.045937844	-0.020934975	-0.052900594	0.09073998	0.07141046	0.027084876	
0.020727683	-0.0071595437	-0.033217043	0.04421471	-0.03265743	0.06678237	-0.0045941994	0.061499935	0.027242783	0.023342613	
-0.047539555	-0.09367781	0.029863194	-0.057126645	-0.04622642	0.027883703	0.022527296	-0.040906105	-0.020842167	0.034508735	
-0.0346264	-0.035868645	-0.034996357	0.0016267061	0.07443128	0.031166434	0.008267075	-0.05987782	0.011570982	-0.072490096	
0.03391588	0.100077115	-0.01785716	-0.059487537	-0.06111557	-0.108679496	-0.044881724	0.024941135	-0.0036995334	-0.11005844	
0.08728834	0.027201766	-0.044615224	-0.028401898	-0.064550176	0.045690168	-0.10697531	0.016242055	-0.011625683	0.013502464	
0.033514477	-0.01636771	-0.005969262	0.037205487	0.024939459	-0.026908994	-0.029782113	0.037035838	0.024392046	-0.060609926	
-0.028840331	-0.034019135	-0.019048927	0.04746414	0.016735734	-0.04101664	0.04216643	0.01480962	0.0991697	0.06813434	
-0.07555531	-0.00029625537	-0.0018312999	-0.030955007	0.099974796	0.05180831	0.060698703	-0.056932103	-1.8839577e-05	0.004876904	
-0.10975932	-0.045199037	-0.021724619	-0.028217142	-0.044638734	0.010020662	-0.030355796	0.03464543	0.03009794	0.007507666	
-0.08728902	0.021768421	0.041467983	0.064445786	0.050824024	0.04822958	0.042414647	0.009911194	0.014516229	-0.033691604	
0.00041393048	0.11092186	0.06555549	0.09198186	0.048037898	0.03029412	-0.015691232	0.017539984	-0.010502245	0.035920516	
-0.05163258	0.0195289	-0.032522134	-0.015944878	0.016895914	0.023113307	-0.020429801	0.056658003	0.07115061	-0.024076957	
0.005545986	0.0008774845	0.013504287	0.019896725	-0.03587802	0.03928334	-0.027448822	-0.04705838	0.042997193	-0.011482454	
0.05255459	0.05111802	-0.014633547	0.0082054045	-0.0083335005	-0.035639267	0.078088686	-0.06780843	0.06567831	0.039095517	
0.018681144	0.031119633	-0.053539135	0.08206222	0.0056846077	0.036390286	-0.0061309054	-0.01990687	0.03959586	-0.07607273	
-0.03318079	-0.037750456	0.0051981085	-0.036671646	0.038522042	0.020778181	0.063977785	-0.026777288	-0.04919696	0.10746553	
-0.035210423	0.0602257	-0.027150363	0.074761346	0.040109817	0.01903592	-0.041067857	-0.01111836	-0.0781633	0.052746326	
0.031103255	-0.0035382763	0.032556064	-0.032215346	-0.08372502	-0.029423848	0.036909636	0.019943152	-0.058240026	0.01953032	
-0.041482095	-0.10675401	0.08380353	0.03975408	0.0529183	0.024832938	-0.007989659	0.11523363	-0.060437843	-0.05085906	
0.095349014	-0.09156396	-0.04090887	-0.063241586	-0.036604237	-0.058621503	-0.045973238	0.06917219	0.006823779	0.015531042	
0.06184803	0.07795555	0.034910057	0.035135362	-0.053114362	-0.022876875	-0.031300306	-0.041347828	-0.017246073	0.04227182	
0.06683718	-0.0008277423	0.082333125	0.032643482	0.015210279	0.04969198	-0.031280365	0.021546036	-0.033230126	-0.07951462	
-0.0024468545	0.03129745	0.016427597	-0.06126589	-0.021378275	0.056873888	-0.025981603	0.008557508	0.045917526	0.047445558	
-0.038428478	-0.0594361	0.020891331	0.022252522	0.009064402	-0.06811321	-0.08037621	0.0103331115	-0.02191739	-0.05463829	
0.05513817	-0.026243182	-0.007963122	0.024658034	0.07769345	-0.064698	0.047146864	-0.009426853	-0.046684165	0.08566496	
-0.06398975	-0.0065646875	-0.024974994	0.00018279046	0.054190423	-0.0035178391	0.023192743	0.058551002	-0.072595246	-0.04476418	
-0.056873113	-0.06879119	-0.015255948	0.020992888	-0.07990704	-0.07892067	0.08947097	0.054454383	0.07195897	-0.0069698556	
-0.0657066	-0.07065884	0.03501515	0.055203494	0.032469276	0.0152853485	-0.104773685	0.090673216	0.023403754	-0.0131600695	
-0.048908953	-0.040943835	-0.017379297	0.06100163	0.023451308	0.07670736	0.0031154274	-0.06561285	-0.0078108874	-0.058762893	
-0.023868825	-0.00012690511	-0.042859785	0.0035615289	-0.08760139	-0.05458902	0.004872718	0.04928431	-0.040701784	0.09398538	
0.05528775	-0.106542125	-0.0007535049	0.063323036	-0.04602407	-0.06790845	0.0911559	0.098766685	0.058483247	-0.009471255	
0.043029178	-0.023757935	-0.0048078913	0.006221135	0.090227045	0.11183481	-0.084509596	0.042973757	-0.093752004	-0.073042355	
0.09940777	0.07013234	-0.008419058	0.06375128	0.038185667	-0.059584558	-0.016670601	-0.04000275	0.03882133	0.001841796	
-0.022307023	0.0035063562	-0.06583533	0.015684733	0.0054036058	0.04125401	-0.064196736	-0.010935028	-0.014319823	-0.050474953	
***0.1***
--------------------------------------------------
0.0009024707	-0.09072517	0.0059107626	0.046315566	-0.0012214618	0.006737086	-0.00031940296	-0.00826168	-0.0026933218	0.0587515	
-0.022876682	0.006843852	0.045574922	-0.07793668	-0.031092277	-0.007436676	0.01849827	0.013766553	0.079014786	0.053395696	
0.055161458	-0.07387604	-0.030072004	0.055852182	0.050535616	0.04208237	-0.06477568	-0.10909413	0.069481894	-0.062132537	
-0.030236429	0.04776835	-0.055124316	0.032351945	-0.073109545	-0.008928335	-0.048407376	-0.04369037	-0.06434536	-0.023704048	
-0.080023475	0.05188744	0.070146754	0.018516656	-0.041329157	0.019550262	0.02385157	-0.029473986	0.054761603	0.017324163	
0.0036620246	0.03297941	-0.10063511	-0.010177545	-0.027643649	0.041783657	-0.052986886	-0.018718282	-0.017579857	0.085226335	
-0.08362882	0.05493527	0.03565802	0.056755826	0.04671748	0.04318154	-0.03812198	0.104945	-0.031472433	0.06570989	
0.09618123	-0.018584177	0.021491665	0.018112862	-0.047193483	-0.081165925	-0.046791587	-0.04579082	0.029082222	0.01914837	
0.025105642	0.03561281	-0.0038341158	0.08121278	-0.01993954	-0.067577265	0.021740168	0.009159934	0.04159899	-0.00090744166	
-0.014275232	0.042454988	0.00662324	-0.01154738	0.05538532	-0.0499724	0.03812226	-0.0045396523	0.037482247	-0.04114738	
0.07520628	0.010117934	-0.019214183	-0.0020434414	-0.05655265	0.042305022	-0.04310673	0.07713576	-0.041442137	-0.035822526	
-0.050281476	-0.02343245	0.04892008	-0.022021597	-0.0690745	-0.06069391	0.030687204	0.05552446	-0.049806498	-0.03964346	
-0.02578148	-0.043888442	-0.01116927	0.10356553	0.027998077	0.0618737	-0.018094767	-0.031332377	-0.0049439725	-0.01641269	
0.02234495	0.043533947	0.03462582	0.023843948	-0.07237135	0.06740593	0.047724072	0.046111096	-0.08913438	-0.041796338	
0.038486972	0.0025547142	0.0024189723	-0.053971704	0.09699734	-0.093656525	0.06469976	-0.049530476	0.060582045	-0.05489588	
-0.040810723	-0.09664006	0.037733942	0.04236634	-0.020751704	-0.03142356	0.03373814	0.052408446	0.033667445	-0.10147974	
-0.075716846	0.04417969	-0.021370994	0.09043187	-0.047503315	-0.035079435	-0.03289308	0.0038742772	0.00903913	0.073583566	
-0.0038813832	0.021026246	-0.010882807	0.037906576	0.00038969464	-0.035162177	-0.07526409	0.0059105125	0.026092872	0.06525821	
-0.024861451	0.027123595	0.0062440448	-0.007071952	-0.049017243	-0.088512905	-0.06228542	0.026371397	-0.001537889	0.003683487	
-0.023990713	0.009960154	0.016981319	-0.077576704	0.062095217	-0.016007941	-0.0067361672	-0.014435578	-0.06524647	-0.0677612	
0.013296831	0.10081024	-0.008367928	-0.03745615	0.019726772	0.012136452	-0.03908587	0.035020802	0.06480513	-0.046084937	
0.046058632	-0.07081137	-0.05684595	0.00077024515	0.04862824	0.005800582	-0.0047955005	-0.060937718	-0.022196416	-0.010548849	
0.04112537	0.09178141	0.028027624	-0.047401007	-0.03130487	0.06746992	-0.022471996	-0.046617888	0.04770298	-0.026808372	
0.013912771	0.03942458	-0.013139416	-0.081586875	-0.04672928	0.07453396	-0.049713966	-0.091458976	0.038515292	-0.043584045	
0.006311517	-0.086476	0.0139785865	0.032215483	0.06098069	0.029960608	0.00040908938	-0.026050534	-0.10407922	-0.057225373	
-0.09838443	-0.008093047	0.085818626	-0.014126898	0.03498889	-0.00037755427	-0.021758892	0.012508509	-0.022473622	0.028158298	
0.040890943	-0.09766956	0.01484608	0.0029703302	0.031876262	0.049966633	-0.0009236528	0.03518676	-0.036501266	0.024829514	
0.057734106	0.044570025	0.011350722	0.020707455	0.036255173	-0.04324384	0.039528742	-0.09616916	-0.004199827	0.07880018	
-0.077776805	0.036629636	-0.04319673	-0.07074213	0.065535516	-0.055986423	-0.0032474673	0.04350816	-0.012485072	0.07620624	
