0.0009024706	-0.09072516	0.005910761	0.04631557	-0.0012214619	0.006737085	-0.00031940299	-0.00826168	-0.0026933216	0.058751505	
-0.022876682	0.0068438514	0.04557492	-0.07793667	-0.031092273	-0.007436676	0.018498268	0.013766554	0.07901479	0.0533957	
0.05516145	-0.07387604	-0.030071998	0.055852175	0.05053562	0.04208237	-0.06477568	-0.109094106	0.069481894	-0.062132545	
-0.030236425	0.04776834	-0.05512432	0.03235195	-0.07310955	-0.008928336	-0.048407365	-0.04369036	-0.06434536	-0.023704043	
-0.08002347	0.051887438	0.07014675	0.018516654	-0.041329153	0.019550264	0.023851564	-0.029473986	0.0547616	0.01732416	
0.0036620242	0.032979414	-0.1006351	-0.010177546	-0.027643643	0.041783653	-0.052986894	-0.01871828	-0.017579855	0.08522633	
-0.08362881	0.054935258	0.03565802	0.056755822	0.046717472	0.043181535	-0.03812198	0.10494498	-0.031472433	0.06570989	
0.09618122	-0.018584173	0.021491664	0.01811286	-0.04719349	-0.08116593	-0.046791587	-0.045790814	0.029082226	0.019148368	
0.025105638	0.03561281	-0.003834115	0.081212774	-0.019939538	-0.067577265	0.021740165	0.009159933	0.041598987	-0.0009074417	
-0.014275231	0.04245498	0.0066232397	-0.011547379	0.05538531	-0.04997239	0.038122255	-0.0045396523	0.037482247	-0.041147377	
0.07520628	0.010117933	-0.019214183	-0.0020434414	-0.056552656	0.042305015	-0.043106727	0.07713575	-0.041442133	-0.035822522	
-0.05028148	-0.02343245	0.048920076	-0.022021595	-0.0690745	-0.060693894	0.030687198	0.055524454	-0.049806494	-0.039643463	
-0.025780309	-0.043886892	-0.011165952	0.103568524	0.028001191	0.06187571	-0.01811428	-0.031330764	-0.0049421457	-0.016410809	
0.022348717	0.043538503	0.0346113	0.023852853	-0.07235877	0.06741118	0.047684476	0.04611589	-0.0891268	-0.041789673	
0.038488302	0.002556031	0.0023947349	-0.053969152	0.09700372	-0.09365559	0.064703256	-0.049529064	0.06058603	-0.054893047	
-0.04081067	-0.096640006	0.037732933	0.04236645	-0.020751433	-0.031423517	0.03373829	0.052408494	0.033667605	-0.10147962	
-0.07571684	0.04417969	-0.021370992	0.09043186	-0.047503304	-0.03507943	-0.032893084	0.003874278	0.009039131	0.07358356	
-0.003881383	0.021026243	-0.010882805	0.037906576	0.00038969456	-0.035162177	-0.07526409	0.0059105116	0.026092876	0.06525822	
-0.02486145	0.027123597	0.0062440448	-0.0070719514	-0.049017232	-0.088512905	-0.06228542	0.026371397	-0.0015378889	0.0036834874	
-0.023990711	0.009960152	0.016981319	-0.0775767	0.062095225	-0.016007943	-0.0067361677	-0.014435576	-0.06524648	-0.06776119	
0.013296832	0.100810215	-0.008367929	-0.037456147	0.019726768	0.012136451	-0.03908586	0.035020802	0.06480512	-0.04608494	
0.046058632	-0.07081136	-0.056845944	0.00077024504	0.04862825	0.0058005815	-0.0047955	-0.060937706	-0.022196412	-0.010548848	
0.041125372	0.091781415	0.02802762	-0.047401004	-0.031304866	0.06746991	-0.022471994	-0.04661788	0.047702976	-0.02680837	
0.013912768	0.03942458	-0.013139417	-0.08158687	-0.046729278	0.07453396	-0.049713966	-0.091458976	0.03851529	-0.043584038	
0.0063115167	-0.086476006	0.013978587	0.032215483	0.060980685	0.0299606	0.0004090894	-0.026050529	-0.104079224	-0.05722537	
-0.098384425	-0.008093045	0.085818626	-0.014126896	0.03498889	-0.0003775543	-0.021758894	0.012508508	-0.022473622	0.028158294	
0.040890936	-0.097669564	0.014846077	0.0029703302	0.03187626	0.049966626	-0.0009236529	0.035186756	-0.036501266	0.02482951	
0.05773411	0.04457002	0.011350722	0.02070745	0.036255173	-0.043243837	0.039528746	-0.09616916	-0.004199827	0.07880017	
-0.077776805	0.036629632	-0.043196723	-0.07074212	0.06553551	-0.055986423	-0.0032474678	0.043508153	-0.012485073	0.07620623	
0.043284565	-0.014664742	-0.024723379	0.024207827	-0.07973844	-0.008225754	-0.09995991	0.07435305	0.081657596	-0.06837487	
-0.002416808	0.020760389	0.02079314	0.1135683	0.06559614	0.024418954	0.08559032	-0.095390186	-0.085329965	-0.0049838517	
-0.0065881535	0.01564231	0.068285465	0.06603436	-0.108343065	0.05244752	0.08387197	-0.08177442	-0.078602925	0.051863633	
-0.021449346	0.06833768	0.05956975	-0.009024386	0.062363587	-0.032472406	-0.011147735	0.0036660533	-0.035159513	-0.007767758	
-0.031091183	-0.01450856	-0.033937868	0.02280662	-0.019148055	-0.075911865	0.08201702	-0.0025323473	-0.0082216235	-0.021129081	
0.038264126	0.022763949	0.009830584	-0.02975476	-0.07141868	0.058046702	-0.04106219	-0.014028666	0.03913631	0.0041548857	
-0.0012197655	-0.0038768838	0.058516804	0.028347922	0.020529434	0.08689028	0.02681836	0.06671423	0.04856782	-0.060887422	
-0.030609205	0.02902342	-0.020297915	-0.04896122	-0.031542066	0.046214364	-0.112432815	-0.027353192	0.024159655	-0.02493843	
-0.03909428	-0.052716065	-0.08623667	0.0728246	-0.055928525	0.059523918	0.017363805	-0.03610081	-0.0024399047	0.061373305	
-0.051606208	-0.028940942	0.009433092	-0.014001085	0.0074104914	-0.047907095	-0.003628414	0.010305952	0.017680686	-0.013713201	
0.0036280747	0.048304487	0.07556404	-0.0015884297	-0.028223943	0.011059711	0.09874159	-0.005707005	-0.10438842	0.048647135	
0.009415438	-0.058205128	0.012730293	-0.07646874	-0.019550836	-0.07411223	0.0065992223	0.100031756	0.022181353	0.06174168	
0.017898459	0.0061525195	0.10161425	0.03628918	-0.0139951585	-0.06227094	0.010335449	-0.014534325	0.047616363	0.10081751	
0.06729314	-0.03649519	0.095520005	0.057221677	-0.084573194	-0.025417505	-0.097131155	0.0008898456	0.02239465	-0.04672801	
-0.03721607	-0.023913365	0.016599184	0.009998519	0.03978101	-0.00012483241	0.070258126	0.0031858755	-0.048384126	-5.077753e-05	
-0.07159886	0.016762147	0.03879649	0.01606482	0.0018124983	0.040023677	0.054752428	-0.014384439	-0.02762921	0.0010540432	
0.0044491906	-0.113917716	0.051376816	0.06011849	0.005028582	0.07484389	-0.03512839	0.10420732	0.08399422	-0.05610998	
0.04863441	0.038692314	-0.0024798727	0.012461478	-0.019475194	0.0012627506	-0.000607095	-0.03366685	-0.03078165	0.06570329	
0.08757774	0.010906016	-0.099804774	-0.03427312	-0.039430246	-0.06557492	-0.073669836	0.07522846	-0.07174748	0.033319425	
0.007356582	0.025782766	0.05089555	0.057189133	-0.032116115	-0.08640551	0.039113108	0.06268385	0.016885871	-0.00112595	
0.027669955	-0.07776589	-0.08830399	0.020090677	-0.03372601	0.060088813	-0.053643662	-0.017089205	0.0027139348	-0.040275786	
0.098607525	0.044745572	-0.068947084	0.061825458	0.017361498	0.05317285	0.08966383	0.010696901	-0.014472092	-0.016140785	
0.046504337	0.035017896	0.026283292	0.028570708	-0.0875746	-0.037518006	-0.011710736	0.013409909	-0.0072640968	-0.04948217	
0.0203258	-0.024322055	-0.053555973	-0.025097499	0.10409456	-0.0049199504	-0.039304577	-0.03463516	0.026035167	-0.013297806	
-0.009968711	0.011030354	-0.0031800505	0.02208865	-0.011755968	-0.0751277	-0.024983149	-0.08970282	-0.006371636	0.020571066	
0.03313781	0.075743325	-0.031677447	0.0136509985	-0.016965605	0.044191983	0.03814547	-0.10984836	0.032648563	-0.09095482	
-0.030123731	0.025728038	0.06674388	0.021714402	-0.036038134	-0.06143145	0.07064521	0.10346756	0.022168318	0.048269905	
0.01766707	-0.052723765	-0.023128115	-0.013189083	0.10077632	-0.045136627	0.040900227	-0.015228849	-0.0898443	0.009281734	
-0.026056707	0.03569654	-0.01561622	-0.05592996	-0.014163017	0.093291536	0.095869996	-0.021572528	0.094407514	-0.03372675	
0.074453965	0.048744954	-0.039587215	-0.06636419	-0.04437674	0.04398731	-0.07940034	0.016993618	-0.011869016	0.08088461	
0.021146962	0.006235412	0.020701198	-0.07721345	-0.019863205	0.036179196	-0.06126592	-0.004960356	0.008621833	0.0024350553	
-0.046692215	-0.002829699	-0.009467622	-0.03630569	-0.016836146	0.04837289	-0.08051106	-0.022296743	-0.08412755	0.08795193	
0.013663551	0.075213015	0.07017192	0.046747625	0.05260878	-0.018487433	-0.06648052	-0.009979764	-0.009253942	0.021427926	
-0.031043353	-0.010509148	0.048713654	0.038611107	0.02272462	-0.040324997	-0.077384375	-0.016624818	-0.029230071	0.010185259	
0.048390422	-0.024625316	-0.07507035	0.023666624	-0.019501703	-0.029656203	0.0787866	-0.008358346	-0.04630598	0.08354138	
0.05727856	-0.05506929	-0.020333005	0.059235636	0.0105661955	-0.055329405	0.04494206	0.0936217	0.024482714	0.031069264	
-0.0070673227	0.03640864	-0.05004011	-0.06037618	0.06686371	0.07890988	0.05819297	-0.0015568215	0.07975402	-0.06545819	
-0.04621549	0.080822155	0.08552738	0.04709636	-0.045375086	0.01985363	0.00049644563	0.083898805	0.015609103	0.016415332	
-0.050675515	-0.0478472	-0.052201785	-0.022584204	-0.0038252652	0.06588265	0.043514602	-0.004926051	-0.045267045	-0.07494395	
0.0150202615	-0.018565275	0.066485316	-0.034475125	0.049234744	0.01910952	0.095283285	0.007482621	0.03769535	-0.027376054	
0.049256276	-0.10656456	-0.033326123	0.0667504	-0.051119346	-0.03539201	0.026797855	0.003399603	-0.055363778	-0.080864474	
0.01538727	-0.04239908	-0.056310702	-0.03316963	0.1060773	-0.065050974	0.068518706	-0.026107928	-0.018689213	-0.043906458	
-0.00091394293	0.0087270755	-0.10526422	-0.03231924	0.03543147	-0.015992325	-0.004963785	0.04029958	0.06749834	0.08125727	
-0.115141995	0.059203424	0.0775228	0.05085729	-0.03242847	-0.0013509827	0.07414417	0.07281705	0.010270698	-0.050872263	
0.07374211	-0.03726087	0.041318934	-0.029061794	0.076387204	-0.031614244	0.038720734	-0.037235893	0.005492746	-0.07941835	
-0.034600586	0.010552833	-0.018813794	-0.08700227	-0.005633907	-0.0649958	0.029825406	-0.051465157	-0.08419054	-0.04600541	
-0.006866821	-0.06856096	-0.012855834	0.052094612	0.038986985	0.073109485	0.012646937	0.025796212	-0.023445444	0.05323391	
0.10070633	-0.062181972	-0.041136242	-0.014425265	0.030838184	-0.008747024	0.09774388	0.031332977	0.0031274012	0.040554173	
0.006762055	0.059541386	-0.03006278	0.022376975	0.0446519	-0.06430426	-0.006801038	-0.04850033	-0.0025919783	-0.024114754	
0.044927433	0.016158244	0.00695591	-0.021217102	0.033005215	-0.06353731	0.08042684	-0.05468633	0.015703188	0.03952932	
0.055944093	-0.086013764	0.018824333	-0.04705646	-0.009302369	-0.049424402	-0.08272321	-0.023545474	-0.0812283	0.052275244	
0.038513124	-0.09681523	0.07684957	0.030001877	0.017995972	0.051580273	0.0965805	-0.03671289	0.056379873	0.05988026	
0.045300856	-0.053916518	0.042065267	-0.0772126	0.025795445	-0.010415648	-0.018850187	0.003770753	0.09177387	-0.0039624246	
-0.014815947	-0.019381134	0.09072576	0.021777604	0.062443893	0.056522537	0.059247423	0.063278094	-0.024681235	0.04363139	
-0.002390395	-0.05679432	-0.05843862	-0.010542996	-0.023079246	0.023344321	-0.050887793	-0.0027485709	0.007987518	-0.029980196	
0.04030476	-0.06501869	-0.10449411	0.08348353	-0.004129061	-0.034982182	-0.0059894263	0.02579604	0.050940894	-0.0041658683	
-0.09779416	-0.06233062	-0.028087543	-0.0059213615	0.081123084	0.05091007	0.04220674	-0.032040946	-0.059531163	-0.053805027	
-0.018741284	0.07284754	-0.0073979152	0.07882168	0.021874698	0.028981967	0.06815769	-0.004214929	-0.025615878	-0.06672962	
-0.023065941	-0.010659836	0.05021491	-0.025122842	-0.015488439	0.023753302	-0.08499625	-0.021927277	0.005475479	-0.002997257	
-0.0062069725	-0.05834297	-0.0047058715	0.009166315	-0.030844128	0.0595797	0.075010575	-0.077071026	0.050924934	0.033684436	
-0.015627801	0.07038996	-0.03761625	0.018383333	0.076451525	0.04287564	0.04087292	-0.039076008	0.04555149	-0.11029455	
-0.0407001	-0.06440966	0.07188583	0.020689223	0.03356629	0.08334742	-0.0395045	-0.012442546	-0.04264443	-0.106245786	
-0.0240714	0.014490054	-0.009819775	-0.051880267	-0.057685472	-0.07448325	0.033095844	-0.03238802	0.03871621	-0.0059844344	
-0.041324727	0.01869413	0.034084465	0.04015648	-0.08244628	0.0078081805	0.04697484	0.009444827	0.045707237	0.03805166	
0.08067265	0.045781855	0.005982776	-0.086039	0.028683472	-0.039097574	-0.0608673	0.016673854	0.008231027	-0.05976292	
-0.035955396	0.07144198	0.017151222	-0.00043350877	0.032691948	-0.03534636	0.010665544	-0.03950285	-0.040464025	-0.1018146	
-0.040693432	0.036409374	0.1192299	-0.008491587	0.07274334	-0.04265927	0.07623213	-0.04717135	0.06801177	0.026352383	
-0.01770611	0.021321535	0.091351904	0.07972889	-0.063658014	-0.015094238	-0.037872255	-0.097607836	-0.11368811	-0.04670565	
0.011254103	-0.06511194	0.051618814	-0.08167929	0.027829813	-0.062339034	0.07342812	0.01056121	0.0037244968	-0.00059030013	
-0.08063407	-0.08655569	0.051774535	0.037835643	0.06263903	0.023662727	0.15360264	0.020025888	0.036868103	-0.021061081	
0.08351549	0.095889844	0.014585399	-0.03911598	-0.06641154	0.015234204	0.038651858	-0.06881483	0.009534737	-0.068096474	
-0.054844175	0.044649776	-0.010700282	0.07727959	0.027712794	0.001848734	-0.040127534	0.08205432	0.038396746	-0.000773517	
-0.053916555	-0.027422437	-0.003025192	-0.014042786	0.049917854	-0.011485226	0.10159502	0.07958925	0.04046127	0.000966577	
-0.01447546	0.013305059	-0.06351551	-0.009430581	0.052655146	0.007140015	-0.03587435	-0.011671637	-0.018910583	-0.01999202	
-0.037725754	-0.060608443	-0.024366766	-0.087591015	-0.06686705	-0.0023308625	0.00083866453	-0.021291403	-0.065737054	-0.010025684	
-0.078741595	0.028861856	0.059955526	-0.051098954	0.014833496	0.087549455	-0.011707323	-0.05033512	0.03779016	0.04909197	
0.09804225	-0.050914835	-0.040849485	0.10031917	0.012773667	-0.031138545	0.07323084	-0.02404565	-0.11433777	-0.03118305	
0.082770064	0.014324589	-0.013461084	-0.046650898	-0.010691223	-0.020272622	0.04384479	0.05579748	-0.09804218	0.0404873	
0.07591133	0.061646793	-0.0220986	-0.08448838	-0.06751823	-0.06966824	0.0052334443	0.07238651	0.02212244	0.023766762	
-0.056545485	0.10527287	0.055244826	-0.03565703	-0.05032631	0.093014024	-0.036145587	-0.030525472	0.008128267	-0.015504773	
-0.039231107	-0.047538947	0.022530854	-0.023684688	-0.030290456	-0.0903113	-0.0127358185	0.037837308	-0.05920276	-0.00015270994	
0.09613397	0.02065585	0.023994764	0.0032347937	0.095310666	-0.051663898	0.037443053	0.0953206	-0.070565104	0.112890884	
-0.08979971	-0.05054365	0.0026272521	-0.04471314	-0.049740966	0.073051766	-0.05553241	-0.0415947	0.010002076	-0.08691061	
-0.08180695	0.017687375	-0.07722191	-0.026068414	-0.016462393	0.016701704	0.033124812	0.0880624	-0.07020207	-0.06946516	
-0.0568913	0.06876936	-0.07069489	-0.023647847	0.021873495	-0.018207973	-0.10295782	-0.08648952	-0.06181307	-0.011538429	
-0.061971422	0.016038777	0.013073253	0.04599769	0.05480309	-0.025619943	-0.04329849	0.03793127	-0.0653565	-0.006997661	
-0.06128791	0.029250972	0.06281528	0.10360933	0.035924286	0.035536774	0.010039126	0.023585377	-0.06708438	-0.02623674	
0.011704039	-0.092999496	0.022636095	0.056472324	0.10470786	-0.07103861	-0.07059804	0.013808299	0.007339042	-0.02010017	
-0.10747321	0.071632124	-0.039707664	-0.024482206	-0.02475392	-0.07944847	-0.020783838	0.09010731	-0.10626774	-0.047274966	
0.094503716	-0.011464259	0.09999771	0.0970899	0.016280975	-1.707207e-05	0.075183265	-0.07725696	0.01148811	-0.042466085	
-0.016713604	0.011101597	0.006121941	0.04061947	-0.032689404	-0.1148639	-0.06540043	0.016852323	0.06662089	0.028297575	
-0.010759472	-0.036967095	0.10482435	0.01715549	-0.04484926	-0.014776407	-0.016857328	-0.10132195	-0.052015007	-0.0108934445	
0.07044994	-0.098297976	0.004139907	-0.048087943	0.07665287	-0.023179011	-0.0017807098	-0.044334423	0.009623943	0.085189536	
-0.016637882	-0.033284616	-0.040401395	0.057549387	0.049182527	-0.08732184	-0.06731368	-0.065177545	0.023580782	0.015888553	
-0.0023831564	0.10245571	0.041483656	0.028710049	-0.046668343	0.047386084	0.013363004	-0.006613986	-0.11713	-0.024756512	
-0.105503246	0.109528475	0.048881747	-0.028852304	-0.056842364	0.014697362	-0.04290284	-0.10751545	-0.024399841	-0.004923441	
0.061239388	-0.015123696	0.07578274	0.117516235	0.047793806	0.0019341685	0.011706718	-0.0015189447	-0.0028942553	-0.1096686	
0.027437415	0.039671335	0.027818022	0.019494032	-0.09912268	-0.043042317	0.10003259	-0.035248272	-0.063672766	-0.0034537858	
0.06440621	0.006465041	-0.011337235	-0.06331505	0.0109467385	0.052108806	0.010856678	-0.08795988	0.004630744	-0.035080303	
0.05501873	0.06634662	0.079299934	0.02311254	0.04889481	-0.042262636	0.059595246	0.0090645915	-0.06162184	-0.03005872	
0.0029678114	0.0754089	-0.043610077	-0.019990813	-0.05640927	0.08712435	0.08424688	-0.11207845	-0.01782393	0.035662077	
-0.02027996	0.07159511	0.084124014	0.0171624	0.03135026	0.0050765886	0.008725726	-0.071686506	-0.086740345	-0.07603874	
0.07446171	0.015143778	-0.0727001	-0.11116203	0.020060638	-0.050931886	0.013379943	0.031278245	0.029711042	-0.04516917	
0.05405506	0.031236855	0.020467209	-0.007304851	0.059829235	-0.03544774	-0.012351053	-0.06537242	-0.0049388744	0.04725063	
0.05143763	-0.004351469	0.007498756	0.049605194	-0.0084142955	0.06429668	0.064094596	-0.07366341	0.00408727	-0.04213798	
0.083011545	-0.05580987	-0.014002099	-0.07687925	0.043759204	0.068394914	-0.004393924	-0.06477101	-0.0061260243	-0.031586353	
0.028212078	-0.008675419	-0.07634486	0.03638589	-0.016718943	0.05020983	-0.034158472	-0.04152127	-0.04663082	0.03186613	
0.009915572	-0.031675275	-0.035009842	0.063715644	-0.022784453	0.0059703956	0.019562516	-0.020814944	0.10981488	0.03519958	
-0.0007459191	-0.02645077	-0.030576682	0.035989508	0.013331705	-0.030915147	-0.006255841	0.11134445	0.06501143	0.008289113	
-0.019817105	-0.039269295	-0.031597894	-0.056735415	-0.06307633	-0.0037740013	0.029952234	-0.04095022	0.048030134	0.03153959	
0.017680576	0.041127197	0.04492253	0.07681375	0.006347842	0.028785782	0.09110215	-0.087917104	-0.07453883	0.009080269	
0.03994924	0.007054069	0.03352276	0.08332033	0.029400127	-0.048932888	0.055214766	-0.041987848	-0.10313625	0.042330444	
-0.02030821	0.014163647	-0.054088295	-0.033959437	0.059403557	0.0028870897	-0.104850344	0.056239683	0.024160564	-0.064226955	
0.08070334	-0.048199803	0.055247325	-0.029589107	0.04776859	0.041735537	0.016592454	0.0024284618	-0.015107198	-0.06523128	
-0.026447913	-0.018554684	0.042293645	0.030463813	0.059776597	0.040767465	0.0039493525	-0.030830987	0.035113897	0.007514315	
0.048408497	-0.007086588	0.010722857	-0.02927806	-0.022236269	0.03828686	-0.02053435	0.056466743	0.056496654	-0.037417788	
0.05679244	-0.007267359	0.056879625	-0.05153623	0.07386198	-0.0056821886	-0.0144483745	0.027378876	0.049565405	0.09609368	
-0.062125925	-0.048262764	-0.063626245	0.012253195	-0.055856008	0.009035489	-0.006047312	-0.03801853	-0.024663946	0.06303779	
-0.000109386434	0.059913833	-0.007449185	0.028436521	-0.009108633	-0.030536767	-0.006503942	0.039662957	0.0039164736	-0.05817587	
-0.068086796	-0.037515793	0.012694316	0.002810802	-0.04594427	-0.05018375	0.025632648	0.04876432	-0.036471076	0.010580603	
0.08704397	-0.018989664	0.073930226	0.03001595	-0.017821867	0.03540412	-0.0021119178	-0.011448473	-0.06829256	0.09686683	
-0.034873422	-0.015114503	0.14041461	0.08870668	-0.07491931	0.01607607	-0.060913544	-0.055834226	-0.088744774	0.09145503	
-0.019134887	-0.015954424	0.09436153	-0.0053650746	-0.06862273	-0.047935378	-0.02675024	-0.09283361	-0.0033711202	-0.04506779	
0.032659058	-0.07553659	0.01889835	-0.024469532	-0.08009961	0.044219375	0.010602553	-0.0698695	0.05563627	-0.09037224	
0.096740305	0.018401336	0.06501685	-0.017671777	-0.10542299	-0.07719616	0.014691609	-0.06498723	0.006687527	-0.059325956	
0.041700676	-0.043739174	0.12759556	0.060046714	-0.03392863	-0.08795376	0.08092644	0.037606638	0.03682205	-0.13195997	
0.030416837	-0.029710498	0.07776874	-0.032881532	-0.03435538	0.010741065	-0.072061375	-0.08754895	0.03127915	-0.077794656	
0.0056575225	0.0022275809	0.076191515	0.07322348	-0.10902149	-0.042567376	-0.064354815	-0.12316471	0.0993462	-0.06075515	
0.09190696	0.051542293	0.03033829	0.004049673	0.00852021	0.034008425	0.015531458	-0.04967437	-0.024731021	-0.026341945	
-0.06601405	0.07225892	0.09388253	0.040745065	0.046604715	-0.108034514	-0.056895863	-0.092973664	0.001154036	-0.06687546	
0.06663423	0.0658219	0.009440748	0.01588365	0.004316833	0.0760476	-0.0128731765	-0.052474942	-0.037006766	-0.041224465	
-0.09729024	-0.03033782	-0.030960906	0.031851713	0.04645277	-0.011113152	-0.0671932	-0.009140334	-0.021155003	0.019934438	
0.0417016	0.020065118	-0.09061658	-0.015884817	-0.00040390843	0.045310244	-0.008790726	-0.056878567	-0.0048345416	0.001707431	
0.04478578	0.023165554	0.079329476	-0.041046407	0.083238	0.038822707	0.006409319	-0.04645495	0.0770524	0.073597215	
-0.03291552	0.002086168	-0.032142464	-0.025465181	-0.07296234	-0.024494868	-0.08627729	-0.06244011	0.022583907	-0.010578019	
-0.0035691117	0.027730579	-0.059046794	0.005452096	-0.017662669	-0.08579351	0.002247536	0.032456733	-0.021801738	0.024910223	
-0.034333788	-0.015738726	-0.041207742	-0.04459499	0.04005118	-0.0628742	-0.033856988	-0.065499336	0.0121743465	-0.026067588	
0.026017517	0.0462209	-0.0013013923	-0.077818334	-0.0342025	0.06865301	-0.023597462	-0.04079054	0.040577367	0.011076585	
-0.017872833	-0.050902758	0.055606574	-0.048723396	0.048560895	-0.04739934	-0.0034564112	-0.04486009	-0.044773187	-0.09418377	
0.03439482	0.009571241	0.032144982	0.100630865	0.0109001575	-0.022520954	0.03099819	-0.05287989	0.076425456	0.03455042	
-0.015449986	-0.00950111	0.03927066	0.015354349	-0.028966958	0.08393645	-0.011435277	0.07922032	-0.109327994	0.018472457	
-0.014169197	0.007627477	0.012927465	0.09645876	0.06224778	0.0547545	-0.017285075	0.020141631	-0.061025262	0.0061248573	
-0.028712058	0.0159264	-0.077704445	0.055172734	-0.06531468	-0.057682388	-0.002886339	0.023431096	-0.03195271	-0.0357758	
-0.102209	-0.0638889	-0.028953457	-0.049347714	-0.0100709265	0.016339298	-0.053784963	0.04375603	-0.024601279	-0.011079835	
-0.058687776	-0.025443442	-0.049351994	-0.03676568	0.017004944	0.05593051	0.009693019	0.052549176	0.07405644	8.067764e-05	
-0.032063305	-0.09051775	0.039883964	0.02539049	0.0635714	-0.06739357	0.03394661	-0.02132785	-0.026850296	0.057963554	
-0.0027823232	-0.09531563	-0.08158699	-0.02451303	0.02142296	-0.09934417	-0.029080449	-0.08259992	0.0005278526	0.04810718	
-0.025050396	0.02171049	-0.07937187	0.062367365	0.10449264	-0.06439932	0.028693628	-0.02278676	0.01373889	0.016271267	
-0.046349943	-0.054250456	0.0781341	-0.0014806701	-0.002075075	0.08424676	-0.007952218	-0.012423458	0.027544806	-0.05034768	
0.08800549	-0.0010748397	0.0022228134	-0.009536665	-0.027152903	-0.029078268	0.10052953	-0.06702177	0.050294515	-0.0041009802	
-0.011174936	0.07333094	0.046727914	0.14128417	-0.045075167	-0.0068719564	-0.009690772	-0.005958077	0.08761638	-0.025055397	
-0.013307947	0.012038084	0.0932388	0.004157989	-0.05632661	0.05587998	-0.06522336	-0.072985716	-0.01917615	-0.046234075	
-0.006198599	0.0045897495	0.08248022	0.15328375	-0.018847762	0.022705207	0.022550909	-0.0940745	0.004701644	0.09928693	
0.013630138	-0.0026282438	-0.0379575	0.14567381	-0.088462554	-0.04227332	0.008405622	-0.06914995	-0.018514816	-0.040941868	
0.01731005	0.009328629	0.023644406	0.10407602	-0.064588524	-0.011769289	-0.011257586	-0.09938973	0.08295078	0.09440362	
0.0407744	-0.035075832	-0.05708045	0.027283309	-0.08342016	0.052886494	0.009536995	-0.15839949	0.058758464	0.016104138	
0.028713826	0.05672941	-0.06482842	-0.07254176	-0.008609058	-0.062271483	-0.061948296	-0.047105476	0.06333029	0.027775705	
-0.057180826	0.04642413	-0.06286393	-0.015447449	0.014917163	-0.013790139	-0.081379965	-0.019255508	0.13125275	-0.073020875	
0.06446677	0.030895436	-0.07055346	-0.033629723	-0.035534624	0.0002889987	-0.015897978	-0.052018814	0.10081276	-0.023383176	
-0.0184011	-0.029094	0.10486378	-0.050230917	-0.05005902	0.027050907	-0.04853757	0.039987404	-0.029203657	0.006994237	
0.09211896	-0.009674171	-0.023908298	-0.107177466	-0.047415175	0.062786005	-0.057145473	-0.07592792	-0.03200272	0.01607924	
-0.027763039	-0.040623806	0.012060561	-0.0020959864	0.11962341	0.08849118	0.009608794	0.019408418	-0.019577274	-0.020112993	
0.05602637	-0.00026991393	0.0054781158	-0.00231601	-0.028039237	0.03661938	0.013996908	-0.033233155	0.03220483	0.03246846	
-0.08365628	-0.06267904	-0.0035861754	0.09519703	-0.06922911	0.004326972	0.09002533	-0.114018545	-0.055197604	0.0086526135	
-0.056014	0.036940034	0.057318807	0.0028657333	-0.04453652	0.041443866	0.012485018	0.07283207	-0.04061763	0.07675731	
0.055695467	0.021307912	-0.08546767	-0.047287103	0.11307013	0.028352728	0.034144845	0.016117472	0.08997551	-0.014253293	
-0.064743586	-0.026740713	-0.055884972	-0.06566226	-0.10525607	0.057768546	-0.0100455275	0.050432168	-0.030243024	0.026733726	
0.023803262	0.002231254	0.060695056	0.05681637	-0.04648957	0.034481827	0.011313118	0.025958695	0.061191723	0.023052793	
-0.004848469	-0.08963535	0.035905026	-0.08375923	0.0011885235	-0.010164157	0.035923705	-0.043929275	0.017976167	-0.081519134	
0.015820766	0.023641516	-0.1080704	0.03481542	0.058316574	-0.014145291	0.09132851	-0.050910026	0.044048663	0.06906065	
0.06118572	0.0538383	0.006892308	0.087439045	-0.033671252	0.022896064	-0.067796	-0.031628136	0.069211304	0.026918404	
0.008557335	0.074469	-0.045586143	0.0638328	-0.07382993	0.003961166	-0.058593046	-0.055653263	-0.031754505	0.025277153	
-0.0067632548	0.049880452	-0.05688983	0.12043757	-0.09143761	-0.03952197	-0.043362215	0.033325456	0.07180506	-0.04032093	
-0.058093715	0.011661244	0.04239942	0.08294084	0.025159273	0.011131246	0.05622355	-0.0448564	-0.0056315884	-0.012517706	
0.08007877	0.006017601	0.030421382	0.05510648	0.04187739	0.07697749	0.085844904	0.07444693	-0.02084494	-0.031172587	
0.05667688	-0.10416891	0.10735739	0.069536105	-0.024310952	-0.089132495	-0.017052628	0.09312014	-0.053936675	-0.076257356	
-0.009927432	-0.01736143	0.010222986	0.019558495	-0.031004958	-0.06606722	0.018987348	-0.003317235	-0.057782512	-0.032696057	
0.02857795	-0.060202315	-0.041155346	0.07778703	-0.0667821	-1.8557657e-05	0.02105593	-0.04363427	0.077284105	-0.008338876	
0.032720305	-0.053655002	0.0039870273	-0.04385616	-0.014567364	0.04842484	-0.061806697	0.097576074	-0.021513976	0.025776656	
0.021749072	-0.09664832	0.07467709	0.0105978465	-0.1375504	0.043145444	0.0035924038	0.064695634	0.062254667	0.06084382	
-0.058648113	0.07791307	-0.00087285903	-0.037291948	-0.11403155	-0.06691678	0.043791935	0.0002570499	-0.044075213	-0.046435654	
0.0038055973	-0.019086855	-0.040723458	-0.025375767	-0.045347188	0.0010934551	0.026067827	-0.066225804	-0.019824922	-0.029915983	
0.015236323	0.09630388	-0.025930936	-0.10182206	-0.10896239	-0.0003814463	0.020888148	0.010834554	0.053172674	0.014975988	
0.08292044	0.0691118	0.08740469	0.049994286	0.031299006	0.08830343	-0.023037251	0.042121083	-0.0091820955	0.067394294	
0.029388586	0.065332666	-0.0005955945	0.07508266	0.010964431	-0.085038185	-0.008351859	-0.08975364	0.028217645	0.022581479	
0.05053286	-0.025467465	0.06066709	-0.04303983	0.056785405	0.083305426	-0.115873516	-0.030493917	-0.040318195	0.092689656	
0.049092397	-0.042530496	0.034257997	0.015114813	0.05704336	0.07811215	-0.080466785	-0.012711249	0.008588128	0.0017050195	
0.060739547	-0.05511334	0.08552383	-0.017436294	0.027259072	-0.069128655	-0.10120864	0.045755547	0.0419966	-0.022744976	
0.075112455	0.058152817	0.0054000467	0.03280328	0.087137684	0.11923013	-0.04840257	0.039556563	0.052396815	-0.008905105	
-0.0037176693	-0.028857723	-0.034566484	0.008257628	-0.031451587	-0.022668615	-0.0048750318	0.021235604	0.047636796	-0.05225125	
0.023149198	0.02935315	-0.040525947	-0.03977342	0.09336476	0.0017858171	-0.08092279	0.050660558	0.046512228	-0.039799772	
0.0043995045	-0.07278922	0.026713653	0.00868008	0.09904778	0.07736727	0.018089969	-0.049321637	0.07903391	0.03972968	
0.067658395	0.060613476	0.03816458	0.0021882707	-0.10636059	0.06076854	0.030450307	-0.06436562	0.016922425	0.02658109	
-0.060943477	-0.0378372	0.043570053	-0.035502892	-0.10989912	0.0106827635	-0.07153238	-0.048122667	-0.06555075	-0.047096767	
0.059892613	-0.036083687	0.045641072	0.09901462	0.049730327	-0.036556695	-0.006217421	0.0705684	0.110582374	-0.022916006	
-0.051572185	-0.007960348	-0.045352377	-0.007649232	-0.06285548	0.024777684	-0.018365974	-0.039333202	0.008027117	0.08684698	
-0.068959996	0.040020697	-0.053046875	0.0065451995	-0.09081994	-0.024770362	0.03252818	-0.034891646	0.04455118	0.050143596	
0.011596802	-0.08544985	0.07443058	-0.010966366	0.032396592	-0.057992674	0.00029045425	-0.08476946	-0.08066395	-0.04349204	
-0.10253287	0.06345462	0.019832179	0.006726459	0.05266452	0.013773498	-0.039419755	0.047827244	0.11135831	-0.04281944	
-0.04493619	0.0145056425	0.08421971	0.020884482	0.050018877	-0.042642545	0.08303304	0.0023082304	0.0032906083	-0.09290066	
-0.08590539	-0.06305948	0.06802704	-0.025000092	-0.081736855	-0.032041643	0.016597895	0.032149978	0.068088934	0.01813926	
0.08455803	0.029603472	0.031697005	-0.005148713	-0.036020514	-0.04732894	0.040832732	0.1148815	-0.010338286	0.053633973	
0.04518564	-0.047911428	-0.004957579	0.08668	0.06432028	0.04242149	0.014577088	0.091113046	-0.030075341	0.00675429	
-0.08700147	-0.039152343	-0.04426639	-0.038128752	0.03339292	0.05770339	-0.037260495	-0.022978414	-0.0341808	-0.027390363	
0.023126438	-0.06106181	0.03371788	-0.04829952	-0.022304479	-0.10941632	0.025797296	-0.028878208	0.0710055	0.0064686267	
0.009381144	0.014504395	0.045021538	0.045632515	0.027225405	0.0193959	-0.030525433	0.019521106	-0.0720725	-0.02643443	
0.035879657	-0.040962428	0.040591642	0.010147056	0.024602043	-0.07426089	0.043261647	0.048196655	-0.038237806	0.120050915	
0.099008106	-0.13689905	-0.0033384871	-0.031114403	-0.025325537	0.019700445	-0.057239056	0.09263622	-0.03975546	0.02031711	
-0.0005283751	-0.11965834	-0.068911776	0.021149768	-0.15846705	0.032077417	0.08369431	0.077436045	-0.03367765	0.16709776	
0.061454426	0.054324716	-0.075004876	-0.029904544	-0.018961404	-0.018712878	0.057536524	0.06499731	0.084856346	-0.012558347	
0.035817727	-0.002060565	-0.019422254	-0.062444393	-0.117566206	0.050201226	-0.05169515	0.067074835	-0.07843937	0.037755005	
0.018156836	0.016635627	-0.02249489	0.026746813	-0.030931791	-0.044175535	-0.12493081	0.083419606	0.0021099094	-0.051667634	
-0.033172507	0.04028162	0.06549342	0.057825092	0.023641897	0.037716154	-0.053428072	0.022955045	-0.07429806	0.12039223	
-0.015437186	-0.03956079	0.026604693	-0.015938016	-0.00097354274	0.008606997	-0.05213154	0.12952659	-0.017735464	0.0106050335	
0.06453397	0.0024385266	0.030767575	0.059684712	0.04060364	0.008218085	-0.08358982	0.04561858	0.028292732	-0.03327312	
0.13366476	0.01480772	0.003602658	0.002579621	0.003034406	-0.026976353	-0.05760395	0.031278253	-0.0034830312	-0.049001407	
-0.00040575312	0.011311575	0.05443624	0.055550266	-0.005660352	0.053800218	-0.08938197	-0.098254226	-0.08735219	-0.08874208	
-0.027623832	-0.03581543	0.048516527	0.018858751	0.07241215	-0.037198856	0.036335334	-0.030998353	-0.0024925282	-0.040149845	
0.0014991341	0.09166009	-0.036036827	-0.03283363	-0.063305534	0.0065562404	0.033595093	0.043873053	0.051805105	0.038350504	
-0.041374337	0.008199199	-0.10500149	-0.06496088	0.007877236	0.084317744	-0.018039528	0.0027685275	-0.031765483	-0.08565469	
0.07094539	0.017665094	-0.03455597	-0.072188444	0.0324961	0.08700122	-0.08265919	0.063556	0.046899162	-0.0332515	
0.07840577	0.035912	-0.029721105	-0.023323055	0.02542794	0.003615642	0.009244615	-0.047008954	0.05023296	0.0058109276	
-0.08548196	0.044192795	0.014680434	-0.102150396	0.030187368	0.023542013	0.034673136	0.032904882	-0.016867805	0.062073536	
0.022972096	0.06188478	-0.03817521	-0.06550287	-0.07035878	-0.044736434	0.063236855	-0.1001496	0.013268727	-0.040742587	
-0.021118945	0.074328065	0.037169807	-0.035611965	0.043881092	-0.0018163577	0.007384118	-0.04219115	-0.01354235	0.025944617	
0.021822914	-0.018655188	-0.021435197	0.025694877	-0.070657186	-0.034480635	0.0352414	0.061207745	-0.0011321175	-0.010649301	
-0.100594446	0.066433005	-0.061902847	-0.010598566	-0.08063468	0.08810152	-0.031798426	0.03501123	-0.046293855	0.042549506	
-0.019202905	0.014434263	-0.029819883	0.0016772337	-0.04380881	-0.044802874	0.0016697217	0.08517106	0.05906912	-0.023235058	
-0.0050874134	-0.03956155	0.009913211	0.07112115	-0.09132638	-0.01762348	0.064579554	0.07224701	0.0074960813	-0.048502784	
-0.015958559	-0.048116278	-0.09144015	-0.039603073	-0.015258764	-0.044539947	-0.026030965	0.027111677	0.09593323	-0.031588927	
-0.02966346	0.05435021	0.06263341	-0.058918394	0.029968126	-0.0038377969	-0.05444584	0.08288104	0.01590338	-0.023489166	
0.04409876	0.015330609	0.038433388	0.06126272	-0.005299315	0.061178077	-0.03531754	0.052503873	0.016345814	-0.006064297	
0.070004545	0.018080002	-0.015839817	-0.040089022	-0.0854231	0.0016219881	0.0008626569	0.08707744	0.015229561	-0.0025648293	
-0.04614974	-0.03803537	0.00086835783	-0.11246924	-0.08865939	0.09617211	0.05497648	0.0721888	0.08189705	0.0057223174	
-0.037056766	-0.10348607	-0.10334273	-0.013705167	0.011814748	0.016057078	-0.033794004	0.07076406	-0.037249662	-0.013018476	
0.101716496	0.03440673	-0.031946227	-0.07268374	0.047268733	0.12211716	-0.03891403	0.06939577	0.09298697	0.030848127	
-0.030730566	0.06050656	-0.053259645	-0.04955665	-0.104414806	0.03617728	0.040829025	0.05429135	-0.02054229	0.102874234	
0.0694551	0.022862844	-0.05592499	-0.053936984	-0.1180225	0.0690517	0.07546792	0.15052298	-0.006114688	-0.028909747	
0.11114212	0.057304423	0.028107183	-0.08313272	-0.12819463	-0.011705285	-0.04159198	0.17299412	-0.038855106	0.033707116	
0.038507055	0.110893264	-0.03303253	0.061522547	-0.046600357	0.007883855	-0.10025433	0.12615846	-0.15837099	-0.008395079	
0.049475465	-0.0013945103	-0.066930264	-0.029908612	0.0069161835	-0.05634551	-0.0234481	0.13032119	0.00036330736	0.11214305	
0.068940304	-0.030453268	0.0774794	-0.030549064	0.009299089	-0.012636447	-0.17950627	0.0525549	-0.06441273	-0.0563922	
-0.03867791	-0.095325746	-0.049694944	0.033286046	-0.014002361	0.081365295	0.009444066	0.10180251	0.04309679	-0.021632554	
-0.014839392	0.04761417	-0.051277287	-0.060425725	-0.062792525	-0.035584316	-0.024107795	0.03996369	0.073324315	-0.026184788	
-0.003980628	-0.07381044	-0.014480052	-0.081905715	0.05212405	-0.041505605	0.0049776416	-0.0047878046	0.0036789507	0.025369266	
-0.020059796	-0.0876184	-0.014387282	-0.011357112	0.057169624	0.021169646	-0.03223272	0.027966984	-0.009459842	0.063651346	
0.02166847	0.04047607	-0.0030514721	-0.08459887	0.018187588	0.0062786285	-0.044798866	0.017302973	0.01666527	-0.068955384	
0.046812885	0.026432488	-0.02087651	-0.0373993	-0.022637451	0.053707577	-0.023224693	-0.096428104	-0.020518124	-0.044983163	
0.006379495	0.07432887	0.008976664	-0.015651079	-0.035412703	-0.018611759	0.0104728555	-0.041602384	0.06527008	-0.017904269	
0.027660044	-0.033705797	0.031398308	-0.0028991401	-0.011786706	-0.038213752	-0.013612347	-0.074473634	0.04503396	0.07285981	
0.013936263	0.0033220751	-0.056872826	-0.032105032	-0.021348627	0.084754616	0.023038896	-0.014395434	-0.062539354	-0.0637955	
-0.00087081466	0.0073953997	0.089670695	0.026594125	-0.022988226	0.05647914	0.060442373	0.0041700574	-0.025145655	-0.046681847	
-0.06126047	-0.008593786	-0.016033575	-0.06322876	0.056102086	-0.066686295	-0.0010325878	0.028331159	0.040378243	0.011385987	
-0.012812969	-0.09705356	-0.015803678	-0.07248036	0.015353196	0.112795755	0.018656833	-0.032928627	0.0034089913	-0.037057433	
-0.11271781	0.013064733	0.02807812	-0.050403528	-0.0009854033	-0.0063591045	-0.05893669	0.088669956	-0.027438486	0.05762047	
-0.015976382	-0.017816886	0.07031713	0.049122747	0.068605	-0.059920676	-0.06877288	0.035792135	-0.041358825	-0.0153768025	
-0.09243079	0.0485199	0.02065737	-0.018586393	-0.00399675	0.060128525	0.055139106	0.075771496	0.10599399	0.0068676085	
-0.006485736	-5.3019867e-05	-0.00020569358	0.009913279	0.075639635	-0.049407694	-0.0074708946	-0.004247868	-0.016312597	0.0051593073	
0.041292865	-0.053812947	-0.011885383	-0.0282117	0.04335137	0.02984265	0.042359546	0.0008024647	0.007446045	0.083053455	
0.015239028	0.034256313	-0.023513438	-0.01683169	-0.033318833	0.0044816495	-0.04186153	-0.044292025	0.013828276	0.10410085	
0.048860196	0.022176098	0.034358323	-0.04179624	-0.013523257	0.06557386	0.03397867	0.062075626	-0.043753143	0.044215396	
0.0011534144	0.0051195873	0.011809319	-0.118373156	0.059924357	0.05560567	-0.08022602	0.050587364	0.012468654	0.054785185	
0.12818792	-0.062169075	-0.15677173	0.021296004	-0.052219532	-0.05017139	0.088987485	-0.004953862	0.10629466	0.0024945056	
0.051854532	-0.043397643	-0.120567195	-0.019076606	0.053059418	0.08185456	0.09373899	0.045596633	0.047894165	-0.10180456	
-0.044461034	-0.0063413414	0.044750955	0.05717531	-0.0074757417	-0.006692051	0.13075349	-0.013973119	-0.011245745	-0.013903375	
0.017745707	0.036295593	-0.026829058	-0.07151011	-0.058823895	0.026084108	0.07912731	0.04668539	-0.013742564	0.068903714	
0.007505066	0.08855834	0.010054522	0.0020920294	0.016048884	0.036585167	-0.014546567	0.06574191	0.022108834	0.020817555	
0.010889816	0.091256976	0.048845362	0.04921282	-0.018737243	0.0058966475	-0.03785645	0.04519605	0.00811989	-0.06473457	
0.053933527	0.050380684	-0.016561652	0.09797434	0.01909355	-0.1022441	0.025997145	0.01725202	-0.0021405998	-0.049469203	
-0.037461895	-0.05057142	0.030850263	0.053591367	0.0795737	-0.0926777	-0.012567466	0.044250503	0.03573465	0.015478222	
0.015039932	0.05940967	0.08051758	0.080923595	-0.061743315	-0.14793672	0.004011045	0.036856845	0.07351258	0.042890687	
-0.02314154	-0.01746439	0.10029447	-0.10872466	-0.0030339796	-0.038887925	-0.07946156	0.023729121	-0.005359645	0.044095736	
0.040815633	0.0010501887	0.0030737442	-0.0588151	-0.051880773	0.018371264	-0.012606948	0.04834743	0.098794505	-0.046798594	
-0.0044677397	0.010078928	-0.03880548	0.019079586	-0.051010307	-0.030635415	-0.09294696	0.030677332	0.08675341	0.013199355	
0.08784165	0.050231393	-0.07454709	0.013642913	0.040413305	0.05308165	-0.017963665	0.022274824	-0.03673135	-0.041891553	
0.03561374	-0.013793696	-0.091547884	0.037451793	-0.09473059	-0.007878015	0.009864872	0.043274876	0.08202892	-0.00047050303	
-0.021834824	0.09024828	0.0028717173	-0.06263747	0.02731273	0.046117406	0.044223316	-0.0104663	0.016617827	0.11067954	
-0.019205024	0.08468356	-0.041989684	-0.03873581	0.0026345518	-0.028942974	0.01749242	0.090754695	0.086747885	0.010444422	
0.006702151	0.037391603	-0.0070590964	0.033710767	0.032156296	-0.045980036	-0.06810008	-0.0065862364	0.005475356	-0.11228527	
0.019665146	-0.060476918	-0.050947964	0.028024018	0.07340177	0.050259877	-0.0027812016	0.024919081	0.048151985	-0.07727384	
0.04649951	-0.0030276098	0.01112383	0.035688568	0.035808213	-0.043388307	0.04266416	0.041238558	-0.038255423	-0.026276479	
0.0032785444	0.054461133	0.026341021	-0.06751729	0.019930799	0.03793274	-0.056105305	-0.0871331	0.00040881202	-0.04057209	
0.032557074	-0.019102175	0.0027402008	0.0030341367	0.012924876	0.02393202	-0.02392537	0.01589228	-0.04742362	-0.05022947	
-0.09916242	0.057098776	-0.04335377	0.08465704	0.039854236	-0.021169992	-0.026989844	0.08041755	-0.025563903	-0.009297276	
0.0064400393	-0.078281745	0.0058677425	0.0782033	-0.017963592	0.10553385	-0.0628895	0.0025656796	-0.01307994	-0.04786755	
-0.07305178	-0.016902482	0.015172966	-0.07313914	0.11918396	0.0043693427	0.030060677	-0.02376071	0.054832768	0.019190826	
-0.020305777	-0.032891236	0.043646645	0.0017933423	0.015264577	-0.086452745	0.0013954386	-0.0017729178	-0.099317566	0.077264376	
0.07277656	-0.009280325	-0.08663039	-0.09583089	-0.06589802	0.032301616	0.032614034	0.14094956	0.0914429	-0.0014102142	
0.025430437	-0.043382917	-0.10114119	-0.070187114	0.0803158	0.09139625	0.11144064	0.023100957	-0.052538645	0.065749004	
0.004852915	-0.05278666	-0.09371601	-0.02941562	0.052233364	0.007893969	0.0264392	0.025673693	0.052165307	0.08784884	
0.025129737	-0.021893496	-0.05060569	-0.15008259	0.0019083035	0.074182816	-0.046706293	0.017776852	-0.05336404	0.10702537	
-0.04286534	-0.034933276	-0.14966467	-0.0115580605	-0.016097657	0.038011614	0.012203578	0.017999608	0.04363305	-0.04853533	
-0.022460816	0.021384923	0.03156401	-0.06818253	-0.03639225	-0.0036662172	-0.010190475	0.019971872	-0.00088615046	-0.12425092	
0.005379359	0.16735448	-0.032603238	0.14560193	-0.060491968	-0.054883994	-0.0739554	0.09517042	-0.037166484	-0.056790207	
0.0121800415	0.099587336	-0.054066114	0.086748555	-0.052918393	0.063646965	0.031825848	0.025095679	-0.09360484	-0.051542077	
-0.06127393	0.073805735	0.042003926	0.09210831	0.025729114	-0.12548989	-0.017448751	0.067795366	0.042744152	0.003127633	
-0.07531387	-0.058521964	0.08715492	0.10592769	-0.0069215987	0.042670537	0.011626455	0.1073584	0.0046944143	-0.06764015	
-0.018952135	-0.040062446	0.091907725	0.08280205	0.10429303	-0.048333384	-0.026288627	0.05757188	0.02077164	0.10954013	
-0.021273829	-0.015402284	0.039002966	-0.048855573	-0.023254883	-0.11130916	-0.02961386	0.046798185	-0.051247828	0.028486254	
0.054379705	-0.07169856	0.07258976	0.022436434	-0.024762608	-0.08155184	0.015864952	0.056136828	0.044500172	-0.037676126	
0.051687565	-0.016143966	-0.059948537	0.052062757	0.08175976	-0.124800496	-0.12125669	-0.017730884	-0.057692934	0.07788931	
0.043791916	-0.060578384	-0.01696146	-0.0013049616	-0.07219959	0.038914826	-0.0941319	0.03810279	0.031748638	-0.05738072	
0.012811073	0.015985865	0.031207165	-0.04253409	0.006744269	0.008894715	0.06223801	0.089898944	0.0768717	0.03239448	
0.0170242	0.0896297	-0.023899116	0.06787803	0.07843751	-0.096451595	0.012729252	0.00651252	-0.06864046	-0.053031567	
0.0041813916	0.0553508	0.043754146	-0.03762811	0.03613162	-0.015691789	0.01930504	0.04147101	0.05119863	-0.045256108	
-0.016071877	0.02758899	0.019260265	-0.06681908	-0.0931087	-0.06711443	-0.070562065	0.0060152947	0.03163685	0.039665934	
-0.03555354	-0.032767307	-0.019830873	-0.0038571232	-0.08950428	-0.012907822	-0.0060802647	-0.0498537	-0.03426057	-0.04816535	
0.022543782	-0.045201913	0.0045130104	0.108744085	-0.015986048	0.041279647	0.07619993	0.06817656	-0.020158028	-0.026109261	
0.0008404382	-0.00950424	-0.05664082	0.052349452	-0.01558389	0.019199342	0.07595007	0.003431132	-0.01454045	0.0821372	
0.09097882	-0.008973104	0.05832534	-0.057746902	-0.0445122	-0.019718891	0.0006952908	-0.07937882	0.07598633	-0.030111069	
-0.065035984	0.07231922	0.044036616	0.025807375	0.00440901	-0.024504004	0.027023574	0.06054224	-0.018496424	-0.057629246	
-0.069006115	0.050986484	0.11014643	-0.063532345	-0.06567046	-0.0996353	0.06473448	0.058426235	0.03103386	-0.059220556	
0.014354524	0.035374142	0.012714503	0.03617377	-0.086293735	0.02998211	0.057834648	-0.0671694	-0.017244918	0.04306844	
-0.0017985564	-0.015948182	-0.007998491	-0.007254562	-0.0061689727	-0.0066685686	-0.036922403	0.05751845	0.015159649	0.008411278	
0.07581944	0.04347714	-0.12791345	-0.028248345	0.043904666	0.018170824	-0.07430327	-0.06261467	0.026891513	-0.034079272	
0.06867374	0.0527938	-0.09446547	-0.06988549	0.046717845	0.040480096	-0.025358677	0.031474613	-0.03340343	0.11414699	
0.09272022	-0.023203272	-0.009976352	-0.0894979	-0.02506502	0.06191894	-0.018115303	0.038471878	0.013204623	0.012400583	
-0.0071378746	-0.022954931	-0.051343147	-0.08216079	0.08647573	0.07234562	0.0007659149	-0.060870286	0.069013864	0.033282485	
0.08034733	0.038140837	-0.06866509	-0.060486622	0.043552395	0.05912199	0.035858475	0.0051942915	0.053311586	-0.0152776735	
-0.037230898	0.03393915	-0.070283026	0.097705096	0.007984687	0.09443802	-0.05698203	-0.04779629	0.06816367	0.047573816	
0.014015258	0.043108955	0.014892845	0.17248444	-0.029279014	0.10778226	-0.01729647	-0.092674844	0.017337777	0.013890319	
-0.10274066	0.19905594	0.004198865	0.12646326	-0.1105674	0.024959011	-0.02043591	-0.057257913	-0.06746421	-0.08554129	
0.027736558	0.21203588	-0.046809394	0.012698768	-0.027907338	0.030668601	-0.031175656	-0.06958155	-0.04763736	0.038120486	
-0.14147158	0.10542674	-0.13700633	0.024378799	0.05114003	-0.007769993	0.0070928205	-0.02052831	0.059979208	-0.00095593	
-0.07242265	-0.040699653	0.021439599	0.03202678	0.045322377	-0.013671582	-0.083292775	0.04745013	0.019715358	-0.008499242	
-0.0660673	-0.106556796	0.020609086	-0.0367591	0.022708714	-0.13627814	-0.025487958	0.057659954	-0.00016015854	0.010322794	
0.09151565	-0.04795992	-0.09105445	-0.08556885	0.05516086	-0.075899035	0.028375445	0.026993478	0.020019522	0.03923238	
0.12659894	-0.10100847	0.02673398	-0.089673035	-0.0025280449	-0.046528902	-0.003025428	-0.006360102	0.0012635624	-0.04540588	
0.0961911	-0.05394007	0.020210605	-0.032323617	0.042369377	-0.12495861	-0.0364095	0.018660406	-0.097441964	-0.03180683	
0.05785738	-0.037073407	-0.027057065	-0.06534571	0.024585256	0.08561618	0.01473376	0.0391358	0.033038408	-0.03133149	
0.041778475	0.05139147	-0.0076134913	0.00643427	-0.010075645	-0.010222478	0.07736888	0.06340686	0.015562634	0.024722585	
0.060966868	-0.05518223	0.041470908	0.000563944	-0.059337344	0.09510454	0.05732708	0.037077967	-0.095692	-0.02880301	
0.007384459	0.10355315	0.034159146	-0.019328285	-0.058868032	0.040155694	0.002298238	0.0884655	-0.03971771	-0.048665628	
-0.04118486	0.049344447	-0.0029776196	0.0345853	0.018867243	-0.022942664	-0.036608543	0.017171878	0.01077351	-0.054143496	
-0.015443436	0.07961206	0.05201589	0.026921457	-0.009288366	0.09376045	0.09848689	-0.098926485	0.0207473	0.033984955	
-0.07160558	0.017092431	-0.0066405497	-0.035305154	0.019021554	-0.050612446	0.019594405	0.09248081	-0.06057774	0.036297724	
-0.05322526	-0.0072916714	0.10023992	0.025501492	-0.076266915	-0.03250142	0.07265514	-0.02286988	0.05177464	-0.028490692	
0.02649115	-0.02453413	-0.04873408	-0.014942354	-0.049443506	-0.04077132	0.016774666	-0.046959754	0.027701506	-0.028803913	
-0.03831031	0.05504263	0.029317334	-0.0066268584	0.059975766	-0.012869827	-0.027167397	-0.024212493	0.042726222	-0.009758489	
-0.11156518	0.0595407	-0.004003302	-0.10643928	-0.0030784677	0.0048151794	-0.033587556	-0.0042741713	-0.013443535	0.024858767	
0.020910874	0.02026826	-0.067305125	0.036031287	0.018235521	-0.0016925416	-0.043725476	0.04935283	0.028201409	0.016901812	
0.07254396	0.0088230055	0.005883522	-0.06614179	-0.030402515	0.001382882	-0.018805666	-0.017201595	-0.040929925	-0.05154201	
0.05070151	-0.023495123	-0.12733646	-0.04459293	0.05777934	-0.029488038	0.0069546807	0.0629021	0.047755744	0.09619377	
-0.0100332	-0.045511767	-0.089952976	0.0094062835	0.11069815	-0.044347372	-0.058057286	-0.002829758	-0.0014810575	-0.0073177135	
0.10682724	-0.02116223	-0.03774513	0.0022952307	0.053660303	0.017383737	0.01937861	-0.027157903	-0.054861497	0.0700476	
-0.054556333	-0.072648436	-0.085396454	-0.039628074	0.03482702	0.08217062	-0.013486707	0.01193995	-0.011494539	0.037075028	
0.03746108	0.008464124	-0.08984946	-0.058813572	0.07721766	0.021916404	0.090106554	-0.11417005	0.0012396602	-0.09734004	
0.038403645	-0.11598858	-0.15073304	0.05211985	0.0777866	0.030953107	0.06421504	0.04912033	0.06940339	-0.09533706	
-0.12986663	0.13908303	0.0019675319	0.055017583	-0.015371229	0.06617759	-0.039102368	-0.04808211	0.062318288	-0.025473487	
-0.0818988	0.20209016	-0.019911198	0.050800737	-0.029854743	0.102067195	-0.038365744	-0.038219757	4.783561e-05	-0.020249007	
-0.17049973	0.17713842	-0.008236316	0.014511911	-0.008528555	0.048270363	-0.06549039	-0.032654844	0.022425095	0.022980317	
-0.03864455	-0.09333618	0.019859048	0.05911697	0.006725601	0.08772417	0.08687287	0.01691969	-0.057906076	-0.051306333	
-0.16302352	-0.13071284	0.02244149	0.077093154	0.0136487	-0.07957787	-0.020611912	0.035668436	0.07285784	0.059754957	
-0.025031397	-0.011796028	0.04062186	-0.0072454307	0.04197783	-0.057550978	-0.048228536	0.050690826	0.056891106	0.042243693	
0.004339768	0.021334205	-0.018703496	-0.11959278	0.0386338	-0.023541413	-0.06579396	0.10992031	-0.0190755	-0.01983699	
0.0024638425	-0.021404086	0.027334051	-0.08936295	0.04667816	-0.013656206	-0.025284896	-0.02081054	0.07154332	-0.009041346	
0.026198238	-0.048847437	-0.044599332	-0.0044160923	-0.07013341	-0.06143745	-0.05441497	-0.060606018	-0.06404257	-0.038735084	
0.07573937	-0.034314144	0.014576804	0.036640175	-0.102223866	-0.0772669	0.05565986	0.034735322	-0.015354783	0.044447772	
-0.006161496	0.051177178	-0.06121466	-0.036343027	0.020127185	0.0064668953	0.060301304	-0.0043029967	-0.10237173	-0.116406694	
-0.026804931	-0.08110816	0.08696346	-0.020683972	-0.045348775	-0.09442806	-0.04925526	0.02530779	0.060000047	0.05538282	
0.012781327	-0.03279289	0.03229226	-0.023902046	0.043143936	-0.05377628	0.026461408	0.03476105	0.040146753	-0.03424348	
0.10315495	-0.03494612	0.040733233	0.045444824	-0.016737517	-0.05222103	0.04529458	-0.05933061	0.03967041	-0.067819834	
0.09262986	-0.0045835827	0.039880887	-0.018227736	-0.03543949	0.0049044015	-0.100130424	-0.06326072	-0.08672502	0.0068244534	
0.05458928	-0.050751	0.030225914	-0.0163013	-0.005552526	0.045145847	-0.012165635	-0.049821913	-0.058642134	-0.055224814	
-0.015983805	-0.031566218	0.027064769	0.1005407	0.0130470395	0.015360869	-0.031239737	0.017785568	-0.031117674	0.08181856	
0.08220352	0.075692914	-0.032013375	0.021351952	-0.061129775	-0.044214416	-0.056915924	-0.0035295452	0.06656867	-0.06052842	
-0.018786607	0.027292486	-0.028795255	0.037537627	0.023829784	0.022244036	-0.06901718	0.05329181	-0.05060121	-0.032924417	
-0.023248924	0.030093635	-0.053590566	0.03338511	-0.00646781	-0.08149538	0.051818054	-0.07452143	0.019448679	0.056296334	
0.024832329	0.04615233	0.01712476	0.00066705386	-0.023279028	0.08243137	0.024730068	0.105563395	-0.05147774	-0.06678652	
-0.04623803	-0.078745626	0.0046124863	-0.0057039973	-0.004838065	-0.0973639	0.004278508	0.019180752	-0.059956644	-0.026329966	
0.07583749	0.0035949387	-0.020884544	-0.083457835	0.047743466	0.044621777	0.04579523	-0.05440403	0.008679897	0.064294815	
0.1581989	-0.04305359	-0.070294395	-0.06411181	0.11968735	0.073760964	0.010950119	-0.085790955	-0.1522011	-0.0025024258	
0.005385493	-0.029385384	-0.03246829	-0.057917017	0.12034361	0.08660889	0.08853623	-0.074082404	-0.087895036	-0.00669515	
0.05768963	-0.03752687	-0.008866508	-0.0047593997	-0.038366865	-0.002979521	0.0047881035	-0.01624622	-0.067565836	0.016763719	
0.069298536	-0.059385046	0.00518883	0.099912845	0.018607002	0.014568118	0.07561591	-0.072909705	0.021241961	0.024553156	
-0.05496954	0.015462139	-0.03398241	-0.03820284	-0.04598404	-0.061782863	-0.06377794	-0.13209707	0.03238822	0.040493775	
-0.10797195	0.12880677	0.025629802	-0.032986775	-0.075934604	0.014805661	-0.01810322	-0.11782452	0.045683384	-0.017625881	
-0.13050444	0.13618062	-0.016172975	0.012461209	-0.10629445	-0.027054055	-0.016804706	-0.0717601	0.07514021	0.13109925	
-0.14397378	0.09130196	0.003416739	-0.04685759	0.050931208	-0.045301087	-0.037718102	-0.031697996	-0.010453416	0.05615668	
-0.08270878	0.05985503	-0.09502164	-0.05350566	0.12953383	-0.07999948	-0.02438469	0.0015929937	0.008860171	0.045672942	
-0.117969446	-0.080508895	-0.0655047	0.078894496	0.030256964	-0.052426986	0.03697164	0.032049205	-0.0844461	0.10542051	
-0.037659198	-0.07692317	-0.036286294	-0.005338948	0.088465996	-0.016433168	-0.02532429	0.0496657	-0.0013142021	-0.039199796	
0.018003725	-0.060634106	0.052793372	0.0390247	0.036340985	-0.02368072	0.0007638869	0.06060651	-0.009303747	0.0022432683	
0.018973604	-0.019798147	-0.027945373	-0.010547006	-0.014104933	0.008008542	0.041121453	-0.019559847	-0.066549994	-0.057286378	
0.08341732	-0.055528224	-0.026387291	-0.089768246	-0.0026516134	-0.055973098	0.013526751	-0.052014	-0.12350221	-0.013329611	
0.006145424	-0.035546407	0.049881063	-0.06726114	0.053867757	-0.032134213	0.032812938	-0.02528826	-0.036333106	-0.0116330255	
0.11934014	0.01223308	0.030990837	-0.0046815607	-0.021923233	0.059615165	0.037006415	0.009184765	0.004747148	-0.087171905	
-0.0028242902	-0.040674806	-0.044584453	-0.03685381	-0.00034624027	0.013447925	0.07115492	-0.0594449	-0.0139668435	-0.053137053	
-0.0678527	0.07052949	0.0026640163	-0.02577961	-0.099517696	-0.049206562	0.021549303	0.029440476	0.020673413	-0.09760653	
0.1114053	-0.03843758	-0.012956029	-0.049161162	0.09476135	-0.07203885	-0.012930726	0.03839669	-0.09947098	-0.039802108	
0.027508931	0.03326367	0.044260114	0.026710872	-0.0017372839	0.083232805	0.0675899	-0.011599032	0.024682203	0.010298311	
-0.0043095793	-0.040072963	-0.044183984	-0.0064810095	0.0035063813	-0.06658697	0.004628016	0.07513074	0.057908844	-0.05200361	
-0.065403104	-0.031603172	-0.02649848	0.07551537	-0.08267285	0.07628975	0.005555637	0.055330947	0.0019474224	0.027431823	
-0.049959995	-0.009738139	0.050833654	0.0014260942	-0.015238109	-0.05860482	0.07463335	0.07649333	0.040511854	0.033039134	
-0.04007905	0.097617105	0.013714743	0.04806973	-0.030801488	0.047281772	0.09752032	0.04710385	0.015848339	0.04234698	
0.018272568	-0.003582689	-0.056944612	-0.04095902	-0.103727855	0.044922855	-0.035081502	0.08375193	0.050549716	0.092048556	
0.09016829	0.011032752	-0.044678193	0.029277649	0.048810996	-0.02139811	0.019202242	-0.010071741	-0.02090821	-0.06513641	
-0.04990941	0.029739542	-0.07408349	-0.052464377	0.05531305	-0.02246088	0.03941306	-0.09318508	-5.6330056e-05	0.04272844	
-0.008841091	-0.08198862	-0.003419971	-0.048685934	0.03182557	-0.007477281	-0.027627211	-0.042762518	-0.0333507	0.005296452	
0.027550848	-0.09208448	-0.045304988	-0.045954347	0.07682377	-0.010174471	0.030236704	-0.011445879	-0.10048391	0.08235371	
0.04310268	-0.004681171	-0.07330549	-0.051300712	0.04299173	0.04892515	0.15645039	0.019207975	-0.0062288963	0.06181657	
-0.021662835	-0.10034988	-0.031008145	-0.061995972	0.11575728	0.10559663	0.008260871	-0.032996904	0.019483699	-0.015272497	
-0.039090652	-0.019514304	0.09478536	0.017988566	0.12287006	0.034132816	0.0014816397	-0.012566353	-0.024304438	0.15978396	
-0.08451103	0.038481258	0.014294382	-0.035491012	0.12073801	-0.07037728	-0.008300022	-0.17229119	0.09981959	0.034947544	
-0.1090929	0.12093262	-0.028188147	0.005007452	0.032211468	-0.006882241	-0.05148059	-0.05011084	0.05224481	-0.07561478	
-0.06718262	0.087336205	-0.017127713	-0.059443053	0.05743306	-0.10563681	-0.019405197	-0.054629266	0.04439217	0.024356708	
-0.058204968	-0.056420404	0.011856999	-0.05602999	0.030662676	0.062533796	-0.0058540064	-0.021143692	0.06724814	-0.0028685615	
-0.047604468	-0.042415917	-0.10211792	-0.031795375	0.03331835	-0.069242805	0.08735014	0.04167681	-0.048602756	0.08272918	
-0.062187172	-0.08073392	0.041242156	0.034109555	0.034850053	-0.04031985	-0.056773573	0.012605339	-0.041576143	0.035279013	
-0.105187185	-0.025599519	0.05504306	0.054931592	-0.03312813	-0.01788706	-0.024883416	-0.053766496	-0.034509942	-0.00050931855	
-0.009620437	-0.08576585	-0.09486513	0.09782872	0.030983962	0.04073571	0.03480048	-0.005411322	-0.05782996	-0.029706014	
0.1067092	-0.082656845	-0.050797842	0.036599517	-0.06788854	-0.021690018	0.061333437	0.0057581146	-0.003209938	-0.05691486	
0.04866928	-0.010497808	-0.021200664	-0.016612021	0.0066050515	-0.06029495	0.036568772	0.04309949	-0.03870133	-0.116472244	
0.07540719	-0.02437468	-0.037295833	-0.0024597351	-0.051121436	0.006620808	0.02342402	-0.08828305	-0.029881302	-0.053699806	
0.05001959	0.037135746	-0.08766851	0.034526944	0.08699921	-0.059269905	-0.0060948823	0.009274642	-0.11624677	-0.044693258	
0.008082577	-0.051614016	-0.102859885	0.016486168	-0.10615377	0.0550479	0.01022309	-0.019944629	-0.05163008	-0.054725602	
0.007893502	-0.032044914	-0.058208775	-0.032475002	-0.0020597163	-0.017767007	0.07147077	0.007891956	0.04113178	0.05018705	
0.028598238	-0.10550793	0.023782834	-0.065752834	0.035193488	-0.026551904	-0.034159597	0.081736416	0.024028918	0.023232745	
-0.055386804	0.033905547	-0.021131525	-0.03645882	0.05803021	0.06794048	0.061451044	0.026114544	0.05921822	0.026214434	
0.05676478	-0.076700784	0.005891799	-0.051272858	-0.10123563	0.011670534	0.03610231	0.042787965	-0.053272806	-0.032700587	
-0.026428603	-0.01359906	0.085297175	0.0540818	0.034418017	0.1013577	-0.0022824872	-0.00967935	-0.06229115	0.044785425	
-0.1092324	-0.037527546	0.08063039	-0.072992906	0.07521038	0.035222247	-0.08410977	0.07127346	-0.009028855	0.113507874	
0.06505611	-0.07790766	-0.02104758	-0.03742362	-0.072427526	0.0209083	0.10477434	0.033503085	-0.01817109	-0.020912148	
-0.018491387	0.0597231	0.046358272	-0.034930788	0.011954761	0.021539677	-0.003814981	-0.04047528	0.010881472	-0.06194283	
-0.017635511	-0.010546317	-0.060974155	0.026511883	-0.02709393	0.022559535	0.04723965	-0.029620234	-0.009979104	-0.075908184	
0.030627824	-0.038180172	-0.011654352	-0.02718996	0.07036432	0.0416319	-0.06269396	-0.06627186	-0.080094434	0.03322512	
0.025616972	-0.0460199	-0.023649665	-0.017122904	0.02702686	-0.1280658	-0.036748778	-0.061069783	-0.051950146	0.06929305	
-0.03825345	-0.028164415	-0.012102886	-0.046905287	-0.013054982	0.036441945	0.13270433	-0.08506908	-0.023358755	-0.0062673218	
-0.032507923	0.014260186	-0.0017393081	-0.060537275	0.06788671	-0.088166855	0.043240525	-0.08018285	-0.009717668	0.011830281	
0.0026473233	0.038679697	-0.038660765	-0.044400282	0.07088148	-0.101833634	0.012989481	0.015718918	0.013397405	0.084768586	
-0.022052605	-0.011275822	-0.0024506415	-0.07247429	0.118691415	0.0056054187	-0.008660054	-0.025471594	0.06364626	0.048542403	
-0.056332357	-0.010076994	0.042561665	-0.04716864	0.044652738	-0.036808316	0.0524297	-0.0920173	0.049555324	-0.056944598	
-0.17257504	0.04432485	-0.008447176	-0.11693802	0.14382386	-0.027284771	0.0739934	-0.006754598	0.062083736	-0.04006429	
-0.11999912	0.12924561	0.12231219	-0.06699257	0.049559	-0.07365986	-0.004270778	-0.10253328	-0.030506097	-0.07650384	
-0.097244866	0.023451993	0.025960147	-0.0029855636	0.09750438	-0.0183817	-0.07225611	-0.06913223	0.06017633	0.01652271	
-0.029231133	-0.06737058	0.121074595	-0.013239094	0.050957937	0.07322749	-0.057284106	0.06209914	-0.01872652	-0.035065457	
0.007879966	-0.07764233	0.09156551	0.018968675	0.09237921	-0.027779907	0.072574265	0.058728393	-0.056682974	-0.013562757	
0.010382156	-0.06648781	0.034128983	-0.0047283624	0.05143238	0.029362515	-0.0064099515	0.06814256	-0.060865268	0.0063907485	
0.041187614	-0.004470907	0.059646726	0.06431646	0.10150983	-0.018999413	0.10616789	-0.04738972	-0.031347863	-0.04014429	
0.074349046	-0.062050957	0.018976845	0.043039817	-0.016035305	0.059378523	0.083834164	-0.024072578	-0.0569091	-0.028883817	
0.022689018	-0.07340515	0.025484603	0.025939105	-0.1005376	-0.01863618	0.09932183	-0.026849652	0.014399638	-0.011171738	
0.021789255	-0.036269236	-0.03825229	-0.045290068	0.026232963	0.039726075	0.06542362	-0.008781083	0.03707086	-0.04533925	
-0.042510487	0.063283786	0.013197157	-0.029337266	-0.014206207	-0.066933736	0.051188942	0.009887793	0.07126642	0.00023060707	
-0.016316073	-0.012438133	0.03855938	0.044134814	-0.028445696	-0.06509878	0.049783237	-0.059739795	-0.026170744	0.026244082	
-0.05042698	-0.06817933	-0.019482162	-0.020453237	-0.06573818	0.09564395	0.014916077	-0.07135569	-0.01690941	-0.029459013	
0.025752036	0.014762814	0.022794219	-0.014565699	0.0186131	0.030718097	0.0881093	-0.00035057848	-0.04013677	0.007789647	
0.08342621	0.015280438	-0.03501399	0.015092733	-0.07060945	0.060691647	0.065307125	0.023353608	-0.07512935	0.09922335	
0.062349092	-0.013425781	-0.070837945	0.054692708	0.07715699	0.03336298	0.0025144692	0.0031121247	-0.028785393	0.06149856	
0.0050314814	0.070360914	0.031438828	-0.026257046	-0.004358074	0.1092594	0.0004498303	0.086873695	-0.05729503	-0.07223852	
-0.05635454	0.009535399	-0.004696857	-0.025072604	-0.008856637	-0.0053618127	-0.017199341	0.016625283	0.062114716	-0.05512805	
0.052416015	-0.06717619	-0.047241554	-0.040317338	0.02803764	0.101047635	0.100367956	-0.035526257	0.013505043	-0.060424935	
0.00831216	-0.018977508	0.0254208	-0.081848964	0.0318486	-0.070564434	-0.0618541	-0.0027117713	-0.059407804	0.073548876	
0.017745944	-0.020388374	-0.0002349299	0.009329506	0.04727899	-0.060210552	-0.0398306	-0.042267952	0.02983515	-0.028248023	
0.058919877	-0.0075840713	0.09644619	0.05942173	0.05491096	0.00052131695	0.04456027	0.018100316	0.07300552	0.030992063	
0.041167174	-0.0703856	-0.0035975548	-0.05459419	0.058281224	0.0062358784	-0.0077741784	-0.0025828443	-0.015244611	-0.048648518	
0.015148321	-0.11967542	0.031226862	-0.035323314	-0.049695764	-0.046451427	0.06374878	-0.022219742	-0.060864706	-0.004172187	
0.017586736	-0.08628249	-0.040935677	-0.003895138	0.05711084	-0.09274821	0.048738435	-0.06706489	-0.040276024	-0.044240512	
-0.032447215	-0.06914212	0.087891094	-0.06892401	0.011890911	-0.023760201	0.13149628	-0.12821263	0.0433346	-0.010662353	
0.017713832	0.09335589	0.09690924	-0.15523672	-0.028932016	0.021072086	0.06760759	-0.054501068	0.046378646	-0.06730729	
-0.09241923	0.06702574	0.13411012	-0.077099584	0.05794113	-0.11988854	-0.01196053	-0.12827268	0.033479955	-0.073369324	
0.008574052	0.1441991	0.103082225	-0.1253889	0.096730836	-0.024228122	-0.003888044	-0.09312363	-0.009373487	-0.01820253	
-0.02395078	0.107556544	0.10147277	-0.0058549424	0.0041761487	-0.030770218	0.019055938	-0.07879621	0.07113002	-0.039155755	
-0.019769346	-0.049423713	0.011910832	0.0223753	-0.017943742	-0.013310157	-0.0037279995	0.055335283	-0.10136856	0.06993619	
-0.098905854	0.032492656	-0.038027618	-0.028562736	0.053914677	-0.043248184	0.0002441705	0.15213113	-0.11335744	0.04384851	
0.03524722	0.040766645	0.08268584	-0.015435817	0.030065639	0.09895641	0.050426222	0.07599328	-0.06705035	0.13698232	
-0.0411724	-0.14150131	0.09023472	0.016987551	0.11708584	-0.027901435	0.11493908	-0.05347587	-0.079334535	0.024625197	
-0.04234022	-0.05900018	-0.0053087203	0.071546614	-0.049844746	0.007279081	-0.029241746	-0.07290433	-0.016755812	-0.051386267	
-0.010505468	-0.011105396	0.0413148	0.04709759	-0.0007333734	0.01930866	0.0067514535	-0.081377745	0.023704331	-0.041992832	
0.09577932	0.009962884	-0.031922963	0.02939667	0.040679734	0.06111456	-0.019814154	0.0038713387	-0.020946907	-0.026528068	
0.044291027	-0.07907707	-0.025985133	0.039492108	-0.030323593	-0.027155519	0.08263333	-0.031836744	0.0029174094	-0.061721344	
0.09064712	0.017745418	-0.015354894	-0.0035513742	-0.06434772	0.0019218168	-0.017534552	-0.01692204	0.082461536	0.05701438	
0.028960483	0.0050180596	0.047411412	-0.015950777	0.002067321	-0.082788564	-0.10785139	-0.07454691	0.0099639585	-0.047383115	
0.079487436	-0.07822802	0.026138255	-0.08738375	-0.05749372	-0.058719277	0.052657403	0.010641549	-0.032966983	-0.004561859	
-0.09552792	0.03766189	0.094618775	0.081477456	0.04181408	-0.040392503	0.104743116	0.034362283	0.027053647	0.0785656	
-0.07723098	-0.10315574	-0.08435672	-0.0072440635	-0.057585184	0.058438294	-0.014744203	0.025883406	-0.031783555	0.11307664	
-0.03456681	-0.014556927	-0.030272573	-0.056645606	-0.025623038	-0.031241508	0.08547336	0.04596671	0.05042793	0.025277002	
0.032661192	-0.06178235	0.031980507	0.03254649	0.032960694	-0.059731547	0.027380077	-0.08605426	0.03550471	-0.012589433	
-0.036767673	0.014377648	0.055126753	-0.053431794	-0.0346713	0.059070736	-0.017667066	0.08390986	-0.039995223	-0.0025945115	
0.021140708	-0.06444478	0.044025794	0.076856025	-0.010662492	0.041630298	0.10050526	0.054448515	-0.013316761	-0.073011115	
0.0047810436	-0.07874705	-0.041746434	0.06558367	-0.010378022	-0.034821447	-0.06606246	-0.010898326	-0.0900678	0.05821171	
-0.010502532	0.048077635	-0.053784315	-0.06785092	-0.056814436	0.03138481	0.08311165	-0.013172915	-0.06407777	-0.052109536	
0.062173117	-0.0062031727	0.122470714	-0.0403622	0.04277767	0.028783198	0.0149829695	-0.01578173	-0.014216363	-0.060884416	
0.14095634	-0.021753296	0.00485507	-0.041454248	0.013696836	-0.02404053	0.00027645743	-0.056820862	0.06798541	-0.048912458	
0.03881767	-0.0050766454	-0.002178962	-0.13150035	-0.054499175	-0.043831024	0.08316722	-0.0005117931	0.029954704	-0.073956974	
-0.03799148	0.012714483	0.052828345	-0.11730782	0.00015273299	-0.12753138	0.062328517	-0.04442882	0.005122454	-0.049936477	
-0.0044848737	-0.027524117	-0.04730695	0.0011225506	-0.079353824	-0.055994194	0.032343067	-0.121298365	0.05344044	0.017840505	
-0.04856156	0.008315785	0.14145605	0.039108362	-0.07566746	-0.06676658	0.09151537	-0.02200977	0.12463819	-0.02648839	
-0.12055583	0.070128925	-0.05107479	-0.028684916	-0.08930558	-0.019255804	-0.002649063	0.010959687	0.053101532	0.029862428	
-0.038503665	0.079444416	0.06917975	-0.17112882	0.052841496	-0.09629229	0.020069532	0.017946392	-0.057241134	-0.038085222	
-0.13624947	0.04448896	0.06359532	-0.05456108	0.087009236	-0.10014899	0.049505938	0.059859723	0.04797417	0.010903081	
-0.077561595	0.06802561	-0.049554747	-0.0022945667	0.08270762	0.012841701	0.0033410569	-0.029033296	-0.056921862	0.118444294	
-0.102451995	0.009888028	0.07226278	-0.1293198	-0.06375411	0.058503818	0.11602353	0.07750883	0.047911685	0.11231055	
0.036937505	0.009037406	0.1111763	0.058809374	0.01518277	0.063086666	0.07738221	-0.085862055	0.03291807	-0.026675286	
0.050046463	-0.077717565	0.062873155	0.12756865	-0.048206594	0.031993452	0.16188984	0.032259256	0.0377098	0.051282942	
0.084577605	-0.12766229	-0.035851452	0.062380098	0.024979694	0.0629571	0.08933234	0.05861887	0.0032885463	0.011742036	
-0.04780235	0.027507305	0.019844297	-0.061029673	0.06162822	-0.06401363	0.053448576	0.0064504547	-0.0004618067	-0.011305786	
-0.028801568	-0.078375965	0.05084496	0.04218615	-0.07772038	0.0086365715	0.09958516	0.0116607575	0.06628931	-0.0011649599	
0.10450073	-0.08862605	0.0732716	-0.06859999	-0.011547178	0.027996225	-0.0023354993	0.03515023	-0.07003614	0.03398447	
-0.010081337	-0.019140035	0.06489166	-0.016097205	0.0016065866	-0.06804991	-0.09622123	0.0022524055	-0.02238441	0.044040907	
0.042601507	-0.019597422	-0.027118845	0.029373707	0.008602081	-0.087205894	0.09912307	0.0021891613	-0.025448382	-0.024604391	
0.034734	0.06369849	0.012116076	-0.019146316	-0.109637134	0.012230861	0.059537683	-0.03235359	-0.0020727832	-0.021899784	
-0.0048430064	0.054267317	0.026867213	-0.003602278	-0.029176017	-0.03354673	0.033382714	-0.051653147	0.11055868	0.018556563	
0.037458304	0.051086936	0.03307392	0.0013631524	0.0043718247	0.02804652	-0.045377854	-0.009028559	0.037075657	0.04716639	
0.015335362	0.017602528	0.051140122	-0.04153284	-0.012118853	0.06007761	-0.058234535	-0.009886822	-0.014863954	0.08568669	
0.026041908	-0.07178067	0.02196344	0.013483585	-0.006085567	0.035513714	0.028842745	-0.05794034	0.05858211	0.012482203	
0.05441114	0.02136779	-0.017241336	0.041308273	-0.0017769807	0.004715061	0.042359937	-0.02055406	0.046159014	-0.03471081	
0.07592815	-0.055367425	-0.01614146	0.035288475	-0.051163632	-0.051103115	0.032476176	0.04849591	0.0122437095	-0.016562294	
0.07955119	-0.035060406	0.0450312	0.06432699	-0.009164239	0.084653355	-0.06960963	-0.04264153	-0.091927536	-0.083314456	
0.026115194	-0.007131124	-0.03566407	0.013155741	0.063890435	0.012909478	-0.12491683	0.009147406	-0.025215732	-0.1280996	
0.09078716	0.00982825	0.060077105	-0.08223131	0.023750238	0.124551676	-0.02132258	-0.031047653	0.043264475	-0.05337716	
0.1274341	-0.021604838	0.086882606	-0.025696306	0.067555204	0.08114264	0.007959351	-0.022148903	0.09898717	0.0025097122	
0.042015057	-0.01007442	0.079213895	-0.08737164	0.0014835317	0.041282494	-0.039160285	-0.076645344	-0.011388821	-0.057376303	
-0.03763162	-0.025250925	0.028597048	0.05659276	-0.036747556	-0.12099649	0.05333672	-0.0830421	0.017836047	-0.08087935	
-0.038541574	-0.02600764	0.065406315	0.02490791	-0.00704888	0.030670404	0.04492392	0.025170447	0.14695513	-0.017625032	
-0.083252296	0.103654854	-0.040425394	-0.03001097	-0.09370128	0.00785922	0.09739148	-0.013859428	-0.02598391	-0.08853337	
-0.03168002	0.07748113	-0.015866132	-0.086816184	-0.013736707	-0.0070473673	0.12559448	-0.051965274	0.04576772	-0.06952702	
-0.063279286	0.16936356	0.11298099	0.00469967	0.048494734	-0.051976785	0.067669354	0.027412536	-0.1424132	-0.047464885	
-0.008403657	0.06360182	0.007982249	-0.0055415174	0.08807942	0.042333975	-0.024145594	0.09051926	-0.02122926	-0.026745727	
-0.0037164718	0.06672234	0.04218691	0.0559746	0.03474353	-0.04341619	0.06542199	-0.034195803	-0.07962197	-0.04658703	
0.005673188	-0.07639566	-0.009668733	0.037214767	0.080236875	-0.062019106	-0.05381866	-0.096910484	0.0167248	-0.032207314	
0.098392226	-0.12191539	0.08181638	-0.0833735	0.010806263	0.103997394	-0.04305489	-0.018441565	-0.033897318	-0.07426777	
0.015563543	0.027598009	-0.0046891663	0.09437823	-0.066615	0.026617873	0.023908457	-0.022721825	-0.05660913	-0.023202933	
0.035060734	-0.016555525	0.039914742	0.040742755	0.030214634	-0.056110866	0.07396808	0.062682115	-0.1075204	-0.035204057	
0.017056273	-0.03960994	0.07721158	-0.022801409	0.0038712411	0.00038028587	-0.047805853	-0.013011182	-0.0339047	0.005213704	
-0.021068392	-0.05501743	-0.051797822	-0.044793732	-0.07004377	-0.018097222	0.0068733674	-0.0035720044	0.008868944	-0.029158052	
-0.06818716	-0.056600753	0.037549753	0.061451443	-0.01066776	-0.08991068	0.010390499	0.004630163	-0.013093761	-0.07524635	
0.035880037	-0.04711239	0.05321179	-0.0041458355	0.048127476	0.08520754	0.02409069	0.052935682	-0.0093423305	-0.04109773	
0.00010171304	0.06206322	0.079468995	-0.03008542	0.04495174	-0.0051603443	0.020071283	0.012260253	0.05499073	-0.056084763	
-0.056197867	-0.027159784	0.06612532	-0.012261129	0.008518207	-0.023868341	0.032280862	-0.10106755	-0.08994393	0.01727913	
0.032837268	0.016516881	-0.01964659	-0.009047137	-0.01134445	-0.01187076	-0.064373866	0.030130591	-0.056005757	-0.08206132	
-0.07350525	0.038903523	0.058558814	-0.030677866	0.06368067	-0.028769458	0.09563382	0.09835887	-0.054857366	0.019921103	
0.036092497	-0.06687852	-0.015954707	0.04649179	-0.04330338	-0.05808449	-0.023737144	0.004279535	0.08607207	0.10661435	
0.03441623	0.07497882	0.024065772	0.07409391	0.07101831	0.010622063	0.052185055	-0.012145939	-0.035417695	0.024552455	
-0.09073264	0.0636918	-0.053793956	0.05399265	0.0872921	0.020910557	0.031864144	-0.011384773	-0.079021975	0.021993294	
-0.04491712	-0.009828876	-0.02701039	0.11911576	-0.022968277	-0.07519736	-0.023341864	-0.10186728	-0.008697774	0.020843431	
0.010446618	0.006994274	-0.021392949	0.021378482	-0.08698003	-0.10192101	-0.043021772	0.011946377	-0.12059356	0.07980189	
0.011264414	0.009106075	-0.034851816	-0.052421395	-0.00882266	0.012274179	0.0673111	-0.06854337	-0.0099833915	0.0030769361	
0.036505133	-0.02058739	0.14253685	0.0881584	-0.07486483	0.13442892	0.003863582	0.04655754	0.01913171	0.07242906	
0.07653076	-0.038539805	0.033357132	0.021399032	-0.11387996	-0.037416607	0.010961378	-0.080519184	0.043387573	-0.03225694	
0.1221808	0.07550327	0.08405465	-0.0071319006	0.0469266	0.020531628	0.053088374	0.0042074914	-0.05232885	0.03312482	
-0.035049696	-0.005136321	0.04292062	-0.04234771	-0.08381845	0.06937407	0.055063527	0.005199259	0.0207439	0.03728448	
0.050645467	0.0013140729	0.04548032	-0.043685317	-0.068965964	0.034840986	0.041497957	0.031370685	0.067809865	-0.09699152	
-0.024536163	0.08388725	0.115420565	-0.08355117	-0.009811206	-0.0029997015	0.066578984	-0.08559221	0.011199712	-0.061079327	
0.0680101	0.10732513	0.047666453	-0.11939511	-0.043530066	-0.037322406	0.09965493	0.003738018	-0.11580687	-0.08154834	
-0.061736505	-0.026278595	-0.02967311	0.055750884	-0.01934179	-0.07679979	0.15258744	0.011323426	-0.001600695	0.07766062	
0.036805492	0.030641075	0.025528407	-0.035289504	-0.07244114	-0.06416454	0.055397954	0.113577425	-0.014278679	-0.07478839	
0.020603029	-0.09489683	0.01638401	-0.01723974	-0.041421216	0.005218335	0.0023982644	0.09044109	0.005633571	-0.09031672	
0.043970168	-0.025361367	-0.054364484	-0.020866988	-0.06247241	-0.04358234	0.114257306	-0.0373382	-0.06797233	0.024788208	
-0.053037416	-0.02591368	-0.007661466	-0.002079735	-0.036127213	0.07307016	-0.03044872	-0.0423451	0.0025869557	-0.031288326	
0.11488692	-0.024351658	-0.06401558	0.08323394	0.028849337	0.018125452	-0.02925026	-0.0490671	-0.03954998	0.039646514	
-0.03356117	0.03279492	0.009026323	0.025210131	0.06801575	0.10000618	0.076854385	-0.120418906	-0.10375816	-0.020581143	
-0.0031027673	-0.09491745	0.09398905	-0.045776315	-0.10876888	-0.010211377	-0.012918762	-0.06495259	-0.020195488	-0.017844303	
-0.013404781	0.0033500674	0.089958824	0.034359727	0.102897465	0.10221618	-0.052016575	0.032524623	-0.018486617	-0.012314904	
0.097613975	-0.08801926	-0.045920186	-0.008088742	-0.024763262	0.031033352	-0.11513286	-0.09372792	0.07704586	-0.09122107	
0.10958019	-0.013766844	-0.02048636	-0.009295996	0.023926465	-0.010470691	-0.07949749	0.05341252	0.006714543	0.013753586	
-0.042778414	-0.036166802	-0.07505265	0.035853002	-0.048248038	0.008909434	-0.10596573	0.014585166	0.10824732	0.028903596	
0.041399296	-0.0075977286	-0.0042856224	0.035088547	-0.04739655	-0.06980614	-0.040552128	0.025428297	0.047307897	0.024384368	
-0.014254033	0.0074503254	0.013999032	0.09122759	0.00037969262	0.060107417	0.014913778	0.015553321	0.09211774	0.074481934	
0.0738978	0.038551215	-0.019788621	-0.018491002	-0.021329239	-0.007733355	-0.04985997	0.0043585165	0.03544788	0.048916496	
-0.071160875	-0.019588122	-0.0074469144	-0.009511717	-0.043473773	0.006405827	-0.042771976	-0.053887386	0.012987612	-0.0009242476	
0.026847947	0.060742795	0.09280612	0.090002336	0.048259236	-0.0036718068	0.02535164	-0.010551318	-0.05719033	0.036690008	
0.035258245	-0.06551008	-0.07437683	-0.013297793	0.04903549	0.02819357	-0.108283535	0.0077548404	-0.023399586	-0.005325516	
-0.055427916	-0.0043455134	0.033568043	-0.05239007	0.05348392	-0.08296386	0.024327856	0.022588506	0.079194084	0.008856771	
-0.03292105	0.09206743	-0.0138086025	0.08314373	-0.06868097	0.019014025	-0.03487529	0.053789333	-0.03563832	0.08549052	
0.103903785	0.023556015	-0.018448604	0.093376875	-0.024395777	-0.012501899	0.031589933	-0.063321725	-0.010556764	0.017985318	
-0.04913349	-0.024831967	0.033902038	0.046420462	0.038979966	0.027370986	0.012850691	-0.0044862363	-0.025997287	-0.12035614	
0.07142192	-0.08885844	0.11447306	-0.045270626	0.026435386	0.08987447	-0.11433644	-0.03331516	0.051867962	-0.10099655	
0.023049561	-0.042557266	0.0489996	0.027633313	-0.013127828	0.082466215	0.04740511	-0.016970007	-0.048012275	-0.0825657	
0.06890548	0.024664203	0.12687352	0.020087842	-0.14725591	0.10968709	0.005657377	-0.1197766	0.06335448	-0.0022103766	
0.09662621	-0.072667494	-0.018018818	-0.002090051	-0.070491716	0.10125084	-0.03405142	-0.060453083	-0.084061414	-0.050081443	
-0.020299757	-0.043123607	0.07260201	-0.08060232	-0.038309064	0.06387406	0.07815207	0.022121934	-0.02837373	0.0021902649	
0.028000608	0.027903989	0.008658549	-0.10207388	0.010744887	-0.046936926	0.063289665	-0.08511045	0.05736983	-0.04027931	
-0.0798047	0.10118933	-0.1129503	-0.02685504	-0.00028307692	-0.009674502	-0.017191403	0.07334208	-0.013346182	-0.03887398	
-0.0388635	0.06492556	-0.0771256	0.0141005125	0.033638004	0.060283024	-0.02296357	-0.014260736	-0.01580901	0.097631864	
0.02083821	0.04133674	0.031525362	0.10331478	0.01915651	0.001019811	-0.029117007	0.033104952	-0.032532107	-0.049645316	
0.025180886	-0.115796745	0.040588938	-0.028530087	0.04333543	-0.04238043	0.0087282	-0.0009948725	0.013360376	0.037866883	
0.059846044	-0.05664004	-0.042073924	0.05007915	-0.012417662	0.019466387	-0.019601291	0.020068534	0.016528025	0.02147377	
0.049673352	0.06380227	0.051550534	0.13101783	0.007694852	0.080841355	-0.05847053	-0.047355447	-0.03462571	-0.008215088	
-0.097624116	-0.0039942767	-0.07841901	0.064921126	0.009265595	0.06455324	-0.010666591	-0.02779558	-0.041549545	0.053037543	
-0.08189355	0.020051822	0.028118338	0.043049008	0.017162101	0.0067458646	-0.0966862	0.06779144	-0.0026254957	-0.017683065	
-0.070879795	0.07929808	0.060295876	-0.033518914	-0.033508603	-0.009437567	0.004131245	-0.029159637	-0.07127108	-0.013925643	
-0.054813985	0.05586082	-0.02665156	-0.008689282	-0.04031395	-0.04330919	-0.08076523	0.050096083	0.002245643	-0.0022042752	
0.012494221	-0.10227745	0.11275606	0.030943228	-0.08139339	0.054291174	0.014615223	-0.019062383	-0.090166286	0.07009948	
-0.036964614	0.08669089	0.06683681	-0.014144893	0.03418561	0.054798573	-0.024980988	-0.08645044	-0.04822624	-0.07020124	
0.070564345	-0.00336177	0.029454252	0.0909341	0.034404952	0.02041829	-0.014276649	0.016637705	0.017501386	-0.02574977	
0.007075467	-0.07347461	-0.055405524	0.0076237987	-0.05261829	-0.043386947	-0.079924926	0.015112201	0.043461658	0.03799517	
-0.03737499	-0.049139228	-0.109687164	0.021860939	-0.012813714	0.072052725	0.04372354	-0.058549818	0.047317866	-0.072743155	
-0.019785337	-0.05417783	-0.0076092808	0.0019596892	0.0025848926	0.10951279	0.10157524	-0.036467567	-2.542858e-05	0.04083926	
-0.055187006	0.107662275	0.018583832	0.05637014	0.042625595	-0.04508269	-0.008191391	0.02016822	0.032133464	-0.022159936	
0.021686023	0.06980036	0.026852936	-0.053810075	0.02559416	0.04151855	0.0018197281	-0.104380704	0.10644359	0.03152148	
0.03896142	0.07444334	-0.0055454997	0.010537852	-0.0591998	-0.067971	0.1120117	-0.026467083	-0.0030754213	-0.008666898	
-0.028884942	0.042020656	-0.021265227	-0.004402244	-0.021253949	0.06337523	-0.026414832	0.037268914	-0.03544204	0.054211285	
0.09133651	-0.036532227	0.039555915	0.04499867	-0.042014625	0.05666646	-0.09380161	0.016797073	-0.04427057	-0.09229904	
0.060609493	-0.0014137784	0.084874645	0.003971552	-0.12853381	-0.06606447	-0.089555345	0.0085822195	0.027292132	-0.0074722273	
0.072139904	-0.04279396	0.071217574	0.048034303	-0.049366895	0.099650435	-0.11584388	0.015849834	0.05622853	-0.010277451	
0.06824344	-0.03325421	0.1033209	0.15360624	-0.05273664	0.007977174	-0.08774602	-0.027073821	0.09805364	-0.06347518	
0.045140263	-0.023337217	-0.06575802	0.058596913	0.0415438	-0.020860666	-0.014647954	-0.06458113	0.04906108	-0.10207164	
0.09795269	0.08014381	-0.0140159	0.048906375	-0.06072954	0.09945287	-0.05584799	-0.0068071866	0.040288467	-0.0056911744	
0.06695483	-0.03841641	0.026596028	0.0076571745	0.0009369251	0.07930596	0.03534533	-0.029838497	0.022281138	0.017991517	
0.055105053	-0.024217665	-0.043703455	0.0914434	-0.035429582	0.037536155	0.008144871	-0.068238854	0.09686925	0.0467708	
0.05895055	-0.017189935	-0.09411035	0.012966523	-0.065937534	0.12174143	-0.051632386	0.011416533	-0.02573141	-0.02971986	
-0.0514379	0.039991707	-0.05124294	0.020899918	-0.023073297	0.07603118	-0.0036504893	0.0022006156	0.11410423	0.024489718	
-0.009266625	-0.028976029	-0.046574857	0.03464114	0.048461024	-0.02903822	0.0125151435	0.05903073	0.053328883	0.060372394	
0.015911967	-0.100951426	-0.0058714766	0.058457207	-0.0480579	-0.032022603	0.031030431	0.021152241	-0.02178979	-0.0451266	
0.037890553	0.0341659	-0.098293304	0.02095841	0.068025246	0.036816888	-0.061225455	-0.006731951	-0.026409106	-0.09355108	
-0.036843985	-0.029664487	0.0837884	-0.013472469	0.042435702	0.05958705	-0.04617764	0.011930814	0.048762523	-0.022415515	
-0.037499424	0.008659195	0.04749424	0.08508003	-0.035054628	-0.008117062	0.02070238	-0.03408054	-0.04986402	0.029436255	
-0.03773812	0.006508529	0.03614482	0.070740096	-0.058629584	-0.015756445	0.05033764	0.060923636	0.011325548	0.018128786	
0.027355477	0.042822566	0.034242883	-0.031889316	-0.10032825	-0.011811098	0.07780648	-0.0354466	0.035003625	0.029049475	
0.020524498	-0.09578392	-0.045617558	-0.016789332	0.0029603885	0.05163459	-0.081777826	-0.039451256	-0.02140733	-0.052866735	
-0.089513145	0.008206183	0.12195177	0.054977264	-0.03574811	-0.042449955	0.07999711	-0.061923064	0.07619805	-0.048126966	
-0.016095882	0.020450149	0.10884816	-0.07648347	-0.066348255	0.027295703	-0.058379866	0.0072871665	-0.005535919	-0.05594762	
-0.019264529	-0.05384847	0.04395255	-0.0014425215	0.028674321	-0.017526655	-0.06499354	-0.05719946	0.005210911	0.031453352	
0.11397152	0.08575983	-0.044748534	0.0012535981	0.03357206	-0.014692023	-0.021827504	0.033432525	0.02917698	0.028506797	
-0.10277998	0.011625248	-0.031525318	-0.012382317	0.0034100977	-0.07786533	-0.058250636	-0.007411855	0.022613807	-0.0075073573	
0.057626206	-0.094907604	0.027360743	-0.06725972	0.022363478	-0.039417416	0.066322215	0.08104581	0.042964216	-0.029549856	
-0.029646145	-0.058085777	-0.09508442	-0.080071114	-0.07024904	-0.015783407	0.001299444	-0.00913276	0.082917675	0.0239281	
0.020663362	0.048904385	0.0165678	-0.031539936	0.018214934	0.06673181	-0.02950624	0.011752419	-0.025873186	-0.037926637	
-0.013519727	-0.08026962	-0.024782812	-0.04323485	0.06734664	-0.057833686	0.046115752	0.040390614	-0.0073262556	-0.04103642	
0.030641608	0.04403219	-0.04819999	0.059747793	0.079949625	0.06018589	-0.0007928402	-0.0077364333	-0.013178929	0.02638695	
-0.053347506	-0.0038878205	0.028248882	0.043806724	0.01937969	0.030237015	-0.030871212	0.024254058	-0.0018669904	0.021654874	
-0.026148984	-0.011067921	0.005407121	0.050990947	-0.0598677	0.011818636	-0.051442873	-0.02977822	0.0007751172	-0.030229323	
0.03859155	-0.008258543	-0.100050844	0.05792573	0.030116985	-0.044763353	-0.018236246	-0.059415527	-0.00029949757	0.068575874	
0.020799348	0.05598814	0.09254213	0.11416979	-0.08122094	0.015462661	-0.009331822	-0.021004228	-0.046405084	-0.13140765	
-0.010739552	0.009751563	0.04880726	0.04700343	0.03531039	-0.012268552	-0.012747678	-0.106471606	0.068679504	-0.07836806	
0.006241372	0.02317608	-0.10440602	0.0073470576	0.0648996	0.027334906	0.027601922	0.0034446127	0.13667767	-0.008106123	
0.07155119	-0.028993318	-0.033072766	0.031074658	0.048754726	0.030525371	-0.1095087	0.0260439	0.025370158	-0.017133888	
-0.0051266253	0.0820216	-0.10041281	0.06962497	-0.0646974	0.08386777	-0.122349255	-0.06649066	0.036190797	-0.014657376	
0.0061418475	0.06269991	-0.0035491749	0.043268885	0.015645862	0.052369565	-0.06948924	0.076338254	0.1312609	0.06651303	
0.04607684	-0.014833286	-0.072753854	0.08265711	0.0012093073	0.048648123	-0.12875831	-0.010572236	0.023903852	-0.03159269	
-0.01449497	0.01787656	0.022715248	-0.02075618	-0.005437134	0.0018471681	0.0045686937	-0.10265282	0.015457139	-0.03932816	
-0.021138532	0.0027963286	-0.0539161	0.050189078	-0.018042132	-0.028360669	-0.075102985	0.038101822	-0.034271047	-0.011106136	
0.051502496	-0.05794401	-0.038438983	0.06619762	0.00096866203	-0.035551596	-0.02405624	0.0044728015	-0.04853855	0.104610085	
-0.017718276	-0.034979515	-0.051387854	0.05878375	-0.024304792	0.04516144	0.04852389	-0.10054043	0.050524525	0.053612266	
0.09682516	-0.055813882	0.11185242	0.040246964	0.07536428	0.028104512	0.018409982	0.006213297	-0.07494861	0.042113315	
-0.049211714	-0.055965822	0.00690285	0.0026309355	0.06618805	0.044828515	-0.044128414	-0.081091136	-0.073139735	0.03220113	
0.026904838	0.10398971	0.04754505	-0.03485349	0.037867025	-0.076948225	0.037343662	-0.029386202	-0.013866849	-0.094695866	
0.016281804	0.08866166	-0.06590403	0.036502007	-0.018673114	0.0668043	0.00881243	0.02705309	0.038021784	-0.01351477	
-0.006399916	-0.0067127766	-0.0065811384	-0.051165026	0.014656778	0.016905585	-0.0027150682	0.067894004	-0.023953483	0.015332924	
-0.07158656	-0.068929106	-0.0013139315	0.047886416	0.051738054	-0.0110589685	-0.049479697	0.019769127	0.021465348	-0.0082285255	
-0.06403215	0.09468745	-0.021427667	0.042602006	0.005120247	0.0057064095	0.108541995	-0.11275013	-0.015913041	-0.010814299	
0.068943806	0.10622212	0.07124286	-0.01645412	-0.086796254	0.0069683767	-0.0520373	-0.0016555812	-0.0023107862	-0.04145589	
-0.04883961	0.02457608	-0.10190608	0.03171099	-0.030946318	-0.058367714	-0.07856083	0.046527684	-0.10706559	0.035430003	
-0.015216859	0.08033641	0.060815718	-0.06283163	0.014791555	0.019129643	-0.04721988	-0.0039690044	-0.080366485	-0.0017030032	
-0.00232095	-0.05836992	-0.008883538	0.029545827	-0.09765029	0.03616547	0.015301015	-0.080856875	-0.03342303	-0.08764173	
-0.028362012	-0.016247202	0.020520745	0.038463395	0.024368087	-0.06686735	-0.02056771	-0.06484512	-0.02837839	-0.09160148	
-0.031239156	0.020593954	-0.0040027774	-0.025514042	0.053395838	-0.018202445	-0.022901721	-0.0973676	0.013682935	0.028566018	
-0.029279975	-0.027857967	-0.004011504	-0.02224038	-0.112501495	-0.015778849	-0.031877678	0.029730655	-0.08315201	-0.032949336	
-0.019106627	-0.022364158	0.06961819	-0.0013143048	-0.002514822	-0.015449481	0.022944782	-0.05309601	-0.023211144	0.0765942	
0.08769235	0.0043725255	0.01582991	0.015976438	0.013754501	-0.043139525	-0.043812476	-0.027606452	0.00026609603	-0.024062242	
-0.03572117	0.03551316	-0.024757205	0.023723165	-0.04834569	0.037960283	0.043645408	0.006256712	0.02346284	-0.040941935	
-0.005024292	0.035078947	-0.002270351	-0.09022523	-0.0045735906	0.0030715058	0.064232245	-0.004364923	-0.007910068	0.006604963	
-0.046668615	0.09427227	-0.11267063	0.07021118	0.021678431	-0.014684978	0.015019581	-0.0043013203	0.033688955	0.052786034	
0.029618524	-0.051767014	-0.07886573	0.028707951	-0.020750884	-0.010668086	-0.10207284	0.07548985	-0.019640299	0.06707184	
0.00027356998	0.009322717	-0.098471455	0.00026355186	-0.014650566	0.015589503	-0.0074927974	0.06700979	0.087434	-0.06453294	
0.06532463	-0.12306694	-0.0011795909	0.057931468	0.078556344	0.04253495	-0.025131658	-0.002958732	0.1108828	-0.03162621	
0.035448253	-0.08191589	0.021568963	0.064066395	0.051308855	0.01138944	-0.052088443	0.088509835	0.03168201	0.024351226	
-0.04294546	-0.02093247	-0.05741062	-0.013635476	0.0011291687	0.0061328146	-0.005070077	-0.036667846	0.011615206	0.11377793	
-0.028996957	0.029524084	0.07390391	0.008682218	0.061220873	0.10597455	0.005613993	0.042061247	0.03180762	0.05550212	
0.036608815	-0.043330953	-0.03317022	-0.02220352	0.027988806	-0.038742006	0.025269583	-0.022090388	0.072105035	0.07146944	
0.058861084	0.08656797	0.05018371	0.009652526	0.03802438	0.019511942	-0.056599792	-0.004340655	-0.007119752	0.08492722	
-0.04556193	-0.050064653	-0.09110964	-0.00023595612	0.010731651	-0.029376604	-0.024345228	0.039792355	0.016138723	0.027746554	
0.009924917	0.08198983	0.010862331	-0.064564385	-0.05876891	-0.00023881251	0.07072313	0.06427515	-0.000932361	0.02975734	
0.015282572	0.032233115	-0.086496055	-0.05132287	-0.020244272	-0.044763323	-0.06884195	0.024170367	0.053213768	-0.06365429	
0.029258694	0.03761392	0.040558282	0.06051999	-0.014662622	0.0066011758	-0.026713882	0.021557761	0.0014913529	-0.0280123	
0.060229614	0.0662994	0.023912873	0.0594037	-0.06881947	0.031791564	0.08666854	-0.00041697882	0.027880752	-0.030250931	
0.034084022	0.027749956	-0.029275442	-0.009011385	0.019892152	0.05203913	0.07902482	-0.016716966	-0.021675374	-0.010160374	
-0.0376736	0.017884554	0.062391024	-0.067479596	0.028786382	0.08557054	-0.038237285	-0.09192665	0.03222473	-0.017332045	
-0.034838416	-0.026068006	-0.023873648	0.04058505	0.03488066	0.006460998	-0.06856696	-0.09223869	-0.05158541	-0.028164983	
-0.013507985	-0.062085614	0.101317964	-0.054997083	-0.014005963	-0.08307392	0.027202915	0.032325562	-0.112167545	-0.038904987	
-0.0126519725	-0.028921468	-0.013717953	-0.02455939	-0.033090487	0.10584258	-0.064299956	0.055882208	0.03480261	0.00894448	
-0.007958148	0.040626578	0.0055519943	-0.061285224	-0.016815275	-0.00059533125	0.061866008	0.036662128	0.05841574	0.05300402	
-6.8264504e-05	0.024278374	-0.09177039	0.03204513	0.07108665	0.05159821	0.045845397	0.023344554	-0.03893137	-0.07275249	
0.025343455	0.002919888	0.05044708	-0.08997276	0.074263096	-0.03118294	0.0075555355	0.02601595	-0.0022855992	-0.06503376	
-0.030294573	-0.021985067	-0.00020046381	-0.05974003	0.078708954	-0.07773288	0.022076769	-0.016723512	0.046734765	0.018585067	
-0.038068846	0.0026132837	-0.02964601	0.04082025	-0.012413343	-0.09894028	-0.024110459	0.060182538	-0.008745708	-0.0382979	
-0.010933168	0.09802798	0.0008168101	-0.010458825	0.00808118	0.09217015	0.07591155	0.02055099	-0.11322865	0.07797047	
-0.013605895	0.017810347	-0.033066783	-0.03992342	-0.08323301	-0.107289135	-0.049194053	0.04553326	0.019035222	0.0068275346	
0.028518058	-0.10394515	0.02182583	-0.0065821493	0.023104057	-0.015231802	0.026118936	-0.0045156707	0.02987776	-0.10348439	
0.039579988	-0.053743076	-0.04046287	0.024622485	-0.068653524	-0.031245947	0.04198959	-0.05598416	0.04234376	-0.023525145	
-0.0018366532	0.023479339	-0.06882779	-0.0067830808	-0.10864153	-0.059958253	-0.020438118	0.032630857	0.04591079	-0.04319205	
0.08025517	0.00069161126	0.055144496	-0.03096205	0.00942959	-0.009409253	0.07610319	0.055063944	-0.007002926	0.022854546	
0.021593451	0.002993208	-0.02765164	-0.0506696	-0.001279265	-0.023294553	0.017218145	0.06081919	-0.07290748	0.017365534	
0.033169385	0.017969761	-0.028727008	-0.096756145	0.032080032	-0.036935702	-0.065099515	-0.030057915	0.03369461	-0.013832245	
-0.0018525216	-0.03105956	-0.11555433	-0.003175291	-0.020383446	0.06036313	0.049619965	0.069278896	-0.0077520944	0.026656149	
-0.07525697	0.03140061	-0.06887067	0.013092292	-0.06833227	-0.006057662	0.034005165	0.01149079	0.06316795	-0.029827656	
-0.0069675567	-0.04002921	0.018714081	-0.057843726	-0.025578253	0.0681574	-0.103248216	-0.01590069	-0.08888995	0.018351818	
0.07759415	0.052145034	-0.08520415	-0.005729598	-0.032337572	-0.0011042265	-0.012265057	-0.063768655	0.01597982	0.09215787	
0.021896176	-0.09383057	0.013520737	-0.0847235	0.102683626	-0.06572567	-0.10355343	0.029151991	0.075967126	1.2025812e-06	
-0.004384436	-0.087199345	-0.09832048	-0.056028944	0.045486383	-0.047794163	-0.0336326	-0.03196687	-0.06722229	-0.065441415	
-0.08796944	0.10130013	-0.009590336	0.09814154	0.09015514	0.058562588	-0.027471052	0.066150114	-0.047728114	-0.03475468	
0.0134571055	0.02196541	0.10260857	-0.01795822	0.03624799	-0.040020026	-0.0098512685	-0.0048159095	0.058519065	-0.050459385	
-6.076081e-05	0.029900955	-0.030544635	-0.024221178	0.0067211348	0.05546904	-0.05058535	-0.045906514	-0.0499713	0.0680976	
0.08328518	0.02499906	0.06193686	-0.063443124	0.0044438113	-0.018792858	-0.011849184	0.05095871	0.053593203	0.022934765	
0.048228644	0.033226687	-0.041584615	-0.009419589	-0.0011587158	-0.012847852	0.013145247	0.009680192	-0.0046040197	-0.052441	
-0.036074184	-0.059144266	0.032501373	0.015202484	-0.050648708	0.041467205	0.07373613	0.011678283	0.018848162	-0.012841854	
-0.07502128	-0.012067978	0.07710362	-0.04475146	-0.022210749	0.049285006	-0.075795	-0.025853692	0.058276728	0.0070602437	
0.021193437	-0.05538597	-0.03848718	-0.0035107587	-0.07674947	0.018251836	0.027655205	0.053788014	0.025258753	0.012149335	
0.04610282	-0.05716253	0.025198428	0.06151066	-0.011163478	0.013629901	0.073711514	-0.04410694	-0.011313971	-0.023092557	
0.038245775	-0.05667975	-0.008821681	-0.05717433	-0.10791626	-0.024215423	-0.055870675	-0.011171377	-0.011050141	-0.014494165	
-0.034669317	0.0032296702	0.0012278236	0.097089715	-0.009702128	0.08525595	0.007327183	0.104019694	0.010348674	-0.0073288428	
-0.009473395	-0.044489536	0.10449313	0.007862683	-0.090249866	-0.06811247	-0.0484449	0.055606086	0.054641988	0.076423235	
-0.020394564	0.07413607	0.036776457	0.010363868	0.08679701	-0.00032499456	-0.05907399	-0.01976316	-0.02209734	0.03903192	
0.047106564	0.021029858	0.06658123	0.055171773	-0.03950094	-0.026854208	-0.010831216	-0.06167054	0.04845158	-0.035649143	
0.029723486	0.038305983	-0.10127563	0.048034035	0.009520795	-0.05184648	-0.05431191	0.008573032	-0.02968157	0.00014437754	
-0.030618051	-0.02535485	-0.07325226	-0.046419524	-0.09077952	-0.010630045	0.02349055	-0.078573175	-0.04056215	-0.0056731496	
0.010764902	0.05597356	0.009695017	1.7826407e-05	0.04443572	-0.06186983	-0.016097637	0.0052654594	0.04923421	-0.10375579	
-0.08721294	0.0148111805	0.0037389267	-0.0496644	0.049276464	-0.07789125	0.044156194	0.033196818	0.023519136	-0.03238714	
-0.10495302	0.042077415	-0.10906637	0.00031608308	-0.0076725953	0.045072988	0.01437233	1.9309015e-05	-0.055591024	0.10100158	
-0.073227756	0.013534623	-0.107618324	0.06955191	-0.045728296	-0.008758955	0.0116401715	-0.0076114447	0.044952795	0.023933446	
0.0046252776	0.043805983	-0.0112936115	0.0068627326	0.07514151	-0.04497145	-0.06697585	-0.006560778	-0.04341119	-0.041555997	
-0.027420722	0.022202598	-0.020415243	0.020611847	-0.025075013	0.0014107787	-0.039607238	-0.02451309	-0.082273275	-0.037662666	
-0.10620652	0.005955592	-0.049790796	-0.035164718	-0.07353438	0.029218934	-0.06353676	-0.004951863	0.00034708317	0.043361727	
-0.023433702	-0.064433396	0.0073420457	-0.0049750083	-0.060345564	-0.09792532	0.031502083	-0.0118013425	-0.028342865	0.012689033	
-0.08916556	-0.071534865	-0.0033960934	0.07986955	0.01240286	0.062474355	-0.0044061504	-0.019673059	-0.037737496	-0.041707676	
-0.028615264	-0.06964758	-0.053980358	0.011992097	-0.08547244	-0.005900508	0.004757891	0.03621209	0.060721938	0.008460426	
-0.0014540629	0.060283523	-0.02296227	-0.03294802	-0.07589319	-0.00074052165	0.029289467	-0.056135103	-0.00946285	0.04204815	
0.045397095	-0.0069565107	-0.01993837	-0.041845385	-0.0074742255	0.027768014	0.01872764	0.004016902	0.006246907	-0.006524068	
-0.11356907	0.023851914	0.006114423	0.0006582649	0.019113312	-0.027123911	-0.035128735	0.07127971	-0.04191615	-0.006939425	
0.0067225583	-0.06125702	-0.08246259	-0.044330467	0.05412935	-0.048655957	-0.025362652	0.06311651	-0.021624679	0.047666248	
-0.01568606	-0.011449229	0.0063123074	0.05318205	0.046150945	-0.02079807	-0.052780785	0.08988729	0.07152731	0.027719935	
0.020786846	-0.007115386	-0.033159047	0.044211864	-0.032561723	0.06686226	-0.0045057037	0.060753062	0.027325792	0.023583807	
-0.047565505	-0.09369895	0.029841201	-0.057141464	-0.046252035	0.027870173	0.022488395	-0.04067194	-0.020894956	0.03448935	
-0.0346264	-0.035868645	-0.034996357	0.0016267061	0.07443128	0.031166434	0.008267075	-0.05987782	0.011570982	-0.072490096	
0.03391588	0.100077115	-0.01785716	-0.059487537	-0.06111557	-0.108679496	-0.044881724	0.024941135	-0.0036995334	-0.11005844	
0.08728834	0.027201766	-0.044615224	-0.028401898	-0.064550176	0.045690168	-0.10697531	0.016242055	-0.011625683	0.013502464	
0.033514477	-0.01636771	-0.005969262	0.037205487	0.024939459	-0.026908994	-0.029782113	0.037035838	0.024392046	-0.060609926	
-0.028840331	-0.034019135	-0.019048927	0.04746414	0.016735734	-0.04101664	0.04216643	0.01480962	0.0991697	0.06813434	
-0.07555531	-0.00029625537	-0.0018312999	-0.030955007	0.099974796	0.05180831	0.060698703	-0.056932103	-1.8839577e-05	0.004876904	
-0.10975932	-0.045199037	-0.021724619	-0.028217142	-0.044638734	0.010020662	-0.030355796	0.03464543	0.03009794	0.007507666	
-0.08728902	0.021768421	0.041467983	0.064445786	0.050824024	0.04822958	0.042414647	0.009911194	0.014516229	-0.033691604	
0.00041566615	0.11092314	0.06555729	0.09198398	0.04803976	0.030295866	-0.01568838	0.017522937	-0.01050045	0.035922367	
-0.051630568	0.019539813	-0.032504726	-0.015919195	0.016905751	0.02313	-0.02040293	0.056535404	0.071152784	-0.024065973	
0.0054860455	0.0008577259	0.013483374	0.019889314	-0.035924733	0.03926557	-0.02748525	-0.046732597	0.04292898	-0.011531117	
0.052527856	0.051090606	-0.0146620795	0.008187736	-0.008388283	-0.035653956	0.07803002	-0.06742582	0.0656132	0.039006643	
0.018657587	0.031048194	-0.053572014	0.08201749	0.005560736	0.03633389	-0.006217934	-0.019138252	0.039493654	-0.076299235	
-0.03335755	-0.038008805	0.0050664693	-0.036864225	0.03819624	0.020585438	0.06372726	-0.024733461	-0.049564872	0.10731766	
-0.03541253	0.060028937	-0.027254777	0.07457731	0.03989595	0.018888146	-0.041317068	-0.008803319	-0.07848678	0.052052394	
0.031008033	-0.0035170584	0.032547854	-0.032182805	-0.08349988	-0.029481417	0.03688443	0.020737667	-0.058255054	0.018657649	
-0.041585915	-0.106646486	0.083859	0.039955597	0.053355604	0.02478714	-0.007907765	0.114401616	-0.060281307	-0.050917897	
0.09489678	-0.09162295	-0.041211233	-0.063532844	-0.036527686	-0.0589542	-0.046264354	0.07154172	0.0065799113	0.015058323	
0.061748877	0.07799124	0.03497215	0.035293147	-0.05291724	-0.022938253	-0.031248366	-0.04222799	-0.017208653	0.042771205	
0.06665615	-0.0008295729	0.08231042	0.032611936	0.015344444	0.049586825	-0.0312833	0.021762734	-0.03323179	-0.0795182	
-0.0031921729	0.031102259	0.015827686	-0.062072903	-0.02150115	0.056421973	-0.026458569	0.013008865	0.04540671	0.04690456	
-0.03970631	-0.059723858	0.01987222	0.021009602	0.008610311	-0.06880154	-0.08125448	0.017974613	-0.022712734	-0.05563596	
0.054640383	-0.02632801	-0.008226839	0.02427066	0.077486604	-0.06488104	0.04689434	-0.0073623057	-0.046961594	0.08575413	
-0.063968614	-0.0065505444	-0.024892116	0.00032158796	0.054255053	-0.0034397356	0.023297882	0.057187848	-0.07255869	-0.043942295	
-0.056796435	-0.0687244	-0.015134758	0.021168286	-0.079759225	-0.078801416	0.08962375	0.053759057	0.07208541	-0.007260804	
-0.06566382	-0.070619665	0.035081446	0.055292945	0.032550618	0.015349615	-0.10469112	0.09045227	0.023479033	-0.013480238	
-0.048907716	-0.04094263	-0.017376347	0.0610098	0.023458239	0.07671091	0.003118592	-0.065647356	-0.0078087063	-0.05875778	
-0.023868825	-0.00012690511	-0.042859785	0.0035615289	-0.08760139	-0.05458902	0.004872718	0.04928431	-0.040701784	0.09398538	
0.05528775	-0.106542125	-0.0007535049	0.063323036	-0.04602407	-0.06790845	0.0911559	0.098766685	0.058483247	-0.009471255	
0.043029178	-0.023757935	-0.0048078913	0.006221135	0.090227045	0.11183481	-0.084509596	0.042973757	-0.093752004	-0.073042355	
0.09940777	0.07013234	-0.008419058	0.06375128	0.038185667	-0.059584558	-0.016670601	-0.04000275	0.03882133	0.001841796	
-0.022307023	0.0035063562	-0.06583533	0.015684733	0.0054036058	0.04125401	-0.064196736	-0.010935028	-0.014319823	-0.050474953	
***0.1***
--------------------------------------------------
0.0009024707	-0.09072517	0.0059107626	0.046315566	-0.0012214618	0.006737086	-0.00031940296	-0.00826168	-0.0026933218	0.0587515	
-0.022876682	0.006843852	0.045574922	-0.07793668	-0.031092277	-0.007436676	0.01849827	0.013766553	0.079014786	0.053395696	
0.055161458	-0.07387604	-0.030072004	0.055852182	0.050535616	0.04208237	-0.06477568	-0.10909413	0.069481894	-0.062132537	
-0.030236429	0.04776835	-0.055124316	0.032351945	-0.073109545	-0.008928335	-0.048407376	-0.04369037	-0.06434536	-0.023704048	
-0.080023475	0.05188744	0.070146754	0.018516656	-0.041329157	0.019550262	0.02385157	-0.029473986	0.054761603	0.017324163	
0.0036620246	0.03297941	-0.10063511	-0.010177545	-0.027643649	0.041783657	-0.052986886	-0.018718282	-0.017579857	0.085226335	
-0.08362882	0.05493527	0.03565802	0.056755826	0.04671748	0.04318154	-0.03812198	0.104945	-0.031472433	0.06570989	
0.09618123	-0.018584177	0.021491665	0.018112862	-0.047193483	-0.081165925	-0.046791587	-0.04579082	0.029082222	0.01914837	
0.025105642	0.03561281	-0.0038341158	0.08121278	-0.01993954	-0.067577265	0.021740168	0.009159934	0.04159899	-0.00090744166	
-0.014275232	0.042454988	0.00662324	-0.01154738	0.05538532	-0.0499724	0.03812226	-0.0045396523	0.037482247	-0.04114738	
0.07520628	0.010117934	-0.019214183	-0.0020434414	-0.05655265	0.042305022	-0.04310673	0.07713576	-0.041442137	-0.035822526	
-0.050281476	-0.02343245	0.04892008	-0.022021597	-0.0690745	-0.06069391	0.030687204	0.05552446	-0.049806498	-0.03964346	
-0.02578148	-0.043888442	-0.01116927	0.10356553	0.027998077	0.0618737	-0.018094767	-0.031332377	-0.0049439725	-0.01641269	
0.02234495	0.043533947	0.03462582	0.023843948	-0.07237135	0.06740593	0.047724072	0.046111096	-0.08913438	-0.041796338	
0.038486972	0.0025547142	0.0024189723	-0.053971704	0.09699734	-0.093656525	0.06469976	-0.049530476	0.060582045	-0.05489588	
-0.040810723	-0.09664006	0.037733942	0.04236634	-0.020751704	-0.03142356	0.03373814	0.052408446	0.033667445	-0.10147974	
-0.075716846	0.04417969	-0.021370994	0.09043187	-0.047503315	-0.035079435	-0.03289308	0.0038742772	0.00903913	0.073583566	
-0.0038813832	0.021026246	-0.010882807	0.037906576	0.00038969464	-0.035162177	-0.07526409	0.0059105125	0.026092872	0.06525821	
-0.024861451	0.027123595	0.0062440448	-0.007071952	-0.049017243	-0.088512905	-0.06228542	0.026371397	-0.001537889	0.003683487	
-0.023990713	0.009960154	0.016981319	-0.077576704	0.062095217	-0.016007941	-0.0067361672	-0.014435578	-0.06524647	-0.0677612	
0.013296831	0.10081024	-0.008367928	-0.03745615	0.019726772	0.012136452	-0.03908587	0.035020802	0.06480513	-0.046084937	
0.046058632	-0.07081137	-0.05684595	0.00077024515	0.04862824	0.005800582	-0.0047955005	-0.060937718	-0.022196416	-0.010548849	
0.04112537	0.09178141	0.028027624	-0.047401007	-0.03130487	0.06746992	-0.022471996	-0.046617888	0.04770298	-0.026808372	
0.013912771	0.03942458	-0.013139416	-0.081586875	-0.04672928	0.07453396	-0.049713966	-0.091458976	0.038515292	-0.043584045	
0.006311517	-0.086476	0.0139785865	0.032215483	0.06098069	0.029960608	0.00040908938	-0.026050534	-0.10407922	-0.057225373	
-0.09838443	-0.008093047	0.085818626	-0.014126898	0.03498889	-0.00037755427	-0.021758892	0.012508509	-0.022473622	0.028158298	
0.040890943	-0.09766956	0.01484608	0.0029703302	0.031876262	0.049966633	-0.0009236528	0.03518676	-0.036501266	0.024829514	
0.057734106	0.044570025	0.011350722	0.020707455	0.036255173	-0.04324384	0.039528742	-0.09616916	-0.004199827	0.07880018	
-0.077776805	0.036629636	-0.04319673	-0.07074213	0.065535516	-0.055986423	-0.0032474673	0.04350816	-0.012485072	0.07620624	
