0.0009024706	-0.09072516	0.005910761	0.04631557	-0.0012214619	0.006737085	-0.00031940299	-0.00826168	-0.0026933216	0.058751505	
-0.022876682	0.0068438514	0.04557492	-0.07793667	-0.031092273	-0.007436676	0.018498268	0.013766554	0.07901479	0.0533957	
0.05516145	-0.07387604	-0.030071998	0.055852175	0.05053562	0.04208237	-0.06477568	-0.109094106	0.069481894	-0.062132545	
-0.030236425	0.04776834	-0.05512432	0.03235195	-0.07310955	-0.008928336	-0.048407365	-0.04369036	-0.06434536	-0.023704043	
-0.08002347	0.051887438	0.07014675	0.018516654	-0.041329153	0.019550264	0.023851564	-0.029473986	0.0547616	0.01732416	
0.0036620242	0.032979414	-0.1006351	-0.010177546	-0.027643643	0.041783653	-0.052986894	-0.01871828	-0.017579855	0.08522633	
-0.08362881	0.054935258	0.03565802	0.056755822	0.046717472	0.043181535	-0.03812198	0.10494498	-0.031472433	0.06570989	
0.09618122	-0.018584173	0.021491664	0.01811286	-0.04719349	-0.08116593	-0.046791587	-0.045790814	0.029082226	0.019148368	
0.025105638	0.03561281	-0.003834115	0.081212774	-0.019939538	-0.067577265	0.021740165	0.009159933	0.041598987	-0.0009074417	
-0.014275231	0.04245498	0.0066232397	-0.011547379	0.05538531	-0.04997239	0.038122255	-0.0045396523	0.037482247	-0.041147377	
0.07520628	0.010117933	-0.019214183	-0.0020434414	-0.056552656	0.042305015	-0.043106727	0.07713575	-0.041442133	-0.035822522	
-0.05028148	-0.02343245	0.048920076	-0.022021595	-0.0690745	-0.060693894	0.030687198	0.055524454	-0.049806494	-0.039643463	
-0.02579702	-0.04390912	-0.011232535	0.10352493	0.027958812	0.06184615	-0.017819148	-0.03135393	-0.0049667833	-0.016437009	
0.02231212	0.043489818	0.03446548	0.023757383	-0.072451584	0.06734644	0.04833082	0.046065163	-0.08918076	-0.04184705	
0.038488302	0.002556031	0.0023947349	-0.053969152	0.09700372	-0.09365559	0.064703256	-0.049529064	0.06058603	-0.054893047	
-0.04081067	-0.096640006	0.037732933	0.04236645	-0.020751433	-0.031423517	0.03373829	0.052408494	0.033667605	-0.10147962	
-0.07571684	0.04417969	-0.021370992	0.09043186	-0.047503304	-0.03507943	-0.032893084	0.003874278	0.009039131	0.07358356	
-0.003881383	0.021026243	-0.010882805	0.037906576	0.00038969456	-0.035162177	-0.07526409	0.0059105116	0.026092876	0.06525822	
-0.02486145	0.027123597	0.0062440448	-0.0070719514	-0.049017232	-0.088512905	-0.06228542	0.026371397	-0.0015378889	0.0036834874	
-0.023990711	0.009960152	0.016981319	-0.0775767	0.062095225	-0.016007943	-0.0067361677	-0.014435576	-0.06524648	-0.06776119	
0.013296832	0.100810215	-0.008367929	-0.037456147	0.019726768	0.012136451	-0.03908586	0.035020802	0.06480512	-0.04608494	
0.046058632	-0.07081136	-0.056845944	0.00077024504	0.04862825	0.0058005815	-0.0047955	-0.060937706	-0.022196412	-0.010548848	
0.041125372	0.091781415	0.02802762	-0.047401004	-0.031304866	0.06746991	-0.022471994	-0.04661788	0.047702976	-0.02680837	
0.013912768	0.03942458	-0.013139417	-0.08158687	-0.046729278	0.07453396	-0.049713966	-0.091458976	0.03851529	-0.043584038	
0.0063115167	-0.086476006	0.013978587	0.032215483	0.060980685	0.0299606	0.0004090894	-0.026050529	-0.104079224	-0.05722537	
-0.098384425	-0.008093045	0.085818626	-0.014126896	0.03498889	-0.0003775543	-0.021758894	0.012508508	-0.022473622	0.028158294	
0.040890936	-0.097669564	0.014846077	0.0029703302	0.03187626	0.049966626	-0.0009236529	0.035186756	-0.036501266	0.02482951	
0.05773411	0.04457002	0.011350722	0.02070745	0.036255173	-0.043243837	0.039528746	-0.09616916	-0.004199827	0.07880017	
-0.077776805	0.036629632	-0.043196723	-0.07074212	0.06553551	-0.055986423	-0.0032474678	0.043508153	-0.012485073	0.07620623	
0.043284565	-0.014664742	-0.024723379	0.024207827	-0.07973844	-0.008225754	-0.09995991	0.07435305	0.081657596	-0.06837487	
-0.002416808	0.020760389	0.02079314	0.1135683	0.06559614	0.024418954	0.08559032	-0.095390186	-0.085329965	-0.0049838517	
-0.0065881535	0.01564231	0.068285465	0.06603436	-0.108343065	0.05244752	0.08387197	-0.08177442	-0.078602925	0.051863633	
-0.021449346	0.06833768	0.05956975	-0.009024386	0.062363587	-0.032472406	-0.011147735	0.0036660533	-0.035159513	-0.007767758	
-0.031093795	-0.014508904	-0.03393997	0.022804897	-0.019151855	-0.07591251	0.08203453	-0.0025348994	-0.008222761	-0.021131678	
0.038197123	0.022754714	0.009758693	-0.029803192	-0.071540706	0.058020137	-0.040542874	-0.01409555	0.039105874	0.0040780306	
-0.001351026	-0.003884047	0.058368325	0.028268866	0.020250589	0.0868351	0.027809376	0.06661392	0.04852311	-0.06103327	
-0.030688412	0.02908188	-0.020277418	-0.04901084	-0.03176591	0.04620165	-0.11215973	-0.027316414	0.024201479	-0.025003228	
-0.039021403	-0.05268259	-0.08605014	0.07274742	-0.05590168	0.059558023	0.016899537	-0.036004532	-0.002385855	0.06141072	
-0.05137651	-0.028885126	0.009700634	-0.013990656	0.007557181	-0.047763534	-0.00507352	0.010552508	0.017848104	-0.013536339	
0.0038696374	0.048410337	0.07597673	-0.0014950912	-0.027993413	0.011186028	0.09677198	-0.0054364926	-0.10415825	0.048905097	
0.009675913	-0.058126416	0.013361257	-0.07639488	-0.019231893	-0.0740814	0.0044865343	0.10029584	0.022350261	0.062027242	
0.018116836	0.0061925226	0.101912744	0.036373664	-0.013962993	-0.062238634	0.009204086	-0.014337115	0.04769774	0.10096467	
0.06729454	-0.036522705	0.09548048	0.057164893	-0.0847659	-0.025483748	-0.09661555	0.0008854504	0.022293568	-0.046756625	
-0.037229553	-0.023929847	0.016821347	0.00992613	0.039800227	-0.00014099205	0.07007402	0.0032211049	-0.048394207	-1.4620913e-05	
-0.07141182	0.016782325	0.038876984	0.016220225	0.0020944257	0.040178325	0.053290196	-0.014168747	-0.027431568	0.0012234722	
0.004776409	-0.11374366	0.0509175	0.06054493	0.0054849987	0.075112924	-0.0373285	0.104528196	0.08439585	-0.055826224	
0.048764568	0.038759395	-0.0025657988	0.012589051	-0.01936988	0.0013596894	-0.0014666641	-0.033538677	-0.0305823	0.06579425	
0.08765293	0.010897414	-0.09976573	-0.03431999	-0.039372403	-0.065558374	-0.07387912	0.075254716	-0.07167751	0.033299476	
0.0074208574	0.025817499	0.05093648	0.057198197	-0.03203442	-0.08638116	0.038722962	0.06272553	0.016963176	-0.0011098024	
0.027673258	-0.07776328	-0.088301025	0.020092754	-0.033720598	0.060090806	-0.053673077	-0.017085336	0.002718371	-0.04027303	
0.098607525	0.044745572	-0.068947084	0.061825458	0.017361498	0.05317285	0.08966383	0.010696901	-0.014472092	-0.016140785	
0.046504337	0.035017896	0.026283292	0.028570708	-0.0875746	-0.037518006	-0.011710736	0.013409909	-0.0072640968	-0.04948217	
0.0203258	-0.024322055	-0.053555973	-0.025097499	0.10409456	-0.0049199504	-0.039304577	-0.03463516	0.026035167	-0.013297806	
-0.009968711	0.011030354	-0.0031800505	0.02208865	-0.011755968	-0.0751277	-0.024983149	-0.08970282	-0.006371636	0.020571066	
0.03313781	0.075743325	-0.031677447	0.0136509985	-0.016965605	0.044191983	0.03814547	-0.10984836	0.032648563	-0.09095482	
-0.030123731	0.025728038	0.06674388	0.021714402	-0.036038134	-0.06143145	0.07064521	0.10346756	0.022168318	0.048269905	
0.01766707	-0.052723765	-0.023128115	-0.013189083	0.10077632	-0.045136627	0.040900227	-0.015228849	-0.0898443	0.009281734	
-0.026056707	0.03569654	-0.01561622	-0.05592996	-0.014163017	0.093291536	0.095869996	-0.021572528	0.094407514	-0.03372675	
0.074453965	0.048744954	-0.039587215	-0.06636419	-0.04437674	0.04398731	-0.07940034	0.016993618	-0.011869016	0.08088461	
0.021151887	0.006235727	0.020703197	-0.07721248	-0.019861994	0.03618182	-0.0612809	-0.0049594794	0.008622789	0.0024361624	
-0.04668392	-0.002828862	-0.009457392	-0.03630465	-0.016832879	0.048376117	-0.080544844	-0.022295738	-0.08412358	0.087953836	
0.013654084	0.07521177	0.07016431	0.046741378	0.05259501	-0.01848978	-0.06641706	-0.009989014	-0.0092580635	0.021418514	
-0.031111436	-0.010524754	0.048666768	0.038566545	0.022611314	-0.040350545	-0.07689288	-0.016696725	-0.0292643	0.010113689	
0.04829832	-0.024619069	-0.0751708	0.023552347	-0.019542757	-0.029683605	0.07928569	-0.008426999	-0.04631767	0.08349136	
0.057229985	-0.055044778	-0.020296913	0.05908478	0.01022038	-0.05529827	0.045432776	0.09364377	0.024494534	0.030998219	
-0.0070928293	0.036403533	-0.049215864	-0.06072765	0.06634769	0.07892018	0.05816065	-0.0015185759	0.07982717	-0.0654733	
-0.046249535	0.08086425	0.08666986	0.046922978	-0.045595907	0.019788425	-0.00047905382	0.0839285	0.015799578	0.016479675	
-0.050594274	-0.047579408	-0.05107521	-0.022155846	-0.003632088	0.065677136	0.040763192	-0.0046560587	-0.044970047	-0.07465167	
0.015291422	-0.01822401	0.06812395	-0.034118503	0.049468912	0.019207377	0.090951405	0.008045524	0.0380891	-0.026940634	
0.049637537	-0.10626251	-0.03196203	0.06734482	-0.050799344	-0.034461737	0.02053312	0.0043566376	-0.054604918	-0.08020638	
0.016649202	-0.04227326	-0.05587967	-0.032222316	0.10721476	-0.06356933	0.05911094	-0.024607377	-0.01731204	-0.04276022	
0.0007644005	0.009342187	-0.10506403	-0.031439483	0.037382573	-0.014261775	-0.01657157	0.041726276	0.06935089	0.08253119	
-0.11342445	0.0596206	0.07671483	0.051219415	-0.030349951	0.00070078985	0.064577654	0.07397242	0.011817898	-0.049826253	
0.0746434	-0.03763739	0.039055243	-0.029616827	0.07691297	-0.030902497	0.03830836	-0.036569767	0.0060164505	-0.07913768	
-0.034381364	0.00942809	-0.020091463	-0.08820896	-0.0068827146	-0.065395765	0.03599185	-0.051590413	-0.08456062	-0.04663548	
-0.0068518315	-0.06926978	-0.012600785	0.05103044	0.03897246	0.072891064	0.015712367	0.025434924	-0.023747876	0.052568756	
0.101059586	-0.062135532	-0.040202357	-0.014650982	0.031685054	-0.008706105	0.09559498	0.03141563	0.0033269199	0.040424526	
0.0072146403	0.059978712	-0.02921714	0.022564594	0.045583174	-0.064444676	-0.010195813	-0.04827852	-0.0022368152	-0.024011938	
0.04503272	0.016417878	0.0071664285	-0.021116978	0.033732295	-0.06379594	0.07906964	-0.05460767	0.015850643	0.03951581	
0.055774733	-0.0860733	0.018731384	-0.04712072	-0.009477347	-0.049510412	-0.08179974	-0.023587054	-0.0813269	0.05213912	
0.03833005	-0.09687729	0.07675273	0.029948585	0.017844224	0.05148851	0.09743169	-0.036749985	0.0563087	0.059776172	
0.045300856	-0.053916518	0.042065267	-0.0772126	0.025795445	-0.010415648	-0.018850187	0.003770753	0.09177387	-0.0039624246	
-0.014815947	-0.019381134	0.09072576	0.021777604	0.062443893	0.056522537	0.059247423	0.063278094	-0.024681235	0.04363139	
-0.002390395	-0.05679432	-0.05843862	-0.010542996	-0.023079246	0.023344321	-0.050887793	-0.0027485709	0.007987518	-0.029980196	
0.04030476	-0.06501869	-0.10449411	0.08348353	-0.004129061	-0.034982182	-0.0059894263	0.02579604	0.050940894	-0.0041658683	
-0.09779416	-0.06233062	-0.028087543	-0.0059213615	0.081123084	0.05091007	0.04220674	-0.032040946	-0.059531163	-0.053805027	
-0.018735787	0.07274395	-0.0073855636	0.07883695	0.021888368	0.028993651	0.0681718	-0.004207909	-0.02560293	-0.06671861	
-0.02305277	-0.010689063	0.050221283	-0.025120832	-0.015506097	0.023749363	-0.0849646	-0.021924887	0.005476601	-0.0030031875	
-0.006159317	-0.05833811	-0.0046370393	0.009185559	-0.030825501	0.059427496	0.07495777	-0.07705978	0.05094176	0.033702135	
-0.015984965	0.0703805	-0.037959795	0.019054987	0.07638876	0.042854726	0.04113603	-0.03912521	0.04550965	-0.110344626	
-0.04106149	-0.06449954	0.07176002	0.021005573	0.03343537	0.08335307	-0.03885798	-0.012520715	-0.04273723	-0.10633572	
-0.024535492	0.014252776	-0.009209632	-0.052089706	-0.05805535	-0.074511334	0.03449955	-0.032535825	0.03836473	-0.0061908592	
-0.04174577	0.018575083	0.035513323	0.0399442	-0.083341286	0.0077397637	0.048340432	0.009204211	0.045270763	0.037649624	
0.08001925	0.045388725	0.009396367	-0.08732735	0.026991537	-0.039454598	-0.05756285	0.01598102	0.007506105	-0.060679223	
-0.036265094	0.07096641	0.023590108	-0.0032587838	0.030573461	-0.035670765	0.012760371	-0.040201627	-0.041290347	-0.1027691	
-0.041553695	0.036069605	0.1265153	-0.01010432	0.07149428	-0.04251298	0.07447984	-0.047639262	0.06747312	0.025741197	
-0.01932323	0.021768503	0.09512225	0.0811666	-0.06302782	-0.013113329	-0.045471475	-0.09723186	-0.113428175	-0.046391264	
0.010074432	-0.06541175	0.05137258	-0.07851727	0.029016519	-0.059721295	0.067521036	0.011120863	0.0038035058	-0.0005611705	
-0.079746805	-0.08662142	0.0474811	0.04178898	0.06459895	0.027113242	0.14444709	0.021133441	0.03813941	-0.020175178	
0.086900584	0.09534656	0.006110776	-0.034502413	-0.06280685	0.017850848	0.028495656	-0.06748995	0.011560568	-0.06649199	
-0.05293899	0.043378547	-0.021815147	0.08033454	0.03141375	0.0017483779	-0.03908101	0.08276986	0.03954731	0.00014117153	
-0.054816797	-0.030799089	-0.014219641	-0.014332149	0.05162974	-0.013326746	0.117719546	0.07945719	0.040873345	0.00045646122	
-0.016708953	0.009081568	-0.07272874	-0.010088638	0.05468967	0.005078131	-0.015580612	-0.012631535	-0.02018896	-0.021688167	
-0.04022996	-0.0621786	-0.028774427	-0.08793856	-0.06414639	-0.0006553661	0.0074226446	-0.021771729	-0.06622097	-0.011210341	
-0.08162355	0.028732084	0.06071123	-0.0503085	0.015649898	0.09030042	-0.012803102	-0.050298084	0.03741831	0.048420414	
0.09574579	-0.05164437	-0.038344756	0.10152007	0.012004543	-0.028126046	0.07028939	-0.02370678	-0.11452699	-0.031316	
0.08160002	0.013439201	-0.012130177	-0.046343025	-0.0113775	-0.01810204	0.042439733	0.056044057	-0.09793013	0.040465433	
0.07548516	0.061397064	-0.022152025	-0.08464499	-0.067750454	-0.06816792	0.0054510725	0.072316445	0.021858133	0.023501547	
-0.056853585	0.10511461	0.05509984	-0.035757124	-0.05054394	0.09358121	-0.035216864	-0.030627474	0.007896177	-0.01573737	
-0.03923076	-0.047538735	0.022531446	-0.023684375	-0.03028954	-0.09031098	-0.012740453	0.03783764	-0.059201766	-0.00015210072	
0.09613397	0.02065585	0.023994764	0.0032347937	0.095310666	-0.051663898	0.037443053	0.0953206	-0.070565104	0.112890884	
-0.08979971	-0.05054365	0.0026272521	-0.04471314	-0.049740966	0.073051766	-0.05553241	-0.0415947	0.010002076	-0.08691061	
-0.08180695	0.017687375	-0.07722191	-0.026068414	-0.016462393	0.016701704	0.033124812	0.0880624	-0.07020207	-0.06946516	
-0.0568913	0.06876936	-0.07069489	-0.023647847	0.021873495	-0.018207973	-0.10295782	-0.08648952	-0.06181307	-0.011538429	
-0.061952565	0.015683405	0.013115628	0.04605006	0.05484999	-0.025579859	-0.04325008	0.037955355	-0.06531208	-0.0069598933	
-0.0612914	0.029164227	0.06273704	0.10376968	0.03593301	0.03552037	0.010201538	0.023376584	-0.0670565	-0.026202455	
0.011616202	-0.09307383	0.022709388	0.057411503	0.10459169	-0.07112433	-0.070370264	0.013234039	0.0071689514	-0.020232124	
-0.10802592	0.07136568	-0.039129104	-0.02195517	-0.02486357	-0.07948307	-0.021482488	0.08953374	-0.10673843	-0.047675066	
0.09374556	-0.0118121905	0.100827195	0.098056905	0.015943198	0.0018477486	0.07505872	-0.07777556	0.010725832	-0.04327944	
-0.018085215	0.010612457	0.0075809895	0.0446292	-0.034802802	-0.11310183	-0.06508566	0.015925664	0.065402895	0.026869597	
-0.01409972	-0.03824869	0.10815823	0.027932882	-0.048429396	-0.014941236	-0.015104636	-0.10321144	-0.054721385	-0.013795301	
0.066764675	-0.10048156	0.011220223	-0.037652314	0.07483793	-0.024846386	-0.00039674828	-0.046776444	0.006387705	0.08132005	
-0.01852384	-0.037578493	-0.0345951	0.068108395	0.04691821	-0.08865401	-0.06570612	-0.06768472	0.021614328	0.012167542	
-0.0049344553	0.097567536	0.05003661	0.038376525	-0.04833352	0.047397617	0.0077130296	-0.008160159	-0.116543025	-0.02727309	
-0.10702787	0.102700666	0.06170888	-0.018132918	-0.058703378	0.01636857	-0.05198172	-0.10857708	-0.026705796	-0.0074804653	
0.055574812	-0.016533144	0.08463683	0.12502962	0.048771195	0.006147191	0.002297548	-0.0027922273	-0.0032218038	-0.113140926	
0.019409945	0.03768717	0.036623262	0.023638219	-0.09755563	-0.037995704	0.08766223	-0.035666935	-0.057661433	-0.0062252055	
0.058631547	0.007011292	-0.009844795	-0.05532478	0.012568317	0.052536402	0.0020524252	-0.08930264	0.011191339	-0.037795093	
0.047290012	0.06318173	0.07077726	0.02920223	0.04704881	-0.03964252	0.07365153	0.0069762985	-0.058071747	-0.033020187	
6.143323e-05	0.06934023	-0.06408189	-0.011887586	-0.057387136	0.08652356	0.11058746	-0.11377034	-0.017811662	0.033928216	
-0.023547126	0.06383599	0.058858458	0.026541403	0.03604395	0.002090871	0.03303065	-0.07222234	-0.08560363	-0.07573539	
0.07108034	0.009577201	-0.08998965	-0.104781754	0.023955865	-0.0520529	0.02653667	0.03242228	0.031131174	-0.043804005	
0.05234053	0.0328967	0.01569455	-0.0027404963	0.05215449	-0.040312525	-0.0057882424	-0.063251324	-0.003052385	0.04948225	
0.051502466	-0.00072715257	0.009357006	0.0524656	-0.019427197	0.06010403	0.06396111	-0.07154671	0.0064990562	-0.03973762	
0.08292342	-0.054200657	-0.011323992	-0.07482571	0.036211267	0.0655953	-0.004759758	-0.06324421	-0.0051831547	-0.02959645	
0.027453214	-0.008192992	-0.075396545	0.03594355	-0.019349087	0.051355805	-0.03285224	-0.041151132	-0.047505427	0.032319	
0.009842382	-0.032261554	-0.034836862	0.06345798	-0.022487283	0.0071776477	0.019910293	-0.020952927	0.109089896	0.034954444	
-0.0008392672	-0.026528379	-0.030566663	0.035923332	0.013576848	-0.030163899	-0.006321273	0.111277066	0.064423695	0.008240518	
-0.019817105	-0.039269295	-0.031597894	-0.056735415	-0.06307633	-0.0037740013	0.029952234	-0.04095022	0.048030134	0.03153959	
0.017680576	0.041127197	0.04492253	0.07681375	0.006347842	0.028785782	0.09110215	-0.087917104	-0.07453883	0.009080269	
0.03994924	0.007054069	0.03352276	0.08332033	0.029400127	-0.048932888	0.055214766	-0.041987848	-0.10313625	0.042330444	
-0.02030821	0.014163647	-0.054088295	-0.033959437	0.059403557	0.0028870897	-0.104850344	0.056239683	0.024160564	-0.064226955	
0.0806772	-0.048263658	0.055232834	-0.029422997	0.04775545	0.041728586	0.016588222	0.002416279	-0.015111634	-0.065251976	
-0.026434693	-0.01858506	0.04151809	0.031624682	0.05981625	0.04059526	0.0039921794	-0.031134624	0.03510167	0.007551647	
0.04820329	-0.007278544	0.010091071	-0.02718077	-0.022194749	0.03802382	-0.01991954	0.055680778	0.056050595	-0.037647534	
0.05545894	-0.007911016	0.05798763	-0.04852442	0.07562428	-0.005000339	-0.015428318	0.025957394	0.048585564	0.094887525	
-0.064245455	-0.048932005	-0.063855514	0.017390164	-0.05528145	0.011127563	-0.0064579234	-0.03972948	-0.025563046	0.061272312	
-0.0037309537	0.058876727	-0.0080508515	0.03853907	-0.01198407	-0.029372962	-0.0061080055	0.038132723	0.004108548	-0.060363624	
-0.0728722	-0.039596204	0.01431499	0.014440337	-0.05084548	-0.049646307	0.026686639	0.048068892	-0.035107166	0.0068373955	
0.07999277	-0.022588111	0.074611254	0.044140153	-0.018592626	0.033534676	-0.0007991928	-0.012932508	-0.0649445	0.09217605	
-0.03917587	-0.021638438	0.14391701	0.10390009	-0.0776617	0.01286445	-0.061825383	-0.05766901	-0.084652826	0.08819431	
-0.025017228	-0.023074813	0.10264409	0.011111395	-0.07449378	-0.048492875	-0.032920424	-0.09283587	-0.00025596275	-0.0473376	
0.028396439	-0.085267715	0.028849455	-0.00786897	-0.08193011	0.05024744	0.0002873081	-0.06963823	0.054282032	-0.0956879	
0.096169576	0.021275386	0.07592659	-0.010245982	-0.103171304	-0.075493395	-0.0023157212	-0.067468494	0.008397829	-0.066137776	
0.0427339	-0.033686355	0.14130628	0.060339082	-0.0314101	-0.08980788	0.061094735	0.035267964	0.0381834	-0.13689983	
0.027056566	-0.014902584	0.08345382	-0.039310776	-0.028781803	0.0087039545	-0.07105587	-0.08928744	0.024440888	-0.08445388	
0.0017612469	0.006219215	0.0739308	0.06346031	-0.11148547	-0.04224188	-0.039499607	-0.122723326	0.090781145	-0.0634112	
0.08986762	0.045478147	0.02043861	0.0027511732	0.0076904837	0.033941023	0.042606164	-0.04816013	-0.034410212	-0.025050895	
-0.06889169	0.06605186	0.07055319	0.05461296	0.045532394	-0.1093441	-0.0347942	-0.09006804	-0.006767935	-0.06302984	
0.06632051	0.05767119	-0.020863988	0.03169458	0.0018549659	0.07297202	0.0027648355	-0.047527626	-0.036883526	-0.033433743	
-0.09795863	-0.0313949	-0.052882403	0.04175061	0.033777125	-0.01618379	-0.053352408	-0.003942127	-0.014672254	0.025906788	
0.039616693	0.026439525	-0.095470786	-0.012000233	-0.018945534	0.03818668	-0.0026013136	-0.05270255	0.001616595	0.0072343824	
0.043232918	0.028123703	0.0800579	-0.040310435	0.072876945	0.032300573	0.008229285	-0.043496553	0.08081082	0.077072255	
-0.033879317	0.0058229663	-0.031910222	-0.028050626	-0.072707355	-0.022074176	-0.08655564	-0.061937984	0.018759856	-0.010073504	
-0.0050033475	0.028213318	-0.059252053	0.0041144216	-0.014176252	-0.07842504	0.0011204192	0.031804897	-0.027124492	0.023653151	
-0.034326464	-0.015681904	-0.041196838	-0.04485651	0.04145455	-0.06272921	-0.033989623	-0.065588355	0.011323451	-0.026356222	
0.026017964	0.046130013	-0.0013873966	-0.077906355	-0.033976067	0.068155944	-0.02367005	-0.04080837	0.04131944	0.010960312	
-0.017875716	-0.050921973	0.05559905	-0.048745617	0.04855172	-0.047417585	-0.0034655258	-0.044865683	-0.04466821	-0.09419477	
0.03439482	0.009571241	0.032144982	0.100630865	0.0109001575	-0.022520954	0.03099819	-0.05287989	0.076425456	0.03455042	
-0.015449986	-0.00950111	0.03927066	0.015354349	-0.028966958	0.08393645	-0.011435277	0.07922032	-0.109327994	0.018472457	
-0.01416542	0.0076310425	0.012936972	0.0964565	0.06225294	0.054763537	-0.017278858	0.0200759	-0.06100615	0.0061364626	
-0.028750237	0.01591876	-0.07826806	0.05703996	-0.065186456	-0.057722222	-0.0029479007	0.022119641	-0.03201009	-0.035691906	
-0.10252293	-0.06406933	-0.029839927	-0.04564625	-0.009372819	0.016176151	-0.05312791	0.040963903	-0.025026483	-0.011374716	
-0.0592335	-0.026236761	-0.050368834	-0.03146641	0.018819105	0.056697194	0.009112665	0.049874336	0.07329726	-0.0014288969	
-0.033734795	-0.091593675	0.039232295	0.029024672	0.06605623	-0.06544546	0.033992317	-0.023331672	-0.02685069	0.055253588	
-0.004607338	-0.096864834	-0.08131612	-0.022142213	0.021735435	-0.09835271	-0.029468149	-0.08294227	0.0039194175	0.044874284	
-0.031103723	0.01847021	-0.08153686	0.07471696	0.10018257	-0.06383168	0.028555779	-0.022200158	0.018944468	0.0134673985	
-0.05570679	-0.058682006	0.07643632	0.01050046	-0.00492649	0.08602929	-0.00738949	-0.009937395	0.031842314	-0.05311972	
0.08219056	-0.00738648	0.0031510638	-0.0012886116	-0.026238203	-0.026520226	0.0951873	-0.062295046	0.054258253	-0.007970136	
-0.011017142	0.066015065	0.049631912	0.14525005	-0.046317793	0.0018225361	-0.016288536	0.0012908203	0.09153246	-0.03678355	
-0.007744637	0.004732161	0.097473435	0.008557171	-0.052652072	0.067485854	-0.07909667	-0.06445319	-0.015156111	-0.067079976	
-0.0026077535	0.0066998447	0.08102373	0.16597609	-0.00722434	0.03067148	0.0005148249	-0.085707076	0.0049536563	0.07618555	
0.012623545	0.009188276	-0.03398572	0.15710051	-0.08015138	-0.035281528	-0.008009527	-0.060732864	-0.027568053	-0.065391496	
0.013233515	0.023090385	0.028055256	0.10917415	-0.057475943	-0.01156973	0.0010116474	-0.095044635	0.0661034	0.06814249	
0.03691301	-0.032675978	-0.05100765	0.02670324	-0.08439582	0.055497568	0.032242283	-0.15222117	0.036260862	0.004059914	
0.019641155	0.049399175	-0.056488592	-0.076706715	-0.0075105145	-0.059710547	-0.04756464	-0.03962854	0.049562838	0.028253283	
-0.06579826	0.036510456	-0.06821212	-0.0068891705	0.010880936	-0.012078006	-0.073463865	-0.01404187	0.12224796	-0.059501998	
0.059380945	0.024137212	-0.09852642	-0.017609501	-0.04644164	0.0011899049	-0.003404242	-0.04602775	0.097429626	-0.0046811444	
-0.0191101	-0.025358325	0.07920006	-0.040215638	-0.07181498	0.030523676	-0.0346933	0.042556204	-0.03222813	0.024508841	
0.089564696	-0.00667563	-0.03594546	-0.103200905	-0.06100466	0.061799455	-0.04978928	-0.07646346	-0.027517192	0.026962752	
-0.031336214	-0.038558647	0.0092248265	-0.0036521298	0.1192985	0.08451987	0.010473882	0.019570814	-0.014184201	-0.016341882	
0.05566651	0.0012084693	0.0034795117	-0.007742711	-0.01412049	0.035366397	0.01141142	-0.03334296	0.030224603	0.030785058	
-0.085337795	-0.06277189	-0.003743388	0.092619695	-0.061383616	0.011728397	0.08812729	-0.1151687	-0.060466997	0.006234459	
-0.05597809	0.03686929	0.05767602	0.0023035049	-0.043655273	0.040998068	0.012361778	0.0728266	-0.040325485	0.07639893	
0.05587745	0.021440335	-0.08539546	-0.046986204	0.113706626	0.02715694	0.034123424	0.01622805	0.08983446	-0.014328975	
-0.06479692	-0.026765667	-0.05590289	-0.065712504	-0.1052824	0.058088697	-0.010085716	0.05039834	-0.030272985	0.026690327	
0.023803262	0.002231254	0.060695056	0.05681637	-0.04648957	0.034481827	0.011313118	0.025958695	0.061191723	0.023052793	
-0.0048668873	-0.089645825	0.035875913	-0.08357111	0.001171188	-0.010194277	0.035916753	-0.043936446	0.01792988	-0.08154131	
0.015957167	0.023661183	-0.10798596	0.035038766	0.058354177	-0.014085338	0.0913929	-0.05172953	0.044121437	0.06918146	
0.061353687	0.053858664	0.0068321866	0.08846657	-0.033536263	0.02316188	-0.06772323	-0.033508547	0.06932209	0.0270584	
0.008742726	0.07471594	-0.046404816	0.06477726	-0.07306938	0.00444748	-0.05725215	-0.058875024	-0.031704918	0.025304561	
-0.00720843	0.049286645	-0.058880437	0.12451472	-0.08790674	-0.039698865	-0.04347686	0.030874873	0.07111751	-0.041467927	
-0.0592698	0.0102439765	0.039477866	0.08344981	0.029914878	0.011375224	0.05680754	-0.042013954	-0.0072320458	-0.014336483	
0.07508085	0.0037399675	0.024046112	0.056923147	0.03946273	0.07874626	0.08539005	0.085158244	-0.0176135	-0.032181542	
0.04968198	-0.10770431	0.09675405	0.07699109	-0.02817748	-0.09278573	-0.015956279	0.10907477	-0.049403254	-0.07664594	
-0.01775276	-0.022107666	0.0003883363	0.02161195	-0.031605694	-0.06881844	0.019008607	0.017026866	-0.052556746	-0.034584686	
0.022445232	-0.066967584	-0.047269262	0.07599395	-0.06353933	0.0050760093	0.017171277	-0.026189573	0.0819107	-0.014059273	
0.03436689	-0.061236553	0.004740577	-0.048398804	-0.012023229	0.0591117	-0.06844986	0.11476443	-0.020916259	0.011129436	
0.026302809	-0.10159741	0.070795596	0.008863978	-0.12931006	0.06033528	-0.0133573385	0.07951022	0.05928335	0.04653603	
-0.057559427	0.080674805	-0.011854688	-0.031764075	-0.099633254	-0.055509754	0.022395536	0.0132758	-0.046074387	-0.060249187	
0.0029849662	-0.008652724	-0.05280224	-0.016905684	-0.041169118	0.010062965	0.02519444	-0.057590745	-0.030028498	-0.04661311	
0.008826503	0.10209065	-0.03436747	-0.084853515	-0.11146143	0.0029535634	0.03591501	0.019865315	0.042745866	-0.0073841102	
0.0782346	0.058478173	0.09560738	0.05674609	0.026652232	0.089335315	-0.0132402945	0.054778937	-0.008032904	0.04778574	
0.023722451	0.04384323	0.019743249	0.072129466	0.0068626697	-0.08215754	-0.0054576853	-0.07429779	0.03577564	0.0076736994	
0.046732023	-0.038842067	0.06317803	-0.04062665	0.044209853	0.08650885	-0.111786634	-0.025566014	-0.028714452	0.09369517	
0.04553922	-0.044043038	0.014958473	0.02255368	0.03753565	0.087469205	-0.07320459	-0.009802245	0.008961733	0.018234856	
0.058787417	-0.05126725	0.05816341	-0.012530973	0.006201894	-0.058771703	-0.0945074	0.047446925	0.04072507	0.001393903	
0.07223974	0.058931757	-0.0102717355	0.034035508	0.08048848	0.1248966	-0.046669748	0.03839595	0.052279457	0.008152566	
-0.00913285	-0.031272653	-0.041133538	0.0039069783	-0.022301791	-0.025687966	-0.0077094603	0.0210473	0.056242075	-0.045219403	
0.019437877	0.027325014	-0.043917347	-0.045430623	0.10904106	0.0021861065	-0.084645875	0.0505717	0.04940396	-0.04016825	
0.0031764286	-0.07409683	0.025621943	0.004184247	0.10684099	0.08160791	0.015397828	-0.04939626	0.08030241	0.03731451	
0.06740375	0.0603429	0.0380944	0.00069075753	-0.1031915	0.059216607	0.029940035	-0.06336837	0.017731024	0.025761759	
-0.060678806	-0.037444316	0.04377992	-0.035491187	-0.109428465	0.008227193	-0.07133079	-0.047852717	-0.065105505	-0.046907376	
0.05988695	-0.036086336	0.04563917	0.09900928	0.04972753	-0.036522694	-0.006221689	0.07056481	0.11057919	-0.022920614	
-0.051720083	-0.00794995	-0.045336973	-0.0076327077	-0.06283899	0.024785392	-0.018349797	-0.039305307	0.008045505	0.08686582	
-0.06897141	0.040022098	-0.053274382	0.0068298015	-0.09082075	-0.024800358	0.032560363	-0.034918047	0.044504773	0.05016812	
0.0118533885	-0.08541109	0.07465637	-0.010314455	0.032430515	-0.057817407	0.00045972614	-0.086680256	-0.080521375	-0.043275293	
-0.102316104	0.06352785	0.020339157	0.0074851634	0.052904755	0.014412239	-0.038923487	0.044530433	0.11133877	-0.04243422	
-0.044269938	0.014886398	0.0821463	0.023965945	0.05114857	-0.041994207	0.08443377	-0.001852778	0.0020077452	-0.09268951	
-0.08568758	-0.06308696	0.06479467	-0.020277927	-0.077282876	-0.032550935	0.016499883	0.02813934	0.06663386	0.018078052	
0.082404844	0.028311085	0.028808424	-0.0073115467	-0.031425685	-0.04747785	0.039647244	0.11913967	-0.011174214	0.05544776	
0.037524622	-0.04930497	-0.018636957	0.088284105	0.06558058	0.04184128	0.01595601	0.10352054	-0.025371449	0.008711012	
-0.09144356	-0.040823285	-0.0593766	-0.03500654	0.032260347	0.05088352	-0.033930216	-0.005621198	-0.030015485	-0.026192568	
0.019200455	-0.065187	0.029474411	-0.050242823	-0.017591	-0.11406337	0.025308944	-0.009878493	0.07369747	-0.00056372496	
0.0077918926	0.008005017	0.04894261	0.03797566	0.03381719	0.02527182	-0.033878464	0.041135937	-0.07527433	-0.042134732	
0.037177585	-0.046902183	0.04642927	0.0014422471	0.030414054	-0.061271522	0.0342631	0.06591614	-0.045993216	0.107799344	
0.104253255	-0.14094919	0.0023886818	-0.033977184	-0.01776773	0.02606242	-0.0777231	0.10396805	-0.045577534	0.01732075	
0.0018840109	-0.12101247	-0.07131479	0.018141586	-0.14974156	0.03253877	0.06967518	0.08209131	-0.03271817	0.17067753	
0.053114526	0.06256103	-0.08591968	-0.020708939	-0.020183753	-0.021565426	0.06266817	0.06669157	0.084399484	-0.013017741	
0.03215228	-0.0038011998	-0.033060078	-0.04008775	-0.12331462	0.038600866	-0.044011932	0.06974555	-0.06827972	0.031291544	
0.017464565	-0.0053058323	-0.023095751	0.044364516	-0.03937559	-0.057343516	-0.12504657	0.091267705	0.02722023	-0.0572651	
-0.033619195	0.014953026	0.07811387	0.06331637	0.012712828	0.028251413	-0.056872617	0.030482413	-0.043373983	0.11345685	
-0.01182436	-0.049528483	0.033147965	-0.016380804	-0.022321818	0.009486673	-0.05025111	0.13051401	-0.0013590434	0.012083251	
0.071992815	0.0077087916	0.018739626	0.064290516	0.018771244	0.01333742	-0.07973184	0.03918825	0.025816346	-0.016823014	
0.13542475	0.019412642	-0.025332224	0.0062243845	-0.0056225103	-0.02060601	-0.054638453	0.027886244	-0.003116512	-0.027732665	
-0.0029029588	0.010997159	0.035142217	0.057628743	-0.0033878724	0.056652945	-0.09143806	-0.10200331	-0.08258988	-0.07279947	
-0.033359826	-0.04095025	0.04252277	0.014600118	0.08691736	-0.039282657	0.030008087	-0.032267585	0.005730463	-0.03207706	
-0.0026811492	0.087536044	-0.039266795	-0.040907327	-0.049989775	0.006711147	0.028435044	0.045855295	0.061216153	0.03825464	
-0.04217468	0.0057130307	-0.10637915	-0.06999383	0.013089341	0.085374884	-0.02088947	0.0032293305	-0.024799211	-0.08680294	
0.071122475	0.017534932	-0.034442104	-0.07331592	0.03581743	0.0818611	-0.08283952	0.06440365	0.049087487	-0.033320747	
0.07855444	0.036361244	-0.029447688	-0.02319203	0.025847236	0.00074856676	0.0096185235	-0.0466371	0.050634902	0.0061085806	
-0.08548196	0.044192795	0.014680434	-0.102150396	0.030187368	0.023542013	0.034673136	0.032904882	-0.016867805	0.062073536	
0.022972096	0.06188478	-0.03817521	-0.06550287	-0.07035878	-0.044736434	0.063236855	-0.1001496	0.013268727	-0.040742587	
-0.0211526	0.0743134	0.03712604	-0.035258114	0.043857343	-0.0018537181	0.0073887794	-0.042276848	-0.013626299	0.02590911	
0.022132495	-0.018615585	-0.021262951	0.025879879	-0.07055387	-0.034254514	0.035411287	0.059660893	-0.00095329125	-0.010487007	
-0.10034493	0.06666221	-0.061256442	-0.0092188325	-0.080104284	0.089098945	-0.030956853	0.02914194	-0.04629825	0.043549083	
-0.018508997	0.014633751	-0.03188281	0.0053361133	-0.041092895	-0.044806737	0.002705692	0.078593336	0.057590164	-0.02141493	
-0.0043894923	-0.039405394	0.0051696054	0.07251009	-0.08497112	-0.017767265	0.06477578	0.06501886	0.008223553	-0.045909777	
-0.017118381	-0.048171587	-0.095679685	-0.042080607	-0.010754871	-0.045435987	-0.025693161	0.022664372	0.09800278	-0.025225345	
-0.03322839	0.05408977	0.04988232	-0.060958754	0.033325937	-0.0046436246	-0.04969858	0.08016402	0.023853531	-0.017405745	
0.04728415	0.014584296	0.028868048	0.056796517	0.00014558902	0.058108855	-0.03307329	0.05513844	0.022745535	-0.008124477	
0.07232001	0.015316294	-0.009733877	-0.05055601	-0.071854144	0.0042308513	0.0002485835	0.08996455	0.014374709	-0.01534594	
-0.044077408	-0.043336138	0.015735963	-0.12937164	-0.077700175	0.107668236	0.049162302	0.06659527	0.084026285	-0.0021838408	
-0.03356121	-0.1088704	-0.085474394	-0.025558392	0.013999827	0.023988348	-0.043257102	0.061258625	-0.037397075	-0.008139986	
0.10579389	0.030732885	-0.014208214	-0.07869911	0.050375428	0.124293	-0.056237128	0.059653126	0.09047066	0.043027364	
-0.03122075	0.06237669	-0.0497762	-0.050631963	-0.102324516	0.033648137	0.039081663	0.047950756	-0.023966743	0.11104584	
0.06041263	0.03564692	-0.05674808	-0.04175654	-0.1268965	0.06123781	0.07740256	0.14272752	-0.0046778065	-0.022890229	
0.10682045	0.05742991	0.023406675	-0.06247226	-0.13529684	-0.025202116	-0.040004805	0.17030722	-0.029685866	0.034483716	
0.040735807	0.083260894	-0.026648205	0.07734662	-0.05498498	-0.00716775	-0.10444759	0.12794769	-0.13139865	-0.00631667	
0.05385097	-0.022868602	-0.05421292	-0.028170846	-0.003822433	-0.06606937	-0.026743531	0.13195984	0.024189139	0.11308845	
0.07970831	-0.029797884	0.08275097	-0.03536899	-0.013819557	-0.0130635	-0.17986345	0.052921236	-0.053545658	-0.055602286	
-0.023991343	-0.08688839	-0.06409951	0.031580366	-0.028569981	0.08828928	0.010933878	0.09590463	0.04004709	-0.0135483295	
-0.005845543	0.049712025	-0.081074946	-0.058227036	-0.060739797	-0.027064377	-0.02253511	0.03569009	0.07559064	-0.019817023	
-0.002488175	-0.07706013	-0.036311734	-0.07921949	0.06260386	-0.035538774	0.0010025133	-0.008854184	0.009235463	0.032310195	
-0.025838425	-0.094124235	-0.02006051	-0.015565413	0.07151666	0.027747238	-0.038807243	0.027547302	-0.005115268	0.067542866	
0.016070785	0.03564753	-0.0056135585	-0.091369525	0.025506826	0.012759284	-0.049259212	0.019405466	0.02552243	-0.069494694	
0.04653681	0.023590831	-0.022546694	-0.041975215	-0.020991003	0.057604395	-0.02565163	-0.097152635	-0.013262402	-0.04526531	
0.0061186906	0.074127935	0.008799047	-0.016472438	-0.034099016	-0.018781517	0.010335955	-0.041914605	0.065904856	-0.017772198	
0.027350895	-0.033637162	0.031415585	-0.0029619061	-0.011697513	-0.03781458	-0.013513987	-0.07457518	0.045040086	0.0726545	
0.013949659	0.0033828856	-0.05685264	-0.032070294	-0.021320842	0.08477891	0.023092607	-0.014372086	-0.062816575	-0.063776486	
-0.00087109307	0.007395365	0.08967051	0.026593778	-0.022988617	0.056478947	0.060442265	0.004172273	-0.025145821	-0.046682358	
-0.0612499	-0.008585865	-0.016002893	-0.062994905	0.056148477	-0.066636376	-0.00093604275	0.027851617	0.040352337	0.011415576	
-0.012279146	-0.096983746	-0.015449838	-0.07227355	0.015599859	0.113183916	0.019010566	-0.03579189	0.0037037204	-0.03664216	
-0.11147027	0.01356424	0.029049074	-0.048850156	-0.00033073293	-0.0051761065	-0.057712488	0.07876904	-0.026701227	0.05945063	
-0.014598533	-0.017514924	0.06897455	0.050478235	0.07257899	-0.06008162	-0.068078354	0.027441837	-0.040582452	-0.014003133	
-0.09081015	0.04875483	0.0180523	-0.01938195	0.0033123426	0.058641806	0.055458706	0.06395726	0.1066248	0.013453573	
-0.007362394	8.658652e-05	-0.0035528066	0.005684598	0.080464974	-0.051045537	-0.005646367	-0.013196174	-0.013190082	0.014286421	
0.04298328	-0.053569317	-0.016678758	-0.036253493	0.04960712	0.027800765	0.045912623	-0.006260372	0.013810284	0.08688797	
0.019981131	0.03418123	-0.025831584	-0.03339199	-0.01801385	0.0060487217	-0.03827789	-0.05005994	0.022312572	0.09514647	
0.05094698	0.020599866	0.041810263	-0.06454879	0.0047566155	0.07731438	0.034180444	0.050158575	-0.037043106	0.033997864	
0.006248568	0.0038526203	0.028716557	-0.14438178	0.06430877	0.06918595	-0.083156794	0.03542184	0.018861815	0.05380444	
0.13010786	-0.06557208	-0.13704537	0.007006786	-0.05694401	-0.04541861	0.07777607	-0.019297512	0.109528765	0.020836834	
0.051281415	-0.04597507	-0.10750279	-0.02021542	0.052500825	0.07841	0.08367356	0.032764718	0.050080523	-0.085858025	
-0.047829606	-0.0013511518	0.04538132	0.072927244	-0.010217843	-0.01618079	0.12761495	-0.026130935	-0.012622534	-0.002997344	
0.013454788	0.04735333	-0.029597545	-0.04164214	-0.0678232	0.013868246	0.07552973	0.034031913	-0.015493618	0.07426066	
0.0036421425	0.078926496	0.008820524	0.028825501	0.010008659	0.023177005	-0.019354098	0.057882816	0.036137372	0.026907822	
0.0067569166	0.060578056	0.05563108	0.06340559	-0.020797616	-0.00722193	-0.044847835	0.05063281	0.029471265	-0.055506766	
0.052804913	0.035940893	-0.0067327227	0.09545942	0.0089905355	-0.106456585	0.01927319	0.029226843	0.012356156	-0.046641722	
-0.032726366	-0.0422872	0.032604367	0.05132912	0.06666106	-0.08691222	-0.015303172	0.045585662	0.038999856	0.0082434025	
0.025684861	0.06722759	0.06817977	0.08097255	-0.06155464	-0.13909784	0.0021495202	0.032075156	0.070002705	0.037839424	
-0.015930068	-0.01638202	0.07573063	-0.10354754	0.016371418	-0.029632116	-0.07987604	0.013956812	-0.01100081	0.042357102	
0.042472526	-0.003711911	-0.014019343	-0.055865616	-0.034597203	0.026568117	-0.016529722	0.04317117	0.097081035	-0.044214014	
-0.007790158	0.00466889	-0.044175535	0.015151561	-0.041768994	-0.021749789	-0.09530213	0.03246808	0.082833216	0.017589534	
0.0844316	0.047818683	-0.07472752	0.010033912	0.043071475	0.059470393	-0.018090948	0.022956677	-0.03640442	-0.042208523	
0.036923926	-0.014727044	-0.092564404	0.034863506	-0.09519524	-0.005135836	0.009008922	0.042522963	0.08381078	0.00030689736	
-0.021912422	0.090134926	0.0028201058	-0.06292821	0.028119741	0.04810481	0.043724753	-0.011006107	0.014905596	0.11117012	
-0.019367054	0.0847902	-0.04196327	-0.03873928	0.00260261	-0.02770566	0.017549481	0.09059615	0.085953996	0.010167269	
0.0066852975	0.037448607	-0.0070449384	0.03374669	0.03216183	-0.045701534	-0.06805832	-0.0066317534	0.005136714	-0.11231696	
0.019629506	-0.060481414	-0.05097202	0.027979715	0.07335175	0.05023527	-0.0027951438	0.025202664	0.04813085	-0.07733923	
0.046415996	-0.002834977	0.011168233	0.035873316	0.035844795	-0.043333586	0.04276807	0.04068011	-0.03826506	-0.02624205	
0.0036949988	0.054645207	0.026683135	-0.06723862	0.020274641	0.03827358	-0.05574841	-0.090106465	0.00072171446	-0.04017508	
0.033502378	-0.018843452	0.0032240315	0.0018719955	0.0151945185	0.024712807	-0.023170402	0.009251877	-0.04636337	-0.048980985	
-0.09876985	0.056815654	-0.044186607	0.08304769	0.044270262	-0.021828393	-0.026801893	0.07558852	-0.024219183	-0.0074271415	
0.006711788	-0.07842948	0.004269551	0.074131824	-0.01191316	0.10254618	-0.06306315	-0.0047688754	-0.012044163	-0.03891309	
-0.072979584	-0.017054526	0.013769365	-0.08107645	0.12406283	0.0010176719	0.03143472	-0.027387729	0.05722038	0.026951764	
-0.016802747	-0.033521637	0.04368559	-0.011974516	0.024289377	-0.08810535	0.0061955065	-0.004260342	-0.0963909	0.07551392	
0.07244191	-0.01014981	-0.08560339	-0.112861544	-0.045790344	0.040554892	0.03769715	0.13079768	0.096617915	-0.012662712	
0.027650861	-0.046166763	-0.092453346	-0.09585576	0.094351314	0.10669073	0.11439023	0.010236821	-0.043050226	0.054394383	
0.0069159535	-0.054385394	-0.07995221	-0.051657997	0.05179343	0.011701228	0.022696493	0.010168704	0.065709785	0.098202996	
0.023247812	-0.026088675	-0.034429964	-0.1498196	-0.0025218858	0.06645388	-0.057002995	0.0062795235	-0.049332872	0.1265908	
-0.043588076	-0.04011999	-0.1429777	0.0069008414	-0.015494499	0.01820251	0.005100324	0.008373869	0.04893705	-0.037132543	
-0.025766317	0.028098758	0.026413202	-0.036096774	-0.042242922	-0.024430418	-0.012936073	0.009351822	0.005179615	-0.120673575	
0.004506268	0.1771426	-0.034869824	0.18459317	-0.06811565	-0.078475624	-0.078755155	0.08292271	-0.035715185	-0.05561319	
0.00915953	0.08603018	-0.049149357	0.11433011	-0.054716285	0.040986236	0.023316126	0.019964598	-0.07905102	-0.04391199	
-0.0658853	0.055234585	0.051064022	0.10080289	0.026141938	-0.1428698	-0.027450066	0.082082175	0.05368268	0.010303044	
-0.078258835	-0.057068508	0.09184109	0.11282746	-0.01698822	0.033909373	0.004932899	0.11992212	0.0077293543	-0.06781308	
-0.021722168	-0.02829307	0.090667345	0.08968005	0.103995346	-0.048819616	-0.028991833	0.063102245	0.010743273	0.10287966	
-0.01663481	-0.011219318	0.020625629	-0.039791454	-0.00506627	-0.11066639	-0.029413076	0.045634408	-0.06332544	0.023183873	
0.055686664	-0.07290975	0.04881807	0.029770765	-0.000101044614	-0.07781992	0.01886487	0.052379634	0.03443765	-0.038905777	
0.048399195	-0.020597352	-0.071946345	0.050146252	0.09488706	-0.12130642	-0.12016766	-0.017468896	-0.064383514	0.08826718	
0.042998467	-0.063348725	-0.018822119	-0.0054179183	-0.06735425	0.041054428	-0.091454275	0.03915987	0.026725845	-0.053537045	
0.01205062	0.015349632	0.033435885	-0.04512817	0.0074802134	0.010623482	0.06451369	0.08971038	0.073206015	0.033271924	
0.019454755	0.089325994	-0.02439932	0.06597937	0.07746748	-0.096916854	0.013894118	0.0061921473	-0.06877516	-0.052033883	
0.0042296206	0.0556485	0.044100214	-0.03745622	0.036525145	-0.015795374	0.019009665	0.041314714	0.049974278	-0.04473382	
-0.01610328	0.027708173	0.019374363	-0.066769056	-0.093424745	-0.065927796	-0.07047051	0.0058950386	0.030798541	0.0394108	
-0.035592515	-0.032779947	-0.019840937	-0.0038602096	-0.089535296	-0.012598199	-0.0061020036	-0.049941495	-0.03429988	-0.048230235	
0.022543782	-0.045201913	0.0045130104	0.108744085	-0.015986048	0.041279647	0.07619993	0.06817656	-0.020158028	-0.026109261	
0.0007625487	-0.009568268	-0.056802496	0.052253455	-0.015621187	0.019152733	0.075917125	0.004037117	-0.014607228	0.082114436	
0.09111281	-0.009014172	0.05824141	-0.05767428	-0.044267893	-0.019598722	0.0007884758	-0.08025712	0.07606022	-0.02984612	
-0.06476133	0.07231784	0.04405217	0.02424148	0.0064389375	-0.024234014	0.027253587	0.058313113	-0.01809148	-0.057058368	
-0.069587216	0.050450288	0.109503634	-0.065161005	-0.062491603	-0.10128409	0.06412043	0.05825128	0.030751491	-0.05629329	
0.013354711	0.034585223	0.010913243	0.030992158	-0.080913566	0.027199626	0.057028033	-0.071077734	-0.013738793	0.050448675	
-0.001349551	-0.017345304	-0.008794785	-0.01615386	0.0040639266	-0.011524712	-0.03704287	0.051377818	0.021555167	0.01354498	
0.07730429	0.04204465	-0.1282572	-0.045145705	0.06180849	0.019232245	-0.0679953	-0.071385466	0.02831456	-0.03480968	
0.06897479	0.051381588	-0.090868704	-0.08481409	0.06644957	0.04662342	-0.020158404	0.016598176	-0.029839411	0.10683339	
0.0967484	-0.024827324	-0.0019878487	-0.10240425	-0.017984733	0.062452964	-0.011965097	0.020846697	0.023230493	0.008753109	
-0.006162874	-0.024425395	-0.038731858	-0.08734434	0.08756601	0.067281894	-0.006167969	-0.0791304	0.075606935	0.04893062	
0.08047843	0.034317628	-0.05614162	-0.049240414	0.043586083	0.04628936	0.027935553	-0.006737072	0.051872134	-0.0012571879	
-0.039159738	0.028276484	-0.068376325	0.12508574	0.00906397	0.07946154	-0.06274249	-0.05555127	0.07002277	0.051438123	
0.012461445	0.05404668	0.009045368	0.20059286	-0.031427152	0.09284441	-0.025354473	-0.10336225	0.023186237	0.012232258	
-0.10723018	0.2016585	-6.214917e-05	0.15391545	-0.11049109	0.013492355	-0.030344794	-0.06799128	-0.058174316	-0.08410035	
0.020557335	0.19553664	-0.04127485	0.03199634	-0.020736765	0.015342761	-0.039945178	-0.06403008	-0.036176812	0.036879465	
-0.14811714	0.09630469	-0.13217536	0.038109373	0.051714756	-0.02326809	0.0005544708	-0.0011078789	0.06407984	-0.005812259	
-0.07566893	-0.030672958	0.019671392	0.050409377	0.043972928	-0.02614943	-0.08527743	0.056289386	0.0076611703	-0.012871958	
-0.06699104	-0.1006695	0.012375123	-0.023181709	0.027580317	-0.14174752	-0.022409583	0.06195627	-0.012201894	0.005272086	
0.095505774	-0.047593527	-0.11079597	-0.07353027	0.081283145	-0.07916012	0.026211068	0.02695075	0.008359197	0.03358011	
0.120804995	-0.10378165	0.010754911	-0.0815152	0.019406008	-0.044243187	-0.007814642	-0.0044700736	-0.0106509095	-0.038423486	
0.08905303	-0.05762729	0.015848815	-0.03328258	0.04568534	-0.11988176	-0.033909738	0.015176069	-0.10386006	-0.016646532	
0.055458363	-0.03864493	-0.026947254	-0.07058894	0.024005504	0.09135259	0.019364238	0.038961243	0.027329387	-0.02612635	
0.044613726	0.05076269	-0.0069748354	0.0023569316	-0.012009246	-0.007834402	0.08186468	0.06209248	0.012986778	0.024898916	
0.066435106	-0.055693705	0.040586453	-0.001377955	-0.05975259	0.09388454	0.059283007	0.03565419	-0.096509285	-0.029013	
0.0072809295	0.10352812	0.03417655	-0.019385112	-0.058398798	0.039798737	0.0019507514	0.08834482	-0.039177347	-0.048682667	
-0.04113657	0.049416855	-0.0035392675	0.03461737	0.018852275	-0.022875147	-0.03640949	0.017212154	0.010815829	-0.054068714	
-0.015443436	0.07961206	0.05201589	0.026921457	-0.009288366	0.09376045	0.09848689	-0.098926485	0.0207473	0.033984955	
-0.07160558	0.017092431	-0.0066405497	-0.035305154	0.019021554	-0.050612446	0.019594405	0.09248081	-0.06057774	0.036297724	
-0.053260885	-0.0073225372	0.100158766	0.025445936	-0.07628581	-0.03252881	0.07263373	-0.022541929	0.05174157	-0.02851466	
0.026569769	-0.02457241	-0.048842065	-0.014793217	-0.0492274	-0.04072845	0.016789995	-0.047466118	0.027697327	-0.028649127	
-0.038372133	0.054928426	0.029011274	-0.0068843514	0.061759666	-0.012947866	-0.027228186	-0.02606364	0.042643085	-0.008729902	
-0.11211888	0.059068367	-0.0055013364	-0.107698366	0.0017328787	0.0035271242	-0.034779716	-0.005713061	-0.0142793385	0.028582752	
0.021098023	0.019500192	-0.068903714	0.032103192	0.02672511	-0.002795624	-0.044762533	0.044142865	0.029555801	0.02051309	
0.07333172	0.007426151	0.002525712	-0.074246876	-0.014371843	-0.0025395493	-0.017501969	-0.025874093	-0.03694669	-0.04819167	
0.053480674	-0.024789954	-0.12714228	-0.057108354	0.07965467	-0.02684482	0.010293074	0.04284616	0.051074553	0.0959149	
-0.008620305	-0.04761582	-0.08453933	-0.0006307972	0.123230934	-0.039135836	-0.04940309	-0.024284746	0.0050247554	-0.01344877	
0.10674544	-0.023561873	-0.028146397	0.002244317	0.05669148	0.011858335	0.02487502	-0.040327385	-0.04342932	0.061720185	
-0.053187106	-0.07727647	-0.07564218	-0.036596064	0.038652934	0.07298708	-0.022095088	0.0017149869	-0.002261551	0.042509727	
0.032657474	0.0013992848	-0.0858808	-0.04750736	0.08370924	0.017543541	0.08281574	-0.12551828	0.0022272475	-0.08520648	
0.0294186	-0.11968026	-0.15140995	0.07344559	0.084546514	0.035878714	0.057859045	0.03726398	0.062161244	-0.08953391	
-0.13531706	0.14559801	-0.0026858712	0.071660504	-0.0075942874	0.07003969	-0.043632828	-0.061270956	0.05653603	-0.026662193	
-0.09080342	0.197517	-0.019988207	0.06472071	-0.01879717	0.09947513	-0.03895708	-0.04344866	0.004906077	-0.028113548	
-0.17988117	0.15980741	-0.0009816141	0.026810527	0.006987871	0.036398485	-0.06487244	-0.019407457	0.027441712	0.007613062	
-0.045359805	-0.09489306	0.021614496	0.07037611	0.012555308	0.0751741	0.08777131	0.030340087	-0.06600986	-0.055541847	
-0.16227095	-0.123475805	0.01735504	0.09089264	0.01989343	-0.0922226	-0.022691287	0.041923113	0.060590945	0.057541307	
-0.018546466	-0.013132027	0.024414344	0.011130077	0.057145644	-0.06884594	-0.052980155	0.05480635	0.044074953	0.044501893	
0.009115044	0.018102206	-0.032229908	-0.10888033	0.06706845	-0.030227087	-0.07216028	0.11241597	-0.034896348	-0.020627784	
-0.0038795485	-0.023905769	0.022199702	-0.086197525	0.061726328	-0.013229506	-0.030151129	-0.018576248	0.058287434	0.0021842304	
0.018388605	-0.049944736	-0.045827653	-0.004357085	-0.070444584	-0.05558068	-0.0525666	-0.060288433	-0.07181428	-0.028595546	
0.07120868	-0.035196364	0.013230853	0.031561475	-0.10306648	-0.07127061	0.063634865	0.03292045	-0.017452171	0.047073804	
-0.0014422968	0.0505622	-0.06327508	-0.041789763	0.018849185	0.009726406	0.06793886	-0.0065832986	-0.104924396	-0.11778606	
-0.02133116	-0.08144669	0.08648566	-0.022425998	-0.04606608	-0.094137035	-0.04784885	0.023565682	0.05837746	0.054852758	
0.012885696	-0.032640126	0.03195716	-0.023963343	0.043362014	-0.053666532	0.026223568	0.034860626	0.03991711	-0.034064453	
0.103246555	-0.034707896	0.039437775	0.04554927	-0.016555818	-0.05206004	0.045686364	-0.059216846	0.0394969	-0.067633346	
0.09262986	-0.0045835827	0.039880887	-0.018227736	-0.03543949	0.0049044015	-0.100130424	-0.06326072	-0.08672502	0.0068244534	
0.05458928	-0.050751	0.030225914	-0.0163013	-0.005552526	0.045145847	-0.012165635	-0.049821913	-0.058642134	-0.055224814	
-0.01601603	-0.03157827	0.02699461	0.10078369	0.013028725	0.015309791	-0.03126831	0.01781809	-0.031138932	0.08177667	
0.082194634	0.075669155	-0.03210775	0.02153634	-0.061055806	-0.04423746	-0.056941677	-0.0035774836	0.066532955	-0.0605273	
-0.018715942	0.027293112	-0.028973874	0.03784318	0.025755692	0.022255363	-0.06904131	0.05043096	-0.050662402	-0.03211424	
-0.024279177	0.029454691	-0.055063087	0.033149596	0.0013041566	-0.08202441	0.05041852	-0.07725822	0.018318458	0.0576946	
0.02654012	0.045497667	0.016171327	-0.001879149	-0.015902657	0.083232835	0.023122204	0.10139624	-0.053166773	-0.06505573	
-0.042474806	-0.08038601	0.0064239	-0.01228113	0.0055583883	-0.100176126	0.0043923142	0.011742276	-0.06131929	-0.022584114	
0.07181669	0.0013133951	-0.012776863	-0.08900151	0.057115305	0.048656557	0.048460957	-0.06800637	0.009344472	0.06490273	
0.1535597	-0.046289943	-0.058230393	-0.07021582	0.11595217	0.08483198	0.01482352	-0.0975752	-0.14888695	-0.003320471	
0.004289714	-0.0301048	-0.023110425	-0.0644195	0.11414443	0.09570889	0.08608802	-0.07751273	-0.07468696	-0.017961731	
0.053472053	-0.03920002	-0.010751868	-0.0081487745	-0.035463426	0.007211817	0.0025018149	-0.018877398	-0.052947283	0.0051369006	
0.06156564	-0.06461147	-0.0018972538	0.10372472	0.027221892	0.029758418	0.07168196	-0.07953891	0.03252069	0.016272854	
-0.063499466	0.01328107	-0.043398995	-0.029433245	-0.03969721	-0.040520325	-0.061063163	-0.13933231	0.036203466	0.025013825	
-0.117465496	0.13081452	0.021910768	-0.023898443	-0.070032574	0.0338676	-0.007471201	-0.12217648	0.039197356	-0.040262744	
-0.14039579	0.12755506	-0.0121911485	0.02506189	-0.09772586	-0.015995594	-0.006361004	-0.06497016	0.06298009	0.10833838	
-0.15501082	0.07439477	0.0062518287	-0.036554202	0.058535	-0.049067117	-0.026994457	-0.016458709	-0.013438573	0.044151783	
-0.0887728	0.06150805	-0.1009983	-0.04763116	0.13013236	-0.092893906	-0.015038505	0.012148327	0.0056573935	0.045785893	
-0.11395171	-0.08155478	-0.07607542	0.08733901	0.03462095	-0.062334597	0.043575197	0.03980366	-0.09630725	0.10762328	
-0.03083174	-0.08250122	-0.04900424	0.0015453008	0.10788714	-0.026305556	-0.027683614	0.057738055	-0.017232144	-0.033958167	
0.024141578	-0.06450344	0.04521772	0.04697421	0.054702897	-0.03318133	-0.008490101	0.06647366	-0.026466107	0.011287923	
0.017336011	-0.021464508	-0.028251154	-0.0041491436	-0.012025569	0.009678593	0.03499785	-0.018435007	-0.077883855	-0.04749184	
0.07622843	-0.05519656	-0.026020462	-0.08634127	-0.009667892	-0.047565896	0.015327423	-0.05162689	-0.12929694	-0.008048871	
0.0008813247	-0.035750296	0.050572004	-0.06945259	0.052827265	-0.026509902	0.039806478	-0.027909461	-0.03857966	-0.011370613	
0.12428792	0.011684569	0.02714095	-0.01059012	-0.021546576	0.06292461	0.04617016	0.007018495	0.0021047299	-0.08985133	
0.0017951133	-0.040676024	-0.04567662	-0.038859215	-0.0004630926	0.0149768125	0.07186288	-0.06085728	-0.0152717875	-0.05405964	
-0.06828134	0.07074311	0.0018042417	-0.025820002	-0.099399604	-0.04901951	0.022054238	0.029524228	0.020675985	-0.09738808	
0.111383945	-0.038359098	-0.013395705	-0.04914639	0.09481933	-0.07200931	-0.012772823	0.03841691	-0.09941332	-0.03975774	
0.027508931	0.03326367	0.044260114	0.026710872	-0.0017372839	0.083232805	0.0675899	-0.011599032	0.024682203	0.010298311	
-0.0043095793	-0.040072963	-0.044183984	-0.0064810095	0.0035063813	-0.06658697	0.004628016	0.07513074	0.057908844	-0.05200361	
-0.06546539	-0.031624492	-0.026637848	0.07608671	-0.08270444	0.07618292	0.005499644	0.05528501	0.0019134886	0.027357658	
-0.0499562	-0.009786852	0.05096827	0.0010890682	-0.015081346	-0.058564134	0.07464547	0.07652201	0.040554907	0.033004984	
-0.04034099	0.09755024	0.013575614	0.047646176	-0.028915718	0.04711646	0.09720827	0.046508178	0.01564552	0.042628285	
0.017868705	-0.0042187627	-0.05774474	-0.039666288	-0.10055813	0.04468117	-0.03555762	0.082315095	0.049418133	0.09271096	
0.09574104	0.009925799	-0.042587575	0.027214564	0.05439243	-0.020654012	0.01641366	-0.016814379	-0.023053203	-0.06428167	
-0.048471246	0.027912444	-0.06591472	-0.056176987	0.051962983	-0.019477054	0.040220734	-0.102153376	-0.00199727	0.04912984	
-0.015187292	-0.08427221	0.0049381037	-0.050708115	0.0287508	0.0006212111	-0.026978865	-0.052900653	-0.032597996	0.011306649	
0.026150113	-0.09236105	-0.0366343	-0.053692576	0.05811043	0.0024389531	0.031483658	-0.015101405	-0.09647117	0.08759764	
0.0431501	-0.002141157	-0.0703589	-0.06004448	0.022362648	0.05931517	0.1551778	0.024437005	0.0029826188	0.06209996	
-0.02376587	-0.095743	-0.039238855	-0.068676636	0.10201007	0.11661755	0.016918488	-0.026927605	0.031441923	-0.026821302	
-0.04698211	-0.014913647	0.08280371	0.022832595	0.11273477	0.048054535	0.007600427	-0.007321156	-0.014588315	0.1453513	
-0.09110733	0.033405654	0.011207952	-0.030560479	0.109285235	-0.05225669	0.0075224703	-0.16822526	0.10225386	0.015789928	
-0.115281336	0.120872535	-0.024087157	0.0047960957	0.01847434	0.010276873	-0.035130702	-0.04330573	0.040881585	-0.088466235	
-0.07591487	0.080060415	-0.015386357	-0.054821793	0.04276644	-0.096624486	-0.0058536376	-0.037672378	0.02730121	0.026241923	
-0.06529311	-0.061991133	0.00069643237	-0.048031498	0.017186511	0.06530657	0.0036382817	-0.0056993603	0.06120769	0.00476368	
-0.050622124	-0.043913312	-0.12157627	-0.02245713	0.029216513	-0.07092075	0.08865396	0.047963418	-0.04110231	0.08805655	
-0.05301599	-0.08626441	0.030740552	0.040061858	0.035385817	-0.05467347	-0.057043437	0.017785663	-0.036691736	0.040214207	
-0.09997974	-0.03216621	0.050453734	0.056331452	-0.026429242	-0.030128712	-0.02810059	-0.0467347	-0.03650285	0.0077664484	
-0.0061695985	-0.088312924	-0.09177562	0.105568126	0.031956196	0.03381176	0.026239078	-0.003349362	-0.0642733	-0.02254179	
0.10719651	-0.0833122	-0.045585826	0.04942748	-0.07428467	-0.020154294	0.052584365	0.0065114773	-0.013946051	-0.051195707	
0.04047496	-0.010526132	-0.013672235	-0.008532807	-0.004347468	-0.053456347	0.036261983	0.042639136	-0.044438336	-0.113239735	
0.07186579	-0.024867829	-0.032291807	-0.0015643074	-0.053892642	0.009754569	0.028571164	-0.09129998	-0.032760467	-0.055178378	
0.0501602	0.036503334	-0.08420679	0.029394927	0.09010874	-0.056998428	-0.0014917449	0.00721011	-0.11810686	-0.048589017	
0.009406363	-0.05220419	-0.09735428	0.013876239	-0.10586349	0.056761928	0.009777698	-0.021253135	-0.053565446	-0.056669585	
0.007394953	-0.03216145	-0.056168873	-0.03294943	-0.0012953508	-0.018135548	0.07125633	0.0075752097	0.04075667	0.04974674	
0.02849827	-0.1054809	0.024400333	-0.06575921	0.035156015	-0.026605029	-0.034520634	0.0817055	0.02402111	0.023184745	
-0.055355895	0.033929814	-0.02136086	-0.036441356	0.0580405	0.067974776	0.061474387	0.026156368	0.059237495	0.026242148	
0.05676478	-0.076700784	0.005891799	-0.051272858	-0.10123563	0.011670534	0.03610231	0.042787965	-0.053272806	-0.032700587	
-0.0264581	-0.013609155	0.08523118	0.05435236	0.03440306	0.10130711	-0.002309003	-0.009701103	-0.06230722	0.044750303	
-0.10928621	-0.037807785	0.08096042	-0.07292324	0.07521279	0.03519281	-0.08415853	0.07128291	-0.008980028	0.113459565	
0.06515854	-0.07792942	-0.021577764	-0.036130175	-0.072789185	0.020836491	0.10448183	0.033477318	-0.018336242	-0.020838752	
-0.016577743	0.05957043	0.045617238	-0.031932004	0.008954349	0.021956585	-0.0036346733	-0.042637065	0.010310429	-0.060825102	
-0.011404285	-0.011389204	-0.05687156	0.025745884	-0.032876905	0.026099544	0.046253398	-0.03624902	-0.011424889	-0.073329024	
0.028709583	-0.039424803	-0.0029624722	-0.031019218	0.056368485	0.04890571	-0.05978566	-0.07354534	-0.07982081	0.04234015	
0.019328404	-0.047229886	-0.015263664	-0.021939674	0.011392947	-0.12037401	-0.03518692	-0.06591282	-0.04834022	0.08083691	
-0.036515236	-0.027901692	-0.010590609	-0.05658964	-0.03266763	0.044918884	0.13460834	-0.0833269	-0.018121516	0.0021600581	
-0.024514081	0.018679768	-0.008933651	-0.07338253	0.04440159	-0.08114436	0.04464455	-0.07297996	-0.0044083814	0.022007627	
0.007990789	0.04913432	-0.047261704	-0.05535959	0.052826043	-0.10027093	0.023762723	0.024280189	0.014438142	0.08465447	
-0.027385289	-0.004357232	1.9480372e-05	-0.081789844	0.10141441	0.009708021	0.0045892815	-0.017870177	0.06222399	0.04755439	
-0.060773112	-0.019263472	0.051139943	-0.06233535	0.028584408	-0.028387453	0.06803266	-0.081427	0.04804264	-0.053756468	
-0.17856206	0.038834747	-0.0013116973	-0.13826233	0.13012984	-0.017302979	0.085406356	0.008133929	0.048153527	-0.023053313	
-0.124048546	0.1299417	0.119117	-0.082643345	0.032158807	-0.0620758	0.0017040714	-0.083446294	-0.05128899	-0.052764133	
-0.09900789	0.031024711	0.005647108	0.001081247	0.07992157	-0.008572734	-0.069812946	-0.055842828	0.05039335	0.02878508	
-0.031703923	-0.07502158	0.097408995	0.0020398514	0.04172357	0.07455147	-0.057563603	0.06864401	-0.0018097355	-0.03182398	
0.008024934	-0.08584307	0.07966057	0.027630884	0.095258266	-0.040922243	0.07101464	0.061945528	-0.039421882	-0.010915182	
0.008404963	-0.07049374	0.031671792	0.0032728727	0.05517739	0.012819102	-0.0053690723	0.07015393	-0.053138983	0.0088577345	
0.043261256	-0.0072826017	0.065046094	0.071212016	0.09748924	-0.022202648	0.10047466	-0.045950245	-0.029501362	-0.042065863	
0.0704344	-0.06280794	0.028482508	0.054912638	-0.024680572	0.06508799	0.0738139	-0.022016365	-0.06404951	-0.027547702	
0.015799932	-0.07328203	0.034722365	0.034082074	-0.10953047	-0.01542915	0.095699534	-0.02257312	0.0070443973	-0.00929909	
0.021622902	-0.036700472	-0.030295918	-0.043409094	0.02238006	0.039197676	0.06740379	-0.005359027	0.030998748	-0.04952596	
-0.04453319	0.062142815	0.021706015	-0.032701574	-0.014229882	-0.065813	0.05332714	0.011555094	0.068326995	-0.0037111493	
-0.017603284	-0.013643085	0.048646588	0.04102279	-0.028757704	-0.06305508	0.050109353	-0.061176214	-0.028484745	0.02345419	
-0.050555408	-0.06833822	-0.015241779	-0.021248067	-0.06643612	0.09521419	0.014039151	-0.07160934	-0.017348832	-0.029919282	
0.025682569	0.01476599	0.023370547	-0.014687507	0.018573012	0.03074188	0.08783728	-0.00034933892	-0.040192515	0.007744323	
0.083486244	0.01532548	-0.035374176	0.015118665	-0.07059629	0.060756534	0.0653224	0.023427773	-0.075099744	0.09925552	
0.062349092	-0.013425781	-0.070837945	0.054692708	0.07715699	0.03336298	0.0025144692	0.0031121247	-0.028785393	0.06149856	
0.00502128	0.07035742	0.031416003	-0.026163476	-0.0043632477	0.1092419	0.0004406601	0.08686617	-0.05730059	-0.072250664	
-0.05653201	0.009450092	-0.0044044834	-0.024243902	-0.008987266	-0.0055457084	-0.017399114	0.016525846	0.062022835	-0.05528081	
0.052823465	-0.067302324	-0.04807862	-0.036006764	0.026572727	0.101042934	0.10002064	-0.037089836	0.013366471	-0.060659368	
0.009785273	-0.01911113	0.026419023	-0.07682478	0.025930407	-0.07099457	-0.06109806	-0.0045577674	-0.059117027	0.07333618	
0.020010523	-0.021429606	0.0016755182	0.009981548	0.03860915	-0.05551144	-0.036500216	-0.04744835	0.0295619	-0.025937619	
0.05496031	-0.009643098	0.101467475	0.06005018	0.041560743	0.007683979	0.048154574	0.012278559	0.07593891	0.036845107	
0.040632088	-0.07107063	-0.0032002372	-0.058117304	0.047374453	0.014392509	-0.012696497	-0.0033951078	-0.011847621	-0.039212115	
0.022731293	-0.11889114	0.023002807	-0.04625983	-0.05924613	-0.042590667	0.061422534	-0.018402183	-0.057405032	0.007367545	
0.028012123	-0.07716045	-0.049252376	-0.023343863	0.05465705	-0.09410406	0.047662985	-0.064254574	-0.045397032	-0.028817888	
-0.022886997	-0.05371679	0.088671155	-0.091818646	0.0141052	-0.029647429	0.13400602	-0.12585768	0.02794151	0.0006748997	
0.017562987	0.089319244	0.10307633	-0.17921528	-0.02784794	0.022313865	0.0806007	-0.04831641	0.03878343	-0.059212662	
-0.09290528	0.050394163	0.13663165	-0.104674816	0.053129427	-0.11159894	0.0012651474	-0.112854004	0.03290208	-0.06274124	
0.0044488013	0.13497828	0.09453559	-0.15198332	0.092840485	-0.009569615	0.004078889	-0.07566156	-0.01031916	-0.0049670227	
-0.026728129	0.116158724	0.08974101	-0.021660537	-0.0032069655	-0.016459148	0.027704498	-0.07013095	0.054804754	-0.025359716	
-0.023944238	-0.044663176	0.00080186396	0.027006812	-0.030608296	-0.002014885	0.0051909867	0.06522272	-0.11466029	0.071685	
-0.1035739	0.020455068	-0.052773412	-0.0055578267	0.0521259	-0.041097943	0.00026520138	0.15731606	-0.102091804	0.035470538	
0.029123347	0.029255386	0.06819769	0.0067467946	0.040841725	0.08496693	0.047986325	0.0741266	-0.046967573	0.13436927	
-0.048358828	-0.14689621	0.08152517	0.03419736	0.12525782	-0.037945323	0.11155402	-0.055615935	-0.06030344	0.0170786	
-0.042168915	-0.06185296	-0.010651766	0.077881545	-0.05008792	0.009297979	-0.033153344	-0.07417982	-0.007887054	-0.055145524	
-0.011096774	-0.011163137	0.040169563	0.056494292	-0.0012470135	0.025129428	-0.0073349103	-0.0821275	0.024213366	-0.04056994	
0.095035024	0.010459916	-0.02610864	0.036667205	0.03707356	0.062078662	-0.028655102	0.00574577	-0.02532986	-0.025371827	
0.043123443	-0.07935531	-0.017292408	0.04309299	-0.030982114	-0.028962988	0.08233829	-0.030279305	-0.0038471902	-0.06459826	
0.0871641	0.01667213	-0.0071559134	-0.007019899	-0.06592803	0.004012249	-0.01156177	-0.016552068	0.078729875	0.05372184	
0.026045475	0.0041172807	0.055212658	-0.019584034	0.0016224263	-0.079836875	-0.1070961	-0.07509858	0.009290803	-0.049771283	
0.07925222	-0.07856367	0.0309978	-0.088434055	-0.058208287	-0.059079975	0.051831644	0.010366117	-0.033402994	-0.005187065	
-0.095800936	0.037462912	0.09728948	0.0810305	0.041616198	-0.040419742	0.1039626	0.03420653	0.026764564	0.07826442	
-0.077236645	-0.10316538	-0.08410261	-0.007267136	-0.057604056	0.05842773	-0.014823267	0.025858147	-0.03180657	0.11301768	
-0.03457211	-0.014577197	-0.030278446	-0.056675218	-0.02563752	-0.031250995	0.085460946	0.04594711	0.050405007	0.025416967	
0.032661192	-0.06178235	0.031980507	0.03254649	0.032960694	-0.059731547	0.027380077	-0.08605426	0.03550471	-0.012589433	
-0.036834404	0.0143447155	0.0553158	-0.053432953	-0.034733776	0.05909943	-0.017686334	0.08388305	-0.039996732	-0.0026010592	
0.021531742	-0.064684995	0.04303957	0.08166546	-0.011501405	0.04164629	0.09996632	0.05263654	-0.013511363	-0.0736153	
0.006313449	-0.07844186	-0.04363503	0.07185179	-0.011633317	-0.03974156	-0.06463897	-0.011666401	-0.089649476	0.057097208	
-0.010068327	0.04638598	-0.057135936	-0.06323247	-0.059226815	0.030467851	0.08932328	-0.015814785	-0.06212412	-0.0543113	
0.05842089	-0.009784048	0.112873085	-0.034144953	0.03931844	0.038085252	0.019571906	-0.01850341	-0.010506454	-0.06158796	
0.14386635	-0.024882892	-0.002007174	-0.03880792	0.010381901	-0.015058581	-0.0025845414	-0.057419546	0.06839873	-0.04709662	
0.04479298	-0.0032430366	-0.007500894	-0.13373312	-0.054220334	-0.038194604	0.07471662	0.0008377789	0.026688728	-0.06975495	
-0.02971918	0.027317932	0.05875219	-0.12961273	0.0037719188	-0.12455829	0.05140538	-0.04251328	-0.0131142195	-0.045773383	
0.0038482998	-0.022512734	-0.03166945	-0.02021948	-0.071482815	-0.053375024	0.026867978	-0.11494664	0.032319076	0.019960485	
-0.04652506	-0.005786504	0.15174091	0.015815672	-0.06955541	-0.062396247	0.10047879	-0.0065817097	0.111673705	-0.023322104	
-0.122868314	0.048271943	-0.057892673	-0.05530807	-0.087079085	-0.012423277	0.00658078	0.031341992	0.062769406	0.039135017	
-0.04500439	0.06996153	0.05162647	-0.19066007	0.055262476	-0.08311275	0.023445899	0.029034847	-0.049082804	-0.023238758	
-0.14363435	0.060667176	0.054202244	-0.06117093	0.08671758	-0.087357804	0.050766993	0.06077632	0.03526651	0.016145661	
-0.08150512	0.07233394	-0.0564641	0.012674855	0.075072795	0.020495905	0.0063469773	-0.021357669	-0.0719533	0.11435418	
-0.1103262	-0.0031622434	0.05876895	-0.10518877	-0.05886968	0.063569814	0.116420105	0.07756075	0.050585117	0.109537184	
0.029362716	-0.0012286048	0.09444163	0.07966536	0.02563984	0.057354864	0.071704805	-0.090516575	0.054712933	-0.02913341	
0.0452602	-0.08356994	0.04822413	0.14255558	-0.037332043	0.03041803	0.15391928	0.027383197	0.058978017	0.04387072	
0.08285195	-0.13048622	-0.04553082	0.07414347	0.030539032	0.06792032	0.07896441	0.052528437	0.015056917	0.008382636	
-0.046691164	0.02656736	0.014718377	-0.052275747	0.06292772	-0.062429965	0.040294617	0.0035579342	0.0050841956	-0.0074840607	
-0.029052295	-0.079307795	0.053001933	0.05019156	-0.08006338	0.0066356785	0.096983306	0.009738175	0.06520227	-0.00018786165	
0.10160621	-0.08964403	0.07746368	-0.06668604	-0.013646725	0.027730294	0.0061335824	0.033498403	-0.074756876	0.032063443	
-0.015665505	-0.019869916	0.0704899	-0.018073438	0.0016094855	-0.06567603	-0.08985142	0.0017907927	-0.026338918	0.042406436	
0.041124437	-0.020479785	-0.019246327	0.0256024	0.008968368	-0.0850746	0.09749381	0.0017523215	-0.026422463	-0.025801517	
0.034592412	0.062996484	0.017502612	-0.02095968	-0.11005747	0.012042718	0.05810517	-0.03255807	-0.0021558087	-0.022299943	
-0.0050712735	0.054226846	0.028134625	-0.0038178626	-0.029303798	-0.033267748	0.032811146	-0.051695347	0.1103716	0.018423406	
0.037458304	0.051086936	0.03307392	0.0013631524	0.0043718247	0.02804652	-0.045377854	-0.009028559	0.037075657	0.04716639	
0.015335362	0.017602528	0.051140122	-0.04153284	-0.012118853	0.06007761	-0.058234535	-0.009886822	-0.014863954	0.08568669	
0.026068842	-0.07175792	0.021976445	0.013531722	-0.006064981	0.03553167	0.028885042	-0.058188606	0.058616042	0.012504875	
0.054403845	0.021245655	-0.017144686	0.04147579	-0.0018292804	0.0047971313	0.04236257	-0.020603113	0.046121314	-0.034790814	
0.0760903	-0.05593087	-0.018075494	0.041067857	-0.0520787	-0.05137214	0.03200135	0.047599114	0.012312103	-0.017517906	
0.07943812	-0.03515657	0.038724	0.072207026	-0.007766709	0.07755278	-0.06777048	-0.041644588	-0.09026773	-0.08347041	
0.024707366	-0.009560268	-0.050482344	0.023777338	0.06612941	0.006219567	-0.11696481	0.010248791	-0.02117053	-0.12871277	
0.08494793	0.0057415273	0.04431997	-0.068880774	0.02579033	0.12377868	-0.013000938	-0.031143645	0.047609814	-0.054879896	
0.1291625	-0.023192095	0.07657087	-0.014128179	0.0680968	0.0845912	0.008426217	-0.023292819	0.09642902	0.0003582769	
0.04526017	-0.0031089783	0.07607257	-0.078059055	0.00035208312	0.04729095	-0.04317302	-0.076385304	-0.025030814	-0.061238773	
-0.03481091	-0.01580645	0.036545224	0.05778802	-0.036902007	-0.11358392	0.04161595	-0.07713903	-0.004982259	-0.08090551	
-0.032295857	-0.03166638	0.07147146	0.013495582	-0.0052143447	0.04551091	0.032976177	0.040038165	0.12968475	-0.0151820155	
-0.08160972	0.07897764	-0.040654566	-0.048830856	-0.091108836	0.02747189	0.09298662	0.006638127	-0.027026389	-0.083699524	
-0.03488569	0.05476918	-0.02732383	-0.102015145	-0.010215923	0.0054532504	0.11922391	-0.037252907	0.060961843	-0.0565041	
-0.0712647	0.16691956	0.098386504	-0.003678822	0.05326714	-0.040978905	0.0634229	0.028213227	-0.13098492	-0.037807345	
-0.015400785	0.07555368	0.008245228	-0.004045966	0.0848772	0.045480527	-0.028793648	0.093123086	-0.025761286	-0.026823588	
-0.008895432	0.071139395	0.05145475	0.067959204	0.024357969	-0.046171494	0.06691154	-0.030204212	-0.089657314	-0.04937856	
-0.0028924337	-0.08677705	-0.009368765	0.054303173	0.08678313	-0.05711979	-0.055193655	-0.09935688	0.013837596	-0.03537786	
0.088252604	-0.12910013	0.07287101	-0.0666966	0.01932178	0.10714651	-0.048650537	-0.02362154	-0.018723894	-0.08072907	
0.010779429	0.022007879	-0.012796261	0.10671841	-0.056225646	0.028754387	0.014787927	-0.030015629	-0.038763154	-0.031012645	
0.03408003	-0.020635499	0.041594826	0.05040255	0.03521795	-0.054594524	0.062013622	0.055190627	-0.09580065	-0.040271822	
0.017646713	-0.043010674	0.0845564	-0.016374853	0.0029942188	-0.007440175	-0.04986054	-0.018713295	-0.028991975	0.0057966053	
-0.023082675	-0.058083415	-0.047509	-0.044267844	-0.07349437	-0.020689506	0.014913759	-0.007779081	0.010167648	-0.027981762	
-0.07296759	-0.057408966	0.042034622	0.060114015	-0.013900584	-0.08717584	0.02041162	0.0026114082	-0.017534487	-0.07586877	
0.033536065	-0.046398666	0.05180419	-0.0061437315	0.047761638	0.08777678	0.028472636	0.053275574	-0.011703346	-0.040625002	
0.00034695354	0.06175203	0.07999583	-0.03236497	0.04464025	-0.0037425756	0.020317284	0.012863819	0.05494074	-0.056172147	
-0.05624917	-0.02764743	0.06920765	-0.013719163	0.00845437	-0.023982402	0.031573866	-0.10078769	-0.09007156	0.016927294	
0.032719616	0.016472982	-0.019467015	-0.009076719	-0.011302749	-0.011465331	-0.064701326	0.030122967	-0.0560719	-0.08209556	
-0.07350525	0.038903523	0.058558814	-0.030677866	0.06368067	-0.028769458	0.09563382	0.09835887	-0.054857366	0.019921103	
0.036092497	-0.06687852	-0.015954707	0.04649179	-0.04330338	-0.05808449	-0.023737144	0.004279535	0.08607207	0.10661435	
0.03441623	0.07497882	0.024065772	0.07409391	0.07101831	0.010622063	0.052185055	-0.012145939	-0.035417695	0.024552455	
-0.0907732	0.06344505	-0.053475313	0.054064255	0.08724878	0.020974895	0.03187898	-0.011392472	-0.07900742	0.021847952	
-0.045138326	-0.010716848	-0.030097619	0.124484345	-0.023000324	-0.07540537	-0.023584481	-0.10201052	-0.008542084	0.02014258	
0.010975054	0.00612473	-0.03003263	0.031286027	-0.085090905	-0.10683601	-0.04155999	0.012172114	-0.11974102	0.07936195	
0.010172436	0.0054600355	-0.055394012	-0.036867306	-0.004451313	0.007453384	0.072274834	-0.06803097	-0.005552136	0.003346121	
0.029206436	-0.0230798	0.11365612	0.11032808	-0.071305	0.1264387	0.015287039	0.04771106	0.026828684	0.073089816	
0.07724628	-0.036237746	0.012631179	0.04366622	-0.112237215	-0.048733275	0.018330298	-0.07943388	0.041173127	-0.033378515	
0.1232982	0.08149046	0.072741605	0.009452516	0.048573785	0.014272132	0.0560013	0.008147108	-0.06451448	0.03069612	
-0.037753206	-0.0032746217	0.042530894	-0.028445449	-0.0822333	0.062754266	0.054536637	0.017873896	0.0018665835	0.036380466	
0.053781655	-0.01385446	0.043084454	-0.036869016	-0.0644556	0.038061175	0.029197972	0.05139339	0.056756996	-0.09377341	
-0.021873958	0.053323492	0.1102697	-0.08127979	-0.0073456154	0.007262148	0.05014944	-0.06606833	0.018778363	-0.053689476	
0.06612584	0.082810335	0.040120736	-0.11355739	-0.03771108	-0.031447463	0.08758199	0.011374098	-0.10282582	-0.07367141	
-0.06532047	-0.03012806	-0.030608315	0.06555063	-0.02071187	-0.07986929	0.14810364	0.009074585	0.009680625	0.07612989	
0.031045007	0.039729066	0.035669845	-0.022605961	-0.0849576	-0.07508246	0.057689957	0.112317085	-0.0073775165	-0.08543218	
0.0151978815	-0.09232244	0.032514844	-0.0033039676	-0.054451033	-0.00083008443	0.0040537277	0.088490054	0.0059127174	-0.098452166	
0.035203964	-0.030802164	-0.041448753	-0.008255083	-0.057760827	-0.037422944	0.11264674	-0.041682243	-0.07607376	0.016659644	
-0.062420074	-0.029060721	-0.0029958934	0.009380475	-0.029089186	0.074473016	-0.032678798	-0.046271596	0.004229425	-0.038802825	
0.11067966	-0.031473827	-0.061084654	0.09628242	0.03556014	0.01613899	-0.033643186	-0.059248734	-0.024772605	0.030074114	
-0.03292363	0.027289253	0.014509937	0.03006814	0.06964431	0.0928578	0.07981721	-0.1290846	-0.0913979	-0.027190134	
-0.0030618336	-0.09706599	0.10458308	-0.04891516	-0.11096267	-0.017607104	-0.009326335	-0.07178407	-0.01209666	-0.018459838	
-0.018305004	0.0022239098	0.09503026	0.027816767	0.10292015	0.104207724	-0.04533737	0.029760389	-0.017949887	-0.011283199	
0.095171064	-0.08711939	-0.04457919	-0.010003012	-0.026314264	0.034266684	-0.11051472	-0.09413724	0.07283823	-0.09078881	
0.10970399	-0.012745888	-0.022172993	-0.010849248	0.023278778	-0.007690248	-0.078881845	0.053005047	0.005917343	0.014305119	
-0.04164411	-0.035790797	-0.07773065	0.034026656	-0.048759293	0.010081606	-0.10497571	0.01502035	0.10852883	0.029528657	
0.041269235	-0.007644392	-0.0039336965	0.03466754	-0.04734589	-0.06975183	-0.04048143	0.02550002	0.047313605	0.024376616	
-0.014169692	0.0075806216	0.012210603	0.09149362	0.0005159428	0.060659606	0.015181756	0.015653059	0.092252254	0.07459877	
0.0738978	0.038551215	-0.019788621	-0.018491002	-0.021329239	-0.007733355	-0.04985997	0.0043585165	0.03544788	0.048916496	
-0.071160875	-0.019588122	-0.0074469144	-0.009511717	-0.043473773	0.006405827	-0.042771976	-0.053887386	0.012987612	-0.0009242476	
0.026845414	0.060740165	0.092801355	0.090042114	0.04825671	-0.0036804718	0.025347723	-0.010555674	-0.05719653	0.036685843	
0.03507087	-0.06594879	-0.07410961	-0.012229064	0.048929814	0.028085627	-0.10841638	0.0076033734	-0.023429446	-0.005507112	
-0.05457679	-0.0048411633	0.029751718	-0.049393326	0.05373668	-0.08329866	0.024423523	0.02256092	0.079471655	0.00905829	
-0.032497462	0.09073669	-0.025758525	0.09281043	-0.067367084	0.018284492	-0.03357094	0.054546356	-0.03577261	0.08617064	
0.10490718	0.020097196	-0.037949543	0.10780165	-0.02120571	-0.014985957	0.0337254	-0.063082695	-0.006651072	0.018531807	
-0.051118243	-0.0243727	0.0011905431	0.06754105	0.042053644	0.01968527	0.019402767	-0.0026977253	-0.016467793	-0.120496765	
0.071218476	-0.08420619	0.08007584	-0.021847354	0.028940365	0.078043126	-0.10307087	-0.027171906	0.051227517	-0.10191065	
0.026063645	-0.039317973	0.029177139	0.04478939	-0.011641082	0.06771416	0.055686582	-0.0036520078	-0.060988266	-0.081509754	
0.062897004	0.021025127	0.1178359	0.034288835	-0.14371853	0.09508461	0.016223393	-0.101821996	0.04631024	0.0018593783	
0.09468532	-0.09792021	-0.022164779	0.015212507	-0.06704534	0.092199914	-0.0287809	-0.039655466	-0.09241787	-0.048151005	
-0.020005908	-0.071886145	0.06843539	-0.05949643	-0.038012896	0.054567613	0.07334396	0.032862276	-0.015827898	0.0042536072	
0.02740869	0.007923989	0.010009406	-0.080235556	0.011711328	-0.062466137	0.06359537	-0.08994569	0.07411146	-0.040539294	
-0.08373076	0.10141166	-0.103437334	-0.0072309747	-0.004068573	-0.025350802	-0.015666088	0.060019463	0.008346768	-0.054731265	
-0.04459094	0.074785724	-0.05975477	0.030819265	0.016413767	0.04934413	-0.016769823	-0.025678655	-0.0029076831	0.07990533	
0.011307999	0.043140765	0.052340798	0.111935824	0.0037433035	-0.005158541	-0.021688709	0.029672422	-0.027028492	-0.05925481	
0.0139094	-0.1184663	0.054996695	-0.01650947	0.0369124	-0.04103046	0.017361315	-0.004774386	0.013240819	0.025729012	
0.054143276	-0.058891095	-0.031106284	0.05985443	-0.011790455	0.015328626	-0.012250559	0.013149118	0.014904696	0.0133947665	
0.050109606	0.058241434	0.05665652	0.13610956	0.012719505	0.073181406	-0.056609526	-0.056616005	-0.021028945	-0.016845148	
-0.09769261	-0.009180674	-0.070822954	0.06153973	0.014598121	0.058584724	-0.012066371	-0.034975633	-0.025825867	0.047571234	
-0.08586406	0.017241817	0.038608614	0.031862184	0.019501863	0.008578593	-0.09796137	0.06244538	0.0077587557	-0.018139163	
-0.07565097	0.078676626	0.06498732	-0.0419403	-0.03188507	-0.0057168403	0.006127685	-0.030795649	-0.06962837	-0.012149963	
-0.05658938	0.05730821	-0.02901587	-0.009076112	-0.040893782	-0.040189885	-0.08011605	0.04939841	0.0005848054	4.5091423e-05	
0.012760616	-0.100945465	0.10870436	0.030165343	-0.08223787	0.057243165	0.0149841625	-0.0190795	-0.09109184	0.071796544	
-0.03632675	0.087030366	0.06468271	-0.015110313	0.033319287	0.05568918	-0.024505893	-0.086427934	-0.04795084	-0.06885708	
0.07077988	-0.0032034148	0.028090065	0.09095812	0.03448735	0.020595778	-0.014021459	0.016697053	0.017740574	-0.025597557	
0.0071097338	-0.07342577	-0.05627635	0.0077574323	-0.05258015	-0.04295864	-0.07979843	0.015153004	0.043480642	0.0379963	
-0.037309755	-0.04914035	-0.10969429	0.021843566	-0.012817381	0.07204222	0.043714743	-0.058552414	0.047308493	-0.072747834	
-0.019785337	-0.05417783	-0.0076092808	0.0019596892	0.0025848926	0.10951279	0.10157524	-0.036467567	-2.542858e-05	0.04083926	
-0.055187006	0.107662275	0.018583832	0.05637014	0.042625595	-0.04508269	-0.008191391	0.02016822	0.032133464	-0.022159936	
0.021481156	0.06948341	0.026731115	-0.052690715	0.025512958	0.041397568	0.0017704014	-0.10446498	0.10637857	0.031446736	
0.038743958	0.074089505	-0.007776465	0.014124363	-0.05933334	-0.068372816	0.1118707	-0.0269215	-0.0030417184	-0.008353021	
-0.029966736	0.040451385	-0.026883837	0.0014323663	-0.02099484	0.06382569	-0.026468849	0.038703404	-0.035680775	0.054795723	
0.09004261	-0.03732759	0.02550977	0.05608613	-0.040909562	0.055960312	-0.09320177	0.019301834	-0.04278522	-0.09224129	
0.056346077	0.0012383552	0.05678338	0.022841392	-0.12719819	-0.066900596	-0.08951995	0.012247493	0.03465625	-0.008204221	
0.06780984	-0.03807802	0.035311233	0.06586821	-0.046913486	0.09777834	-0.114022315	0.025856234	0.05857196	-0.007343588	
0.06293853	-0.028560126	0.07709778	0.16833785	-0.050713766	-0.00077829545	-0.08622396	-0.010228358	0.08889174	-0.05384541	
0.037773058	-0.032115333	-0.07276386	0.074005455	0.047035005	-0.030457763	-0.010735264	-0.04494952	0.02777376	-0.09248368	
0.09252327	0.057421703	-0.01239535	0.06374027	-0.05657591	0.08884781	-0.051272973	0.011932358	0.027328772	0.002098668	
0.06303128	-0.05769678	0.034073327	0.018951766	0.0021428152	0.06806531	0.039259564	-0.028632065	0.029217472	0.02039867	
0.053190045	-0.034223054	-0.03303985	0.1032691	-0.03251153	0.026364096	0.013798902	-0.085027725	0.11349703	0.03896357	
0.057558864	-0.0115464	-0.07956364	0.024708439	-0.07749672	0.115934916	-0.04110433	-0.008971038	-0.009759821	-0.049004246	
-0.05753258	0.050680168	-0.039255485	0.031503107	-0.04571621	0.077323556	0.010421562	-0.0088764215	0.12340754	0.0063646594	
-0.013424277	-0.025179978	-0.03961765	0.038953483	0.034950055	-0.024363955	0.019344848	0.055553533	0.06034641	0.047940023	
0.01382732	-0.10035069	0.00011319126	0.06491655	-0.0554359	-0.027699644	0.029567877	0.018986607	-0.017318247	-0.053869016	
0.038401723	0.036811695	-0.08951717	0.023567783	0.06352993	0.030867225	-0.068619445	-0.010645522	-0.018774495	-0.09397129	
-0.035839923	-0.03209358	0.092004925	-0.0180986	0.052452296	0.052823387	-0.05649083	0.004419341	0.06640118	-0.027644426	
-0.042050127	0.004367622	0.054466277	0.07671031	-0.026965966	-0.0060142814	0.015095413	-0.040293287	-0.032836027	0.024278283	
-0.041216433	0.0035636695	0.04064271	0.06292961	-0.054189865	-0.012830679	0.0485891	0.05552425	0.020880219	0.0180931	
0.025903728	0.041611496	0.03450179	-0.03629941	-0.09826027	-0.009783394	0.07605237	-0.038062323	0.039143614	0.031997554	
0.020039584	-0.09594461	-0.04819204	-0.017044991	0.0026737342	0.054654147	-0.08250566	-0.040319346	-0.020805396	-0.051129688	
-0.08946685	0.009157125	0.11756538	0.055659913	-0.036514875	-0.04100833	0.08051078	-0.06170449	0.07555796	-0.04618744	
-0.015619846	0.020849252	0.10774601	-0.07709611	-0.06771091	0.02780064	-0.058113553	0.007407168	-0.0052688853	-0.05490334	
-0.019171655	-0.05380663	0.04386431	-0.0015419787	0.028348494	-0.017750591	-0.065001845	-0.057205237	0.0052732853	0.03200806	
0.11397362	0.08576261	-0.04477839	0.0012638222	0.03357126	-0.014669582	-0.02182525	0.03343243	0.029172763	0.02850196	
-0.10265951	0.011623176	-0.03153847	-0.012414401	0.003403326	-0.077884726	-0.058266878	-0.0074166497	0.022596499	-0.0075159976	
0.057626206	-0.094907604	0.027360743	-0.06725972	0.022363478	-0.039417416	0.066322215	0.08104581	0.042964216	-0.029549856	
-0.029646145	-0.058085777	-0.09508442	-0.080071114	-0.07024904	-0.015783407	0.001299444	-0.00913276	0.082917675	0.0239281	
0.020572597	0.048862226	0.016503721	-0.031048657	0.018180728	0.06666582	-0.029526487	0.011686874	-0.025926946	-0.037981153	
-0.013704558	-0.080224134	-0.025296185	-0.043320667	0.06735742	-0.057844117	0.046111774	0.040395375	-0.0070497547	-0.040575046	
0.029437995	0.043377746	-0.0494314	0.061790705	0.0795961	0.060888432	-0.0013480424	-0.006311254	-0.01360985	0.026645605	
-0.056730654	-0.004086223	0.022259396	0.049217865	0.019316612	0.0300199	-0.031605385	0.028203433	-0.0009423758	0.021954268	
-0.032838795	-0.0064428663	-0.0062374333	0.058524493	-0.06142028	0.01226058	-0.053924944	-0.023483803	0.0034847371	-0.029466499	
0.032794856	-0.0059035355	-0.11709507	0.0672969	0.02751575	-0.050744902	-0.021465017	-0.048253845	0.0038442926	0.076196596	
0.012871401	0.056646746	0.07950229	0.12184383	-0.08133439	0.0092038335	-0.012288005	-0.004410253	-0.053551003	-0.118891835	
-0.022290494	0.0026583169	0.04919536	0.054852404	0.038933456	-0.014580418	-0.014035661	-0.08500994	0.046899192	-0.067663066	
-0.0057011307	0.009689491	-0.092833824	0.015461408	0.07052413	0.028186733	0.027592191	0.01930898	0.10882167	0.0031628062	
0.06308155	-0.036947727	-0.016889643	0.03896615	0.0544976	0.03107413	-0.106818646	0.021745382	0.00981933	-0.013914644	
-0.010328782	0.08352953	-0.08317329	0.079067886	-0.05668562	0.08998231	-0.11621879	-0.089973286	0.03051486	-0.02874221	
0.008064516	0.0745466	0.0058646076	0.055631146	0.0013076519	0.06484132	-0.0644206	0.057611827	0.12561703	0.052136898	
0.049275897	-0.0072473115	-0.06997288	0.094531	-0.01885195	0.059979726	-0.12710202	-0.019600486	0.024989294	-0.042010125	
-0.007531054	0.020825598	0.019746294	-0.01099394	-0.013679061	0.010131468	-2.8864431e-05	-0.10289511	0.0129221575	-0.048697	
-0.018856203	0.0047765165	-0.05845835	0.05184137	-0.016080484	-0.026908532	-0.0814964	0.038590427	-0.027742436	-0.016512217	
0.052458987	-0.055727746	-0.039000638	0.06392558	-0.0011475295	-0.03537358	-0.031249752	0.001103073	-0.03529783	0.10353422	
-0.020873867	-0.03844169	-0.050415255	0.052392595	-0.012652278	0.04800056	0.041975733	-0.10651518	0.065566204	0.048639696	
0.093788825	-0.059753582	0.1127994	0.032798495	0.08238914	0.031993166	0.013863495	0.001231654	-0.06518667	0.044443693	
-0.050761547	-0.058614545	0.009452759	-0.0036685015	0.070584014	0.047721956	-0.047422204	-0.08582948	-0.0681073	0.035860106	
0.025762293	0.10211039	0.048414063	-0.038295735	0.040151406	-0.07452832	0.034833573	-0.03146476	-0.012364374	-0.09071823	
0.015506415	0.08800042	-0.064916335	0.03507707	-0.018829592	0.06798551	0.007549638	0.026094228	0.038100448	-0.0105226645	
-0.0065337955	-0.006464297	-0.0071244403	-0.051792916	0.013805338	0.01716778	-0.0028093331	0.06782849	-0.024076523	0.01726134	
-0.071724005	-0.0687213	-0.0014411488	0.04831741	0.051282864	-0.01105573	-0.049430832	0.019787785	0.02147475	-0.008227592	
-0.064052455	0.09470567	-0.021302318	0.04261597	0.0051006638	0.005680683	0.10850664	-0.11277503	-0.016074598	-0.010684348	
0.06893687	0.106214195	0.07122876	-0.016325321	-0.08680834	0.0069477027	-0.052046698	-0.0016618401	-0.0023372304	-0.04148088	
-0.04883961	0.02457608	-0.10190608	0.03171099	-0.030946318	-0.058367714	-0.07856083	0.046527684	-0.10706559	0.035430003	
-0.015216859	0.08033641	0.060815718	-0.06283163	0.014791555	0.019129643	-0.04721988	-0.0039690044	-0.080366485	-0.0017030032	
-0.00232095	-0.05836992	-0.008883538	0.029545827	-0.09765029	0.03616547	0.015301015	-0.080856875	-0.03342303	-0.08764173	
-0.028369097	-0.01625617	0.020509124	0.038544506	0.024361597	-0.0668774	-0.020574182	-0.06485532	-0.028387435	-0.09161265	
-0.03129162	0.020578692	-0.004150761	-0.025401702	0.05337428	-0.018240012	-0.022927748	-0.097052656	0.013637511	0.028485259	
-0.029019384	-0.028165203	-0.004995581	-0.022833906	-0.1126659	-0.016018879	-0.032129273	0.032478835	-0.08354455	-0.03302445	
-0.019606994	-0.02305461	0.06765672	-0.0021049965	-0.0026036536	-0.015534027	0.022035874	-0.047796793	-0.023784336	0.07689359	
0.08480194	0.004384802	0.011282048	0.018609194	0.012015132	-0.042098466	-0.045748048	-0.019608848	-0.0011472736	-0.023220295	
-0.04211458	0.03660891	-0.033294287	0.025196891	-0.052267548	0.03784311	0.04084623	0.01678818	0.02489206	-0.033704024	
-0.011816514	0.03608953	-0.009673037	-0.08992537	-0.0074758455	-0.001674996	0.061382577	0.009820118	-0.007905324	0.015797365	
-0.053416904	0.09191541	-0.116058	0.06634745	0.023966217	-0.018927945	0.01279918	0.0138574615	0.026747506	0.06210241	
0.022875745	-0.05726794	-0.077054754	0.022829605	-0.011740899	-0.006423857	-0.102468714	0.08276492	-0.030940654	0.0745525	
-0.0035520454	0.0065589277	-0.09470481	0.00059043936	0.0019014677	0.025121054	-0.004563807	0.052152973	0.0763083	-0.06506445	
0.06984176	-0.12063691	0.0024986684	0.056477312	0.0928447	0.05624745	-0.020551028	-0.025959734	0.10737312	-0.04686596	
0.040684864	-0.07191304	0.024647929	0.06380206	0.044738363	0.02534131	-0.04898777	0.07756408	0.027852694	0.010589396	
-0.039124534	-0.010979419	-0.05742184	-0.012967585	-0.008940838	0.018172476	-0.005400907	-0.03791689	0.0057327957	0.104842365	
-0.026799537	0.035159674	0.07167405	0.009363875	0.05869628	0.1078533	0.003010168	0.047437426	0.029746922	0.04915386	
0.036452297	-0.044179857	-0.03723462	-0.02565872	0.033364158	-0.038783934	0.021555021	-0.014206324	0.07723181	0.06536662	
0.05744584	0.08353746	0.04881404	0.005354582	0.04071739	0.019922944	-0.05885056	-0.005669183	0.0013045301	0.0870936	
-0.047891006	-0.050964326	-0.0920426	-0.007257009	0.018204952	-0.0297381	-0.02631787	0.03781655	0.024461403	0.027445037	
0.008413222	0.08057691	0.01005515	-0.06921734	-0.057307273	0.0009800832	0.06848525	0.061928045	0.0039122105	0.035202254	
0.014186972	0.03118576	-0.088641286	-0.053301193	-0.018882746	-0.04310172	-0.07076678	0.021550344	0.055247903	-0.0579012	
0.028069934	0.036711715	0.03848008	0.05876536	-0.01377518	0.0074104904	-0.028236348	0.020731108	0.0022278368	-0.022172596	
0.059567038	0.06611921	0.023648437	0.058370497	-0.06902402	0.03187473	0.08588736	-0.0011213135	0.027927427	-0.02655022	
0.033742093	0.02783651	-0.029187419	-0.009327663	0.019562056	0.052021876	0.07872214	-0.016952416	-0.022499423	-0.007967025	
-0.03770155	0.01786343	0.0630101	-0.06752987	0.028427998	0.0854886	-0.038313486	-0.091928065	0.032155354	-0.017264508	
-0.034888204	-0.026153905	-0.023290256	0.04048867	0.034986112	0.0063568093	-0.06868275	-0.092339285	-0.05166269	-0.028223919	
-0.013524604	-0.06211473	0.10158974	-0.05503699	-0.014027878	-0.08311735	0.027157106	0.032294303	-0.11219197	-0.038924266	
-0.0126519725	-0.028921468	-0.013717953	-0.02455939	-0.033090487	0.10584258	-0.064299956	0.055882208	0.03480261	0.00894448	
-0.007958148	0.040626578	0.0055519943	-0.061285224	-0.016815275	-0.00059533125	0.061866008	0.036662128	0.05841574	0.05300402	
-6.8264504e-05	0.024278374	-0.09177039	0.03204513	0.07108665	0.05159821	0.045845397	0.023344554	-0.03893137	-0.07275249	
0.025343455	0.002919888	0.05044708	-0.08997276	0.074263096	-0.03118294	0.0075555355	0.02601595	-0.0022855992	-0.06503376	
-0.0303009	-0.021991238	-0.00025309995	-0.059751857	0.07870356	-0.0777387	0.022073464	-0.016589236	0.04670976	0.018567253	
-0.038233437	0.0024991704	-0.030032871	0.04007659	-0.012705203	-0.098993145	-0.024190836	0.061802514	-0.009033731	-0.03779563	
-0.011387478	0.09775064	-2.6322343e-05	-0.011327035	0.007142388	0.09191029	0.07553703	0.02507608	-0.114053644	0.078286104	
-0.014759464	0.016867539	-0.034343645	-0.0395143	-0.084176704	-0.10808984	-0.050258633	0.049678836	0.016901908	0.010587295	
0.026389379	-0.10544537	0.020117477	-0.0057025785	0.021172097	-0.016192447	0.024791148	0.00039539457	0.026462022	-0.09630245	
0.036869798	-0.055278327	-0.042372786	0.025334107	-0.07042024	-0.033184346	0.040183682	-0.045259204	0.03757301	-0.018525051	
-0.0041489042	0.022042336	-0.0701262	-0.0059170374	-0.110101394	-0.061076492	-0.022535585	0.042174812	0.04026567	-0.038234174	
0.07998026	-0.0003646135	0.054546833	-0.030162089	0.014528448	-0.009318612	0.075340405	0.052382894	-0.009171821	0.024407625	
0.024914812	0.004841435	-0.026981208	-0.045048624	0.010884204	-0.020427758	0.019214496	0.03876055	-0.06995681	0.007986977	
0.03689286	0.020672064	-0.027470138	-0.09156057	0.044914216	-0.033544306	-0.06233391	-0.050602283	0.038036477	-0.0294984	
0.00038706983	-0.029193074	-0.11411844	0.0020369634	-0.014639148	0.06314085	0.051812183	0.05868951	-0.0073107053	0.015334736	
-0.07511745	0.030936763	-0.06744326	0.016803412	-0.06666128	-0.0045284946	0.034619253	0.011370757	0.05992573	-0.035093196	
-0.008356735	-0.041192565	0.019529602	-0.05570082	-0.024926515	0.06935284	-0.10387743	-0.0059028515	-0.09547975	0.0133209005	
0.07662767	0.050985944	-0.084640704	-0.0031231486	-0.030555876	0.001319215	-0.012964454	-0.054670464	0.010897757	0.083593585	
0.020972962	-0.09485768	0.014726944	-0.084085375	0.10314758	-0.064460985	-0.10355513	0.029220842	0.07242191	0.0018590163	
-0.0053692083	-0.08762776	-0.09836022	-0.056787778	0.048092697	-0.04845947	-0.03384551	-0.031572614	-0.06942998	-0.06314363	
-0.08880045	0.10088155	-0.0110020125	0.09868869	0.08958692	0.058964994	-0.027929753	0.06740848	-0.04852494	-0.032477435	
0.0130255995	0.021586986	0.10115591	-0.017600358	0.034466445	-0.03937027	-0.010010971	-0.0046420977	0.058626782	-0.047545526	
-0.00083422236	0.029470434	-0.03158046	-0.025108801	0.006698331	0.05490608	-0.051149048	-0.045721818	-0.050171044	0.07238918	
0.08285047	0.025001392	0.061701715	-0.063527174	0.0040786676	-0.019275675	-0.012120647	0.050736614	0.05350414	0.025116917	
0.047872912	0.033176348	-0.041712414	-0.009515215	-0.0010755785	-0.012992601	0.012959769	0.009469006	-0.004728317	-0.05122895	
-0.03611079	-0.05917118	0.032497242	0.015163755	-0.050752055	0.041420743	0.07365909	0.011638989	0.018816276	-0.012437474	
-0.075036034	-0.012093821	0.077344835	-0.04478688	-0.0222302	0.04924646	-0.07583566	-0.025881438	0.05825505	0.007043135	
0.021175794	-0.055416882	-0.038198654	-0.0035531274	-0.076772735	0.018205732	0.027606573	0.053754825	0.025232822	0.01212887	
0.04610282	-0.05716253	0.025198428	0.06151066	-0.011163478	0.013629901	0.073711514	-0.04410694	-0.011313971	-0.023092557	
0.038245775	-0.05667975	-0.008821681	-0.05717433	-0.10791626	-0.024215423	-0.055870675	-0.011171377	-0.011050141	-0.014494165	
-0.034669317	0.0032296702	0.0012278236	0.097089715	-0.009702128	0.08525595	0.007327183	0.104019694	0.010348674	-0.0073288428	
-0.009473395	-0.044489536	0.10449313	0.007862683	-0.090249866	-0.06811247	-0.0484449	0.055606086	0.054641988	0.076423235	
-0.020394564	0.07413607	0.036776457	0.010363868	0.08679701	-0.00032499456	-0.05907399	-0.01976316	-0.02209734	0.03903192	
0.047121692	0.02102422	0.06660421	0.05512242	-0.039706927	-0.02685587	-0.010833667	-0.061497174	0.048430167	-0.03557408	
0.029782662	0.038336832	-0.10113932	0.047905855	0.008784134	-0.051818464	-0.05427021	0.0091874115	-0.029693386	0.00011084426	
-0.03052077	-0.025192475	-0.07280877	-0.046522733	-0.091611095	-0.010489001	0.023800982	-0.080344796	-0.04033986	-0.0043438706	
0.010802728	0.0562678	0.010191727	-0.00024651265	0.04421776	-0.061671503	-0.015432394	0.0014712941	0.04959474	-0.10153207	
-0.08789326	0.014628117	0.003670654	-0.050997116	0.048928164	-0.077974536	0.043837544	0.036213793	0.022892822	-0.031762123	
-0.10561843	0.04208027	-0.10918761	-0.0011160144	-0.0075858585	0.04534754	0.013829969	0.005515435	-0.05612856	0.09844115	
-0.07222123	0.014486306	-0.107039906	0.06945859	-0.043294672	-0.0075337454	0.012511753	-0.011383519	0.046332736	0.019353269	
0.0069033327	0.045475136	-0.010299452	0.0075662266	0.07859617	-0.042790864	-0.06558173	-0.01965519	-0.039723285	-0.04482337	
-0.025378264	0.023543673	-0.01948366	0.021087134	-0.022534091	0.0038457494	-0.03839973	-0.036610488	-0.0787209	-0.04009074	
-0.105077334	0.006329424	-0.049122706	-0.036200125	-0.07245634	0.03123804	-0.062782	-0.011845496	0.0027449469	0.042869497	
-0.023709508	-0.06485034	0.0074119056	-0.006734742	-0.06051784	-0.09766571	0.031388756	-0.012256717	-0.027661722	0.014871131	
-0.08995078	-0.07198151	-0.0037601385	0.07857867	0.01219188	0.062517375	-0.0047353776	-0.016251437	-0.038300812	-0.041182354	
-0.029176816	-0.07000306	-0.0545006	0.011084686	-0.0855742	-0.0054672845	0.004183278	0.039395418	0.060327467	0.008259869	
-0.0018064198	0.060086727	-0.02289861	-0.033913694	-0.07591976	-0.0012478132	0.029159939	-0.057521705	-0.009681383	0.04576868	
0.044734716	-0.007050369	-0.020286871	-0.04295979	-0.0077985455	0.028196689	0.018546106	0.0037070527	0.0058521084	-0.0035224871	
-0.1142727	0.023790784	0.005662956	-0.00044167554	0.018127656	-0.026031198	-0.03543484	0.073369235	-0.04234043	-0.006089309	
0.006607913	-0.061190326	-0.08244107	-0.04446084	0.05387369	-0.047931287	-0.025227023	0.06362717	-0.021704536	0.046787225	
-0.015935864	-0.011554135	0.006160669	0.052912503	0.04589892	-0.020843472	-0.052972753	0.089581616	0.071338676	0.02947939	
0.020563534	-0.007197337	-0.03329134	0.044034768	-0.032720067	0.06676524	-0.0047268663	0.06044483	0.027153825	0.025155306	
-0.047607522	-0.09369699	0.029823469	-0.057154585	-0.04626554	0.027857088	0.022453718	-0.041055303	-0.02088888	0.03499883	
-0.0346264	-0.035868645	-0.034996357	0.0016267061	0.07443128	0.031166434	0.008267075	-0.05987782	0.011570982	-0.072490096	
0.03391588	0.100077115	-0.01785716	-0.059487537	-0.06111557	-0.108679496	-0.044881724	0.024941135	-0.0036995334	-0.11005844	
0.08728834	0.027201766	-0.044615224	-0.028401898	-0.064550176	0.045690168	-0.10697531	0.016242055	-0.011625683	0.013502464	
0.033514477	-0.01636771	-0.005969262	0.037205487	0.024939459	-0.026908994	-0.029782113	0.037035838	0.024392046	-0.060609926	
-0.028840331	-0.034019135	-0.019048927	0.04746414	0.016735734	-0.04101664	0.04216643	0.01480962	0.0991697	0.06813434	
-0.07555531	-0.00029625537	-0.0018312999	-0.030955007	0.099974796	0.05180831	0.060698703	-0.056932103	-1.8839577e-05	0.004876904	
-0.10975932	-0.045199037	-0.021724619	-0.028217142	-0.044638734	0.010020662	-0.030355796	0.03464543	0.03009794	0.007507666	
-0.08728902	0.021768421	0.041467983	0.064445786	0.050824024	0.04822958	0.042414647	0.009911194	0.014516229	-0.033691604	
0.00041566615	0.11092314	0.06555729	0.09198398	0.04803976	0.030295866	-0.01568838	0.017522937	-0.01050045	0.035922367	
-0.051599853	0.019553073	-0.0324882	-0.015904846	0.016931059	0.023146205	-0.020376047	0.05633657	0.07118447	-0.024042059	
0.0055834525	0.0009017705	0.013535821	0.019933011	-0.035840277	0.039314557	-0.027397443	-0.047378138	0.043032262	-0.011447679	
0.05260472	0.051134884	-0.014623379	0.008212212	-0.008293121	-0.035624895	0.078111775	-0.06802153	0.06570621	0.03911898	
0.018762387	0.031137865	-0.053530272	0.082077906	0.0057709487	0.036408674	-0.00610514	-0.020224743	0.039612383	-0.076025754	
-0.033059508	-0.03768915	0.0052496563	-0.03656238	0.038686465	0.020822596	0.06408577	-0.027664792	-0.049121343	0.10761738	
-0.034986027	0.06035602	-0.027017802	0.074930206	0.040405475	0.019185627	-0.040930033	-0.012459972	-0.07798215	0.052667283	
0.031435788	-0.0033024824	0.032796368	-0.03192944	-0.08313671	-0.029170915	0.0371798	0.017462583	-0.05791026	0.019474857	
-0.041360065	-0.10662833	0.08395626	0.040007383	0.053385235	0.024920965	-0.0078064087	0.11354771	-0.060240664	-0.050761994	
0.09522528	-0.091514625	-0.04090498	-0.06322308	-0.036356416	-0.058602184	-0.04597045	0.06864373	0.0068763904	0.015789349	
0.06144826	0.07794998	0.03490842	0.035015594	-0.053083047	-0.022941573	-0.031364635	-0.04231406	-0.017240353	0.04385683	
0.06605661	-0.0008949051	0.082123004	0.032121237	0.015083865	0.049430184	-0.031462234	0.023385199	-0.033372995	-0.079061314	
-0.0025771395	0.03128015	0.016426928	-0.061460976	-0.02127443	0.056869272	-0.02595431	0.0085310275	0.04592316	0.04768316	
-0.038501382	-0.059498187	0.02079417	0.022085939	0.0090542445	-0.06814774	-0.08041137	0.010864609	-0.02198715	-0.054621477	
0.054984413	-0.026287287	-0.008083254	0.024481688	0.07751071	-0.064744264	0.047118373	-0.008583562	-0.046799187	0.08568843	
-0.063988246	-0.006548937	-0.02494859	0.00022323242	0.054138754	-0.0034683854	0.023254933	0.057625767	-0.07260345	-0.043974847	
-0.056801975	-0.068748705	-0.015202026	0.021041801	-0.079777315	-0.078831434	0.08960408	0.05351626	0.072059944	-0.0067012073	
-0.065690294	-0.07065711	0.034998085	0.055133317	0.03251064	0.015297195	-0.10473493	0.09021704	0.023441657	-0.012764514	
-0.048912946	-0.04095003	-0.017392818	0.060978256	0.02345034	0.07670055	0.0031099357	-0.06569383	-0.007816091	-0.05861636	
-0.023868825	-0.00012690511	-0.042859785	0.0035615289	-0.08760139	-0.05458902	0.004872718	0.04928431	-0.040701784	0.09398538	
0.05528775	-0.106542125	-0.0007535049	0.063323036	-0.04602407	-0.06790845	0.0911559	0.098766685	0.058483247	-0.009471255	
0.043029178	-0.023757935	-0.0048078913	0.006221135	0.090227045	0.11183481	-0.084509596	0.042973757	-0.093752004	-0.073042355	
0.09940777	0.07013234	-0.008419058	0.06375128	0.038185667	-0.059584558	-0.016670601	-0.04000275	0.03882133	0.001841796	
-0.022307023	0.0035063562	-0.06583533	0.015684733	0.0054036058	0.04125401	-0.064196736	-0.010935028	-0.014319823	-0.050474953	
***0.1***
--------------------------------------------------
0.0009024707	-0.09072517	0.0059107626	0.046315566	-0.0012214618	0.006737086	-0.00031940296	-0.00826168	-0.0026933218	0.0587515	
-0.022876682	0.006843852	0.045574922	-0.07793668	-0.031092277	-0.007436676	0.01849827	0.013766553	0.079014786	0.053395696	
0.055161458	-0.07387604	-0.030072004	0.055852182	0.050535616	0.04208237	-0.06477568	-0.10909413	0.069481894	-0.062132537	
-0.030236429	0.04776835	-0.055124316	0.032351945	-0.073109545	-0.008928335	-0.048407376	-0.04369037	-0.06434536	-0.023704048	
-0.080023475	0.05188744	0.070146754	0.018516656	-0.041329157	0.019550262	0.02385157	-0.029473986	0.054761603	0.017324163	
0.0036620246	0.03297941	-0.10063511	-0.010177545	-0.027643649	0.041783657	-0.052986886	-0.018718282	-0.017579857	0.085226335	
-0.08362882	0.05493527	0.03565802	0.056755826	0.04671748	0.04318154	-0.03812198	0.104945	-0.031472433	0.06570989	
0.09618123	-0.018584177	0.021491665	0.018112862	-0.047193483	-0.081165925	-0.046791587	-0.04579082	0.029082222	0.01914837	
0.025105642	0.03561281	-0.0038341158	0.08121278	-0.01993954	-0.067577265	0.021740168	0.009159934	0.04159899	-0.00090744166	
-0.014275232	0.042454988	0.00662324	-0.01154738	0.05538532	-0.0499724	0.03812226	-0.0045396523	0.037482247	-0.04114738	
0.07520628	0.010117934	-0.019214183	-0.0020434414	-0.05655265	0.042305022	-0.04310673	0.07713576	-0.041442137	-0.035822526	
-0.050281476	-0.02343245	0.04892008	-0.022021597	-0.0690745	-0.06069391	0.030687204	0.05552446	-0.049806498	-0.03964346	
-0.025787033	-0.043897647	-0.011225993	0.10354207	0.027938426	0.061858132	-0.017875994	-0.03134141	-0.00495992	-0.016436309	
0.02233279	0.043513793	0.034501597	0.023792565	-0.07250199	0.06737184	0.04820319	0.046091314	-0.08916931	-0.041848063	
0.038486972	0.0025547142	0.0024189723	-0.053971704	0.09699734	-0.093656525	0.06469976	-0.049530476	0.060582045	-0.05489588	
-0.040810723	-0.09664006	0.037733942	0.04236634	-0.020751704	-0.03142356	0.03373814	0.052408446	0.033667445	-0.10147974	
-0.075716846	0.04417969	-0.021370994	0.09043187	-0.047503315	-0.035079435	-0.03289308	0.0038742772	0.00903913	0.073583566	
-0.0038813832	0.021026246	-0.010882807	0.037906576	0.00038969464	-0.035162177	-0.07526409	0.0059105125	0.026092872	0.06525821	
-0.024861451	0.027123595	0.0062440448	-0.007071952	-0.049017243	-0.088512905	-0.06228542	0.026371397	-0.001537889	0.003683487	
-0.023990713	0.009960154	0.016981319	-0.077576704	0.062095217	-0.016007941	-0.0067361672	-0.014435578	-0.06524647	-0.0677612	
0.013296831	0.10081024	-0.008367928	-0.03745615	0.019726772	0.012136452	-0.03908587	0.035020802	0.06480513	-0.046084937	
0.046058632	-0.07081137	-0.05684595	0.00077024515	0.04862824	0.005800582	-0.0047955005	-0.060937718	-0.022196416	-0.010548849	
0.04112537	0.09178141	0.028027624	-0.047401007	-0.03130487	0.06746992	-0.022471996	-0.046617888	0.04770298	-0.026808372	
0.013912771	0.03942458	-0.013139416	-0.081586875	-0.04672928	0.07453396	-0.049713966	-0.091458976	0.038515292	-0.043584045	
0.006311517	-0.086476	0.0139785865	0.032215483	0.06098069	0.029960608	0.00040908938	-0.026050534	-0.10407922	-0.057225373	
-0.09838443	-0.008093047	0.085818626	-0.014126898	0.03498889	-0.00037755427	-0.021758892	0.012508509	-0.022473622	0.028158298	
0.040890943	-0.09766956	0.01484608	0.0029703302	0.031876262	0.049966633	-0.0009236528	0.03518676	-0.036501266	0.024829514	
0.057734106	0.044570025	0.011350722	0.020707455	0.036255173	-0.04324384	0.039528742	-0.09616916	-0.004199827	0.07880018	
-0.077776805	0.036629636	-0.04319673	-0.07074213	0.065535516	-0.055986423	-0.0032474673	0.04350816	-0.012485072	0.07620624	
